sample,celltype_0,celltype_1,celltype_2,celltype_3,celltype_4,celltype_5,celltype_6,celltype_7,celltype_8,celltype_9,celltype_10,celltype_11,celltype_12,celltype_13
0,0.010149407098794083,0.6300502836801605,-0.11829763763813889,-0.05837008728673812,-0.22471965240315062,-0.18550057869141715,-0.20228114213933776,0.033255092149690024,0.11092371840447224,0.030856229243017716,-0.12102860710798286,0.11106528143116853,0.11000441515521253,0.09601751386633052
1,0.016119367339263058,-0.41673932785987916,0.17196265357191845,-0.017952768398567628,-0.2249455558838797,-0.059028400843980824,0.09707858083089707,-0.07967236570995952,-0.0613449613036626,0.011779464832852957,0.09691284051589533,0.13657512596804608,0.7265563244121195,-0.13436023763509566
2,0.10617042893508305,-0.36550467237216205,0.055633479830335425,-0.03740658857839067,-0.3544039706808253,-0.12020733715558174,-0.06412185968057994,-0.012324555540145873,-0.027590934207984058,0.07766739059153033,0.013018399006663878,0.2617849497563199,0.35084893502482695,-0.06855410086359592
3,0.12462181028727476,-0.03701506976654345,0.13621798339179375,-0.022364277569300928,-0.2507253846572885,-0.06954581493261874,-0.051143167585458185,-0.063888510081615,0.023308365635596268,0.03574520176406618,0.0836548775533665,0.12984827168478236,-0.036446190758257446,-0.08230559671484308
4,0.050184613242121145,0.30390918588268223,0.028514559561710562,-0.028977069679496353,-0.25000098873837634,-0.1301195444402768,0.04030806763351985,0.012794186715430422,-0.02357384442453589,-0.029802939390391234,0.008719558274757414,-0.04053403958710167,0.11387777538292694,-0.010342790289681394
5,0.023203997023173356,-0.8788382362803063,0.15769356278050145,-0.008173500664967803,-0.2094617603726772,-0.07517445131625802,-0.026243934251135186,-0.03035787984550744,-0.01920283284475234,-0.00340787747593585,-0.020431037442668276,0.2253322073978308,0.3253024657336685,-0.03739455602716901
6,0.12204974846512898,-0.8340473854955758,0.00863837125520961,-0.038930212203821174,-0.31143580343118843,-0.09867121253120201,0.027533163199218034,-0.05988529355393331,-0.09872369622199197,-0.031117027422165558,-0.04262712734464395,0.01944900049097759,0.07027924244827406,-0.06205877263240871
7,-0.0339990035590326,0.2850917272711247,0.185188281029902,-0.005109510320284057,-0.15717923058821348,-0.07728993537963519,0.004914709923717044,0.024142365313909314,0.05702291594363991,0.015532563728717442,0.06442095693087183,0.093450427273576,-0.6094272872687476,-0.05151539020921358
8,0.0026063563124368305,0.056812465196589314,0.1813018363275758,-0.006051135379789276,-0.23381404404045275,-0.12176497192673728,0.06094851528408648,-0.034259781693797356,0.054624569658302424,0.10287360731127496,-0.00911872790536016,0.2724326648251791,-0.2995518498641659,-0.04898696211131218
9,0.0010575531715952824,0.5751854536177039,0.05097946954468585,-0.036752103142908304,-0.3074081298470359,-0.09761847729508875,-0.028790531638086828,0.005011837130992222,0.05686454534854738,-0.18235043344179347,-0.12926408202696021,-0.035612305461298406,-0.2749508768823688,-0.12167657411518044
10,-0.04231202054337499,-0.41942704523013463,0.17296260881215486,0.003072533311471483,-0.4133299880525473,-0.12206739442338468,-0.0531772621615121,-0.04096063661782918,0.0020956979178578944,0.17493370595017277,0.017681464397559382,0.25821598834862625,0.6435482139437925,-0.08858537709816697
11,-0.023914522776896763,0.9055756243545461,0.003508495425242314,-0.042185897444519616,-0.5268534165740968,-0.09650990424979605,0.0169336462390629,-0.03496084052193854,0.022844527574250637,0.2354583261695638,0.11285722182179023,0.1129293892510455,0.20623525195763706,-0.11049280563043863
12,-0.06007668620501899,0.3362446345866702,-0.003120553040147578,-0.019085172683654537,-0.32555304193800677,-0.15457986870822696,0.03132914670478075,-0.0032293002181922464,-0.07948285115421418,0.15063980569697297,0.053054802601124884,0.07785353612857682,0.2102298238700701,0.032796210412952956
13,0.05298437752911478,0.10399678251461325,-0.08046742223346579,0.00825979077614871,-0.28644303013689726,-0.10682914705880066,0.01750596594222416,-0.05750155376132639,0.04060928303233152,0.17496212502656394,-0.136727622739682,0.14597697564336798,0.3265403927992605,-0.03150551945159864
14,0.0026055306976474624,0.17785773122325033,-0.1939011634460392,-0.023813588836435768,-0.16713291593990362,-0.07910474462363211,0.11572157202299181,-0.03948676922499813,-0.014401809175756161,0.13090623624663744,-0.11495577669521981,0.15864483246938238,0.08218537136301032,0.057296207122265665
15,0.08509763484230748,0.4441657998458387,0.08896462624723125,-0.03400671425787903,-0.3353503766606385,-0.12143881548266267,-0.02542720844287935,-0.019889913897744846,-0.021810763651893106,0.0008322584327353985,-0.0897592690277113,0.22257083975430025,-0.048769590238424365,-0.07751909193236745
16,0.04115955724045223,0.5691408397604367,0.13858604989075934,-0.019741743072763756,-0.3161367457824962,-0.10495792966079204,-0.11267826118269378,-0.02580649714141553,0.004249903028592877,-0.10675517421221302,-0.058092344661962364,0.22975039033402683,0.15320483644988916,-0.1269178387921363
17,-0.0009364913727154534,-0.5048070837430493,-0.01784749428042892,-0.016014976673754882,-0.18818368417265435,-0.02893507289007291,-0.01712000230680144,0.013940811272403916,0.10740159408172287,-0.07675066321082577,0.10561884173815675,0.053006873434427185,0.053499470123783435,-0.022467896921618637
18,0.07464947747042788,0.3527757041852804,0.08243397346121181,-0.010266672948487921,-0.2718863907069333,-0.1442303003304758,-0.0002362933995829486,-0.06571028239875594,-0.05348370375427616,0.13678531952920192,-0.07180866121994453,0.3667013292934115,0.04868688151936759,-0.10366423264275629
19,0.033060651826729626,0.6384175640126949,-0.0561176766644545,0.018800424071290775,-0.24961873060122353,-0.1186614681515342,-0.04583425460745033,-0.0123801776384308,0.0032057851212816194,-0.11646214972087918,0.055260835915846324,0.18589866672340993,0.029529238808446587,-0.062026776945867314
20,-0.0017453050529477876,0.6959703175681105,-0.08770277305325319,-0.027375010882449258,-0.23563133649739576,-0.17191535289036067,0.009320555791883428,-0.011316886836276505,-0.07260891919671239,-0.035713229612142856,-0.04537886317642115,0.09628937174169938,-0.0024592933634002834,-0.06696638788245782
21,0.06852951993090628,0.26684763184731575,0.06741033950009104,-0.06508134656310342,-0.24192711695715838,-0.04578409885184513,0.09301726006105916,-0.03883958801610354,0.04164368423327153,-0.0047306462168542895,-0.0830935433768185,0.21165986180571572,-0.33719185706002347,-0.014835522022499152
22,0.0950086722525037,0.3217710978538416,0.14255040243804262,0.017284080057663104,-0.18746483027367553,-0.08060931815118078,0.13310665866835406,-0.02123308718103783,-0.015416795802705385,-0.08028302589516939,0.04802206948213905,0.07368677369073998,-0.42487306766957933,-0.000436722141164865
23,0.07962524885112349,0.5278199113591746,0.1328736232462151,-0.042283515730188015,-0.36660731236444466,-0.15728641763169252,0.11879156262936792,-0.03775783997569986,-0.07312943872609609,0.03984281936981543,-0.17039986213426445,0.07424104648866496,-0.24234055978882485,-0.06033974486967224
24,-0.006615078629888027,0.5799230911059499,0.3290537419398258,-0.013233922724646338,-0.12169988066264689,-0.14042832857985083,-0.0850440050591649,-0.02347833092003806,0.056878219994333595,-0.04470165392811989,-0.08746486607932948,-0.23723871481426884,0.2704693547682665,-0.08559574989518302
25,0.028964641339822406,-0.1108116090490795,0.06487702651239907,-0.029262274759984837,-0.36901271614910175,-0.08918288867552521,-0.02038878658569348,-0.04966544050782007,-0.004425262125653889,-0.02691172813495036,-0.0973785375906723,0.13973908292716455,0.14100737575542416,-0.08081916297131284
26,-0.030204451020929834,0.1621166980728726,-0.23289883929843655,-0.017012226079102803,-0.274036247377193,-0.030223152672440225,0.04684101162487825,-0.04425493237862578,0.021427901120052537,-0.02758733312531108,-0.016355390303116293,0.13255640772809427,0.2545644941888951,-0.05502586403803332
27,-0.043894554208507464,-0.3699864593225438,-0.2366798092968593,0.024054748437820128,-0.3064751623033013,-0.09334832167403223,-0.00047537542386094644,-0.05825020381098009,-0.014035652081334976,0.10956510232510608,0.0072902781408457976,0.151930140219818,0.36276850969146934,-0.08542809210607212
28,0.018417001048906978,-1.1787159706914032,-0.06475212704304494,0.0015066210729801199,-0.2936976626846713,-0.12540924482026403,0.0698540075027042,0.0008706184348916957,-0.07301866836254882,-0.042956073596208545,-0.06125381493136289,0.1491334735626149,0.44028203455564285,-0.029862808665058745
29,-0.01975494945807127,-1.2387074628008028,-0.39655670884757627,-0.052270827847817725,-0.26804947389985334,-0.04878656150591294,-0.06089251282324195,-0.07840560381420764,0.08521051533933303,0.03424858485872831,-0.02108391191779989,0.1164206992289724,0.3612389021834011,-0.07017727666904314
30,-0.04229796912727146,-1.2298672259432837,-0.27857206427123804,-0.0578481050201011,-0.3319555295503653,-0.09234002917671444,-0.019889281381311887,-0.056154446188786705,0.1278491422402911,-0.05119581235214292,-0.06991750264101741,0.246590595013581,0.17944319532472452,-0.10829512121557698
31,-0.04278232071117388,-0.3888649562249684,-0.35819495612393326,-0.04259624168282894,-0.3262409949244235,-0.14025014221059473,-0.018675518303294787,-0.037833672520046255,0.07036568842718888,0.05892234264470736,0.014624508123264088,0.11753306979562284,-0.0013718666595105011,-0.09221191081772803
32,0.06208462772057538,-0.19014667954077286,-0.18904876664277548,-0.0381322576268035,-0.2080082300968804,-0.09797478168833004,-0.002906665604946325,0.001395368426956367,0.04173807945691216,-0.11958843986591591,-0.05665268295019246,0.20568245227264248,-0.05477137506739682,-0.013836479762209714
33,-0.0036716488626366006,-0.5700401027696838,-0.33911938401166525,-0.0053975900586060895,-0.3013876670381009,-0.1595543100655755,-0.005197300585298249,-0.005321388763542587,-0.04294175472312735,0.055549004376704667,-0.06427274987370682,0.15259214632329582,-0.6625520555481738,-0.1143204551464225
34,0.017743506665526376,-0.3638816908713034,-0.32520950239870466,-0.003841204381237558,-0.22671468714876827,-0.17347319296816843,-0.03559643641788919,-0.02918855854034541,-0.0266902016036024,-0.03181310393311222,-0.056385078853467545,0.19374491961797513,-0.7162415795037259,-0.12472479861444588
35,0.06689907324007549,-0.1584748062093863,-0.15940337035272895,-0.05936554741357858,-0.24187130008787155,-0.0842400941545029,0.008822679083922603,0.0009126357517523637,-0.04831436994053068,0.047386362351181786,0.19006990836884036,-0.1171002921324942,-1.1824143194172883,-0.03444750541739565
36,-0.0037853731054721673,0.8304886298408313,-0.3316099051378516,0.012941489320758805,-0.30075609771971024,-0.1477643698054744,0.06716627271616311,-0.03145767636296139,-0.025698144609125825,-0.05991037737442345,-0.04769820553901451,0.13054786685176473,0.19675874104360505,-0.05650156433091416
37,0.02393794540412586,0.06577451558610731,0.006743702405840046,-0.03516994969331601,-0.1645209057293178,-0.09716558858155705,0.1887567346591168,-0.017540299293385644,0.05686508791285448,0.031731900004904494,-0.035155507084768695,0.056179300110907014,-0.13803792968322956,-0.1439043367125555
38,0.09975026503420081,-0.49370095428803357,-0.16717529148363464,-0.03869939209857358,-0.1693660924217286,-0.13534907605004648,0.011565760427997285,-0.01149561453407913,0.020747455474892373,-0.11651924003039363,0.11507938354158916,0.34212998283250695,0.11936518995451037,-0.08265323766422766
39,0.12698314465600571,-0.0567191142022975,-0.025075583077881547,-0.028926985250357067,-0.11096166271828756,0.0028406431025324724,0.04189514550027854,0.007822442866877583,-0.01676983127734278,0.01940379730356845,0.18882601481025535,0.05549979463818011,0.08291449738045052,-0.020039766171301345
40,-0.01715322058421037,0.10913837586894476,-0.004945363394217389,-0.04280825825900952,-0.26856730512963384,-0.20531360522320008,0.07751021541670952,-0.04992966994553375,-0.018711341297374923,0.011308120714069975,-0.06488819890029773,0.003826519935109657,1.4174900139448767,-0.08816325663576685
41,0.05055109990389206,-0.25921458370325784,-0.015887870385751388,-0.008799729800885274,-0.25983846137867084,-0.09820485723753837,-0.11021065090186147,0.009457282144018128,0.019189038642481004,-0.09387994723111198,0.08242468805618355,0.2580970700907481,-0.028836813189673682,-0.1436685360372102
42,0.11763661249921459,0.7610670954410115,0.07156231551429784,-0.03929682836219801,-0.2670950217252551,-0.14948018914975905,0.008329402252543743,-0.08276697288001425,0.017566279863575618,0.09329330045590864,0.08791004824249762,0.06840627505027015,0.00693100458275657,-0.08107134633546825
43,0.04012482086673852,0.5499686713088574,0.11952545672717713,-0.07435976175489875,-0.24873379840734733,-0.09177389562385876,-0.06647475944723628,0.032910019656407566,-0.001782804632269895,-0.05387263111216571,0.06998737151772028,-0.15985125463852443,-0.22824804532612186,-0.06427065772141398
44,0.15993638579086314,1.1509618187819393,0.05622091309751559,0.016961728615330754,-0.21905300592584934,-0.11374446257849631,0.023935958926179647,-0.03589512440245845,0.03250492021986395,-0.12454322587115602,0.11886666200736035,0.10792778066619324,-0.6384557062473938,-0.14321456179846317
45,0.2125067959706809,1.3260730826434037,0.18190235942347388,-0.012586086154677607,-0.1868072675243162,-0.19254205698839433,0.005966558781350176,0.0360353470020668,0.06017223929426725,0.0005019038910859495,0.11473367271674456,0.06649543699275431,-0.38295864670862767,-0.13801448778175962
46,0.2312700334160818,1.242683131925942,0.10113157657748639,-0.025763014620758213,-0.4150258955930702,0.0038692939450829175,-0.05210307932976516,-0.001855231883900063,0.18374497476648033,-0.0806262488766428,0.13495782476095192,0.1768481791333539,0.3998948808950723,-0.058463189216552705
47,0.12260353998893703,1.134224874940163,0.10763394644964386,-0.044403556996799425,-0.34179972961485655,-0.10069915679851824,0.023140372973075272,-0.003728371765040858,0.050190883028349606,-0.019927053993121696,0.15136284393415617,0.15705537348245208,0.8190307912747292,-0.09909320267509132
48,0.02972409650631258,-0.5918674333764375,0.07975199095670288,-0.004471785716054107,-0.20674916857486197,-0.11090602532970528,-0.1194175579738684,-0.02063960751191657,-0.09775751353716376,-0.005103460960140999,-0.0493498872576674,0.3458259021436261,-0.1465607390976717,-0.07049419189487703
49,0.01704302189027862,-1.338161031279796,0.08382587603500721,-0.03539769495239037,-0.23720241076322265,-0.09533852063994078,-0.0741968579216222,-0.027703325957946792,-0.01417738594979702,-0.03520209600069493,0.062897215619476,0.5170240250308353,-0.02281855990624812,-0.05889772703108791
50,0.01261862581280343,-0.4479723715676094,0.14120543640454286,0.02808143280935184,-0.31721092520989574,-0.10479778841394596,0.02000876449987664,-0.011444644681739002,0.01682092783098757,0.07447281628128793,-0.12872420171096022,0.08567956655581654,-0.18685236847522704,-0.06147142848137386
51,0.09521255558318886,-0.1611747786509219,0.0960600077182471,-0.0271783241491773,-0.2551735552912981,-0.04023344651679513,-0.04511691909438092,0.014910064824979183,0.017800120068318936,0.013905038434699354,0.060215179735291946,0.181248820532204,-0.047077519091253406,-0.0510772838805758
52,-0.0326467799134319,-0.47800317719169405,0.1076452264173482,-0.0580376623417727,-0.24052966471327028,-0.09299094300351561,0.06520151722897535,-0.08439704154893152,0.08355855389956429,-0.044096047462055525,-0.04274251594656163,0.16313585702108607,0.20904805263852383,-0.07842886626704038
53,-0.03972654508833906,-0.83819992055734,0.07903485374570182,-0.043916815040047685,-0.31929689765611474,-0.05691561149425614,0.004039736204091829,-0.03478901791152094,0.010091984325838077,-0.1269760339720572,-0.025638039625025484,0.07927568317207917,0.4349080669181931,-0.057128079808670226
54,-0.024852342691088047,-0.6364318459790042,0.03940496365985294,-0.02976040241583584,-0.34509909380301274,-0.07566646650316733,-0.006249529851916583,-0.056095610005437696,-0.016561363684322566,-0.1119513882389512,-0.050194258352307675,0.13427765221197407,0.7672631598812313,-0.04745171099688525
55,-0.09397461678973743,-0.0465037046320594,0.07392194887809961,-0.006358888613146058,-0.15319835187919606,-0.11831221992116134,-0.048399027808313656,-0.017638430612405186,0.0414003939534644,0.04093817832320884,-0.018439880474112935,0.20032584321962996,0.41798286746262964,-0.08916680947538355
56,0.12773485282201585,-0.2319064819025186,0.08954683192050153,-0.020640049316148306,-0.3625572610166095,-0.1829831240763506,-0.040449542325780824,-0.025926826385624865,-0.085991162166717,-0.07903963978194971,0.0129281656891638,0.10736005628505872,0.17767371080795535,-0.10574142101952866
57,-0.008731394505142348,0.09645912507133961,0.10243831550743271,-0.09381310926835122,-0.26599355533769026,-0.13413651406572072,0.002458076212940868,-0.08518676609131279,0.014836596049011108,0.099166956382084,-0.014398251501695339,0.31431586722901694,-0.057458721978543376,-0.06559349892988942
58,-0.03961161815618816,-0.15131417684744702,0.1270817806530808,-0.0610748901667308,-0.282830734758365,-0.14841810394168797,-0.0705351087846163,-0.01637179164446942,0.063158965516572,0.027602969713073397,-0.018929395053401077,0.19734954957482542,0.037502017660692326,-0.004485350827511756
59,0.037431737469033555,-0.20196486303597963,0.09966551806459589,0.015897667327222243,-0.27251425938719936,-0.1763359869239889,0.02370532047880959,0.024291415764407603,-0.061248602315591705,-0.11584277831973672,0.02588858418763649,0.028018557333930744,0.27828664828267174,-0.10727751792245602
60,0.05243626911168214,0.2891219096683695,0.10273362035739061,-0.017743181766687464,-0.26872538567011284,-0.1549259420347194,0.05490389432652277,0.006948927358525689,-0.02652736276075998,0.01580255677646307,0.03024575632705069,0.16019236604367337,-0.10395107890621577,-0.039862191064874083
61,-0.020613306673134157,-0.05603348190081539,0.13985950357470342,-0.04487562364395417,-0.28485889167255957,-0.17307561392189558,-0.07822056057172921,-0.019176376842479914,0.004094745970186803,-0.057418970102223965,-0.007012714313954921,-0.015707020884440055,-0.20392974758432894,-0.013119910934282192
62,0.024018684791131673,-0.14614172962205238,0.17067350006739562,-0.01589668434897774,-0.201468564280108,-0.1398114311039359,0.029595237820063104,-0.015498482307121142,-0.05217826010577359,-0.1138314303916135,-0.09250480745436496,0.11327075565696973,0.2351183230060711,-0.005986707887824516
63,-0.03219644585712644,0.04696683465100693,0.15724278901356586,-0.01792334239827237,-0.27950533763447244,-0.18868937845779263,0.06490817987088138,-0.03979000458210142,-0.09666958521160449,-0.08364835997352542,-0.10285356097879614,0.23126767253151875,0.09133944352883314,0.013969156350385217
64,-0.11038100777442134,-0.31431088351329767,0.11122670180649133,0.0069851697532701505,-0.18600973764126993,-0.11096982148321284,-0.00847668482286111,0.0175108054939567,-0.04198170641205874,0.07968968413686198,0.016216845668418797,0.2309615988230061,-0.33070859075802467,-0.1005068847683965
65,0.1493468731607363,-0.4057324998163315,0.05503961946743932,-0.045587177508572246,-0.3049341829266798,-0.09329395991449314,-0.05293912111516791,-0.08950106635490142,-0.022914700606187166,-0.10558421814170396,-0.023630214381058473,-0.015122934677373183,-0.11136153031556731,-0.05253647631532017
66,-0.06542003534766613,-0.06215138801896736,0.06687812973055843,0.015158449653257364,-0.22624368207060053,-0.15675617966273553,-0.0012613054234587653,0.018529542917731845,0.06592420850154386,0.0029383069982697532,0.08559084925447757,0.057937411535486365,-0.11521268248659408,-0.08392178993090207
67,-0.07247643938899867,0.03819511686701682,0.061739465617416056,0.013017629092135719,-0.20189310018555484,-0.1642167203163476,-0.0150434045032715,0.008651658892891295,0.08287181609355344,0.020792105391749527,0.13335346651112362,0.08298813914051768,-0.14312386253429712,-0.07542569053282715
68,0.12708667444451766,0.381483003954316,-0.008549128388837979,-0.06144080911411491,-0.21076435833257207,-0.10385122217739326,-0.11387990711253823,-0.05381444358245439,-0.07661200956287283,0.010391890377358576,0.014865308720277526,-0.05972819202433245,0.2810137207452305,-0.028312152426632348
69,0.07968931246956865,0.3668378748150667,0.03530760219132023,0.020833878749998726,-0.23510185236205472,-0.14193566015536022,0.06420826258046634,-0.03322997271514288,0.015270886482448537,0.08370726148128087,0.1827691187975508,0.10041259215152977,0.344859681318964,-0.11473183833004172
70,0.05954410612721456,0.03371488542406498,0.037873404235291286,-0.07798199985215355,-0.1086642867387353,-0.09684563712759599,-0.08099205112515945,-0.027386889132089344,-0.11253003432149365,0.08380295889352346,0.13277118757710998,-0.0541067479445034,0.4127697361931557,-0.11227221649865393
71,-0.009612564701400261,-0.413414482627394,-0.038799567697737014,-0.025772729378923383,-0.25673058383715175,-0.12090829880494203,0.01205066673233332,-0.02664521321841922,0.07484186558616993,-0.07671177455030914,-0.028251834134922355,0.07604948117897972,0.625391682540497,-0.06732889675880903
72,0.0595650863408696,-0.2643700515125517,0.06364043473391442,-0.035566325699171855,-0.17892549981486364,-0.17371005921292754,0.07295867512568757,-0.012326120660599488,0.015835459648017317,-0.05114895297363316,-0.016024484137118836,0.1964535896211526,0.7069501292093175,-0.03136621993685038
73,0.016241532884797794,0.012545801801135459,-0.04375874850190006,0.0005062606432408836,-0.2837313150608165,-0.10741039459571225,0.03603714718205714,0.015169201022570161,0.09479292218765001,0.08093589316037084,0.0040215788581689366,0.13527560669143973,-0.3463096955565804,-0.10424070310850746
74,0.11703823486620463,-0.5000246978039611,0.15083177326442945,-0.06214783716980338,-0.2458542248352935,-0.1294233266791182,-0.2052883185932204,-0.061150879438756314,-0.113387726692789,-0.09937511950518962,0.04318263871889212,0.1867595146180414,0.07023324977159376,0.012280636737588623
75,-0.015660609677583426,0.04508325701224755,-0.058595954879146706,-0.007275346060428122,-0.20104627349137144,-0.07940829211063449,-0.03551415613005322,0.015071790481586272,0.14859310508007548,0.020918917856922563,-0.04423207192268004,-0.23040097119388353,-0.16608786092926964,-0.10478646304598085
76,0.0567607831100147,-0.30142882479907845,-0.08682906500027679,-0.03908788992679919,-0.27824902782570193,-0.1090305146113446,0.023771959576025382,-0.023264449498732395,0.004398972362338882,-0.08918102765499702,0.10257487600128644,0.14927747415734788,0.03135551076251533,-0.0491344587075404
77,-0.06474988139978999,0.4193019001501349,-0.02070525446331345,0.008208216802675947,-0.21326181687515885,-0.03535335558232905,-0.060088468410288295,0.0025724260886619693,-0.0021957785618672288,-0.09060005171365658,-0.08024498435975042,0.014334315388090907,0.0666798774975867,-0.07447764863250288
78,0.021322055689376784,-0.024755180612062194,0.005051486274474715,-0.0321520302434729,-0.32155066659979376,-0.11422412958615139,0.013323871373804436,-0.038459219723556246,0.01682759247378493,-0.20948084041192638,-0.03461423142963366,0.03585089930814511,0.18212806073946508,-0.0015392959773242315
79,0.017430225091662088,-0.23138446096291126,0.10259072319478463,-0.017617924985124878,-0.19027266947522586,-0.09065024579211893,0.07441704401776378,0.0035360819807991883,-0.06479006459274816,0.024839176265287765,0.05936670822060537,0.1805633539529584,0.3666883679459942,-0.05310364447131559
80,-0.04492966539409221,0.15688323797955284,-0.019957870672669215,-0.018014809187444303,-0.2491727226521113,-0.10661748645109181,-0.06467141192106007,-0.020373846543197925,0.06589391749504944,-0.08818941854426715,0.08705054835478998,0.12578270807990086,0.19508607865835223,-0.013822293117078948
81,0.12732277214746887,1.6181705268880666,0.06286212026654928,-0.03501546884151363,-0.2511814294019159,-0.08687063666256009,0.03164725294910329,-0.021435809811124827,-0.06370490215659527,-0.11361661392023029,-0.015308103362959423,0.08435574873767558,0.05794719738491743,-0.10133003944830041
82,0.07410558617753449,0.9920240641816155,0.05986814616228506,-0.00997548422530126,-0.2603253623851184,-0.11844939716055691,0.01091437234405655,-0.061906072784373725,0.03586738896642289,0.049837777291004075,0.009184032676407779,0.18677115082032955,0.5105335133686946,-0.014389803268803097
83,0.02458288045155682,0.5580018772308507,0.06310411212429798,0.005111708068400066,-0.06348251389792048,-0.048978574790072074,0.06128832224457755,0.001474075756940224,-0.05523274449530277,-0.07738621593794016,-0.028852625827280275,0.26994224129902283,0.479203996010258,-0.03654370261365769
84,0.048266326576571594,-0.032086878898555216,-0.03700341525194989,-0.05371093574194044,-0.11736615475051304,-0.1605685618360963,-0.06581768547388261,-0.052169923361653374,0.11023490005128261,0.02823241032794471,0.04741615852704305,0.05421780246647268,1.0121402950643157,-0.08547898385311661
85,0.06101397570686537,0.015293672182108864,-0.02594729321979561,0.0070353035657479135,-0.08529735345314177,-0.03390507266459576,0.08398286436369044,-0.003636037955840138,0.0850322975648824,-0.04227875867809569,0.03129541038035846,-0.24673217062303177,1.211789255299093,-0.055533056237835415
86,0.03842010404750065,-0.5230748866171374,0.025761644934748307,-0.06259052376076171,-0.2324435296781542,-0.06002715330297767,-0.055249691251085684,-0.06164149373119494,-0.09816739418549453,-0.0705665818921268,0.12730429273471058,-0.2754239804061906,0.5789013518739357,-0.0469678957439007
87,0.09547661303267851,-0.6294804221684717,0.009445425313527767,-0.04124771137620689,-0.09417218175500079,-0.08813102842456362,0.01254536520816069,-0.07406617525312205,-0.14978040040781135,-0.09883276715835002,0.10272018353928025,-0.3245809150521828,0.2017426173725142,-0.03134690081891795
88,-0.08762413681592113,-0.48307719370447033,0.16426343265759574,0.002199155386569356,-0.3682868300457996,-0.13005865849109535,-0.21531327876231102,0.02594363949927274,0.057921218014450604,0.008176887482295697,-0.06427551254295358,-0.14875966406490107,0.3024354393564783,-0.05386513958159084
89,0.054277121902201186,-0.44447934905285696,0.06399301761367768,-0.04539323767604758,-0.2466234688092022,-0.13776698991409464,0.0308615487793247,-0.059229230217437784,-0.01044244790016853,-0.05906298368006216,0.036490258012627445,-0.16243780813093128,-0.8330973500061187,-0.12232753323703019
90,-0.05017376107980373,-0.5270751611531193,0.050296242400311664,0.022304808671749065,-0.2166523414593043,-0.22777463029918216,-0.0058253336103299205,-0.04385927822545711,0.04672939445475732,0.09204366928135727,-0.03415907453464792,-0.04389018269056884,0.45174195690277935,-0.029984629216949672
91,0.018082622278946248,-0.32833606793692716,0.12216349500481577,-0.014499752312534059,-0.3172069846818568,-0.06801725377400586,0.004089245672171053,0.003917503488044288,0.016092407452112198,-0.04767238514748014,-0.0023963051856603773,0.23115938601068692,-0.26517223457888156,-0.0642730416694604
92,0.07288353103683975,0.11621882962379351,0.02753142735179176,-0.0102148107124612,-0.19161202599023072,-0.10108019335963034,-0.029429564394030217,-0.07147914243449566,0.030282029201843863,-0.005449763786748198,0.044835460830968385,0.05975974176238935,-0.06722394340811802,-0.06579950415499788
93,0.06977221693820762,0.0688556056821118,0.028653621587195532,0.010603221741057054,-0.17979852405438854,-0.11896075905706033,-0.09924918580103806,-0.055376151902831766,-0.04635109227900584,-0.07374706716253498,-0.00191672024770409,0.15795293134875402,0.4855533484686761,-0.06217920599841582
94,0.06869654016117549,0.010049707988259916,-0.002864625784588515,-0.059770875515983715,-0.2973039479167304,-0.12429809758620727,0.034215248356379825,0.026387800392016762,0.042988731848752605,0.07819256832484103,0.07605583179484122,0.3313042755164364,0.8094835238459842,-0.0262658657450605
95,0.061869948230014876,0.2842767847041212,0.07783775897424045,0.00729686659181001,-0.19300600855297767,-0.09797527849027783,-0.013231992348744046,-0.06894464713834197,-0.030586477193241673,-0.1100398472077235,-0.03219861567057461,0.20462807171511502,0.9560601514801599,-0.0835800906708538
96,0.03772414522359335,-0.5176004307947015,0.06624382946347296,-0.05046678959538153,-0.32682000254473254,-0.05612790350135661,0.29648228964250334,0.008203178334805994,-0.030841956838192006,-0.015161393829462105,-0.03275071496062601,-0.2254236712021651,0.1393386999389878,-0.05761509690723142
97,0.031021113574475734,-0.16349334390887216,0.03632946319601807,-0.05373209515777829,-0.3035746964370234,-0.07532968599402001,0.21895092078342782,-0.0032736636161838223,-0.03237455417626184,-0.04031040545019254,-0.047373497971691235,-0.11531854850874507,0.11502547747395342,-0.038677608763593045
98,0.055716832955785,-0.3833888031102586,-0.08604220142552152,-0.06289717955684815,-0.2501717878096364,-0.058492177285897624,0.12494518950451124,-0.01984396923869526,-0.05972695430843375,-0.13241247188481803,-0.05217527821672029,0.1396358900273101,0.13422982151888524,-0.017955283378527528
99,0.023530744788291535,0.6640402381505863,0.03800608172528469,0.028032136910014136,-0.22404015881662356,-0.06323733066664927,-0.010455170779052697,-0.04987512286023431,0.03165321516694282,0.10804065309181625,-0.048023983010886645,0.3739602315151048,0.07103107394020516,-0.1263154548243809
100,0.042172906322779063,0.05392009553789995,0.13897116683881408,-0.052847547459775726,-0.43266213940427584,-0.12986200060629155,-0.06651731750772938,0.03949980973343954,0.018463164705555826,-0.11117795805300856,0.08104313113905268,0.14293726346333163,-0.05506676804784286,-0.02027072752812435
101,0.10131009469986799,-0.25339948856521644,0.04833865809675336,0.009960716003336843,-0.3024647009128675,0.011172540852693466,0.09951468567685398,-0.011726297050522375,-0.02192871775382492,0.04807396924235736,-0.14004907466522426,0.11681934312812488,-0.2430349957103923,-0.12754442904548818
102,0.032453966509367216,-0.017444420711267616,0.10535378855180821,0.028639643988488277,-0.3464385403330767,-0.02832613143646625,0.13633245597651425,-0.014401502211513213,-0.056985677267824206,0.03098398045746166,-0.07410661070789482,0.3331559900823057,0.5455539572131782,-0.03787262116039221
103,0.030441287308054676,-0.34196618271995444,0.10007893304248358,0.019462795990818287,-0.3855382825414741,-0.05474648681142983,0.05892218996288237,-0.007936642781890893,-0.008466547168546695,0.09219770179006857,0.0430017049632616,0.1753243028522683,0.4998543641462056,-0.04705398618967465
104,0.07949764673026127,0.35844470807391876,0.043131268588865346,-0.05884269044159208,-0.2132450908719844,-0.13119211642134537,0.026328511874148364,-0.06998912020687961,0.039172606374669836,-0.2763347893566954,-0.07801389007516893,0.09980856553258691,0.4988819902565055,-0.04161236963579317
105,0.07331065081279955,-0.14512866420344836,0.20607921212896896,0.011872464835227452,-0.40701332567296883,-0.15044911057080496,-0.07710178985797893,-0.04896130402686456,-0.005067981297926835,-0.10130430828983082,0.05691487348102864,0.1011461505576789,0.33626579423319425,-0.13918766251944623
106,0.05449723228728823,-0.44437371578027723,0.08275724921024372,-0.02143784024322108,-0.296192703439967,-0.14334622274802988,0.08466762094035815,-0.020722340541376838,-0.02926707335931744,-0.2794017056557016,0.03253925787437083,0.22913605422590547,0.428096813977069,-0.026517521687780293
107,0.06504229546565038,-0.5231194213138296,0.0025487125467330007,-0.0018365526384499665,-0.31995255022582136,-0.1056412783732661,-0.04781312342741442,-0.01657293112115614,0.02305880253712203,-0.003878481533715842,0.01606823158669137,0.16149981691932508,0.282947777445163,-0.040758109131054716
108,0.11463907432095277,-0.29550015770367294,0.11655146079547096,-0.06503313069574279,-0.36023761947948796,-0.05490096402788282,0.32541064839364137,-0.05969221774621018,0.026084378998737015,-0.09300367254933488,0.10019085148964614,0.061434529124440675,-0.19998586745724042,-0.08109856535467111
109,-0.0040022559519830025,-0.11989969838832498,0.05383646748352022,-0.029436765740491592,-0.23922644620857444,-0.19131066670718058,0.18323652798488355,0.004892327950485914,-0.03869213412692221,-0.002483449569489607,0.007618339932768517,0.12159159725827805,-0.057385968763094486,-0.06663314383889643
110,0.0992060383275215,0.24250221035629616,0.10044334211394187,0.02034781554100685,-0.324506681663689,-0.07106605596276862,0.2894998912424508,-0.018009955712295245,0.007042842724157991,-0.06618029398678119,-0.09252065405615091,0.014830899479725657,-0.043111838539301284,-0.07240860654126828
111,0.051339172447264714,0.14479483902152684,0.04478144098076958,-0.07376073620041977,-0.3566464148034299,-0.11960963398994129,0.28149385259930526,0.009295353448439264,-0.07060992169949547,-0.13069179044427276,-0.06563037506955866,0.28318785711350647,0.22094371372324398,-0.07120607248318038
112,0.06800620684578479,-0.16831631161288013,0.06568439390921021,-0.04099079480260442,-0.179431191798306,-0.11234326659280129,0.16477679786835683,-0.03453657366854216,-0.010765569534024272,-0.024587057126544642,-0.025524410023140834,0.30074933733264664,-0.14944055916313287,-0.07262466249075204
113,0.022984524259877237,-0.15618254680122218,0.06687337724217013,-0.036761489483340924,-0.33623175219090656,-0.13250029849820644,0.014130876624060637,-0.018566374903637717,0.000730364532643149,-0.07799517390845123,-0.028731105088394396,0.20179231732360534,-0.5859242571850766,-0.039167716994199284
114,0.0265957915620883,0.022222943932131905,0.17092340115499935,0.007451144003448134,-0.2050913531164152,-0.1730403069748599,0.0014592321270809408,-0.09076380198760928,-0.017238312997335248,-0.03308064079268365,0.005222206438277692,0.19444390819628038,-0.05756509521183212,-0.06315687008096005
115,0.017471071702553242,0.2614971086755073,0.03287624495358876,-0.013968741237175291,-0.2657284716464215,-0.20604074140407933,0.012535261328183687,0.003716235784311156,0.035386530182437786,-0.053917984502489205,0.059889080549567625,0.1956741220049703,0.5533364912352974,-0.04414343073697355
116,0.041851168120613375,-0.13941247334264617,0.029514933668337906,0.028884635643425763,-0.3090981164905777,-0.20362281246223876,-0.10764499780863304,-0.010427788776382882,-0.0555644714652406,-0.015467618406625694,0.042472882256722425,0.19890607580135677,0.330611160677007,-0.10220619729133089
117,-0.028757401523556325,0.08537870370337111,0.07902274960954889,-0.06150563421829704,-0.15386674309039652,-0.10215869801828281,0.07398679380915307,0.00725115871342491,-0.13293567168990306,-0.01868085165180753,0.03255561083681828,0.18118010649936683,0.34294882134157484,-0.09409802371177059
118,-0.056749055026141526,-0.2867628341941474,0.02009004294170652,0.013256032639371619,-0.38733754027129635,-0.10968161400733956,-0.0989350984454476,-0.043976031729195314,-0.06217468413443157,0.13885823986151952,0.08661128860072903,0.17014911030080132,0.09450756231740842,-0.04429879866841124
119,-0.033076964529720865,-0.17946392658216373,0.08183079682171354,-0.0003115805228777798,-0.2960266938281054,-0.03655180398748342,-0.09887626825286244,-0.07223162491191382,-0.008220327913733217,-0.03018171414830204,0.01948806481651836,0.11715168177986206,0.23083708692834592,-0.012617664624649985
120,0.005861265655227987,0.007200875685158661,0.008887139610324557,-0.018493755354942836,-0.2534676064274244,-0.0700496477994073,0.03694820163824385,-0.0396139297480997,0.026803316934695287,-0.1213706633050415,-0.10634229256239047,0.33124040550621103,0.1903040016974583,-0.023428841659593108
121,0.03161925907732813,0.03752757220022776,-0.021262787231347835,-0.025927587023076275,-0.21346220785149522,-0.07334433379862018,-0.05706784731759509,-0.03888516370215708,0.044584216747170065,-0.09362597703881399,-0.10384397430926763,0.3990496197703212,0.11207484278229785,-0.015332279072710259
122,0.038186809393080584,-0.14448645876100785,0.05417372990366223,-0.0065572699096395765,-0.24262744177872095,-0.06602928143455826,-0.018815389490194075,-0.06543135148170379,0.012135931949440293,0.03491051350785086,-0.01896681536879101,0.11818361393297386,-0.24192448405333633,0.01601809775417585
123,0.013464408536888572,-0.1510273159034138,-0.038532506261768074,-0.021593941832234162,-0.38897885426833523,-0.12548327457001487,0.019475851040253143,0.02224313523143677,-0.04125965620996968,-0.07735340060378573,0.06814272256994292,0.13498696600732316,-0.2133316232525337,-0.13297756750315742
124,0.01582295368236275,0.13519204808489227,0.06839688327312232,-0.014690285370841324,-0.16043215031319985,-0.10112173938558962,-0.05537402626610896,-0.06679852739636517,0.04932159064438793,0.023151332549075553,-0.0017130265831264702,-0.03675709500004893,-0.3444230023811941,-0.05787215423114716
125,0.03390148278222743,-0.11566935942801554,-0.13637470627578854,-0.016866765758231997,-0.25128586874901804,-0.0788938095416162,0.015928187199814307,-0.008232531093662565,0.004593111143734355,-0.06686554215004689,-0.014202381705084269,0.09649077116780197,-0.14293380954668827,-0.08800423720383478
126,0.00798017202709203,-0.14355540201215447,0.016223778630617885,-0.027028235593817194,-0.2063082127124647,-0.07589260940259049,-0.05726022225727272,-0.04048744984243665,0.0396973249631502,0.04587451847922787,-0.041506804841532435,0.006797883521075172,-0.36323253162771785,-0.010937258530911171
127,0.07988640245972253,-0.1846786195838139,-0.04419967889294393,-0.02539299898445703,-0.3171280660377174,-0.025110904031662273,-0.025500134420266853,-0.020871800634117338,-0.014896143467204637,-0.14978152080700663,0.02782657195392256,0.4189147488806515,0.2022594447609143,-0.06255903420624932
128,-0.019494694253584993,0.04655220438883839,0.004525682636078138,-0.050112927145004614,-0.210030821803835,-0.14619928995674766,-0.12887136994186243,-0.006873600894431217,0.06843268007226237,-0.01442613933209427,0.05380761244381691,0.12331063354742683,-0.049749023481682836,-0.06408022614596476
129,0.023544748359906942,0.41258616878625554,0.06351409024198801,-0.049122532434799464,-0.2555036356285926,-0.0658693409218154,-0.1647314819646441,-0.04975888660377322,-0.06442669612785401,-0.019149640173794787,-0.021830986560009744,0.3369262599258845,-0.11209367756416581,-0.023725678252710408
130,0.03112091619710644,0.10701055831189016,0.11953987862565113,-0.06426212774300087,-0.2681158900053692,-0.10071046649260094,-0.22179979584922732,-0.024651651531137485,-0.0424840541595254,0.004124726600475193,-0.0594876184662669,0.13162706458052467,-0.10840613700421957,-0.073087672897563
131,0.06983526709905374,0.3159326422605094,0.18446867306443132,-0.07703906861745721,-0.2474794574692865,-0.09908004338801044,0.0391003967683411,-0.02841018657051663,0.03312151812203312,-0.01471550779049383,-0.07839351807555452,0.14468238486848847,-0.04056615139334829,0.014623483543920096
132,0.11202652194402951,-0.05197440016558286,0.08335681611440673,-0.02210943754192111,-0.31384467907790886,-0.13991160368403088,-0.11117807039897881,-0.04664492440651645,-0.1320527705916269,0.00940869813022905,-0.14623393370120033,0.21431946436330024,0.5591036302923835,-0.03161726235824116
133,-0.015704912797032344,-0.36984322259434316,0.04114136856632816,-0.06261633125854765,-0.17983019171659873,-0.10970616014887363,-0.01980527123800936,0.001689474711076,0.08840448972242748,-0.07616988087489629,0.029578930475243796,0.11206277330075194,0.20808438876125576,-0.12186455706045728
134,0.059165489558905326,-0.38596315443962503,0.11997120239265763,0.017100589387611945,-0.2553614568811319,-0.18012662082603936,0.08878925305559313,-0.04367730720795221,-0.08108155684758524,0.08911026188977168,-0.0375699334573552,0.16685505901137318,0.379197236467073,0.00585922506065932
135,-0.02593367271743202,-0.7134120370036331,0.12831268026758083,-0.0501097034153735,-0.3028973388418811,-0.10161488573702444,0.24508965081842285,0.008943627884955785,0.09857114102641225,-0.01861097263864962,0.19899154556572227,-0.04180189987498469,-0.1359958967187895,-0.07579919889621077
136,0.12930481801995122,0.10621292076214311,-0.020551972947759067,0.014047115827358198,-0.31826614849809115,-0.10840151242660248,0.0770282805166974,-0.019498322092719955,0.1334451145675546,0.01939283520728442,-0.017649151966412688,0.13324111131917907,0.4411529193319069,-0.12255409530123515
137,0.05817541727317732,0.22194857131466922,0.014894080755116168,-0.018894376204695168,-0.23224605604982967,-0.063562235489515,0.15228742170998855,-0.005070476377747754,0.02307946495372519,-0.05973660595893626,-0.1439311748708597,0.11266921021093831,0.46820404223413353,-0.028080247608881954
138,-0.015648064153056085,-0.4231861690213674,0.04106227013934527,-0.024227763096003725,-0.15327116383812936,-0.06878329128120436,-0.007003709740020344,-0.024293851106374054,0.018585012143425117,-0.02023861257336786,0.07536812845371255,0.20490247257592625,-0.6364853925801819,-0.04430488015781228
139,0.02511089589532206,-0.18420968272463384,0.11920911479084609,-0.018118242588947817,-0.2922240939113071,-0.1258564329700863,0.08550639855921127,-0.03175898050824303,-0.0325270360243501,-0.050975466446727895,-0.009458182841574181,0.1610928272655976,-0.5412672452221385,-0.10391808238288193
140,-0.0100189572917887,0.32305755073514314,-0.028940788501125303,-0.03828549290243134,-0.2110903645421599,-0.09374385977296576,0.06710631217076128,-0.009293839638642262,0.09017261921722575,-0.052288642223075284,0.25691950836067184,0.1682425519814641,-0.37658779022326117,-0.029571175441185912
141,-0.0231982541329942,-0.25255442211543017,0.028579257825061072,-0.07337678549532886,-0.2434583112348812,-0.18390653319965003,0.13872250801240482,-0.029565838072366145,-0.04857221658206639,-0.02543115333019403,0.11496695605534665,0.2738762229283906,-0.1793572707432259,-0.12792716169948598
142,-0.02550772161614484,-0.7094412487388471,0.04667778995106567,0.04666090752072195,-0.27632909096016334,-0.10276193911573761,-0.024674295295225045,-0.033509096933118605,0.1456777975823093,0.07052314018555864,-0.008824692927491037,-0.13363843548514623,0.04305082977178105,-0.0055685917930370435
143,0.01855091375889595,-0.3540473125625739,0.06501326156969012,-0.08312294781040169,-0.3042818297370787,-0.03214946812217871,-0.06651849651052999,-0.003660632566277827,0.11196462335253171,-0.040813757686324725,-0.0774295242129809,-0.09175133561471793,0.20113264476954168,-0.12204303752521334
144,0.018919033016655817,0.2044508869679684,0.06091538414589148,0.044278686244804896,-0.2984375500975902,-0.20370556781015287,0.0514976845292795,-0.049091609405417506,-0.012275525158913433,0.020029602812900046,0.11350308283130885,0.1691845188237366,0.12941707196361965,0.04045107451441597
145,0.04205459656280777,0.36153486876418667,0.11412701820108473,-0.05782487553419327,-0.25144027327316987,-0.003409328795505595,-0.12918906276810627,-0.018054470637278427,-0.01346047222458463,-0.10047733623476242,-0.05900817868316988,0.3486793778872326,0.08714125037371129,-0.00656445483008903
146,0.016604069163125512,0.48497814307930276,0.13817897754207129,-0.0678447813790826,-0.2581675452259022,0.0009681990973583326,-0.08303527441520414,-0.01126865214685123,-0.010178407544627122,-0.10113303233376794,-0.032523575652493794,0.2876075103225331,0.26625177798214084,-0.049772962132090925
147,0.055310919573747896,-0.5219214841668841,0.020579912452448612,0.033148346222776875,-0.17828527778843606,-0.16234980425948747,-0.08043536127414704,-0.0546365321969107,-0.07294101229315395,0.04180128824143274,0.07688924499726824,0.02821913918495178,-0.067967088408486,-0.07877289857006178
148,-0.028052083357843816,-0.5091571574522757,0.04203205070493321,0.007460660656500744,-0.19784482931609693,-0.11500557068051132,-0.019186813931968447,-0.04002945613874556,-0.0775702239143384,-0.018916614320852315,-0.053210603226674605,-0.06074403120375445,-0.3600740137763858,-0.06970651588027811
149,-0.006245828462328129,0.3616627976599669,-0.025391390870142305,-0.05068409335684834,-0.2370598628570625,-0.08047336271126712,-0.05346024317858773,-0.015377977166239995,-0.01073560565326856,-0.08933010069233795,0.04722161003224442,0.1876364850430019,-0.5764202312016592,-0.12954481771634743
150,0.024974253487583475,0.6394182878636464,-0.03649319606529239,-0.03275505554291538,-0.19652605080777077,-0.04708936636567399,0.13360278322104696,-0.03731051412963236,-0.00820508308534651,-0.017861544212753794,-0.030110769277032358,0.08607500763104105,0.4470281344451283,-0.04452083962469705
151,0.07395699402550393,0.3414970263451532,-0.137399755216737,-0.017325813542158494,-0.25532225497423666,-0.0648955485941271,0.019577197191936173,-0.0169303666006861,0.014719321494247178,-0.031192591516426973,-0.15385987009235894,0.19345187753373547,-0.2199486368271496,-0.17314787114609637
152,0.01497756855173088,0.030281161750394414,0.09373210253113815,-0.020272730971344577,-0.28331305214441316,-0.05192964957564077,-0.059809265007815304,-0.03391574368952892,0.00917556586201955,-0.03952616011938363,-0.04732675189781486,0.14474289380863994,-0.0033564845828471523,-0.05669222667854522
153,0.0009305823316259343,0.9751501770505184,0.03412375350239244,-0.025314433415258266,-0.2935311189958772,-0.1893166956096591,0.10863867733569835,-0.0019455517675231737,-0.06336708112502779,-0.12760693776905985,0.06458006807914475,0.17422207431066838,0.2844165593788195,-0.11814196015024302
154,0.05191114866419355,0.5569864698173316,0.1029006369102255,-0.02422387391559542,-0.2242179002034484,-0.061149549314406346,0.17789477599356165,-0.05485448496553401,-0.10349278699634427,-0.06186878639374876,0.004797101682142688,0.13090746956755653,-0.22965796433292324,-0.019806611984691802
155,0.06492104866046083,0.5133961446728361,-0.012746980303564415,-0.00029462613905245627,-0.230393128680812,-0.18244892794562992,0.03630701038086674,-0.023366303186661122,-0.04862797992252252,0.04184655269434466,0.047648077194480415,0.08850107445726181,0.4154011404741622,-0.1326450990452264
156,-0.09206357997194467,-0.5813372408564711,0.06534192222352697,-0.03365745005278776,-0.289435565900214,-0.1399091441000862,0.013786000007947004,-0.004543344999393281,0.05657480077057243,0.03977102899567442,-0.10919417897869942,0.1692428372181641,-1.149409219541241,0.0012994786551111092
157,-0.05529217259227795,-0.42500572800371117,0.10779474567851657,-0.032785648794991254,-0.22941415668324117,-0.1535065346027009,-0.003463442862142292,0.00033883204436324643,0.11189432069964252,0.10223830208515314,-0.1147349155908102,0.2360974125700479,-0.7803095140965386,0.020036160975297382
158,-0.005342173060442601,0.41669096287083135,0.24353608462857657,-0.011396731012433103,-0.24476769370885693,-0.06661616593175669,-0.030320911386295384,0.025475377678065958,-0.0843818794571067,-0.0809227607950617,-0.22549849949032505,0.11568896047837171,0.030067080113052952,-0.08681667088560541
159,-0.07773109535421177,0.18433543135102481,-0.0787552949571742,-0.04031498317858411,-0.20755187875620634,-0.18715860787088326,-0.03153045443373203,-0.062198333999214706,0.09035976698245331,-0.09703061305366029,-0.11928932523993831,0.011865084147541005,-0.2679143157144939,-0.019556070522248774
160,-0.09341756000626061,-0.25282586416370856,0.025913092570029106,0.0010387386152588812,-0.18660339653822725,-0.03939294368176399,0.05142944023294266,-0.0496745799198532,-0.06184519049625348,0.05123674032755536,-0.02713585448204678,0.030012162436814954,-0.28446064564362333,-0.10730446062261517
161,-0.12403383062485257,-0.3312689383147193,0.06422103112336613,0.020692228643741897,-0.2898417287551774,-0.0861216801679831,-0.042623896204002754,-0.033343389179038584,-0.09581519248043681,-0.033479495925603266,-0.18899235085525767,0.007408479115443664,0.24124951842679748,-0.07128543195305116
162,-0.09028621441537238,-0.3396190061581796,-0.019964805310733413,0.012226682058045904,-0.33842409009229946,-0.1297169323626582,-0.006221371783184687,-0.008320429218080641,0.043657134592184496,-0.03854419889595202,-0.032671214089268506,-0.09943114633289225,-0.01982956428851823,-0.10965714625924655
163,-0.019580853484182703,0.19922466745918668,0.11294200612283614,-0.03385782826247978,-0.19598954002386745,-0.059642339671501315,-0.09967932276280925,-0.02121523558285522,0.00021224470163487552,0.0564764700556334,0.010169878573773036,0.11653787626065973,0.04590836231413223,-0.029621773834364505
164,0.03460832641074385,0.5863218065940248,0.09311783388179168,-0.033730605999037634,-0.26332415711654406,-0.1643410010009408,-0.04825110954189198,-0.05888935000585102,0.008540653098505793,-0.0480858222221152,0.12821728839767915,0.08513760996718764,-0.3693987021605955,-0.11487507886480364
165,0.03192112180417189,0.47402837129820846,-0.029681970112582723,-0.01533524071799277,-0.35563060044530287,-0.09071185318560603,-0.06165277148321836,0.0041863916020660474,0.00539752210060572,-0.03884130200265467,-0.06972104967696932,0.1442966487287039,0.5097883614488329,0.011373268159857435
166,0.012383048508078531,0.3645149397329408,-0.03280309208068938,-0.015449130675836205,-0.2913321744319201,-0.11291512387077673,-0.011377721146438709,0.014215037569815916,-0.009522309744066954,-0.036815766797730944,-0.01890882368279414,0.11565722321854273,-0.17921420178767644,0.024760100757150953
167,0.04995210686743223,0.14966557242886408,0.06474294508791553,-0.027392025581545992,-0.2629823701338026,-0.10114670233438827,0.02602480558374022,-0.07316808420041504,-0.07217586182218005,-0.058644009559540924,0.06374402162374365,0.27331345349931974,-0.416820217934408,-0.11289440675089041
168,-0.016586145725903806,-0.128771858607951,0.08971399824088308,-0.008509079544449297,-0.12628120275263457,-0.0828321428150342,-0.017802342974713295,0.010395246827668486,-0.0002950002548655628,-0.04580620563865784,0.023359063217251425,0.01548114866243529,0.06067347040584774,-0.12730815197396367
169,0.018190995399249593,0.11748973488587738,-0.013527844989019239,-0.014840068894145082,-0.2440207938431356,-0.11067310638474431,-0.004209112762680184,-0.047125525592375594,-0.0009079195034388532,0.0861356512231051,0.023307307867169558,0.024104827168821466,0.09390524467956511,-2.6246053717211837e-05
170,-0.007162992832714404,0.37531304857903236,-0.0047650122344184975,0.002587455545663867,-0.2660912651252849,-0.1158506324249687,-0.05608617670876086,-0.04349929167869118,0.044774065298460064,0.02971022608900337,0.01072644812110686,0.06508354910217908,0.02441460517963605,-0.04106794096946819
171,0.02704264996093131,0.32170048950217744,0.024558907320828577,0.005144758714650928,-0.29057158119344056,-0.11882607203547131,-0.05087665118855622,-0.07906084812958505,-0.012309044549721787,0.046060994510258704,-0.022597517194670902,0.12141613064160534,0.23828335719833924,-0.00665846827911256
172,0.018011633270492988,0.1195618236315682,0.08168841158139445,-0.03557097160715372,-0.2438152208747042,-0.040169475861166495,-0.12468411501559255,-0.019700953596080706,0.022604121449090284,-0.11611585087285911,-0.010436537551308633,0.22928459264514314,0.3377069875157278,-0.04287714884383378
173,0.0436523147918228,0.19124995654212615,0.038522166717068984,-0.01410006701817376,-0.29555574466815787,-0.133652573719531,-0.19178942463424065,-0.04715575006546413,0.0015921673884738696,-0.041602638358586165,0.057946560402021965,-0.09109004154143399,-0.39569584634178434,-0.00539143889789314
174,0.018618415857606208,0.2791144841065797,-0.0190576014829677,0.034143081813286597,-0.1661628863751785,-0.1449707741066995,-0.06734259566812492,-0.031661995734167114,0.014789527418181361,-0.10624198652216457,0.057016522904038344,0.15141002320727542,-0.5575499566587319,-0.033007741207371995
175,-0.009358854678790551,-0.8856594616992706,0.022956742901397653,0.019774511987137935,-0.2699357340382447,-0.11570538013541871,-0.017212900424954415,-0.03135754608778973,0.03737972539895887,0.0038292038739490743,-0.16090199765211416,0.11256791779613197,-0.4332767265187705,-0.04608679552121262
176,0.0218948868231722,-0.340536959741917,0.0946067596895318,-0.03362282988400716,-0.33650688479591895,-0.08669397745192955,-0.003686801812451561,-0.029150887584516574,-0.08325984913434031,-0.033052018262647635,-0.06469809109784008,0.20529797573053143,0.030474578558427626,-0.12577887768458135
177,0.05031833070586034,-0.02660258412673644,0.08196664910352874,-0.07302059385412835,-0.2949624522425768,-0.11704299516879367,-0.04353808378830411,0.004464874029341259,-0.19320250380280796,0.10499605343801185,-0.09848413225496748,0.1907715914627442,0.28828795666202717,-0.08001905756049715
178,-0.08565335291650567,-0.7221741994066944,0.014811312396711074,-0.04889517596335194,-0.29605932997489964,-0.07562872512786306,0.0737594675227917,-0.03847649394450125,-0.041998335737470444,-0.014970234601909084,-0.11621061261021903,0.24205649030932253,-0.12693685373733343,-0.09069030417719769
179,0.008209563188386837,0.6937293337300052,0.0471956582220924,-0.008115163427163435,-0.260249287905469,-0.1480877190415306,-0.0347721698262177,0.012294056219561103,0.14142868265662603,-0.04195230889294242,0.17102053378982235,0.1418234988634317,-0.5923797947717192,-0.028918677540649893
180,0.01651361733562845,0.45909244870027355,0.10778415261938401,-0.02997690631401488,-0.256647489259605,-0.1513900212826933,-0.09573253758959183,0.035164000800442144,0.06630875830147101,-0.019652093599024666,0.08495474647189927,0.19626548253388512,-0.5045674624389872,-0.06595369664440297
181,0.01641456602168334,-0.1538053649145078,0.13871410726746297,-0.036703250770636346,-0.23965267708166724,-0.11089913423875922,-0.0034235488086744523,-0.01817352893779979,-0.043491437028554576,-0.09736452727368851,0.09418526152393314,0.0875215657755377,0.06090806536210755,-0.0378146174266453
182,0.044673423397793344,-0.14821557660295337,0.13678561211485735,-0.012179087184800345,-0.27133689285634527,-0.15477539786445554,-0.023421561937113644,-0.025898462106693998,-0.004245120666098695,-0.09573335691891748,0.06703989108658118,0.16910590367410866,0.18904197989669308,-0.0358190255954902
183,-0.0031123504967868754,0.789027030408209,-0.08738881588459027,-0.01884981583092394,-0.1611077738340437,-0.13045316297283813,-0.027724995543588506,-0.035928976937565145,0.014375646498959907,0.0856115319584522,0.017126962410421987,0.27746767896221664,-0.5131620516260152,-0.09712705773772168
184,0.04782369454835464,-0.4796339913923608,0.14110629985259682,-0.026198662565790454,-0.36781462572762536,-0.01765009179057947,0.006597226641942212,-0.008244346347471135,-0.006847851574941888,0.07822950515740244,-0.0581216251653648,0.17633524544975945,-0.1408471930796385,-0.013948430330101343
185,-0.03014533684167081,-0.48063902178861834,0.047649405205463014,-0.024044583848110777,-0.2473397160605009,-0.13216484718884552,-0.08211661450118107,-0.04005027870974851,-0.021586689839671283,-0.1367060942648527,0.05404183471697058,0.07416051633962228,1.0974077989587143,-0.07642535890558139
186,-0.015539062373933321,-0.3307080712561493,0.05830985437002634,-0.02788562011619082,-0.22757722471738867,-0.07669009107371905,-0.04289187803034489,-0.02484095682392945,-0.13348362652257217,0.054377778452832023,-0.07308115442530902,0.16069056969624676,1.1601528742242366,-0.008026204994845985
187,-0.05748461530275606,-0.521348202099716,0.03641155645365246,-0.029627707216394947,-0.20393847534585974,-0.04707110002449764,-0.06435055179415078,-0.01155091907328526,-0.14437957946964775,-0.0688533570573164,-0.025898907133180653,0.21536526711732737,0.8668308701259072,-0.03361414688049729
188,0.04131859553326339,0.07149853268014084,0.1460150000660135,-0.05231130699745841,-0.2794689342318507,-0.19375760696996555,0.11066690260587504,-0.05077635220518808,-0.008116581043332613,0.012260622000982775,-0.0314892697250147,0.08099476878384498,0.8195534830430609,-0.1246340054249724
189,-0.011967752348720773,0.11737384087739587,0.04588461866394661,-0.03045840196523568,-0.2128221103449885,-0.02551231408661965,-0.14377723561519953,-0.049310166635426256,-0.05163060522047164,0.029799422526988674,0.03560359868586996,0.08348517136183102,1.8148118180973176,-0.05111598391420172
190,0.01363526165456197,-0.436465824153024,0.1402264708500319,-0.005416611617867492,-0.2539116210455515,-0.1932750908404674,-0.06465294613486697,-0.03971222570994409,0.07871420447758237,0.09308762026613232,-0.11318333288885526,0.19867435093389557,0.37350319135067206,-0.05629540866691192
191,-0.003958912625275368,-0.14869052960786164,0.11171797610720535,-0.020425437365652572,-0.21323066605324736,-0.19945406849664388,-0.08657932717994282,-0.009419699615735563,0.025620793770147948,0.08044921524674331,-0.07367466969033927,0.07476542024405608,0.30540599802117063,-0.09587714402448413
192,0.007657956384699904,-0.4781322594728898,0.13212430635521588,-0.024789015980523195,-0.1731974895643414,-0.15857727347738382,-0.07542235470595084,0.02913823025731878,-0.054779536741735774,0.1360685429039055,0.010950125773821387,0.17674472717878614,0.11513539653060709,-0.003712477817664428
193,0.012514728443829726,-0.9616456587233413,0.045718634611462416,0.008675430861528794,-0.2479210573132298,-0.15060791323510847,-0.006404056752844882,-0.06878352876957136,0.025087178878584915,-0.13840212692210907,-0.029715613222330864,0.05228899438264573,0.1559597290484953,-0.07891521100674631
194,0.018397349714223965,-0.2521903315175753,-0.13146275661505996,-0.022260123946854365,-0.3354090874161045,-0.10776680785669908,0.03722991068237759,0.00755093203080584,-0.03610917824668289,-0.05799418887121416,0.01322717757681885,0.026911786407924444,-0.08586552215469241,-0.0649290020720487
195,-0.05297935066849235,-0.4629812355569676,-0.013138498775661034,-0.031630582152287395,-0.24287918454390034,-0.06688106471849269,-0.070800970816962,-0.005738331524667031,-0.030241216220528458,-0.1629843865406691,-0.051851362824393094,0.16405112848422765,-0.2150581801456325,-0.06522260316706502
196,-0.013563569009022003,-0.04230303946465566,0.0551456412584056,-0.032436297660164884,-0.27835040448651943,-0.1565089205073402,0.0720476928859804,-0.035553726641109167,0.03741617336339305,0.03860876703869265,0.04834423212804054,0.17801048954915205,-0.7518346402091732,-0.06098901662827917
197,-0.06457160911382503,-0.008276103584772626,0.12892076950885922,-0.0026530783910960233,-0.26028027153177136,-0.056738398422686374,0.0013829362188455332,-0.019002704447490026,-0.01631229811476656,-0.028207613816827532,0.1312167766935683,0.2803957678385558,0.3461730870093231,-0.03427680136281806
198,0.024290853800946532,0.767097608840341,0.07856307700378973,-0.0242775752400078,-0.2528547421754482,-0.1651139847577588,0.034008851920676035,-0.03356669565412865,0.06171425831477498,0.0542126767807817,-0.003388596824175194,-0.02573257531849628,0.32486797883352714,-0.05897683182954826
199,0.03322575481256726,0.03834173363300004,0.052528786768746255,-0.002390614901306952,-0.18179555540971354,-0.1137575677855959,-0.07249959095748959,-0.046067969418277455,-0.009764415834336834,0.0379559821661348,-0.07738394891866127,0.10124326047371243,0.29387851002645193,-0.03355687210545209
200,-0.015043480130138592,-0.9274068923587118,0.0106117770474351,-0.029802155456372225,-0.30911927307563714,-0.09156249721443524,-0.19281276257302568,0.006306158944553164,0.016486593986671183,-0.09791336629331901,-0.01157850865101076,0.022931107265456274,-0.09434573932338233,-0.04811568744986471
201,0.017091629782097106,-1.2170580896311356,0.07183407962874563,-0.033798114119607175,-0.23458882962053473,-0.1221556165663361,0.04648914325260868,-0.00035823700807824377,-0.11311197852800252,-0.1925817949148185,-0.06485257179951667,0.3481374842064773,0.4591537107036604,-0.03642587555183276
202,0.046406785203811335,0.1889726600435416,0.024110235285156323,-0.026099831580273177,-0.21869678282379867,-0.13192290055190992,0.0729491677579713,-0.05201605401078803,0.021893170786810384,0.023118416726778328,0.022125616379085306,0.18728935328273244,0.14106628093650964,-0.06773695363347543
203,-0.009373845791853574,0.08559927165683173,0.09308903360151649,-0.017580922502347707,-0.2569435793856323,-0.11890172920143441,0.0008360030234588686,0.0012655985428590977,-0.052538000787890116,0.12290709165852576,-0.07010562990809109,0.06310180460424247,-0.336950506734077,-0.061591306263980294
204,0.01087677125714609,0.3611250918759299,-0.03467068786221411,-0.0029034716720438766,-0.29170822978302285,-0.09289278827546006,-0.060747848435259454,0.00749220435907344,0.02111031173335602,0.07814590086958575,-0.034431226897175475,0.30246139503767855,-0.13661743488045341,-0.11404542638928492
205,0.012939941870810767,0.8087729776870448,-0.021138095303354032,-0.05366525721029375,-0.17257842029799014,-0.11360213184171586,0.1899839474435261,-0.03461945169585963,-0.023968418114893295,-0.11525700768730922,0.034033941311611665,0.549269254670945,-0.15479241832114504,-0.01630912365474414
206,0.029167123215347646,1.1278951214830522,0.1912094069229866,-0.008887104328281771,-0.39129158088738697,-0.11080581998688022,-0.10972575642931294,-0.01980826832938512,0.021516578450923918,0.023404643276715615,-0.004494460064373304,0.16873481394380646,-0.6292482949478181,-0.0801733562725913
207,0.12819992233227467,0.33007066597218754,0.032596567843722335,-0.03070286219934104,-0.2379959547349288,-0.11467348046408458,-0.042818380985869334,-0.03140729871558925,0.06659579594991612,-0.10331710106377621,-0.026798662551339905,0.38581739355704575,0.12274266965931133,0.012632235683604106
208,0.08606606478478479,0.6129505520604447,0.1132404358392003,-0.04649167910659157,-0.363896226674606,-0.08754321887776095,-0.0540316974033985,0.005285562321692,-0.013355504246139488,-0.0065480290699947916,0.09062299797039483,0.5662923959025026,-0.10474223113098449,-0.035244428302459614
209,0.051835531805560275,0.4819043654139985,0.037388001607577964,-0.016642404067979236,-0.3327324799332022,-0.10802493907398195,-0.10893116248500598,-0.0034754661149736382,-0.014026781056942536,0.07852937668487159,0.036537033604153404,0.5493781260358479,0.23384819888796401,-0.041986933952942576
210,0.10135207895271617,0.2357704487670382,0.08581300146898052,-0.027016394610643975,-0.17204301379570558,-0.06543059708166658,0.12729799441769618,-0.04768353263870842,-0.06106751796203256,-0.08748789299343154,0.03984807586399272,0.6930147511908359,0.46403172467921533,-0.050126605680153515
211,0.0911272604091794,0.2827369454276904,-0.01077442925655897,0.0021618244956947766,-0.0797716779161601,-0.14970473338094029,-0.1591749315918211,-0.001998904835382273,-0.003888562194750006,0.13779015085092972,0.11671655049796975,0.8891727319512039,0.07134927416566987,-0.02941705525874667
212,0.040557190880871674,0.2265962621027927,0.0024688401692731232,-0.035000933167488826,-0.22794567276524672,-0.04018213357529952,0.1250512336018571,-0.019503907661327313,0.0035095282405851053,-0.19157067810751988,-0.04682485359036032,0.6857630271188547,-0.12356446884157535,-0.0821470499059658
213,-0.002748003576646618,-0.08626985723347369,-0.06417925678526443,0.010132500389616756,-0.2755607682320916,-0.17176473201675757,-0.1655367142118593,-0.027565577968256302,-0.00514139828525878,-0.0054424758454944405,-0.12927642324639466,0.682235502631,-0.4691630559873603,-0.037218980304733223
214,0.013084856484396529,0.7826638828123322,0.21356637567050812,-0.054586623651854814,-0.20672704183682045,-0.07577855001193565,0.03874586002531165,-0.02525056286922054,-0.03001689231443084,0.04431216031291112,-0.049719256064978436,-0.06472390036520416,-0.47980545576724726,-0.09013024951729989
215,-0.06096520723608165,0.30509815999625894,0.21898797444463586,-0.07089565368148568,-0.20072807108826174,-0.07291819319064911,-0.04845321444250028,-0.00020964137298459806,-0.004865715280183203,0.13998032605683655,-0.1059841175602203,-0.2290181396021624,-0.4090377133503138,-0.18162789422003195
216,0.1262339568885843,0.12681119658373247,0.11810792963204014,0.034873298059051656,-0.289445239145823,-0.06983088745344172,0.09141652961328041,-0.10504009571057395,-0.022481388557111376,0.004279587987338032,0.02562622985565883,0.1412854079901159,0.15298218642945527,0.009113919728630439
217,0.14916346456176272,-0.5970706555420496,0.025973950429450998,-0.06576717113859373,-0.2324162211714598,-0.15094279705128083,0.12607955834683138,0.03332749970759463,0.0120540583740959,-0.08926959579926501,-0.009124252566656194,0.31154188930400917,0.36453648881031264,-0.09157683024284227
218,0.1829545711784784,-0.4682645822325778,0.03832442554010945,-0.06494312456699927,-0.30314763028214475,-0.12033485924705928,0.09113589521949131,0.06346194010618489,0.01909097233361791,-0.026938295630604913,-0.02459603488295367,0.20219731075464176,-0.029096513569549287,-0.10264922930766283
219,0.08069599839954178,-1.8554035612591389,0.07558783478502173,0.011709097785011762,-0.2769883750941924,-0.08504066539963406,-0.059526638127151046,0.009307112816906188,0.09504754690514901,-0.008285566218600111,-0.06845275119460548,0.23176507850097688,0.26703904242152565,-0.10790194234350088
220,0.03629927728604326,-0.6183319135979017,0.14357808715579046,-0.05347609708137987,-0.2867955990328086,-0.14270461107675247,-0.10328669080595536,-0.06232040485396519,0.07126644794234394,-0.19073343941707055,0.012422931632301196,-0.07246344175179383,-0.33586708997403286,-0.06907958161991355
221,-0.01667657310567222,-0.16470315992023446,0.06358980329783243,-0.012647212021568772,-0.3410816589883797,-0.16073535716386642,-0.1836254740655423,-0.012550953456267708,-0.07018424155902027,0.06127476999559947,-0.06133739699059984,0.14337653942119968,-0.06030905220608378,-0.059865885744667946
222,0.05548413480233633,0.3926612519492131,-0.03427430627634995,-0.012728001816188855,-0.27159568638303905,-0.15745164584716184,-0.14399245179743275,0.008811878664804096,-0.045112188276427836,-0.07959863077489053,-0.0331891743908756,0.6867103336298546,-0.19085773845173526,-0.053333036127029776
223,-0.06927393336375715,-0.32552586082873347,0.11405842717161466,-0.026933488391009543,-0.23329991739908004,-0.10116905109957337,0.029118142993054402,-0.046434671940592205,0.03877767590273663,0.002955774234304376,0.08438352606309871,0.20471916619855857,-0.7680384735407172,-0.04473522382124328
224,0.048681064811230135,1.0115704302957447,0.05442829219221018,-0.011119977298724206,-0.2783046896778263,-0.1463087481050057,0.016535468439757714,-0.005658557648296425,-0.05887983716489367,-0.07151073774027512,-0.07401548086303927,0.04201555203657062,-0.8106596745629463,-0.08177844932399447
225,-0.049994338097316404,0.34702361194729076,-0.0042761488285623095,-0.04755876168808196,-0.25922956494708604,-0.07476929670127468,-0.04482286183740338,-0.041915766400454205,0.08409149900359394,-0.07157513500048955,0.0600446555220936,0.19554875936494476,-0.03931443634872822,-0.09201630729005122
226,0.027103154791306983,0.32785453758458827,0.008016002738644057,-0.013709462231474095,-0.24566410942105144,-0.14813457691813392,0.09179108557424981,-0.0038162853186574502,0.0014389279881855677,0.08731429960034615,-0.04682536376936605,0.06161405124857461,0.475638309523781,-0.0915087231715465
227,-0.009309761424102891,0.22320693031957248,0.08747391084320866,-0.041212734150513006,-0.25338227627269216,-0.05256560653743252,0.02762313541899912,-0.040192866751150864,0.012173500055033676,-0.058490752186601824,-0.10746236272086546,0.12152908613539588,0.5890442639014026,-0.0641861761099101
228,-0.025628704081639225,0.3927486192787525,0.09693414213447443,-0.03409427235071573,-0.2402910251628599,-0.07175909076922762,-0.01197671762409376,-0.04361974537060526,0.03736789177561575,-0.06090324282181774,-0.10716698403659464,0.12937667030965835,0.4253451765124099,-0.07006962712540282
229,-0.04331052338533664,0.8095281961087674,-0.009904373280529843,-0.013338507680537418,-0.2707855676903736,-0.1224068188826223,0.04163292143840745,-0.014246145425275095,-0.028475551198397647,0.0920649391210281,-0.006284155033363714,0.01981658602413755,0.8073661122110909,-0.06689272484243527
230,-0.0024579969343755392,-0.007175926187340101,0.12993220580856402,-0.03603418239740392,-0.2593542252804229,-0.11312644771571026,-0.08178344661759443,-0.02051878627520326,0.08974590028387816,-0.028995805687853413,-0.03283163864623752,-0.01700388589130808,0.4982572005205458,-0.08277662954977201
231,0.03177227832034202,-0.12776987805410683,0.1092742918242561,0.013398170485696012,-0.2930056015321113,-0.13248900886347983,-0.046793717140743776,-0.03678746282475709,-0.08804855678867109,-0.022856265912080648,0.04639941738618593,0.101054950690596,-0.7343927723175121,-0.10991700452118737
232,0.04461623284339003,-0.17704264368962772,0.002944833883346626,-0.015822131844550315,-0.1793760739809674,-0.1322420091974224,0.04434214287359897,-0.038605254247459496,-0.03157784484584144,-0.0417809956629384,-0.05235107391560642,0.06293094580858168,0.6516077272275969,-0.0685122219694288
233,0.0021223903470755645,-0.1294173905484972,0.06058773751729307,0.007288184139052127,-0.34307258601750124,-0.12500670634747238,-0.021741644432899172,-0.025903387189677732,-0.06126027511726731,-0.013968236274127879,0.03819968384123533,0.06328245761017678,0.07238277789173841,-0.05079279244417105
234,0.013137090545307373,-0.07356888874661385,0.13904911135466855,-0.023320552709207045,-0.1740684504013452,-0.1273912714216627,0.08734707212537053,-0.006269326937489661,0.03828060209339505,-0.03883678098668789,0.04563067482767791,0.13448703636525286,-0.489357322540269,-0.01211283763193135
235,0.02848178102423482,0.011408227809470414,0.0305348329070258,-0.029617805590579725,-0.29914162976687975,-0.1598800984032128,-0.07808075496612266,-0.059241868953269494,-0.12859681979329488,0.03609239542159108,-0.07063524247583298,0.26887574464791486,0.5249787561324731,-0.04625053577406252
236,0.0812672577924261,-0.11883930728908523,-0.05033891094016946,-0.015282385060557218,-0.18906215323101958,-0.14327077611957306,0.10115532224391777,-0.038106729600886735,0.08281103806294729,0.02478528853344858,0.1181901421868875,0.25109253665849807,-0.4756546736527365,-0.10607635692627786
237,-0.10013331434928974,-0.12555518571518218,0.20659173304873488,-0.018199288415590268,-0.3020035110319952,-0.07227626954325761,-0.1107626309611638,-0.017955155213873905,-0.12889316613704727,-0.185477748403039,-0.08392006168048934,0.06148417861875346,0.3153335595797908,-0.03881231811607256
238,0.059258539867546256,-0.5348522115889452,0.16296109794763403,-0.02124471636198251,-0.23291467996876622,-0.08402750106425312,0.06889851128159222,-0.005630808411369537,-0.005494861658156408,-0.13397633681729054,0.13784097477638046,0.06456693002937064,0.1753821088855103,-0.13100024216825426
239,0.015578443178413226,-0.023658698722686666,0.2044298953488965,-0.025883641814356654,-0.22608929530355037,-0.1494508082106994,-0.10245307989720372,-0.041434382073570336,-0.03223993902992933,0.016097281273974407,-0.11424588471731545,0.08268446815240393,0.047246282788258806,0.09606591336873235
240,0.0019375972610731207,0.1822898568264113,-0.041290533400886564,-0.026463418592082594,-0.2474583922316152,-0.05143297359222712,0.2623329388651597,0.00029568745270146246,0.014598797181296558,-0.021058191449267252,0.1373590273967132,0.14301085171884642,-0.30704772508381045,-0.15805286793323767
241,-0.006605471223711801,0.6619710652979993,0.10741434981941694,-0.023879689985200084,-0.253209536905513,-0.16297067993090664,-0.053974065809928556,-0.016158581005340206,0.009037930011352557,-0.01172036033037785,-0.08963164350650718,0.019270230619422145,-0.19304067049774842,-0.01987871300168203
242,0.007776034663568243,0.14060506192144998,0.04162453868274568,-0.05518427028686483,-0.3050126253201292,-0.14503036951893217,0.014658546654596157,-0.030515335144533626,0.02667787316372805,0.018282977753380718,0.004145561574819129,-0.038397090455112644,-0.13070514341186257,-0.022203607482656946
243,0.031352765704232316,-0.7789730988158354,0.08142405174415951,0.006111693578883047,-0.10124585054597529,-0.06068567348881132,-0.050670148863889465,-0.027743787958012092,-0.07420387689231285,-0.1491652530899367,0.006091000510663067,0.17792741683658414,0.3727579489739143,-0.05773495380433101
244,-0.0017701588260514156,-1.1306295471408558,0.08011935048744112,0.03177817619197697,-0.19062643445462396,-0.07312493330795783,-0.21996928388527315,-0.01178760154529647,0.024570275402648736,-0.12849303650854954,-0.05863572735970131,0.018992571834658994,0.3003298481042582,-0.09231647369922555
245,0.02421398735153002,-1.0770143493695723,0.08532446544850497,-0.04224827139492039,-0.1612315245827334,-0.12704609798209687,-0.01696860796596443,-0.009168379592994644,-0.009166996555861054,0.04898338924591253,-0.05483628877409599,0.14919157570945119,0.37783329750713057,-0.053800746223449936
246,0.04200048036466747,-0.15295837840515514,0.052010752522820836,-0.01202626628759066,-0.12784635153597926,-0.07389445305919298,-0.023509786098343817,0.0020967815605832107,0.017984324663934147,-0.013027516602919675,0.020947296172393937,0.20181515857705293,0.6088143574938755,-0.07016652880970754
247,-0.01000702982109719,-0.01703932257446869,0.07303994577275136,-0.013903454565251943,-0.10188043221770668,-0.10747223312604462,-0.0003924076454255021,-0.03392157904150474,-0.009596212532699204,0.01732010451096276,0.03319065818598971,0.25266953238517476,0.5118191497402144,-0.0335055083364757
248,-0.005346705041775368,-0.14618517030899475,0.10692483857609839,-0.014219284388952608,-0.08006400708085709,-0.10803883958399114,-0.0424235118020266,-0.03620124378668782,-0.008598337854778964,-0.006448672716702991,0.03032973064153012,0.2580980741588185,0.43559215015630703,-0.04133091989684093
249,0.011355121012586122,-0.0207989130920331,0.051763949705568774,-0.02775078862388616,-0.36079123819143755,-0.11295613445446331,0.001440906636777789,-0.0011769877294242892,-0.05944569623904582,0.09724173832500047,0.023907788276009458,0.08874754217838203,0.13939252824253248,-0.07610937056661188
250,0.04933507686067856,-0.10526666166889939,0.06263102334495854,-0.02130830134857645,-0.14205001028829245,-0.13232604003405107,0.02098484735910303,-0.05716561435512761,-0.03708129847710069,0.0685974600331776,-0.021621275728579074,0.133978704496774,0.08737675957720925,0.020616643691820244
251,-0.0013100142125964664,-0.10816035159710258,-0.035300727679512645,-0.019061927696820483,-0.31748258643015714,-0.03180987071852634,-0.002969252187302566,0.04863627672325012,0.03876711443565498,-0.035354183594092606,-0.06718118427331823,0.21387294862896947,-0.1718286312704342,-0.14050767720763538
252,-0.030594719287789784,-0.09537188427323537,-0.032479820880210286,-0.004441635064315744,-0.19863579828109082,-0.19700599484088954,-0.0458362470968399,0.009445743145412633,0.022533448793402022,-0.053358324842831255,-0.015743372742095793,0.06418965393640372,-0.3937217153499221,0.0734188157957489
253,0.0678125348676866,0.16552040914273802,0.07065423948031713,-0.0438046914674364,-0.24464209855515445,-0.008186370778244488,-0.08803115784876936,-0.027112810331849233,-6.562769532533069e-05,0.030300531171881688,0.007452210223612768,0.20743831127397105,-0.13332005437891947,-0.08974193106188037
254,0.02933885994776958,0.3992744060815907,0.18471877544105017,0.004085965934332091,-0.2222831589511941,-0.048561689548744326,0.09387442282111358,-0.06037268489905924,-0.12368088056325031,-0.04685243470155037,-0.021224295944818797,0.27138137464760326,-0.9295358038326014,-0.05870862663392283
255,0.05930784016263291,0.18199601515882305,-0.06534897187863442,-0.028687862864245524,-0.20093758772014408,-0.10701158361608078,-0.07124015694677299,-0.02537819822710244,0.06229491211118078,-0.0362563370512396,-0.03164731115206007,0.13793694808268228,-0.24636565026545987,-0.04403235076923641
256,0.042547317212948965,0.13533267396823068,0.16427914279646216,-0.050902374385114364,-0.2015274389359795,-0.168388752076956,0.06261614159426426,-0.012671051126720678,-0.03583826627232241,-0.0085885553471412,0.0005159100887692919,0.09804457218093213,-0.3305261401791095,0.03516425275400447
257,0.024048450311499547,-0.1949671540801268,0.09537389611086614,0.009149256674545515,-0.29485387145908837,-0.023840537395621093,-0.08004947513888823,-0.026884904400969058,-0.006352238748843372,0.06198715485137023,0.13073790701349472,0.18800335961169828,0.06153891811922947,-0.05010064849656576
258,0.05692643732553765,0.1077390359879199,0.1348541056973779,-0.04787972388989056,-0.19741859124767394,-0.1644115427192859,0.026576001608430565,-0.024061885910672043,-0.004266197533506835,-0.05518970323099108,-0.0999207300910356,0.08032375168840794,0.5958868423966668,-0.07253248029860652
259,-0.005382099860124057,1.6150137303712226,0.20973867210785055,-0.0193559691300302,-0.305381352199111,-0.07462166204907045,0.0461631380635861,-0.019085997930911938,0.02865023248911408,-0.028638186921200362,0.022254558293028994,0.07346854276630727,0.541292529005535,-0.003310014438288947
260,0.016645610155426815,1.5809705433896186,0.08270267581208335,0.005698195819297841,-0.3043158926783648,-0.03676991952035985,0.004043103226480327,-0.0011299309773372401,0.1593969209246854,-0.08909452470339965,0.06235900556815526,0.0678799415457334,0.2577689127101331,-0.020251569833649986
261,-0.030109580221579946,0.8478873867282415,0.07471729613782557,-0.0577305147515679,-0.22783913064365902,-0.1504190936662637,-0.11040650631161855,-0.05679060512230469,0.07100222320482034,-0.010948612793565902,-0.08400247182162267,0.25053847633384074,0.4124414321810342,-0.0330733190879742
262,0.07734076675722573,-0.16613818127477722,-0.03303887945777709,-0.008430965756301829,-0.353257231734689,-0.07529796728993073,0.10132720496619199,-0.009037797559085459,-0.013063525161768716,-0.051518267186977565,0.046228941277669036,0.21924742346327353,-0.18703057314128926,-0.008710875929725748
263,0.0578777907719486,0.6536621630898916,0.1260944597859417,-0.024113298835304213,-0.19815488723098187,-0.11458636341514153,0.045487716684242174,-0.052524296633352584,0.03364144907962771,-0.03147664191780101,0.04953365698686703,0.2722126681619335,-0.538481167661744,-0.10010750078202162
264,-0.018096091031754746,-0.28096566763442166,0.09516189896045252,0.011107065481174697,-0.03400608443854336,-0.13479891320703768,0.09701902231862952,-0.009830074932101467,0.033405823404708594,0.05206765865299124,-0.11038191758610658,-0.05316193505919242,-0.01149383483126393,-0.043288408286449004
265,-0.1255756542152761,-0.13336586484957286,0.04740494088394445,0.00729813861421877,-0.09159377648473596,-0.14454280559246271,0.10410659440455326,-0.017357606945399645,0.10002383917379448,0.08005166471445939,-0.113532588095492,0.03719098292584748,0.17052911798459025,-0.0739507987706123
266,0.1183744320188877,-0.28168222551633787,-0.003051332614636859,-0.05429077492884015,-0.3445474477254368,-0.08442320880075999,-0.013152324296782453,-0.022145941522656892,-0.028554494275383216,-0.1178888323326153,-0.017662823733925366,0.15047627616113524,0.29064974237583896,-0.05291898413126487
267,0.02494322524923681,-0.15125540685660932,0.14964623213268632,0.0019418651719401315,-0.18033913985937303,-0.14068837050115196,-0.03459891958844015,-0.05301867707680155,0.027561121782520764,-0.02488490121955307,-0.007670209016942051,0.10389506537530135,0.1383437761330667,-0.07918653630608896
268,-0.020386466287886595,-0.08432817391729586,0.09728030373846244,-0.010275475562109733,-0.30375843968832006,-0.14737626544757726,-0.00591834812764154,-0.05109404122209138,-0.017744053373282366,-0.07274151989923765,-0.10429547596413731,0.11007148737752173,0.49643457406363856,-0.07423152602180308
269,0.0012203177941591259,-0.11090304313372096,0.16320778652836726,-0.03499920663020925,-0.16556000869368356,-0.16257794400986178,0.03274296703700884,-0.04389444969315119,-0.01551916661122009,-0.14107405687815652,-0.1203696541619365,0.1046778512786336,0.5284454371636553,-0.1375871804032058
270,0.05141761804570222,0.3199443633616179,0.05241154383176988,-0.056008603807233805,-0.23781830251182062,-0.042949811728097406,0.00693566536768718,-0.03897497076764615,-0.062043416994769104,0.06909385182326333,0.14871544040303752,-0.10014757182384189,0.7578982774311905,0.003549308587801746
271,-0.06273025040101551,0.35168614100373086,0.12077116103436059,0.007283863473674912,-0.19214836084876916,-0.1480119779266313,0.06513127872334452,-0.013363254865653408,0.14186532859415213,-0.08634329619820696,0.12253997490697678,0.0854686998325549,-0.6999316926303984,-0.147322627349305
272,0.0060185055981408775,0.1320520634793219,0.15570870761259306,0.008536983388137551,-0.24583469208340614,-0.11380427916072676,0.1336921594380856,-0.02974073448266202,0.08636911178307397,-0.03250912770049211,-0.010278056055077664,0.0747136592013144,-0.5673961467427933,-0.1086835726297961
273,-0.003280707981854425,-0.17231593007632207,0.13521814128934181,-0.026032154846279937,-0.16500673779383462,-0.14782331281931693,-0.060068498319562964,-0.0081134839075412,-0.08939611839218917,0.01729845897086582,-0.03962985535926181,0.21916377161121198,0.24962145806722094,-0.033162892073435556
274,0.017949873124990967,0.3259551130698801,0.10148783859041954,-0.04625613269918437,-0.2888604413217971,-0.10712210381034556,-0.02186282008335344,-0.01934826720892513,0.05365294337436424,-0.20890294814201038,-0.011175493716493165,-0.11598360270349262,-0.9116556449175144,-0.11302152385965103
275,0.02550469466229055,-0.4546613116826498,0.10864612119361766,0.016005091072465748,-0.14135006122819957,-0.19887998580034058,0.023528860004792193,-0.015319003516996554,-0.14266363750686678,0.05607907870315905,-0.22800960155399858,0.16472923048941251,0.23191180096639552,-0.013092243164888953
276,0.06379411332732371,-1.3112375903971172,0.10523832940354183,-0.03159252252631685,-0.32495940785386146,-0.06316742504692457,-0.07424938225097126,-0.020665626134516668,0.01652744634191694,-0.06906142882086849,-0.24479772988366222,0.17654190569822453,0.6639783692747094,-0.10214165819646082
277,0.050921034669923204,-2.3725598747880756,-0.002165562108075725,0.03778908352988181,-0.28511769842091467,-0.09570638318381897,0.10696760344753899,-0.008067999022690675,-0.11542171094240808,-0.03496697360001377,-0.20743830303685634,0.09972435968678729,0.35290862121203526,-0.07946972996075409
278,-0.004241006301381911,-0.9940163176073933,0.03797751973231442,-0.022683756572089837,-0.24786667771541185,-0.15323199867349352,0.12495593520305152,-0.012154609454814683,-0.09105798092594591,-0.07843269522265567,-0.26053684458893295,0.1335208312861236,-0.11139069956357714,-0.10588329557826269
279,-0.05130937959178056,-0.7514980326419737,0.14297352046672346,-0.0009575479167089514,-0.24647978956475414,-0.10894253352606585,0.2570698899585581,-0.04376825523542024,0.1345506013127711,0.05768361541952287,-0.30091781920657573,0.07178284689188758,0.26513835489053855,-0.013399952481918984
280,0.029560983841210697,-0.0049404553114000965,-0.005906040265059476,-0.021929221788429428,-0.251910642497572,-0.02807215349593635,0.10313695469293988,0.02435819874072183,-0.01079805013253006,-0.1861182442126431,-0.0902621882248406,0.15178761586192857,-0.448169555211975,-0.11778773682433101
281,0.03019853714390358,0.01797301572925164,0.0778958437626888,-0.05733623956564635,-0.357723282544136,-0.12302954324887067,0.1738880851819976,-0.055338502344574624,0.015168257285281067,0.07000910400046144,0.04720158266580182,0.09738820888922016,0.3484667811465113,0.002161927301159612
282,0.08949257587166656,1.2205496613648035,0.1587871626784356,-0.03443047810627626,-0.3191736009821605,-0.0989906104342155,0.08368757302579188,-0.03602428907404619,-0.0024252638087437772,-0.045310971584817054,-0.024082893527671137,0.12836853480439206,0.9077661555401058,0.014194025974076659
283,-0.03224745790118899,0.05953602965919816,0.01604694383059857,-0.04811441865310623,-0.20261070030049452,-0.11778063694708359,0.1172181323099398,0.003171948349011161,-0.03994670179201071,0.024341014022490504,-0.06567582398704158,-0.06571841570550502,0.6514513280964292,-0.0574342520697181
284,-0.007553575023400427,0.36416185221752373,-0.028686797102120187,-0.042462966760822854,-0.17112743473411524,-0.17102659328514586,0.11897131757754827,0.0209959935557983,-0.05133686061143364,-0.014694314516247427,0.0123234125540235,-0.13408332859350416,1.1699619235746572,-0.019883198711791228
285,-0.0003044624881292646,-0.042148814703289905,0.055657454463934664,0.004776161826631466,-0.370295436181262,-0.04840160417175196,-0.05266931982478015,-0.07130200837014086,0.02472838189509796,0.023955313993224255,-0.10805460418001564,0.15620666935084127,0.3813845922283818,-0.1117055045448468
286,-0.015116943224600388,0.29785025740893034,0.06147915574898355,-0.04062064658997784,-0.38675850069409107,-0.029371193700608866,-0.06617433211264676,-0.05961293399409208,0.038246325156599176,-0.06248860171255989,-0.1421326526656049,0.12085687195054966,0.3174365118148352,-0.09003404050331638
287,-0.08289431073849318,0.006373327265964429,0.04848865781721723,0.03922551172114668,-0.2632998007697936,-0.10397709738649495,0.01282110836504427,-0.008916549209297464,-0.00806025689043302,-0.001923874900644544,-0.04716620240872916,0.21195461165558865,0.3203865091290391,-0.09311917737181807
288,-0.03692754721941044,-0.525207341208235,-0.18056003922624053,0.04653399551466197,-0.3099005365716632,-0.09839138868188278,0.02510073726501324,0.0017535837004730992,0.024228902797119006,-0.0988466572031843,-0.055466995615624806,0.2775152541221575,0.5039768155905333,-0.02675572430902041
289,0.04190695551212675,0.1279159804805072,0.06658361537480695,-0.06680249392648935,-0.2726304050857341,-0.07441518254962239,-0.07812594927524474,-0.05595404864513533,0.01779382885127434,-0.014266762116433972,-0.02403065168845535,0.053874022743830546,1.1534070298649812,-0.09675232994004564
290,-0.00588573230639261,-0.5222693292039994,0.050203600346436894,-0.027580387159771905,-0.22390826099970973,-0.09309600102505136,-0.02934028912003268,-0.012599431050445288,0.07697375570402792,-0.0021665410519811634,-0.07109020238822171,-0.044062744617990736,1.6032474669007126,-0.07238583259978303
291,0.031024150522506844,-0.20472128075301277,-0.03833495745159904,0.012396548451261986,-0.20895178723272576,-0.11884320858872521,-0.004905430139472769,0.01732884885361069,0.05593402747114712,-0.013199137186471022,0.059531242030101406,-0.4101901070713998,1.2266109438311044,0.015504712755119544
292,0.016267481149062846,0.2800640959860279,0.12760896274702874,-0.061766283219335937,-0.27616086836597775,-0.09375033180286857,-0.00409578607615288,-0.08095594879020494,-0.057623044183653965,-0.035863898380509684,-0.011008223081493004,-0.26815151765799994,-0.34508761058592263,-0.07499751034028798
293,-0.008669868733127806,0.6520403047201276,0.01960354699125816,0.008966568577693838,-0.2019181539999949,-0.15383263084048965,-0.10814220113096171,-0.02532855430982811,-0.04217712687699861,0.11039528225267353,0.021439802819913326,-0.4989218736954729,0.43579430548221626,-0.044387937047673076
294,-0.003909061262052427,1.2162162159087295,0.057538738219661933,-0.05940603784925135,-0.2218507877571512,-0.12460478515883959,-0.1202685118035823,-0.04181535276311833,-0.10888189853677095,-0.010216754358058005,-0.02820028402400693,-0.17625547764132365,0.05147899835326564,-0.1215755153608494
295,0.03312383466710067,0.39076874384111604,0.04717911788031792,0.027491558358347327,-0.3150615621953283,-0.10529882236436733,-0.05849603333709833,-0.04592436893029856,-0.018180060774558887,0.05124423523257651,-0.01950689479260151,-0.19574171749582478,0.4797022488493118,-0.06772681604019615
296,-0.04174501568625966,0.050284139841404424,-0.03354216130715221,-0.07591904868325063,-0.11822476558643888,-0.14107002942491464,0.017114564083931375,0.01733516035773837,0.021719107719784816,-0.13588863996233153,-0.13963975321016414,0.20070201770273033,0.40094879770838177,-0.011373187437171521
297,-0.018567172981046043,0.44152267308670423,-0.00972268677379673,-0.018095231042412473,-0.1728725210694138,-0.10460442643940632,-0.05318178876647264,-0.005179721618449998,-0.005944108371838924,-0.27079091577806713,-0.10899845008978201,0.14896188978746255,0.5214284412677899,-0.038289927509900276
298,-0.0012673691945147558,-0.019637289817233505,0.07365373998777766,-0.026250078140429907,-0.24220244630383878,-0.11176408462870743,-0.0056330657090980785,-0.023275250548461815,0.015620750238046474,-0.23616117134963338,-0.12603154510226167,0.15699143970440133,0.763165399421944,0.00979340505806974
299,-0.0505477194581406,-0.2050100446613968,0.1223037376844289,-0.039755270347522964,-0.20419026575349986,-0.12113047481088145,-0.08619222142142317,-0.007374491144343208,0.015012424048239853,-0.10649743819603054,-0.09583266942562446,0.15187966292780916,0.753621102625297,-0.05071664210937253
300,0.0647919264974145,-0.3700792664863066,-0.06055495903436875,-0.037107938340232204,-0.34757861801967427,-0.10472280833171482,0.08095412626731045,-0.01786986555277635,-0.05377003872453917,-0.21512697684093965,0.08332536917525087,0.1278128530860408,0.16065201926521827,-0.1021865581039105
301,0.058229783067869356,-0.34951095591748704,-0.025940846163530706,-0.006878112465095171,-0.41964232631342635,-0.11140265417397295,0.03156955605154003,-0.007905978000955438,-0.06941449917103437,0.014349074992059563,0.13073112745569054,0.07235047119199538,0.3120959016684645,-0.12820379236792015
302,0.037289915620113134,-0.15112237011468196,-0.06366973718129695,-0.006730595610956815,-0.3706527144535913,-0.1100555534408038,0.08852982885988299,-0.011287429679557287,-0.03679799052399807,0.010057619033680285,0.04103063905821557,0.06323710430536983,0.05027724052675821,-0.14723917606635428
303,-0.021471485253570566,0.9188103740863928,0.12652939403661373,0.0073402767271991045,-0.18492094058935837,-0.12027742216850221,-0.09490666899660571,-0.025328332696835522,0.06688202029761235,-0.20827947951471817,-0.03897693218755883,0.20332578977972382,0.4356583146325919,-0.046646596930260645
304,0.07353347231660046,-0.1749904757924723,0.06328270542430292,-0.050231334143699125,-0.4143385227308281,-0.10947782984867077,0.09874270387843337,-0.03271134271439384,-0.09524220983498144,-0.0013491198203729009,-0.040800148902754275,0.23617991490080156,-0.1981618230168423,-0.08359519785007243
305,-0.009588075014394681,-0.2580041023598852,0.09706825980014383,0.010812605180646268,-0.205767903321621,-0.10884311668751842,0.09057118002782599,-0.02614719719945162,0.0677649699044996,-0.011451421960508558,-0.028322979731557035,0.3344168406239526,0.36313483976179484,-0.0752691331722318
306,0.061432881242315995,-0.027795765427897523,0.03735096486912648,-0.04146747702465739,-0.28898520110029124,-0.13755114340373842,0.11666679981365452,0.002768560447204693,-0.07446417402408116,0.10271303477277346,0.09761481581348336,-0.23761971330959303,-0.040504115137116534,-0.08694747864807362
307,0.003738157086110694,0.42662972177190733,0.10388089497540584,-0.002683338953700043,-0.2928305850234606,-0.12348348275907652,0.09697872811938785,-0.02832746679581169,0.022616640259185278,-0.059143499704348707,-0.10558898923883328,-0.3316016243749299,-0.4148882115736285,-0.1292658356556026
308,0.013398891940777258,-0.09977879240309116,-0.07404446149302046,-0.019259395421123447,-0.3348359366788492,-0.08070298902245546,0.036299307075859516,-0.040451615489730565,-0.05945523942912212,-0.07331685202079513,0.1318100098604963,-0.48085715760764375,-0.3006154097017839,-0.12175529609279334
309,0.09142307412261802,0.08483494869322444,-0.016034115922627712,-0.03192851369683866,-0.31024208373232215,-0.14077763693010378,0.01840485120143976,-0.06196076546118131,0.0024641024449612026,-0.06046088600963932,0.008018212463978838,-0.4503568391834456,-1.1990260415830387,-0.054070379244603735
310,-0.053745077563875227,-0.034769238293833826,0.162879919524608,-0.0020498309860836547,-0.19087195590981113,-0.0673266360536329,0.13475271487279958,0.006572738014945789,0.022255215988185167,0.0031486589618885275,0.19071023407750404,-0.48705034697739413,-0.08118208675607086,-0.1041031488741178
311,-0.032650788794505725,0.43209263752771465,0.226589383039775,0.02586712660599716,-0.19598708849353458,-0.05527396536969639,0.1893720463872424,-0.012917062990040779,0.03631867942980861,0.049947112778066495,0.14384071333202952,-0.5669616617367403,-0.17253225159307561,-0.1405579096667952
312,0.07473031555802728,0.5347076095125901,-0.04107732627333793,-0.0700638750849907,-0.28655415992179845,-0.14072408219704655,0.02514969727165747,-0.025332640938050544,0.03699673680991486,-0.11787301715510724,0.14811767885772698,-0.25885541183360217,0.5032435644190804,-0.01250897604723988
313,0.041503122662365444,0.33295362586159205,0.043919810500276046,-0.03843907097830805,-0.27461663672742953,-0.1520972301984097,0.08545776975183492,-0.05015801004361199,0.03505586513352483,-0.05913421402051965,0.09479374026154527,-0.04732546286160119,-0.013988726589150409,-0.06635098770037184
314,0.015562489205053098,-0.35384615919304974,0.1940416858148326,-0.028334910726588967,-0.30959118839911953,-0.13578995881867956,0.0048818909910769166,-0.018006859756628413,-0.007358088717643596,-0.030575076715743277,0.013101372920639232,-0.05543831156330151,0.05667213499134868,-0.0878517721558018
315,0.034135216992375095,0.17378415062438082,-0.0343315432153985,-0.030788968123986248,-0.21273635103251773,-0.08307764559604401,-0.10921844128057347,-0.03288842096940217,0.010272961903731018,-0.015587304639011243,0.02568771091784597,-0.048218798963620774,0.5028690111946954,-0.08404484209327612
316,0.08894510166947672,0.2974166150599602,0.1572188626303858,-0.02110064681406075,-0.1658722092975985,-0.15794111249400178,0.01729702997295443,0.010576372541837631,0.022884275493822215,0.11510240167257954,0.020268178194114868,0.001744800873749841,0.49293737090980483,-0.03299877736961948
317,-0.01713387998076299,-0.4598246187484085,0.1308258279003595,-0.04856077143322669,-0.35944198295551655,-0.019168581544710003,-0.029247520007845695,-0.04172650125578034,0.005950234861864634,0.007370341640643839,0.08358656465555206,-0.2583935563288642,0.22855554010313303,-0.05817275957103391
318,0.11595412577506503,0.1386125771240319,-0.11228083398065403,0.01708969111195394,-0.1781555759788301,-0.20349565611914328,-0.14270733734947744,0.017883190753790454,-0.01952599198282655,-0.01980218839151666,-0.09198245090831457,0.13010279731444982,0.12801931631938573,-0.10466995017009116
319,0.04728457765762156,0.7617025136863578,-0.013879908907407756,-0.006358820187433407,-0.33568883046306713,-0.14989185202870348,-0.12443067365115551,-0.045105714405920094,-0.014588924803238465,-0.03125321937779778,-0.052660750731895536,-0.005800381645353077,0.191584252349357,-0.036331411341111536
320,0.060068393431181644,-0.16296373190161514,0.08749230527467533,-0.04818557704718938,-0.174832442953678,-0.04641206737459492,0.11611825939315978,-0.0009594358333095271,0.03830419274292443,-0.05061325570754219,0.09137442751763772,0.09015149141588673,-0.04228239684253985,-0.09966108963411609
321,-0.036481711523460025,0.3907860628390514,0.12923177866821398,-0.02543064879550318,-0.27337506209885964,-0.10921647167749222,0.11624014636022209,-0.012292867405400532,0.09089113982147032,-0.13917750598673528,0.043170217814716666,0.3449556354961454,0.1702813800162874,-0.036297819188796876
322,-0.013830029272970779,0.10318370824776549,0.05425913849110668,-0.02795767639893456,-0.2123374475490616,-0.10852898954929047,0.11466950609065668,0.017967203897784,0.07147998184058013,-0.08724005863911473,0.08027569763703621,0.14211968142162726,0.1311740603358762,-0.04223803566571615
323,-0.004156197211093671,-0.1901426701512385,0.06482324441401491,-0.0009756717821930204,-0.2888024926119131,-0.10458621549601,0.1276154910090725,-0.05244056583704633,-0.11534344019074895,-0.06630614336603043,-0.024194129219570953,0.09637442490399215,0.1451659550118221,-0.08964275169641817
324,-0.07216245904202295,-0.36529780351568786,0.1271199142086984,-0.017619793233748234,-0.1689386176874404,-0.10521516760833685,0.16152597818428222,-0.012065809333705463,-0.08227782367086434,-0.06348762116837312,0.003784873953861484,0.17200447475365885,-0.00469214038476598,-0.08832435872650807
325,-0.05888490319445011,-0.3565794366806766,0.12415083374785106,-0.03146465657665126,-0.11895526013345112,-0.1016583009741,0.1489886953618943,-0.008858637452776236,-0.07253559314683627,-0.0011405461694705618,0.03205200153421052,0.15272951168378923,0.22506943410009078,-0.13555787752284013
326,0.07026039313220472,-0.20578964233140634,0.05396357705400823,-0.047105336352277004,-0.2732299251021179,-0.06462452364784343,0.0847397867845413,-0.032565966752035685,0.008344810402509645,-0.07233565764423931,0.03296454765956833,-0.12959369720573824,-0.4113621267657199,-0.0544037086995731
327,-0.0242749990661692,-0.6570158011969249,-0.08897934479383085,-0.01634640143291465,-0.2883054447084793,-0.0963930110779207,0.1216940571904078,-0.03358227461313635,0.019361409165168153,-0.038213690542935164,-0.05409975628096052,-0.12259011171720958,0.052072182604869705,-0.038788983826362144
328,0.007980663431365054,-0.3456332428024411,-0.046172223071151014,-0.03344913966197288,-0.2930417896274794,-0.10579474324637295,0.09962291092641222,-0.017682364491960062,0.054958418478634766,-0.04572609255923098,-0.04265871834113073,-0.0982191645184102,-0.007229250291356681,-0.03570984539901113
329,-0.04727589694244441,-0.693081092341283,-0.03623086605079251,-0.011040202183673329,-0.3387086819236574,-0.1742819148493912,0.11462674572992088,0.012414706949637241,0.003894520329293036,-0.10836703505725538,0.011423824828290248,0.12388018981693139,-0.10943127653907492,-0.09890923154673045
330,-0.05681480730680266,-0.8521450228408812,-0.018879668371221958,-0.018067152812103818,-0.16275675477715323,-0.13850386140649945,0.0942435655690945,0.008660862688749701,0.01503072794707655,-0.04504493494570272,0.02868451751693462,0.10792522387564063,0.08088062294724042,-0.08001469799886281
331,-0.018820862909173286,-0.9416981485734053,0.055526891194693756,-0.023726636251717448,-0.21342961456339551,-0.1437214131322286,-0.07260486756699719,-0.03797629533789871,0.06712938924306952,-0.1656243081435908,0.01169870094160205,0.07708974191967488,-0.21339430089521771,-0.07171189249810642
332,-0.0009931592139189593,-0.8237333132221638,0.0599125034112265,0.017233503453520448,-0.2424430973215007,-0.18699220120149102,0.12966942412192398,0.008072237340741695,-0.004647141894969273,0.05746473677634138,0.04768943653683838,0.17713160820306956,-0.2412945730552008,-0.10891902878311799
333,0.02656228643874564,-0.561622399487364,0.06092128329459057,-0.04933410900411535,-0.20869709014509705,-0.11418769669444709,-0.10132684429071856,-0.07205089000100187,0.04933834897360995,-0.15685411845612524,-0.03592083759421257,0.4355554726199864,0.2790731114374581,-0.013641757166635241
334,0.07955593786791254,-0.12589945752042453,0.1337572618516889,-0.009586053101114624,-0.2774574484192573,-0.10269560203892397,0.09664586486849262,-0.03221754649669227,0.022439846979313227,-0.11340543555159266,-0.03264681232907318,0.2938268161452148,0.19537667693758612,-0.025660169107665436
335,-0.0038729343438745345,-0.09376912795436804,0.016575526616879388,-0.008911516991544167,-0.22774875508531095,-0.16198808138734289,-0.14862495780108595,-0.030591827982249284,-0.017964712407334854,0.03447426245976764,-0.06577341269537419,0.18159011424949456,-0.6378162214011655,-0.16435910121055658
336,0.1395484748151955,-0.48340793246551217,0.14511171194919653,-0.015763635221319967,-0.2269317784871272,-0.035144471448299464,0.10392365021824712,-0.014095048789075151,0.012806318782004514,-0.0023282661862324867,-0.013223791625134845,0.03895215186737158,-0.4802695912539118,-0.09246040086651798
337,-0.03507445378807189,-0.08773318406024576,-0.09734891519740185,-0.017705259889338056,-0.21345918505995753,-0.1638059615560231,-0.1377933834998057,-0.030252145195675484,0.04668941153971616,0.02714600476568278,0.06140012285189027,0.19691772402551913,0.33947353904429667,0.0038860422229932585
338,0.02908379857004445,-0.15170857172326538,-0.01694338568127246,-0.030689177179767935,-0.29329686698873647,-0.07078810973969435,0.03881316002438721,-0.03486598226090019,0.03905473347921515,-0.01954688009298018,-0.029471812548625333,0.04769885848738897,1.5240891425745346,0.03493390615428969
339,-0.01599581234087205,-0.7452929917786348,0.1346616606093106,-0.023727343688497222,-0.23579508451561262,-0.125169707368211,-0.07784403587521992,-0.02175084651040215,-0.043037297010566855,-0.08105611381274513,0.19737390665968385,0.2644320907261939,0.4462572114801881,-0.09133077854259293
