sample,celltype_0,celltype_1,celltype_2,celltype_3,celltype_4,celltype_5,celltype_6,celltype_7,celltype_8,celltype_9,celltype_10,celltype_11,celltype_12,celltype_13
0,0.30297689441414216,-0.5248121988873488,-0.2387856149881047,0.029599340533665218,0.36707586628333955,0.08668306938359359,0.22147694383609035,0.06557331260313375,-0.13023671911319443,0.08324841315016081,-0.042274224365308054,-0.0045109619002482336,-0.4220021317714109,-0.09007283147411052
1,0.2933286175008216,0.1603811189591388,-0.2752614511701087,0.020997355860978353,0.3173484539682397,0.13145180033888773,0.03698342906823529,0.10489577825671124,-0.11504401530686922,0.10517635505258674,-0.07511496687042606,-0.021214203523951595,-0.9245681133858096,-0.02695948500856148
2,0.27804307145865925,0.2846638013633299,-0.25589107687167134,0.04836748661187708,0.37239879768412404,0.13003833033604387,0.08305729535965566,0.0803934477403442,-0.1448493250538774,0.049642840075981375,-0.08001000959039135,-0.0395288188447825,-0.5570962144856031,-0.010021613065666755
3,0.262996818044998,0.1719807337319747,-0.22344215290398622,0.04091158039116724,0.39638378083427495,0.1360303056207089,0.09969468721601613,0.08417435544002425,-0.16048037716465857,0.04743604495142787,-0.10464347611504594,-0.05513921471028872,-0.32849347679465807,-0.01065537055819905
4,0.24073863241355337,-0.25891702880659245,-0.37400085366427854,0.022232481897562148,0.3583283202157565,0.1319406927306656,0.10319247067647463,0.09754820709085321,-0.06688969299869955,0.10752644077828778,-0.08716922368323991,-0.03263895743881222,-0.22371045707716664,-0.028619281731728737
5,0.22329073340273203,0.7007661317091693,-0.36164653190299756,0.05483030282861011,0.3427344090109613,0.14720051171223722,0.06373166456714092,0.08310000995249962,-0.08591218604719894,0.10181493624450419,-0.035335302391743435,-0.043418284018009116,-0.2926074167912158,0.009913361994154494
6,0.20366993783020146,0.8283718742210702,-0.39368539712010664,0.05343352525855921,0.33434468118260513,0.1450336203293135,0.024962573909837953,0.11239087256798959,-0.07973240650198189,0.11472408230129143,-0.07154782705996722,-0.022512216940621926,-0.19295062508796668,0.02589840126108963
7,0.2707766196750958,0.09757432664162256,-0.31846258462433724,0.02516879510581668,0.4180269181314905,0.11212764866661927,-0.02134991459043454,0.07649906026509151,-0.1351438546107127,-0.00021368067912034812,-0.0393781523572611,-0.038347857790711176,0.2892998011870353,-0.016924050027534256
8,0.23824356489301515,-0.0918523340527284,-0.3634900730696721,0.025715678220093505,0.45440004160493214,0.11695183041833482,-0.011227677538592924,0.10141771196030294,-0.16415700147314516,-0.014707580647978405,-0.006635791776313288,-0.0032119479036452803,0.23743104878771396,0.0031414655005139974
9,0.30634402321007254,0.1117954081175798,-0.31643663269454264,0.018165368020953206,0.32740409903116935,0.10166987696595292,0.08084404942895745,0.07367102071009117,-0.07363588157580106,0.11134890147167346,0.039638456783612906,0.05897209639644133,-0.0021678777956823723,-0.049828983759132625
10,0.27489631546235077,0.1061699455447109,-0.28982010995802,0.03999371870291655,0.289281283110666,0.10307905346188027,0.0748901201076883,0.10233592302920824,-0.09412779822229587,-0.15862329508707246,-0.06163859711028903,-0.05547545416710359,-0.22863649911889036,0.005950820995908677
11,0.29678896897262336,-0.9852309371936656,-0.2212159309387552,0.035388479970821334,0.314406568508802,0.06475430431389952,0.029225999933198517,0.10883957108564107,-0.08863130944433069,-0.25336171433913257,-0.09264439496686941,-0.008795545536879695,-0.06198006698901492,0.03665515057941017
12,0.32127347881630247,-0.31747893744833366,-0.22603775880748125,0.039044591939633715,0.3521766139927635,0.1463475601359475,0.01609740169611162,0.07909988710214323,-0.07188419475414394,-0.23080663996107295,-0.06965538768376717,0.03514108708101231,-0.212549468415553,-0.020039234005113135
13,0.3035033186458361,-0.13271484114512622,-0.20615458372738368,-0.0012509092670801227,0.2815948907215156,0.12822315457268918,0.02738853098384839,0.09572824420272415,-0.11536605914690545,-0.10771949447683776,-0.02030132753481565,0.0007112133479004172,-0.3701150628283074,-0.0007135458338639011
14,0.2568630462601256,-0.010323941252115469,-0.1567072307324202,0.021052160846518734,0.3160426549283326,0.11979329515267169,0.010315990048761558,0.07689395893685019,-0.07334066547917784,-0.1008213480515014,-0.09243510514718883,-0.06418977859760171,-0.08314715894578578,-0.09081697147126018
15,0.23393453522927976,-0.24509727865781866,-0.24521525538019978,0.015648750215621187,0.35450428402584877,0.10691363346201646,0.04263029542776083,0.0906284354951858,-0.09648835375166621,-0.036414576838202976,-0.08241026265342623,0.0619002512351161,-0.15289264609830952,-0.007309077402069694
16,0.2672686715615342,-0.35595471119256866,-0.23074247166773898,0.005596724008147863,0.33030965045957567,0.10276808735090394,0.11175110460029006,0.08959857559968518,-0.12291197113214015,0.0448184380452382,-0.09722841738338892,0.03931963070847494,-0.2137410422074761,-0.020893172257545937
17,0.25134320423328566,0.3835010132470931,-0.3435683756717466,0.018288560920889374,0.34997219637421534,0.10941614607329146,0.15251978378753675,0.09867204840456215,-0.05828793068132454,0.06184791969404726,-0.11456582642339205,0.03333935925237981,-0.13486399669605395,-0.02070213702599056
18,0.2990969887735213,-0.016356071622857574,-0.24579051747246597,0.014665819045622568,0.314107436299615,0.1376241893293135,0.12614680108357632,0.11091012840407256,-0.005841930092615966,0.009188123194088597,-0.14816617077172037,-0.0381966346423752,-0.23211982527173047,-0.003615516926410355
19,0.32142316029419565,-0.2259473167857628,-0.3053989296152899,-0.004952045059195528,0.33180309998324997,0.1813539015724009,0.09623942769066869,0.08856767311868236,-0.027886287221144248,-0.001178417086162811,-0.13255245265104512,0.02862499621365764,0.09082558817802595,0.004938107369068995
20,0.30919118572294046,-0.057962523405786046,-0.24742229106976504,0.026410930051275358,0.35825091161683653,0.2020817404828491,0.08670413358147083,0.10516710833968097,-0.027264961040646518,-0.03931994515103112,-0.13348517510425412,0.08762649783306073,0.33418569763320677,0.00614250256212766
21,0.26169911995597056,0.15573857946761546,-0.25987517098575913,0.021744111360294523,0.366458128045424,0.059368656317195886,0.03308359527790926,0.11307766661827058,-0.06903153087657658,0.03761225005725089,0.06657446687502394,0.04044201351813392,0.3250503706283623,-0.03386205980879175
22,0.2900580744640041,0.17941702824501363,-0.2587738256556234,0.003458995002241954,0.28329201801326237,0.09202040846826663,0.03307935564908021,0.06272444334822866,-0.13095872993630356,0.10018026364509133,-0.02563237438028437,-0.03659023851325336,0.11310011533149086,-0.042011816339738425
23,0.28292025398052584,0.07596618469947404,-0.2631367048912112,0.03967099702203299,0.3818740805198817,0.11887615107948829,0.08754018818084154,0.07504702785280327,-0.07659481889955949,0.08591498625324173,0.07619930323262203,0.05979287099384535,0.1464603662612566,-0.022015169493250736
24,0.31782854418873385,0.026684331119852658,-0.41199337843627143,0.003249859235499659,0.2843392870217317,0.15886963298100262,0.08130905943294567,0.07082680086696348,-0.13525662327511437,0.06932193598284903,0.09575630680285988,0.03745251263123221,-0.4539471652072413,0.006555236666748176
25,0.3345506196134699,-0.006766493061757874,-0.3060136422336659,0.031154403835775314,0.40006586699007046,0.10248326076410329,0.03900758091784837,0.09633986218824858,-0.11164778914144614,0.0825102872884251,0.005255554028826723,0.0214304991964007,-0.11224426039051612,0.015596551533051771
26,0.3021514208870045,0.24429991433399734,-0.11941206752203168,0.0044459523340622,0.3474950816821249,0.08814792424933746,0.06546456785809945,0.0905934054003702,-0.10486821422743561,0.06336360046471924,-0.08750116069967435,0.045837998708971234,-0.7063566067014377,-0.025252620878397667
27,0.32191299013879787,0.02721620524653456,-0.07432154322614506,-0.014017591493641481,0.3716394995190744,0.12064655813317665,0.12246312626123156,0.0993876532749272,-0.0957257974720186,0.04543927945064713,-0.06113254995361002,0.006994014364644239,-0.6364517804242869,0.03025232391272595
28,0.31871770972402363,0.3903040344921377,-0.07300994642117388,-0.011679519463474008,0.4068422079957623,0.12068474107624802,0.06594615625411056,0.07007330612548432,-0.08154762252679294,0.02996899645244085,-0.0994103657063228,-0.007502348381337426,-0.6364314913996684,4.506966354372956e-05
29,0.34053885701695724,0.26794476493743136,0.019700889773935214,0.03174324052134747,0.33747129878212356,0.07818513878621317,0.1052685987689315,0.10968957370939854,-0.1134641215274573,-0.04642951438376025,0.041734198957455004,0.060453232643448526,-0.35832928932500246,0.03324486148555338
30,0.3957812315691891,0.11937519244351615,0.012950037100327404,0.01975985690524762,0.3833211887031271,0.09670343553486921,0.0723190844387348,0.09187197277126248,-0.100910570100525,0.02154021575823182,0.05918336943995908,0.053984107085069524,-0.40001591143821896,0.05677255576832339
31,0.3600508950460019,0.08146077467965716,0.048249066840268445,0.019515227428205762,0.41219479218586563,0.11565561688350715,0.05831934762530942,0.07738930890507405,-0.1058053622178094,-0.08041762271160904,-0.018899917902316703,0.07433771219741836,-0.3810662869872925,0.050766966220073935
32,0.2660875363986776,0.08644201611436611,0.05499970644823956,-0.0046776878859291805,0.3010137979596826,0.11059507267704141,0.04475421475860454,0.08896463509914256,-0.13394913826528956,0.050245514289299624,-0.0445192336978644,-0.009940929753052372,-0.03213412250958027,-0.022232014683208286
33,0.27337722836613493,-0.10543809330748802,0.1162164552606393,0.013979519638865389,0.380147054189668,0.08918765640982886,0.03690543585912947,0.10049804842463064,-0.054745582152131114,-0.042550847002631356,-0.03659411311164213,0.06273087850226171,-0.20541148925678945,0.04233990978941443
34,0.28600344826703306,-0.11851207510334788,0.0837495009618261,0.016516140365530133,0.3714359737310911,0.09502324396157219,0.09347613254624326,0.09795661175743492,-0.06503018194157517,0.06079874522002119,-0.006718033760797192,0.07403067544613003,-0.2477955515147173,0.05259148032988242
35,0.30239103377688015,0.210077195946463,0.007100626963540991,0.030978357839447995,0.2840522587685221,0.10251817633025176,-0.0020931734158846456,0.09029021973731145,-0.041374701318801374,0.040472456759783,-0.2474327334829845,0.1645036906448139,0.22168692833897374,0.013969047065878157
36,0.2759453787903572,-0.10059057875879628,0.0949044571079957,0.027227369285631287,0.45371242298251646,0.12627933390912094,-0.0032237929505455863,0.09506246958540535,-0.0811518696321055,0.089286481469603,-0.03741565743375501,-0.01850164411511056,-0.3574459849325296,-0.024141393768222583
37,0.2659196097024119,-0.030470088522257237,-0.14929875955591984,0.06624014160631411,0.3080605022229365,0.08349123506852649,-0.0177097156962419,0.0610884056021035,-0.10766614672402458,-0.04777442070580423,-0.050589476052588137,0.02490827939515341,0.0030213623753689387,0.028656205402231148
38,0.22438904120668535,0.08314887416018786,-0.1431528807045978,0.023499053299056664,0.3823476117790134,0.10006903751390182,0.0524345189164159,0.10854434293465257,-0.11149140617874012,0.10132373364670161,-0.13181762414502562,-0.15669100733108265,-0.2981937388808212,0.027949117470295125
39,0.20816705875743294,-0.012992590463601088,-0.1629440256135125,0.051673166300724147,0.296880478146659,0.08260254263358609,-0.030846385806987554,0.08563349416736354,-0.05305850259536694,-0.013040940812773398,-0.21223641011488187,0.035680138505411324,-0.15079797503006828,-0.004525900814068032
40,0.28369757346669217,0.043067117026063584,-0.1893517879417664,-0.00042765619592573565,0.34144251897646627,0.13910812688002142,0.05979206190562317,0.0904879162277459,-0.07647521914973505,0.06507313747119,-0.019145658854821175,-0.06289048293232288,-1.2737100000594952,0.01357934585976657
41,0.3170465310273044,0.16166545698182314,-0.11672502342741987,-0.007528703525846799,0.3043279055309711,0.12865688981615062,0.06257207834374166,0.06474671250493312,-0.16782249865127358,0.045577410439602034,-0.10523733930453959,-0.048678302131483005,-0.8254865322601338,0.04153036052010732
42,0.2584334017737603,-0.040943058619196594,-0.2479366201385086,0.01952938766379728,0.31228808785956524,0.06082841239752475,0.05811040170120873,0.11856984113391664,-0.1100234644987394,0.0225807281956291,-0.22580493995457623,-0.022734131905474082,-0.052567781959352786,0.016680071480880708
43,0.26751083029906814,0.17354881907961708,-0.25753282705918035,0.034837919568979095,0.3226813319270831,0.1292155695146102,-0.038806673232770955,0.06861766442406647,-0.058236369295055275,0.08456040368017745,-0.18287906306518675,0.34592287546971334,0.0995787181448796,0.030517237214790716
44,0.2052325618109027,0.2703774057395881,-0.35115828138569377,0.04520862539391125,0.37522838872147257,0.09154601720605293,0.021442466935542075,0.09573606941414599,-0.10602747750566048,0.07175027431496774,-0.21400564606273864,0.03236785728844898,0.30917709886115535,0.03333584252706392
45,0.17025595201454746,0.12935073782763437,-0.3266074561413252,0.04829846697285456,0.34679385539904606,0.13715714006581656,-0.009024884010326138,0.06256299680136224,-0.10806891229750668,0.021617662713036362,-0.19950292305054834,0.09897288022424672,0.1638850393096311,0.0323156693266871
46,0.20148156732030612,0.0808991702507388,-0.2957874573836885,0.03345755623508397,0.4031014982397984,0.04149497271871502,0.10038563412836388,0.09662480293337411,-0.15282168777385574,0.01936394429456468,-0.1852640751339586,0.04464929738711897,-0.12612096628009886,-0.00513977883877487
47,0.24403621512436258,0.27460745808177034,-0.28277324088994127,0.028821166237980072,0.34344415316046945,0.07400457354611856,0.05643381122675716,0.08147754422859252,-0.13608814037091266,0.053403213507372316,-0.21903827554973404,0.002259992992938514,-0.8624658111430976,0.0009646781164858833
48,0.2531566424502723,0.5669900387027036,-0.2847640376461828,0.02012737141478711,0.38029130757658236,0.10829530106603608,0.023938235843275705,0.10141219637791522,-0.0513126634325098,0.06422412460981619,-0.018671651362230084,-0.21580397644928806,0.10523389284658087,0.021790048688173042
49,0.22505226608475118,1.6473364330939102,-0.33053134615889546,0.025653249559906884,0.40251400517483443,0.15091902772164745,0.08309042364617644,0.10070389261483409,-0.10229919051444865,0.012088931377085405,-0.0851387746510955,-0.15572616639741063,-0.18262369205891843,-0.006760441271835683
50,0.3156215906321178,0.9586911680275925,-0.30599146471055544,0.005889978672388973,0.35459757198831415,0.13813405225300524,0.09165547762932642,0.0980744562157151,-0.1341902608189616,-0.008500029747339037,-0.033245814762004444,0.007514192489334532,0.15677647599577843,0.03655046047219793
51,0.2384868512104079,0.6378343068633312,-0.25755003796806714,0.0026921621462423664,0.38380522170518105,0.11623862071687363,0.10388457661699002,0.08682410571127576,-0.19904651429456965,0.03542919001022763,-0.08265142388145373,0.060478744978569504,0.22112111883529367,-0.013673198524132365
52,0.34528193111821154,0.63292182130812,-0.2727227504225341,0.034849018477770936,0.36964654096894883,0.11685843462279594,0.056944866500044704,0.08282729607561215,-0.1522054535167875,0.0009118539567252951,-0.03713523689181153,0.06473887980870456,0.00859413308608524,0.010098342181855678
53,0.3898679106290123,0.6580975256295942,-0.29601424221808,0.01972412902458302,0.3380670523273317,0.10085873637728704,0.038501948181274594,0.09605939907938049,-0.16442230146466613,0.04794713191351322,-0.0318135714940999,-0.0182417486846719,0.043040167826390856,0.018725073634165645
54,0.37460032298453694,0.6742796949034335,-0.2647682921057525,0.014455832588654976,0.3533672378832981,0.10152909773928509,0.05545169172483936,0.10300635826512705,-0.1684857395531264,0.04926755843650067,-0.01749875671344679,0.03574523503739176,-0.06419675992261752,0.0056940496502945704
55,0.3382196709680994,-0.010510723236900289,-0.3222690354870427,0.033852575188835075,0.27616692125509307,0.12440939812795278,0.0864653724578355,0.062255692115182386,-0.11290282547427609,0.028142919668510232,-0.04677547181524315,-0.006999141427335596,-0.44515582353562394,0.0088603921844884
56,0.27530386646430266,0.5493641456547349,-0.28885860364097193,0.009502626829134286,0.43170376481547185,0.14355336035328614,0.051960342517697024,0.08592007771208099,-0.06985432406613827,-0.0226121233385754,-0.1516834255064054,0.016764816108174537,-0.24424583904842936,0.006477042612952499
57,0.2580418817790141,-0.02791002487028288,-0.28500155875504946,0.03700327958359389,0.38415950732502024,0.09179690002807521,-0.01156189476368882,0.08920164394714532,-0.15419015460277968,-0.061973223925974305,-0.060224648876381195,-0.10181923919248954,0.2048106774378107,0.0238573256221686
58,0.2817517471414743,0.2161319082875786,-0.33527056842022146,0.03811313688458662,0.3818402368414054,0.1471863982074105,-0.011426855637323223,0.07726795699835626,-0.13550557842232996,-0.039377304705450936,-0.08103707179214219,0.0065797740775115285,-0.09956992115690842,0.030804946794146987
59,0.28263329730049747,0.09442272485116737,-0.27495747316716296,0.02394393632433071,0.3697603656725095,0.12122337506608932,0.05126460028669266,0.06474790297962178,-0.12730829990979978,0.05619509004604618,-0.039259374549616505,0.05636238349378181,-0.28576128963383235,0.01043706564947794
60,0.27407400507855306,0.07719951665406631,-0.27419514688082847,0.04556944767256113,0.35236498717736875,0.14805906722266585,0.030407716413520018,0.06960898074859122,-0.11425584820332699,-0.03814540070475612,-0.02566266767342767,0.046772201631085045,-0.09768448940601923,-0.009821288113995831
61,0.27168720456347983,0.22067911823477093,-0.30200255208477567,0.03352221928075664,0.3077034378054729,0.12854720210546655,0.043056866700693995,0.08211039030937341,-0.13339141458667134,0.024439858280477827,-0.09773004134965878,0.01943905848700453,-0.15934021284870606,-0.01295602696614833
62,0.2791634631753563,0.31845656156132457,-0.33864861871561713,0.02575926099976775,0.28865961631277637,0.13172704983329028,0.007614365300841106,0.09407391613755875,-0.13376311714357236,0.0028629125853289346,-0.033344112250582265,0.030011364175016424,0.05005045056613871,-0.0177115112615599
63,0.27489496670131086,0.325845587798915,-0.31156628224043365,0.011262636446302847,0.37486807632882563,0.13500710051106107,0.060614305826631854,0.08690143965982067,-0.057980914696116735,0.009481881399196476,-0.010393287658064557,0.005502389239327458,-0.1244024946730651,-0.03249559576128072
64,0.25251166664361246,0.3330815006537138,-0.32434607293844614,0.015075881110476703,0.29641775818207955,0.11854644014038891,0.0702186324044605,0.10596269744766751,-0.11896487039374555,-0.05918979542641747,-0.045175987171133615,-0.014601259588633675,-0.03850793371775042,0.030672730811458673
65,0.2964547344350773,0.10846077814984226,-0.23529629256512127,0.024685934552659546,0.4366086764801494,0.06599166930629484,0.04666879033467665,0.11186143560173639,-0.13713249595133356,0.05463342616888286,-0.10394122043101142,0.03132547082568271,-0.07761976910517662,0.010842560692742937
66,0.2495207003427913,0.2725668469849182,-0.285464700268638,-0.009668763546601669,0.3543135413413416,0.16283766496353397,0.03585441176130423,0.10007025143508554,-0.10193869010185305,0.0424115516399563,-0.12345399616228182,-0.005950504487253014,-0.15731256227038606,-0.029460773667690735
67,0.2521004785163216,0.17009766673777693,-0.29377900401418194,-0.004615370248478085,0.3604868295387087,0.16856222120739323,0.0454538805898007,0.10064999257210783,-0.09976846788012493,0.018865313593294873,-0.1392653892077663,0.010883764986636773,-0.09065338778932253,-0.030241210889991862
68,0.256894778991543,-0.23451158145995574,-0.30551749548164236,0.01347206176272394,0.3271499626807196,0.1434374591966565,0.0075461987712423595,0.1100290188721029,-0.07093970914071233,0.08481983578334516,-0.12242230361254987,0.1364618805984075,-0.4832275426706334,-0.006041166054247753
69,0.23478185562508577,-0.32864527893947887,-0.24362564237824758,-0.021326561360039218,0.35600877236625705,0.1364799531444091,-0.03763850641085045,0.08404892224576246,-0.04965201642890814,0.10944571880511665,-0.23427440006712352,0.1078977359996774,-0.33375849570525123,0.011472817832597619
70,0.30150655818425276,0.2761859954624022,-0.3131984418561138,0.024475843761026836,0.3273456670745682,0.09804815899770095,0.04197782175414361,0.08664874171341176,-0.11386732981521173,0.038342590264296345,-0.22543013799524433,0.159989779035145,-0.47425409860084966,-0.013985985009389752
71,0.2646384257102238,0.7039641791357092,-0.2729360381246365,-0.006962262918774599,0.3639397356375961,0.08388877919339119,0.10993247701485151,0.07948846097074304,-0.1502008762241852,0.14652152106278,-0.09310468787334672,0.018590844877411014,-1.0773171045337637,0.042729216367684765
72,0.2589929297736292,0.5723434917171687,-0.28875111864106756,0.008597893886252818,0.31250341595263215,0.11837247418072167,0.028703357020734534,0.0957694683615198,-0.09291649839394202,0.11710579072638627,-0.084492318522726,0.035317838504361584,-0.9364072721046399,0.012171884809130522
73,0.28535486341790006,0.23605846432274175,-0.16730481440638306,-0.001547706447731736,0.4002109339001304,0.06983903987600354,0.13745525028728148,0.06343662487118948,-0.11980462394337402,0.05597838830258142,-0.08355923341367598,0.024684042192082457,-0.2398735185871326,0.0031632866621786283
74,0.31963121568371794,0.26084965456393444,-0.2829398352005724,-0.002591675893997683,0.3203511357651584,0.11094791916673874,0.10985392896254281,0.10153609641514764,-0.09492555320166891,-0.006453942199914376,-0.13989679909866812,0.07934512773003666,0.17087528605736169,-0.0018900990192133487
75,0.34803155386461443,-0.2829415431806295,-0.23043490405153533,0.007855551463584373,0.31446182201124473,0.12300906006691513,0.10890117676825518,0.06469416728796629,-0.11506785322480252,0.0605912558379045,-0.04693526186499508,0.095344710061516,-0.22311434000749297,-0.025551909927157862
76,0.297096728286143,0.4097146012547525,-0.22139147943364204,0.0368090673330551,0.3808681808793855,0.1451087073722618,-0.01678704300374248,0.06985857351654064,-0.1477404443823688,0.04823112310937362,-0.117415144928881,-0.03993533518129506,-0.21004356215340805,-0.0037344085831166824
77,0.3683445857989481,-0.1458053784574145,-0.26904385739405684,0.01045207797747235,0.3384290643145115,0.11211782412151668,0.04777990169573503,0.06818367281986507,-0.07037008138130021,0.16378484286239645,-0.017970860302062987,0.08177714692411503,-0.19091100768231611,0.0022429494994004296
78,0.3189636400502216,0.13330690841768383,-0.26554050353757336,0.049858577304093106,0.3657450081103347,0.15219804225766803,0.025886109232058665,0.10319007425124688,-0.1509313408538329,0.2118807040033386,-0.016371164311157607,0.067016591154856,-0.6404163903611577,-0.08927918641225771
79,0.23873606580107692,0.08914232863229198,-0.26437755202383967,0.00416841123556088,0.35089862582086256,0.09561652503026669,0.010747745021244506,0.08242007294899023,-0.04160615861065045,0.005398268118007345,-0.13360907783189938,-0.04803452910352535,-0.10705760941231078,-0.04171579496679534
80,0.3428585835513258,-0.09917485806295415,-0.23772530700076175,0.017000844955853134,0.31768780294868454,0.07325728752462443,0.031396462218420726,0.07854988236998728,-0.09313177007194919,0.031148456766789494,-0.18219754995935636,-0.0014877308385630994,-0.28570717246142674,-0.012513272538619986
81,0.18708145436922033,-0.2853915613129456,-0.24783337136942346,0.01024549172111008,0.3231764607431585,0.12762577063619995,0.008168631999533861,0.08027216797184014,-0.09880457963933806,0.10931122345423365,-0.061619924719901124,0.05867429600977099,0.03850311518018864,0.04805938629192869
82,0.29373943118408546,-0.053501614402736396,-0.2763543874784321,0.0162725400991074,0.31463052759839905,0.11809266165165876,0.023986118373118457,0.10710381071667388,-0.050199895289414445,0.005569582870758713,-0.050166752036269566,-0.03773716053208014,-0.9564683093047581,-0.02657668663323281
83,0.3323401869372595,0.18085107476114923,-0.2784322124334155,0.025684467940851396,0.20029126025465915,0.07768280061099418,0.011688960544354957,0.0689033839158654,-0.11945414979675176,0.06386213918857174,-0.024332519522027595,-0.03775013002373222,-0.6343317580982101,-0.0207309049140291
84,0.27868338496218414,-0.26355643799174866,-0.35809172960587915,0.029096330597471062,0.17185945680339368,0.10838522196508188,0.04050787585452692,0.10241495900794811,-0.15309954135238896,0.01944756477073691,-0.12729365937378564,0.041242056765588946,-1.1516630017568532,-0.019939714434220584
85,0.24278099542341378,0.03705796972216088,-0.3404075817258605,0.029674081844991998,0.2185442386774215,0.12608897344858513,0.021325216675672883,0.09157796183771211,-0.17349496824748636,0.06668873524741686,-0.11567211661350642,0.1063870845430981,-1.2029563932009812,0.010535007399278339
86,0.24368784954913517,0.5465217830038782,-0.3170930062853212,0.020911224489209228,0.24724548943251567,0.09795959097167711,0.023421608852980086,0.07572967292845238,-0.06555868942120105,0.13443908916037162,-0.12573787642467002,0.10508378998099373,-0.7560510104083388,-0.012275996750556436
87,0.22735492711391408,0.7275022283702137,-0.306978021577685,0.023596735212992142,0.2174451213744696,0.10365437505124325,0.02688784062360954,0.06049680510162431,-0.04515130256805425,0.11275321672767664,-0.12808605173161985,0.1693559843790072,-0.5637900844486077,0.002370111879313206
88,0.3222791756308949,-0.03517703448432041,-0.3356413333589525,0.008112339303220757,0.3729669357954624,0.11183716763316484,0.013023302590362206,0.07331826770529454,-0.0698639420934289,0.17606545367258136,-0.1221478304472402,0.3929930513863864,-0.26616028460840224,0.014217768510342819
89,0.26077858107868374,0.15561367316869668,-0.273372006153501,0.026011827508841567,0.3582062323654493,0.10975715744223571,-0.003365690941934924,0.0840380269222149,-0.039834602258951336,0.09051194971025926,-0.06871568624833532,0.2999008692817,0.4634428452898647,-0.04293067883724444
90,0.2721716536547827,-0.3934507034600941,-0.3318496740049096,0.00921586401923297,0.3395192734657702,0.1128554552998261,0.046787659112448345,0.10865239511281295,-0.0702148913157133,-0.01852606074792475,-0.1367057619925599,0.11363506729167308,0.030341196029328475,-0.048920311139225424
91,0.2522908670426965,0.21560756258806732,-0.3382837272871929,0.03379834185730802,0.3759323137645451,0.13443040482867769,0.06002295183276008,0.06246139695423933,-0.06296912282206271,0.022649717726681805,-0.08642025650047938,0.06576150707794158,0.03344898191126382,-0.03175994630563977
92,0.26710904662102325,0.055452344308119045,-0.3310247319016954,0.01850144898254773,0.3662915846970587,0.13144787915941702,0.055540173857329324,0.0850714704775891,-0.11870277801692733,0.03661184137494822,-0.12226210680767231,0.1590613531896542,-0.21727539607017385,-0.011736364837933165
93,0.25314398013082595,-0.06457153656118172,-0.359607472506588,0.014701862018566466,0.36374119283106904,0.12209345507304868,0.14351817610052475,0.06932971304153983,-0.08921453693777422,0.04781657858460951,-0.120044327689316,0.12569482523251138,-0.5088678241901197,-0.013078873458192983
94,0.24364191016932057,0.04897964710129579,-0.2894000793282718,0.05123703247822221,0.38749356628015696,0.15495884996428627,0.008541442786318458,0.05857719648186895,-0.09714937836620657,-0.08348992670843046,-0.15095039052107703,0.08482362440224908,-0.7405176181548578,-0.0058212731324100726
95,0.24734001870371156,-0.03590949893372892,-0.3257293087180468,0.0393113191332683,0.3583603816515223,0.09749911386228027,0.0842956392026305,0.0844914951342521,-0.11871293266519106,0.047614268316475764,-0.1760640156970355,0.015374432114910325,-0.8644093448146263,-0.0026555112112978535
96,0.2610109844664825,0.32401527264824714,-0.2383985026574628,0.0476827274039132,0.2937584677877445,0.09929753030725522,-0.049072768092555986,0.08165346189147935,-0.10819100320349649,-0.01382880195831148,0.0020656359795505393,0.19180903970375665,-0.2803057322862887,0.023292761760365755
97,0.2715312834879237,0.384884519417293,-0.19771946524113507,0.0520517835644571,0.2879061612500625,0.12750493006163205,-0.02001589446946787,0.08294086489381457,-0.10676277840329734,0.006468029445104308,0.0007666416514283367,0.1333716403560199,-0.29206760983957825,0.0020608146999629
98,0.25061407544684633,0.20793621151631447,-0.23739766994390168,0.03403816726035633,0.26702141097130083,0.1094937086718365,0.03754819135302685,0.09130404705259572,-0.128925987972032,0.006539197769169318,-0.04444893853618117,-0.034879946959419525,-0.254861671244427,-0.030201652108828903
99,0.2393123228081656,-0.5742855893299835,-0.23394032143373994,0.027343832172666952,0.3823335876106373,0.10558883591525689,0.08615871957030505,0.11347191882420123,-0.10109824597316838,0.03689552163925271,0.01764201421248396,-0.23289735546018006,-0.18369691976087568,0.04344342035753218
100,0.20335024454767592,0.3037208793842139,-0.2805060505319141,0.028450152213960838,0.413619564501964,0.15165745567116407,0.10722328597693175,0.08258463667231425,-0.09682634334548312,0.06826062711578978,-0.13270443579208807,0.027920878658083455,-0.1765121096734548,-0.024782103635441127
101,0.22080814986677325,0.38940047777372727,-0.23799879626046305,0.02750740996933314,0.3929608320241989,0.06765326708586161,-0.0548678498117412,0.07333615420161772,-0.0752315743777088,-0.015571636978370364,-0.05575965189448917,0.038741414843372304,-0.03217903887061083,-0.007316425536506491
102,0.23795191054498743,0.2060821602030051,-0.2395009371564939,0.01401759096740038,0.4319539005319028,0.07816258093591882,-0.061318068112889486,0.07531918325222729,-0.08910537501560119,0.054501367349406096,-0.07543819037794958,-0.11730077002722634,-0.16708633074605542,-0.041732484271822676
103,0.2547589199927975,0.274876395978853,-0.2576727874459056,0.0089939390454111,0.43552127272232716,0.09248982488400989,-0.024639317499419864,0.07843307851807728,-0.08059465144450062,-0.004863801641600555,-0.1399414132994653,-0.029780818597768113,0.015193072469041054,-0.036852319417901826
104,0.1831379185270171,0.11393427900559387,-0.2875941662434079,0.03312081954951433,0.34257203840753914,0.10849465483083005,0.06928258395218007,0.07855792908789674,-0.09782108239644557,0.1466295899389859,-0.12431349085735541,0.06904273330758728,0.08144790785506419,-0.031337384960813584
105,0.22057474474210179,0.2720406450619156,-0.3267913762188615,0.025487433848260525,0.4517749993242618,0.11792798067846719,0.0854672236154401,0.07382726824213968,-0.10374356734343043,0.161612013627295,-0.18406842334714327,0.05547266685595437,-0.11965895827188608,0.025392765615149485
106,0.23956356537440468,0.004060779441740984,-0.29479897873159794,0.02090277973438564,0.35863449308732875,0.08505751419385162,0.060131166903965465,0.0883012857288102,-0.11033202576416212,0.1065993971323524,-0.11932281956369264,-0.062199793321512105,-0.403821423385721,-0.005694925248145215
107,0.2568739824651255,0.10115791539687595,-0.3470205073082516,0.016521147549117838,0.37940192440234,0.09967977268001249,0.13054041912129513,0.08173983244208176,-0.11152749898917608,0.028327757257340998,-0.06654638319116148,-0.05490138406459733,-0.26819771629589867,0.016005778412630952
108,0.25273605583069625,0.011912238031256673,-0.37060408373916215,0.028636191155009094,0.44264499192939954,0.06587203911440148,0.03440886724036842,0.11724569194251723,-0.1188602469301246,0.008709187702332862,-0.1355225562366477,0.009597928791926539,-0.12142842607067819,0.024185365232654236
109,0.31589336551454195,0.12616492027693543,-0.33479669975560067,0.02166601943691907,0.37926588589680893,0.10904496506249563,0.10448593741680766,0.08542837383051062,-0.1177172759738018,0.11573634814340227,-0.11309637375109528,-0.009772091181274516,0.05369486147976117,0.04954149870703085
110,0.2446279446151826,-0.011831468828044502,-0.29575910382297477,0.030241721190298686,0.34266462948386667,0.06458083203030929,0.07865880477632745,0.11189189543737334,-0.08611831564344963,0.033193731032130476,-0.061913272174686965,0.09962309484604123,-0.07445555946824454,0.028637068646187668
111,0.3114273339672444,0.11844673109466088,-0.32377567955186454,0.06049240297975548,0.40406738700330097,0.08301206933302395,0.00795271130519227,0.09920451869841003,-0.08733743494936165,0.14233918181831473,-0.057809873187940494,-0.04027880615258773,-0.2457842142366144,0.07708809488477522
112,0.25170478474567953,0.17836513306942445,-0.30303178894804056,0.04802150363373109,0.2915662658489588,0.09929264240590881,0.052774212686606516,0.096585789351401,-0.1533553227380426,-0.0014406616302608517,-0.06340013374620855,-0.14517650835684273,-0.12534037130169356,0.06176267226110927
113,0.3055885829970572,0.1504855396656592,-0.3297866478911078,0.04753289719803741,0.31517596198908304,0.15878053563987324,0.05987592461590341,0.08811323000757885,-0.12033070995206688,0.05890199238595765,-0.05317841350138676,0.050183710928455506,-0.03833794893876462,0.03903335397578641
114,0.24407860879256593,-0.027146035122652103,-0.36446008319030077,0.0273564931809186,0.27200395851990233,0.1541819761533213,0.04299576623137412,0.08563497009982438,-0.10589439818106668,0.05104515333510165,-0.062415796595151174,-0.03874217867197444,-0.2640905505419962,0.016090621281822266
115,0.28563555469700835,0.20655129786388038,-0.3274041894059655,0.028019399865487203,0.37468085336839796,0.18957538747877,0.037444616679641364,0.08085439702155087,-0.14536813204403712,0.020030169880109062,-0.06387577534926417,0.02607119734208982,-0.4654822455477928,0.02833886681036764
116,0.24414680588749768,0.5330089447934214,-0.3209900549558852,0.018713354345119823,0.3885582125709667,0.17976318409453904,0.046440122675464844,0.08637826493315925,-0.11870634906684158,0.059208346753966,-0.03949405537450688,-0.07095960733517896,-0.23338813811887005,0.03318755335280826
117,0.3363180356321752,0.2232906292688641,-0.2652055986288861,0.02886017126223178,0.33161931398434064,0.1424262112060513,0.0986026110576885,0.08265463947966394,-0.1076523243341845,0.005094551999920354,-0.09127177661398354,-0.01635597033307989,-0.3079755210451188,0.013161981468981319
118,0.3130425187688205,0.412891640193459,-0.30354660747701484,0.0241805377099582,0.4357707711654006,0.16574118333857774,0.043419944087577426,0.10411420837269306,-0.09652109811786262,-0.0069372530580737845,-0.04653431587865952,-0.0037274316269201423,-0.5808068150117476,-0.030356179380176988
119,0.26016949026194724,0.21556696855847102,-0.2860706532831687,0.013650561453360174,0.4180851369028012,0.14171619655673642,0.12141903753070794,0.10956923078094102,-0.02763171282979657,0.052754721342398,-0.05872215040498397,0.0011170820164127624,-0.6998396808421288,-0.07962590837787638
120,0.2544453209616786,0.10838068195285665,-0.2749903114197896,0.032589011543050495,0.37468004952439005,0.13728588881744203,0.06793476160181854,0.10667759306199137,-0.10220929762502995,-0.012513321364591426,-0.04081373383405331,-0.22963693105774258,-0.7696188756035491,-0.056330506075690026
121,0.2407242187148104,0.12764231837765444,-0.2618417534823664,0.055199942743869926,0.3536341904225695,0.12610177262720323,0.0842864285664031,0.10489373635201601,-0.08507424732899169,0.01118355332934286,-0.06728439474132468,-0.29554850516005005,-0.7930082767774157,-0.06364411656893662
122,0.22062870082130218,0.19939811811025626,-0.3040617343219961,0.055344267380755194,0.3723775661458751,0.1327273766621584,0.06702610925089966,0.10210180032453427,-0.03486266726143376,-0.008051061870670707,-0.10648777156978918,-0.16133007661890642,-0.817951001414295,-0.055930003609072985
123,0.2666458639537168,0.22210292521136793,-0.31632778023666797,0.02761805011962123,0.3860752583197455,0.1685815378584409,0.048523267520869544,0.06529119149762705,-0.036942786893488934,0.04450081369759091,-0.05880173887342128,-0.017336505982265073,-0.288211967371965,-0.026241994497299335
124,0.26127289919776786,0.04467381046617998,-0.21715826290154344,0.03176670551129304,0.29565139599760143,0.1296396836954354,0.02634928509114728,0.08090439576510801,-0.1635987141263447,0.055722972004847,-0.1298021479080363,-0.049108782994960055,-0.08163045722499464,0.051934038079437264
125,0.2554777095644467,0.11824549753408826,-0.1877736060162952,0.041380728712425,0.38621044953602995,0.10102283043298121,-0.010687934951111405,0.1037130239146193,-0.10942656516878235,0.1352772509787297,-0.08772928960970776,-0.03607184623127634,-0.2542477248540486,0.0008160566495289301
126,0.24172921620905755,0.15669723080074702,-0.2547522388119143,0.023814459667227655,0.38437200676536537,0.14054576973562705,0.03512170311953934,0.09976605365323184,-0.07704519573003775,0.06293813365823098,-0.10845941112420451,0.008521389932980983,0.13626222066991703,-0.02860896079159402
127,0.2120771798461699,0.1779876691385367,-0.24267654930225716,0.007560975756399011,0.3719193789359309,0.07829221016995465,0.049138153275800775,0.10891800507969054,-0.1381329712816443,0.100349280419369,-0.07032409838248324,-0.18543670314796445,-0.193920187916776,-0.016988120772497717
128,0.26334530099388437,0.20256495089888524,-0.23200072243387784,0.0038283906643357493,0.38896386841497754,0.16031083664385992,0.021382070038002875,0.07853513574445764,-0.10610932930479404,0.03694219743230774,-0.015186972717286489,-0.08891351006053122,-0.004332256818688319,-0.003022122022937293
129,0.26052984003136526,0.25969723643544795,-0.2507188613785041,0.028230508219272553,0.3733219067069648,0.1050944800823636,0.06875163721698503,0.09054717368048995,-0.15169229453865282,0.038484062155306024,-0.04596144380022736,0.019754710175988063,0.11994490628534939,0.00117329775495696
130,0.251221378791671,0.34247586632645877,-0.302022606519238,0.0084779677164072,0.43330833191234647,0.12533411519914653,0.08643221377919372,0.08671168160280474,-0.0827165496660807,0.037903307124537475,-0.049116602864281496,0.019107511455468858,-0.04355438272874905,0.00347888950293507
131,0.26037651288903,0.4981181427995323,-0.296616352503459,0.04348825416750775,0.35954090604127364,0.10330016914865833,-0.03152173003840278,0.06529056975088449,-0.17091575889346458,0.011113183911051861,-0.08410276909537757,-0.022999040031640505,-0.3041914586874735,-0.03658992762315025
132,0.2517938164400787,0.6573131937023066,-0.26081699058399715,0.000734964659575653,0.3798501241000263,0.1405718250799147,0.03980202548805156,0.07173824878128965,-0.09101466087168332,-0.043474050936580876,-0.03885211932897637,-0.08944746765915947,-0.7288676233319268,-0.031952080364291986
133,0.26222203580453207,0.4391927071136481,-0.41433642577235097,0.02893628138984556,0.37695730965797497,0.10484206580897282,0.06393143228856296,0.09406174848362889,-0.15204686408012236,0.0061602665093247536,0.02607262240707382,-0.0019827245005897887,-0.09506454407209648,-0.0002737535550799468
134,0.28610023937965096,-0.05925449602123574,-0.382716796366774,0.026459783423794504,0.2932088296476047,0.10606826885689774,0.020118567206708547,0.10949115530124494,-0.07897627059165045,-0.03339541962865128,0.03567370486324038,0.023757280481891845,-0.4520577458116884,-0.0029421251967593756
135,0.30847299570829223,0.37477291795968626,-0.373000441492247,0.014793696888069129,0.44928633956088604,0.12165212468367402,-0.009631948068128953,0.09963457231221413,-0.10479799219100956,-0.020475563078679867,-0.18907720008463216,-0.03095509122380808,-0.13157855735958854,-0.012985953622262434
136,0.24709113911015487,-0.021895071046179014,-0.2740410158652248,-0.0005612209765247833,0.419472911175096,0.11889328464115248,0.07319673711536541,0.14296213342447162,-0.10257079087731275,-0.024090679385618357,-0.1022243575734466,0.022685279747660565,-0.30801514986363626,-0.01987367653941921
137,0.30688769873450017,0.06038839300079069,-0.3421990910949306,0.039703848793206986,0.3497179551653798,0.11537164545759947,0.013247382456926882,0.08599152957005707,-0.11162437559607087,0.04231490715328521,-0.02015037108052776,-0.07662291215496339,0.14173865383819612,-0.03142362299297602
138,0.29800287841044265,0.46700414038420646,-0.3281057740843706,0.03238049584255648,0.3297822901483337,0.15023846128202692,0.03678560165758229,0.09692396006129553,-0.14388926195249027,-0.004233733198857746,-0.07600068841277888,0.021254516696072694,0.1871125016178812,-0.06947794194825495
139,0.30136659234435714,0.37169255359943043,-0.3103669026150945,0.03714733648357161,0.39490037135727585,0.11051559990639068,-0.019124945993677284,0.08021829093344365,-0.0980686958398428,0.02563232831855772,-0.15705314476526042,-0.06158244510198188,-0.17008384773383314,-0.006321842134317929
140,0.21805711953407905,-0.29836186925976793,-0.2598825223143204,0.023402437909806836,0.37112706061018913,0.08732922024290324,0.04155423964732276,0.0989993995827494,-0.1599512967048611,0.024724853145372896,-0.2640264052133378,0.10242508370102828,0.17538322232790796,-0.0448095490521446
141,0.2795373260231208,0.3143211841626089,-0.22891571468899663,0.03039152582357854,0.31720035464148116,0.11530787376363062,-0.006452104364008058,0.08560373756785167,-0.04487871772722265,0.004756328027085384,-0.19819240399538376,0.060815226109298404,-0.06695631211627195,0.008573324458323468
142,0.2816487152668489,0.2616407593916508,-0.20367441255687227,0.011728531950910974,0.319100006776851,0.13532037256945909,0.07883712405394945,0.07597883385148801,-0.19311891766200792,-0.07873448370498924,-0.06605775310287058,0.3473272677293542,0.020223877628662464,-0.05332304533522768
143,0.3133296748811066,0.34486367219317887,-0.2970471281588626,0.03794129777997014,0.31090062392960127,0.1021750062495537,0.07255171382426885,0.0752995583777139,-0.1760074250652277,-0.044405688075945665,-0.07226685672174331,0.19422636756040967,-0.21475652644707072,-0.03131463084057901
144,0.30946389026623844,0.23913526612881705,-0.2854085791555743,-0.007014653094611953,0.34704138781964655,0.16216772422488027,-0.008618272777536101,0.08738877983597913,-0.05356059324145834,0.08014714074681809,-0.11909908146962875,0.04203232801039312,-0.020545341641422802,-0.05037857414622152
145,0.2315454888404955,-0.09520451644269329,-0.24845454915940526,0.015884428206166545,0.3197581993090336,0.08922866689230118,-0.03181439209715987,0.0712219114052822,-0.06372774519827641,0.01956636846540798,-0.05020247114263595,-0.021495630784070612,-0.3428406286887103,-0.050504333203091376
146,0.2486656230730681,-0.1660756805227184,-0.2637743497551555,0.02271147979432405,0.33106353196383653,0.08222979293997455,-0.04299228689087101,0.0751405739549199,-0.04452350426409895,0.01269868609759705,-0.0681584668361911,-0.02615337107168568,-0.3994841908438326,-0.01590876426855979
147,0.2608899132659948,0.059240148537391936,-0.3105052588191875,-0.01781009394103717,0.2884557838437651,0.14729164782644033,0.022425331874621295,0.10643994285503822,-0.06478675060079156,-0.017016787498068717,-0.09076184864076361,0.10776362489909386,0.008768563289001672,-0.010759546858967206
148,0.27125615173838485,0.1562117588109659,-0.28036754560615446,-0.008327323245416665,0.329092016963143,0.1358083000486597,0.04516381173018589,0.08388226995547353,-0.06265773981358985,0.011934809389453875,-0.11466211680820589,0.11978817222667926,0.14762229201234417,-0.025542139892180557
149,0.25040064535026507,-0.25739371809816036,-0.2891710270811336,0.032155856303000566,0.3656918656135319,0.13338044472836483,0.028906543620363385,0.0764878854416068,-0.06615999022055874,0.11357150262332343,-0.061475295643748526,0.025741603715979403,0.511387366479464,0.035720407433907954
150,0.2411744764237282,-0.21207974798527057,-0.2301341950841116,0.013231948087734108,0.2971073811189005,0.08723850507961718,-0.05096346090098418,0.08549828376083311,-0.08080188833826431,0.13134099837576543,-0.05141058978942555,0.07841257542707773,-0.35402489671646004,-0.024895234650229543
151,0.2283140155773447,0.10280299339425558,-0.22800297720052073,0.012927196546413408,0.2741403179632605,0.1266869232872938,0.051567742871992915,0.08631724512811283,-0.046515570652411846,0.04973863906994235,0.008591714736054799,0.0038704272780448997,-0.28204301950193256,0.09966404259582581
152,0.3156582199891185,0.3181028738632298,-0.24587575763452157,0.004723053217512542,0.27785431250023473,0.09966895823501166,0.03477740737013806,0.09025416142396779,-0.10292384520192992,0.020689922843405612,-0.0034474699575458507,0.07381613100701351,-0.3766106116763756,0.029743736698779326
153,0.20968463474553128,-0.3189383146075992,-0.31915607960061615,0.017752529325206347,0.3707239495949089,0.12622279483207208,-0.06391500047197521,0.07160894839535077,-0.12522931061659373,0.12402172115304708,-0.056653631296798734,0.11067261770832003,-0.06594517333732952,0.0074953384834444406
154,0.2497555918630811,-0.8650750205123344,-0.3617669233971066,0.02061843910925613,0.30521706987470704,0.08638364049997625,-0.03270349946176998,0.10110939890906,-0.0836031211434519,0.00965558343719436,-0.09620747093029856,0.04930844212477942,0.14069106312712215,-0.006119164334682526
155,0.29638540963897475,-0.1747713397824247,-0.3359792240259912,0.04289257788287604,0.32968591684810833,0.15519450635250953,-0.0357001816747244,0.07837515236877815,-0.11011975703119228,0.06125054491608806,-0.13993820079414462,0.03238411571341075,-0.4275566320799343,-0.010692584202564578
156,0.28727428268595734,0.2488596950876874,-0.3041313274510333,-0.0004770519903242505,0.37256934228393357,0.11243382961163056,-0.03170979320361463,0.09799746523831876,-0.0870731791537336,-0.03231092426225856,0.034645345673669975,-0.026165529297020648,0.4504383725399962,0.008754843449055427
157,0.26594379169884397,0.16913406582894266,-0.26062141648575876,0.03488180147688236,0.3664411516959049,0.14583015352011974,0.029874818490339357,0.10966826988872419,-0.10479309301525912,-0.07627278936339697,-0.00936166993220048,-0.048480225726735465,0.173950726999121,-0.026187011490732222
158,0.2936283118098989,-0.20527127869532857,-0.3494312092879488,0.03270524588660932,0.3289312960986155,0.13627958310397417,0.06865860403906492,0.11608150798237868,-0.10059005118364908,0.06728911360530004,0.1102618668269281,0.004734928100106905,-0.2300733184822864,0.0425719072843265
159,0.31797481145166007,0.1811968099104987,-0.35867751388843144,0.01792798025842732,0.3639913008634644,0.10616664538404326,0.07937930830753921,0.12365233355983572,-0.10629842360301672,0.02959846145751846,0.03673534655106725,0.13986129990034185,-0.06714827557675036,0.03260848659020048
160,0.32785508083294806,0.5046342806554436,-0.31954419326586353,0.012838401814016106,0.3491986215460056,0.11645172969456342,0.07644872438429962,0.10292428692382018,-0.1057578465828875,0.005700787942189232,0.08984608277325955,0.10295741049166332,0.05644851797871994,0.0177495874061025
161,0.3421467431128559,0.6737855602998355,-0.31715492138404444,0.027175265249366833,0.375938175124666,0.12127936973268025,0.08857309264025642,0.08782273415293372,-0.10140231590167252,0.006572693792246439,0.18346033131584888,0.044778311470383886,-0.34703619477191067,0.01937242049554259
162,0.3374419470636652,0.3908033324640132,-0.2957954564758475,0.018104995896835827,0.40397960485753936,0.127636241319547,0.10625861261617091,0.08115852426440755,-0.14992514754622882,0.04715549748260457,0.06897700244630936,-0.025233162822686405,-0.2680891195118576,0.05635766459447631
163,0.3007751871729149,0.19656115058994425,-0.3290966915105257,0.016012464981765676,0.3893309232891814,0.05444638990685172,0.08322131150558948,0.08797450939580788,-0.06524186493954423,0.026778758558060205,-0.05380796044956423,-0.048191795088609005,-0.23172636414858308,0.013135738834002946
164,0.2859386556148259,-0.3995894997241713,-0.33099272964623294,0.029751554345779595,0.3806161054734167,0.1380687943405964,0.08148617994939787,0.07967020752473143,-0.0283138366243713,0.13414097452573842,-0.12241205530434998,0.0669138969318254,-0.3054516456152691,0.025226712552940397
165,0.293062660030753,-0.2351999793997089,-0.2554450938765655,0.05739296534926092,0.36402528324722455,0.1360064941460986,0.1060474056590104,0.09219386645252553,-0.07014679789809987,-0.044606997567381214,0.03665420486920223,0.07612630576634064,-0.30031506144690395,0.019953166320187125
166,0.31234420734258767,-0.24197904051187938,-0.2658046758948239,0.06608285711156286,0.34952184034102574,0.15384739455602459,0.07072538122721955,0.09221758428651129,-0.05992581069544757,-0.032040329362131865,0.003174063221001498,0.1160030487696976,0.09550788053134734,0.04403022507821119
167,0.26309046225131916,-0.07282431059145969,-0.23895059197840357,0.023535734469342644,0.3939479683907951,0.14707825501933414,0.03679775814755143,0.12711228396062374,-0.020659463491282105,0.09915954637184876,-0.09553835245099018,-0.05413266157690596,-0.43103537416474874,-0.013786549801094837
168,0.23570531938787395,0.37551399817508224,-0.23236859555026887,-0.021408572698808616,0.2562241055451309,0.12191944346021295,-0.008755280665320461,0.09882558654342129,-0.10094752334982768,0.12914968296449458,-0.15784718013591353,-0.0347214904123264,-0.10403931513780829,-0.017079591985687374
169,0.20522968681138726,0.028349850546098142,-0.24853585804947545,0.02868074383953709,0.30267128381308145,0.09914334681126054,0.1044581132057747,0.08904220514395428,-0.1392625917769963,-0.01676408012080244,-0.0925339344126159,0.04551495006694209,-0.10327910668972001,-0.034733839390288096
170,0.22661036877253585,-0.07773474024236442,-0.2657318707879452,0.019437678365737846,0.3363660732672043,0.08592401190252631,0.05538061874155912,0.08761524243998985,-0.13167701258533937,-0.007151085063695688,-0.07917410917445653,0.020997530322292412,-0.025467283343740276,0.006842633328034815
171,0.23175774502446128,-0.12348696538112516,-0.2607166344313562,0.01979421553301251,0.3346610518945425,0.11265687089197977,0.05564941364959711,0.07722311481243756,-0.12341193425256713,0.014961367019995241,-0.07457240396433083,0.03613743644787202,0.020626900381022367,-0.015207698681580895
172,0.3029712885281329,0.31443244521765396,-0.27947196157000076,0.007399457574037159,0.3164217991552419,0.0791501662032383,-0.013169763959879913,0.09735730979392206,-0.13906965091493548,0.11051123899188019,-0.08344012185637682,-0.107000017552079,0.08508268569830703,0.005816921548489176
173,0.29894707114282904,0.031206098691005355,-0.33213224160304355,0.004051989587043857,0.342283472860965,0.13105926714668634,0.03334018734641037,0.08110654463830304,-0.08343150404093805,0.030905923678456824,-0.08635073013413558,0.03786955403726818,0.1510806215938505,-0.024512302688661693
174,0.32043302424813336,0.1247189804251875,-0.3217962743635351,-0.006029096805180543,0.33522940863914413,0.13324022568958047,0.08098254836459275,0.0829920261835497,-0.11220936704223243,0.038087669468746144,-0.07618524778278135,-0.12723049142748194,0.2351834876985233,-0.006751469751275933
175,0.295774016990749,0.9151877975691941,-0.27484603338608093,0.008971177126157394,0.27239816944149886,0.1130770164343459,0.04434618599439095,0.0930511516641799,-0.08711220684677183,-0.005935560697760339,-0.05137122272354249,-0.11855935880516803,-0.041339389112042386,0.005745658943280865
176,0.35878119851884865,0.15136429315426164,-0.25490482809570303,0.011201018781573886,0.332688918480068,0.12060859416697554,0.02758204383890535,0.11641452728640685,-0.10264735752949747,0.0787107281876601,-0.14379747503715676,-0.03361701800099616,0.044139447074920485,0.016428211741803547
177,0.30494691965629384,0.22683180996612984,-0.23562872593699558,0.0308955295098606,0.357440918287516,0.13707020859946617,-0.006393707491307722,0.09238597491710578,-0.023065980387497367,0.016349957797568853,-0.12065989811309542,-0.05741141613142785,0.3095494240757503,-0.02372881908368436
178,0.32179646799917505,0.5975500012066052,-0.19180664421240695,0.025403072874221035,0.4132223247521787,0.14414270904258827,-0.04554467271979372,0.07798964824940569,-0.14024624661818558,0.019286066347040786,-0.16637960206487318,-0.11163584136205201,0.07019298212691019,-0.010828249400685485
179,0.2891796156377188,0.6642029988061753,-0.2863897310154432,0.0177762600948164,0.35638882663723553,0.12608403776789542,0.10972260886496599,0.08545028239597165,-0.12221199340884378,0.06940102172490985,-0.07358323172640713,0.125805445759143,-0.07325862187927677,0.0038592513724511218
180,0.25650683963172716,0.8925398127016299,-0.3181412516468943,0.032469975458648416,0.35475289276766764,0.10714962632139358,0.11112939497306705,0.08469654450241304,-0.10845234691321794,0.05090684958371707,-0.03073269494579949,0.047293691870135934,-0.08257414972350281,0.00922583514577638
181,0.27274061739896877,0.8321918942395274,-0.31172139131835325,0.032132608049620225,0.2718619383250099,0.08525378576510907,0.0625826977037521,0.10200472430110939,-0.058205539713852346,0.02952031186331329,-0.03229665552060811,0.06269400849085062,-0.19465416315030887,-0.008062368594024856
182,0.269476464606331,0.8694283094617833,-0.3075285638362352,0.013511927736270492,0.26629409179760305,0.08957817726837748,0.055377489753414874,0.10410034428898202,-0.08686721859448596,0.030994830660880133,-0.02613903836780676,-0.0010247045479464764,-0.22677165246454978,-0.018751145507849364
183,0.25654241254649185,-0.19726132557049197,-0.20342495307654887,0.016304674136632946,0.2718219476677021,0.12934533552723906,0.056661239261815134,0.0915867773304009,-0.1173806821697825,0.01806063023238535,-0.01464738393392723,0.06647222115614616,-0.096645774663134,0.027462233687568408
184,0.2301323477060531,0.47566219819303696,-0.24072714816611654,-0.008370205387321075,0.40617815650315914,0.10671986139785451,0.01952532683774205,0.0473469910508625,-0.13015770737012838,0.0038508068087424914,-0.12456209317249341,0.02828701133227097,-0.23586376409126242,-0.014582716965193584
185,0.2616621403898509,0.639981121798063,-0.30314607881211325,-0.007843237024833654,0.3106224185859441,0.14412705538238021,0.10232258259566859,0.07161494369750007,-0.032307487642525036,0.08202416350680662,-0.10804840978736484,0.016109758471889456,-0.9261589744771456,0.020291914888574163
186,0.2747566886661204,0.5473819705895291,-0.25719606552279267,-0.009668224090489431,0.3075640783776957,0.13232970585317505,0.10827025810060184,0.04563014228189411,-0.04751434800678977,-0.01950800664126792,-0.043119080764723434,0.024107081783883922,-0.6607221158069366,-0.01564108818127108
187,0.2871189395952183,0.7050669568077104,-0.2747968192113537,-0.003448752614306558,0.32746366020965073,0.09739201583450226,0.06983612233447799,0.04615850610282001,-0.03877153995850412,0.09143764664343805,-0.04269259369410593,0.04944968181849432,-0.301773609315068,0.012285039178107087
188,0.3096763433332555,0.23728036935113977,-0.28640084145921013,0.0245714323788607,0.3716104012095739,0.11588417324199392,-0.002196406633881447,0.09556164052224617,-0.07193245632293302,0.05097971250634104,-0.12218927481855693,0.11517559223840407,-0.14216653750094693,-0.0014977426239926235
189,0.2840052395674122,-0.10200275767949987,-0.2784078568645045,0.032880703970002007,0.28103133838470856,0.11548681171816857,0.13927421955824276,0.13091595257989674,-0.06631764715114247,-0.010407282540742179,-0.042805155211364285,-0.06070165767392009,-0.9071553182204765,-0.037653870567839656
190,0.3142553213379153,0.5948192151054518,-0.28812844827566014,0.010304163053230094,0.3639010966963725,0.1642204767281779,0.20232446296043574,0.12122686232044681,-0.18025243723999862,9.66267141750517e-05,-0.08251384100411321,0.08908562544399568,-0.15051228342829714,-0.01833468358044987
191,0.3240840815248266,0.3497996765996139,-0.2845635376042228,0.008979895212797387,0.3792953732580633,0.16573416698972188,0.2198740687487589,0.1023942685477379,-0.1680945228005185,-0.0020972530738680457,-0.09013052378817298,0.1222516546386383,-0.25177775170933586,-0.004044171590149101
192,0.2864974963696252,0.4862283178595451,-0.33784685719677715,0.04185793796706062,0.3015827300317215,0.11296540388614239,0.13332135392080185,0.10574350656106572,-0.15935950045699546,-0.052506463322748845,-0.08739216498406989,0.05206672614427914,-0.26710527029788383,-0.01600421801934351
193,0.34150131948654966,1.406526491955006,-0.34017422608303755,0.03040856694909867,0.37820104613891464,0.07728446949438812,0.0531187747183236,0.10542851167900752,-0.14234549849025904,-0.008803129374401798,-0.061325360803531584,0.00031358489176739257,-0.0946706270854609,-0.047971198951064324
194,0.25829985724907395,0.18798024511756645,-0.29422705715605235,0.03943322923960388,0.40872162519882116,0.10314780782441468,0.06656399639007193,0.10371356777093663,-0.09976716269490213,0.07756122501885501,-0.06617592611020606,0.050088764640696094,-0.08889400953380165,0.04551399379722584
195,0.314531079637178,0.33437145638810883,-0.2594088870173341,0.02934711990343187,0.35437636665788264,0.07444182486630002,0.11421208461310162,0.09805121046951568,-0.09829083288770858,0.09994858049761923,-0.015595592667794155,0.03800548413893891,-0.09727687858580343,0.051211354784957405
196,0.3148667193490768,0.19438805549937177,-0.25378687464825544,0.04620979491703723,0.36672599334951067,0.10270921433113629,-0.017090622447119397,0.08266109641755072,-0.1410664117680702,-0.014673840368431272,-0.1716384005587672,-0.06659739890920191,0.4446403614692952,-0.014518357368509358
197,0.2850303929488521,0.19686802766112974,-0.1939083010311756,0.02147344656100024,0.3517274337170067,0.06401754401455634,0.026579270276233583,0.08285899868833689,-0.119431467293004,0.05683193846321131,-0.17095825049055585,-0.03406707985768467,-0.2670597941342847,-0.01953532076835822
198,0.2661315942604722,-0.49768934421545685,-0.29520682220683947,0.035155224072283706,0.36798655083277126,0.13494119114511818,0.0017583263388040208,0.10128823505584375,-0.09622013826619308,0.0005481297117644861,0.029504933987360173,0.04998086677744213,-0.5228883257076791,0.03280742620464353
199,0.22709178158950363,0.038440793507144626,-0.291989253022438,0.01993278218368247,0.3311309180002664,0.11863152605856853,0.03423550757030316,0.11370847895999439,-0.07345801264559183,0.011980578803068997,0.06967671216247465,0.009486019281155299,-0.6324900577034914,0.011637362749522918
200,0.2506118788010948,0.5339534491031178,-0.3026580608816612,0.013530598738250847,0.39867147938268893,0.06998194358736487,0.12297585398814202,0.08585504237638447,-0.08628770212462014,0.07518122132421075,-0.10152544476664808,0.003347277858688653,0.056977812018432224,-0.04949287927298505
201,0.2893993498711867,1.166290593898299,-0.2055301087594847,0.046846053340781055,0.3198203737487971,0.1080073429521247,0.08057991179508812,0.12847531432563777,-0.0691780930194822,0.05982780036947449,0.0007932063783948047,-0.14327888996488153,-0.3464663877004775,-0.05573639679828401
202,0.19402269574135117,0.22318820128378739,-0.3614412674514075,0.03156174666297577,0.2998110808966974,0.0811655032479092,0.022870486701163793,0.08649579495362535,-0.15829015833630608,0.040583832402345484,-0.09010622429660495,0.10035761767855239,-0.18897489079269655,0.03658371486132077
203,0.25006188316906475,0.3265343382691182,-0.4291457429913397,0.015375556149643413,0.3708714373537692,0.07049890272325876,0.04428664259650657,0.06432535888314364,-0.14449656235581299,-0.06114084549852786,-0.03747955869775074,0.08506304404865928,0.2374873102390751,-0.010748016867527143
204,0.3094640502793647,0.29114639589763425,-0.3664152532075514,0.01939073830510803,0.30558538548846725,0.07885592361246226,0.05479256898662364,0.0504411188306226,-0.11056769977140951,-0.034772749554391844,-0.05914507997667084,-0.02565572472654137,-0.024315664812056475,0.04432307262141435
205,0.29813973772554986,0.049290539546078774,-0.32679739256730583,0.006521082738738026,0.30587659236312226,0.07873872076944242,0.05942036405972676,0.09303942100030534,-0.06887221711222859,0.087921122341387,-0.1376054782237018,-0.16269605155807942,-0.0972885047701164,0.03569816385362042
206,0.16014714036155536,-0.8432660870582441,-0.26787769491442154,0.006133821465217452,0.3730170301553892,0.0902957294596228,0.08588085968135534,0.0863278777572056,-0.05885991073750011,-0.04248471081861549,-0.09861091501540374,-0.06490733197747096,0.09810377331183821,0.006002443453031604
207,0.20686812416747463,-0.2053492681306172,-0.32523566617687494,0.03262251461178607,0.4310639896792572,0.10481256058977362,-0.0015993412044427897,0.08269242463475232,-0.08575929000504909,0.02501842848261519,-0.0802883041171611,-0.02185777582793219,-0.3177669805690882,-0.006577956308964306
208,0.19425663897247514,0.23344871263645872,-0.20552254862199895,0.004605684446015558,0.3954180393001858,0.08610972184121028,0.14215339128217863,0.05912403804752492,-0.1287892394705197,-0.053064983021933354,-0.1614563245524979,-0.09969918506893932,-0.14802235208333545,0.009753145764774825
209,0.21538074367616739,0.45492329718853675,-0.21758820038428595,0.010718487231577041,0.4128990505269422,0.10459847533177248,0.12032227575451529,0.07597033899869962,-0.0941472119590484,0.002620734199956907,-0.14046662835227758,-0.042942206978306384,-0.18835852533606307,0.036155945976561445
210,0.24290500040789445,-0.01372184342159145,-0.2998750122179473,0.01468227775484311,0.33725935804121465,0.11847877431495162,0.06406272489707855,0.0870225542760955,-0.06004474710345634,0.04285625657152124,-0.13342391604919968,0.13776931954796165,-0.06278274552588475,0.005888771070426047
211,0.23632830045350373,-0.16082600374346293,-0.3109877461759589,0.009258903463501049,0.2624002723330675,0.14325091209649335,0.13707089354776472,0.07540597962882715,-0.09889343203792839,-0.07828370783873444,-0.16835968275293092,0.056806200793047254,-0.16950841285861193,0.0013901949587328906
212,0.2804623890492768,-0.4316992016768329,-0.3477474675438868,0.02071949460803671,0.2798220878095665,0.06000121934489819,0.03474319875415789,0.08600386376416716,-0.10884110604831188,0.0740162194964668,-0.006925772886954595,0.07180728162073015,-0.4091801305347631,0.03811055152185574
213,0.2709072409668845,0.3111434963922936,-0.2850318925021943,-0.00532224708039842,0.30488096251247954,0.12374068054091433,0.19704546971542658,0.08684755198815976,-0.06559513512249758,0.09589009891777461,0.08211628384802395,-0.02745840888395653,-0.22832185894432963,0.02107316892121248
214,0.23758363320302064,0.061796397015743604,-0.3311572583399292,0.03156991145118333,0.2804092365767688,0.08514486493174525,0.08479264941921108,0.08347519326878333,-0.05340009463098918,0.06621681357202264,-0.0559142447590699,-0.02434049829547238,-0.08417922424774678,0.05211964654066907
215,0.2688579553836452,0.2668082567446844,-0.31715751024843775,0.03751976185621097,0.32093813817330946,0.08214556309784359,0.05628175713676109,0.06662294461279257,-0.07658594853502114,0.03713029281019351,0.04992381441536008,-0.004365874866481794,0.1864319469262221,0.09648836277739024
216,0.21816930147377278,0.11323573187371382,-0.2091695921062021,0.037189570371578974,0.33843449059454733,0.0669173433837561,0.09958029808919903,0.11492890118215905,-0.04438309772834273,0.0680011577748153,-0.07698039902139903,0.025997976579608426,-0.2342668113753874,-0.06333831796997628
217,0.29233936335084787,-0.0786550695661242,-0.3107200292600306,0.03564124147110824,0.3432224689116763,0.14771955252899294,0.14929567302538288,0.08583219066673146,-0.09455569137659128,0.05111638591253774,-0.07744183361367499,0.03414992116801071,-0.5361406254256261,-0.024236965372083485
218,0.2722266505664325,-0.10849491119435957,-0.33404190781379395,0.03202744958083713,0.3602546891518825,0.14648011402805727,0.17537158093154845,0.08823418986689138,-0.07209850718016861,0.00016530330723436913,-0.06766590773092723,-0.03391855795170855,-0.384047973910906,-0.004925530841624869
219,0.32673128352471226,1.4427240647167203,-0.3142193230596296,0.008780510558138537,0.41295701456449024,0.10124706351407105,0.13481509782221868,0.06925918936480743,-0.15978621460977577,0.030798777135496173,-0.038965527674351026,-0.1047610402663895,-0.35499118565831245,0.010886304900464846
220,0.3263801977319275,0.6383830156123494,-0.26593952976154867,0.019621040251099453,0.39143149451942233,0.110343139005532,0.15251157650461372,0.1033206353320144,-0.11820608786756219,0.1369878001039443,-0.09701880890216612,0.08982927405992462,-0.0013315372174743244,0.01560479894938044
221,0.32600265671781237,0.1788158312376901,-0.34725093819774855,0.032201331578048366,0.4445481523555706,0.12278910787069389,0.2643211287820703,0.08227893186418096,-0.09604437892081592,0.08012086390713616,-0.13175684338917124,-0.01238935044962893,0.096276153103913,-0.06897421940732876
222,0.3173117867483544,-0.30651808207605435,-0.24923780828677825,0.036287052032467834,0.38995371079493407,0.11031000764319741,0.1795639045160579,0.07566048112710415,-0.11068113088392674,0.029716482355804746,-0.1663027960537324,-0.27873392419853515,-0.02759181596859469,-0.050542102761337096
223,0.2973506645866912,0.399031249964224,-0.217545614735962,0.0321062701030394,0.39307669901483644,0.11176213951675612,0.11451946983463077,0.10277159862941593,-0.15290242268037765,0.042050298106451285,-0.2119249421022917,-0.019099298316763366,0.6238090489121175,-0.03558742991398595
224,0.26739824822351044,0.2258741152697085,-0.2811579448209355,0.021751836934576243,0.3724729737760825,0.13243866502530882,0.0614532213822397,0.0817425569428655,-0.07786187830900573,0.09909956982297637,-0.06276373660890752,0.19487074995501472,0.33626716436059,0.0015271715950500866
225,0.2940221122317923,0.2886254366197371,-0.28081243877856027,0.02250270626616167,0.38041962022408377,0.0903725041099815,0.0892663201995831,0.11384698622980687,-0.12974985002210299,0.048072203113277596,-0.07283037504170731,-0.01727666471098047,-0.15155616844062272,0.026419675355478102
226,0.26828417398242316,0.06250237870719702,-0.25230654095264066,0.031364282746181214,0.4074975477629283,0.0934208073564997,-0.004420290319744856,0.07462345628979879,-0.11691049302482467,-0.0023459330943838325,-0.09136677366035775,0.18183794243205567,-0.5457720946712866,-0.016374751315359298
227,0.2672942006968248,-0.06733013541716296,-0.328398939535566,0.035900053014239784,0.3547346434022633,0.0852440131132897,0.07583423209612844,0.10051353897100196,-0.11771531983576694,0.06448433088338368,-0.0497228824820666,0.05667946964185565,-1.0004795819953591,-0.010050499577861041
228,0.27239107947692043,-0.17332358628556666,-0.33334998662201093,0.03235322965270822,0.32667435422955704,0.09571381553780252,0.05125657214920044,0.09979929006706362,-0.13160723985324965,0.04587273856029884,-0.05894407042431507,0.04479897313940828,-0.9827546965097189,-0.012783320060726347
229,0.27758413521370956,-0.7702648430751937,-0.2777440220395014,0.005716110606393788,0.38981324936325346,0.11727232671874376,0.05422249089470664,0.06559902362546324,-0.07429664989163652,0.02310314284510816,-0.025137699562959,0.12263141081308532,-0.594233011629523,-0.040358636196676935
230,0.26551365182850134,-0.038989693786353787,-0.36776406144585555,0.031137908316569665,0.3048815501531134,0.09899554514974775,0.034789840845967264,0.10085466994919638,-0.13702966046022108,0.011211584832452649,-0.06485404539729825,0.21774443544554317,-0.16125859185136998,-0.009907143681802021
231,0.254160584148214,0.31457009884025444,-0.3545698202766186,0.018033519657325373,0.40684160376740347,0.14931307332287655,0.0918325488443587,0.11457155477819961,-0.0962434520443463,0.10383616332700646,-0.06553997323274632,0.08200628895786488,-0.1675988383362387,0.01925319527176812
232,0.23778099257947125,0.06075416161192639,-0.237559970556075,0.05745389461515751,0.30312474290335045,0.0981448514213851,0.03087641752892856,0.10080263433758536,0.0015001854577432398,-0.02701123439636029,-0.034675996159105396,0.08021564597655224,-0.4505176969304665,-0.01816595027736274
233,0.26883292519552876,0.2897969542205365,-0.26055818529626407,0.0598099356163956,0.3594599911211068,0.11074653891896637,0.030004105510157322,0.09696335224258704,-0.06252536913757048,0.017035368846079698,0.035206924237890014,0.05700915369808666,-0.3768088739854986,-0.09078834091716383
234,0.312444915063429,0.0017181574753106666,-0.2731646970655728,0.04861508008714514,0.39844239622544725,0.08846863045626067,0.02990566231505983,0.09505105006121936,-0.07112622765730717,0.01881874034750752,-0.04460388958843753,-0.07173097171824017,-0.04498451296058267,-0.0032011536041686942
235,0.2502154264338926,0.09099786187221312,-0.3326618898745737,0.05984023344170835,0.44520050845042114,0.07398251898782615,0.06320173899974384,0.10507422453031215,-0.0615313860292726,0.002161410672963323,-0.015983440472869346,-0.0542224184446249,-0.2017051688470398,-0.046106270123481174
236,0.2747278203104038,-0.1283507729663295,-0.3551898863780778,0.02112687401290605,0.41029313589781724,0.10196243552585967,0.055312832916320664,0.08637445380156394,-0.12841218777321567,-0.01855667222796802,-0.15218115444405805,0.06299422383250983,0.13313332556686786,-0.029529172948854057
237,0.3354878993014207,-0.004723989984132092,-0.37720470251409005,0.005179973223777872,0.4124392558835446,0.11883742911539935,0.09429625407702184,0.08895716653075356,-0.04986962453675385,0.19338500219519802,-0.09725906497664207,0.03045798342575496,-0.25398475904347745,-0.003892785554914837
238,0.2646053129963251,0.1530010293651303,-0.36194385101306265,0.002692475511178768,0.37113774089170953,0.09031275305747469,0.035050017239519636,0.08372435832587453,-0.07348482278171661,0.14635714447552034,-0.15918253677767144,-0.01604939386263819,-0.5316120926862274,-0.007783166908089382
239,0.2545926766136904,0.15281299844987994,-0.2990228956267586,0.027782058587830477,0.338693116690724,0.10178348431063367,0.047489866415674035,0.13246616539504608,-0.16951488951798835,-0.017302376883804108,-0.10392925155460414,0.06132114394193788,-0.15570224174235112,-0.10938933162868011
240,0.3576777520233329,-0.08272558939451281,-0.22111254402369085,0.03342877921923939,0.34406011291878147,0.10572625637249304,-0.07481529810220341,0.08881643388137303,-0.15990462577354822,0.09533608839935838,-0.0511761682726863,0.03631371268037352,0.1722683806486202,0.030631680144768532
241,0.2970856782663722,-0.13068338946293787,-0.33270299403980425,0.031193280274969783,0.3948955991272648,0.16060982237432894,0.07401838104366318,0.07226558344024825,-0.09563332962592366,0.012054899159235688,-0.11880111058244783,0.012259320764137162,-0.21741678281572702,-0.011536438692116152
242,0.2692295809180518,0.08869855437425195,-0.35390777245180494,0.049623596690677736,0.3699046266877308,0.14516070498787131,0.0474043423899463,0.08781949987456812,-0.10256941081177509,0.009065715904460642,-0.12766682623564804,0.0026685599883345093,-0.09749635385181919,0.0040757575171608456
243,0.2399742627295016,1.0534248018449477,-0.3486965408370655,0.009924468113291566,0.33699240030367655,0.06047409096746442,0.050271100374093144,0.09576455816923704,-0.07437948204224816,0.01410427863215332,-0.09154534602601329,0.06419817324959626,-0.3299481025325236,-0.004601723800383071
244,0.23578894543153459,0.9608482576014722,-0.33386097115086677,0.007807443811621215,0.2944406491103184,0.08967125404192203,0.0810169769998788,0.06568222940057221,-0.08354826369774687,-0.014358631671253652,-0.07882970466587393,0.14634526358445005,-0.38750217778341783,0.04437053861088979
245,0.2568463351951963,0.8112064440323796,-0.31877482938574137,0.04641834146648386,0.24716632119037946,0.1712643358100701,0.11239257756092291,0.07796045157800428,-0.010249374622395354,-0.03723091714770615,-0.07904916625093722,0.09343505845114998,-0.3502725159457177,0.027052385487374375
246,0.25936443141599236,0.09531379666429476,-0.2795573832640923,0.006090102254546948,0.33929358207050375,0.10781358202711168,0.07522111726970206,0.10148587298574721,-0.0500865511784417,0.05636682352762344,-0.12313954435741228,0.0035415713293887687,-0.3560057024893544,0.008225696669965228
247,0.2817569006386623,0.16998586009498018,-0.316871661953933,6.223716593439297e-05,0.31543033499294904,0.12921237456286241,0.05055478569517225,0.11025614068571556,-0.04762904252943545,0.06981721497507466,-0.11785248875659649,-0.09605758208876368,-0.40024709394922925,-0.007779219736599606
248,0.27140553516957555,0.24483285830661838,-0.3006238722743687,0.00755645570406137,0.3327676597889992,0.11556345754898346,0.0672476944151453,0.11063835758360224,-0.02800458061681922,0.08111114473483541,-0.10862068009564495,-0.10600531043440901,-0.36246730040587294,-0.002924008105207894
249,0.2737391185556029,0.05744898759386302,-0.29261775386391287,0.021574176415984143,0.3767053305674124,0.08935547026844358,0.07864341789242231,0.13204554542307217,-0.026419365050543986,-0.04093335130057331,-0.05941216183678156,0.08773248976208593,0.0384181079750564,-0.01251983511525286
250,0.3000509804919053,0.10295615278782651,-0.2719434641496783,-0.0008326758094883647,0.30174491624862376,0.045443734991437855,0.001431213804347798,0.12182552000990933,-0.052630083263663474,-0.023573667415195045,-0.02249081560725215,0.012904733957328624,-0.47354011218190406,-0.05786737615867147
251,0.3092393231258395,0.24571245006371895,-0.18547164613581263,0.02425989509097856,0.3669519656447794,0.09875447341720105,-0.01223438238319919,0.0704803203740758,-0.09938030252357657,0.005072379184828926,-0.0781174041698634,0.03711836319609,0.17773084492262425,-0.02254118089676602
252,0.31842221890538774,0.3112117852273151,-0.18717813096322547,0.005255623358829585,0.3712404000688181,0.13671408742479374,0.025899896679789616,0.09990772229892096,-0.06666762437067776,0.04583271409718402,-0.07838767816344547,-0.029035152942712694,-0.05259313616368202,-0.07448422425554585
253,0.23648011664244842,0.0012847221011782917,-0.29151265878819543,0.015046127896309578,0.29894739475350407,0.05871663131682108,0.07391203761726665,0.05691235068364728,-0.05983793057086033,0.04147162895488852,-0.07748412801047058,0.01483669061610855,-0.013225544275213295,0.013945686111224796
254,0.24900497778672942,-0.2296647455257481,-0.3518736232315628,0.02491107932778723,0.3174762483888156,0.09560762282596122,0.047219248856357844,0.06850070040380221,-0.057362734760497566,0.05343386663597222,-0.06643935933834641,0.004893794791437104,0.21757498565600114,-0.007143867095279908
255,0.2829628560198523,-0.02503868795235789,-0.26266517857315247,0.0155881734314735,0.33104418923556345,0.10332973521378462,0.056380720874600665,0.08927334081243081,-0.09982401671323017,-0.050719484189797305,-0.08956058829019446,0.042877500612177925,-0.06825549750690585,-0.003179161380942522
256,0.25527502487336823,0.41847085902814174,-0.237871524494909,0.01631471629954289,0.38949085367426123,0.10845814955966614,0.05534858397677121,0.07723101159894669,-0.06386136003116767,0.021895487690978547,-0.06288994870934016,0.014272907159166674,-0.3391031645116383,-0.05979360222668346
257,0.28219117565603785,-0.21791493464571934,-0.20870409440821863,0.028852790509230394,0.34485842259158656,0.03879781767316158,0.1354536307383804,0.07405520174993413,-0.10354271327556262,0.01097538772989999,-0.10933438763818806,-0.08491257863336503,-0.10687694877741494,-0.06591721470137121
258,0.2335309021152855,0.6397074541788549,-0.2513990446641616,0.04121088305252692,0.30888492987768407,0.11935178358236574,0.03277414252708224,0.06461107330701486,-0.07259668318424045,0.07540405267018911,-0.028618188228125434,0.07445562042471213,-0.38235592720501016,-0.0013753153383512507
259,0.3126525781152526,0.3293618054181216,-0.3063705570249568,0.0357378916560756,0.3613517793337824,0.10305208862292232,0.06501045531212585,0.08627956745060028,-0.08481136002983813,0.07817313958422523,0.01180962864149369,0.050145562539693704,-0.4489164677807556,-0.09186601665021618
260,0.32355525167202037,0.10100987208664344,-0.25637721150431086,0.016293903289913012,0.41742956290675237,0.08157806886761301,0.13276496319108252,0.06903685536042833,-0.19491580410580275,0.12737161501569427,-0.0005727980668344533,-0.011179446143033876,-0.19554121822812415,-0.01704406319048707
261,0.27908434219065376,0.2007550787632409,-0.3046694186410962,0.03304922528365727,0.4202764764553451,0.132865378493088,0.12683953477033133,0.11615448273655256,-0.12361177302033151,0.0002668278237809907,-0.02843118497751472,-0.08236799593996603,-0.49689214574454954,-0.08581726505239974
262,0.22592091277233262,0.15331679727200725,-0.23225256497318245,0.004219287925222833,0.39141064886654364,0.12543841361395272,-0.06133699079427894,0.07721985401506853,-0.09042513379265668,0.09307155373483404,-0.06365522937201443,0.014928503127216323,-0.18482868657288234,-0.032227833399480425
263,0.24434281431823773,-0.23329927404413658,-0.2727420844292766,-0.004657002053554786,0.3834223732534762,0.12792663997271012,0.03724112015403694,0.10772344950092055,-0.1806428507872225,0.0854319021752408,-0.11675634005561608,-0.0438762692352462,0.07795562927920888,0.0037181053122228966
264,0.31813994199097534,0.20073712740302524,-0.2660931233386682,0.008225181898036494,0.326898889886654,0.15866867789107336,0.0992648038339643,0.06871244650405564,-0.08846230843987554,0.048543146381624346,0.019768944786491303,0.039217708177239304,-0.007507966346362905,0.004104793585198076
265,0.33565338916604137,0.04080343523289142,-0.27903522902938716,-0.002299587723093267,0.3406480284233006,0.1478115766170855,0.11272644160692995,0.08099403865166935,-0.13078647568496862,0.05418270628640469,-0.01650196606833047,-0.07936268435809092,0.0315567033214516,0.007103849957789921
266,0.2670985531683118,0.0930282859220815,-0.22397827789923747,0.02273649601182834,0.33637228570790273,0.08588910844684802,0.04480441253625788,0.08053519498523354,-0.09408810469703434,0.07194051915784885,0.05909198790678185,0.06787072189559658,-0.3706582509116182,-0.01714937675013916
267,0.2557412304308782,0.04220513052007418,-0.3535278959696491,-0.014305024630893962,0.3726880539965103,0.14494324626223812,0.055847622019127574,0.07341430817209461,-0.13713470384808135,0.06219481990951756,-0.0022681619574459843,0.0319734882460653,-0.5390197773508841,-0.017820891723182415
268,0.3086237278871645,0.016165070432541673,-0.23863774006261818,-0.006923346884591196,0.3554347900110679,0.12385267456244646,0.06629656522862638,0.08406467037262565,-0.050067226281736134,0.06945704692369935,0.0725031041566639,0.015700373873539255,-0.43411123462387496,-0.05409545388905651
269,0.22688769525231986,0.1524604395542067,-0.2970580966528739,-0.014698114904038445,0.3059870029967005,0.15404345793174,0.02862602387115601,0.06333733663302049,-0.03904944290955406,0.09830545792529202,0.014316769021799377,-0.026518335159164977,-0.45866787241582463,-0.02588259536038875
270,0.2826254472525845,0.01960171885318035,-0.21418660032300593,0.012271254342193246,0.3370614321837107,0.07256462148874293,0.07591064675257891,0.09336013695368639,-0.06720165732396137,-0.0408078475156465,-0.10537427621071684,0.12230879810830443,-0.23383459536194587,-0.032893140966983064
271,0.2725867498685256,0.03377580825323648,-0.34584449499682657,-0.0034114475628164434,0.3383697438367261,0.12004279161640213,0.02313277625983021,0.06058476369956427,-0.1356450213333898,0.03629562623709229,-0.08915465743083108,-0.040108550459483,0.5395901222232206,0.008545785927560149
272,0.28248104996250445,0.08909671741028609,-0.36364984039490444,-0.01600392114858943,0.3274479094126064,0.11309988712613055,0.01686882471386334,0.06009913341577191,-0.10831447923380344,0.01063827863397956,0.022706373929838604,-0.0498588314565681,0.6949012266117666,0.012588460678687673
273,0.31268495562770127,0.1318183005378773,-0.32598745518965483,0.013916122768045292,0.4322716360836653,0.1232778104423053,0.04597772094389787,0.06869677575126852,-0.08393021558406985,-0.0039481703219353195,0.0017906639719221017,0.035366628504450506,-0.2058700068472052,-0.028066323772642336
274,0.25546662910446705,-0.2408513474897347,-0.25352642845323636,0.030766104270360178,0.36487189391918445,0.0991934960354728,0.19344295626894728,0.12255622473206113,-0.09854116365041468,0.11468931127802429,-0.10432044411325121,-0.1275155569941668,0.6028338731733719,0.01746003690777709
275,0.27741366948816926,-0.2032930544953485,-0.33191458178541483,0.023089971326049973,0.27059552916707835,0.09802864289541646,0.07949035538989631,0.08284155324050774,-0.11828247896650666,0.019221564775292296,0.032992203353080084,0.008975623041350335,-0.4957115348027839,0.05054222105092626
276,0.2599870276622029,0.6566794040250571,-0.23778562723299157,0.033108330713716,0.32266452767056847,0.07900836186416212,0.06328096891305555,0.0945268257507221,-0.08650344590238691,0.02456217092836165,-0.09220265623952097,0.1156318628668722,-0.9717005970297583,0.0333928253844481
277,0.28503783212902883,1.1537575883375857,-0.29149052615923177,0.005711149059370313,0.34586994624836026,0.050811350230956696,-0.030690869988386608,0.09969518553833721,-0.03569152663068632,-0.01416469991459653,-0.1328140413102626,0.09474287633683963,-0.4419321226025687,0.048883868607631664
278,0.3387137458161968,0.6443910050951066,-0.19597320211700855,0.024798023258443824,0.33306240634498635,0.08488203091579706,0.0005210083096912427,0.08362077893017908,-0.08325922783985065,0.04279154196800253,-0.07461121277421018,0.1998663069821944,-0.1983719427203056,0.044890251550149446
279,0.359982401648456,0.04311446731518536,-0.26955457731513915,0.01380847875483269,0.3683676200421079,0.09436228874261544,-0.21944954913782602,0.0974595726713249,-0.046974258320972094,0.07952782684038522,-0.017071318462616763,0.18116513820108082,-0.18945077338519423,-0.0443349403783043
280,0.284742201177501,-0.0682320380649718,-0.23644375538686171,0.04526390140519868,0.3183967377740567,0.09820121309522549,-0.1893586752625871,0.09439565610823519,-0.11908645725192145,0.09741756806762095,-0.017085488787821578,-0.03606470107945446,-0.2035771498587163,0.03702239023861752
281,0.2154590767126295,0.18506650507083197,-0.315113777221813,0.049360153533654944,0.34709399990026907,0.13917824228302816,-0.10663402833102222,0.10325088188934758,-0.10493361470813412,0.0066000054621589595,-0.1332813051605718,-0.021395362035291982,-0.2969606218591796,-0.04221568216102101
282,0.22334383040890157,-0.6777326794824505,-0.37591998652295866,0.03013018353006663,0.2915501028785963,0.13966498444692366,-0.06651864003735337,0.12787433918273497,-0.08956780843218141,0.029322600875176043,-0.10266830580048979,-0.07319957215296419,-0.5032106226347144,-0.05393452430220921
283,0.3102881061328925,0.09625804780698155,-0.30048984508763443,0.0379773151373214,0.3213967919552213,0.12713645412856628,-0.01935240005627413,0.08010153805355016,-0.13056331125496012,0.07593280369622432,-0.06620561089226254,-0.05724835627461832,-0.07228453708029513,-0.07207002204769113
284,0.31497628864399896,0.17842517705332453,-0.3303179920207946,0.025962101168750844,0.3015492698491338,0.14503525227068215,-0.019583937720561818,0.07671210472931017,-0.10027534274532363,0.057170552027214376,-0.07698756763036951,0.05135018169463524,-0.39971658682697947,-0.05259681583221132
285,0.27854143307798185,-0.4133116327622968,-0.33801926166796054,0.03964777390826925,0.39547799140480205,0.16595359876162544,0.03107765877966903,0.08494468950108476,-0.16557896883734846,-0.02775574352870657,0.041194276249563226,0.01585255868503517,-0.19149721810280498,0.002249345003312537
286,0.2899408964104121,-0.44255080466254476,-0.3453338903131555,0.055357406694513896,0.4047975952591642,0.1469637903428899,0.03531180385089643,0.07162187775820072,-0.18236284599826905,0.010046490260799653,0.05274038107438828,0.00702451683037188,-0.2582979633790842,-0.010296464714811628
287,0.26442122177741434,0.23119019501950827,-0.3855686028834509,0.0023436788629370227,0.34408991377390086,0.0820948945854147,0.03613221876226157,0.07646574852247456,-0.09721461287335555,0.03408928670846649,-0.032246154809966766,-0.01973152752796087,-0.19934217461434797,-0.03458344810111392
288,0.3124892470121367,0.6630733242276049,-0.28314178933479894,-0.0010095235288254578,0.3794228559101756,0.10624824184604062,0.034920702698627064,0.06327215766402236,-0.14964904453600647,0.07662641395996163,-0.07611961287210565,-0.04784109650068092,-0.25928168343478847,-0.013850897089954798
289,0.2761135858706372,0.21506013468043486,-0.33020152567008065,0.047468760658671776,0.40872389749788796,0.08325043673162799,0.05840592052247124,0.07826618487609956,-0.1745822439204121,0.025593177219544884,-0.11874734811331568,0.19646097923534986,-0.022892221622672904,-0.0001496644053941965
290,0.30774801731238366,0.44582871042709005,-0.3250768886596625,0.020844811862014506,0.31820856080955084,0.08611714978380232,0.050305130547621625,0.065001625307671,-0.16207600566713173,-0.02934511818212559,-0.01221747567850255,0.027444858916272092,-0.21685864205590516,0.020022080771531288
291,0.27004867549148004,0.12553884736156828,-0.3746026720399669,0.023997168743483385,0.34030746322602606,0.09583597016221478,0.10662530817963654,0.0780125687210579,-0.16149028872270857,0.004439407150795638,-0.08193363996996299,0.052789665142199564,-0.535999274347333,-0.0414567559409055
292,0.30240150573846925,-0.2604488209183435,-0.3282157772871115,0.006992487949113807,0.36013736114336536,0.09391610808324607,0.07279035129696967,0.12606764454672176,-0.04983991615036844,0.07041433933361047,-0.04862693499379687,0.12636981395331648,-0.16479955655252645,0.024422324985833216
293,0.3103183845276166,-0.6735264826363316,-0.25388855359848495,0.014266627997551625,0.305523544705733,0.07773807381250265,0.07429995854380536,0.09327316570624547,-0.06607683833556156,0.012513725126215708,-0.09589435925180256,0.09846669602079884,-0.31650383386500297,-0.0022396079169860693
294,0.3097270033305401,-1.4680498910815254,-0.26793227071019377,0.044299993056863524,0.35047961464801713,0.10185960124027985,0.09697601162140995,0.11506432385721944,-0.04194598914382584,0.011596320561832124,-0.026203098949577317,0.016869708891953276,-0.31911823354825114,0.027049622804626892
295,0.24711410049844074,-0.5672273092015726,-0.2626356959512326,-0.001923757563647365,0.3156174906467848,0.11819372886419209,0.09131142797281556,0.07733927296692547,-0.12866153640190114,0.07904109319452407,0.02365390314449129,-0.00045641604888434174,-0.4227456896062677,-0.018138106276064235
296,0.33719466875186915,0.11839846182158434,-0.295049888094136,0.03446569663975774,0.2897323251110335,0.07935364130091158,0.10703980830285352,0.08998294315329722,-0.09471342626219918,0.10310356780165061,-0.016098593569744427,0.021444800396356316,-0.4377520406199944,-0.010213952792060443
297,0.30303424209292196,0.25866590668718037,-0.29850887970221646,0.017389114702184006,0.3748490393608784,0.08650944349202828,0.09121450615238359,0.09913246115508732,-0.07046933159186311,0.19746963237544096,-0.025904005792957627,-0.05804529700019823,-0.5340548469849687,0.00532156335426341
298,0.2881099470477372,0.40371001558194647,-0.32294539571433384,0.01714382936934858,0.3727439634653984,0.09082057573814377,0.07330801344043976,0.10699076751345749,-0.07949353732880259,0.1548331538505657,0.0016446744651478803,-0.012625378210390096,-0.6903846112338813,-0.016769074752829807
299,0.2849405111146447,0.39042587264877976,-0.35541895133300183,0.02045224623203157,0.2926295585572699,0.08961184987680008,0.05326651987359849,0.05500546069529592,-0.11604060931873507,0.10768658254225788,-0.033862758215113746,-0.05092990379073032,-0.5819791919986009,-0.0038271100212229274
300,0.27887669579860824,0.6056840634148227,-0.23285298395270737,0.011287024588802217,0.38038005537915853,0.09988815182976057,0.015779825155758792,0.09877970264711268,-0.0861501071252661,0.17700699423223895,-0.004583777133811155,-0.0334652087991273,-0.34158286538483956,2.7144331714245715e-05
301,0.26512166306369833,0.32105271217093795,-0.22652500147014026,-0.00657747632531429,0.38996454799660224,0.06124705296258647,0.01948341061685302,0.09230857916353662,-0.1344117075602702,0.065322664245634,-0.09590493820473502,-0.020263696986828776,-0.2739968808744419,-0.019983765676956346
302,0.26731664755116197,0.3848019400316811,-0.19609809604469156,-0.0016751610029382188,0.3875695689726625,0.06096021141623836,0.01691870583916175,0.08047156046617317,-0.14339889039392784,0.05356816441486971,-0.0731202281720822,-0.011100825334960518,-0.06667981947934046,-0.01965965117106184
303,0.2871874931047582,0.006873846394262993,-0.2800099372719255,-0.0134956171659278,0.2574871440887184,0.08491882236116632,0.059403463648360584,0.07529907721611041,-0.16330500953195326,0.1785861814206479,-0.0465353002580584,-0.06746308120194887,-0.18742573920996916,-0.02434299745883585
304,0.22343324229283568,0.2166775808118635,-0.3749276577524754,0.04972214591434397,0.3951726389529161,0.10063805261330461,-0.013579177250894116,0.12249889124506243,-0.09832003470483591,-0.016617579096406106,0.01168541884301269,-0.023370690013391333,-0.11389522689940687,-0.03888023698232958
305,0.28884567415933954,-0.1063414591953558,-0.31513785512526815,0.01984958353017987,0.3474667290356598,0.14953157875942572,0.08788762184813062,0.11126346846536955,-0.1798307886018005,0.0004866215586552093,-0.18611157985234264,-0.09236521287095106,-0.4712176529274269,0.010078342457485468
306,0.2501161940132752,0.3695434399157867,-0.32307780542386266,0.022501606620040752,0.32821661989591133,0.09151463619655087,-0.06603516669147332,0.07296320778307812,-0.11400231179645105,0.07758935497993619,-0.058283690640007435,0.2939784354051531,-0.07065305536279082,0.07139057377244155
307,0.27129094615235966,0.0042632836080004856,-0.2427856032336114,0.03173793679037537,0.34869657998724096,0.08430006100283355,0.054238310041733136,0.11945469490780916,-0.110624301482628,0.09523224431878285,-0.0823048866388705,0.5498091122268584,0.45636725539764855,0.08889806896214678
308,0.28254254663630207,0.10070972710706974,-0.2943545095213299,0.05804835648606722,0.42330248906858164,0.1128105247444964,0.017685632316791468,0.10181675548674994,-0.08452169924735531,-0.004076592078554186,-0.14399051649495864,0.712936816408348,-0.23903052877157913,0.02300452118942211
309,0.25334951028432645,0.22988822639138923,-0.2737002557296693,0.06261516101915568,0.30027539803828596,0.13872771335213172,0.039840805500911416,0.09274945687848189,-0.09671547245516984,-0.01722754165246626,-0.07734508393414596,0.555031059825018,-0.2161748433270557,0.029631968853067493
310,0.29517483326888727,0.22099492267169013,-0.27361346861297525,0.0542792679744287,0.36210639940278494,0.10183458274839312,-0.0030659649087127375,0.08980586982093319,-0.12958070493971657,0.00721314657934085,-0.06655889699726479,0.7388506497833579,-0.327722718218574,0.017702372886677867
311,0.2940463240086655,0.20860236720114733,-0.31561079513375173,0.03328333373759087,0.3588202535014391,0.1023831626610659,-0.007543399252116549,0.09214388100711773,-0.12851115239379957,0.01008495952822857,-0.04171017135393025,0.7360467751517353,-0.14767453648318307,0.01708657096386475
312,0.29330142715563406,-0.02167656170938179,-0.3237125948812667,0.0433770706298076,0.3298598953277506,0.11680871158125589,0.004664126051656969,0.12008754182018933,-0.1795973404147484,0.04549271564943351,-0.06891209219627269,0.40900730448277134,-0.10033112975184678,0.04286025405554978
313,0.280749108593953,0.08577764336841791,-0.33931237858011226,0.014593987499279266,0.36540397063061764,0.09032693875012647,-0.03723822919435116,0.12357558696787792,-0.07987865151719083,0.07573714869362314,-0.04100813758865123,0.2106094418686849,0.045917125203606274,0.021190844960744273
314,0.26233430024329807,0.4609249120584871,-0.3309614770240839,0.022348624260135362,0.3239082947424078,0.093427120693409,-0.002749170518154538,0.11361076973140886,-0.09708775998064625,0.06579168675855067,-0.02620732674805936,0.2539755089628029,-0.26277385807399845,0.015100863978836742
315,0.29865190522582524,-0.2511770394197668,-0.29501650881659197,0.005671445276394287,0.3388716208521543,0.11781594726290608,0.0949793477658859,0.10395912033173897,-0.08807220403417179,0.05163805459961763,-0.11319109523999028,0.13193765122914805,-0.5665887524302136,-0.0003805638484920479
316,0.24758474376571615,0.0856401729592445,-0.2884621978927415,0.027583385678046347,0.34795511523869893,0.16545098298307076,0.05520474213628612,0.08156725519982251,-0.11234337935337992,0.056616687882106526,-0.08088397187719243,0.2792304447798048,-0.486239404821851,-0.038040845594447203
317,0.27352356591745763,0.5270756294390407,-0.28171862389710484,0.02725111875198061,0.3579117245350263,0.12338501599273874,0.2177586209060196,0.08293936797550985,-0.04174624713263717,0.05787288154179814,-0.1840660436108332,0.47201426939378843,-0.32533542555556977,0.02853030516680842
318,0.21764946453268513,-0.21934742468372367,-0.35912820866211226,0.031238794781585835,0.31614306982889717,0.16433775328937583,-0.0013700444143967692,0.08194108337119076,-0.0859176293454399,0.01036998292391698,0.04403793291142663,0.020321029282029786,-0.1818259923308005,-0.0014839511351884323
319,0.268700444299355,-0.6782683465981746,-0.2856047213609007,0.027776801865271702,0.33717868861346667,0.13581560314172428,-0.03821303113813001,0.0973810394893005,-0.11152242773888356,-7.929643919542374e-05,-0.06659226301165709,0.04709817994374258,-0.5129049296194642,-0.012491199754027092
320,0.2928679341134571,0.17376409104714385,-0.28849148435407646,-0.004829628761495501,0.2855943992824792,0.08873450638529246,-0.07241044433355528,0.08768035221676473,-0.2004430963951251,0.016653186136562484,-0.1062204814539332,0.012650870791454938,-0.05937850769754233,0.010902860681210293
321,0.30062080484948517,-0.025010832737135627,-0.23453490231561286,0.017132141190917355,0.3268789871646958,0.08941939848786831,-0.0826046333215848,0.08114852865603428,-0.25551813048296734,0.015778626459971277,-0.14493838542809828,-0.05707326920486804,-0.343851284478788,-0.008428361841523874
322,0.28145523671276035,-0.08731692161719305,-0.1719897962644057,0.012669823546266917,0.3385000322248689,0.06869637413126896,-0.09112479219275402,0.057131020930934626,-0.2841206368327604,0.0328313075664514,-0.17015826627183592,0.026118670397641243,-0.42687531048504984,-0.012413869759102795
323,0.2686864723240526,0.23510760882263493,-0.2624728435672986,-0.005171334840574174,0.3292443247694232,0.07608264498982226,-0.0792858019674457,0.10532918072187314,-0.10199612434017476,0.06303729560286113,-0.03923916237666518,0.031750263855383494,-0.2508477152062184,-0.022178920437687932
324,0.28064190188338084,0.3384481659336868,-0.20847368753203502,0.003951389228303738,0.3566782255713207,0.06145775165640318,-0.14880810900518182,0.07856979821822054,-0.0350645499520587,0.08249817155813258,-0.1312651222102507,-0.01907877739352671,0.10303292853937596,0.010393587725143831
325,0.2855677469498215,0.4491284485043413,-0.246899169882533,0.011317156757398996,0.323938055779885,0.05974791591289949,-0.11325857519721125,0.07888103978905507,-0.04960447471408668,0.052940771703500755,-0.13357282192166167,-0.018116460463542813,-0.03654947219853042,0.01571941661543897
326,0.2345885389226277,0.5070410228144717,-0.24997607053300008,0.03558847065664579,0.3517254474195204,0.1003606065824509,-0.09964018578192002,0.09060956542732966,-0.0917153904315057,0.0711983645242189,-0.15853347888094266,0.014539040648254046,-0.3950186648432169,-0.019490801400275995
327,0.2897247025754568,0.744807201476101,-0.23129447276215392,0.007791269208286247,0.3599361667429369,0.08694633487340109,-0.05354466299304606,0.08156060294776277,-0.1468486805072882,0.1561784827245831,-0.06001562295507122,0.10806652007311215,-0.23029886391362578,0.02098058272985288
328,0.2718839178031091,0.5914811746620962,-0.23560253184772814,0.018113306953026004,0.3725803627887513,0.08315897219649397,-0.005955943215184899,0.07427817813722443,-0.16405125980182209,0.16891640846328082,-0.034105208487456906,0.038727551766178925,-0.20442994982381268,0.01625463824892353
329,0.25727350018953754,0.6718816944190021,-0.25617126435214455,0.03329738784485781,0.39403933700539395,0.10834038197202586,0.024801316535076064,0.06529551582165043,-0.10687850407072647,0.07861421876449586,-0.06325647067017173,0.041934981894268135,-0.2773828637340463,0.050244952155724165
330,0.28843591594991885,0.9026818087190247,-0.24838083103246128,0.02861036099509785,0.35744721469152974,0.10220311399232192,0.037039843179786064,0.03826671199193291,-0.14542356831369413,0.061050485909713244,-0.0347959589053672,0.017085797739626127,-0.20466441209495942,0.031439404086564544
331,0.2677975327381061,0.93351123520674,-0.28766901373066955,0.022590177998636735,0.3516964652254399,0.10148488399708645,0.11622695068321677,0.07684453143771759,-0.15590300824276637,0.06644838361447955,-0.038533951109072415,0.0951853633293529,-0.2022353023769604,0.05435065666474765
332,0.2795082639606158,0.6378209191779078,-0.2157205490782646,0.002034026773624211,0.3713098837609645,0.10566600416231117,0.11263949461554709,0.0631700456516842,-0.08437580880612194,-0.02050996902702378,-0.11127472323490813,0.00261104012328088,-0.09783003207480266,0.05199032739283186
333,0.26233442217619934,0.5390669391783482,-0.3099178158593903,0.01607371544478505,0.3702553938232117,0.08189458587922475,0.0982244259457697,0.11003178093143223,-0.14201726132429965,0.06756360013667313,-0.03698713415801399,-0.03618600532405842,0.028027692261102837,0.04248811548274261
334,0.25580803423937504,0.37744315052942556,-0.32331445486089677,0.023871981898972185,0.37235345817297094,0.11865292606774173,0.06431921212730381,0.0962993554397319,-0.15895621162176282,0.04023782529557745,-0.07403210692963393,-0.02018200553687349,-0.029363262789753874,0.049330490768128496
335,0.27500095814106257,0.3825829006448168,-0.2953165547114622,0.046173173971361996,0.3203509061557478,0.10945696580234254,0.10332607409113302,0.06489933361500948,-0.1486128530972573,0.03309870183068398,-0.034272563302804926,0.10984819460552818,-0.00921608148092936,0.06409592296023177
336,0.25356254761402014,0.6337099850942683,-0.3735709149765747,0.030427124282316097,0.42107661506717947,0.05975859406117796,0.040198134092796885,0.08234707038246047,-0.1322741208358761,-0.018268099547878145,-0.1532620866195518,0.14947699159959527,-0.02542242719096701,0.04210402775845731
337,0.30091903827193983,0.07867754003924561,-0.30996739058090556,0.029715317775815348,0.3314855378047993,0.18895658394707882,0.11123265958560831,0.08260666455190101,-0.16236673864790233,-0.02072868895896432,-0.051567469721676605,-0.029573131916604652,-0.16218473052793198,-0.0208186320513019
338,0.28161520464196543,0.19478755976042358,-0.32012109146180806,0.0069166121388333736,0.347023388456591,0.09008130713067167,0.020633897044051025,0.09621514057146158,-0.10591280007098931,0.09311712498681841,-0.03293942384592434,0.1094346406496012,-1.2996838427983126,0.010899215053483579
339,0.28077759005197617,0.7284098690189406,-0.2996518776563062,0.00892805274049999,0.36056921849526286,0.14433952263254593,0.06647882864854937,0.07734969931962345,-0.13004869110291042,0.044974271010993994,-0.2222691231405432,0.1660152312822605,-0.3925783967065263,-0.00804088972770334
340,0.2513238184499054,0.7555922317456502,-0.2518187426870665,0.01032325647110924,0.2812149427156102,0.08943903422664522,0.10148087749615572,0.1017592962912483,-0.10610555948078527,0.00792346650424558,-0.14827472858119872,0.11450304837228384,-0.030153934440105085,-0.02170041396916197
341,0.3097243426524525,-0.030941349251521946,-0.30581546237069746,0.027315756006232362,0.2975924514170724,0.1671801522452059,0.13342691173416618,0.09024811427375894,-0.08431780481383161,-0.06342709868128762,-0.09013595143294928,0.22799010486606125,-0.009874037806006965,0.0031656215170786334
342,0.27724840153592095,0.026901492562726073,-0.31836851092333895,0.019565944748473726,0.2862243095999961,0.10571327891844606,0.0541447151449684,0.06947393965163814,-0.15734030407625427,-0.005138012402229545,-0.1615034610688594,0.057100944972318934,-0.22108838480539625,0.019200527341596947
343,0.3018510433976977,0.40180189111824927,-0.29467966510938504,0.029953681862971464,0.2629367416724213,0.1878815372515301,0.039117792717937735,0.09762227635848322,-0.11213764113886515,-0.04219865416055869,-0.11733094678996527,0.01213435344988296,-0.3244764972956596,0.03471464517129184
344,0.24989581611025313,1.0588590906206203,-0.291621648409108,0.039779546450325415,0.39237657186460423,0.15032176526644342,0.0779339934596839,0.080360961602908,-0.09061213557270927,0.07374390887240834,-0.08918063489238956,-0.06529997334222606,-0.2451651797202688,0.015812365761379787
345,0.2446289988899486,-0.11150986961944036,-0.32578412190844575,0.023948090561943615,0.36765484986665103,0.1079012909726306,0.09269622783277547,0.07784924106445705,-0.06705643446465241,0.029265631699487232,-0.06570238729451901,-0.021221226884652514,-0.32815422197732347,0.027544804392702522
