sample,celltype_0,celltype_1,celltype_2,celltype_3,celltype_4,celltype_5,celltype_6,celltype_7,celltype_8,celltype_9,celltype_10,celltype_11,celltype_12,celltype_13
0,0.07071191190935566,0.15184494389024739,0.13987143474795063,-0.026486946087720474,-0.19919209889854955,-0.05565289001276863,-0.05850604968162958,0.013174207570704546,0.01744387640515359,-0.09059627790497007,-0.1045794135817576,0.004087095467175103,-0.7925243595607183,-0.02816797147621819
1,-0.017068777107204836,-0.057396240371568256,0.12922190511870607,0.02164335211359096,-0.3653786776961417,-0.047530374686307164,-0.013575293709777406,0.02770135719824439,-0.027212637190163508,0.041903632300002,0.09511273024603695,0.25365642709882036,-0.6656387558439854,-0.04654614568743222
2,0.03198333868545111,-0.4345381938135866,0.019440516944541075,-0.04162258805888026,-0.17540620884816102,-0.11910522356727854,-0.0878449324717158,-0.05338833433402368,0.0422806610128279,-0.030197436756107518,0.05739309043632436,0.1614313169026614,-0.5935550484960229,-0.09532889855915247
3,0.016603974001359822,0.12811419143716174,0.0886068221081418,-0.017059757765771538,-0.3471002784285939,-0.0908398247770226,-0.14796726133869612,-0.014108428865236305,-0.06718139294591519,-0.20413045667238522,0.07054415020921861,-0.14768710916940098,0.03640733259397548,-0.0051335678799146744
4,0.07452468804025114,-0.47279672376714266,0.064976582922178,-0.022478169596174116,-0.24319947360458305,-0.11552277400026621,-0.03820876017669736,-0.04160156649305126,-0.07632958012714436,-0.07530436085912878,-0.10718716537474926,0.18631929116737625,-0.5329073219175362,-0.105653401165115
5,0.07025483695638243,-0.7975329395181678,0.07892271881574156,0.01721471008101748,-0.18777694344214887,-0.10052397342646797,-0.07071187296086,-0.04149858042829152,-0.04702422411445699,-0.10654743624644517,-0.09781365553303341,0.03184201511694358,-0.4712383887313756,-0.0808106667850787
6,-0.008974478963961197,0.03660214217355501,0.10080336696787798,-0.04695446040749311,-0.1160462623761189,-0.15764486144256362,-0.10704921333415077,0.013734448235934837,0.013807621249303098,0.11954208207662642,0.005463465733655066,0.21061470265030988,-1.2965615525250591,-0.05754429998007222
7,-0.048723652362135716,0.17050798087546754,0.018530666020456554,-0.013992003650868235,-0.4607419158724171,-0.07481666687284587,-0.0067093469760777374,-0.061905091255144214,0.05794933786002615,-0.02989234205192158,8.287130689771383e-05,0.22119908438862643,0.3169296338480122,-0.12414701305200969
8,0.004468121362382227,0.09646884689991761,0.01753259489757711,0.02398583509177154,-0.34075836169890006,-0.1349697390339143,0.0755863551169493,-0.02896472745880526,0.023130301505841062,-0.10054565743347685,-0.035074722572530914,0.0055325681319034065,0.5336749180393603,-0.12817373912194874
9,-0.021579041402568666,-0.24349689021576493,0.04526991797146521,-0.03203645309777135,-0.21637938023364442,-0.06620401745565153,-0.07254661829903294,0.021791135387700042,-0.05588606217483373,-0.05771723526403892,-0.03599920561399827,0.12742022355352486,-0.39968499710970146,-0.05334961063822771
10,0.06163216551354783,-0.17803300752057782,0.1221487706819489,-0.04421879396448498,-0.24491149941272033,-0.1202969875725835,-0.05258588835214997,-0.04518640274374528,0.061146833445706664,-0.00034316882387636603,0.012650983221363793,0.06620383441581483,-0.14839257121100874,-0.03179547934893404
11,0.06742997030936082,-0.7932651131644762,0.09026490092920791,-0.041634337879314275,-0.18302233707166168,-0.11744223217237212,0.05970031097386538,-0.030392766488266464,-0.04753190217694819,0.017609314466518675,0.06174924905964383,0.06849583355078608,-0.28201520145065373,-0.06981463030816464
12,0.04902674055225689,-0.3292227420264755,0.07917145504960726,-0.04344473955479614,-0.23115559473336753,-0.09393661323520303,0.01995999848606972,-0.02443502233197349,0.08363848619691797,0.17523351014534772,0.07479487206726199,0.1004362586766894,-0.5301584973626932,-0.09418981152631636
13,-0.03712626336537442,0.841999674141285,0.09356305441833218,0.008671306038543523,-0.22084986288597433,-0.08287030043500403,-0.04715363787526596,-0.028964444459094865,-0.08201914194839022,-0.08562921330378187,-0.030241864307256255,0.25691798190636417,0.08787735399597948,-0.06342264412438661
14,-0.0335538050066887,0.5515506875505586,0.10341625058013154,0.01482264185312657,-0.22264591359480707,-0.03804588966020224,0.11728085501239877,-0.04509600362485425,0.06602323076747811,-0.18587012016127963,-0.03033281527489526,0.1902560717985043,-0.06623438112317456,-0.08271787276959486
15,0.0062559502864456,0.630940450775338,0.0012061572472952253,-0.023870308192192668,-0.14767192496708656,-0.11402515492474147,-0.10088432663031136,-0.05706751570623725,-0.13481058237317722,0.005193222946976009,0.020278305035003413,0.16110162267102623,-0.28118439713567545,-0.15011342382624415
16,0.10761618006754814,-0.5033399960481447,0.17504475994447086,-0.014893236602469363,-0.3247898325882522,-0.08555995084864637,-0.0984137104343922,-0.010004681252723746,0.1040797426949229,-0.07797947815852696,0.1366109462275048,-0.14230560483468196,1.4718105590236017,0.05618077560682752
17,-0.10422431458529269,0.26045703520987973,0.01173365096644896,-0.03923755796253083,-0.12735240495529188,-0.1086785587685973,0.015952855349408837,-0.021194874326534364,0.005877869357235693,-0.020440944324243843,-0.06114652856529065,0.07328054753142788,-0.29665173968666314,-0.15769139943011815
18,0.024071778171695923,-0.07128278456303336,0.14836710353826932,-0.03977413616745619,-0.220710875759233,-0.12459368900253642,-0.008651309638218238,-0.034161018334701095,0.088549421043357,-0.027453520329047007,0.01301139826432074,0.18644445836661244,0.03080909790644877,-0.01715061568171998
19,-0.05044140808431913,0.5588935526886575,-0.10163651208000363,0.002669997051340906,-0.3017369004665238,-0.09100535840595893,-0.02807651747367662,0.005560621277881123,-0.02926955183693107,-0.04030514676566663,-0.015992950125188587,0.20360065668179916,-0.5450302036117198,-0.18482825545034398
20,0.05999019660994109,0.16475963598447538,0.1435313648250825,-0.04609415530074945,-0.11334782112368277,-0.11381732907984324,0.28612188376075265,-0.05395496665448578,0.011644032861837933,0.026326336317276534,-0.06578607947660456,0.18042902141774086,-0.773245182296316,0.019845411755550327
21,-0.016180632838912745,0.8387536873482507,-0.0845129871472427,0.012528771030084457,-0.39836294703896585,-0.06840922536459745,-0.02152713061319106,-0.008866481525516154,-0.044926151001991044,-0.04880525837702008,-0.03603225023478039,0.08484430666635437,-0.4713387786599784,-0.09683723726547085
22,-0.00425532249573235,0.9978994607413283,0.10782002386699946,-0.013998660104919111,-0.27311277071602447,-0.1940733432237934,-0.1534654107308575,0.010369638071214368,0.030920167185772653,-0.038389812035388104,-0.021400019807655907,0.2803438587638747,-0.06059459198589723,-0.10698491933696423
23,0.04309366158197825,0.8448349315665622,-0.042219260330847164,-0.031153341509451666,-0.26008226632093256,-0.14507639334743935,0.04304622325870314,-0.03957431356318212,-0.1339572417852372,-0.014535895901322553,-0.1073952339710166,0.13541666419334844,0.05530634919337979,-0.046374227885017466
24,0.096092240007216,-0.06468216272473556,0.142327604941778,-0.005195914386914056,-0.27753669962922567,-0.0580919445002542,-0.06527696471011114,0.017177968718812595,0.11230775900279531,0.02053972315344227,-0.019598626373187045,-0.014002693235031283,-0.15396204904826427,-0.0784736564357209
25,0.08944791217627679,-0.19598822026166357,0.010507642955727536,-0.07727559030562789,-0.3164621032481814,-0.13370959531396936,-0.2005306895666582,-0.05274632952399291,0.03460332678727216,-0.11196816473975166,-0.033350361799789376,0.18423826061553905,-0.6856588954221552,-0.037474179564459115
26,0.06488362752810528,0.2967423171955973,0.14804431741698568,0.03257742559037714,-0.34235857171732736,-0.07331525044168707,0.031223537082535738,-0.0064648292206702235,0.03818763722036901,-0.0872290325653635,0.02208078950810828,0.2057258548013962,-0.7685286915541352,-0.05251029670380392
27,0.04453633606477864,1.2321931552452399,0.12190009110098504,0.02331684824584177,-0.3108084731331571,-0.12528902296093541,-0.22552236605026885,-0.01927775749149456,0.054660254630436125,0.033091028388290755,0.04608073261999285,-0.2877200320242334,-0.4128234942721257,-0.07228484670094518
28,-0.022803852479385323,-0.6601994102845385,0.0544741560632499,-0.09702936241089594,-0.1393167270780486,-0.06003063500401562,0.06302507018006127,-0.026150109937871563,-0.03639285671561532,0.06420974851494385,-0.004800153442393606,0.2037539834114885,-0.05541536954556775,-0.0758420377926489
29,-0.036213754795100195,-1.3791103049454387,-0.020456158420185333,-0.04742177548575214,-0.06037668588532413,-0.09041611289351467,0.015459089070691642,-0.029134998585788288,0.08315325116548167,-0.21714852756051833,-0.0875138673505065,0.015095847863667168,0.018147634364405668,-0.00997581076665472
30,0.04281797190700115,0.059764651094702734,0.14844510831149066,-0.006995386323168784,-0.41064708753954365,-0.1076874562393206,0.021098190100859074,-0.010224224039445867,0.03709968153785896,-0.06807140534096778,0.05984469954559316,0.32825566012131946,0.165959014878173,-0.10515852818588933
31,-0.012486920914826394,0.6638158624435395,0.10951108263950463,-0.04793155593331465,-0.19458261549147415,-0.09970161976956235,-0.01616618601312133,-0.05104813832399885,-0.06101480946594713,-0.13974534159800006,0.08387354493268602,-0.05111362412593956,0.23025660899855874,-0.05183046700486345
32,0.05089488024870065,-0.33648075103214703,0.0668169291720036,0.023827748879954366,-0.23184526039132694,-0.2092744692931024,-0.14157728369556571,-0.026840032550741216,0.07081776017112575,0.11753472336221413,-0.0322645606502074,0.2682018460295815,0.13821770326491117,-0.1385140978304456
33,0.1385426438580427,0.13033952948368527,0.09517293191959189,-0.03665497450643188,-0.2596984146832889,-0.10418416236263485,0.07511982158934992,-0.0035386738661350725,-0.05666793081065575,-0.03330522815069514,0.14164701494159748,0.1133824911122468,0.4622308308613464,-0.044717445462507374
34,-0.02778019082167449,0.2138663069770791,0.047555582985961686,-0.02631929617956892,-0.280992291805777,-0.09440259212862565,-0.03733567630325989,-0.02267313307019652,-0.003023045142316036,0.01611628033727052,-0.06693163797545842,0.10616278207436959,-0.23279314385566138,-0.10440421773659588
35,0.07808189235721696,0.5705813585800872,0.16105202871625174,-0.04661008157825271,-0.20906495197737227,-0.17144046850299596,-0.023823551599369226,-0.025160504065152065,-0.0014332424603378385,0.0365117574531925,0.04307267567132299,0.2306181915459416,-0.29275392526350175,-0.1301107106474858
36,0.00932537277015788,0.15259570273203762,0.018726945357453256,-0.013337966745895283,-0.08147954851892697,-0.09173486827787936,0.042675648376756234,0.011985224922616111,0.034204874119517725,-0.014971758188879351,-0.0696125015961363,0.18974807322460402,0.14949216737550286,-0.09605123740455937
37,0.04406618536337803,-0.2545349683936538,0.05075569338643654,-0.030496663192524823,-0.2778191948348704,-0.14369491361620426,0.02009540670208871,-0.04854989928060817,-0.03163394034862818,-0.055556312808339454,0.14780426587717135,0.09291166151421429,0.22735897112216646,-0.06313104630720959
38,-0.04027266934128959,-0.16036852761165832,0.10000390524194633,-0.001492513497500781,-0.2220305807685688,-0.09869472836438425,0.005018747528465428,-0.008201019289648045,-0.024109062396599518,-0.15940235272584324,0.10363038678980276,0.07299341623652361,0.034428946820044215,-0.006746185966992349
39,-0.05133887666433201,-0.30266067139116704,0.1177754967230375,-0.040926818134146524,-0.26133362111644654,-0.06269495788954849,-0.02548610724914068,-0.010395354942166299,-0.037801688036462694,-0.15266890284890078,0.05486813058391951,0.20867540125784304,0.06328409191680942,-0.06355940999389098
40,0.08601069126685318,-0.5273146322677209,0.07227216323447849,-0.037041251470861215,-0.12570429696985433,-0.07859195792068982,0.014653177940580311,-0.01518665811624531,-0.027193835328246083,-0.11688778228347985,0.015060230189157184,0.133489623352403,0.33414147095672936,-0.018131478135442955
41,0.0011701500164592593,-0.8183140364395524,0.16931636289678864,-0.04566539147651922,-0.14442526222987884,-0.09468102588596398,0.11391645770312171,-0.017035617971596285,0.0007715521646025833,-0.1423494400351234,0.03446475107233456,0.15038433174927412,0.06931373971466923,-0.028658569470876905
42,0.07430904796538235,-1.0603165231364202,0.06585090070619784,0.01927095256343501,-0.20687630767352533,-0.08784948023963221,0.028685358339029535,-0.04366295233779059,-0.04360360250077511,0.001753034358340625,0.05268888122365554,0.2409986584598023,-0.5310329721239799,-0.09038412160396027
43,-0.00025781968221944007,-0.5265278446521476,0.09292937688450051,-0.05860808994079761,-0.35349245727203477,-0.039646883392642746,0.0033784580574623604,-0.020930662503239723,0.005665542310761634,0.018029921530521895,0.029978078212881044,0.3285458320774536,-0.6344377934575175,-0.07886611723110792
44,-0.00977563587889807,-0.4686064616770056,0.12017410811417317,0.030984147271497824,-0.37560933835080657,-0.05690923781115485,-0.08233078406465204,-0.007849332751480684,-0.016287266571827982,0.020035017203120467,-0.04158731851913182,0.2670328441847427,-0.8353395469412364,-0.11631664248130733
45,0.021414238086790327,0.5779040754306464,-0.03168813848938229,-0.07305011570680695,-0.2236531079805324,-0.13785166266520493,0.11670729145274666,-0.02376384216066127,-0.03897164740651313,0.1665987560261039,0.015263152967376532,-0.24484657624102998,0.15403137171023706,-0.10643676273383545
46,0.048401370624793494,0.9834935042757809,-0.048070489365370506,-0.017956495754306356,-0.3293973781426615,-0.10857840954306713,-0.028354649199913096,-0.014358151684742124,-0.005672845066126073,0.10196552196973616,-0.01973469304787441,0.07020161093446078,0.44995579966637334,-0.08262658891565416
47,0.02326983632122631,0.043837869728560075,0.18244041947193862,-0.044812699476668896,-0.19518421536689023,-0.08990685263368844,-0.05883159998746133,-0.022578807178381607,-0.0066470555884704935,-0.0937005181123046,0.06696730567231844,0.2955695756210018,-0.4767230311676137,-0.0937384991618873
48,0.05829191142186452,0.32804291615014547,0.02368699693588544,0.017649946147092765,-0.44294660752079984,-0.1358104172908749,-0.007070212904793982,-0.04195297769034499,-0.00993051252360043,-0.016516912321058064,-0.01657214649392527,0.1968906697129491,0.19972748969424536,-0.14447897468024337
49,-0.009346757741655887,0.5800080575087343,-0.05652110885456779,-0.04501439897369716,-0.2353137218813595,-0.16108580929470598,0.047400677409012076,-0.06227896001357428,-0.0120901655851725,-0.06387341420106507,0.10557580732735138,-0.027773592127560504,0.027455853907638328,-0.06495861548220096
50,0.05568070426691424,-0.07254201034889605,-0.09001288859729828,-0.08438190742196977,-0.16047573590992206,-0.1239355885535794,0.13314627952685407,-0.08483990995425175,0.042156817135279384,-0.12838217216618728,0.13689561018979926,0.04956927659495257,0.11517184269749578,-0.018476423769366722
51,0.031658283291539524,0.12442139199525018,0.01951194324953265,0.022068133437370744,-0.17488762573161318,-0.13223051128113178,-0.0684496359993295,-0.022205087132449564,0.035692193426993264,-0.1250025180327377,0.11701195157568686,0.2407458460243944,1.014794340848101,-0.0578982470674526
52,0.0328169235108432,-0.281453284494817,0.011316903128273381,-0.009521167931178888,-0.11843432240282697,-0.11347927187418942,-0.037261196686904606,-0.05614457191848081,-0.033762748518375824,-0.1598721915074745,0.1854775900866022,0.21621776873407508,1.8977622549703077,-0.013894817526540152
53,0.016388939053291418,-0.5073796090255724,0.00048072189926001707,-0.035642280251602224,-0.09575144684285433,-0.10853649878248503,-0.025490496139328786,-0.060928821574430594,-0.04000709536224435,-0.10664906162887883,0.14264005741792457,0.23107347729314384,1.870040368275016,-0.0557750893851949
54,0.021728393623712816,0.010013095993826979,0.027608612930804133,-0.03167136891125525,-0.3219733115326689,-0.12836363560369463,-0.019211790957145602,-0.02595539828065524,0.09419911799969038,0.010875920225191876,-0.004105388189026615,0.3034613040437081,0.656109033623302,-0.06556462197290791
55,0.0022548043213113655,0.22095665486606283,0.18268252243373712,-0.07057691637823853,-0.2717803236380085,-0.11425605201922612,-0.045169249305655426,-0.050895659264416956,-0.00961193573565039,-0.15663754602975483,0.07900525146107523,0.16425976598683428,0.16265339425153313,-0.01041401216389492
56,0.03998396911501337,0.672348345957166,0.08845454232772168,0.020730125626786035,-0.35738243736219544,-0.06582266783464365,-0.011265397415774387,-0.03339696384101605,0.0018365204484770414,-0.037173696198884554,-0.0621278833279508,0.17147667645804598,0.627938501191623,-0.036827506110085964
57,0.06318283516819756,0.49082197780815234,0.08294252916662612,-0.026297042129710683,-0.2896716064450889,-0.07540807397983246,-0.10893378753145298,-0.040651091382279916,-0.00016793135817932264,-0.0061002665835639125,0.026705984696975132,0.14505780667717252,0.10071639823309309,-0.10089873660694357
58,0.02134097471155061,-0.03129944219587294,0.1759454261006952,-0.018020151424699874,-0.31737878738723796,-0.1970692021386226,-0.02129461628848406,-0.023402174248568275,0.014769728823743979,-0.07353472170221606,0.045271867757936374,0.1712632836685853,0.19261704625353343,-0.007485256812631361
59,0.033136482008728096,0.5547331369637603,-0.12160794439744527,-0.03558531062728281,-0.3007185758844687,-0.07129808936275413,-0.0701035181583061,-0.02572543354521427,0.04100868966714334,-0.10261091377477212,0.001540487076929109,0.17786926878684642,-0.49277087226073485,-0.06399720367548918
60,0.047440313416418384,0.45619467400233404,-0.06442760998433134,-0.017967735449197757,-0.24724269710633587,-0.08615210184172198,-0.145828907742939,-0.015517640890907847,0.00020682320827829226,-0.034632311707989714,0.01820486147622541,0.07204698924845461,-0.6347334958780888,-0.0419205432257905
61,-0.002646062736109428,0.406205885177764,0.14146767642892866,-0.0315662031473449,-0.18961236191247613,-0.1332618863974375,0.007014127772085117,-0.02512564343456551,-0.035935950182325885,0.12833388693566847,-0.008429508004490119,0.0988494469570025,-0.3780364203976893,0.013442433915413471
62,0.005332031215998123,0.20648060160932408,0.043077135362485974,0.03372600934147034,-0.23416719784930093,-0.05840984375071685,0.026279524138331786,-0.012006126140455986,-0.05303933003601463,0.01718637220445023,-0.029316209948029887,0.2703669715870875,-1.1142604471237667,-0.07875750925614552
63,-0.004660909836521232,-0.9380861233252773,0.05210509389370638,-0.08040129599831584,-0.33789775475360684,-0.13453074102225515,0.11102103608010278,-0.02178398068720489,0.03342376922515673,-0.1048137546401133,-0.0009553075038545474,-0.0200273416515699,0.9159861204805354,-0.05972891016633656
64,-0.015357319487728283,-0.7964562482357659,0.017069861972749456,-0.059264729652765955,-0.2935094058968104,-0.11731830081192313,0.13082654510540842,-0.02956942782218997,0.046279755514687285,-0.10882889420216382,0.011121893007432744,-0.01598510984196675,1.0516654503725185,-0.07401346152840353
65,-0.07395140323478544,-0.5462289036052586,0.017641830249215396,-0.01673890214614676,-0.3981275403858646,-0.10439987367074886,0.17806199512730128,-0.0321471480375356,0.07552256374656574,-0.18738997048288603,-0.14223857144045907,0.06961336650437665,-0.25459968951261075,-0.14972602449219613
66,-0.09360288452076826,-0.6630941283042646,0.13866037525273836,-0.032519426451594016,-0.350936019625251,-0.09251784642538771,-0.04617287531290937,0.0007297077990660039,0.1547004476612798,-0.1265618043000557,-0.14647150459455818,-0.01933866071078768,0.04591728725333885,-0.09800582076820005
67,-0.08997725993053857,-0.7736987702798426,0.08884518233127356,-0.03401005817884213,-0.35589302005107226,-0.1266624257298531,-0.001568594326375461,-0.00944079215489646,0.07769355473735726,-0.13300132179601232,-0.15457959112049216,-0.13938397878440728,0.03943224812265836,-0.06865109786079351
68,-0.060663214339394284,-0.5891347730348284,0.1591058714904442,0.021270096527558444,-0.3781366044657894,-0.07004567398205261,-0.03163561104838496,-0.03320378010391442,-0.011897273876393444,0.047209029478767775,-0.17531223684409045,0.23633082224051966,0.644031331568456,-0.061327164939197064
69,-0.08007481817855058,-0.9981592729769583,0.11559912844011264,0.03268995544032027,-0.35920354856037984,-0.08564723706842041,-0.0312636814596113,-0.043434563264345194,-0.04146958564341363,0.14013805525631132,-0.17491214563220722,0.18649351062790154,0.5425142200944588,-0.03160183222611858
70,0.12398373956398323,-1.0526055768886633,0.12729577245069446,-0.11247120086106341,-0.19501282389881405,-0.08000763335213676,-0.07754802437458562,-0.01364379079901544,-0.04862166608958246,7.371694203597845e-05,-0.06711217270856877,0.0681521525948445,0.8459792223505826,-0.11535789578865036
71,0.09296577111906212,-1.221873905519573,0.13042461992388946,-0.0867575831510819,-0.18942286649928547,-0.04438979642522781,-0.11153181485420574,-0.04471105649249237,-0.05372732921373119,0.020149324313443427,-0.09785008107156179,0.045190751354285005,0.8148044238269694,-0.12224931489793706
72,0.07104012164806872,0.03262360514390528,-0.13191500093404612,0.03686931578742029,-0.3332369105344572,-0.18414239511753608,0.0538262909526796,-0.005993894572564024,-0.004333515721808567,-0.08068903261516934,-0.03157909993432699,-0.0022061052595914524,0.5764422832114294,-0.01222741765607404
73,0.05818596791010511,0.507679767687586,0.06756505518601055,-0.07659560621371564,-0.29801677236876944,-0.14724447608892868,-0.07083085181207688,-0.026062701848452247,-0.06760263240567202,0.17626502109229392,-0.09317767352026429,0.07475187540024808,0.5875078724749672,-0.02846265506362318
74,-0.00556377463406843,-0.15196081213324936,0.0681338733662947,-0.0437766508351834,-0.37196516893350934,-0.12987384567071272,-0.04647866176214611,-0.05920732543591329,-0.0005941738740882219,0.06905263102034821,0.02151184656482985,0.04342713513366396,0.9180138829469249,-0.08774153363221002
75,-0.024387101025830082,-0.6298000766893648,-0.06795054549700313,-0.04302551606743719,-0.3823404624001943,-0.13679239584688493,0.04700557448249648,-0.0713474484060432,-0.034474851314268334,0.04209897155471125,0.021233591970668708,0.287075831380784,1.5036100933359084,-0.04791343016895583
76,1.9826238372322447e-05,-0.37166758407940187,-0.042208566141231196,-0.04065198782806061,-0.22641067579743934,-0.1377999012543608,-0.07041343367199787,-0.020343217114312674,0.08262606296706117,-0.1424692632544444,-0.06873148211047646,0.17987753444843124,0.38914905672024713,0.017224493344815954
77,-0.02839017595697349,0.1572444383974259,-0.0846355977645234,-0.01363371034006296,-0.2573977133962828,-0.11208722723248055,0.03148777094547097,-0.0004313502290041321,0.02230144699519146,-0.015326003123747989,0.009208560317335857,0.2083098195288789,0.38019074713240575,0.008199112759160188
78,0.03804292503656698,-0.13770368136393576,0.10994867243785261,-0.010576789605259176,-0.31267991418999813,-0.09370962303849117,-0.09374143073858522,-0.01436135358604329,0.03781129757043039,-0.033124428593068404,0.0505276409445797,0.2768425706144204,0.4736376073973053,-0.14542552289963964
79,0.01366689477601346,0.2596916170350413,0.11616822901883003,-0.040306212712373175,-0.2782054350290148,-0.11292078777641636,-0.03010470131317631,0.0030682598427865942,0.03240304156512765,-0.046196759402643374,0.12385758186316238,0.13333480053521812,0.3024193637786786,-0.14473022709722091
80,0.018874976233078322,-0.26364217153903524,-0.08274232161621226,-0.05465337637643615,-0.2572960460084512,-0.11136814040648164,-0.08649159521300312,-0.032695820908446055,-0.030483273740937844,-0.06474154765894692,0.19057361244326676,0.22114683548896885,0.6701529406469193,-0.13654511204263906
81,0.011406964422754351,-0.03955325516506841,-0.023252485713183613,-0.06612510216381165,-0.18964973554348322,-0.10780929880944645,-0.04132175747889919,-0.02634437422475777,-0.038280195543145726,-0.0558834247696153,0.12543979556934934,0.23768332618493673,0.8217518922965344,-0.12297980722503593
82,-0.02215855911863296,-0.03817796221455516,0.09405782848866279,-0.007274843584255949,-0.28679875641402625,-0.07359783685641658,-0.02107600225936037,0.03700696758992214,0.02303510959255385,0.1121980304225258,0.09573441377807268,0.14235616596960102,-0.6889060925015968,-0.013637969772153792
83,-0.026341845895503646,0.11010440294337226,0.02635540574346462,-0.05674650077171641,-0.22547746185748377,-0.1338726251762183,0.025274892018964285,-0.07323639239301796,-0.04336058826424165,-0.06537964445702724,0.22444184780039075,0.10184830235925424,0.4213939124956948,0.0009008777802629701
84,0.03941641634351861,-0.12867896551815855,0.03739242653215072,0.03400446409310496,-0.26723978073427535,-0.11886079372549219,-0.016945912843148205,0.019209659130354356,0.020431981060216278,-0.005786651489838653,0.03619418604389438,0.3303780261794227,0.18786850504074948,-0.03694906917622668
85,0.13990983827074496,-0.09753122307391163,0.10384800116461668,0.00970788460256574,-0.23623423178652767,-0.14360789537783392,-0.07471539901979621,-0.005582201047609342,-0.06394473809045989,-0.10580163576396084,0.023805681629374322,0.1186490588637661,0.1251051703832961,-0.08558658767329257
86,-0.06122455505925381,-0.13729769590609275,-0.04105757513844166,-0.04530944966216384,-0.1891650398284363,-0.14049674246992666,-0.009755464198637681,-0.02699082255037904,-0.002052696933165704,0.10590746831923312,-0.053718174916120576,0.07453683304010741,-0.5078535983975344,-0.062454244841255946
87,-0.018664267948043378,-0.17197698655956611,0.009539182912842226,-0.014747210587693824,-0.3474017961251531,-0.15273332309176427,0.05736352925588188,-0.028356384294986867,0.003242863791933781,-0.003560463518770006,-0.03814183889876173,0.17101444921831507,-0.7884079570029745,-0.06786530386369378
88,0.011977013957338911,0.055471048920254076,-0.04115404043707127,0.0005980876119014607,-0.35564640677729425,-0.19741313812828623,0.042804047602349765,-0.03405611546960666,0.06960871882915723,0.00667433279522129,-0.022934560469003204,0.28643620255595886,-0.9920730926944239,-0.08645332547104498
89,0.05753897959624313,0.1996973296908487,0.06897313903159169,-0.0721713649666366,-0.11037870136939379,-0.1596748261011474,0.05833509936598917,-0.033865411435319445,0.046455996337146754,0.019382572392481694,0.067775512894946,-0.04883509004630662,-1.3609271197415875,-0.07659328115919684
90,0.03482488089888147,-0.6418986975998181,-0.05648249682240686,0.011572417307882082,-0.40504761478074935,-0.08343288178804976,0.0017477318688085275,-0.06574232083878807,-0.07185355534677701,-0.05276898014080563,0.0029562047414344803,0.0633223522064265,0.5168315529925958,-0.049090916906960144
91,0.049205344050555544,-0.4414759096121671,0.048812323684812975,-0.06179933229913821,-0.2701419049417173,-0.10847747198794613,0.001317405092277138,-0.037833854833180885,0.01836745714434458,0.02223054006863013,0.08469944566412595,-0.08420574352445696,0.11046005632110312,-0.06061939676494134
92,0.043892750439884276,-0.03559511595741638,0.05116446378644679,-0.030910226459552284,-0.3133669970666637,-0.14717502718402206,-0.029065770812708322,-0.018431669052349595,0.015644232337571624,-0.09486851221920363,-0.11114924765155934,-0.25805887835790525,-0.14974991523979853,-0.059299813876520696
93,-0.11469259196240306,0.312076473298566,0.1149787116177739,-0.023205700809890924,-0.17597738486438813,-0.1011943729403709,0.052062894569265085,-0.020245650291645226,0.019750403992222,-0.013302013772708374,-0.06512910887742955,0.0716218087789353,-0.20008591575126242,-0.015633482642273884
94,0.05962363295180087,0.19312925048931207,0.13057655026565235,-0.003143216009473095,-0.2600575251839166,-0.0933912198692562,0.0164388448385599,0.014301119954628794,0.013129000668427468,0.021387239389278778,0.09356306341811511,0.2765994223579453,-0.16378558693007994,-0.03996191414976578
95,0.023410282540614058,0.08373945976579232,0.1832475072473192,0.001957858149438939,-0.1656153367885928,-0.1614955855501443,0.002668546773297767,-0.0622611955695552,0.001681215344790113,0.01634227989596372,-0.06413487644166878,0.05576252989824415,0.22092323195110553,-0.038018045060544195
96,-0.002529192495586474,-0.012342626190243896,0.18839281890778709,0.005097976732061605,-0.14780530864143,-0.1584342172037041,0.0006702313876662119,-0.04969998446112024,0.014819710838056072,0.024466111439935254,-0.0434655723879681,-0.02806499496673917,0.04728859061514301,-0.059643264080077564
97,0.03781124294045968,0.24325381171544042,-0.0001508592145910148,-0.06317834658028866,-0.2548552003625699,-0.051339967725575836,-0.12420297858290974,0.0061119064718093835,-0.0017564843175350564,-0.09946468074591588,0.011677513997590483,0.337249620865202,0.2387076497709552,-0.08217936127682124
98,0.03659640776001638,1.396923527807067,0.17054544199749766,0.005684611524613822,-0.2992821166404833,-0.19292010140289423,-0.06372223749467988,-0.06161479464482814,0.07491214499551721,-0.004807840460951403,0.1204996401905552,0.14605561224138708,0.1049352325458868,0.015661231643277228
99,0.004796710293978268,1.0130123133556674,0.1168592341513208,-0.0007190022063515329,-0.2781760893109691,-0.15395435225397705,-0.003155555513306277,-0.0575053261564811,0.06229972171695469,-0.004235851681757337,0.026871337934320907,0.19673023924328184,-0.010725679064911176,0.017140529484943413
100,0.09254815996750318,-1.0459097853919495,0.10107381475832303,-0.06312183823408565,-0.2904399887727757,-0.12270292586445683,0.05796267970557291,-0.054362960136249416,-0.0765329365559968,-0.04592882948890337,0.006342828357482969,0.2789109822445803,-0.04832595823992253,0.034412117214658436
101,0.0027776963422678214,0.2610468932772913,0.008082692869302077,0.03188099439850694,-0.2584524080255147,-0.0885337766730545,-0.1037656767925803,0.014287548734236155,0.053606254880140494,-0.09495424896498735,-0.0302941878948189,-0.09524256574831268,0.024541416180240055,-0.14220074566239152
102,0.03100491137186734,-0.927207275967812,-0.06577566442686023,-0.06094140197488858,-0.18010023218858381,-0.13892957701139844,0.05121008772452928,-0.07774847927916426,-0.02971392191762727,-0.043647443523306254,0.03395191547298308,0.41541036485715044,0.38573387397048653,-0.0004513363202461075
103,0.1743217629904909,0.03347843659160288,0.18834439508300496,0.016834224320248538,-0.3246435356856961,-0.1139026893325599,0.04078112012862002,0.04710937642348001,0.08344340041568994,-0.11047984429403687,-0.05587863124690883,0.4027058011079495,-0.11839574260019353,-0.07632752279515873
104,-0.06985946365242968,-0.12935418642567875,0.016108624022443507,-0.047388323442332916,-0.2727526076931952,-0.10691527119715317,-0.057585525155282764,-0.09411211018518194,-0.0749101593109375,-0.01142804068765392,-0.012221742458234814,0.27714797556003007,0.3880127750550271,-0.04658966085041102
105,-0.04366231224432665,0.1641267202977306,0.08734266421763623,-0.03404446946817744,-0.23530826434095545,-0.10983960396304256,-0.059673931027540005,-0.058039248818206754,-0.09205738320849734,-0.036820975899254316,0.003946669027629593,0.29784212305620505,0.49747831783297436,-0.034280665258791365
106,-0.08073918929280932,0.18905811568333766,0.05675561542550972,-0.03842683501228196,-0.28074923029935167,-0.03035078560208007,-0.07956019981621036,-0.027605257055831056,-0.015397498615124489,-0.06448417885515093,-0.015704200835524904,0.2659114110260798,0.7424720944014183,-0.0406021924072504
107,0.01491647831697196,-0.1796482424399705,0.15446548834797125,-0.008253852737832666,-0.22458835360065627,-0.049595133484360225,0.07414256112397571,-0.009317047570743031,-0.015061011022331525,-0.16966277852179978,0.03459734172296687,-0.0900204158641026,0.13584541032242237,-0.0697213910210043
108,-0.02419150538247586,-1.3311517547295506,0.10560314739827886,-0.013347996840872865,-0.30187233790888857,-0.0862729781588788,-0.044897642280409336,-0.05418019980631823,0.02193652879570636,-0.06330039610953313,-0.055288466022110294,-0.06665626049871026,-0.7499521646194326,-0.05885991644184496
109,0.028038359714989913,-1.3240124408216198,-0.06195487471127231,-0.017672048329199073,-0.3267559291206147,-0.09409353622213075,-0.006455459303478225,0.00574773422999067,-0.04574295357258863,0.12658326102910084,0.1517519530330243,0.15592103159910756,-0.005275652268963701,-0.040003311940952274
110,-0.009245470813860013,-1.4645482887410728,0.04970558612320275,-0.02512943724415284,-0.1664386541999497,-0.15426861985305293,0.08943381876170103,-0.0591689792146404,0.07684245523419873,-0.147159547907173,-0.06414476503270562,0.5312917930096693,0.4975409901744651,-0.054858948035218166
111,-0.03994182779828698,-1.6012884569592014,0.029688214707384086,-0.02297706490722337,-0.22940177782907914,-0.11219590989706943,-0.0073264059631119455,0.034152763712710935,0.028948339174742488,0.08112408389358655,0.0038432400811072793,0.2093180336955463,0.18722540240377683,-0.053539606853212234
112,0.023176622927988944,-0.7792351994437648,0.11081781363257978,-0.0194204923260166,-0.2754289375234702,-0.1386692395869439,-0.02552593129458927,-0.05157214670867009,-0.0852229705541144,-0.06633668051943178,0.0018759487538668046,0.13232522151347026,0.011595160225301826,0.015951932599080586
113,-0.007112123423191008,-0.8695525614361073,0.020113416914626925,-0.028577407662797608,-0.22997772503370845,-0.1458265514489214,-0.030745788203319357,-0.05687186311009922,-0.10785479268440729,-0.26152146982523605,0.0184635127483333,0.16616060475939,-0.0696162696180917,-0.0651181478574355
114,0.049298169092859945,0.2909691870482945,0.08655207488295774,-0.04254209173443696,-0.27430087447637574,-0.0876887921500018,0.006268222030514803,-0.02801669915849648,0.07700953466043681,0.031931883362328786,-0.03842290241517807,0.18783240232769285,0.129276235921159,0.0066645865985199
115,0.03501054669657494,0.24188265358206534,0.07926587956221037,-0.0378250735783785,-0.28271502401279347,-0.09430415678135866,0.022285329329598022,-0.025995816501142903,0.06259123621716582,0.036331172729775915,-0.040647733947771644,0.1599603396939047,0.19015430394892135,-0.00029772586461583594
116,0.03683229363075233,0.5613440158896905,0.0523686376298903,-0.024637362342420144,-0.2750545228323854,-0.13870148531463738,-0.06510201985862116,-0.025714462826054538,-0.040363989819788365,-0.1758669886984779,-0.08823869608428443,0.06405627691847121,0.47822609542568695,-0.06692383594524905
117,0.09312683130672991,0.22755410953559735,-0.03766119480888591,-0.02306888962523233,-0.26036873875925115,-0.11640019620983452,-0.03590601145531086,-0.008530278006314146,-0.015193173057788292,0.0022299334279260678,0.09556589715641362,-0.0535897935459053,-0.15351311896262748,-0.03004482850306888
118,0.03627474019546523,0.43018969971669874,0.04553502735028497,0.011149486427405323,-0.1977064287950624,-0.06496996680541514,-0.09817672403018579,0.033104660712036424,2.9003729225249297e-05,-0.06503767333649484,0.04156592782255791,0.2241724698519768,-0.21122068737470656,-0.01718386169778417
119,0.05616584511720596,0.07113313184330529,0.22361015009597662,-0.014836659936968265,-0.24173421537563403,-0.009733168135718825,-0.09729585729851137,0.016170477440921163,0.0850107236108246,-0.0035510417756559574,0.051086771715390056,0.16340158571860786,-0.30074350467157773,-0.04264197590570676
120,-0.036890091338236675,-0.12109434226326282,0.03892631135947197,-0.04671209289305521,-0.1714532723459025,-0.21043812328097705,0.07276447898956057,-0.06003232668607594,-0.06176529146828012,-0.08551416564427808,-0.03406591134426716,0.11740993581538368,0.400797639325628,-0.02784975721221091
121,0.03431825479546613,-0.1622168358335085,0.07740369216841925,0.02030692140195446,-0.20445349583815417,0.001538975528351208,0.034071464061194115,-0.012181993621470655,0.006653746759511109,-0.06536515911980811,-0.02638508094145474,0.23288437757783165,0.18195709581725386,-0.08915851152553894
122,-0.016976436538656325,0.6232388253097196,0.1490775682899272,-0.051544180501984706,-0.2702036128827348,-0.24853924380977752,0.014990362289161382,-0.03751527725057042,0.008566754226002005,0.12342636283911532,0.025858426905728225,-0.12840518214000768,0.07328044373840072,-0.08115727440080586
123,-0.02065116972153952,1.1495426903597254,0.14535107512334294,-0.035995211071084776,-0.2699193519533296,-0.28142757566658383,0.0022945310713877246,-0.03256135728682525,-0.010186988566073085,0.07366295791212765,0.04943849881466855,-0.1900625701327095,0.044301845824832535,-0.08464235982023322
124,0.07178498862022714,1.2898335132535843,0.1200332240192637,-0.07241988829129857,-0.21409014085896744,-0.1916401600421528,0.0722989594168479,-0.006496398545427398,0.003400607397795005,0.06841247202517364,-0.20544163313461775,-0.13818718193027857,0.35209668931455873,-0.05516436146574585
125,0.04267575721268119,0.2562195347032037,0.008423950274856484,-0.026356085652513295,-0.2275956900503041,-0.09748746016551707,0.1131360372260863,-0.025323947613599337,-0.10447659575855303,-0.04458265483868745,-0.17029130538617698,-0.05894017655678786,-0.33438088173706415,-0.040274152555913885
126,0.036483940405033666,-0.289821219756209,0.15547868269249235,-0.024951400048355953,-0.2439750303376072,-0.06080293741366119,-0.09592735435696666,0.00494307228914137,-0.08769733958415,-0.02283411950206414,-0.027396997335397313,0.015767637036612873,-0.2742141553423696,-0.08080290806651522
127,0.032431656195606506,0.28610486089536097,-0.02742402384572301,-0.030631261749412542,-0.21482657582213183,-0.11249569002538759,0.22587116166235685,-0.033386391041064216,-0.04472347855516268,-0.03734210239985027,-0.12440543092689646,0.15469692615296754,0.17184917721348036,0.002497592975574281
128,-0.03984660052005412,-0.19230312110670894,-0.0059572209367365625,0.028920217171576376,-0.2807205452960901,-0.01617190352744605,0.14203734148253286,-0.03742987804483454,-0.014592102739265617,-0.039761088571760646,0.059905755845540025,0.31474916327022795,0.7855801772289976,-0.003067940064435239
129,0.07400303923091461,0.6491275561729769,0.18727711238433256,-0.08687753520946306,-0.3129004039159461,-0.11660524928898891,0.023315366069919533,-0.01512973171681796,-0.11381359618478905,-0.02370619186380293,-0.09240935756783751,-0.0998195698527557,-0.9571505061881829,-0.09799061722450084
130,0.012307993846992743,0.3789386792704922,0.13401141388415538,-0.09083235328168501,-0.23521430077779135,-0.08544502097439155,0.023935989208902164,-0.025180995721792512,-0.11626399840607904,-0.08099507104521197,-0.10597030969171553,-0.07122844709795076,-0.8383223439784964,-0.07171273099674384
131,-0.017894099884631032,-0.06020280207377221,0.06778776174114676,0.058339429680070984,-0.2810226703512663,-0.1491353849992531,0.057711336272524054,-0.03907973074995421,-0.06890470845683662,-0.02927594758967473,-0.0164562966759315,-0.003930890506430591,-0.3924138937187872,-0.08155128639092049
132,0.017229230179063942,-0.5208746587566601,0.12838521784185858,-0.12615691946864935,-0.27566997387847714,-0.060890836412902355,-0.1135825332218585,0.010594624663772131,0.06324968950024404,-0.08188754634267596,-0.09102682861611076,0.0627386835370296,-0.5816608297614604,-0.05980574688699139
133,-0.009054135795680263,0.30665059010705426,0.030122704534425365,0.06755196222839116,-0.22267984991626016,-0.1320722517889264,-0.05822287931660585,-0.030896153583986834,-0.07427098508035669,-0.02821454118751888,0.11593571181935684,0.10254515300511573,0.373268928781068,-0.07530250902064874
134,0.12117515784557092,0.6609511565091435,0.13751996675559322,-0.0685089150297233,-0.2689478213435146,-0.0927650710313378,0.0679610806222403,-0.005957162387114155,-0.11818432339504123,0.08646862509468972,-0.020128229665993952,0.13311722548797272,0.23770442266764827,-0.11541170820787269
135,-0.010758854028183218,0.57973272443827,0.27239141532921646,0.011760923255777829,-0.2362565524565749,-0.08982519821305815,0.03566045178574474,-0.047325836980676925,-0.049403037750604624,-0.03056502144213537,-0.0250232801245628,0.12546041192278293,0.06123214792957846,-0.08189132852227347
136,0.017154295186879304,0.9816500121450102,0.16169761670434685,-0.050332478147818334,-0.2413655582403721,-0.10083268864654155,0.024456279485906743,-0.00014312586750556827,0.032564813717213426,-0.0022252244499767204,0.0017268095591081167,0.010499678024887021,0.389219958865909,-0.07597733529059679
137,0.09065072227250276,0.857379585441088,0.10497309808800151,0.013512288821238488,-0.178209845640272,-0.053946143404076795,0.0013882231596700975,-0.018771805352737564,-0.11680431318729077,-0.027422654597749382,-0.021902239241359783,-0.11220856578380681,0.6112837566091867,-0.02518317070172893
138,-0.017491146576931516,0.8861195233512621,0.08870860723399765,-0.06616530605425677,-0.21196338994683947,-0.15825677727997678,0.026726510574093285,-0.03690608483882893,0.03204595378201053,-0.019218697255602157,0.11215650626497825,0.03470692943263433,1.17899447017174,-0.07382164261264983
139,0.004380614923187087,-0.2503206866053657,0.17244728351821123,-0.0007583857732166351,-0.2369921388088081,-0.1143835483365371,0.012315349777214712,-0.059228976525639035,-0.03468475509206927,0.0050186785925368455,-0.031047661672886973,0.39399797841354656,0.0593290849518196,-0.051610730496265945
140,0.0758327513398642,0.3022731293101193,0.3314692575399386,-0.044320509203338125,-0.30361824578236585,-0.11398787772655426,0.07783164504549944,-0.026006929635781217,0.04424263567094748,-0.10115340710874954,0.01743753696526751,0.34735952968150147,0.036951490031962825,-0.14365661251910844
141,-0.01797503635519787,0.7563748772601552,-0.17193337550428978,-0.0051374358535291875,-0.17023646598403386,-0.13379290917342296,0.014639649390826587,-0.016610364331726662,-0.05814787272358536,0.0641893223676272,0.192312526129924,0.04600395419789169,-0.12218757409660966,-0.012671538235703356
142,0.08267932922662768,0.6086234972467277,0.15397353247371745,-0.024086163773814232,-0.3528284531621284,-0.09064116956656462,0.02651855653913976,-0.010704260049777675,0.014916811143537545,-0.01849527223164981,-0.10630680022141534,0.27367669538220174,0.1772336456698769,0.062231538162542475
143,0.1293941133804821,0.6123854586064513,0.13230914480557768,-0.007720005326607934,-0.23594584281505618,-0.10044849232503875,-0.030230465981297444,-0.009742501647599058,-0.07704937511999807,-0.08459421139285439,0.043586772350586354,0.22537363783972017,0.63709438911124,-0.018615104968732185
144,0.007228339202821454,-1.2654861273687592,0.08730397264726386,-0.036874680305609364,-0.30188970011516936,-0.10323509345889872,0.08256555822363278,-0.0356178634549557,0.03671181035301124,0.07153705853318998,0.017298186320937478,0.3790179832096744,0.34488633512802314,-0.0018858676497988877
145,0.06469722303178965,-0.48477892687905144,0.19988976178176288,0.0016088227464859557,-0.2810238365559398,-0.063042323923484,0.011807515375363412,-0.013919880241552898,0.0329112138569477,-0.050877966106709964,0.029971413948844727,0.16659534168614573,0.03196961107827409,-0.03284724418299308
146,0.09366778765568473,-0.07967630397299542,0.06380570308675185,0.01604531937017569,-0.2895437019109867,-0.024681022284667523,-0.0730626547689315,-0.026977510227550565,0.12953847578816663,0.005244839180031024,-0.0007032870150339571,0.04936953869467275,0.10332157296062061,0.0012913568017801427
147,0.08667622147963677,-0.05207782976075033,0.0008238323985166329,-0.0051670329282564095,-0.2648869861706479,-0.019403448516627536,-0.05317257282281228,-0.01857814152882315,0.08510762766183552,0.058398826918084304,0.04887801847892081,0.011001042166572494,0.07533073286953862,0.006506819537434996
148,-0.09586169029283667,-0.03874851254798943,0.1084233211458584,-0.037854008285542334,-0.2435484716108317,-0.18424318299635567,0.07591686695477745,-0.04946848955082442,0.06735736570159942,-0.03212719328524532,0.004111711408786099,-0.06789401756073281,-0.3758418874200856,-0.046101649406773054
149,0.14696965630428732,-0.4504313002932046,0.13337171225455252,-0.012517510444598756,-0.14921773397990287,-0.04690845142570506,-0.020464777464728284,-0.01915602421324665,-0.15210660647717106,-0.0886317026035344,0.03730635351935156,0.24117618792676476,-0.18990698457407046,-0.007732551343303612
150,0.01516847062504112,-0.018674784990380833,0.17663242464407647,-0.017758343391257057,-0.31562308745823925,-0.13254856462955322,0.021261289095818092,-0.06907188060309541,-0.04340744652302564,-0.007169286238622299,-0.0684700740229891,0.29902145817436193,0.33719408041881005,-0.14377826105597447
151,0.05991695060280483,0.23118583038920115,0.14602327953056915,-0.029900437322958738,-0.1889927850444544,-0.08904110993514414,-0.014388243778812537,-0.017145615188380564,0.0858069002733004,-0.025714044609797416,0.06884248571467337,0.10296305801478599,0.4938506228995247,-0.25406428651492624
152,-0.0077790812967276635,-0.043503159903513444,-0.027477831478906867,-0.021378407256621004,-0.28635616432528915,-0.18238282624452776,0.06164857950175179,-0.028530497157781817,-0.11117787056002768,0.06397233530989012,0.05060273532502771,0.17721053830173542,-0.19209266118754947,-0.02479515093597874
153,-0.024236512075068967,0.21097878908079012,0.006334160765019026,0.04121160574436612,-0.3500177563272967,-0.1495298353899775,0.030979726028408996,-0.013343772288108874,-0.0690773686251263,-0.00504221018256544,0.040198608672802776,0.11343555033739305,0.5638153571692576,0.04042238780449979
154,0.03663638623990867,-0.33209138904546265,0.11928697443437392,-0.08385703860864642,-0.2016062484039875,-0.06694070094230746,-0.12130526303590997,-0.016067569255215963,0.010889133946928892,-0.026682889807038465,-0.04778294714590503,0.04462390657597111,0.17845383573277146,-0.10125796682500117
155,0.027259521579907797,0.3836990571831123,0.13545496518191188,-0.059286355389453975,-0.15150444564193963,-0.10509773079173326,-0.08840675279650526,-0.014590526783851504,0.019223472387261603,-0.01279144146766012,-0.06130134556411728,0.02367334542145743,0.09209925613014167,-0.08998218074147106
156,0.057752855765270616,-0.21413175969374446,0.12207048780696136,-0.02914597541645515,-0.34898810346608894,-0.047984054205643,0.06464263796425868,-0.06953601976362647,-0.02510684517102875,-0.07982524315913257,-0.003010129210709131,0.09471005329500287,-0.27506991051505364,-0.04325721976238242
157,-0.033124556715904585,-0.43871085427661577,0.15770980812285829,-0.008363217267407748,-0.11703144412346303,-0.04911141109167768,-0.03633146849869982,0.00046882092864210245,0.006830734592586818,0.04898823660342529,0.06670970089413501,0.05775243880245168,-0.14691940631726041,-0.0898351650916341
158,0.011608284824446924,-0.6449492224167686,0.0707963730740521,-0.035940990954282374,-0.33376134723926804,-0.16898187394451156,0.02870867537523933,-0.037662893364001596,-0.03232799566071422,-0.029103477782580565,0.048513996967830486,0.44261950602660977,0.026809977630791487,0.026628474547975796
159,-0.00603194134789331,0.20368515749277433,0.04123725247509469,-0.02707383680977049,-0.24094312355980024,-0.07166861137512028,-0.06743065363217005,-0.0248889436819327,-0.0688829423271592,-0.05918102840861632,-0.08815199819026302,0.19558232835762873,0.10195465403304144,-0.09367684582409867
160,0.011495198455403588,-0.32779731832285997,0.08026650933197063,-0.023604646478852014,-0.2425972244645701,-0.1460793874757333,0.017003824300497464,-0.040585617315602916,-0.03389420450122693,-0.04957488561204951,0.12838366479123553,0.09781528742564664,-0.3407440779058426,-0.07196062852076471
161,0.023715968425795264,-0.4450063211260105,0.011834068413454246,-0.02932514175330157,-0.06101035078614256,-0.05810831588312349,0.1329425932049113,-0.0329120359757918,-0.021468801206202884,-0.08571507732692926,0.15651614759675778,0.25077698316631136,-0.29371368243648854,-0.07348244820749153
162,0.06129544297011316,-0.5439064111992991,0.046870784544722294,-0.02131309761724817,-0.23356151625859356,-0.15457915287621882,-0.09270380463579242,0.046276277965760546,-0.010976851933980722,-0.1841993476185877,0.15724127113122793,0.15162266955559867,0.09338321062817925,-0.07712141714057191
163,-0.05307486407445022,0.09604606109927422,0.004216604947825053,-0.04214885088445774,-0.2920759507000114,-0.033731630897424675,0.04807517413320346,-0.043410410217248396,-0.015033627618433437,-0.08206359350113103,0.14444685894717085,0.10973546778010053,-1.517440253474148,-0.05943789222505095
164,0.03892550382669846,0.031088647269681316,0.129934045723946,-0.025731715010414796,-0.2743771431795701,-0.1450415931023709,-0.03392727941949776,0.0019648573653772705,-0.037668919198911285,-0.08786613340401725,-0.05536048143031108,0.08782995789096909,-0.6006119023573722,-0.011784815637267328
165,-0.0860035827319513,-0.3176550348951278,-0.003919733330601749,-0.009124746106096298,-0.30384378241908827,-0.09014491983996026,0.14380873105155734,-0.057517411508791756,-0.05667066499152436,-0.019988512881906277,-0.1455620742609971,0.098915202630266,-0.43340207898723354,-0.0847245150459232
166,0.12773808646070817,0.3841117486884557,-0.03235407457738007,-0.04388348116779349,-0.22340987357481157,-0.14503345563636222,-0.21126567918277453,-0.001493086144030334,0.02978241814501198,0.014697984798906674,0.11320548023565521,0.08436991318683917,-0.2314504631905067,-0.018896607908481716
167,-0.001827556509319317,-0.0532381176722711,0.03587834050944522,-0.006469151346584192,-0.21479992390839803,-0.12918012833883305,-0.2227155812633353,-0.056543882742252846,-0.15278431607369877,-0.10266023746265437,0.01021174650033669,0.32257594782572613,0.1447819252552427,-0.06863931338528377
168,0.06198182178068701,0.7789828102929555,0.09802405979345258,-0.02561842535185934,-0.3413153919549756,-0.12430259938256766,0.12015317354458227,-0.005628034013247338,0.09153608675086053,0.11571825002332246,0.05410527146326415,-0.01738356747138973,0.19022354156249538,-0.0066447835236876154
169,0.03866339633763133,1.096314906700146,0.11850465659953277,-0.016882449551722932,-0.3298538979667597,-0.1342912455089732,0.11244019372768824,-0.025885230522426167,0.08831179560688282,0.10208784719422123,0.06999509798344154,-0.045861680297527976,0.2538906657637122,-0.014072167258035569
170,-0.09606798873734071,-0.17147312034692466,0.008954950014496588,-0.03573700467012039,-0.19839923570473372,-0.11425159021523117,-0.00854312373374893,-0.00699355840345299,-0.07910776812841346,-0.05147193220684371,-0.06664336004836827,0.17103020142661926,0.4336237966414735,-0.0927508192317582
171,0.034534962928089,-0.43685154329058784,0.08050693972805734,0.0008232339565447944,-0.15540106072332924,-0.04441710710945762,-0.044905370646765835,-0.04302563686115612,0.011313345562439299,-0.1114287336738534,-0.0038590100179526216,0.014775259730207824,0.25195805001779986,-0.04097700895954939
172,0.0027418549826473404,-0.43446966689293526,0.18896213693658281,-0.04202644938705054,0.007909789754096008,-0.12419448672324382,-0.10769674042347255,0.007095071040025519,-0.06404453857858827,-0.0320222314080965,-0.00918967690296342,0.20391549848717633,1.0017854087766471,-0.12377583261527363
173,0.04010125388014779,-1.0715072432065105,0.1428666981123893,-0.016295287536644196,-0.12716917730934377,-0.08567555133718321,-0.010802288210279745,-0.04852218749847915,0.006448576904415582,0.011651702743630865,-0.05455342538884782,0.07126203693113853,-0.16635459363386493,-0.060907929833913875
174,-0.07201585355309881,-0.4413885476369559,0.036368525847068206,-0.04074062590440168,-0.1268038895638113,-0.14453734001247986,-0.05002191689923115,-0.0094060409761373,0.08650462749731835,-0.23588525122807505,-0.05321261360779194,0.4376601632128446,0.08698711047501498,-0.050519577823019496
175,0.04962053189134008,-0.0605381404131789,0.10879346665402848,-0.005689361339214421,-0.30901705907079663,-0.07785148404659775,0.09119397910140595,-0.025030425898298375,-0.04844883361332031,0.09081429007604344,-0.0014340429683212114,0.6036825155420102,-0.11515842988451619,-0.03353222688065041
176,-0.023841327963932124,-0.4246158748335892,0.010869708507669329,-0.03381396183929499,-0.17960808654979554,-0.1278707280945316,-0.16562418613346627,-0.00406731061134194,0.003110751645858542,0.09201825030825755,0.0018804646628888325,-0.12464252658805555,1.0895110126205272,-0.07976340002328285
177,0.08772160571016235,0.6790238011745939,0.17014066049903176,-0.022682341151402493,-0.31045320654950825,-0.08294806144290412,0.29757923821503407,-0.008188885416431257,-0.017103664287664536,0.03417108472405718,0.009933571060908794,0.33398744331782415,0.16890234604673118,-0.05609190209785435
178,0.027371549485544405,0.18929789243586362,-0.008586967346983887,-0.02906020356105013,-0.23043851569285764,-0.1039700202282263,0.07746614219917908,-0.04127958652773683,0.050519685456753366,-0.0027067949928859586,-0.05025177076619852,0.12250423219878885,0.5292605863540379,-0.1053014856666499
179,0.034981252456131096,0.17816257315143796,0.12600448840078762,0.027849714445241577,-0.27820312842622197,-0.07761867682160095,-0.05535253277075074,0.0037977144736767443,0.12058369239460254,-0.10530592546699964,-0.05913653550038217,0.19536311176803275,0.37023892972175987,-0.09112932150455358
180,-0.05250282133478573,-0.1453327214047314,0.03924218325199466,-0.08035390500378083,-0.12875817612168763,-0.15114856714745312,-0.15755777171950125,-0.0215360632506197,0.009818558574365102,-0.1073617368916472,0.11268198010182959,0.31414072930163434,-0.1409848415752502,-0.025373878335266206
181,0.0745401151133554,-0.4596340471029188,0.03106966691821539,0.01600063284136443,-0.322129016044218,-0.07512947534419831,0.17520983246024652,-0.019297422686016447,-0.023804733048993748,-0.02578136656684736,-0.03485983778155061,0.17945891642433703,0.17853761320185355,-0.09985304473499151
182,0.06730519720211692,-0.033132447473851426,0.13721271959737005,-0.0114732798555524,-0.2119879062429116,-0.07527682062497595,-0.02448016761739427,0.015690770521631092,-0.03180928946205905,0.029184389495725854,-0.04250423363524468,0.040339764226019766,-0.3300624190290535,-0.10893106138633787
183,-0.0010532867400334656,-0.08992153274616815,0.16844140599835913,-0.09401194780345137,-0.24403829652903564,-0.15797526355686,0.03687599642624227,-0.04678492656962496,0.04046471319676993,-0.015014768865849258,0.0834853329039148,0.10628435735084596,0.3560776237399209,-0.06106997428307209
184,0.012329540941808215,0.9492911939436948,-0.031247396427529328,0.029203088499022204,-0.3896537085837126,-0.025813906662680394,0.2309800670436563,0.01347855627130394,-0.053499180036836194,-0.041462162253048905,0.021942579428561218,-0.12092434837787226,-0.1308405166135886,-0.02506175881822921
185,0.020184755959800516,-0.026254280705876487,0.062311287444463015,-0.08635573943234327,-0.14546150934984498,-0.17045328929850806,-0.0645065944272343,-0.048593808851755974,0.05279867809530524,-0.10518821588686206,0.04998337077270747,-0.21328527940659436,-0.009313222973606927,-0.04656598213117254
186,0.02462773728071016,-0.8727473907400433,-0.31662357178446576,0.04863470572482386,-0.29282029830175776,-0.04808282994448485,0.14021828383785728,-0.0019616382051070858,-0.0654481692361987,-0.032271786815704515,-0.05890020185724856,0.1509109835599892,-0.04175365982533003,-0.0324642871145077
187,-0.0346361631638199,-0.7785025377268185,-0.20936019425851587,-0.04383868300731274,-0.2739737878536603,-0.19234956586681476,-0.10150646617750211,-0.039072578750209405,-0.025031911143933286,0.06264967313997621,-0.009749261091358541,-0.1118572177585709,-0.43066398884512647,-0.033357649083547505
188,0.006560214446374446,-0.4073882247536468,-0.22718960579324893,0.020581614668104868,-0.2311631220798782,-0.09770067945744054,0.10044690149326535,-0.039062979501176265,0.07153157820672894,-0.04242196399047686,-0.15898276942927947,0.19460976300841332,-0.24737755103405654,-0.024919634403714738
189,0.0672335888307436,-0.3296844188189188,-0.24515922686140917,-0.03828167005822026,-0.2878143583708238,0.014513231825959164,-0.045293962050525355,0.014602735134375294,0.024566934553813903,0.1120443069982537,-0.08681081580051714,-0.10540924559518869,-0.26737952398338327,-0.1043399664144791
190,-0.1037221213519034,-0.24217725550182406,-0.13549921980676394,0.00017762693596036494,-0.17578938607757968,-0.17706029075788254,0.20745368046528673,-0.03502573792527094,-0.04329403806044023,-0.08882269278553304,0.0791914072625909,0.07612641164364972,-0.32731747812067413,-0.1337710124028681
191,-0.02829369610733773,-0.48892996732909344,-0.008190702189422527,-0.03800346141644064,-0.18132564890972805,-0.09739004200643366,0.04024073341797435,-0.0438769835432817,-0.010419947111590236,0.08860747298504637,0.06365388979938169,0.0832926456125724,-0.47079302573811393,-0.13278418547585116
192,-0.059248472419099474,-0.9158070648835552,-0.14390684786182822,-0.028067478131668457,-0.1691137249567785,-0.12837841104748682,-0.010843070975797536,-0.013646144624131204,0.005244597496809167,-0.15592317011727297,0.21794084551156845,0.059595074578736244,-0.36958520489811786,-0.03728054352735299
193,0.12127161150371946,-0.6111553095147926,-0.006924536051256702,-0.037689677973022036,-0.34490842749371836,-0.10813612909849811,-0.1301782175745754,-0.019224725536206924,-0.07900955432187164,0.0612483125699753,0.13794234090213164,-0.004671141694393616,-0.12778528768788763,-0.12023435617532452
194,-0.06800574509491952,-0.060679088472587364,0.025387125124868737,-0.016329647033910277,-0.19507836226474165,-0.1349706830348693,0.029901524550094122,-0.026611071192480386,0.05176958544968186,-0.06828265578448445,0.13208561356948353,0.2628621927252951,0.5329708183958819,-0.0823347106033539
195,0.10209232350251549,0.007257322596335436,0.1291485925494724,-0.030544097032363802,-0.22696688989840152,-0.08084056082981127,-0.03723562859070383,-0.016389530810535957,0.009675001485380821,-0.025834716388431937,-0.10131490979303993,0.21433367844778817,-0.05791634326593186,-0.10494671677738127
196,-0.04338899995404877,0.04947845173866405,-0.02627863129199476,-0.008615848586813829,-0.2049370382917368,-0.10951780769022515,0.0264229168020135,-0.014440154267352678,-0.0047432564662372445,0.01547636964304918,0.007848414874479908,0.15938845068192703,-0.4371324420103433,-0.013781589236017813
197,0.0910745918663958,-0.423219651977462,0.09992517945684457,-0.052598935316776264,-0.23977486838058182,-0.05049861723270045,-0.003106064075144438,-0.005575984525077321,0.018730111193645704,-0.06862231356981625,-0.023059821007541906,0.3076817290341433,0.3985147474874838,-0.09581357237124809
198,0.008273347106463103,0.18183501356565035,-0.1102688307564339,-0.0006663963778419761,-0.27426118217452766,-0.15945542280874603,-0.0634324908299904,-0.03530333422248405,-0.028035168230161958,0.045506775971743726,-0.06256895143625238,0.04267854609880577,-0.20273632369582967,-0.016983254815634348
199,-0.04696932963319511,0.16185133768118407,-0.029288367411717975,-0.04742512415985432,-0.3628573044001113,-0.07156156696023383,0.02315276815699341,-0.010316036700562359,0.04604088950878195,-0.09957646215293715,0.18696947397443903,0.028315258480446262,-0.9047814016772606,-0.11841893187218495
200,0.07561295612093533,0.03407232020552822,0.13419330179540387,0.010005840735581665,-0.25040833214144165,-0.1608105096785082,-0.06669287384166595,-0.024129310365615747,-0.1004161893208211,-0.020269506863177238,-0.12406158594648374,0.17120900651389134,0.4534491071003568,-0.015521836863439952
201,-0.06913487339509405,0.8625551429472295,0.0775391617202312,-0.041462435966092774,-0.32098235959016985,-0.08497265350414011,0.01914029587235208,-0.015360896715564974,0.06508428377213313,0.042109586464486246,0.13853900498378108,0.11232193882215297,-0.10764249607259774,-0.047482551700797265
202,-0.0403902203674093,0.6993566944932548,0.0866842336167544,-0.025323607919041556,-0.2911931989277172,-0.11926845212799944,-0.04861686827874742,-0.010879821680342572,0.07738372055939421,0.023204497632848622,0.1671645745554819,0.14872199853029194,-0.19867848311796044,-0.0542443735375054
203,0.0077299382407461925,0.45492061565778297,0.017337105996284213,0.018812087427430357,-0.31847801534383763,-0.11935666354254376,-0.04670387927923553,-0.02056053306642157,0.09086357551791582,0.10609654514668101,-0.09824014037882786,0.022911324138271398,-0.35285990940585943,-0.04309852725046437
204,0.07288051009034319,-0.27460708518285826,0.1254443440346195,-0.08237846684152517,-0.2968991924388037,-0.08510780581321892,-0.10692479191845042,-0.0009441380239807728,-0.08256866274904366,0.12381560188962874,0.09072371529277258,-0.012919838828604577,0.23853956249424435,-0.043954147078054354
205,0.031319150202339385,-0.41751714454304945,0.08745128365712052,0.01735649012508511,-0.22945351109867182,-0.14968481645282317,0.1501102293057759,-0.05844715957071476,0.0887045778930363,0.05712438682740945,-0.06242498957982233,0.26866291406372605,0.025654672913780735,-0.08351386840199526
206,-0.00907349188857215,-0.48939201537041116,0.08111465635198542,-0.025406698776421224,-0.19368982116623343,-0.16237541301901556,0.13768339612417732,-0.03290940311350113,0.05597197948018281,0.05887508121828226,-0.04823410881761463,0.12350551529742296,-0.22027858399781053,-0.08294839264028947
207,0.03021551344795559,-0.40785048389808237,0.07830674877641991,-0.014128264023121668,-0.2145038251002983,-0.19133529613031228,0.15095838294910138,-0.031924795512136755,0.0569174393954879,0.08334316448647608,-0.02461838420986312,0.13289392662518323,-0.133219561501287,-0.08372697357395506
208,0.04780766446469081,0.06399995260650276,0.1583120001822107,-0.018728858947723616,-0.22128667294901627,-0.08025352413708306,0.0311899606286802,-0.031050045792399936,0.10147755014969134,0.1309738106923358,0.009104553356616751,0.2452851461110132,0.18391145406245146,0.03030521134971806
209,0.1058212309651144,0.36500508651838126,0.20365755824327686,-0.03139975225657444,-0.3440586657094896,-0.07587377215354855,0.036976069062475164,-0.023994724429569472,-0.1096557963445267,0.12689473028999496,-0.03231511205448917,0.03032555091663985,0.615640674011905,-0.04479043911286402
210,-0.07411279179157892,-0.254488402590856,0.05180965088700107,-0.013037221039539726,-0.1443513473916421,-0.13058798061404348,0.10722287527392925,-0.06267366090903399,-0.05199391569321932,0.0873705913583087,0.03074293401560663,0.36099521597737577,0.8927304243795385,-0.01899818249939309
211,0.04927213364032351,-0.5406386936318145,0.07063397527184684,-0.05972818645683568,-0.3023421171498365,-0.1650399529154866,0.08286607448447131,-0.04583780511582204,-0.046473023969265705,-0.1109117066802035,0.10563590267660453,0.16676072862096583,0.9018199471373836,-0.05649113046429599
212,0.015135087501950861,-0.2932314238524871,0.05206460972962293,-0.0027714934026483173,-0.17381753886026471,-0.08413965100833609,0.15771245883213197,4.782197587217818e-05,-0.011740141719120606,0.0584112298583806,0.0767078493001187,0.1561701899633802,1.2760967533791194,-0.05326787876849637
213,0.07266053347218096,-0.6727953630233345,0.15115782650839613,-0.021699903760796713,-0.17783256053546515,-0.10525308409255923,0.19631788676867545,-0.04698288542886636,0.014265525293904999,0.005563851459224736,0.06209339716296795,0.08145907098614279,1.5271022774258753,-0.04329703601995605
214,-0.01828653150391732,-0.6103423465083856,0.019422937425017495,-0.006959543518089311,-0.33943399095107063,-0.14549904675301678,0.13749357522792785,-0.022805562444740128,0.11568242253934946,0.06670844818303148,0.07981891427326297,0.21124527736600077,-0.1961304265985726,-0.041890421642514906
215,-0.018696569418783088,-0.49237410652515967,0.15935670582547853,-0.0350746672936615,-0.1691665472863611,-0.0881517890321396,0.0504869241344212,-0.02600850338018095,0.01535742235581053,-0.0072867677249377275,0.011036251742293716,0.020752183168678176,-0.2699932722892674,-0.008302952842193824
216,0.06935093901032185,0.02595584480411174,0.0233997016309066,-0.011022722757468517,-0.31106078359148753,-0.0908694803389685,-0.16018839780135227,-0.004441509441840824,0.010878223091733669,-0.04359835785211762,-0.025946623454516385,0.04455770706043069,-0.1060518758334492,-0.10018879253438648
217,-0.01861910877139894,-0.45497880718060246,0.13878952288213572,-0.039536775843917515,-0.20510887438458117,-0.12381979460278816,-0.31885407447999026,-0.015960899532314055,6.945690936802085e-05,-0.17907179484791524,-0.0442775318800691,0.13145021784995756,-0.4098511813648313,-0.03128042369960017
218,-0.02280205866896834,-0.5378398124793718,0.1288630507644607,-0.0703172331334386,-0.180338363346082,-0.08806631725587939,-0.2822042824912253,0.0006059607273587037,0.05433743316337522,-0.1732902110806009,-0.08886509891251076,0.056998917807339636,-0.32835547796785275,-0.029720772132418652
219,0.015801173801553325,-0.37761302305724986,0.046826709393788746,0.0007995249412256905,-0.2585966475413351,-0.1138306448814113,0.054857128397283794,-0.05348136436279302,0.01651425278103598,0.055843667968031925,0.05431215519067139,0.23761700834767924,0.5047062764982164,-0.08221467429629535
220,0.048074216664279634,0.4799768787247629,0.1281694563526461,-0.021873748976524242,-0.24011977787333647,-0.06728848187643624,0.05638240590861235,-0.012817649739721729,0.08557422241530951,-0.14321386505125,0.1680300159104775,-0.0317992816101002,0.9782241269100513,-0.012954486092671323
221,0.03620821230370336,0.11267131434523209,0.07188502289264118,-0.03455151391748332,-0.23086302830445993,-0.055289012183056985,0.048101904211962324,-0.018989073962701886,0.08760928030812809,-0.1311712235944157,0.1524769856861921,-0.0031278321899463474,1.1125404940371462,-0.00462985892685306
222,0.07256020700216595,-0.20227279944870474,0.07335204120083616,-0.009222621781702696,-0.17482964371559562,-0.1330484812275048,-0.1771482330789734,-0.016601558308066755,0.012757397766296849,-0.15865258920718403,-0.1971893173335405,0.09795265319900232,-0.15613676381635572,-0.12678388985520903
223,0.027180993997562436,1.6318614137528806,0.14292317500498444,-0.029213641488334365,-0.34309894340029157,-0.08057287798640227,0.034485134577516424,-0.04021120243776394,0.013754264064964827,-0.09547872562110511,-0.02309249023742145,0.010843465287275422,0.184364150842862,-0.07108305447989295
224,0.023232595718044258,1.3427433986323627,0.08165261880879185,-0.006641251524978041,-0.21683223722772765,-0.09477677135697449,-0.0005736514674234833,-0.0158849174231057,-0.039068137055825486,-0.1008166128836393,-0.04097762530184933,0.24639931951116026,0.13646382137192126,-0.15818915470766537
225,0.10167887828598085,0.5847217945825596,0.1488161976192999,-0.010812958281019844,-0.25447213098926363,-0.07148574746478158,0.052049848131601906,0.009472747786637523,0.005824218888423771,-0.11901982926939228,0.03385683409580333,0.10257633899760885,0.7436814996710256,-0.03974615553045413
226,0.033103414387381375,0.5812686268214892,0.14621855223876934,-0.018007693956496127,-0.21695715627360362,-0.1787106595090944,0.016979435473191994,-0.04103683125531653,-0.054182001613789714,0.04210752704409339,-0.01117264741528555,0.02770315430986539,0.43306324688981174,-0.024357445478860096
227,-0.01920664534422481,1.0044086408564779,0.1997947229231715,-0.011374311592783733,-0.3514056048988399,-0.2000872105948818,0.0010452851523519583,-0.03185397426886921,-0.013460144407578936,-0.14024992001505146,0.03558701962734796,0.14470390903110222,0.4208753420569508,-0.024695667158852068
228,-0.01143765129696081,1.2207579191433746,0.19497433401158884,-0.011781987595735184,-0.37491434501066123,-0.18953580677480897,-0.00030574266606548165,-0.04093092439455863,0.05707290608473652,0.040788992926889436,0.03964764015356852,0.14611389294003382,0.3900322424264663,-0.0413715243848047
229,-0.004151527692961232,1.7537875372404792,0.00955938826772118,-0.015968802610616898,-0.24039864742214792,-0.04958451163221039,0.1403157150191321,0.013188774097853483,-0.053639784800280595,-0.1288602100297997,0.008183707937759278,-0.0019328301714854265,0.18761998631681204,-0.0787810756198971
230,0.03162456443285294,1.8867498506274898,0.005069835545399137,-0.00897313727725547,-0.24049954934653048,-0.027741472002769857,0.06637386405544338,0.01431132717351348,-0.050619117369556765,-0.12280044649830965,0.009783319336257479,-0.07903897691506734,0.25243581060449416,-0.07687750801520146
231,-0.06210315749187023,-0.2756403433049448,0.07444306356855648,-0.01873391114467862,-0.20642629889427083,-0.1777556869751994,0.056550193280624134,-0.06456128547261826,0.0015073064887533294,-0.11276378160394122,-0.10781308395783305,0.08529723565608927,0.3005180287922605,-0.11478314152574012
232,-0.050404046188702534,-0.10923207698137008,-0.04478289839775973,-0.023068792586202536,-0.06822770133734604,-0.08189191804790472,0.03406776439539337,0.01560593718343295,0.011675899239466214,0.10684131197349503,-0.04921928947844789,0.2711877183777155,-0.07123458221322754,-0.12846072509153772
233,0.013983653467744384,-0.2197011935880922,-0.16309724826532218,-0.030750777154547628,-0.2529524884926526,-0.15231758423199768,0.18452699747261472,-0.07890861581332428,-0.0664566698580352,0.015933522784807745,-0.016476835437748076,0.1935225346103637,0.01125070271777126,-0.0323412633449638
234,-0.052778760674370206,-1.1759578185405781,0.005364242661992258,-0.014436480764629016,-0.3057630057200003,-0.09128008197177333,0.000721845529502281,0.00783179606659426,0.03714025829971712,0.14472577444832496,0.01486071970857479,0.16864764085842338,0.06741699796032054,-0.029773626687296238
235,0.005533662428590214,0.1606356342986704,0.03774091099445934,-0.018309469691487106,-0.27656402798409224,-0.05798859590216533,-0.03700465512046407,-0.06351999515028264,-0.037982061190316566,-0.06089428309536131,-0.11599928069160108,0.20083658041556304,-0.09091039578722382,-0.03458292614571037
236,0.04235717711581677,-0.32004246194168373,-0.039191189978555696,0.026561841859334367,-0.25147162982389887,-0.16069782546133657,0.010956381430913195,-0.013851262782807586,0.10975002025878189,0.02662272088480991,0.0865115447729663,0.25603899704895294,-0.3433246743220203,-0.09208652157456215
237,0.05339915728451422,-0.8302886899768709,0.03041883602136114,-0.019309390909351475,-0.19047211951105456,-0.06968371197150766,-0.0878499282892336,-0.03762778660269686,0.06137937274258426,0.12117213637057776,-0.013167989491453785,0.1807106477591755,-0.0180440152424933,-0.04963944761629569
238,0.010895855708333235,1.0616418092353999,0.14556733202472355,0.0018785548626602047,-0.3287082342743989,-0.15528183997099104,0.03554753991345991,-0.012197867392661113,-0.010651058325517201,-0.11012944151946394,-0.11339847402136358,0.24991608148158492,0.3134249158746166,-0.0736320028594995
239,-0.018163546477860948,1.2556316208569926,0.11509785024370423,-0.029181849703902165,-0.2231001983655001,-0.10699553225103549,0.04688515872316538,-0.05307472629956115,0.14053160411318572,0.017847229720533805,-0.09276442577689255,0.05941378080572672,0.25652432184150104,-0.06535338286435653
240,-0.020183311448379704,0.2490382738441305,-0.00204323163393072,-0.03170173197709435,-0.42550414325366925,-0.114005939024545,0.005127792194547766,-0.02954622811639824,0.02174056745139269,-0.03097461793154171,0.05725070110641792,0.2699804990824568,0.11451105493444588,-0.03213060918952554
241,0.025205590601245165,-0.9030163981669952,0.12891521398224712,-0.017473175303874433,-0.1490478609592295,-0.10172454961051354,-0.023273374237535907,-0.010795180790052053,-0.04131095913177979,0.019135737600865562,-0.09526157872754232,0.09159818772098742,0.2946470257124242,-0.06325760498625643
242,0.043393105617758776,0.35369517972986386,0.06924891808754075,-0.020817462065967223,-0.07422422515915642,-0.08264678478558708,-0.10379565143207903,-0.02100751945552541,0.03656032894477529,0.007261328718194862,0.07283015737150089,0.1771465194762444,-0.5808059757149934,-0.09493636470380346
243,0.08159169716192088,-0.4403161981771191,0.028152771520667863,-0.0452621652361617,-0.1003075910516486,-0.13291952826056436,-0.3508816858109737,-0.01323541372745217,-0.02683272896277253,-0.03149230880335076,-0.04032561821733606,0.3466550062715159,-0.6684589573985296,-0.23108609880859715
244,0.04028053739419035,-0.2401344572704453,0.09993828218166004,-0.04322576271224218,-0.07283217021446953,-0.1631717977733545,-0.30237362584287397,-0.008550502479626049,-0.015122989062910666,-0.030312552395531503,-0.07260855283063129,0.32307779112995916,-0.18109810633994491,-0.23422273074426675
245,0.06812811858451717,0.09549656676157092,0.07315048912988745,-0.0056508148904348895,-0.20145568287033314,-0.04060882711647143,0.0892514420069985,-0.013033613641333971,-0.04298032198993037,0.0643549818696521,0.05628757335334527,-0.07262169453102392,0.5959971176583779,-0.09359038254866289
246,0.06070881404490533,-0.21494318884233382,0.013477304562377335,-0.04074182289201851,-0.2946399462661303,-0.14660218277391757,0.04562370391198531,-0.007224277260135192,0.055934944161174255,-0.13971223176341857,0.03940903981675575,0.3781264480036344,-0.03808944674430048,0.017968619975758514
247,0.04104784706761794,0.4138283454105405,0.10349679743365092,0.006877814519128597,-0.17126495695478083,-0.07574401891308985,0.17092353806999838,-0.03556776510931903,-0.07272375765425002,-0.03794404982990542,-0.022952111016289842,0.8846080120809272,0.08674025862977008,-0.06473670477532464
248,0.0054250805953449666,-0.13651867866801448,0.10181616170343971,0.004948607722269162,-0.18153869145916404,-0.13646453265901368,0.037234819484806975,-0.03949910164961029,-0.024924545222167027,-0.22203505172807475,0.09325914632950376,0.7075925660855684,-0.29529719112534625,-0.023925466032438336
249,0.15959494575484034,-0.5393577787948272,-0.03305452795470387,-0.02552425885142854,-0.28967533000314105,-0.05219369921105531,-0.0490189945258432,-0.03170973254343569,-0.02105517352164374,-0.06686120310612849,0.021150773422910163,0.34126715884047354,0.60551253770157,-0.09095587835099278
250,-0.08323689883089258,0.26193984798523295,0.20065689633921532,-0.018516939255501786,-0.18760060635206804,-0.16575335654689038,-0.031859319590987936,-0.009260852260810304,0.03627772065508561,0.013992401450661711,-0.1885197429775463,0.46581104953110253,-0.22776640562069322,-0.043600214378826156
251,-0.04707878635955201,0.3075145715705105,0.21287719845149572,-0.03112771726711963,-0.2099812596397986,-0.15895012166505565,0.05087163777664316,-0.017069901625214476,0.03394064833217421,-0.05952375074858862,-0.19696215134212539,0.3929183481117804,-0.35170512959621864,-0.024022362415919277
252,0.03087343694777861,-0.713874242454055,0.021143638522479358,0.006956290505315259,-0.247940009928254,-0.03450088429439557,5.7775258866632484e-05,-0.03204807145126655,0.04039139737516053,0.024915088401959933,-0.013740971706455458,0.3668238677110575,0.458829118969481,-0.09505300771413662
253,-0.07416825923405695,-1.2216186272533642,0.17671383163768617,-0.03203871296953333,-0.28939270102828313,-0.04683498735060093,-0.031173086490873775,-0.018709124332567037,0.03247647552369724,-0.0018646323374326007,-0.10412599641648776,0.2547648799879519,-0.2764723319654252,-0.11402121116979878
254,0.08229771786668644,0.33429394497078346,0.04096122560433296,-0.0017134066629309642,-0.24025397499118514,-0.15713911641773076,-0.02549442799334603,-0.03549072201187253,0.022513151775387166,-0.11255691389355368,0.06029203758252419,0.09386179671028975,0.7699363142275735,-0.06121984678656509
255,-0.012750716080595248,0.5515540509994251,0.09396811003643685,0.006018409419316785,-0.24767413264760885,-0.08916615138732992,0.04213850419693163,-0.026585804537769805,0.01181210834756323,0.04696859461693153,0.14055554195039136,0.19402289609096227,0.43640247549143274,0.0009644170379074501
256,0.08492963082799015,0.5260396770893794,0.11935985717332481,0.009286709801763993,-0.20611698120840177,-0.09346193651065422,0.05436431998696477,-0.02532439313749779,0.050867203413219535,-0.046740234006397076,-0.022699595752096235,0.18942731480638947,0.45454853530931666,-0.06920733492970463
257,-0.006895275613333529,-0.1805486257647358,0.04449129932019527,-0.08092274824840529,-0.2413956239869428,-0.16538912950968526,0.12224575502761123,-0.02290697030297225,0.07234793476093665,-0.05144441249241154,-0.008006944925099221,0.10271752454167253,1.3183927866687017,-0.013667939819152751
258,0.004475512809368587,-0.038598922561966176,0.08583570170757093,-0.10121673352899993,-0.26375190920733244,-0.1525263441601353,0.13112271911666337,-0.03382537022847354,0.08870413003055147,-0.03525119070177229,-0.015187704347996586,0.1819209662941294,1.445370156962018,-0.034465714760908275
259,-0.02599536053660817,0.3744412600603905,0.09159261406010744,-0.005761670662308973,-0.2027005424072632,-0.13183591253301885,-0.09982379930771662,-0.04229474379599202,0.10244359187914226,-0.2122252041583068,-0.024530318662080913,0.06718499633677677,0.44465237013185077,-0.13436298955429618
260,0.09992368881109898,0.8606727889498427,0.011603090215359046,-0.03554316247283744,-0.29176391219925507,-0.10989673364804972,-0.0003496866579111267,0.0024490780623861313,-0.012446188523423163,-0.0008980865921508485,-0.11439081947519573,0.2484658511625449,0.13997805922655676,0.0034577543075415638
261,0.031113292008806914,0.12375537710330178,0.21467845528871263,-0.03102816563025221,-0.28772456610617453,-0.10254027095653508,-0.07561231872192851,-0.011902433182382682,-0.06695157834875488,-0.08712526322817166,-0.10595129135995948,0.16783568795071882,0.1318158243142583,-0.06818298025484595
262,-0.012765304470227057,-0.13032273422291002,-0.07740471376427727,0.0191114671151413,-0.2022797645056177,-0.07246137790115023,0.13019701902965586,-0.037848888485627355,0.015528637843458148,0.06195002347245296,-0.0436300706558889,0.24810332200772214,-0.27527069869426746,-0.04733604503003019
263,0.04397951503089398,1.07941356366653,0.04905852411506223,-0.013957470842017407,-0.25579567076058496,-0.03594967177207035,0.10501034619133343,-0.03471870652773021,0.037749539811599855,-0.12932527722573442,-0.11061616648780828,-0.005130618433408379,0.3386970022997051,-0.11411098952828994
264,0.011700489697248184,0.6475286787745391,0.033096025927667555,-0.020125414899849616,-0.33718170609117354,-0.1931937261790837,0.047906861556468325,-0.01429863506113535,-0.050135945797868155,0.0035522928267038775,-0.006276818809983362,-0.02054602012359459,-0.6138602821014493,-0.026139354028366944
265,0.04740777696988624,1.2349701428720137,0.08935054966879655,0.009200876977893045,-0.30404006447342385,-0.052301619522203364,-0.08756558515509251,-0.044679641075952126,0.023521865712786985,-0.03569271698141629,0.06063429959376784,0.17199445333080757,0.49127737219488155,-0.06036953692651029
266,0.05023926914772381,0.6446443629224626,0.004410115246532009,-0.013611372980871256,-0.2898998859439055,-0.10225768247919903,-0.09965602615910282,0.006543328340375784,-0.07590736012053143,0.07183232136103557,-0.050625493178211106,0.014704585970197189,0.4406526151658239,-0.03263159534945934
267,0.033095897597477775,0.43394091028188025,0.15517783385487638,0.014501653011125003,-0.2889791296316089,-0.11882117998103636,-0.20360987377296857,-0.03644539556821538,-0.1358860932903878,0.10559204302204249,0.08873133239744675,0.26225979017855555,0.4384703449443494,0.006158473329192116
268,0.03540808050351216,-0.6038340264873348,0.004411283899962037,-0.05578493209449901,-0.2502370921962737,-0.10304606186547158,-0.046756919466044475,0.0005759804425010256,0.061638394429160796,-0.01332500545026363,-0.0709776873724551,0.16853250259455074,-0.46517338646079226,-0.14292040430414316
269,0.07852695647337954,-0.8799229614461452,-0.01213881186997251,-0.016712102281437817,-0.1956946004977512,-0.1348805708571007,0.19100463588136807,-0.028595349900545755,-0.0593043175262956,0.01016273023533823,-0.16109067764788648,0.2589444344327825,-0.5805347391668348,-0.12157589934151947
270,-0.04191583084000744,-0.4399905891679331,0.19657908563456622,-0.03448458826257981,-0.30743746166570385,-0.029848063585352594,-0.07881544703407209,0.0013376423530465642,0.05693317127153271,-0.05638915683064825,0.021294340725822175,0.13809248893234857,0.17216422268634007,-0.08669732036676901
271,0.06151923856559868,0.616630340719846,-0.036863036193864884,-0.03420590172726422,-0.2803051067158841,-0.19375151375487884,-0.023226393423226716,-0.07689152902417944,-0.054926966044156394,-0.030752128762457715,-0.09177446794670734,0.18799050196130554,0.030000636037181616,-0.012792929874654933
272,-0.07297219021389811,-0.1775028639302161,0.09057536144293346,0.014408275414634224,-0.22813272160327513,-0.05493698418103571,0.14642668257782895,0.04010941107971927,0.03347693657043875,-0.00046753447467839243,0.06321480497952958,0.14630497522064703,-0.49018677575898284,-0.07636770835671972
273,0.06500127378108092,-0.36582570313352175,0.11034899530608953,-0.05159980894122737,-0.29302171968852997,-0.15795984669285076,0.11424724451429231,-0.018208484436267075,0.007823402825990936,-0.03151562564978288,-0.08825839937040628,0.154247297001565,-0.7443976305656679,-0.006089800386938588
274,0.03951351936956149,-0.27360671407557136,0.11368288742330249,-0.001056114709788926,-0.23213377672407828,-0.06657585816770162,-0.12972255225707552,-0.01552221191471094,0.07976556216544142,-0.014531965081758871,0.1198094849792449,-0.0017771701099605908,0.1675001474302089,-0.1129718271942709
275,0.006868659144527833,-0.5444405762858859,-0.094319194365163,-0.05849804361048681,-0.19049446167682904,-0.109486666409575,-0.07134511296562936,-0.008077205206570404,-0.039676507288248945,-0.0385438211960073,-0.03740531075868217,0.2184950453907573,0.6427859771604885,-0.09400418590422828
276,0.03002790941271488,-0.859827524409348,-0.08032637545990909,-0.04176371541443069,-0.16763102114336326,-0.10891317742649392,-0.10866727057637247,-0.016810124448513063,-0.04317027649950363,-0.1237566875844317,-0.016413751507550894,0.25091869993335003,0.3276991667084858,-0.08016543376398587
277,0.009661640310956177,-0.8926393934234255,0.012974393020682984,0.013367290341398755,-0.2879695998450791,-0.144755586410114,0.08241873829288932,0.0025298612204548154,0.1479199671284129,-0.07149230801151388,0.095959452420107,-0.040194219595388325,-0.057638000705540704,-0.08127465361611583
278,0.03338616939678413,0.24242987709730301,0.058039993069061435,-0.05967964686395083,-0.20902806166223217,-0.0698106021820968,-0.00033416766778171514,-0.04468535488963454,-0.08899055970666166,0.0551142284754194,-0.035961291426621106,0.05668899571978314,-1.3104811406863095,-0.00909412309715265
279,0.05769198081542459,-0.13555466481202288,0.03776151815225384,0.004771818463817124,-0.2396882933642725,-0.15558772405879784,-0.023785225517708737,0.004641673193731891,0.01990855208134293,-0.08566033893633776,0.11076807620088777,0.1116907324589772,-0.6401124152940835,-0.06983346902439716
280,0.10524358662062355,0.14040608833769808,-0.01800020088724058,-0.022739330691204082,-0.4526260132680984,-0.06670310892065162,0.09027872702971385,-0.05401733382118899,-0.08115501147623122,0.020508071440306537,-0.00227028963751226,0.04655652215313055,0.3966059885806278,-0.019872592889519883
281,-0.024358442740099295,0.5343846379188799,0.16815678283301758,-0.02598122708019345,-0.2502652022073762,-0.17391765110665086,-0.20408869382690092,0.01665188464557825,0.0939694216695685,-0.05362593171723282,-0.06381189369769717,0.14609744208618144,0.022542061549508385,-0.09002367906588246
282,0.06430858761078906,0.1833835751520361,-0.15655850269461066,-0.01764828828282409,-0.30026505824014654,-0.06904136995626238,0.13250046805382065,-0.04871723423357911,-0.1491973450315529,-0.11949929977430117,0.027181726528717344,0.08327133523423955,-0.06638826459931624,0.01410649955793287
283,0.03483941172365179,0.11688699808561022,0.06801463647388817,-0.028888432455535934,-0.24522660853580286,-0.11755614646015097,-0.13727163672733428,-0.0024813582359326652,0.09698876928344866,-0.07203828287564949,0.03691353109565443,0.029359355742444804,-0.6144592315831043,-0.06639077788122161
284,0.06303602929392049,0.014084898252085129,0.031747111169295184,0.00698693117214875,-0.3130800613915437,-0.08166658173950801,0.2903298246544019,-0.05120579506314716,-0.07064821414239625,-0.15739684142905108,-0.19590419470616238,-0.0735624542567577,-0.5983369845069073,-0.07995335459863888
285,0.00969372878652111,0.14018114799915554,0.10234002894724423,-0.05580480070821585,-0.25043726409487366,-0.1381226125317081,-0.010536041405062091,0.012797527103177622,0.06857826399159304,0.138522473795437,0.057630860606588896,0.06659632028023302,0.45304116614635037,-0.06567014344955893
286,0.03309456410624209,-0.1986359005196476,0.04691574204924576,-0.05321908476009017,-0.25003863398999715,-0.12009397683208602,0.008566217425904542,-0.019046383887577536,0.06671304482052978,0.20233694760204846,0.03342288056220488,0.12608390821010462,0.1142008507245851,-0.05225286668548625
287,0.05000004398937824,-0.1023682289743211,0.0533583941958303,-0.027988303516511468,-0.2675646524044318,-0.08214564886881892,0.0011939022473781667,-0.05874911172873071,0.01380800145145665,0.0934122286400228,0.08577497966140567,0.1388547962653583,-0.003576317480609617,-0.07792111507558719
288,0.08495835910486171,0.01804575324142986,0.10538607253482951,-0.03862612543704219,-0.1840865382439862,-0.030085872252964475,0.02682750471844762,0.02284336450243455,-0.04498753183751553,0.08800812209576742,-0.0013788873159573806,0.24766638785776277,-0.05594079968607274,-0.0649667547487463
289,0.05838105657591608,-0.06397592515947853,0.12592554234841297,-0.04342469444346005,-0.2434123843940299,-0.04483836965998262,0.08222781336004026,0.01872693909762216,-0.06921165118801219,0.01342863431902306,-0.009641011983113859,0.07587579751664097,0.018551530555591833,-0.06520356955422928
290,0.07916674538992019,0.10348198872074074,-0.03156797911207593,-0.02036624252421381,-0.26298875552673845,-0.21405845438853657,-0.07595109293927635,-0.06372925371562277,0.01617566009435467,-0.03431952275456282,-0.15543106002986967,0.09291858196642232,0.11640408282618753,-0.0398874909779294
291,-0.00015202503045064208,-0.11699566304124778,-0.011623219855154299,0.0012731220690321843,-0.3552647101927131,-0.09247796643920671,-0.10237713051722813,-0.02901368789786915,-0.0961705713749028,-0.15259421103546938,0.05538345145651336,0.14640964816015747,-0.8937285968403099,-0.07066732502150506
292,-0.0670682110983997,0.031532695164095105,-0.026918356973156754,0.0009449625446153135,-0.35584548000936606,-0.09294893820939189,-0.1296852765577747,-0.04005249591729623,-0.10994571071732585,-0.08101053391145335,0.020433231872236956,0.14470473050027793,-0.9237206700192963,-0.05655975620827274
293,-0.09358906667417766,-0.42660520209517055,-0.0699290548674105,-0.013421012596316596,-0.1850676200127615,-0.11313286158037719,0.1457219570757814,-0.03146278032889758,0.06129531717653805,0.03673324028395439,-0.13694614982511244,-0.11929640724769164,-0.3240903011779208,-0.11767127365904766
294,-0.028989400302145946,-0.20851006191907,-0.03756836908626138,-0.06451497876665285,-0.3074683130764648,-0.09812966180930052,-0.14022823964937223,-0.03794145276612964,-0.020548984856242725,-0.0650723772174713,-0.012322523774432643,0.10858352807700013,-0.2217870470515291,-0.020036776206770752
295,0.007124254967484089,-0.22591690367450712,-0.05126875803171238,-0.04413674692926203,-0.2488689666304884,-0.11048894072272508,-0.08152699785120915,-0.014174283279608069,-0.09498365848181022,-0.03436846425720505,-0.038034021445575744,0.11452237554065386,-0.9550937792509512,-0.06883120506346088
296,0.028128134589759213,0.07290638022043819,0.007306752155020524,-0.006292154810243932,-0.3167373638999254,-0.12522482717327868,-0.00788182600736373,-0.05750764681960998,0.04608575883017969,-0.0913445803159155,0.18381052882489846,0.03829619598463235,0.25532868686055354,0.0005212913472273928
297,0.020026335880207025,-0.06094190355999235,0.05582550418976523,-0.06691538951587463,-0.266195404717775,-0.10162862701398921,-0.22011888599052484,-0.0024960536710603026,0.039720388557993404,-0.12720034177261666,-0.09731065014605991,-0.1879118555920584,0.38042715536055144,-0.05568832262931919
298,0.040591799516188465,0.040045884937792764,0.04992000796157456,-0.03954935578664676,-0.23567640730222816,-0.09696724104281507,-0.2526407014223351,-0.022078094641707097,0.017590794400786876,-0.09447956149373382,0.0356471882379062,-0.18210841409750628,-0.005153254614542024,-0.06427961472592636
299,-0.01159407372007154,-0.2443202324172259,0.1467405120919941,-0.019980848584888796,-0.28717600169763446,-0.1698202653405988,-0.06890461316880701,-0.0585201469715929,-0.0023733238869132756,0.08800732167311588,0.07597233958933376,-0.2952510073356895,0.9034893240749364,-0.007017695101105802
300,-0.027507497850678825,0.031931338726374825,0.040615659580959,0.014681395407407287,-0.24219660530654213,-0.07719779442033296,0.026699493332644375,-0.02832684926833913,-0.01629807648928494,-0.07177362652535427,-0.0498165916344755,0.004583462473973954,-0.09144192684206859,-0.08643412585084362
301,-0.06651321592895315,-0.3051277383101748,0.037836556102447017,-0.008111474279941341,-0.32275831081574435,-0.04493146108807766,0.10037650415521823,-0.026233580155026262,-0.08398865014515863,-0.043796216623569056,-0.10110844203766733,0.16649142153320734,-0.20434847190174993,-0.06563591127360179
302,-0.001540368627126032,0.04322879544471184,0.1128622405726443,-0.03914412188149598,-0.20813077925369783,-0.1366574941294392,0.06172000478529831,-0.02811262795391009,-0.01324333310335387,0.004173229410707743,0.1334559161020422,0.1773646244586954,0.8423632856140411,-0.07819837162455907
303,0.050707056001437545,-0.4515471605318041,0.05945157480566449,-0.004994569433244051,-0.11796689242683361,-0.06985622207974392,0.11007376110241002,0.014658006707911606,0.04055552599624196,0.04490225336033024,0.016151433154414176,0.1984757058919448,-0.27864743235883815,0.006143388920439193
304,0.027126485665429856,-0.7319234970387294,0.18926364523461922,-0.009749722886604828,-0.3284516299413726,-0.07291971449504976,-0.06396298361329189,-0.043876691284671844,0.06617365674311286,-0.03763970661933974,0.00698755325328243,0.0509796334476995,-0.33223855379760925,-0.05887699611848373
305,0.04410113408577945,-0.16423101179562258,0.06388119269056211,-0.00319902368452016,-0.19097640821586304,-0.03276971662999392,0.006795254989423773,-0.05957389530694035,-0.05133253412280399,0.09779920406153439,-0.02879797861099305,0.3287186273365085,-0.7650823444388389,-0.046721466817488115
306,0.0738234854095575,-0.669972601597874,0.0840504502221057,-0.029245293305444692,-0.3276062590917301,-0.11044464790122821,0.07238656452436687,-0.028758257871083284,-0.10549963621714899,-0.16255934575525766,0.00011041659532660952,0.3492066212150863,-0.9543763084982531,-0.026408236015417582
307,-0.04415462114135871,0.23149091235284114,0.014959490664467556,-0.036142103513678005,-0.18957359212371955,-0.12230604162095098,0.05893132103340011,-0.028672602116301918,0.08973985005825189,0.10034232111601166,0.030109700496905704,0.24717164254295446,0.36123916917236576,-0.04350483266861209
308,-0.07352548039663051,0.11974378186810958,-0.05713754439086635,-0.023121759833832495,-0.21605631673851386,-0.11224547409029514,0.03255711259613418,-0.026570726543770358,0.07210681430105381,0.009571496668842591,-0.007072034430248918,0.21710410339107772,0.547026805975606,-0.09338262108796296
309,0.017255051318761927,-0.09235082058526378,0.1244968622674762,-0.03016907852201276,-0.33645894448904284,-0.055093209049657865,-0.02828008244256003,-0.019137766675388357,-0.012357103049083995,0.020564506176504876,-0.008735518991637922,0.4184436238538427,0.19136532872823703,-0.08287701244554996
310,0.02614593420340494,-0.38436217961308405,0.015829954568806537,-0.017200680953558804,-0.26303612942899585,-0.028107069155286324,-0.002264287701329755,0.003683016158066807,0.12011850136815524,-0.06386770989491078,0.01783082121571819,0.2720580887344753,-0.3624937332410054,-0.102618660543523
311,-0.006970561042355161,0.2746699892204356,0.022750188432375418,-0.036249437601148196,-0.23859641195138465,-0.08205575060190848,0.057623412548894415,0.0075534590992439865,0.13689307222399769,-0.08323275505858851,-0.04696333696352255,0.3352816738500374,-0.23194525879924344,-0.051263399377509636
312,0.05237557285430877,-0.2664033553815796,0.14170346908356077,-0.02320625970626914,-0.3022008523010711,-0.1317115420202311,0.01749736451257263,-0.04498013960825123,-0.08232274531254913,-0.08383226496252197,-0.04631996664624537,-0.19007889064912042,0.09942420887736819,-0.08895608382688294
313,0.05881316117835578,0.08549805531801202,0.13938969475670238,-0.007346037128302976,-0.24269655381811953,-0.11942545793232454,0.028814291128353278,-0.057466559459716744,-0.036644099306844424,0.013621331825163396,-0.03770564452090962,-0.07107949319983822,0.3391623441608029,-0.1718588966592694
314,-0.010983150677845943,0.6347132561324277,0.0015460079383078362,-0.03781243532082827,-0.2577287528863737,-0.11285593979672,0.018891534651113234,-0.03068490193559288,0.07660115055813654,-0.0843697293455842,0.12715646809448106,0.04973909461315695,0.2043374675297194,0.016505616835819338
315,-0.010704368095494798,0.4153322281957362,0.02828214150071101,-0.07855237824897965,-0.2906197251702643,-0.1459600117390537,-0.04250278821588155,-0.03906021496766291,0.05835596581387864,-0.09924286598117404,0.05677409867435919,0.1749076588242525,-0.3245052588518159,0.036342514929527774
316,-0.04593248070299355,0.49634028171947725,0.09472983756699244,0.00022552053017939507,-0.23661550591091307,-0.08049959311121212,-0.06806582385581372,-0.05623351216813628,-0.015786757765799103,-6.259282029059954e-05,0.018468514972849473,0.05046942590914884,-0.07260317838803822,-0.03115983261239547
317,0.09208624881949645,0.6468193129466663,0.03657918608554006,-0.022281491020291373,-0.2844618360741664,-0.14673357338506296,0.06397714332077173,-0.028614407717971496,0.022505463006403437,-0.08611795194125774,0.053930498051296516,0.2525394731339418,0.09432373815590922,-0.00921402022711691
318,-0.0037997129504364624,0.9538551878986611,0.0032439955525132014,-0.007568571499544473,-0.28564617600502723,-0.014126080136957028,-0.0050795937290613324,0.006900909351564552,-0.052651829407691225,-0.046457516796614015,0.029241542696479658,0.17667116238913916,0.05048634546312236,-0.06704639515297557
319,-0.014646953692098064,0.9615922511504786,0.0481867628102447,-0.024369042477232747,-0.32214590482470834,-0.1251942862142717,0.028173558269237862,-0.021400442322771995,0.04063762507482444,-0.06196894799154486,0.10320747633138512,0.09631316527198852,0.3883530735355628,-0.05479342550918526
320,0.0015527720200360084,0.6432229627948227,0.1686366366059458,-0.033113086407810535,-0.2454334737865484,-0.08884314681828205,0.11422441329857455,-0.06252468725673942,0.014516033104208292,0.06261568004022858,-0.00748501862221404,0.2557807520236854,0.3775456573305853,-0.08941570388549676
321,0.006086654814852599,0.20862127969896221,0.05341088716371198,0.009929013548786517,-0.2557105325259331,-0.06786105371870087,0.13022861759451393,-0.01119866392999501,-0.06049561313909091,-0.07969213971083669,-0.038008912687432436,0.10851056969027212,0.10641831387086079,-0.03282807765434714
322,0.0710843150603378,0.1922288989777832,-0.053679910678400944,-0.06438062934744246,-0.3106137828863008,-0.10165819436641073,0.02375018414131628,-0.047446261968450906,0.08422018532644229,-0.025978447868403563,-0.06527826429529433,0.2629099389664111,0.06656467802800123,-0.06966326374318668
323,-0.04060887449446082,-0.2535824185077637,0.18004742429176382,-0.024414956260838835,-0.23060278717505023,-0.09386166125325343,-0.020975432776997358,-0.009650344742507519,-0.14145812400707947,-0.07920318923630074,-0.013580094682140775,0.09906135306831029,-0.4628359004710869,-0.09180635588370167
324,0.017432775076814566,-0.16962859064305943,0.020400322313674613,-0.01878806243603807,-0.2840654204885123,-0.07666187384866557,-0.13519432072932117,-0.021474940910559674,0.12782982388102335,-0.008179025600034237,-0.023114126449809362,0.11073820653298988,0.23975107571732757,-0.11484199988184438
325,0.030592831970471634,0.6625090239215209,0.11140034316035319,-0.02240195709207692,-0.25183028965779886,-0.14017138106908558,-0.03611256096176156,-0.039899459816806586,-0.08025444856040717,-0.0668951553341433,0.0799243390097468,-0.12958221059784725,0.3179357826759194,-0.03436715971604677
326,-0.01935141709427829,0.7558853483131392,0.10885588279518968,-0.03235109802488521,-0.17035218466674962,-0.08327999620992749,0.07401776524454011,-0.017621348972608253,0.12463187283251181,0.016118834816781953,-0.04222008089825683,0.017754273475369314,0.3214397706923704,-0.08085065171267036
327,0.010011311218544594,0.6570659805129544,0.12994146464124004,-0.042489971842103486,-0.15508042783339657,-0.08213693242190649,0.11468456838192273,-0.014851386462894245,0.07812824388112038,0.014234612829545613,-0.027017556467980174,-0.009457181386388486,0.5369198144873362,-0.08876296493778985
328,0.015001708637536693,0.31737650275506313,0.03887498942826473,-0.008399962564182673,-0.2717099548375864,-0.1122676299770958,0.14461663767159708,-0.010010796381187168,-0.06472127528966339,-0.04322675066220947,0.22298642694804477,-0.21358425205322754,0.4023155952507613,-0.07139083831114319
329,0.0007413583683962277,0.3058950947190969,-0.05057110977489776,-0.06760564371546095,-0.3182494102344294,-0.19747671115938933,0.030128552407722484,-0.01965821521362491,0.08447534541070126,-0.11260959893998389,0.012746393645335703,0.20085430436675697,-0.13939944538667892,-0.06754037317705774
330,0.006880926381411412,-0.22470894623087692,-0.023190627000458763,-0.048130761314049364,-0.36354004170531307,-0.19332421495749802,0.06583749681385703,-0.005115542898244785,0.07916003196154832,0.026462538806627595,0.01189828467773782,0.05585085248640173,-0.3935959509496009,-0.06754226722772173
331,0.014353794872525916,-0.22095942009540898,-0.04320337050468909,-0.05014167467201995,-0.3002642845148632,-0.051625581543049456,-0.10967960193759493,-0.006608321861469937,-0.09787946664438121,-0.14161022152092365,-0.1777748035764772,0.006536065451670202,-0.5206383781503355,-0.05477182007395491
332,-0.10006216578822288,-0.06585419997800879,0.057772858643595715,-0.05471922363206726,-0.2828794578919594,-0.12559951982187978,0.036319872438346446,-0.05766384892244738,-0.06098275169836678,0.022536701867308568,0.06733459196602429,0.05655365562542147,0.2738492557606802,-0.07889638534981264
333,0.11423186149889716,0.03465131407051991,0.03959772710897508,-0.02378412494819533,-0.2056400049044164,-0.06800805401849427,0.03275653961473615,-0.009981529509034998,0.11178213088851291,0.00010621299926620587,-0.10709141873061538,0.16788482880041167,0.2950339204551128,-0.010260228031880331
334,-0.022009443348213475,-0.43808949800317176,0.10970046401826028,-0.044786171287701564,-0.4608447835046193,-0.14826683372874322,0.027548831336117748,-0.025445472561242882,-0.040628245908731236,0.054449318262624134,0.15362655108527423,0.09550807445769711,-0.3297015782665682,-0.07370381834953346
335,-0.019544459291287675,-0.7176909514183807,0.0827258280341148,-0.031676083522858625,-0.538196890603578,-0.10686357942841711,-0.010618646739274352,-0.023553585278937597,-0.13746219604313964,-0.015685626036041553,0.033253876172946555,0.09498863174790853,0.15085902258211972,-0.06707413594501395
336,0.07869454436256118,-0.6733537786751059,0.14531289267062208,0.014391339239176165,-0.5163340103430986,-0.12854663324556725,-0.021916036586120104,0.0045488542938835475,0.06677461191680809,-0.05058329791957557,0.05987660556543016,0.16245743499948218,-0.7585323185754502,-0.018589857815927414
337,-0.012133245845081908,0.16235419888427588,0.002541190158273865,-0.056147081845301136,-0.46185533191944966,-0.14996402195728462,0.16378800325298082,-0.04155731439060367,-0.06431623699125727,-0.08212243604013202,0.03464219768754863,0.10301622819897281,0.04228491250625932,-0.021844690669490154
338,0.002410171023851937,0.13865009305168932,0.18032697384828428,-0.026301613634527887,-0.352030745582362,-0.013623599964428829,-0.07264924137148256,-0.035848190346797086,0.013594454980284637,-0.003412933185777234,-0.05616159727347124,0.22950235099392952,0.6791293324335024,-0.043892284551005106
339,0.022779349100858326,1.0443563440634753,0.22266048510489178,-0.014836712343972616,-0.19855600820011396,-0.17614548411274922,0.015486657262061752,0.010218696794317708,-0.05872344273979915,-0.10884982932487909,0.09366726625463402,0.16609118420062652,0.08720998198894675,-0.06422279250923034
