sample,celltype_0,celltype_1,celltype_2,celltype_3,celltype_4,celltype_5,celltype_6,celltype_7
0,0.052263560039575774,-0.06694411677611886,-0.18120838546663956,0.1429119469425053,0.04248224028287813,-0.19763415405247403,-0.05377940999144852,-0.04777631320080823
1,-0.05846528423739533,-0.07693679470877313,-0.13796959491876581,0.06393070006152307,-0.002936789803243443,-0.20024468781871202,0.008873174985256846,-0.07559303556102487
2,0.014784916576791679,-0.0863325826690521,-0.11128958336675297,0.14014273518881684,0.028555894155124363,-0.17715567858335654,-0.07252069658789492,-0.015689321107039036
3,0.05872729895676093,-0.059942309741495794,-0.18098753952713198,0.10487798601720333,0.021576873549922576,-0.23003078498136847,-0.06929500882675554,-0.10596708374789708
4,0.0054285421956059565,-0.07743465858954754,-0.11633181724243137,0.01770413603943674,0.004302251405480448,-0.17311748542854494,-0.014045350447639562,-0.19244619764123805
5,0.0024798923243238846,0.0015876872402363316,-0.1832648300935057,0.07229570191339471,0.01769185533764418,-0.22907494309943105,-0.06204176139995349,-0.035421635106934496
6,-0.05727892875692353,-0.023955578482153943,-0.13383011438977263,0.13073656774233225,0.03600889415252751,-0.20549671978815276,-0.06593374992974918,-0.11658002036957976
7,0.04666690386797687,-0.0904065710173817,-0.17378914361117162,0.08011017066211726,-0.0030861910354458774,-0.2007572008297277,-0.008392546920677799,-0.10422033124770089
8,-0.061463826378164804,-0.06508057099411332,-0.09859924976731407,0.07219303006924324,0.04913624103062259,-0.20141988389065302,-0.08023325392579503,-0.12749117187829728
9,-0.0051899904666408425,-0.08178161507501969,-0.14705001166293125,0.07807917152294959,-0.03988257408620673,-0.18210694954466922,-0.06557613195070343,-0.02221367699492722
10,0.05114886372712538,-0.058103554029121075,-0.21805086183478167,0.19479922181825277,0.048440960567893106,-0.23932676202861639,-0.01172257232759534,-0.10135554447305026
11,0.02448910103034324,-0.07418982966173884,-0.18230843757261372,0.16201599635883615,-0.01385427026384638,-0.23726544282943662,-0.03787041749474236,-0.07103643534431657
12,0.03154945349485938,-0.0582749779773436,-0.21883832558359323,0.09869571414558151,0.020064113731111027,-0.2375354340349774,-0.05225036285842252,-0.1431850561754466
13,0.02811852762280459,-0.08667895244484473,-0.12602117248579411,0.16846428964411786,0.004446394590639202,-0.16978691270693008,-0.01537778471098461,-0.08271975007035495
14,-0.007536415068452373,-0.10037798023349945,-0.11842603483741382,0.16554820928223346,0.010828223942160747,-0.1722270756189042,-0.010410473834904385,-0.08113879894167467
15,0.03381801536108653,-0.08147377245132208,-0.19438640389599215,-0.0026956280989252346,0.018704295629037176,-0.20025708380492602,-0.006330870713947015,-0.1170529644828486
16,0.0066627350549317566,-0.04640744866475944,-0.062802969264217,0.1597793567756869,0.02623529895493828,-0.22714717277629132,-0.0714121638578929,-0.1674362940630607
17,0.07290852200916528,-0.05769324843565124,-0.15841124032439594,0.12949029592782607,0.03319497191104499,-0.21233069247057929,0.0022568531819032456,-0.12315175428588113
18,0.12480634759396086,-0.04523050698981938,-0.1364685921871041,0.10740013875950269,0.030180217846045715,-0.1979117401978887,-0.033645183308374446,-0.11263138100074224
19,-0.023240618612449193,-0.032001758249807714,-0.16281937228322502,0.16075275177430282,-0.024460584688903334,-0.23110898173643368,-0.05316043509562478,-0.20366700463076803
20,-0.029357552953650973,-0.07152426949834312,-0.10122252469078225,-0.028008746311040528,-0.023929964707547203,-0.1920395356435063,-0.07715567279337332,-0.06553050940660278
21,0.04541119783127648,-0.051812477537594215,-0.19158625734311593,0.21347830942018425,0.030401247770822745,-0.22197571731283328,-0.04607956145302358,-0.12680775960296584
22,0.011675548340099179,-0.07025959345413667,-0.10129322617813166,0.04600862728039393,0.011442304015071342,-0.2164015045526632,-0.03894677011377648,-0.09680698073685393
23,0.016201983215608645,-0.09362483397096535,-0.12602265840354362,0.050386489048733274,0.008711319881168175,-0.18117095780767756,-0.04305339380148175,-0.03323075274945289
24,0.020391375929192906,-0.09548593161518676,-0.13705315602244003,0.05786322778660577,-0.004417727597622663,-0.19353896245600366,-0.04282305382004299,-0.00573682434650814
25,-0.030405979497843433,-0.022225841051211687,-0.1275845558129064,0.13024799979881763,0.01009012240302853,-0.21208197311641241,-0.04250002916511739,-0.14567204160975866
26,-0.04453215769996435,-0.043728564471312015,-0.10066620272936437,0.12006299851727448,-0.007965510811823298,-0.23360829561429391,-0.06894083038368856,-0.05696459071210273
27,0.07289310256555132,-0.05457512198249045,-0.17245542966202693,0.12952879848056562,0.03452115791648,-0.1413418219833558,-0.046987608716248574,-0.057653587427559855
28,0.018419252414813597,-0.060851618628364954,-0.19913375514361248,0.06608187599360987,-0.002305988358647158,-0.2079538220753209,0.003890304070160208,-0.16864535572636072
29,0.038531870672266544,-0.09121356592017241,-0.12832115981196573,0.16339080273979337,-0.008992217864389977,-0.20748466037840133,-0.03341731086436944,-0.15438859845114547
30,-0.0132149424357981,-0.027785012384975834,-0.1659937508451037,0.04939476632465345,-0.006381456750795211,-0.1902535732524009,-0.02275722607548307,-0.005405080190617945
31,0.05393339677103354,-0.09885933161364688,-0.12294916021221322,0.13506667908867104,0.02126632011826142,-0.2069801061452947,-0.08713160393535263,-0.1123434912084525
32,0.02146116643074117,-0.07424350090647983,-0.13111044606811129,0.1777857376065261,0.00234350907851006,-0.20637438188582008,-0.08040480985405644,-0.0981422968003808
33,-0.029310296796756896,-0.04763158755090653,-0.14421286556239402,0.027047784748290088,0.03178815386061299,-0.19045494940784005,0.0073799971700601735,-0.0674116795830081
34,0.018607415814991285,-0.06850361391719724,-0.14024819604232097,0.0790240376192135,0.0061706165303623516,-0.1998383770655594,-0.04035347802563902,-0.07938883394936554
35,0.036226042465596825,-0.09564416954902961,-0.14191337004102786,0.010936109105565445,-0.007195937820428518,-0.1962573242484859,-0.07151919649196216,-0.11832270819149353
36,-0.013052046578511833,-0.030321414087302226,-0.11097584183294952,0.15139135002264995,0.024126950379615857,-0.22009146777984018,-0.05971037116321526,-0.06805116121732467
37,-0.009997588322753881,-0.12518160432719727,-0.16445754486057695,0.03798049912562129,0.006876218571927651,-0.18545904946507408,-0.0541234718036378,-0.16637028412332955
38,0.05758031280685438,-0.1497909556325958,-0.14665316128361483,0.026198748924122606,0.02566650106519051,-0.21132321638849777,-0.027957622875034477,-0.12871808752428365
39,0.009574009731381172,-0.03411764392650314,-0.12962973392629798,0.11894881439848984,-0.010887849896842168,-0.1919122926403996,-0.07072196026374014,-0.08392998309202739
40,0.009763012602308663,-0.11605770484919553,-0.14870008935004153,0.12981812666674583,0.015856069878808672,-0.1891092752580869,-0.020269185897857492,-0.07608373034535132
41,-0.024656647126581582,-0.044010369694054884,-0.15575176577877203,-0.019393436344630352,-0.006250558456888256,-0.22426190052566208,-0.046313798043467705,-0.10313517275901854
42,-0.00955729159023705,-0.04292204580317112,-0.16180436266876025,-0.06922721875493067,0.010511044495284304,-0.21676598574906245,-0.0749336677430443,-0.10561689082884307
43,0.06932382418451236,-0.1027783867831106,-0.14692358095422017,-0.025328929174646075,-0.01499090057419834,-0.19082578307928705,-0.005751461829455254,-0.13197997071274098
44,0.07427240622021092,-0.04133533119561504,-0.20573998755399608,0.00918591183959619,0.05803763498022388,-0.20684504520103408,0.01651865635557341,-0.13850649081210303
45,-0.029048523982082547,-0.09250217724931047,-0.12820596302179108,0.07166206003348932,0.002879243446639453,-0.20683399193861163,-0.07866030560409192,-0.028293560905755286
46,0.08971572235133199,-0.06202224095440052,-0.13755925800974908,0.07408600241003466,0.03115841161894517,-0.1994012629893619,0.0135771593367814,-0.08769531714768189
47,-0.01576484039840778,-0.10338939440907406,-0.1451125332223233,0.09542121202506788,0.0064695669916355406,-0.22236752280425914,-0.10510973063225232,-0.055607250516155435
48,-0.0006530331459939365,-0.05338028752935357,-0.13755882269591435,0.08029817404311307,0.04435564883150399,-0.22215619668314374,-0.04946129726704518,-0.08274509109738877
49,-0.002925252745022644,-0.047012974429723485,-0.10994220023493884,0.07983800304808597,0.04830379967370964,-0.23217349492927053,-0.014294215300006116,-0.08263668628655622
50,0.05896353769999502,-0.07586143810348225,-0.1828670886562146,-0.0019029803386855226,-0.005351654120481629,-0.179284301365498,-0.0748655311341849,-0.056296267115709044
51,-0.07869511936707094,-0.10283282151354686,-0.07265470065831599,0.2161316848196585,0.01732759876007622,-0.2379620374961534,-0.057161607071368706,-0.14028479296012186
52,0.007527271451673506,-0.07753049783010962,-0.10290410139904511,0.08759247791614827,0.011291555183424562,-0.22061717096290714,-0.08157368152693767,-0.14831341597088907
53,0.03534964082326403,-0.05359377198020223,-0.14378075790803385,0.03865053445284938,0.008044238855148217,-0.19508280740224299,-0.017162604081378388,-0.03877583853476364
54,-0.00870075800759651,-0.0458367180038869,-0.13266915791258377,0.10712788179123942,0.00653697311350783,-0.23047188084095327,-0.0594491338773657,-0.035886747187488105
55,0.004345713006047108,-0.10111489689625332,-0.13642798696926517,-0.01603058612091772,0.01082102931479095,-0.18435622369790905,-0.02434813506391198,-0.12316993014438424
56,0.03701880177673439,-0.08644085468345472,-0.16683242428020845,-0.009854673949315523,0.013061383873930202,-0.1982534289467015,-0.09959113764377633,-0.0987854301882476
57,0.04157608114524369,-0.0634191745029947,-0.1290908887648355,0.10903031995844448,-0.002008271991416689,-0.20589891319111642,0.007792709307209919,-0.09783160016048975
58,-0.030936492987295505,-0.11935267214762624,-0.13292525086226656,0.039936388158822084,0.06647407713965015,-0.2143174514543772,-0.06744527948302079,-0.11107998121892076
59,0.029010083153892974,-0.011452777020142857,-0.14732192186887078,0.11008204653242414,-0.018093998601253936,-0.20727128332316552,-0.019649115674785625,-0.12747086614220238
60,0.05816427967660906,-0.08457044415487386,-0.12119854193016039,0.1608718504403207,0.018346140613309116,-0.21850618673555072,-0.05726272376565586,-0.06875969899769972
61,-0.0369998039711521,-0.08004618518646409,-0.1527562273378371,-0.04418836349330266,0.027063257256095197,-0.19997678999000568,-0.057977881779629495,-0.08463110928782555
62,0.061799982228925826,-0.0910613637705561,-0.1331799965210583,0.20205217784711316,-0.03313021321743054,-0.21544891327667426,-0.06244172084081442,-0.03097885370039696
63,-0.11062674943462392,-0.06382803458459485,-0.13535610793874986,-0.046779385148638344,0.06344125707392823,-0.1853225792801867,-0.05880580005242054,-0.04427785459988701
64,0.12522217959107265,-0.08457785408126864,-0.058081233862664325,0.22778249456708874,-0.0634553797704277,-0.22402469488837512,-0.008784495260295955,-0.03308429604823262
65,-0.05995463289322725,-0.027458636917938185,-0.09791829760508011,0.04337227843612798,0.015433465739268903,-0.19065385373442623,-0.05453068949585937,-0.11856362814837881
66,0.02107364189188099,-0.09486793614148109,-0.1928498001025184,0.04618104704840334,0.002277498189944931,-0.21868212338234133,-0.036509292619872055,0.02465862105955091
67,0.015829185880714775,-0.06522921927486239,-0.12194525423147176,0.1313234181438984,0.009402887666694868,-0.19991136488396233,-0.03669750981479275,-0.15703446516401207
68,0.01851796895348945,-0.07599413271770387,-0.16353667125758312,0.11281343907231628,-0.01981491764520179,-0.2647015239011308,-0.03394479507479073,-0.029955222832213968
69,0.053518354116968286,-0.06640376326332974,-0.14691171491764646,0.05507262249006192,0.02557413348846043,-0.17224232962326863,-0.06872512684999973,-0.1365126834799939
70,0.01858241254665699,-0.09090317068157232,-0.1254668944363837,0.05365056407934571,-0.0041228223124926645,-0.21421481194951353,-0.017555126281644712,0.0511514345369465
71,-0.017563586712178003,-0.08439833675876945,-0.11376853144501789,0.17778902470895386,0.022618723482428542,-0.20246391420744989,-0.06230253789699648,-0.16556639024603187
72,-0.012290819133955605,-0.07415947925590004,-0.15595596196318637,0.013161989877877533,0.023643059818238485,-0.1774873970971222,-0.0452692597845286,-0.0570775506591406
73,0.01201030844158324,-0.05662271243929734,-0.09223448153405436,0.11830186837383294,-0.025523551746901248,-0.2011452915133933,-0.052693738943306256,-0.07596629643764685
74,-0.0009033064290471515,-0.08261430764465225,-0.1497349700921975,0.0834534927129397,0.06057691952019803,-0.22595463087873308,-0.042166088474185806,-0.10359096378805564
75,0.029701797463440094,-0.08032415679942365,-0.13725000175882807,0.005595563808155457,-0.02646350227830253,-0.18408942573039822,-0.03891003473894625,-0.07229582692332452
76,-0.058058497450753435,-0.07578256486331429,-0.14499153210106422,0.136262701824192,0.055327077095479106,-0.2150507853388298,-0.07097402225559722,-0.11209245417463329
77,0.027738568286315518,-0.07120055287321439,-0.10570911409140442,0.01811564413354863,-0.032232249613863,-0.1891344001930519,-0.018490460017102528,-0.004480077921801773
78,0.013426102912745763,-0.10665702615155603,-0.14636118430430178,0.11141279684005662,0.012308712646825537,-0.17612712770378633,-0.04663969203240316,-0.0840888564585345
79,0.011140075499354113,-0.044113036217175904,-0.11729835005707699,0.10728507808039954,0.01825800933094868,-0.2161453050309086,-0.030821441235352853,-0.04931584719545881
80,-0.04340570463945606,-0.0876087488659766,-0.1393457076455606,0.03749490618599391,0.03534083359180821,-0.22596830223937614,-0.0201446935514058,-0.07365914404062308
81,0.06070967946892766,-0.05647573225388003,-0.11464149434760978,0.10324059018782464,0.006874663850599117,-0.21325790851427248,-0.05162157770936557,-0.10718562397016977
82,-0.028427639747777678,-0.11515941291395528,-0.1566596206280686,0.11224439369401301,0.03762336146620054,-0.19920475013062489,-0.02365755963619516,-0.044366950208478445
83,0.088575565053579,-0.03908093017917594,-0.1264938353037339,0.11749559099584617,-0.03245640338117556,-0.2245882553983362,-0.08832867344667675,-0.08235698575990796
84,0.03611624118096163,-0.02138202842755637,-0.12976584273610614,0.04709628971292884,0.019508357446525668,-0.2029135281365659,0.052469001979882954,-0.1395595087606189
85,-0.024125993844510946,-0.10784582050963636,-0.12791064976258804,0.037026238187428714,0.056850999744470374,-0.20306717482101794,-0.08530382585565933,0.006049319071834189
86,0.029191489060744202,-0.05171573130413042,-0.0647616024146288,0.03961004511991223,0.01831484322581728,-0.16671013163522327,0.012687721007738711,-0.1126426025492633
87,-0.001585119080255326,-0.06778661494429107,-0.19784636653038956,0.047146649215463424,0.025694178633706828,-0.22704794396808373,-0.09361994032014449,-0.04315185804276639
88,0.03339912848886187,-0.0890956445575969,-0.08827786189212791,0.11517750022411583,0.0029556116639740913,-0.19167132419309021,-0.007351684923711799,-0.126831637058162
89,-0.01841438575448401,-0.0531873671873583,-0.152125957330945,0.013330918031330047,0.005008721484116185,-0.1916560166917915,-0.026602965552415855,-0.05528392681295452
90,-0.009245733482617313,-0.06431220543623294,-0.15139697016238624,0.05688566341192003,0.02888801515258324,-0.1691811254315418,-0.044693463969764306,-0.06479295094611712
91,0.012787302257332933,-0.06043183412112568,-0.11748363578805832,0.14061185644833799,-0.00832152436196347,-0.24827930607383536,-0.05124483249340299,-0.06429017306129683
92,-0.0017486085274917296,-0.06556889012463178,-0.1336342721216289,0.16650258884446792,0.038425423199537886,-0.17261493239991324,-0.05147497200411173,-0.023666764106729774
93,0.024770149291197252,-0.07659953702752734,-0.13135592510100638,-0.031148867150021242,-0.023084383042255102,-0.24135722864105683,-0.03947891763322209,-0.08382058668543695
94,-0.009423211371705958,-0.048096551542088875,-0.12097372688387888,0.06723453911985183,0.044579597739898016,-0.1763604379195632,-0.03832704768756069,-0.11308924138401732
95,0.0245222311234036,-0.09478477851079796,-0.12669494944985782,0.07529816066902306,0.004952689818853339,-0.20476422956594453,-0.02188679428881543,-0.033735442904588325
96,-0.04576905343592527,-0.051668975085190055,-0.14455135301803398,0.11454647002373503,0.04153430428041731,-0.18302119476399697,-0.04898450196104144,-0.09194629183113348
97,0.1134844321085178,-0.074580207417829,-0.11267841870293663,0.038985170699439214,-0.003207602568730244,-0.22927495575833798,-0.017704026865657196,-0.10971312830318421
98,-0.014711772601661732,-0.0801943304026202,-0.18838182643873283,0.12945997181716243,0.03553748994821059,-0.1963342338008487,-0.056861076281657166,-0.0967282403285416
99,-0.023934607360327737,-0.047358117734777085,-0.08637932699191805,0.07679846441139704,0.006032794338324262,-0.1819760235580634,-0.05746900966634659,-0.06812682254382843
100,0.035014145885515546,-0.10637187671296978,-0.2053862857781466,0.011119684619759651,-0.0015770844232746509,-0.19831708385621635,-0.020366383396205223,-0.1495813112564694
101,0.005765807993059757,-0.09087167475247193,-0.201585763847144,0.04105399453574646,0.0014795205690534552,-0.2584004545727339,-0.04562729398001593,-0.04633300707339576
102,-0.04203179304669258,-0.04170644396267459,-0.09844980698672337,0.1106710693705231,0.03155366158123903,-0.2445658452078177,-0.032429290725316515,-0.057167804989554497
103,0.026736279229337856,-0.06958268175172039,-0.1850888396716186,0.0700680560077072,-0.007890167401658477,-0.17122653718053293,-0.02900264806686939,-0.09591151418254794
104,0.02033264118648187,-0.048684367292264705,-0.16318293714907378,0.054511826025279264,0.03588538186100834,-0.23402308357076046,-0.06346479145454649,0.006531222956529133
105,-0.023864589200903813,-0.08822716528248854,-0.12388765697940249,0.13924424578934333,-0.008200635712715593,-0.164999889079442,-0.048791810130087265,-0.10541074658663402
106,0.04046834275289515,-0.105537504288417,-0.10865587081907394,0.03830562324945522,0.06615786338324747,-0.23161809900694488,-0.061146465169908445,-0.06653625417158072
107,0.06629025974843,-0.06168367153147729,-0.10436911393065003,0.1365834000958855,0.007392170607991515,-0.20693459417153948,-0.0563973376398699,-0.08361730435234412
108,-0.04447205948047711,-0.07616509122958239,-0.1747311902405124,0.06286977964563245,0.03342170119287617,-0.19982954341279893,-0.005770342385934546,-0.005515217905748854
109,0.04640611460491684,-0.09447330492783235,-0.13870066243500528,0.09060059805645199,-0.020578149375483655,-0.2108782457470449,-0.08159192310807643,-0.13641132302486872
110,0.01194524131701577,-0.05635473954518852,-0.1686204865455266,0.023376724495464574,0.05901681734100633,-0.17566761791080382,0.008861303235687623,-0.10079893910509552
111,-0.008535044858729718,-0.04266356455793073,-0.07147459290796884,0.15587894139212544,0.03566715312502634,-0.21568073977048796,-0.06127015093391544,-0.05528537979862776
112,-0.02969749627110524,-0.0794257512545394,-0.12494052670155745,0.015277561389404976,-0.015039073283184518,-0.2126932982779242,-0.02989963777857807,-0.07718139493826452
113,0.03784219035258335,-0.05887843663070375,-0.09332210523194882,0.11646177860404408,0.03925064845532434,-0.1874202218784221,-0.053608561355941026,-0.07214941500695007
114,0.03579366519164015,-0.08988341541605069,-0.11423045158196138,0.03450764585546029,0.038126076490767255,-0.2057839814489003,-0.05124107430592391,-0.13747925709192527
115,0.058751890327899986,-0.08338488650560619,-0.13669994173445688,0.12213615682916928,-0.005056443003001478,-0.20880541152618032,-0.04186516474354658,-0.04404961619802788
116,0.031755475303719194,-0.07391692627847231,-0.1276163987070505,0.09860985230581801,-0.0025688646000189778,-0.13363583881521582,0.0005191672739086745,-0.061934453525430616
117,-0.008920546192876189,-0.07670598103951695,-0.11035279339181045,0.0935450884653306,0.0028629496698850884,-0.2228666261687599,-0.0754323326582592,-0.14801511005409923
118,0.0016858084558759312,-0.052487170394211594,-0.1435117260988617,0.09125273870988329,-0.012544604677640368,-0.24883583899568942,-0.08914305111808829,-0.14382147115964503
119,0.020335353252399158,-0.0993951158103584,-0.18651557493677604,0.08108316754303213,0.04349480759854107,-0.16711477734211896,0.03336150857296934,-0.05566559205066472
120,0.02621487452793575,-0.06198914946276682,-0.08040227361024507,0.026095466301237963,-0.024012358020868083,-0.24723617553703087,-0.10859921993198698,-0.13062238756048108
121,0.13208785237418905,-0.08457794423369713,-0.11661519047390276,0.07806435073380927,0.03901667747982417,-0.18225874458829963,0.0162751827275405,-0.03709956044409866
122,-0.09974966509962585,-0.08655735823581913,-0.14247629285071733,0.05439941824997552,0.007942263099641751,-0.2300376231741909,-0.11192379847703499,-0.07528503363088554
123,0.07602701197198936,-0.05347644734958054,-0.16623489742279932,0.0011535502277485732,0.041962358508012866,-0.18186133913269753,0.005135210169925283,-0.11444795208765826
124,-0.0026309225655428703,-0.08134196788105391,-0.102960347455438,0.0773612449717697,-0.06382411413994117,-0.20991459826478615,-0.07047027711626501,-0.022231968541840397
125,0.06363022497698034,-0.051429460387560244,-0.1400818105792501,0.1894410227223686,0.06626351658308614,-0.20154553225911992,-0.012873282992055604,-0.09732096389764083
126,-0.009976577196215614,-0.09238559440866626,-0.15871055251636726,0.13471908527485477,0.00617904006142885,-0.23548171360536235,-0.07781256678556482,-0.09131878403252315
127,0.0626803752229417,-0.06909551166004285,-0.1105424317726923,-0.007273313511204277,0.004482902573945482,-0.15947775756607757,-0.015070723664783195,-0.08197440655844465
128,0.15608692562427914,-0.028555507772040675,-0.14044788923274462,0.0516173500709948,-0.007757392439418677,-0.2172463576226535,-0.04784767294038998,-0.04415910733343603
129,-0.010137914969492151,-0.07820273517949898,-0.12565966341955268,-0.016187308897015362,-0.022562526874062704,-0.20342990675532344,-0.020606927102450073,-0.08434168921996898
130,0.06780650108682296,-0.07291955577725438,-0.11701563072224702,0.13797134103622583,0.06188900646721134,-0.19399759140897163,-0.03726008477931826,-0.09715898846508599
131,0.05819846450471583,-0.10120856128159705,-0.16345270691080846,0.08797314007783658,0.026948864591832117,-0.19461889116826664,-0.012365597808010512,-0.05481394342049647
132,-0.02742347885106805,-0.0532729266566633,-0.13745597380485028,0.10894829804967365,0.02161485422318894,-0.2274742480636226,-0.0582922200389432,-0.13336420259580373
133,0.17012654255242562,-0.08240394135409183,-0.12105900103648601,0.008188695479979635,-0.001676743868298726,-0.1891457974428425,-0.02511222257579758,-0.04627322677617776
134,0.0005245771787022735,-0.08860965610658113,-0.09863229747701559,0.0793464913641827,0.006372229221882353,-0.18507629706073808,-0.01763290321601632,-0.13745143691485262
135,-0.02415035495789461,-0.06547964725722943,-0.1874880658304094,0.012865004091730747,0.014402425792207865,-0.21933381676979607,-0.10402967015934254,-0.006583348869009081
136,0.057455977780510814,-0.15125198539516668,-0.1986142360368007,0.0729456028052858,-0.015621364767723099,-0.2247138702051225,-0.0471236639255584,-0.020842751077795978
137,0.04785160262176677,-0.14772048588178238,-0.13973357404509673,0.12936480245201826,0.01837108859867697,-0.2671301103802462,-0.01596322532805812,-0.044700597027263145
138,0.06109404495603307,-0.030693775275824578,-0.14378749213551428,0.18594149915792763,-0.04483122151027298,-0.14768819170569983,-0.0662114626809952,-0.06828077698585193
139,-0.0049047371795697126,-0.10429612195898949,-0.12631119017129785,0.10929855091883495,0.03918861871907249,-0.2528184724277375,-0.043822254992387344,-0.08774344347622605
140,0.022825190070171253,-0.03727191050006855,-0.10328671723337875,0.11701775856913849,0.015888808390918968,-0.15301973163977187,-0.06704602892568924,-0.05644680080253342
141,0.07421615177607907,-0.08705664282456968,-0.1447789835715933,0.03509679563644727,0.0030837918358689155,-0.23607773997907516,-0.010940335372851162,-0.17395629693071984
142,-0.05500226352896723,-0.017396572504013042,-0.08268073935989131,0.16831691003148433,0.008404692743236238,-0.19452046116343047,-0.0956027992870981,-0.0004428872515223267
143,0.04723708890816919,-0.13487292088695318,-0.1358941260315893,0.013272858219689473,0.03410045358157057,-0.199336611530275,0.01772127067358771,-0.07034769823371478
144,0.05524630614175838,-0.08550316714953035,-0.13896732537291412,0.11507735310001269,0.010579748108455458,-0.20114726804713545,-0.06256072330172079,-0.09227729267973334
145,0.003707987462632789,-0.04657127114358299,-0.12409770380780251,0.07620117291826622,0.006967238200549431,-0.23514362175487907,0.01515497496185396,-0.18980488984760707
146,0.06500065991369833,-0.10574959992670162,-0.15272912263476476,0.0912066515746823,0.029254757519920425,-0.17237174540025946,-0.03273682025735168,-0.023880294230476905
147,0.012459266108118011,-0.05840559438625033,-0.14643240936907354,-0.05838764539979918,-0.010605735637916846,-0.21956301193745853,-0.060937209401013645,0.015295522634207616
148,0.03610330479259627,-0.1017330852921928,-0.0827339529942906,0.005072631885667422,0.009093511445485215,-0.2024771337846316,-0.026223462746754994,-0.11819977153810718
149,-0.04151924404741028,-0.030362307982259584,-0.18231899940962365,0.1254914787272006,0.005119890524262226,-0.22432068874037142,-0.02671353151816605,-0.18596366603464934
150,-0.041140182052607666,-0.023117697370296335,-0.18127558643640232,0.12043519785818217,0.005110444465855658,-0.21416017604966983,-0.03719134294409093,-0.1970276421564961
151,0.008483994931390237,-0.10456626913172293,-0.081289041346798,0.11016576353958993,0.046447383971588714,-0.2292359256347311,-0.06725074570565509,-0.021922620551385316
152,-0.016982793890553016,-0.050237990612639456,-0.2396578352076827,0.1447049513871443,-0.0006763183741769329,-0.17428412392100112,-0.06837216622354507,-0.15048336219211572
153,0.01358917543132937,-0.12016042905039859,-0.10931776939964688,0.05451431788255581,0.043238907288807985,-0.19127159908712627,-0.0871725385447402,-0.018684953555400258
154,0.05400413277034441,-0.043917578030029936,-0.1734780216817526,0.12429357841987453,-0.016896176307642976,-0.19652797243691894,-0.016927331645986518,-0.11116619078811797
155,-0.06933741370474608,-0.10023723417916292,-0.14545425259597158,-0.035366188048497574,0.041995379174821976,-0.19682977878769176,-0.05774845103906934,-0.040963607300890756
156,0.01402664942602394,-0.07399085611189204,-0.15181471728296034,0.084434695157655,0.02412928631060825,-0.2164333360441196,-0.016160238824875606,-0.09981423785355834
157,-0.0833137003746855,-0.05204034420934825,-0.14264484989180032,0.03420148970354825,0.001655152570016201,-0.22489347891316824,-0.0010145501688461483,-0.13389399097739646
158,0.12606211981840912,-0.07801210113204037,-0.07798538556415886,0.03176377925315731,0.04538680595693516,-0.18210551367838962,-0.08202842814509895,-0.05411047130397423
159,0.11708864329435859,-0.08197767910035639,-0.1319919118948264,0.10503795974516142,0.020546530679886967,-0.2385908385392241,-0.07361483719292895,-0.10916862686358533
160,0.08923630255759801,-0.0915868759171772,-0.08311177952736061,0.06889663081886399,0.03789543150602051,-0.21108655097416457,-0.05194874948629197,-0.028975595951333415
161,0.10373425277947654,-0.09799467544899007,-0.11414662875567529,0.10492302142507164,0.03749216483688087,-0.21206974990529148,-0.023561572089663113,-0.07978179381856311
162,-0.06429310643966732,-0.05850510762620911,-0.19283088577344135,0.12218217050294078,-0.0009768875939222162,-0.1985694435935609,-0.02970874605288415,-0.07628561518262515
163,0.08523918197997779,-0.02049755991939733,-0.16963230609468577,0.09254272662428192,0.050020030696185935,-0.20622959938729893,-0.04089657340998834,-0.1942383164547541
164,0.004317620530564642,-0.08063230826731702,-0.1828884821006389,0.04525162872749772,0.03281425090199212,-0.21021542881429967,-0.05894285723430098,-0.1364582548107604
165,0.04222787635091499,-0.06965246948842642,-0.09245192917895972,0.04863161124433529,0.03735209383187589,-0.20140031236943068,-0.027612143744229364,-0.020140524056941295
166,-0.03450074158448346,-0.08441120519427746,-0.17830945470323312,0.0694407727481818,0.011711762431886232,-0.1663029603817544,-0.06049332468001613,-0.170449069078161
167,-0.014130500556820219,-0.07013494315086097,-0.1702319579435735,0.11153329304379814,0.011927132764230606,-0.1770737077659023,-0.04146355449961141,-0.16167734186511284
168,-0.016497559065903916,-0.06202711090477137,-0.147047417559618,0.12681762257970883,0.01333859870340691,-0.23879733627870245,-0.0771157529090304,-0.0003243160458232964
169,0.021689943203786755,-0.08319561790364793,-0.10997401316130866,0.07933377700932778,0.01796094035171523,-0.1750160344766444,-0.00016315905942666797,-0.15256206161188046
170,-0.025584695628036114,-0.05693477330630973,-0.12566205749136705,0.1100124751108576,0.01048811404278558,-0.24456809791164197,-0.06528689591393294,0.05373643622967124
171,0.016126925835049627,-0.12033890944670868,-0.1515677168310161,-0.018356601455972066,0.03944504069779853,-0.19696835289421236,-0.05773324809825488,-0.13367677727718036
172,0.0008352209244640307,-0.0024520888608834633,-0.09843304597922914,0.06004630518849455,-0.0226649462802728,-0.20873629181061495,-0.03391137474221567,-0.1110842919989991
173,0.004680728189955824,-0.13274362700562115,-0.15369997935735777,0.12017427828929604,0.004930434563411948,-0.16154836474543183,-0.04311740259652476,-0.06256105179439947
174,-0.005561962525357206,-0.019919408321643878,-0.12958760294134128,0.06390233703265066,0.0275315611819252,-0.2490803726669395,-0.013532577667310502,-0.1330483567678044
175,-0.005906725689519915,-0.12302172986769654,-0.12180058899131894,0.06133480172125266,0.02896598579054476,-0.20104977737049617,-0.061801757933940646,-0.06188110685466852
176,0.03141594389656999,-0.05658222665802819,-0.15683466647711328,0.056254819531018546,0.017833323218803487,-0.222643538019149,-0.04348436743032402,-0.1341502196244876
177,0.0022041979623942942,-0.06854906281101159,-0.13090133714210364,0.18462411852374472,0.017745731815885877,-0.1842991528840151,-0.031210383565758434,-0.08401581607263975
178,-0.024749674860932103,-0.09225987939324745,-0.11297807418391739,0.03627127944663583,0.006558743921104615,-0.2126352693384296,-0.05431120189342711,-0.040289586400877084
179,0.10768121746765338,-0.017264828998785883,-0.1254587625457436,0.08733717849042752,0.02761786202291318,-0.16916096025782415,-0.07229293573959032,-0.042495324874813854
180,-0.05406804136380676,-0.11836751037988374,-0.1780487406519893,0.12179998054231822,-0.03843029011207133,-0.20000886468614498,-0.01671622633127344,-0.029908524614314435
181,0.12880388230861042,-0.05035818244796899,-0.07768463044388874,-0.032822316746860064,0.05586730178351125,-0.21380079829095522,-0.05845028402249129,-0.14412188492469719
182,-0.0806593129587237,-0.07722051242178624,-0.1718462451516476,0.1239687180684898,-0.045333784980797986,-0.23440640576201788,0.04146433498049089,-0.02685252047307274
183,0.07435345197162338,-0.08119487083008584,-0.16116026120683996,0.06788689880323952,0.07395139086017537,-0.2012665323715584,-0.10290318110855953,-0.12341276789633124
184,0.008997117622881329,-0.0113807426394682,-0.20928141295102598,0.1888675155109983,-0.03065989156477464,-0.16388267891494354,0.018900690316640475,-0.07229008459568072
185,0.045957102984982706,-0.14194510587774883,-0.09708476275894298,0.018939675460660638,0.06385009320895217,-0.24935690475132288,-0.11446928520575232,-0.004092984142283415
186,-0.04250250136180822,-0.0756236049294981,-0.09208507674353278,0.09387562804041473,0.0038592956615524573,-0.17335415965091544,-0.013453526241109529,-0.06499896850556784
187,0.050354167134371824,-0.04116724673893354,-0.06912461906273507,0.12698223586626914,0.026007157702807267,-0.24128742961015,-0.044409795053812914,-0.04514145653555816
188,-0.005851133723189489,-0.10596775542669509,-0.20410030854507766,-0.01546208313842401,-0.004862327912530828,-0.16713473671965673,-0.06247517829210268,-0.06519528751259933
189,0.00949796877730752,-0.0523433935029208,-0.08577093267059736,0.16185859286231108,0.03721523382874639,-0.24114977461625292,-0.03817012113532263,-0.09025430678007337
190,-0.018589468967811135,-0.1230455338871057,-0.20598613874619043,-0.06085209103409228,-0.008491262163103476,-0.21469115110094872,0.012757807746219624,-0.11188539330471074
191,0.09571830994053407,-0.05104682111096707,-0.07484898199398007,0.27338584491020934,0.03375500042078558,-0.20300057786180198,-0.08046726274842625,-0.01805244831103632
192,-0.04240611690279755,-0.08496990979636548,-0.2132419199692033,-0.11945239082029577,-0.024529330409127463,-0.21880653590084234,-0.009526590780447486,-0.108190730616831
193,0.024302081960916433,-0.07539507733318615,-0.08495288347738872,0.12694410047335658,0.05498628097865648,-0.16161734261617147,-0.06699665072475994,-0.07623106343451211
194,-0.02338542377511571,-0.036687682146945365,-0.20144745181432566,0.007201052164571814,-0.015817471927150297,-0.22427258533897793,-0.018160323814758655,0.07688862911488396
195,0.057795872394420356,-0.07631509375762502,-0.08584897038823092,0.12921170521954542,0.020276036035981996,-0.21360708818781884,-0.05093869246681926,-0.18811452759994005
196,-0.03982500046894291,-0.11116423179663024,-0.11720978020241377,0.068671770143099,0.02305973402797146,-0.19225006023984614,-0.07692115239140071,-0.23474148006410098
197,0.05940186682546379,-0.0619290406705206,-0.15288160129067155,0.08200917221967507,0.011121980932051353,-0.2125911427756533,-0.05991437691227293,0.006752006915752735
198,0.07882481695323192,-0.07479087278902243,-0.13947076960213375,0.09413677475586787,0.00020954866576428782,-0.2214305266613339,-0.03207835997077821,-0.06119781964231741
199,0.005078767810382745,-0.09217242768821426,-0.12481163208950594,0.11615614598530899,0.006444845920160331,-0.222361751392762,-0.016196402220474276,-0.14060332393253006
200,-0.04124592301317481,-0.06139124804448068,-0.10045708182484595,0.06518958411123976,-0.009576746707875585,-0.23609572431477577,-0.014408146006880299,-0.06701770424647802
201,0.08305885592102583,-0.07072673549609076,-0.16661021813214952,0.11661948436133415,0.05423147931025673,-0.20457990649154334,-0.00795286149774882,-0.07375890309314037
202,0.03761017618103976,-0.07743380680972474,-0.09876967453962704,0.08790282042651149,0.006537039018413031,-0.19153570150853322,-0.08221440616999333,-0.12488186545707117
203,0.11233252304938171,-0.08764840935258836,-0.14995244218304918,0.16937898090107886,-0.02646453325736122,-0.1970765967527668,0.011760056159482543,-0.03322078540428613
204,-0.049340825247465414,-0.06182329350367464,-0.11440974986331101,-0.018249319587203938,0.045883921760993804,-0.2233153302129367,-0.09377466378092722,-0.0435034287678657
205,0.08166791739357049,-0.08001674450508667,-0.1886796753713378,0.09675232211240761,-0.024747751729110503,-0.20002910742755392,0.01673042953993134,-0.09712177983085539
206,0.007422291981839191,-0.06131469504511866,-0.20856542516394821,0.015610336000755065,0.033780451753720374,-0.18433262859350294,-0.052113023164805275,-0.10100390008516741
207,0.0007869150232318045,-0.06726694430686339,-0.08282762646064143,0.15653278009916818,0.06389398958830736,-0.1953496980881677,0.001515484588248614,-0.0822709194285897
208,0.04056278210814118,-0.07088434295092588,-0.20701327678404458,0.0743344416269216,-0.02620960763745407,-0.17658325012565645,-0.030531516576635553,0.04209503562159897
209,-0.01847670439932328,-0.02371370195807383,-0.10918030789672195,0.05435670592798256,0.03981279087902037,-0.22458731743956994,-0.06198654055429052,-0.12100625226916138
210,0.0756398490321255,-0.15860233919010636,-0.04801728449712506,0.21134107601353172,-0.00020546480943658268,-0.19218673438951078,-0.020969705000958044,-0.0970911232954114
211,0.06755879295226372,-0.0511786427093524,-0.20525859542321293,0.008356616725572336,0.05969321965527048,-0.1499303462981726,-0.04042002852375881,-0.08595059185403515
212,-0.07633050562770707,-0.10290908798402441,-0.06589394232175011,0.12205540633779753,-0.023441330729542503,-0.2631158766006739,-0.040002692378189764,-0.06701280590202541
213,0.00968710468148018,-0.03293847400772494,-0.19786691250397967,0.0196450453302561,0.03820217889268243,-0.18043239323997717,-0.04493792587220971,-0.1628383912597402
214,-0.019097983656228584,-0.12581042715892188,-0.09482263866394217,0.06883764854411667,-0.026842667037326986,-0.22532428581427338,-0.0027746647675730013,-0.06571114890436493
215,0.0013673735232750117,-0.03990065703430833,-0.18984223562308594,0.005042497216487293,0.06399652644588667,-0.2016825948734675,-0.06687463010733376,-0.14657026860259317
216,0.01773061062475803,-0.11626931229416779,-0.18122877615964142,-0.05063105719178537,-0.0016919105884262032,-0.1792295939337803,-0.017039150117592022,-0.01624866169191287
217,0.007704061051831079,-0.0434389731052365,-0.09128651345715674,0.22663550878016517,0.009906747315916538,-0.22323831978995948,-0.07835929333047503,-0.11836431355559957
218,-0.023340507610064398,-0.04581463798668542,-0.0948131134081183,0.22243945294650402,-0.004614957120999376,-0.23527027862763045,-0.09057692199114581,-0.13634420125413074
219,0.00817256274642722,-0.049697903206676886,-0.07060596317532596,0.23043232263200797,0.002742881032875617,-0.1878546469362624,-0.03172113260741152,-0.07908170067306555
220,-0.03630324337539945,-0.09806328933443506,-0.18543596048897057,-0.06174488392718751,0.01136650725437477,-0.23497335313537318,-0.026429574333666425,-0.04019256030872971
221,0.03354260738806858,-0.08589811855622989,-0.1571210749774645,0.17021015824339963,0.0485423307216907,-0.2163068576094807,-0.042033346881896486,-0.0714400145763781
222,-0.01504930939122312,-0.09370916287517009,-0.20594379641707006,-0.007706249049575065,0.032321605067910965,-0.17022844944890148,-0.03874540908111644,-0.04648619303230045
223,-0.005438201395145059,-0.05357476850088774,-0.15300542071228482,0.029234515560053354,0.01809722387448232,-0.22186885464123113,-0.015882781572360907,-0.06138730339574659
224,0.06756649867506184,-0.08053936105739759,-0.13072022918458961,0.03531189971859869,0.026622159705221967,-0.21602899024081362,-0.1049746593397925,-0.12365183571779004
225,-0.055675097701713,-0.07053202513928365,-0.11824485809730469,0.09555502108916082,0.03803799407867123,-0.1958615912161328,0.02289621424419523,-0.03221103890281456
226,0.12313400554717463,-0.09988775367765032,-0.14429994721392925,0.1142986444356133,0.0032542021331464534,-0.20097794134896219,-0.07980337624508864,-0.1022138335148603
227,-0.010655356396427479,-0.03234626432218921,-0.1440180188239746,0.11825359172474087,0.0280468899863368,-0.17783280968214807,-0.002396270521133878,-0.050327116462330575
228,0.01582600229164735,-0.11541261462577528,-0.17207850487765128,0.06514173376855686,-0.00852441697993843,-0.2376593010090018,-0.09234546047246277,-0.12008069840105014
229,-0.024485950977054083,-0.04179116178394988,-0.15196140094472985,0.09709933757550238,0.033257898435852376,-0.1768979492249758,-0.003417195139308188,-0.017363349182469325
230,0.020062021475169778,-0.0441663726132593,-0.1244070488302114,0.17717553305899772,0.034093698567956215,-0.20587129514354457,-0.04362770026810234,-0.19403137040483792
231,0.05961076491875161,-0.04148056799458083,-0.1848165601932084,0.0979185988621308,-0.0060445442262084415,-0.22349125037892248,0.019103557590438525,-0.0521406848861176
232,-0.05866048636531218,-0.06468231438091748,-0.0926631512318207,0.1275105516476952,-0.02510462982431832,-0.190030388196137,-0.001410337594849112,-0.14521092731016869
233,0.04940415940193524,-0.0738256623884412,-0.16135288455447566,0.10854919619788964,0.03653608451228801,-0.20615205393223873,-0.08654190217908812,-0.08662765349836585
234,0.07441620800895057,-0.06694157189544822,-0.1494424297460689,-0.012193368956721656,0.038851681600565444,-0.21736225377134272,-0.029226791505093122,-0.1456177589028424
235,0.09091436282647641,-0.11402992717459937,-0.20328329852356128,0.07508486298590811,0.06922878290418688,-0.21188953947140968,0.03210071813959223,-0.1221548374779056
236,0.042612977086588705,-0.12082385974038382,-0.1950725582675219,0.05577910991816504,-0.010410353245776625,-0.20618023325688267,-0.041721889619948924,-0.09612936513619694
237,0.006927371700791163,-0.034915911145085604,-0.07513207865911119,0.20486302883465005,-0.01291190808789993,-0.24304818632414787,-0.0364129597840374,-0.08179410297505738
238,0.017170502546585087,-0.1295818355237151,-0.19680118013949258,0.004479366151505376,0.0372476579018855,-0.16049599942726211,-0.036522610039610756,-0.0488394085706035
239,-0.0007642193616362036,-0.051433455732775496,-0.08648343284500502,0.21218385251996855,0.003652050838029622,-0.22648685580105388,-0.028991151402574633,-0.1665725574507527
240,0.1194643486829726,-0.07973206173625963,-0.1159668539267639,0.1702839381215178,-0.009272574500173963,-0.20343811295396477,-0.06909042378161528,-0.059211367351461805
241,0.056648347516842945,-0.059516447448547505,-0.1693188410470477,0.1488730857352072,-0.009204559766094071,-0.2408693787818867,-0.08615140037600204,-0.029310214922004092
242,-0.002151273792912134,-0.10723511850767739,-0.08900269077823292,0.07214446022596213,0.051159520865043,-0.1943715770140006,-0.03377267295323305,-0.04918452231808046
243,-0.01026487738421672,-0.036376845257820686,-0.1433018392175964,0.11996652685841186,0.05084634359047881,-0.20683583705156772,-0.08511171188329845,-0.08024242229562743
244,0.11872213509173396,-0.11400334220578262,-0.14761126028855764,-0.025535302629638545,0.004623032898289327,-0.20541460221631508,0.039366343860691655,-0.05133067737297462
245,-0.06765705060686517,-0.04283026196906507,-0.14674371691500604,0.14992127796907603,0.015501306918035376,-0.21467101058927235,-0.09496826162666674,-0.24841133441590155
246,0.05492216620037385,-0.11232279835451313,-0.20095826179268012,0.08781468436997171,0.014324710778561709,-0.23119831040962627,-0.09557134457497263,0.08728242541035078
247,0.02389863242652343,-0.04657111167687218,-0.18052083450243012,0.13693697212719885,-0.025638781030713965,-0.1687653591242538,-0.024458353042045952,-0.16527609043763333
248,0.06279446039373904,-0.07886171777513397,-0.08378641826704858,-0.00870864217095721,0.052296273019521715,-0.2405051498268248,-0.07374180213490578,-0.040859919131397596
249,0.03949389490187802,-0.024383341179528048,-0.16018834221055375,0.08234268476275407,-0.018003686665620678,-0.15744616300799044,-0.05913078390610886,-0.05791999616511886
250,-0.05132865122811697,-0.12745333163979217,-0.1418377975398729,0.08530059841811194,0.06464877660304102,-0.20591778149280415,0.0056001337111110105,-0.056650603465741085
251,0.07950982161348563,-0.02255349379560121,-0.20338315484125752,0.054386353942267346,-0.021913552381997693,-0.19948381769562856,-0.10562286316817178,-0.006507268183438931
252,0.014834161532683104,-0.049273864598271565,-0.08096356829028117,-0.007442952530758967,0.04468578059031651,-0.18831684924264686,-0.09078712517824516,-0.06250626516587386
253,0.003125670053346713,-0.04604810620799291,-0.0937017607511326,0.05806899781549646,0.0354113662374586,-0.1771738130020853,-0.013424601007140047,-0.027714914122130077
254,0.059851836139589276,-0.10915442761026806,-0.15840546575693695,0.09447678578811017,-0.0029071384996520594,-0.2310930268852623,-0.0780149024902223,-0.19075851507246971
255,-0.042746686572430054,-0.04886774921926405,-0.11362941979342141,0.06016286565811016,-0.005531156092663726,-0.18950227916748086,0.0037335820166074923,0.02040289211700154
256,-0.022255196375357167,0.003274172727813395,-0.091177243708357,0.11479101909193429,0.020539893673034156,-0.21551233132364347,-0.05388234868332434,0.04145517609833893
257,0.10614950338253562,-0.07842799580543411,-0.14385690464084258,0.062379717350960345,-0.011948844129748445,-0.22032767168924833,-0.03450586801753142,-0.13429591725033013
258,-0.1457204876615597,-0.08425902166237297,-0.1468447987141147,0.09613287595260245,0.04625006571912682,-0.21238505650155814,-0.03676153449116015,-0.09683760453795803
259,-0.07300558389154638,-0.06973290804485625,-0.10383666351985063,-0.0423697907599786,0.0005408611383471672,-0.20903805507715506,-0.03574779868137465,-0.14932326778557106
260,0.06726043232015194,-0.09027569354282715,-0.10520448692223844,0.06779859848136274,0.025443843247468373,-0.18366484964510493,0.005348532868481845,0.010009447803926548
261,-0.06350417135699529,-0.053014989032304116,-0.17570999386375183,0.042068420026531494,0.008783998262442064,-0.2392908534183249,-0.04597172645224751,-0.11262809174384096
262,0.020526918148122325,-0.053512605129072105,-0.16582173441118325,0.1674924902659714,0.06343752195572633,-0.18820149299168293,-0.09299885386874127,-0.10193049130685283
263,0.06664747927379386,-0.061484765878064285,-0.10890906453961013,0.07318441675464651,0.001040887466480775,-0.22446076357801997,-0.03582682453530439,-0.11488217820537297
264,-0.025823793566231934,-0.08928818056409271,-0.08857309296638773,0.002355961584991517,0.03603751501496173,-0.18355693325104733,-0.03296138960714827,-0.038491497301297334
265,-0.024553578114304808,-0.0831918728489999,-0.1437756716210118,0.09541477115374167,0.0038373496945180857,-0.23969966378449073,-0.0307886524531054,-0.1215506796205718
266,0.06400316936210076,-0.06425988441807798,-0.15084399364030274,0.11786504223638786,0.05068513492245921,-0.16739190948442012,-0.053249850775875365,-0.0626462233586
267,0.011525966611658722,-0.09725729826197829,-0.16094132404981415,0.12848777341288325,-0.026290793911917507,-0.2400647997904644,-0.03344842696269466,-0.129116679183802
268,0.119374486385186,-0.1013355334437875,-0.21647595027632935,0.10536999881735856,0.028270201775256652,-0.18249390120945763,-0.04691835107343406,0.02943659812424811
269,-0.1056805837294515,-0.04388677053422685,-0.11000713619053216,0.044120546719836895,-0.0007642552352410126,-0.2152877741353366,-0.033561366397805686,-0.11792395833966852
270,-0.05338206404250184,-0.083741356893916,-0.10577926520844602,0.11350893812088367,-0.015560477814787437,-0.20749522100217124,-0.043441945663129145,-0.036693662628417584
271,-0.17720684828162864,-0.03376241797558636,-0.05979275430499161,0.04784449118330805,-0.003632098903477741,-0.19313168204991377,-0.08171296512763607,-0.01937378528477529
272,0.1535746069849746,-0.12138288901786676,-0.18751607095624898,0.15172298514815488,0.0302134231475125,-0.19886671973867923,-0.004575502869186093,-0.1859474191778378
273,-0.05107151426058118,-0.037518122724555514,-0.08677569892361486,-0.03302720297723999,-0.017581818737056446,-0.21080525874694267,-0.07372019219634582,-0.12183975276927368
274,0.06459315891946302,-0.09328501936226719,-0.1963049397472087,0.06978090938755732,-0.0010721695549043946,-0.17880911245406766,-0.014427478633676494,-0.10990364658185046
275,0.08607722305726767,-0.07756926541023434,-0.0687480910428281,0.008520236705654743,0.05889198854325044,-0.20632798384470416,0.0002485498988766266,-0.14959891940225273
276,-0.04518491396588664,-0.09988739234101793,-0.13588980527626243,0.022654508654084887,-0.0006177635338355013,-0.19188246146860952,-0.11841929472918089,-0.20390712656642107
277,0.09562679198483306,-0.0342639295565009,-0.14952227911340968,0.00026315122943260105,0.0012463007878890445,-0.2180959008510584,-0.005333623310967844,0.030919607742376044
278,0.08965472072602135,-0.02442587124496902,-0.12108591480829203,0.07681689696616738,0.017627240848598957,-0.1919588530314722,-0.024902719546418206,-0.06439604377839542
279,0.01696436838681109,-0.10336603953476214,-0.17441231362185158,0.0751424282022358,-0.003180984487930208,-0.22060341769313302,-0.08095390268393879,0.008093186927314644
280,0.011663555945215176,-0.08558568531646282,-0.16415470067831206,0.0453450507637812,-0.00019847232201958276,-0.2090348005917797,-0.06689174666032618,-0.033426120133849505
281,-0.010367178945146854,-0.062397951621372294,-0.09494803610987543,0.06753167351825462,-0.0037282878315531807,-0.19698379459692728,-0.047163397831840294,-0.08053228236352988
282,0.0672251421933017,-0.07421879326156797,-0.1600497284481414,0.011877226236010674,0.03419408600174095,-0.22136457591292585,-0.05907136449943687,-0.06673599227709531
283,0.04656244772619994,-0.014240618263239446,-0.11260401206222263,0.0036872599728535738,-0.03344061378891895,-0.19017319101621477,-0.07420386572031228,-0.017696430560812576
284,0.06718626477369619,-0.054332578326116016,-0.1879053757810897,-0.01883377858467397,0.004035759839402483,-0.18981712886912067,-0.011450180389051892,-0.12834427817140365
285,-0.014026447940109293,-0.09321096268409683,-0.06658516625956777,0.00117884017784195,0.009877000670922826,-0.21698690624928096,-0.09039324250527245,-0.06624167538264951
286,0.023471558955923844,-0.06584231671765363,-0.22724278751496937,0.07263610777826887,0.02462927917830403,-0.18523383428094387,-0.01810009486238523,-0.11669008046328261
287,0.04153771170667189,-0.08147895710526465,-0.0836107820838206,0.08069835641194081,0.0001689549743983228,-0.20876930677016425,-0.06684905494816357,-0.09198998313360955
288,-0.024332124462909888,-0.04580370209283892,-0.1535392150214163,0.0862289626327438,0.022950519461665285,-0.19812379446092504,0.004081492491010044,-0.07121405154894987
289,0.06281476980879977,-0.08561540060295503,-0.12166479316046572,0.15623835885659104,0.0035666451329761334,-0.19666842870947604,-0.0783251915799844,-0.1508335865176316
290,-0.029170520307942316,-0.07556488410781434,-0.149972053504992,0.0065850628963470825,0.023306357460607663,-0.2260915639968594,-0.026155089523820174,-0.17712726352063501
291,0.10741221256098804,-0.0986050998012633,-0.16336381037639763,0.1279824524744932,0.022117500013554968,-0.2232766423666763,-0.034081183396216116,-0.05488588418877056
292,0.0963737826742958,-0.10280547193605785,-0.1512169220595862,0.10597557649755099,0.018419660852639224,-0.21617167020509187,-0.04655575980126046,-0.04633843006586862
293,-0.01705587391338581,-0.059744376081528286,-0.1334141006604872,0.03311690204343706,0.0341170634172439,-0.1828943666641494,-0.08161895228754054,-0.11452640133804977
294,0.03610935509194638,-0.11398238555333658,-0.15446280474598825,0.04761686167962828,-0.0027104783313697256,-0.23332536807226106,0.024809054548109805,-0.0444211550243309
295,0.05394232809086169,-0.05777247012883062,-0.11882199647073396,0.11426863400171863,0.03781412476985639,-0.17133261500957722,-0.09084802257256427,-0.08904336779251226
296,-0.09645700572575211,-0.0737277995184984,-0.08032082288464903,0.03450493813934913,0.07323264427665191,-0.18343396809987322,-0.06380880447761982,-0.08543971401435235
297,0.03675727487884001,-0.07904668365751254,-0.20686268639967745,0.058217863184692104,0.00984374196331056,-0.22356567680527617,-0.016339470531326936,-0.164400333797377
298,0.07692011338783633,-0.1149068533243859,-0.11338157316278633,0.12751882783104687,-0.013276948478959926,-0.2082166463126115,-0.04894703491467235,-0.130645506009007
299,-0.0011467429769412285,-0.060244620995135625,-0.16400897089888186,0.08903954215652811,0.0234677728387115,-0.15785517902415389,-0.016842166563934446,-0.09669783042927396
300,0.038611484963042925,-0.12591431312079684,-0.1139530121464796,0.029355437241419063,0.07869428094267233,-0.26719788602190814,-0.043522520905302856,-0.12888997532158367
301,-0.0026560893010708353,-0.036608803374055005,-0.1636907074669149,0.1882179300287605,-0.0332903078380902,-0.15321324015804894,-0.01716955832867635,-0.08863146823355492
302,0.06450815359553669,-0.09593667692778639,-0.12201570617936752,0.06205075328567297,0.0647891991822897,-0.21459763080478422,-0.08630817638051529,-0.19631266010607595
303,-0.01387095621692988,-0.0664057468550277,-0.16859159497920245,0.10442983180214906,-0.05065755710937116,-0.175593616477358,0.0022569318825510637,0.047777775947214884
304,-0.005497143537965821,-0.09475227112147239,-0.12460402862895303,0.056573349421472796,0.0771856789784185,-0.22003101981484197,-0.07572968300810658,-0.20090667404202078
305,-0.011097205435509266,-0.08954205380631278,-0.1448325397719007,-0.008415293576548327,0.0016348596325784157,-0.2177873186768131,-0.036135312981216645,-0.14691929881988744
306,0.0722208544193598,-0.0386316589986676,-0.12295509822463047,0.11560931351620862,0.018995653075907525,-0.18717312642492281,-0.05037581168804399,-0.0006639550433700028
307,0.007613340032995075,-0.10015284055662935,-0.13323622367796026,-0.010075945518313256,0.012150492373948715,-0.19892589820301537,-0.030490625930113743,-0.0953198268831057
308,-0.055437791882101406,-0.09040282022191634,-0.20051740398067305,0.12661720325809198,0.0001990715780993066,-0.20338893337716513,-0.06639460259318616,0.015635529640225434
309,0.024902461048832175,-0.08766021705732124,-0.12754481034271672,0.11918515021263615,0.019454524120114308,-0.21975508143115224,-0.052525830671571044,-0.0834007589872022
310,0.04209485352008807,-0.0522663090296353,-0.1427310518501724,-0.065852225570464,0.02668255243647091,-0.20672048153275757,-0.04128758857206523,-0.11430307651438104
311,-0.009373831559667978,-0.09649465981824236,-0.14053421082319562,0.17903092136426452,-0.01558634906719719,-0.19827417623472088,-0.0485583034212872,-0.09596290290446378
312,0.01583295624280981,-0.09695573244672752,-0.12081164806654215,0.020711721382451004,0.009350548966567809,-0.20906818363578383,-0.060794092032884925,-0.09261860846334785
313,0.02948733035907869,-0.07149860874249216,-0.1236067715680759,0.08590297976856626,0.0037687321357408217,-0.20776450070161412,-0.057350839776461715,-0.13401806954720186
314,-0.026856131933175625,-0.08781117566277113,-0.16718593414825522,0.020383625264539823,0.009435711740050787,-0.22754622667491847,-0.023764149014082886,-0.06742908892653812
315,-0.019968076970922316,-0.09919299833178126,-0.12915555255916053,0.24384460000492086,0.011773426886980473,-0.15637401604542753,-0.05809070056835029,-0.0952925653198944
316,0.04711239006055726,-0.05644519974804163,-0.11632487725162652,-0.03125919775115017,-0.005860997192329671,-0.15790725571735023,-0.029814768883875534,-0.036224519093684196
317,0.01773788733211376,-0.04161262211022259,-0.12026306732175242,0.032196791309452716,0.0418119269793366,-0.198609441301625,0.0039992135693276,-0.039874231540541545
318,0.05458103011973184,-0.1015050307841014,-0.09290007632028494,0.11826208606734684,-0.007573969673480872,-0.19508068838710932,-0.10920434040681473,-0.08072392167311998
319,0.03048821845788885,-0.07113274888186535,-0.18766844960914372,0.08510121938532453,0.04869586059760969,-0.2213389993914542,0.036482083475206234,-0.2066051429825622
320,0.022863497230083435,-0.05896562328684078,-0.11367052697161101,0.0493974564870964,-0.014439970725899934,-0.1868866079041389,-0.11888212406674736,-0.07208379242569293
321,0.027799753551124268,-0.06639846871704341,-0.16715117665010623,0.07547663938415215,0.0821180233231231,-0.22313147404208034,0.025869370791690702,-0.04959826066036135
322,0.030853880234971792,-0.04382871322047935,-0.16987979518564902,0.05219330902191274,0.047706168667216865,-0.22421039612329896,-0.043426787569527586,0.011089301616642427
323,-0.0012688039595612766,-0.1074970195365999,-0.11796884096897378,-0.04678108879255946,-0.013886897959390358,-0.19641227579377352,-0.02217613838175113,-0.05643388064910604
324,-0.03255759995710597,-0.08536797657755796,-0.11122665105777924,-0.0043084891979315865,-0.03927925627466948,-0.23757043967125357,-0.05945025878158375,-0.09395841656293717
325,0.04575165966225536,-0.06899067211723214,-0.13882424226084064,0.18512658132964435,0.04180682572179685,-0.16702621343887036,-0.0299228894898238,-0.1338831973801276
326,0.028706996218253067,-0.08458369415571682,-0.1215360128461671,-0.0019888489012470922,-0.016659172192680323,-0.24122179632236537,-0.05096571011971851,-0.04087833963657613
327,0.01627368495275275,-0.06095869537142404,-0.14927711045489508,0.22652538792348983,0.035862557075274026,-0.17024578917246533,-0.03387178457532729,-0.0567198152963153
328,0.024558605987905324,-0.013578800383654171,-0.16907404607996815,0.13169652745242938,0.0441742904046198,-0.18755090321802104,-0.036453486467843355,-0.09793474622238452
329,-0.003932224129094691,-0.10713005864145952,-0.22298851764210523,0.005797863848498591,-0.002445338008363678,-0.23137169978674682,-0.04778723201420074,-0.1310752036315394
330,-0.060405381912090494,-0.026920652102319375,-0.07980851527213946,0.1361586955148347,0.03537260800467233,-0.17444930146069057,-0.03534595029777905,-0.024975308596232378
331,0.030095490245776235,-0.09084875470716483,-0.1665660892943432,0.14776579284023425,0.007583597123422624,-0.26830853927268,-0.0642695499765196,-0.11079427056235194
332,-0.008862946418849132,-0.03667305065987919,-0.14354447300630427,0.06442970089984984,0.02572134814288321,-0.18080620056743046,0.007093808660773027,-0.07691407947122661
333,0.005775794909962162,-0.11635590475390567,-0.11526954732387762,0.06844534734655439,0.004136030484148578,-0.23350956566261646,-0.1297492827495233,-0.11407187005156715
334,0.005768295795598399,-0.06373857233088526,-0.2066793395292078,0.05779967075101136,0.039271896084170796,-0.23512253283075213,-0.056600799090457954,-0.04025492546341075
335,0.013548723176449479,-0.10343575247607692,-0.09368960953337258,0.1453327479850564,-0.016185235844483923,-0.1967205976923457,-0.033332572754152384,-0.14584341297401546
336,-0.00011502681865468989,-0.06230043282365035,-0.15857169827052653,0.025953285180530805,0.033784756087178874,-0.20972295706902183,-0.03675027026755953,-0.08074878958349205
337,-0.03955957277457561,-0.07455487197849561,-0.12995372686216894,0.05810666287833058,-0.03404859544847837,-0.1911693948188865,-0.06091580349545023,-0.08944668629892247
338,-0.08856781307064956,-0.05508116735936178,-0.09539722109062693,0.07463156718568659,0.03333396087323238,-0.19534494757202184,-0.030625236080629864,-0.12492426830808474
339,0.09618867792062286,-0.16480786846845868,-0.09277829641554788,0.1564355127678299,-0.0008757810053794321,-0.21023812157221955,-0.023287972406426077,-0.11170069858312356
340,0.07038125546340562,-0.04057085945789556,-0.14851768364633783,0.022571500135341482,-0.024827052182876876,-0.1552131372657078,-0.05186091637710634,-0.007713671017843949
341,-0.03403756734328453,-0.09528750551348264,-0.13102330859924868,0.08334311165881567,0.03268014906814222,-0.23211830464192862,-0.046173116414732346,-0.09709200914221472
342,0.06293100938099494,-0.02124056669908181,-0.14367137260206198,0.08614859618147941,0.011339243068241554,-0.173386374833212,-0.045717508420169486,-0.0455613758458145
343,-0.1190016121469265,-0.13097217649204498,-0.1297663416325826,0.08171680412466936,0.031850270603474874,-0.23702696507662888,-0.024887450535447483,-0.05887552633334275
344,-0.08736000860168622,-0.11926600525684013,-0.1661893881609137,0.12861796206864406,0.0714206148185839,-0.23538969890140227,-0.07811365718266436,-0.08638394912565718
345,0.024482570955453697,-0.06702874339427149,-0.14531931199823325,0.1886991908032212,-0.0007621295641857401,-0.18987114310183376,-0.06610424965020247,-0.07863763868206838
346,-0.011209723149416623,-0.09112240926602408,-0.14360537510216265,0.04085066323609063,0.022963006647123516,-0.2284454951763869,-0.022753798853073257,-0.10667132601360269
347,0.025806879717918313,-0.03697698279387645,-0.11741654941350316,0.07620878519098201,-0.002941961513251795,-0.17834978879855642,-0.04270295587413561,-0.05293240056176248
348,0.05841296494540307,-0.06655816664262301,-0.15530411636175534,0.12495420291766918,0.042216955331097726,-0.220386648662156,-0.048998495238502124,-0.1561868192082702
349,0.038865908144795736,-0.07246628642282413,-0.10843603342403571,-0.004443379886653692,-0.025752365537777943,-0.2060527994872641,-0.02929629472281345,0.024678568252597004
350,-0.05571093932605281,-0.07194329880775792,-0.11860505954315594,0.12828037857835564,0.06094802917702864,-0.21766682352506345,-0.04443859895385885,-0.17766276614820525
351,0.06774703524674991,-0.07274901168472737,-0.11833791273080121,0.016633583051395062,-0.041946152975667374,-0.18288839945776292,-0.020121193221340358,0.009905389949802668
352,0.019821982589601217,-0.08989496634851966,-0.1293384782978844,0.135341370194846,0.015480977260009965,-0.2058043003817275,-0.04097408102415328,-0.026156732317869795
353,-0.0038081624816034554,-0.06492937827214096,-0.14254175845796327,-0.028016087564814662,0.011580693213040106,-0.21499873183506563,-0.03878624198504009,-0.12992760187133082
354,0.08894694177698767,-0.09070370034475031,-0.1351668736682099,0.20549710936029547,-0.00932859558782174,-0.19612810306261746,-0.004899199401034532,-0.1376330342141329
355,-0.012351971613924095,-0.060547012285326704,-0.1569542933446989,-0.11881863211411672,0.0423467248395096,-0.1925469909946772,-0.08473272693151566,-0.12478498984572403
356,-0.03213164870497551,-0.08228464107047394,-0.12112572091313904,0.06352044818661545,-0.009775927319292346,-0.2234561115856866,-0.024899135414613166,-0.062081297602530644
357,0.015254932272211585,-0.07148641100581815,-0.17574132116892882,0.111420989453407,0.01637544830779744,-0.19906533635272056,-0.0460940790049065,-0.06819584569168648
358,0.1279181273295013,-0.12487072213508638,-0.18414780207123854,0.07241220768930615,0.00438504210919493,-0.17696255937103778,-0.021822930959117637,-0.06964980982622582
359,0.012505712947992603,-0.05397912585483826,-0.15451985569763402,0.08578220774177686,0.013165447362098365,-0.2386174960190843,-0.031439775549179344,-0.11327911698873784
360,-0.03253259374645576,-0.05278139184703493,-0.1636914697268615,0.08596885679047708,0.004789613010326755,-0.18466630460524894,-0.0295817813419256,0.006038320392712557
361,0.029432781354846144,-0.09723508285841467,-0.1342277358226119,0.04978569472196068,0.02984683654084759,-0.2691813718733034,-0.03858641231679341,-0.1291877729970724
362,-0.029463625814906136,-0.04609435791213849,-0.09739672236934055,0.07116219569884273,-0.03148425232490362,-0.14879689006790758,-0.06018473704167185,-0.0695048988282772
363,-0.010575329069946626,-0.07165667124049156,-0.14997741371686552,0.03599314442696222,0.024170281310113145,-0.23296626177663832,-0.03978695317715453,-0.10784107947652652
364,-0.0013691424546495023,-0.07831357228649882,-0.13133067744667096,0.03813097465728643,0.008434238619634944,-0.1708379667375954,-0.03579624754931489,-0.016958078981001656
365,0.01688290721769861,-0.06408414798737203,-0.11779611857566234,-0.07163716935301258,0.011828178917591605,-0.2294402897722391,-0.0459070007153034,-0.1196909176222342
366,0.03371845640551391,-0.10963408075863498,-0.12817061073015673,0.20329109714368707,0.03978941316672326,-0.17807429592165336,-0.03291039296899251,-0.046079849771532545
367,0.026711507805944085,-0.12859165735970585,-0.20933750813003313,0.16928334993250543,0.026907244663679223,-0.16207488443123433,-0.042697338768893686,-0.07132974359395056
368,-0.04447131935093038,-0.04887512635278183,-0.16505660162927588,0.10847512636585102,0.025697258765455377,-0.20812068123483557,-0.06143290385021033,-0.10929656958228182
369,0.0006339085272022704,-0.09378723419968577,-0.17092532231319826,0.0651327185131475,0.04077536420468078,-0.19214054321813603,-0.02774817057747038,-0.0443836809188313
370,-0.01954751660166884,-0.10425942990761693,-0.17243903276282763,0.11714242059831043,-0.008687043580854655,-0.1602843276919677,-0.09436848660596231,-0.11877436417832535
371,-0.03091687516268493,-0.09360590866456764,-0.20591786556362962,0.06849121678426148,0.045752907606706916,-0.22465835583797378,0.018770903677946343,-0.12125720845739732
372,0.05520502003288649,-0.034019736005807356,-0.11583492344716155,0.04157307062536478,0.02012520336457327,-0.21193709857296264,-0.023945312795270013,-0.06533938161315266
373,0.01210446472940696,-0.031065341039296448,-0.11306964663695965,0.08662056391778414,0.02223469668796586,-0.1679933208826213,-0.034986264501466094,-0.07699731761729298
374,-0.001801168139192455,-0.11159661869099957,-0.11507586292903824,0.04671580685375282,0.01166524494572756,-0.23066705684704858,-0.04713305799751552,-0.04776963417949284
375,-0.044765254158214696,-0.09695569898248027,-0.14154708546520253,0.12488701855142426,0.045314146037158505,-0.18760323007645258,-0.02251091393815431,-0.06837708551017824
376,0.03204726381497233,-0.0536378371855702,-0.09052039125126793,0.10515624453600433,0.0023621976428812187,-0.2004824478725773,-0.031914396060902434,-0.15426445391455326
377,0.018779415403089306,-0.08763484600253002,-0.07982187974325008,0.11316398711626383,0.03184617763467942,-0.23435257946114724,-0.022155135153104966,-0.026840423885239717
378,0.021489952866658724,-0.061560961810438956,-0.13791652192063025,-0.02189305473160036,0.0406481484932772,-0.21505007988401506,-0.06636431723939734,-0.12729875038243807
379,-0.0037019149496103076,-0.032631694054616155,-0.11090404569466725,0.0683595152157899,0.054214762255228165,-0.1812770748671703,-0.019497477029058477,-0.12760267361897537
380,-0.009927680485028317,-0.09218499869306751,-0.15248549630139438,0.0652436895859077,0.0075318330443986045,-0.21700915652159833,-0.00543395970001638,0.02311222806280104
381,0.0761382702560385,-0.032760387596031955,-0.11473869962599115,0.10158147198356243,-0.00870680616066373,-0.17800950552374864,-0.0502507263114922,-0.17311619416172744
382,0.02024094061425516,-0.12196926158435563,-0.1697935844183368,0.03364684990426542,-0.007479624634177531,-0.16860449401327304,-0.031172836249438687,-0.19149732972906977
383,0.07528624191158315,-0.06414061052842362,-0.21104012910181716,0.04862688635680337,-0.0336828355016632,-0.19721007741684105,-0.06628710266450326,-0.17120565103238738
384,-0.04245906619419987,-0.07527765300414443,-0.11447892838997477,0.07175095489833254,0.0257672563288262,-0.19656120530103516,0.00946164294098352,-0.19625488263838115
385,0.07650168056273529,-0.0727775485835264,-0.15791722254763085,0.03499005353002679,-0.014161940334789893,-0.2145739255722907,-0.07503573092002178,-0.0289366236946159
386,-0.03150390922298785,-0.08116495609217234,-0.1217751130533736,0.07602508960459349,0.056879442731751564,-0.20185622750822074,0.011433388293357244,-0.1307203523764619
387,0.04891293703187527,-0.07135239570536434,-0.17510197908050945,0.018367808573636624,-0.04715546053875146,-0.2298218996610608,-0.08720599961178505,-0.11326722382199239
388,0.0418512896571224,-0.08595995056141356,-0.116973421996168,0.11131909076804122,0.0036160750648462736,-0.22579594836928238,-0.035074424683982836,-0.16110185869355864
389,-0.03277213589855593,-0.0531793785475127,-0.18372284287561774,0.07094109726579442,-0.01792853954457219,-0.18178182179121022,-0.06245368873825506,0.0011767572869036819
390,-0.020957004822794223,-0.0771860386052648,-0.07495620743697143,-0.09156568273401258,0.084418771327754,-0.1549543572775702,-0.07419272682055708,0.062323078607167515
391,0.02512499874961835,-0.07523601544831578,-0.1755537503059815,0.18205257491606353,-0.02186014638238012,-0.2323994338858799,-0.005610961299087586,-0.17657467307487484
392,0.12820188652871445,-0.07235448189803417,-0.06121129635755347,0.004707211248242749,0.037058260668179806,-0.21094045111126897,-0.0736701941570266,-0.06317726041020573
393,-0.11332006455626549,-0.043850331037876805,-0.1914543186624309,0.14382088511104205,-0.006284970002674537,-0.1789758310288614,0.000775679506088145,-0.1163883911118658
394,0.13973790872341751,-0.06448115419267621,-0.11322522967913666,-0.019735894049024788,0.02380176435296536,-0.2553426781552373,-0.06393805944024925,-0.05478796405473909
395,0.017216130312388445,-0.09088751382470629,-0.1232823470568041,0.16075586075516607,-0.0128871704785605,-0.16655114995415846,-0.02548198990864571,-0.05027019376606878
396,-0.05651235998307877,-0.052988212126412235,-0.18279368615546965,-0.00809187565636188,0.01744026670191974,-0.24077476126086766,-0.03573236899619141,-0.10120437308462973
397,0.04391702662263211,-0.11994771630990442,-0.1294351510586887,0.15010987213177318,0.007194670189886537,-0.17630762242412684,-0.07171450812502282,-0.06410286833497934
398,0.08758843609451045,-0.0026866463698496795,-0.13867848279359102,-0.02077617890595218,0.05680604533309974,-0.21840532462983034,-0.022914659760823672,-0.1726354302944553
399,-0.05339980571960856,-0.12656772744315992,-0.16730210838523701,0.03307043877254831,-0.02605843306204613,-0.24463343735661458,-0.06029571031210894,-0.042007880125016855
400,-0.0036384723124140705,-0.040655964154609134,-0.06480986206825518,0.1982106204373205,-0.02975551495588276,-0.1756880544280967,-0.021094983510887344,-0.05130829026020896
401,0.03604229195293637,-0.13184183824469226,-0.22429703688478825,-0.02178862716214891,0.057340750053111754,-0.22623799265760147,-0.05996361013399809,-0.05432633681748462
402,0.05053060597931658,-0.011583293262919174,-0.05358183966437903,0.13720030755195023,-0.007319570870901444,-0.2328178584286838,-0.02961803870049101,-0.1820773083207413
403,-0.06581596577895238,-0.1392346024429209,-0.19274625693922828,0.11370804184681582,0.022541107903395162,-0.18988606932340985,-0.0367702166907167,0.0027988089082210676
404,0.11320518555857179,-0.010041361708431566,-0.09261818179462451,0.07067581116904367,0.004143014358343226,-0.240582753798315,-0.03253358230224919,-0.1626998113272447
405,0.08988748281725917,-0.07699315518359606,-0.1300548895129886,0.0454361570589962,-0.008392186039883686,-0.2272642031048271,-0.03439500834145354,-0.08924349721214031
406,0.09176214745636069,-0.08157618498032704,-0.18144523046301636,0.041860091977607816,-0.02441739698665353,-0.1959615704688153,-0.03182832124333158,0.01675849683163741
407,-0.0835722463607253,-0.06615183181882597,-0.11537732339771198,0.10711341087361861,0.05523346206732607,-0.19463070512380298,-0.06877108386220206,-0.19658078596253703
408,0.04975620342911266,-0.09343632050649264,-0.19569062305227128,-0.008834636191795198,-0.03930630093903715,-0.19760950302999467,-0.017652304150033937,0.0031242131881716734
409,-0.021140800415629435,-0.046988725583663855,-0.11064647954677352,0.058760726650630424,0.05986385391200359,-0.22083867676566105,-0.07680383972591927,-0.22714448440067708
410,0.041458772319166476,-0.08133517165348245,-0.15810075333682802,0.10137006915026556,0.007451407055266904,-0.20340315726374236,-0.028275914972519287,-0.0872395992032303
411,-0.01307538516020798,-0.06475723365205141,-0.10985250059910526,-0.0010851360247830233,0.0195346303892708,-0.19820425176849293,-0.06829159090180119,-0.2176784273134688
412,0.0318596967134972,-0.056272052265765836,-0.10325503222921986,0.022015532919931635,0.034141480523211684,-0.1969212014733232,-0.04766411835359784,-0.06034101817466443
413,-0.0538190858650171,-0.08814461519686151,-0.16809334035034268,0.22063770270210437,0.007104828590262194,-0.20347426385263723,-0.027771691771516838,-0.13965779762451525
414,0.08017973925773866,-0.03142537673314646,-0.0767906101961669,0.18951897794124267,0.041121430634021856,-0.198199445779209,-0.014459730540693577,-0.10665627365903355
415,-0.04872959479050304,-0.06890383945753498,-0.12029071386075316,0.13624977837845662,0.00908670991532523,-0.16422759193485054,-0.07216589056325455,-0.11450293009418007
416,0.03426711663038823,-0.10210569424946608,-0.15770481148263743,0.010896281755992582,0.06212518520390402,-0.23438986769238743,-0.08558706805186149,-0.07988627479951721
417,0.060675208599085234,-0.05947878546215151,-0.1361357767171354,0.1163890979133583,-0.02149700913712639,-0.17768662365568832,-0.029751475659669638,-0.15489964366007034
418,-0.009888828577033076,-0.10005946534193019,-0.14548194296741426,0.07090936623656419,0.044788621807796095,-0.23234031574907896,-0.070331370657194,-0.013741029057159668
419,-0.026866032580438154,-0.046502500864767114,-0.07585453694554363,0.09518725143034087,-0.015202792501171767,-0.19142133917097684,0.02976224970588528,-0.06397073593766806
420,0.05709075651097931,-0.1299356776284244,-0.19234486623421565,0.0822079666148614,0.06814788297057126,-0.22521706443340028,-0.09378436475412397,-0.0837045698610414
421,-0.012798912461455259,-0.02459185678974641,-0.09319656944318325,0.14074321180079824,-0.030191697678706213,-0.16645429085868707,0.016168519466331778,-0.08678657352521875
422,0.14316461642880232,-0.10205564196604101,-0.19633655441432857,0.11774193998198161,0.07414249595743441,-0.23944363866500815,-0.08785505096425683,-0.08372578533344588
423,-0.02538364556879158,-0.06400781899681306,-0.10917079439494189,0.12491889622601596,0.055268716449864454,-0.20575853111006656,-0.027682864034327,-0.09985636531307926
424,-0.04240591885683795,-0.10635652823565195,-0.16053027537586276,0.11880146175773774,0.03772700176952397,-0.2234008635753243,-0.052402544122407496,-0.14521912162813916
425,0.06537126230050921,-0.06435394950716355,-0.10278779546002313,0.02511638573793798,-8.273279709663899e-06,-0.17621969258025286,-0.03218871178220867,0.004168077460186798
426,-0.061924100966786466,-0.11534049133780983,-0.14855993666811376,0.07224114922950764,0.04710330078348569,-0.2576501003510132,-0.07302826849844063,-0.14460861584504
427,0.05816311962454826,-0.027349757302086625,-0.10932807634921812,0.16627626537614074,-0.009056900543222047,-0.18361958576252724,0.01558129710450687,-0.01798517953548568
428,-0.023259089708332306,-0.10433405728026561,-0.17892455086844875,0.05627614318434884,0.030417517129301297,-0.22913615834113388,-0.08245953328958784,-0.17184449083482234
429,0.004488685118950508,-0.038493921374408956,-0.10714855675664263,0.12045640442400916,-0.01364688410470511,-0.18720316192817604,-0.02759889960510302,-0.013862458567864042
430,0.03978056577471592,-0.13059141032717161,-0.12130597610233076,0.09474861273650195,0.02752926714697068,-0.2107732546403634,-0.03819657996669566,-0.0699229419841233
431,0.01837924319742673,-0.015437559695464023,-0.10907962362437319,0.02977779270136821,0.016642165802449305,-0.23376450415622943,-0.03535760213251807,-0.13290430650403062
432,0.006536828544410206,-0.10210096012334167,-0.14989558577214998,0.08956577491607051,0.015547152508663026,-0.21314559029088517,-0.037836443893411925,-0.057203765522927434
433,0.07076907239509772,-0.08453965756270052,-0.1586521038207177,0.08881053507049472,0.0001077561626299968,-0.17508830805377384,-0.0054055931381776084,-0.0892449268177377
434,0.03542778424437357,-0.0809263827874597,-0.17390285334401273,0.042163586680722676,0.06770258783441382,-0.17953487534923485,-0.030242850359460338,-0.027899431405023767
435,0.03585348873718602,-0.07655288006000148,-0.09900945815130982,0.1499111556018684,-0.023090612113151776,-0.1956134134654725,-0.096329395342111,-0.1672770074089543
436,-0.007215794566219458,-0.09944107744438482,-0.1796488181240161,0.03177734631506096,0.01932828651311553,-0.21698742115701658,-0.006882113324873318,-0.08264727039430508
437,0.06071927319327047,-0.08513097753225801,-0.07180552963556172,0.21591513182749522,-0.005019618663572992,-0.19813196660723814,-0.08049261303462753,-0.10560305962209832
438,0.025912511506422653,-0.07195306251996081,-0.08680356598540312,0.1966608348050418,0.002739125789892681,-0.2058968277699128,-0.0848302087978401,-0.06546133116444154
439,0.005229026471311987,-0.07681369779177596,-0.14662682449677333,0.13979125098409947,0.01055892698241017,-0.2063576383276647,-0.060569796215485014,-0.016575825060481143
440,0.019769426009867613,-0.04866401866790508,-0.1646448536826606,0.09139944390142904,0.021741218962095948,-0.19071038585404348,-0.06802738822865992,-0.04388524983139167
441,0.017063594550605438,-0.08753116096878832,-0.12714747089735226,0.017779674596852812,0.004814633754598808,-0.2161892735767153,-0.0204772254236385,-0.14754793135140196
442,0.028072210879575926,-0.06190223965738912,-0.11842782200196794,0.14936884753294077,0.025194670284406376,-0.214329370724215,-0.04530764501783047,-0.057757004679366716
443,0.0005050651600461975,-0.08123523991489834,-0.15406926514839164,0.07148940201162618,-0.05089652053922816,-0.21345349229691785,-0.00137254035678111,-0.10438074558019675
444,0.04592880820839304,-0.07429112891144535,-0.14441756266387154,0.04973980256234256,0.06851351485820642,-0.1993132770175776,-0.04980145522380461,-0.05487588828195736
445,0.039440041534310855,-0.10598388853618593,-0.10755400698367604,0.1624668316897497,-0.021549605478089214,-0.22097894008857188,-0.03596468658113769,-0.13044593589640746
446,0.062764715160435,-0.10125513608489817,-0.08820104529960876,0.17078385462607523,-0.002651251140085241,-0.21505659373602515,-0.03331454154465571,-0.11289961954243426
447,0.09912571270218484,-0.1006615731668822,-0.13236222268311804,0.18529873011366,-0.0016139177286018207,-0.2215062347503895,-0.021421937161263005,-0.09925162192958474
448,-0.005567809314614536,-0.07258041805077173,-0.15075453123752405,-0.10042416799740397,0.037811817173361975,-0.18398322712621068,-0.04681430698964912,-0.12672422472276856
449,-0.04110711617805103,-0.08556490392136365,-0.13407962472743792,-0.09429378168577962,0.028373137241370888,-0.16979845658556156,-0.058345258627649346,-0.1580104424166868
450,0.05783697323175607,-0.06257495546651047,-0.11161456669838482,0.1460564962930211,0.018412701738827603,-0.18765845576394896,-0.01861770693605408,-0.025203839440411616
451,-0.027364024668493137,-0.11076202572175745,-0.22606187018108312,-0.007073868781840215,0.0420479255254433,-0.20281010046516074,0.011046210327796735,-0.15058218849306992
452,-0.09182604990270436,-0.1530474815802492,-0.17905446637631756,0.056160052188183485,-0.0014286601913889429,-0.18906253320114658,-0.08797561836736972,-0.08275204517577342
453,-0.0007313592916978751,-0.1462813856799754,-0.04756531812233537,0.14870483908411017,0.00395131396732859,-0.20571812438795598,-0.03825610300018348,-0.012195705774112345
454,0.025603127977963935,-0.1301453984718088,-0.14972794896299135,0.07303956156356167,0.020258475242701943,-0.1953054664088628,-0.0812912925083864,0.009157621707094207
455,0.04879449432273736,-0.03479060676956179,-0.1321777221158344,0.14341456438311542,0.004663151924667389,-0.20107826771259188,0.028140101446526948,-0.11999767158400246
456,0.029269721824011358,-0.07302451924587022,-0.08862330496473336,0.13465387075016172,-0.011260329356969573,-0.19386202757009974,0.01448446115782498,-0.11104494651735425
457,0.05457758477285338,-0.07245027743806366,-0.18424974807517103,-0.08846997120890435,0.024026178088552085,-0.22152065991025116,-0.09897695497946149,-0.04516928099899745
458,0.07710421088184194,-0.07892712957010058,-0.09794746557114722,0.22112519334721117,0.006858345226654487,-0.17910603241852982,0.006750230708571031,-0.09094840947832705
459,-0.05324755703986797,-0.07868411426615643,-0.20091315142216631,-0.12385488392828348,0.013863933990918259,-0.21688739756118275,-0.09487923582433168,-0.08860765747100698
460,0.04096945055659887,-0.06397131493954442,-0.13893169835217525,-0.06446707301552057,0.001182307457445981,-0.23855525371212438,-0.08201377285559454,-0.15619070683888753
461,0.015237865832835179,-0.13039156382325673,-0.09739997621660293,0.08977639844238539,0.027754664218285287,-0.18667763237273166,-0.038266841797523,-0.23976688241179694
462,0.002546489836580512,-0.04667879098463637,-0.11625460104336408,0.15805359005943098,0.003063125731768465,-0.17060980415640797,-0.024024267643107194,-0.014237632167879377
463,0.021066398096735606,-0.044071212514894334,-0.2064791949394626,0.005034487945183047,0.04115474387959954,-0.18039861382714412,-0.05273982403688286,0.009321877781140256
464,0.01967875966249799,-0.07789631536595065,-0.052860178422522025,0.09983085763807667,0.007035616644155966,-0.19481490576289076,-0.018887953497682228,-0.1991932798269597
465,-0.007125662651497777,-0.08250002664714742,-0.19189021899086495,0.08320075852378311,-0.01702625542481642,-0.21940512652565752,-0.05060000321266529,-0.06476687547695169
466,0.002574862345160106,-0.07458693002573685,-0.08348046015188407,0.11630621391847709,0.011753126217793718,-0.18796532921713544,0.0185492286528086,-0.12901171001112605
467,0.02058322428590209,-0.06344279947926594,-0.18687061060319812,0.03858814402935941,0.029119995344604927,-0.2252302504261809,-0.05944657580002466,-0.02170661752454589
468,0.07752443091451788,-0.06654289028661693,-0.11739659729963065,0.0912181485734834,0.004642641044400066,-0.18812984549653855,0.0021756395274961787,-0.12407230589429262
469,0.002894458105700215,-0.08688209196782154,-0.18868484190923626,0.10053753142210314,0.040032176154272375,-0.2202222102568511,-0.04275239952027518,-0.09970223382041847
470,-0.0567418818312512,-0.07787349281505587,-0.18477798412822918,-0.036189069384304134,0.011952051608323066,-0.19670640868478928,-0.04881306425324719,-0.02380556952584243
471,0.07387078739310304,-0.10326649517149326,-0.14918664892680925,0.11219026092823567,0.021669342842219313,-0.2077686481747611,-0.0224196235228888,-0.17194560606066245
472,-0.004522759220484174,-0.07957038445552506,-0.14485946537471378,0.010648641757792704,0.009200693009449784,-0.21465755305040118,-0.0014063185511133391,-0.0625031214548
473,-0.013862747739045944,-0.04489774499840017,-0.13934775465157798,0.09466355739137683,0.012291809506708988,-0.20949515849322237,-0.05820627382412871,-0.044836865025216305
474,-0.008961080918533898,-0.09878119624259482,-0.10635023024783491,0.07657476177023453,0.03536507429966861,-0.17086105071238944,-0.08241826431811045,-0.10302305432468482
475,0.004326805965802399,-0.05855239740049919,-0.16662533154477185,0.09546818317244041,0.007005154663519024,-0.22959344536332899,-0.019539886845948956,-0.054875532391226195
476,-1.8324001611502716e-05,-0.06968099355196805,-0.12950957254610507,0.09555190438096513,0.011029595371970909,-0.18955727557868174,-0.09035754357198765,-0.09504928575039047
477,0.05166517663317896,-0.12577499458249192,-0.1340059438711949,0.051147439667045866,0.023507005672919405,-0.22271345114612476,0.020539257494830848,-0.0609120984552316
478,-0.021889242686109922,-0.03638626224589528,-0.1212278079342593,0.11943075701856712,0.020711886579909848,-0.18882819001396672,-0.11372709105559546,-0.15391574730301147
479,0.025617845798317718,-0.12064971166237308,-0.1657775017525396,-0.014867907041815051,0.0024542591730202508,-0.22729523610978175,0.006284833514128299,0.03530480948709262
480,0.02940408174022416,-0.15675448380080312,-0.09471731793001166,0.1014907007558132,0.010603091489083638,-0.1974082480354328,-0.07475828563361307,-0.1000380257769998
481,0.02352150876624115,0.01693336806407651,-0.13820360532563675,-0.03962038691421932,-0.00017443905006728905,-0.21421145999979768,-0.0022881108085627544,-0.08809077652997276
482,-0.031219128952266972,-0.12027626379453563,-0.1673242419307997,0.13189631528231913,0.03531318661928902,-0.1964398445117999,-0.08178144335930262,-0.021414227328006588
483,0.05089658796221139,-0.04696375876339212,-0.12934629735325037,0.031109899124344004,-0.008170222295539974,-0.22202459839935798,0.019050510990832006,-0.24970993978568165
484,0.02175787772813595,-0.06949902666336914,-0.1323514712712747,0.14037767734594714,0.04377553062513677,-0.18769264528526242,-0.054430876858656746,-0.02647724832619717
485,-0.00025928595819599276,-0.051480251965374986,-0.10526645079450866,-0.0040227117138113555,0.02573065528965237,-0.20286789092364063,-0.02075811785865378,-0.16878631731404825
486,0.06771125906793013,-0.09796182072427426,-0.14655199343577918,0.03023060277859943,0.024333718824627894,-0.216474412813052,-0.047918671148966016,-0.05883947620906054
487,-0.042539938562845936,-0.07345278593493862,-0.0881830419502975,0.13795709685600605,0.012190606465191482,-0.18751816485649506,-0.016607424123586442,-0.07611205265119844
488,-0.04847905969826427,-0.09986899197999655,-0.20987507480518613,0.05948884937236354,0.03246279360985911,-0.21464038102400051,-0.0884118073670267,-0.08914713975173796
489,0.008478495442957812,-0.13874002922149398,-0.10019226901410995,0.08115818944437439,0.00844530611419522,-0.1868320643404099,-8.169544901437398e-05,-0.12752392270283813
490,0.13615080613958555,-0.04063877884444489,-0.2314581803794875,0.12359864070066953,0.00269921788280518,-0.22350478772530252,-0.04222858952151372,-0.05770391898692371
491,-0.0631210063934502,-0.09773610680288872,-0.019819901313527594,0.14618775600558154,0.025917530255982944,-0.20232006157970622,-0.038527914810476474,-0.013907808579081742
492,0.061537786728351196,-0.07021500353643664,-0.1163474675301844,0.07165191425646178,-0.02916442298628249,-0.19276951657774177,-0.025079430567969282,-0.07061922128181433
493,0.050000760537271316,-0.10408587846072474,-0.12583087351699918,0.08348017497983116,0.0020014767954543433,-0.17529943965657804,-0.0482103113835468,0.019185643427371217
494,-0.02846729024418984,-0.031082794587150783,-0.11425782068084851,0.13160393946958718,0.026483954651116595,-0.23359758477989018,-0.04492659739946844,-0.09361527723385621
495,0.07099821621187019,-0.06147894244301226,-0.1552840897591603,0.11830848185638783,0.042868410285582706,-0.1934425928798264,-0.02366334064219798,-0.07930490474230918
496,-0.03541249591727777,-0.07787276729754686,-0.09118129519344227,0.10120604011639035,-0.01231121013944789,-0.21379081666543154,-0.08641317539450068,-0.04009262633865004
497,0.029025997668707643,-0.04103822631588419,-0.1802616751723336,-0.010101547660615079,0.0369428304520507,-0.16414297496640484,0.030672661771959722,-0.08776407602478452
498,0.05518625900047641,-0.09099899142112776,-0.1656961804106249,-0.00253803030458144,0.03110484486282392,-0.1948641173475648,-0.09373014676253363,-0.1922354994226479
499,-0.06894649872147737,-0.05668645294474625,-0.10711870586260357,0.11851540189199644,0.019301572177881535,-0.24199095530354542,-0.0022657793737576593,-0.023822740089697883
500,0.018660155563783143,-0.038193008284255925,-0.14434808793763804,0.09015237452739787,-0.012311341033608807,-0.18483844079072329,-0.09613150537632775,-0.07622917491402767
501,-0.004535869214452926,-0.07409948865859635,-0.09933983943149378,0.030399077509111666,0.024798765319117174,-0.22671436615601326,0.005107974708602872,0.038675646733605976
502,-0.05837140920011763,-0.0943604344723678,-0.1271923469753326,0.004817616205300412,0.007658464089953118,-0.18439555476746675,0.0007203700397299118,0.01501331106297081
503,0.06664730111517037,-0.0462401947786836,-0.218584998352877,-0.0043598466119289525,0.016548532171166856,-0.20370610513555854,-0.03857785432907131,0.004141371295656718
504,0.02068618931614885,-0.09937493314134672,-0.11222843144563684,0.12898456109961043,-0.007045362480807702,-0.22404428971993973,-0.04046579792997035,-0.08851461328188813
505,0.00986195285953731,-0.10345015872064267,-0.10944858930447979,0.20208410490268147,0.00920557899181285,-0.22363815023955178,-0.027746180834500644,-0.09512454126778805
506,-0.00942745398025846,-0.10820684377737305,-0.10095419555975302,0.03364444339143005,0.028706156720936606,-0.23669810189949553,-0.07147540838014163,-0.09318947403793065
507,0.04484119644026918,-0.05416422567035531,-0.17035746239335467,0.15244739809260494,-0.024295487009132248,-0.16493916790634192,-0.01207108080532203,-0.08125369832425634
508,-0.016435275156555768,-0.09615212276627055,-0.08394794165203556,0.0013159702828766107,0.07389367062722325,-0.2277884025746421,-0.07289209533182085,-0.07178324405533834
509,0.09028543397500227,-0.08237036638840062,-0.16227894231841053,0.159470634734868,-0.02946909141545228,-0.20846267526318102,-0.04311881804918016,-0.03123895544538828
510,-0.044982912557100824,-0.06938119473596276,-0.095500263950873,-0.04921735525264055,0.0689074092914817,-0.20048577636943204,-0.046462623509536116,-0.12236778261408715
511,0.07112245944339787,-0.07198183939087137,-0.16357202280097574,0.18906761163726105,-0.021984405303163628,-0.20635286683385878,-0.04896650184933299,-0.05121153575874181
512,-0.0002619205440723693,-0.10497875774406194,-0.14332544115892262,0.20385202715131423,-0.0050937554111074295,-0.17258713035011589,0.009240847406732089,-0.1360071278298618
513,0.004483548012875593,-0.07313107693822356,-0.09129284227762033,0.10320845573065526,0.010317241594232612,-0.2128574343700777,-0.07056692474100247,-0.09953070171329104
514,0.013611877534575323,-0.06995529904430021,-0.1829543384696008,0.10056104288424345,0.017837002430392344,-0.19305693212522834,-0.021347673995692124,-0.04255642880066219
515,-0.01449144868549651,-0.09503754741036745,-0.1203661414672556,0.11048172330760656,0.0071801344818935055,-0.21016716419618897,-0.0773734248932091,-0.06837395202838316
516,-0.019174105884837866,-0.11546232544767579,-0.10371639922673205,0.18568590464958112,0.026759690079589067,-0.2063066244296424,-0.08437315602894267,-0.03553830242162517
517,-0.012007817616385752,-0.03207206679843139,-0.14604644509900452,0.026191439585790233,-0.019729106928690177,-0.19535765974662242,0.004953283764029745,-0.10541842439301542
518,0.08217546843455531,-0.07846407792215145,-0.1100322348087781,0.11544079339886651,0.011217363836777853,-0.23493419629008605,-0.08262576729805113,-0.1220797223613984
519,0.09360263143500966,-0.08831679565699752,-0.13474686218345835,-0.04063664766858616,-0.007371484615960263,-0.20035471406289768,-0.027682903590542207,-0.1606764404633445
520,0.09492476568927016,-0.045116526900759846,-0.18745496355921695,0.005598308738321817,0.019754102741882888,-0.2531305036984375,-0.037867244342833103,-0.07049113633437051
521,-0.10689384575029498,-0.04783775076292338,-0.12914959571285906,0.0014034728316675849,0.028496282423499452,-0.16637269607058472,-0.032279753910891856,-0.18413191731800566
522,0.08455926975612565,-0.04946303455996674,-0.16409136218310383,0.04141811627631706,-0.003957674182001516,-0.2446571500424654,-0.0787513802001287,-0.07776153925808446
523,-0.014324226086814273,-0.08541645240588999,-0.12683143488369278,0.10484757098425557,0.01838208903199178,-0.1893868336936917,0.0072871610677908705,-0.12504088591280926
524,0.04496328050264131,-0.07648536022343395,-0.20100068265044052,-0.02473648599986225,0.009514301536983509,-0.19572300222932748,-0.07683156092217407,-0.12639192734547688
525,-0.10849052196822345,-0.08334602697784463,-0.05145961961402727,0.10327291422174079,0.023501933502698108,-0.23825951808563067,-0.031884668851882916,-0.06762825883990903
526,0.02416530043651005,-0.055263767992056116,-0.1248683583522685,0.02931878178657696,0.019260853327192417,-0.21538484065384797,-0.029525613438932605,-0.025423086285407105
527,0.0048258871029548955,-0.09737128207161577,-0.12172924226271015,0.16592145267855413,-0.00010212679255166245,-0.19535616760445923,-0.04126891700364889,-0.1095358981742968
528,0.02808131030700914,-0.058527157133419536,-0.149806875902258,-0.021292578121881525,0.026789857955830915,-0.21658476264921844,-0.05495338053773022,-0.09818686893776435
529,0.037482365688611685,-0.08645287681907629,-0.1677781862845391,0.03557007584169039,0.007998325785044611,-0.1992073070065788,-0.04534262617112325,-0.04697246008930246
530,-0.013306491374607127,-0.06544282881371595,-0.09266560101401983,0.0669530788852403,0.04735799905554756,-0.20818594627413278,-0.07438149564135636,-0.08122553687703393
531,-0.030440874580127147,-0.06502041281119457,-0.09783743457852716,0.04788838226630264,0.052937345064026545,-0.2002382211233493,-0.07939052728358256,-0.07259187802922451
532,-0.06399117027841705,-0.07571317069417191,-0.18661754799480468,0.07601866712767513,-0.01736246919617077,-0.19472978661361762,0.019880578369588217,-0.17970501042865203
533,-0.01986255844825921,-0.05056131887411518,-0.22348821120297951,-0.022269413417445094,0.026944930074903277,-0.18587581373831455,-0.008304395442606388,-0.24519738404223057
534,-0.013985700484124564,-0.06312230422324594,-0.042027242191782596,0.08365169532401719,0.037567007845857155,-0.1904062533026528,-0.062150096492341766,0.017717430123540448
535,-0.050823868614477796,-0.0454075775334248,-0.06598990206166089,0.11650316099215936,-0.006133110798300126,-0.17023361086672548,-0.016288973922259115,-0.12050552422791945
536,0.03419403160557599,-0.08361127994181064,-0.21914325514314212,-0.014376148756578638,0.07133927337139072,-0.2560043241847697,-0.06910228133795768,-0.06419027527952319
537,-0.00894594845614008,-0.08485979889485719,-0.07174546160760474,0.13157400242458311,-0.03341328538488311,-0.15523269418373256,0.007784320647669818,-0.13013991847207526
538,0.05407582461736077,-0.08899796481121,-0.1555580828219905,0.022696663606320416,0.050325656218340994,-0.249874227164888,-0.07226455834081905,0.00837199166869329
539,0.017398926215217714,-0.04048593256258669,-0.09832358901996882,0.14135239642806585,-0.016278029511195394,-0.20279123937274146,0.032112185361875864,-0.16501310386351714
540,0.003189404872720625,-0.10167640246515477,-0.14690343542396006,0.03811664607344972,0.027239588021743158,-0.2022241596301594,-0.1236639495424726,-0.08130140905508719
541,-0.027309000564011116,-0.04912243644531844,-0.14613284061476656,0.05379311015084626,-0.005996657145621158,-0.21796224364061778,0.0038357988588639813,-0.07737523475683204
542,0.00657030506620665,-0.1069965220139369,-0.14803326491552243,0.017718563724095082,0.03227370792100879,-0.17211803300052145,-0.05068048399634173,-0.012241048869342158
543,0.0049189630851707855,-0.0932219034272121,-0.1286918620317044,0.04326089843610231,0.04033816165550148,-0.19258996686440752,-0.04601918853180653,-0.03481747383740109
544,0.014431855889747741,-0.10175358186579297,-0.1600894965450416,0.06193854855949138,-0.010948221852898503,-0.21659580747921398,0.004639840711471513,-0.1991169331146762
545,0.024582321262987955,-0.034171217112297446,-0.0973477729345324,-0.1597887044149941,0.029590616020093115,-0.20584477023466213,-0.07386568842726847,-0.027231068808069234
546,0.0114911410757578,-0.05649092840887682,-0.15135177646308134,-0.13496995392681763,-0.006679491946374565,-0.20075364657278777,-0.020390481841663435,-0.09894941751958791
547,0.03467005842035681,-0.07811167559355983,-0.058177670576754756,0.13108033211073872,-0.016407592537879094,-0.18430144178382332,-0.003230696912189343,-0.018314625534729567
548,0.010045570382008678,-0.0979889614088823,-0.18602616671252897,-0.027330921699211086,0.024304533237202223,-0.2298502830213211,-0.14568982709165773,-0.12317009866993892
549,-0.003141381605785004,-0.04676836564148099,-0.10587413402269456,0.09416006812026018,-0.007070707268448748,-0.1642567868891809,0.03883808545213871,-0.050465090744139435
550,-0.004930731851228054,-0.021130230688092732,-0.0882823044376737,-0.017034005278112274,0.038679371745085185,-0.16579016980738487,0.009926497156439354,-0.07203861154998005
551,0.10979123852169345,-0.11934925442907396,-0.18029743807024673,0.13785708444678543,-0.003907958942129882,-0.2531285604996955,-0.09635029333013309,-0.09592691144039933
552,-0.09481022594554392,-0.02191205380680493,-0.10012942102095648,-0.006909641486597562,0.02399069508649486,-0.15215732680605829,0.012428449214887408,-0.04614267795721137
553,0.09386342549344673,-0.11120957138369081,-0.17899768034265773,0.17258775865632558,-0.022071457903883124,-0.23190016350965967,-0.048623537657107266,-0.1246973250099882
554,0.0557384400300277,-0.10951300082550501,-0.18550588019588216,0.04287140018782293,-0.03845997188636095,-0.1753774538798226,-0.007058449366226183,-0.02803183212772326
555,0.039817407386997794,-0.05687596947233644,-0.10872880878701756,0.045748088494954764,0.03770616812011273,-0.22827839010250028,-0.09744608333201926,-0.15031861010389747
556,0.014213598362594948,-0.13144464573639122,-0.19919869727490827,0.020565626867942888,0.003988893770482629,-0.18537659654498292,-0.0142089394286211,-0.029119147015089566
557,0.03854478337030298,-0.07284943482218782,-0.08091398386112685,0.20473910696000527,0.02868996386792498,-0.19289886476807844,-0.05750129260789569,-0.15778273603407367
558,0.08621688843725053,-0.06297472097309098,-0.12635865273939734,0.012832489266020236,-0.00464435180391083,-0.21253510396683084,-0.0002630365583426719,-0.034914189649717625
559,0.054112440786787896,-0.1276059746760334,-0.046511270428114655,0.07128532625857492,-0.02829727877020491,-0.19355470014084536,-0.05160340998952133,-0.05824797473840197
560,0.04082109280153459,-0.07651759014354094,-0.17905214061520644,0.0380899578931603,-0.006243679294222386,-0.1936964316854046,-0.036396745950273035,-0.03978911524679879
561,-0.035869733264938614,-0.09553603845005447,-0.09069759143858755,0.1514258491748366,0.027176739212587807,-0.2209972260023238,-0.02910194100700947,-0.14546463937555917
562,0.03930489767291381,-0.09199686623292676,-0.0694258165413211,0.15126667623339093,0.012037085368084,-0.2042863769232428,-0.03242876282462409,-0.1026321777161121
563,0.06854597343098012,-0.11484830943616953,-0.1749909139851413,0.08598275031864555,0.0018919915666120828,-0.22999094867929326,-0.0018196374497378848,-0.002766385971373811
564,-0.009218994513735035,-0.031375200025958436,-0.06685169107720962,0.06484865690474995,0.04249569853767949,-0.1799629879876481,-0.0765718097249993,-0.09009237494997852
565,-0.045299667351884926,-0.06151681972346389,-0.13512104724782237,0.049524810126446814,0.04680114027575183,-0.20355506270174967,-0.027271293710686914,-0.07547890288304299
566,0.059948159138083074,-0.09944633531337058,-0.16397151693630335,0.12190562724830356,0.04764243490896551,-0.20848069458702248,-0.06476404124828636,-0.07576300996538857
567,-0.009965154162441259,-0.05794676567468279,-0.1636588021017426,0.10305512121813379,0.0034056051862484168,-0.21075935741162777,-0.03926031025724136,-0.14756048740812688
568,0.010814486974137366,-0.12273131190219067,-0.10595394567902766,0.08165905298492823,0.031876300442790065,-0.20325890237691113,-0.04525700830601616,-0.08687576837075892
569,0.07299723310445955,-0.08490009622265453,-0.14180157972688795,0.16199123855271982,0.02525664992687512,-0.21695163927042382,-0.04141685676114584,-0.14035986587405097
570,-0.02706419492754686,-0.06359936721881407,-0.03290870041732612,-0.01700933057343887,0.02780037707987875,-0.23872099285168916,-0.06237781278744223,0.04099536931827219
571,-0.015946202850369517,-0.11825833157093678,-0.1465767983252174,0.1368546408111792,-0.009418445065588792,-0.21365156319810474,0.0045428038674316246,-0.1292606319829685
572,0.05993361637176636,-0.06251210335031454,-0.10555068852802318,0.07464287759113625,0.021831251332782107,-0.1848485131291011,-0.08250243551653058,-0.13509172652283177
573,0.033559083461094985,-0.11741397933633742,-0.10590478416285279,0.026276310776251477,0.04971866875309504,-0.20590655543993164,-0.04621606857680072,-0.11144608207534813
574,0.03770411181085759,-0.05249692629084081,-0.05597946031090306,0.056689953750394845,0.021986269982214916,-0.2182472410925575,-0.05298444710050129,-0.08069123545414368
575,0.07909996578935463,-0.1022551719927405,-0.15462498868149646,0.06602706632465186,0.013978788027155147,-0.185359588455082,-0.006915761945522084,-0.052837687016623315
576,0.05800311012238091,-0.03127497142289248,-0.11060097389863484,0.01434977168854698,0.06062834940705612,-0.21597110169104217,-0.007841841261092802,-0.0931730333151081
577,-0.060109107769492715,-0.110640687704052,-0.15262510083579992,0.12826749716551294,-0.006487155525068469,-0.1974426010852747,-0.04989135262459443,-0.16072109070148047
578,-0.0006967931943553385,-0.10362178496400205,-0.16427352039133655,0.16466640664524426,0.06024012946742686,-0.20247290142588623,-0.031903993758263485,-0.1722730998147801
579,0.007344442439685656,-0.06211150166265006,-0.09636452915515073,0.03493118801192738,-0.05021811742933012,-0.188865714864362,-0.041996667285539926,-0.03075203431265535
580,-0.02536498527746947,-0.018524487663116374,-0.11860502939017525,0.15483403886131455,-0.018884144287332438,-0.20143328252426845,-0.07970121675987353,-0.16982850334062344
581,-0.06574828758634482,-0.06794660944353517,-0.1378212874716398,0.08214609960817829,-0.017807247797221204,-0.1786278596749886,-0.07814491398085834,-0.17964717508245842
582,0.09534037855599148,-0.09039223037825035,-0.12287054761408416,0.0782937566192527,0.0465194548492684,-0.2272874036819451,-0.012462663696580153,-0.023422079877648726
583,0.06849969306586617,-0.07118733826616533,-0.18567402258493762,0.03427734891129994,0.04586253477727358,-0.23887064211699416,-0.048817023687538375,-0.058379728537257314
584,-0.04603766589455263,-0.0724975356569092,-0.12545695199969342,0.009516781230965055,-0.025073279731212796,-0.17061400167231555,-0.017231121759154866,-0.052599210891530794
585,0.0383361118358973,-0.06823264518863945,-0.12356824355342663,0.17353202878908236,0.052192411110806386,-0.21442091587107812,-0.06882466423269376,-0.1546761961009998
