sample,celltype_0,celltype_1,celltype_2,celltype_3,celltype_4,celltype_5,celltype_6,celltype_7
0,0.22648659529731066,0.05047244881510066,-0.038248302600737506,0.2213021241072811,0.007120523190821989,0.12308880842116898,-0.08548251088014115,0.1282240969192543
1,0.23560411389065397,0.048932463414630555,-0.017761889422482854,0.12716978767615184,0.03375028052080611,0.12852138484452438,-0.10474233457791872,0.04431518347486645
2,0.18824580559458265,0.04487050965532679,-0.052741323856988556,0.16006031547651692,0.03503572771497489,0.13213553196612168,-0.07994805512135232,0.12168503818564112
3,0.23833462152132853,0.051864392150996017,-0.05336039216549701,0.13882505354388983,0.050417281776201195,0.12908424521141912,-0.06347926163906689,0.10364582943884934
4,0.26529750055549683,0.05383084300919813,-0.05035814446309598,0.12941298316025698,0.01638830963060983,0.12506748037981952,-0.10176620218645892,0.1390880754218555
5,0.17460923935090192,0.09557692184155021,-0.050326246821806774,0.16741253458222674,0.01965784914425427,0.0985290702144501,-0.0784644603021141,0.10855050934938067
6,0.15983756801989404,0.051471402212072775,-0.041004122281389124,0.11997605547434328,0.02449948295225996,0.12046035008422229,-0.09050866080802046,0.05145065901004031
7,0.1299365009514958,0.07981640352524687,-0.026310580413771247,0.23406253948701244,0.027052828257115642,0.11260489207227134,-0.08508530090991503,0.052466189023838615
8,0.21888351065810963,0.059530452597656706,-0.08331879895042331,0.13839097114214927,0.03607943849807909,0.12840655880313623,-0.09275069151094036,0.04031650251506244
9,0.23906937622551186,0.03260193841983287,-0.053502932646597605,0.1330154340336016,0.008399550772795148,0.1277094216347973,-0.09871580087969567,0.030810828508417883
10,0.2229433512355933,0.0467627128505282,-0.043152514014194295,0.20290527612328577,-0.0006860023275543236,0.1265768286823231,-0.09024044748969294,0.17688653498467732
11,0.2136538114183597,0.0378325168612336,-0.056834168194054936,0.10847582237543768,-0.020135345214562964,0.12132986386432881,-0.11602025641063168,0.11733426853431332
12,0.227815625761278,0.06552901229862419,-0.03857530520720086,0.11584871933066049,0.028613347957999725,0.1139951062523999,-0.08403102403973206,0.04242502210068729
13,0.23076450865692225,0.040696167151155004,-0.049120494440139106,0.18335893976643836,0.003680792422057991,0.11644416462819104,-0.11075096948391577,0.08603464483894031
14,0.20823616854039984,0.03974503301564987,-0.06892028587018989,0.15048651753872672,0.0036596746326776827,0.12079149914526917,-0.12517021799836617,0.03488257264823546
15,0.22847965891354,0.04548588711990936,-0.0785345282501132,0.08957733019538523,0.010272708863921343,0.10312368858990849,-0.13795767050056645,0.0003440883610315524
16,0.19343079221866247,0.0630706154733173,-0.008172932874006203,0.20672680263822557,0.013362114738456958,0.12322866627278896,-0.08664002320243831,0.15234361041887592
17,0.21806236956429312,0.07132355279973801,-0.06185191546377711,0.13560309711088425,0.0003770467246537111,0.06854205839276956,-0.12185001633072096,0.09894092771144786
18,0.1975920426801876,0.05358234393196802,-0.014914561263129733,0.20662135596080008,0.004074562341940718,0.13537998917745786,-0.09931489217613326,0.14181276134052914
19,0.16214690020817404,0.023447172647557902,-0.056304196453756776,0.15121938537509044,0.015690711371697152,0.14987362297769852,-0.09464293648170694,0.0921579060730538
20,0.19422491581081194,0.05144516734659864,-0.017747913638476682,0.1250674807618593,0.00961140518228388,0.11692996554095782,-0.13376966480353603,0.08124871814659841
21,0.22857812663947422,0.10643975049574202,-0.032275548729983616,0.11511325460877889,-0.010550101445932675,0.11053462524591039,-0.15157971557532152,0.11546498160436339
22,0.17967217043654596,0.03082427594496832,-0.08100280448795255,0.1753715576080049,0.001223813492374182,0.11007075923541726,-0.12454721420457701,0.11461959948612221
23,0.19826478792217325,0.02257200876225385,-0.08195222139327502,0.1575109050824501,0.00739783916879843,0.11263671300569963,-0.12388711917122547,0.12602686949083067
24,0.14076800011696614,0.008494007705036407,-0.09664923774360702,0.1907662151906405,-0.002155690413154694,0.1264296219379239,-0.1078334359813333,0.12366832410474368
25,0.21716368930638172,0.0579464863128297,-0.004434444626827343,0.15638335811933943,0.012240979548264736,0.11453247394220614,-0.12397708093624034,0.004146602768079765
26,0.15446068774768387,0.051928374663111364,-0.02293771405660043,0.15961795874522708,0.030389044858379767,0.13986320877395622,-0.10730158287388442,0.08336179782781217
27,0.19911100194592216,0.06894447830398548,0.0008626958818390903,0.17418730755712358,-0.010314102358729524,0.12426756671458825,-0.14988156215845558,0.113676791263193
28,0.21454947006485062,0.05131964488059127,-0.04298707513990736,0.15286209639253648,0.005573895791431019,0.1176563910648975,-0.09559827271846981,0.07340892425543609
29,0.26923618369702845,0.025631904602564735,-0.06195635133628506,0.1005479724133854,0.03539296907288295,0.15333999035137397,-0.10818911616486174,0.0930300618717841
30,0.2003683244233214,0.06186629188026518,-0.0929476231936398,0.22766118153962958,0.023004022093725818,0.1365723429704463,-0.10045837018850104,0.09424440452354063
31,0.2186274075716774,0.0361449690362529,-0.08425506676414905,0.1865295752683963,0.035815122955531055,0.14526117567842467,-0.10531318376786179,0.06045374617542353
32,0.24162703285897896,0.06793897864322551,-0.050272415973517434,0.07412742962431619,-0.011281068205294705,0.12481551285502282,-0.11273198084236398,0.15479325755428952
33,0.17751767127055892,0.031273683522171365,-0.05573392186900879,0.11321007607587422,-0.02541106521922318,0.09513027936598159,-0.09861633370257063,0.13111861653031165
34,0.16502825094249282,0.0608239429507251,-0.0571567722362804,0.17558812729066223,0.009735941261241172,0.12184636236792065,-0.12380943004477522,0.09874535774934275
35,0.20124970048675497,0.05652270490002248,-0.06537491017877148,0.1941004741612264,0.024038060907037386,0.10607980065145164,-0.12859058419285196,0.1114578914114017
36,0.16371592816545333,0.06648868082428389,-0.04114510614055731,0.12430478998889621,0.0053043887065001285,0.13232390187171714,-0.07305926732540542,0.11293679567111438
37,0.18475838031579678,0.08426622251244846,-0.06090383488473091,0.10344401174071292,0.022985801027302983,0.14100703279623114,-0.1239926463346298,0.149210966551673
38,0.22908827011995164,0.05377561672872049,-0.02870477625832548,0.20362801178602385,0.02031198594387458,0.12796033882658,-0.08751001538302186,0.14050300324767376
39,0.20999342363397863,0.054517647917016174,-0.0806406827541205,0.23410165960648008,0.0018960961399249751,0.09906852874564638,-0.11694823163551532,-0.001142821320083606
40,0.19005053801453725,0.099491180701709,0.019281734730575494,0.20078944932329493,0.0005761042114939867,0.13555882202838107,-0.09521376449312428,0.03687514971330053
41,0.1598799714515464,0.10090202122560708,-0.02123426290347889,0.18240137295434836,0.02861686108727759,0.09782698256310728,-0.06860327310413832,0.04506946211594798
42,0.14531198299101342,0.07827281922910112,-0.09079104721660632,0.1636318942555377,0.01726322151617933,0.12756429703193814,-0.09240066939713062,0.09330754636196498
43,0.1668051023120388,0.05468402561506027,-0.0536073714237367,0.2624422797808848,-0.011019030229983247,0.11414979212452155,-0.05980614231309175,0.10896918503723727
44,0.19240539598952802,0.03989695723830033,-0.052279055985203125,0.18190859163329046,-0.014194145825325076,0.12453283129334708,-0.08509650600849811,0.09572869807863162
45,0.2305827517913571,0.06625211098057827,-0.03510887932110496,0.09473563924244417,0.011907716465140186,0.14822207947961327,-0.135617411559489,0.07327020990547728
46,0.20680162708001715,0.05411928896163789,-0.04459243539973074,0.1573952473512704,0.014492357768855631,0.11063718298507189,-0.10514998850517852,0.08953981061969513
47,0.19477625088481565,0.06926143495880499,-0.07964091988172341,0.10598483242217917,0.006302591047285762,0.13792566090870317,-0.08522773399941776,-0.03399754530851751
48,0.25547000679431414,0.013893502469899548,-0.04771515115457647,0.20719357555931045,0.014597234842227979,0.09594111550912551,-0.06886720579056463,0.077093236252917
49,0.1616991345852884,0.057799833906262615,-0.04497856136806552,0.16420277900870794,0.034778653124598956,0.1358117885963558,-0.12884945744543982,0.09960579270413084
50,0.26979340593197215,0.010870234725990035,-0.06653536241342563,0.19652151789293484,0.034530333943213434,0.1293117410137195,-0.11292880298518451,0.10301375330918759
51,0.23266024851417832,0.01775659711771632,-0.053866190503745325,0.20299324333594948,0.04281201246253922,0.13598733387715511,-0.11187406557672404,0.11202278033618683
52,0.15544345073120108,0.06306476260990984,-0.0633384470101249,0.12728995855477948,-0.008706628347623055,0.15385919329733266,-0.12001775452183977,0.12235764955657143
53,0.16760696150697102,0.06231659693122199,-0.08395172391186582,0.1869163118644738,-0.018616099888431017,0.13315104507813497,-0.10493652137665731,0.13873102536500997
54,0.1807978769218862,0.046318929540362735,-0.025622818760625544,0.135702018651571,0.01592335112194536,0.12135785680378891,-0.12279240518515623,0.08851561210523277
55,0.14049096738605044,0.0594008126031604,-0.0845114032112624,0.24428151019306202,0.028360093213886974,0.1370556952854984,-0.06687453994964444,0.02844372459025462
56,0.25183230017650604,0.0673942129458268,-0.05642786723415503,0.19768315887707497,-0.02254199784505951,0.11518120462660687,-0.13576636792182403,0.1667978643127937
57,0.1974258291152285,0.033136295657704755,-0.04018547386259963,0.14626553862572886,0.002340770824370982,0.12087350024014795,-0.10739638900662835,-0.0024881377192908574
58,0.18923796228167628,0.050300106040208695,-0.056283593836892,0.12950040521815268,0.027727126057753706,0.1448485854821471,-0.11129267447934364,0.0697639588132256
59,0.21372251296857134,0.0534513308539162,-0.045976578743478186,0.13725094275097752,0.02197343054134774,0.1352856752378012,-0.12240844550255928,0.07961007787194857
60,0.1643605807708066,0.06519204884379086,0.0028654745463121633,0.14760239661937277,0.02824286000966733,0.11065034145519831,-0.09833979931962315,0.09847882857542892
61,0.1863073263598847,0.07429606731863511,-0.020457537245894854,0.195776773548462,-0.0018288050283546777,0.1292923938789751,-0.097039600445643,0.0744894971668908
62,0.20798867794740103,0.038152495118571876,-0.02340469513288118,0.18052956938303505,0.010979692802759651,0.13490389903333755,-0.10569727336172165,0.12118838019288578
63,0.21652258767208069,0.05235028537180664,-0.05711711799367072,0.14646627881116142,0.003293865907111846,0.10680991664512772,-0.10188329679323452,0.06513208073190706
64,0.196551032270309,0.06250928404684361,-0.09551506594463914,0.16618580747858758,0.010847010682631317,0.12773523626297434,-0.07006175980526382,0.09169676534356154
65,0.25101082548755815,0.05308447415190233,-0.05654853596984856,0.16692364490622935,0.008212774368318203,0.11568706357119513,-0.08780414357751613,0.05643376504007834
66,0.21606756958672843,0.031365967127840434,-0.0680175371410843,0.14148716814537765,0.02279290083324035,0.09880928605103019,-0.0788249288811629,0.0844295697383038
67,0.23559738691472895,0.05157717961485775,-0.09984510434750046,0.15250559394222504,-0.027558675148209272,0.11319069648879011,-0.08370793568643174,0.0767277852360128
68,0.21924066443584467,0.07613954446148621,0.0183917992361538,0.15190966211410914,0.008360951598498968,0.131353570466064,-0.10503050441019128,0.07769103675516173
69,0.21308028847623586,0.08158987179946865,0.01564180113315395,0.15972747514667326,0.0031530367522438953,0.13968358450134208,-0.1091755148724072,0.06708704179494601
70,0.25639428884154847,0.04078252684643249,-0.026343304291452933,0.20758568156034599,0.01609836035537872,0.10766478472176211,-0.08017682989404401,0.07865940546139459
71,0.22599761486409595,0.03441862359192836,-0.024145227959893656,0.12440029022796939,0.008021951276133369,0.1030110530207382,-0.08531179863096931,0.08295066979340585
72,0.27550611899167743,0.048340722047000344,0.0014884398906197926,0.10039284163645487,0.016402582613610224,0.12325793051973684,-0.13141334726080015,0.051793396294861946
73,0.26386329416743104,0.0668667586407748,0.0032640211591943515,0.09504707367642742,0.005135967528832328,0.12871306287584286,-0.0830639251648109,0.052687164765183946
74,0.21379518605216252,0.07178493577304992,-0.025472853180927093,0.07108759987325868,0.008475505769951321,0.12146190823654192,-0.1056075741778102,0.028166446955452916
75,0.2524137916771759,0.06215213614979809,-0.03875671379574307,0.14439135513616083,0.0006652745852467011,0.09371312240871515,-0.10168407692592156,0.13351152919993411
76,0.24212395103537884,0.09782665825935209,-0.024127896604133895,0.08714214913889126,0.0014981893457018435,0.13490453839718022,-0.05399040770832954,0.06577442181276955
77,0.22128344823269316,0.08717226888195281,-0.07639027925734984,0.20037397698935785,0.03627986492631937,0.15751571890043428,-0.06083222227497844,0.022848800498526705
78,0.2548803040516762,0.04062675546257445,-0.07040098221133805,0.12442066322124436,0.010656880188570805,0.12141816117520517,-0.05179169565700728,0.06515170722001833
79,0.18818463119806286,0.08164822847746958,-0.061665244760558076,0.13354274284102338,0.013154399373868881,0.14295482926359968,-0.06835748137334902,0.0412549693469775
80,0.23127775266612724,0.07757130866983009,-0.06647068442779876,0.10655774675206708,0.010798701399150127,0.15854736008729495,-0.07157349754388234,0.10489045018339163
81,0.18795217925042243,0.09522520318392293,-0.06096065320835339,0.1815574794446566,0.02142763712060501,0.1442504044542736,-0.08188301855229342,0.07693440558845228
82,0.2083728950011574,0.07250621054421631,-0.06660904411206962,0.12673021530037606,0.03316558424979579,0.1419293239407657,-0.07210411358368815,0.0973747873363463
83,0.19437468872260574,0.06336787042130536,-0.07032664347176999,0.14836871601428367,0.014148875281858169,0.1356144335313794,-0.13064375609624745,0.08804506094123536
84,0.19719527004676782,0.0419547162673551,-0.08411571073191697,0.06216397873599758,0.02168245859046172,0.13030175040452704,-0.07771168566065022,0.13960504130320645
85,0.16696625452244007,0.07955034399617357,-0.035751689234792175,0.1936177069137785,0.0032103272413593923,0.1389240048902458,-0.0855770837267605,0.07877641802886048
86,0.22574533852743658,0.04422046368598286,-0.020128650646387476,0.1298142070896147,0.008554320117079836,0.1197461596878717,-0.02865023373613921,0.050328657765954424
87,0.2210051429041298,0.06787335172715699,0.0015566360531582392,0.10722075200238501,-0.0042425141457432015,0.11723143703727612,-0.08162605668846437,0.14541286517289564
88,0.2107220663180777,0.05146928693368323,-0.025507748984169198,0.1798700833408829,-0.002676418149054669,0.12409983923178922,-0.08245294517374947,0.07921522071199669
89,0.21071212763233155,0.05099758394899617,-0.043336475377125,0.22715576006820243,-0.010700145681821236,0.10774121766695034,-0.08802992253272013,0.08765076378077997
90,0.2092603196845454,0.0672373915289143,-0.07038207274589266,0.16910668718554217,0.011249599952726261,0.11301390224703571,-0.10285711792657506,0.06769235932540628
91,0.17954041196106033,0.06602084167888048,-0.05113904798976939,0.1103264952773085,-0.007001128215709065,0.12278107101577503,-0.09474751273612975,0.19515354487851014
92,0.20583287619673235,0.07859271832602893,-0.01830630139272049,0.15559031933424403,0.0229655076712318,0.1324507043480912,-0.10466151684204947,0.12555304577800766
93,0.21691002824846584,0.07714432328166382,-0.02923058647892109,0.14293409107376537,0.01252114801743781,0.14619996665138868,-0.10172307641138474,0.1160773526637935
94,0.19881816534026053,0.06717243020585127,-0.04312618800617157,0.14598113997193352,0.004878689421900774,0.13752715288545253,-0.10901090451925442,0.14958381447350821
95,0.18484080981670384,0.04005627241377696,-0.04108761062647553,0.17838664256523987,-0.009836835979792687,0.10253917054853784,-0.0774640761281449,0.05495274543231328
96,0.19207445515935018,0.06342175120743584,-0.05748530578236623,0.14398770392787738,-0.0011826552736284776,0.09756883662854773,-0.10885376383689309,0.06945855427809366
97,0.29489160925400215,0.02639640856695967,-0.06803037194883854,0.15049841614951787,0.026066505738384073,0.10236833102584596,-0.0697035513928486,0.058244476373903765
98,0.24166658783443273,0.03544895942559272,-0.07889523590015782,0.14146505485026736,0.022731111196548946,0.08724034031831653,-0.10233460290625844,0.15485313739727624
99,0.29576337272233694,0.04015712376546534,-0.0729883980882973,0.1505041164485009,0.02393725215310383,0.084757269596477,-0.10511375547320868,0.11658776163806057
100,0.24367413592334786,0.060337711261817854,-0.03693440862217109,0.14686882277130503,0.025741379198519116,0.11440645287670136,-0.05017868461192193,0.05368922387236453
101,0.24162039885708061,0.07677687104618483,-0.04575046798560308,0.15543912733631723,0.027208700596336302,0.13185993188659212,-0.060208619973023486,0.033506715578306194
102,0.21085513981295784,0.07646359855269672,-0.053102549502740445,0.1238455135834974,0.03576009774110837,0.0886714787184718,-0.07850598912775987,0.11016284749449835
103,0.21225324534675355,0.06458595332560584,-0.05382044325868166,0.128477088147538,0.012587932470480418,0.13453894208082387,-0.062336537023246895,0.02088399164300805
104,0.20813781843326132,0.05799053819607037,-0.044946290961598086,0.1739059465789371,0.025542037001688243,0.0873100816008109,-0.07447229940933096,0.11118589727983787
105,0.26957489129550594,0.05198423625673701,-0.044880882435041514,0.184653126478027,0.026889067192448872,0.11534764551308889,-0.07118182809446759,0.07813534606857052
106,0.187683569301809,0.05598437864342824,-0.031987086040103814,0.11915900437328208,0.024743944009409023,0.1283524381986713,-0.07387044892180247,0.07930171255395532
107,0.22810981974420716,0.06333507464707283,-0.06426515258325229,0.11671765713341543,0.008114894307878012,0.12392539430812013,-0.08005776187299293,0.10810827098826849
108,0.1356239754730063,0.04603021598151328,-0.038641164209421895,0.1865850763347865,0.009191140731548616,0.1112509116259809,-0.0752011308137267,0.13013536612490192
109,0.21557470388431674,0.04502121524960284,-0.0712058581326718,0.06572618933041174,0.02440855567817524,0.11781056477320477,-0.14246905582213173,0.11849402285695808
110,0.21005834805908755,0.04314257104407787,-0.04300045908730996,0.1837085716206141,-0.011687494773990899,0.1011123055659887,-0.11158235146166634,0.08777353450432472
111,0.2513160293185461,0.07099350477367934,-0.051457291480601505,0.14522729509563995,0.015016740163857185,0.13236892069437653,-0.07937229262566903,0.007901389249187471
112,0.2545500874929912,0.07966371014056928,-0.060624422914176065,0.1630360862480845,0.004457902160809454,0.1415316006483137,-0.08717007571233297,0.04246959117501209
113,0.251377267810682,0.08859352165929978,-0.040924558481036204,0.1418774524952926,-0.000288805499724141,0.15592365699368196,-0.07009551304943372,0.01628081607760814
114,0.25302464237423317,0.0887456535643436,-0.042444298897415564,0.1518322424434333,-0.003960379679023124,0.15414663195172187,-0.07226437729977994,0.013528971946521006
115,0.23454384253519517,0.03392759203870213,-0.0253765407196408,0.10942180666224073,0.022353213956723475,0.13004336742579414,-0.12123643330245874,0.04214248603990262
116,0.19997092438164768,0.06473871391108929,-0.05786863496301569,0.22617648129489373,0.019679952891413367,0.1068468671297846,-0.07123262697989263,0.08113058317960492
117,0.18734803216385607,0.05418560581931328,-0.04098127876870919,0.11445066465332315,-0.012943539293812397,0.11300281025810655,-0.10510362326575158,0.12095685374978943
118,0.23071844704400452,0.067249667980916,-0.03296315435812393,0.256951637916886,-0.0010561495897003054,0.09472639383405844,-0.09370906484044805,0.056462688235304974
119,0.21610398280851578,0.060812462480697306,-0.08864069526275536,0.2580024659305151,0.011249208701434171,0.10489010460746989,-0.07408378668784486,0.11359784160842773
120,0.20633046986238784,0.060362183653267266,-0.060585399153829815,0.1295287263654569,-0.016145915938400635,0.14271967978311378,-0.051445689821363716,0.09583631740075647
121,0.21642450080213887,0.07141242872096198,-0.08050389394029471,0.16091264943684816,-0.003971315420457121,0.1310993205108498,-0.057266315685532615,0.09448419846631254
122,0.21393604216533318,0.0396927289568649,-0.08766446356174915,0.15400008320252126,0.05278902940912163,0.1327373946942849,-0.10609814029362372,0.10086879977421809
123,0.24501094441970112,0.050179827649101255,-0.030313933454627257,0.14234583977964396,-0.014396439724666567,0.1390924904365086,-0.06839375009083615,0.05324221149855754
124,0.25025944878878376,0.050073821059097086,-0.0533761894074089,0.22408542453511685,0.044671657947476844,0.11742776711962324,-0.10071762122677401,0.06858652807768757
125,0.25715667099939155,0.0427322932156294,-0.07206158064430492,0.20608727584547343,0.03820199541844462,0.0934974936583439,-0.12076307217864152,0.09046601886743992
126,0.22992210390967383,0.02446385356334312,-0.05799660142014799,0.15055170143867277,0.05281720468188016,0.1061283583752092,-0.0568106091788565,0.10145400355259804
127,0.21207309954694684,0.09029660770583553,0.0034727980466872713,0.06481228033543936,-0.014381971164168249,0.115690085402222,-0.09122866154127093,0.06206517547625986
128,0.1712251451221246,0.08234345761282831,-0.025800836389306265,0.13720955254186754,0.027881600212141845,0.12810186965939246,-0.09722191546956621,0.04265226113648402
129,0.12369194949210657,0.08045549737676479,-0.029460679133757866,0.17209065408874186,0.022594739104468173,0.1031173852767465,-0.09500643391869708,0.11990251124382303
130,0.15872136303490766,0.05400612351088572,-0.002590777323845232,0.1965385744199029,0.031172350448786745,0.14744064377377267,-0.11682500913804508,0.08526644260809457
131,0.18150222155771178,0.07425148542892493,-0.018230779301385183,0.1628815931070566,0.012579866336960264,0.13635932242288887,-0.09148586941998926,0.060253231982252485
132,0.19120412120059657,0.04483037013334829,-0.018248461685622993,0.15161664422966142,0.005288586313547717,0.12371841797359237,-0.08804353958087012,0.04468942720045484
133,0.1518547461605638,0.06663081435017584,-0.010556743906679177,0.17205120255731413,0.012611117875023356,0.14339865885328554,-0.07948188492783105,0.0541833031094815
134,0.19073003058106874,0.10262799491029932,-0.03338848902686848,0.17992243780863057,-0.013723002309470359,0.1443283623206783,-0.05748988407337328,0.12922419692548098
135,0.22841412393100602,0.10774691066043673,-0.04253799330701615,0.14346645845171377,-0.009993936792100207,0.12021942931180933,-0.06296883876335493,0.09217193658926583
136,0.1739094763999189,0.049184778352679946,-0.02163652437068514,0.1374797251567737,0.024623214282843045,0.11912122526703264,-0.07158674180888057,0.08852487071262775
137,0.22379295317438874,0.07668201415486453,-0.08631943607660185,0.1849846235017162,0.02623540358627196,0.11357868847390017,-0.09224324975374934,0.11095593021875673
138,0.21527861862839529,0.06896331825727181,-0.06946159943950414,0.17546145464031,0.004356942239894915,0.12620271440260455,-0.10609966836555529,0.13475276393677033
139,0.27131887968390705,0.08873931611742274,-0.0501184747335422,0.1933133164421647,0.01818529741661144,0.09505959292965653,-0.12306251934299778,0.10922118175001122
140,0.2026844743989022,0.059527753759783426,-0.06999762286313234,0.1972658501159579,0.007531115764770637,0.09596933582747387,-0.07380137169687356,0.11300710413739053
141,0.17976343892089044,0.05867531889131318,-0.040189648703238406,0.10142658553194156,0.012145573142577611,0.10645040857146874,-0.10115580422331898,0.06915782170451587
142,0.17642916794267707,0.0680543173951656,-0.04788458774706758,0.19075149154712118,0.006222813497304663,0.10525043841951155,-0.07436067781566194,0.06135858432020643
143,0.19876722449855902,0.0817157654346671,-0.07530526540330189,0.08954494310818216,0.014839427936277768,0.1109433480610543,-0.12055005950887807,0.0672455627799993
144,0.20883397649296273,0.08705272633839721,-0.03275278270265475,0.20737624247392153,0.013923709257165042,0.10626881178430164,-0.0897730900280331,0.07188996966937215
145,0.2195793929394024,0.09638151659713129,-0.047111357578858426,0.09761251368167809,-0.014539113173999592,0.10550092672649568,-0.12044292134029998,-0.0010300947088594584
146,0.19778753845991173,0.05744006736286473,-0.013725865437772837,0.07479190246694821,-0.017953328975787955,0.09636905604873677,-0.09087312784383306,0.011354310086660673
147,0.21837090516995006,0.11461306551866804,-0.004727220351290687,0.05499848122859887,0.022953140268936783,0.058346212951647616,-0.10135034854206992,0.15966972359031092
148,0.24713035763006766,0.02510848595827294,-0.042657046547404515,0.15430226094227606,-0.02056022716064291,0.14986938183452425,-0.10030481933142506,0.01812374631001226
149,0.2509333207317203,0.004381361174760285,-0.025006193618594387,0.19751589596060593,0.013950710284717768,0.15656876911767253,-0.09403060363165752,0.019139167199621346
150,0.1991561806270176,0.04650714623051732,-0.08187800469099678,0.18089314074226487,0.029503662259557722,0.14450565632899706,-0.09707981030296473,0.14121921066985293
151,0.21139683805165044,0.09304730027231743,-0.07128824967949497,0.15356892990203236,0.0020035001939327206,0.09499486668286429,-0.0965160093284482,0.1026068168652906
152,0.2247177937464875,0.07893195058882256,-0.07546338497051651,0.15910718959214354,0.0018782243750322756,0.11688346471701194,-0.06922977792601846,0.10772988995395108
153,0.2234107588052016,0.08828423550656951,-0.07348613374600821,0.22018687075062834,0.02130508363945673,0.11027381121541412,-0.06599468703633082,0.11061618104005282
154,0.1743166011056196,0.07613142148415808,-0.07431014626420089,0.19786999896895213,0.019289183325714502,0.10222654241353345,-0.06841006204330576,0.11851846195127055
155,0.21560014382590365,0.07372106981503389,-0.05798494772281781,0.1761135945597255,0.019893094471155295,0.11429811062120909,-0.07909204220834207,0.09333435752429613
156,0.2411107710761654,0.08055130245545294,-0.08851811184170852,0.23343160175567387,-0.0020452831634643273,0.13364788177222175,-0.12218162267552903,0.03713311634786122
157,0.19939609886684728,0.07022652313021532,-0.05916725831856899,0.1332368516515037,0.012756273599849172,0.10324636520487009,-0.08015235115362633,0.07182081018988831
158,0.1640264536634796,0.06819346620321745,-0.051934151412686314,0.13990428431774224,0.01731913157319105,0.1224896017558598,-0.041187972298521586,0.14715759404367695
159,0.211419722828685,0.057800284407033505,-0.03110691367265663,0.20422470003583254,0.0036549748968359628,0.1281022134161466,-0.05964960854982368,0.07359702979676466
160,0.17945980020744037,0.06932906483297221,-0.03338553764028109,0.23866664538063806,0.011598833616369939,0.12142011528704712,-0.08710886272437432,0.04427335035194969
161,0.21231632108663878,0.07314664320953529,-0.029066357846149277,0.263255582888851,0.015076034599269239,0.15094662040986057,-0.0261036123378134,0.13066104614548926
162,0.19500702753141738,0.05195854643398102,-0.028270744942149238,0.1546600883478147,-0.006733448972579106,0.1655209324523363,-0.06379336925508591,0.14280230753339795
163,0.28456246022984155,0.07771785522646756,0.009716843601702182,0.22275553184139316,0.02713627094384462,0.12773680425632508,-0.03954647490961947,0.0342743810609761
164,0.2228595810076151,0.0939411686650129,-0.054058516554644546,0.1467094283021374,-0.020092013352549818,0.12076319368607685,-0.11910008220041066,0.04955358277108741
165,0.23948452696647893,0.025469493004521605,-0.018709616195497037,0.14514318383987193,0.02040405164052732,0.13582821170228818,-0.08762147645076504,0.06579376444828477
166,0.14681779474077897,0.05274578291181899,-0.09308774652571258,0.09110538786067851,0.013873653112326433,0.13007773214040028,-0.07851220278938993,0.11705937536828977
167,0.18323473226861148,0.02593786774935465,-0.0073614042531795435,0.18013562682032722,0.0244451458233039,0.13043862405489465,-0.11357611933266722,0.06458637785919616
168,0.2059167582689892,0.025135203504670082,-0.006388571457651387,0.1804393314933798,0.016759724774861973,0.1398211501211861,-0.1156855012198109,0.06858240790027555
169,0.12530614309810223,0.02976019324134244,-0.03129460008335313,0.1354391288155138,0.0009712510449124307,0.12205975979625584,-0.10912654423745462,0.07055924500824085
170,0.19086018799383672,0.043337516359745414,-0.054099621290683436,0.1662944352077186,0.03424981790939865,0.11293622669489338,-0.11481356343730884,0.08693222639782591
171,0.1736684795124299,0.06140387091008034,-0.014806983593851832,0.167093680992971,0.006332138062214921,0.14997937206592774,-0.10549099417337124,0.003081360056179155
172,0.13695948246627931,0.0448989006821098,-0.027894645444613238,0.1595289534960382,-0.007908183511842502,0.14801136370946014,-0.09915193593848397,0.020933869833603944
173,0.12377258872807519,0.047348224483271924,-0.007821237554995003,0.13160511367409544,-0.0336134883784077,0.11012607762764288,-0.0828776366731987,0.08964136101872659
174,0.17950876297364984,0.0345146341052414,-0.052871143798497874,0.12993435083571733,-0.013049751446061696,0.10839192753879162,-0.07653861510280302,0.13725687007512252
175,0.19502079774779502,0.07037962687249298,-0.04654024903323499,0.23601970477352976,0.03499214659889727,0.09905986193964988,-0.08979496050749451,0.12404996691056346
176,0.21487463881276198,0.05272078119121631,-0.07460371670538705,0.1691000138763972,0.006518129530738634,0.09963073218078092,-0.11321739483299964,0.04250418963248439
177,0.21869155186729047,0.053130794861802555,-0.09535669443181964,0.13873184795742963,0.009456582665156824,0.10907653450214541,-0.10852061192347014,0.021753154818362506
178,0.18853425106835242,0.04512691919245775,-0.05890310526384588,0.16259170576916174,-0.009119887512114302,0.09288394088984937,-0.08949978453255722,0.10996921699671075
179,0.24910143473575608,0.046539625055064655,-0.035316071663825624,0.13473388236143266,0.008136462157516823,0.12203491450459157,-0.07241914184654705,0.0944284317196493
180,0.17099797389774493,0.05351144862489298,-0.07407719379734881,0.1643450984991688,0.0073855212217613,0.11804203772795677,-0.08567176013645574,0.06822089310411629
181,0.188687123001069,0.045231090474927814,-0.027855342116283446,0.12687792087293298,0.03939309044545958,0.12360274947869687,-0.08772387182875668,0.11446246208066874
182,0.22231022519111995,0.03619928771853331,-0.016726646754532584,0.1626219687278685,-0.0019285274510316675,0.13069232135211575,-0.11287047853651092,0.08371979214928732
183,0.23578112437159027,0.0653975735856449,-0.08725250114697336,0.13049647933052733,0.02130188061430843,0.11806878316569529,-0.09010771684114138,0.10454354720317066
184,0.26529975530183914,0.06044990527014621,-0.07333252342952273,0.1776650442118177,-0.00934767325925072,0.12370529151933418,-0.117614766680905,0.05861624359155731
185,0.19916576051044083,0.05204592913655684,-0.015939384951200383,0.1389243894931149,0.005258899691025511,0.09702375686613966,-0.14612096309683384,0.015224257315485398
186,0.19241316225427682,0.07683191753702462,-0.0502437732509663,0.25028247337247866,-0.003440340398429232,0.13797573081362646,-0.1152679601476413,0.10184119706810792
187,0.19960614049170872,0.06440055782194747,-0.04083761565334677,0.12240169579417225,0.02058270068212724,0.12093915487024577,-0.11476340322117361,0.054006476938180475
188,0.2540698061066188,0.07226746306906907,-0.045056333308650574,0.19390441000351602,0.005996877222847976,0.12776100315148228,-0.07378792070561845,0.12860398428419426
189,0.23838429486286977,0.06304976256218048,-0.053694271842010366,0.17553458591927587,0.028248073587610285,0.1057134789354178,-0.0615401387546272,0.0292525099130756
190,0.2285835166982165,0.10227716639209537,-0.01932603704402088,0.06938514353263463,0.006562038567332312,0.10827700292000236,-0.08729037827489235,0.08193657415856223
191,0.24266349198919684,0.08834918370834122,-0.05079413743427297,0.07801708901962305,-0.007941419900868149,0.11583289563297028,-0.09253138386430466,0.0826207881352863
192,0.21731139565624022,0.10403780726464319,-0.03566626458156677,0.18145875151712768,0.029407503398973224,0.1225467095105319,-0.10752485264686139,0.13445425880844836
193,0.18893558102892016,0.050250115254525475,-0.03751996845574142,0.2056034403905439,0.026480420388572536,0.11696266256503382,-0.07784983904717194,0.06391871278205812
194,0.16022565722696375,0.056174916264381126,-0.06709488590946204,0.26871285091077696,0.01352334163396517,0.10148720408303981,-0.08818698975280395,0.12848416970050952
195,0.2682262975483136,0.0793251258532773,-0.002454734922292215,0.22687990199197763,-0.01865086322530502,0.1325736115422829,-0.10204448735354936,0.04384149617973732
196,0.17582431479470748,0.10163837067125438,-0.06295276435088595,0.10805950216427034,-0.009746579307850391,0.12826138168079815,-0.06199332924845012,0.0676258267467529
197,0.1717356318199559,0.07032440947540132,-0.035313710123601044,0.16965722801025745,-0.002064571550671239,0.1452449302677855,-0.08299199244472487,0.08139138602510579
198,0.21171449279886842,0.07616022775370516,-0.043368307659197775,0.19060117864038761,0.0023793371376113733,0.11848486859881019,-0.05392481795989544,0.053180777207517745
199,0.20247733086777994,0.04250902990044979,-0.02205944508713731,0.12220613096196525,-0.008772258076782011,0.14022602259965727,-0.107783947738478,0.09036632942610273
200,0.1839253475249759,0.0698390066950698,-0.07885149984584088,0.11077047884654673,0.054464342177685886,0.13106504513913464,-0.12220975327237393,0.07955868051557137
201,0.26865313416258174,0.08136488409621397,-0.0604234889258131,0.14991253243466032,0.045552544408797926,0.11892277028195353,-0.11380108649806772,0.1152373629939676
202,0.20972880157355267,0.04142116896343936,-0.05252527007994025,0.1590480378689531,-0.014621528720403992,0.1128991055758456,-0.08776190180516423,0.09997120206052401
203,0.21552521048558335,0.040975153789001496,-0.06829838723418927,0.07768422135540612,-0.012264190206191995,0.1277271400268329,-0.09864162365137634,0.06581654873119337
204,0.15282266467520603,0.060106093625866434,-0.07742467382663744,0.20904260854625453,-0.007475639739765212,0.1399231376744926,-0.051040483368937246,0.06670162070444224
205,0.28423132688764635,0.040791344319572403,-0.012297036706078396,0.19274011030999288,0.01192409868516805,0.09477938684124597,-0.11788121933186818,0.10464776695602049
206,0.18801596316283925,0.07532168534642293,-0.060171207791290614,0.17064574762858134,0.025237346310808918,0.13535892189237506,-0.08766775128816064,0.062107888369022854
207,0.2181349922844046,0.07544695324112309,-0.029992040202425855,0.1568229085857063,0.0032767443532288006,0.10067836013688446,-0.09564715155964716,0.14688619605292055
208,0.227498402122821,0.07527457377848741,-0.00025196059563580947,0.15490195405506607,0.0011928487854831757,0.15406840559333795,-0.11987419108830889,0.11869855884691813
209,0.23584179862524138,0.049615515548751855,-0.06927657076012297,0.16820255400865006,-0.008463474687459012,0.1391301114859889,-0.07584973331774947,0.13565218146908142
210,0.16773653484973305,0.07498184403719665,-0.03495508118334637,0.19226116290201856,0.029752088533538515,0.13376809174002774,-0.1330257014072269,0.0035770281426023365
211,0.19535344910985974,0.05428745385082506,-0.09859874172602892,0.14331041547818993,0.01834862857931864,0.13144783867363521,-0.07657777410922552,0.041136498104319304
212,0.16804031776711587,0.06218042954838273,-0.039030094055363715,0.1475004541207101,0.04120315801348896,0.13081118474078463,-0.13710550672524227,0.11117193221190198
213,0.22967560206977986,0.025075715997640226,-0.07711735471840728,0.12311388810162487,-0.003524149103478691,0.12397069173761259,-0.1041902663464271,0.0729890274365951
214,0.16198092161488803,0.09109282668562232,0.003546657869404542,0.22221290098834431,0.03411583188048461,0.1408389879850343,-0.10440548571501199,0.09250424508409252
215,0.26248171597968606,0.06821769691654464,-0.07324780529208856,0.178173729922364,0.005101312944198057,0.11775280617767378,-0.09618740504764196,0.02176673736930489
216,0.22477035848101684,0.08670831562567216,-0.02758224418584277,0.19688604997545167,-0.010028773743135615,0.14071476963631402,-0.11434058644985333,0.053667002643076604
217,0.2739268538666653,0.0730833542647389,-0.035770769513143126,0.2475537981665779,-0.014526269054997145,0.11679773266804044,-0.08463421040480289,0.030049966478733602
218,0.22892100406544305,0.07805598282376931,-0.040558917455897375,0.1723454507699158,0.02468352987189648,0.13378895840000063,-0.10157359413964714,0.06027224759758305
219,0.18665247217376285,0.07810069654599366,-0.020097554324808937,0.12915827625144755,-0.004955418563381246,0.11253949050564394,-0.07567060932811297,0.044396888412724614
220,0.26791600276745,0.03285209672269264,-0.02365241917855529,0.2329731994788178,0.0016774056383316409,0.14789498859143876,-0.09413304379957908,0.09733583674855881
221,0.20857323566835378,0.04352124935218229,-0.03922897029110087,0.19482268960367927,0.040192770332808485,0.10434032549434165,-0.07711435395429646,0.08392375352418276
222,0.1943415448097048,0.08264965822068646,-0.06552582337830856,0.14014672655800367,0.0007784013524534296,0.12751247101590804,-0.06319678430363955,0.0780954063673145
223,0.18334176433168486,0.07274680952878929,-0.03634135829475948,0.14217517110083666,-0.017374332861980056,0.10664691827729914,-0.1201425819429626,0.12803738608899534
224,0.2462577572136543,0.05676689285577396,-0.04024878570453891,0.0813931130174524,-0.015287699080562456,0.10048711272260669,-0.08245995092142827,0.09768015253878799
225,0.19798998306332627,0.03081958414277105,-0.03338244493070653,0.14867969819117047,0.004013737544452735,0.11440552061481078,-0.14338035064052942,0.1329157104403035
226,0.19580251275384614,0.037843615557048606,-0.021462181991078102,0.2844675017914594,-0.005840124316955428,0.11428405241630796,-0.0775299553254758,0.1270635978356646
227,0.2595072745482741,0.0716660675854521,-0.02330542184379084,0.17740862156115988,0.0276792779853942,0.11382782103621811,-0.1040405726298657,0.09885171411672786
228,0.1374673828627427,0.03880884329305239,-0.0456148701167983,0.0799638704932558,-0.0124971983638649,0.11996252123776012,-0.09346869121241524,0.06090318195013167
229,0.1978404903950758,0.06877162912334092,-0.07272253053346697,0.137493888532122,0.002626613777978047,0.14300693426487562,-0.10269236803718707,0.09448578391013966
230,0.1910823832226882,0.08866997232388517,-0.05683316264829395,0.13459912229083773,0.004108317195195936,0.11318078487489007,-0.0830666677141478,0.13332305878132747
231,0.18865813525945963,0.08824327749464667,-0.05782148687139703,0.14048188014775442,0.0023620383755332047,0.11462479521407978,-0.06796229574503074,0.15271778528066057
232,0.16900377130394478,0.05304692624818141,-0.057616600628035294,0.11612249109451608,0.029642235390645803,0.10992277406154684,-0.14782043769997127,0.08400452352640218
233,0.20311109665467425,0.07023870308623244,-0.044938546581802775,0.1904557849231909,0.04683251601301351,0.11664758836161469,-0.11476039590056464,0.09756250084251325
234,0.2248982371803432,0.06095807533428397,-0.045775476876011724,0.15997322864214572,0.0486023203594678,0.12225304725713361,-0.09716770983210482,0.0918141911139377
235,0.19769428908211192,0.048681679648607035,-0.07967624049198771,0.24955080818496364,0.014346281248294226,0.10424344257205327,-0.09093077392453072,0.06261758605498276
236,0.26937746457894135,0.03761302940865058,-0.07079694730783395,0.12918896056120013,0.019171048736743867,0.1352592867951683,-0.08753311259832564,0.04956430806921217
237,0.2249606294554585,0.057630394607355445,-0.08787637210588554,0.12617193788627568,0.003924751424109273,0.1384569470376097,-0.13746123905258364,0.08928214196774746
238,0.22986235085694878,0.07863808861169834,-0.03856794391006079,0.1780353656003589,0.030450073699718885,0.13658913009889392,-0.08868549166383899,0.07089807923396813
239,0.22856150380249446,0.07537148421805726,-0.02484565853272903,0.15415207499521077,0.01141242478082161,0.1306790862406121,-0.12548096673903722,0.07553549824117567
240,0.18901684472604127,0.07753189090379418,-0.01971920858257395,0.18128844376838696,0.008597948868365068,0.13311727626500658,-0.12853999233367558,0.05332723285165444
241,0.2713671316025039,0.1128454770754713,-0.022598009159337525,0.15511034552768624,-0.0006276297977304542,0.13918226274142784,-0.1304458094489113,0.02402655887546984
242,0.25931333809201107,0.07804817876739699,-0.014323311123299654,0.203486051913083,-0.0022964343462328757,0.1583966287306886,-0.13512492240881904,0.07881945881901946
243,0.1803983759209074,0.10432922561768906,-0.016670409680814402,0.21067980705900458,0.0006733495177651326,0.12601302229402125,-0.15401973993927695,0.044024247972639145
244,0.2689097245116322,0.08613148502266436,-0.042323931277478154,0.11955309308035443,0.031841179150446194,0.11244565438900467,-0.0929936028012946,0.10599449863544692
245,0.2900009710213908,0.09986924860975593,-0.03466207723176704,0.14291544260363231,0.011600806882359385,0.12888087412754548,-0.10573378733409612,0.11216061934223967
246,0.2172641480613583,0.08819581440315694,-0.05683063312038308,0.1447175313226519,0.020476844527104594,0.13394288669717014,-0.11376299708226582,0.11347031590043234
247,0.21405208701478687,0.10167490804658784,-0.06745620080208846,0.09859093193997598,0.043127722477160464,0.12990651468105,-0.11761905765348582,0.01821870507292113
248,0.26837151619436245,0.05019303597961298,-0.030258816121644307,0.2068131912844879,0.019100704761774362,0.10622553374348467,-0.07676177697833214,0.12472912439087439
249,0.1791569673596583,0.0701269012537545,0.004049828766664656,0.12574711653929002,0.03084649180436878,0.12511676023391397,-0.10719044988443152,0.08331767421307146
250,0.2330933915161445,0.06543365248649896,-0.03143368182884435,0.1249395538148457,0.0003144052375503064,0.10766338809299023,-0.10880252708538027,0.13740808671560137
251,0.16848402530150844,0.06094353742277394,-0.011748484502308613,0.16511219502616084,0.05721604946989388,0.11467500038402595,-0.11248773793775711,0.1273713445954033
252,0.20492709981018103,0.10678579854505638,-0.043491724681749035,0.22534064837662424,0.018041207366573657,0.15495694709486102,-0.11996390650974086,0.07278470383741875
253,0.24888483233215788,0.0812603941186516,-0.050580745620281066,0.13954707488205387,-0.03213835814069317,0.12457618445082555,-0.13918378814022572,0.06062750564531024
254,0.20485908956262192,0.07393275815103846,-0.06263785892109043,0.07993612523370983,-0.0018582644591230875,0.12670441259003196,-0.10685267235980328,0.06576910256475961
255,0.192659232821616,0.09834383124059697,-0.026014327999403158,0.11929696388795048,0.01352979350924875,0.13432684462463734,-0.11220062153556583,0.08210895258991915
256,0.23530814606290307,0.08659306921737299,-0.027149145064373797,0.06264117798112936,0.018485078777257576,0.11277628649996155,-0.07080110345217121,0.050216757890493915
257,0.2062824806993847,0.015254228367356092,-0.03798211645077477,0.19221112187142753,-0.008026809935081501,0.11917512709675057,-0.11654837605430458,0.1549548674169277
258,0.110680011005439,0.09066982713744791,-0.04588069005747929,0.23731612501887311,0.0379181987122598,0.12096231651276998,-0.061451763148460826,0.11782085637683568
259,0.09261939057769265,0.08563469586864936,-0.0524322851704636,0.22590970075402217,0.01870007124385279,0.12196236228766849,-0.06855564403087996,0.11745614800961458
260,0.23622480897669887,0.0494665674049859,-0.04659817155531325,0.13389679853979833,0.009175774535111364,0.1439229377625588,-0.07338261988921378,0.07608447391527934
261,0.17119404358872714,0.04227475627383511,-0.03648284049218143,0.13964958499670185,0.012429682136579316,0.1493295297178036,-0.09667289312199154,0.06378767254746621
262,0.14937992981331466,0.047846386686640846,-0.037066643910142034,0.1581468990769068,0.0082420705112773,0.1430125939355641,-0.09957091811105018,0.06635756822564814
263,0.1621357632107616,0.044215335738807815,-0.0182700903808831,0.16054714528944028,0.019189888000073842,0.14374189052518818,-0.1134979939544741,0.07436033218323425
264,0.2619750647159782,0.03186902559724947,-0.04301705937163653,0.14128454499463816,-0.022158336579633196,0.15403744157265653,-0.13571524162354912,0.04863630619572822
265,0.23318430537346702,0.05979619089165689,-0.030703116335609473,0.1942189663704999,0.00640606756169717,0.13933460916871268,-0.09325051855175494,0.10830425665764959
266,0.12996161582586685,0.05907353961547023,-0.01878560369352168,0.12680665462395374,0.030115377556208692,0.10323498751715145,-0.08918631513064122,0.07892059760145882
267,0.19877600107640467,0.05934668021847223,-0.008350824169728632,0.12636941715966343,0.0415189294417204,0.11873248091623372,-0.09921766985902292,0.11199220442241777
268,0.2408070565295829,0.07201053488232995,-0.042163731338969924,0.19725527884579433,0.05503832637744147,0.11935860970104052,-0.0670128180172348,0.11951053270545686
269,0.20731477510788268,0.04534035137665837,-0.0049090032007586505,0.1253233761729352,0.02633506026693888,0.11354615544395706,-0.1152036261681222,0.061034893177089385
270,0.19995991615020944,0.08267221097665094,-0.059181642458587015,0.191187009900952,0.03728407822439009,0.1182420717754685,-0.06956083301416574,0.08871321580429178
271,0.20044604463137203,0.05592627499381198,-0.03451173974797556,0.2137956179189783,-0.022041639744291682,0.12196169395145054,-0.10120664514268453,0.07715801148288084
272,0.1972514419081019,0.06353187418278991,-0.039791201093160734,0.23674591255983782,-0.019006587476172863,0.12076698472548851,-0.07871061536800694,0.06323316597616994
273,0.21209571027533852,0.07338027222429819,-0.08268019620272048,0.19758651332016403,0.011110769268602704,0.15438241489765167,-0.10249227741613022,0.062172358152500565
274,0.24160701793671197,0.06360374635767903,-0.06390353052600665,0.19043560332202802,0.012631091335915445,0.13550748172196422,-0.09703313378458986,0.08143693496084389
275,0.19956725742437817,0.04115211159884347,-0.07861332683417435,0.1783167785226967,0.014859643206123149,0.15002248473748642,-0.11089994224526194,0.0299765939773569
276,0.19507804712207996,0.04759565504930872,-0.08700916879470838,0.13064234127971938,0.023868007081134714,0.14181834555020362,-0.11433722799233592,0.06380697828054539
277,0.19239838090745198,0.058985273367958044,-0.11214922849201983,0.16503679273980704,0.02167597368066181,0.11408081723435541,-0.11129874231096937,0.13939799937102157
278,0.26173092343185034,0.06370988273561506,-0.07619727409401722,0.13949764492151495,-0.0073921412277872306,0.14383842388652776,-0.08876984578144878,0.08330078914537727
279,0.238648790518113,0.06974247955070487,-0.04293982000538634,0.17567518054221581,-0.016689226838818023,0.11065240386278052,-0.07663584739597286,0.06723172976100056
280,0.21916047864687854,0.07278607381743452,-0.03316637138881691,0.15400561904549956,0.0011795723057090443,0.08652921570720686,-0.07899918763173433,0.07884237651185294
281,0.1750118570798571,0.05902807418230972,-0.09184899698193738,0.1358407127685167,-0.0018486405759620618,0.14295642882099993,-0.10781119745763433,0.03988106586007383
282,0.17828110061738892,0.09678553667457838,-0.013579661433883918,0.1465315289140607,0.03893423442588868,0.09354425916662192,-0.11173164792824174,0.011831700399541775
283,0.1735731139261361,0.08813835362857145,-0.02158681626718657,0.15769197563137125,0.033328998171512816,0.09920336324052978,-0.09987244152310087,0.015296629338548173
284,0.21611981258719298,0.03156341900881824,-0.0730849362004033,0.19257648197034183,-0.017701330477856547,0.1453475891636807,-0.11034160748856713,0.18285963646969866
285,0.17995653501748862,0.0622676587464035,-0.06197411420680959,0.1489013627719218,0.008951014590708593,0.10600652770740068,-0.06043641230438632,0.1908797475718059
286,0.23768868615264907,0.023558387258390615,-0.09178952680628773,0.23920056558341754,-0.032457151926577596,0.12131724957737654,-0.09840111324936658,0.1358037872733194
287,0.19060284671291267,0.054679750474569404,-0.056298856021539063,0.17670090917337544,0.014759090916047084,0.08912091833383236,-0.10074149174979528,0.09463709346786317
288,0.19338854427688548,0.058791973806990624,-0.05337691857747157,0.1708249748542075,0.015251086982642083,0.09190438488136196,-0.09480251491876433,0.09359358158101092
289,0.223633919480525,0.03980269835462275,-0.07269971914642623,0.18242971030363583,-0.03742739571305411,0.12244592973483548,-0.0841901273323363,0.12694969769689965
290,0.2214160981733491,0.07116135623942503,-0.07803682748893963,0.1359499376499579,-0.010528197747466533,0.10747911124878175,-0.08949617981962053,0.11835656010992197
291,0.23998609342092242,0.06998545209959536,-0.07934321365580657,0.1933981194312597,-0.019563821931617792,0.12586517221819302,-0.11351056302714548,0.09265124737201505
292,0.2327604217309471,0.06324086330702282,-0.06941463768658253,0.15611137940964084,-0.035379109056530966,0.11224861146413276,-0.06430898000571869,0.050917466772176026
293,0.21518003338061822,0.08735607694381708,-0.04279338396679058,0.2464205203109204,-0.02155097508731114,0.11898899157654146,-0.11189851438928357,0.15695438317867177
294,0.25268787593845915,0.06398825051338701,-0.049698639953992575,0.09977510407863595,-0.03159360310830339,0.1119965742571258,-0.06864698467154574,0.05604379986057763
295,0.19600254216594573,0.05640881214376629,-0.0982174284750085,0.1436630893451888,-0.028788429553699424,0.14747346758810848,-0.12306703952011867,0.023223343393710412
296,0.1942457853211178,0.08698845874208325,-0.04422373592732234,0.1341236214090946,-0.022279329432738776,0.08972558209673058,-0.08358153493717979,0.06196385287308224
297,0.19957545059383827,0.05556549994866673,-0.08182374135266036,0.1816848720415898,-0.01330727335941325,0.12821828765538784,-0.1226834762480403,0.04726626777794319
298,0.24315182405218538,0.04457563298965484,-0.03246790490621472,0.14484884874724935,-0.030338715294076526,0.1199333267842842,-0.1192202526864558,-0.03803505871571256
299,0.18812475723253652,0.05359944679460536,-0.07202903592543745,0.22233750008242578,0.008571407746347428,0.13821634046010714,-0.09432868910875264,0.05497779339081881
300,0.1837095558655821,0.07698182651009698,-0.06663259413236758,0.16040217064885773,0.01430037736038822,0.12482281492474136,-0.06935463624832516,0.057998562694827324
301,0.1974347709963918,0.07375607722351372,-0.08493069524665636,0.14438421428775547,0.013969753127052356,0.1325138849635091,-0.07338074729866274,0.05560291099271144
302,0.23560802124898145,0.04409743445583761,-0.059235583520426884,0.19468322742841537,0.02942999351287183,0.13538809665149723,-0.10645815634392175,0.14830185476688168
303,0.17956129297893555,0.10019934478585635,-0.00970068309855013,0.186778026015903,0.06646840729250096,0.10736936338677416,-0.07710206405673724,0.11804460668110835
304,0.22803633329071438,0.03415000540040282,-0.055592002319004595,0.11502719907919114,0.022142992429078547,0.11989500701449192,-0.07850091559784543,0.1039108992034878
305,0.20521453050126093,0.04798376186295928,-0.034253781407412684,0.2358847795361599,0.002585128047841895,0.1313109247344697,-0.08300981546145451,0.0752387051478894
306,0.1050774335341597,0.04058949223945988,-0.04760791820412062,0.16561294738430116,0.00590465636891848,0.12429853334581922,-0.0801943942645121,0.14269323830267366
307,0.15300832489174004,0.0287593450624335,-0.06992338999053661,0.21210389675511793,-0.008382897851058715,0.12493028496358367,-0.10921699530670362,0.13286189604873694
308,0.11637619256274162,0.05806689758529568,-0.06343380829613737,0.171261137283893,0.0013013745793803936,0.13581816063042643,-0.0848369936333226,0.15172272368980216
309,0.2435685460322679,0.000280915714028333,-0.08514301203731464,0.12838862628686368,0.017491687594572196,0.12410594129520747,-0.11965851175398438,0.09479416733909785
310,0.2357943542135828,0.06691406425146855,-0.0394726994770328,0.13077615415260643,0.013512429551796091,0.14785170987267607,-0.09187924563991144,0.015180279474769137
311,0.23481326987176948,0.06641115573326865,-0.024643859047100324,0.14687404586234978,-0.00035980341609804974,0.12617966346451726,-0.09744182669233713,0.06923144223527505
312,0.20449147263878245,0.03392832767626402,-0.048141921188949464,0.2238795454865015,-0.04397971615293222,0.16212892757420444,-0.09521500059233506,0.1284740338550613
313,0.18106360195301455,0.057678572114290796,-0.0019994279886587224,0.08426634803044479,0.015037168454207486,0.1329062486859793,-0.07388275213288738,0.0070969759024528374
314,0.1659983047429053,0.059519381701224255,-0.018217956851152725,0.03675829823500572,-0.0268528550571211,0.11958924077555635,-0.0801721637425165,0.006605361585838922
315,0.18133857741279102,0.05221092206124893,-0.05917407806274099,0.13514108239941963,0.013252671684425581,0.11582792000056194,-0.12885823363325533,0.10570810606094885
316,0.20976853904717563,0.05825973355406197,0.012601496666129407,0.11105031189023075,0.041390974569265424,0.1141702606170604,-0.11392464564102525,0.1317094976252536
317,0.19410917860545038,0.03864668137602661,-0.005499611790603998,0.16837894806552856,0.00468968609950093,0.13950378631771473,-0.07296161900878759,-0.0023422745389669133
318,0.21472828737238825,0.0510610308486718,-0.058909388659812614,0.23913366396582475,-0.014355573237061173,0.13644684009679736,-0.11205120992679848,0.08089586063376694
319,0.22464575165901704,0.05646676091572413,-0.07289288788382936,0.24602422648748173,-0.01196400156165472,0.14337284232690614,-0.11145512637105132,0.0726773169674083
320,0.2008670174995329,0.057893964233604225,-0.0566553292871601,0.049574124134018516,0.015122659592853228,0.113172584054666,-0.08630293932758991,0.08666641414269878
321,0.13294890836455148,0.03063271266595261,-0.05496372500050324,0.08709205123718833,0.01141289538478228,0.10984766614386483,-0.1083247923902969,0.055577806544212405
322,0.22588772844600466,0.08170043637342872,-0.04930341544091279,0.2669005389414453,-0.010722645680540637,0.12726354736005,-0.11651451627365864,0.05400776436276741
323,0.2291185514840091,0.04343661357075289,-0.025703915009424202,0.25655094279104407,0.012530927249279416,0.1227154453686892,-0.07580472375182688,0.10855661622666161
324,0.2088011262008174,0.05246883667125738,-0.07497900747897968,0.16744937580945485,0.02630872112499149,0.10594139190568168,-0.12236487882109633,-0.001805932376321691
325,0.20485384768533568,0.05954763402786197,-0.04560903711370702,0.14003741268539416,0.006727440479340527,0.12730996810767617,-0.10210004501209478,-0.0037859103952582263
326,0.24805637927934931,0.0679514353700156,-0.06960667087220561,0.1595925426957225,0.02256453895125852,0.12784803409781634,-0.11485745357219088,0.06918043993670508
327,0.26383319490190965,0.03907542822537597,-0.044785768381353494,0.22537178923438464,0.016195207206423715,0.11213025149041124,-0.14196402273612746,0.0940501436579974
328,0.2303532824139112,0.09586376877520537,-0.04605483083505986,0.05627311508313546,0.04266496392587844,0.13186885814021496,-0.11460152115771223,0.13690127523600185
329,0.2278355331871824,0.028662500427856716,-0.004433307359871355,0.20184640510343563,-0.018660747759047934,0.13417180641407234,-0.06721830791913436,0.10955435085313574
330,0.23693822551326368,0.02741778139810313,0.0017152149344887419,0.13297236814918237,-0.014779424380715054,0.13209789150216572,-0.08588731341618439,0.03891462503484077
331,0.20305535254616375,0.09073791101666806,-0.05764020215505857,0.17601004755605154,-0.01050671580512651,0.10395784912531378,-0.06789270494775003,0.07734014409708974
332,0.1987835265656554,0.0644288719910498,-0.016152071547406943,0.17272188552952678,0.015366399710826378,0.1205856946519446,-0.09430496027968543,0.056765591394684824
333,0.19675974940768068,0.08836267738352926,-0.044176897264755696,0.32449228895963295,-0.015413952324961382,0.10936032682405906,-0.10496116190754722,0.08837216227273553
334,0.206327381036579,0.04614381443289752,-0.03892385929459412,0.16957241179521057,0.015832392603023073,0.1038432361600607,-0.11123415438754326,0.08064834305126918
335,0.21790859199797127,0.07288191319908419,-0.06355968150326728,0.16317396381220553,0.009302476592792413,0.11777355802104487,-0.13545620877651462,0.17159696748646738
336,0.16949694640555804,0.0972959303337575,-0.030431610346349728,0.11872394212482139,-0.016341904859076935,0.13547485781409033,-0.11350567568823174,0.09941752540568799
337,0.212280813163938,0.04574476371186774,-0.05001025310567171,0.16941595741180057,0.004305699413974782,0.1279772138814385,-0.13654720111364543,0.10485156895189404
338,0.20920039651536995,0.055264952929636395,-0.06871579582846864,0.17150381965532108,0.018070633928904598,0.1120401080591436,-0.10460991805864718,0.07015957518165779
339,0.21355672325321393,0.03743200823162786,-0.04496352489786896,0.12317666685912029,-0.003811590006006247,0.13943331527715175,-0.08388735730932259,0.08296317119677815
340,0.18725183252178582,0.03940502989896475,-0.036638027899227626,0.16960082603915663,0.014327189133962586,0.13512893812810148,-0.1144080105393481,0.11877086245706733
341,0.1975674431624978,0.03357016467323456,-0.0636674468302046,0.1629537814876427,-0.015529960541187405,0.1328007419980363,-0.10638512877401038,-0.006705970577873713
342,0.18615359229853257,0.06525384205669611,-0.05752816953751344,0.17522855869155066,0.030888642231515016,0.10296424157566977,-0.1421996346207258,0.04556200858156302
343,0.16338204554578342,0.04491356746209308,-0.052689779350806654,0.13854620225685882,0.018474014684595835,0.10956040325080393,-0.14515354045925888,0.030173069040960544
344,0.21321138881849613,0.03943219778748398,-0.02323844427675997,0.11948193131883339,0.0053985990883694025,0.12188061326429046,-0.1268961339891995,-0.031654711256280305
345,0.16746946298641235,0.037507721993667226,-0.04557060281315123,0.16702501807584105,0.005506401785271361,0.1310003697531029,-0.10168570886833152,0.05845411127815676
346,0.18365560857003527,0.03341013959204183,-0.06535959236044257,0.12686866982398481,-0.026113983278228593,0.12982211815594602,-0.09662541008972304,0.06414675660229137
347,0.20560915563118742,0.050812782557673866,-0.077172871260913,0.15487965055900632,0.003330500388324377,0.126648441437434,-0.1283751798443878,0.11697966658740122
348,0.2266256189405964,0.04091068690462829,-0.023942101412921347,0.16910986088705582,-0.005428343922805386,0.12991405096634254,-0.09676888154045882,0.08048137922403524
349,0.23469871247200977,0.025006169821380864,-0.05235117619002963,0.12972503490184,-0.016744591464389825,0.13026591358172998,-0.08074323902512019,0.09159384785200711
350,0.20954070655890195,0.06474964498221474,-0.03002525427775591,0.16780357967213297,0.013801166966374073,0.10696027470902614,-0.1195322094303201,0.09910187699119058
351,0.19198137191283773,0.044588687420681526,-0.048326548322271685,0.174906533529382,-0.007883718233072773,0.1025458791549098,-0.09935190620857731,0.12660294332405647
352,0.18768027784121333,0.06134772790250127,-0.12565596507505158,0.24650062562891112,0.008983681399180718,0.12398611641868251,-0.10519897915151998,0.11466738131397623
353,0.20354946066007454,0.09469166598039935,-0.08383972233924836,0.16483183347377242,0.003348618894667559,0.1153372506836457,-0.11872812564747981,0.05213399432935463
354,0.20215205242631507,0.05297815101051393,-0.035468045204458995,0.10185989844663022,0.014319900442230533,0.12441333836143181,-0.10812072186049215,0.06403908288114946
355,0.20374391871002692,0.05055690327130293,-0.03839290130755484,0.15164442302825662,0.002076718441957317,0.1210729749932691,-0.0917963215664158,0.0933519625721519
356,0.1926980477142996,0.06321554147560879,-0.03167952635867353,0.1299964500893943,0.014605498745945411,0.13340341355767074,-0.1272716148404629,0.11941455480771981
357,0.18473623648327842,0.0664844462620293,-0.03461938278930338,0.12715341144941864,0.01654363491929574,0.13351802260140566,-0.12430346528216062,0.13054294728244875
358,0.21380046549434004,0.06188429847096567,-0.05513868026340459,0.13449261923776495,0.01436420581067926,0.14867053266876154,-0.06780738445029663,0.1259774973237136
359,0.2006885960715914,0.06030169288994123,-0.018293247971550002,0.2482227705741008,-0.007771181706878583,0.12206629549346573,-0.1390345649072968,0.017770224107780327
360,0.19414622704322276,0.09429766142663924,-0.03167566958536928,0.15293714429932967,-0.01147114665126822,0.11943131552277163,-0.08824681358452893,0.04801866961538307
361,0.2818099758964834,0.04197458434229618,-0.07418717263183915,0.15593841112698373,-0.0028902197539651653,0.1124647128233903,-0.11654119887895156,0.10559644653897725
362,0.1932627639609895,0.055769724671114296,-0.06362156629919945,0.09478564645033274,0.007786882559470944,0.15824290046737682,-0.08969071447081901,0.045790416778501895
363,0.30553576286238315,0.04435780966294026,-0.05892728115029158,0.0741195461018762,-0.013164036690257817,0.1548314878474808,-0.07908980224052366,0.04251329040318694
364,0.14047731088322946,0.044428081452238616,-0.06919221335384239,0.1515251694020345,-0.018255665747214527,0.13196258163159333,-0.13010852790855876,0.06183755843360828
365,0.18821760018230413,0.03585001510663445,-0.04380267446817876,0.11514608666775934,-0.005098125927987728,0.08968183688314989,-0.08008195274194185,0.10387716914600935
366,0.21329047432357448,0.06362757024304119,-0.048973354463173815,0.1581754454654884,-0.015632698205960464,0.1088101261638449,-0.07593977368395097,0.07015186488491515
367,0.21664290311704568,0.07474422907720824,-0.023410546887113158,0.13420359720193448,0.006013661068909409,0.11239470971087391,-0.09525838654662816,-0.005846177937607186
368,0.1687162367573055,0.06883434443104082,-0.03968683098699542,0.18715917810324864,-0.010518212664598577,0.14971187473896302,-0.0648255024513419,0.07358473150503828
369,0.25485082895071537,0.09907545342075852,-0.01979888661635344,0.12772868190214423,0.012748215615912549,0.10671960971052515,-0.14459154018149123,0.08222151836307999
370,0.16381358382909608,0.03291231774779705,-0.10191210347138357,0.2552515578373377,0.022453107264757625,0.12075949079722371,-0.11257868159717047,0.07606768267095218
371,0.1700849196735954,0.025701726161710386,-0.0958894068329409,0.14981409347177105,-0.0032402562230055905,0.12266316592793566,-0.07315889444691404,0.0751297092233641
372,0.2467715967604953,0.08478616090576468,-0.035806428859634386,0.11281212289396629,-0.003506119576984973,0.11563514769054518,-0.10059675599496082,0.06065212437365076
373,0.22815648443629258,0.07046762570639356,-0.03934469257002439,0.1586130051925894,0.034198134064618115,0.12685485601087249,-0.08559941828411087,0.057160431845640326
374,0.178778745106716,0.10099325118228435,-0.015408644115188393,0.1156428922982593,0.00465257115767053,0.12069309050751964,-0.06493180300962424,0.07610141947329094
375,0.12179132212639034,0.04944433618910804,-0.05659924446186821,0.057399576847913414,0.03933274771158511,0.14578883399254713,-0.10291913007966783,0.0995345723777356
376,0.14665769431604292,0.053705292687814994,-0.05581267087970974,0.054798556209836875,0.03369773125597638,0.13592833348620026,-0.09413278266167392,0.1286764344961327
377,0.1833138541813322,0.06399166024957433,-0.06402190810475107,0.13272013768177227,-0.007179187429623725,0.14745438165642852,-0.10619986101593379,0.11848845938232168
378,0.2280403079733156,0.0565896518751171,-0.032436252834678415,0.20932138564087774,0.03732829647440109,0.1547439568062251,-0.09259291467195095,0.06953170851197545
379,0.20147482664269278,0.026398868648894108,-0.036451605493784366,0.13374713070350264,0.0007887150877014518,0.14084631653722793,-0.0861506038845284,0.0743353291049624
380,0.19532767465512296,0.04167876376237085,-0.018715451943651512,0.213308593889058,0.015509564846375263,0.14512334344252037,-0.11144089863657394,0.11068303148365001
381,0.24047096172915183,0.03850837504000012,-0.02847954511695678,0.14263079630060096,0.027939377507940014,0.1338092899846089,-0.05412570719565244,0.14889898853318498
382,0.24689834920101897,0.0410718662386367,-0.018873324554450295,0.16637093651995333,0.026604619345736772,0.13146163889814202,-0.056873129995078424,0.13590379200840288
383,0.17883473918862822,0.038729774718767505,-0.045135618973794187,0.1528056744724008,0.005695754786046647,0.12627580873743202,-0.08025210940217142,0.1662755736944875
384,0.2576581432742037,0.07752625081453493,-0.005211719569914076,0.12116404360496613,0.013107321473014077,0.14843366791269497,-0.08754811077761637,0.1512608620762659
385,0.24283168601232963,0.03673248143881763,-0.0700650669070455,0.15495148238074705,0.0012075670593382503,0.12074229239557314,-0.07921791254555849,0.08051256157108781
386,0.18162861629601817,0.050602600815518185,-0.016488594702862656,0.15520331616956487,0.018557235643961542,0.1453222074131625,-0.0889288988009149,0.08382279452051362
387,0.22208356035528287,0.06597813196513536,-0.04197324520769563,0.15956281130441954,0.02550812676234782,0.10229512327614247,-0.09266552775166724,0.0722365285036493
388,0.20225695049766684,0.06501901903859407,-0.020051355087257004,0.06842261098593806,0.02216721676131975,0.11399568442079917,-0.10390728650877114,0.09575282690571774
389,0.20766283339486274,0.061342722008450985,-0.020337017492287852,0.0671871993146296,0.030562267052085982,0.12141695056315585,-0.1100511082497663,0.09394667782126896
390,0.2517620760021425,0.0522851699002183,-0.07615385321502752,0.16035260042145963,0.021673054442262876,0.11931505943996558,-0.0699056188194934,0.04468711488032166
391,0.17482905625045247,0.07135794602116473,-0.028643320030963162,0.16061548391467842,0.015532988064142795,0.1172494077111308,-0.05715189701884064,0.051658126885324625
392,0.19638560607565653,0.053378092967785146,-0.052026010160712934,0.21616154113339495,0.013415938889907657,0.10381778032662027,-0.07418826787500492,0.05244084181792274
393,0.20477248936619735,0.05889136711446295,-0.05870026484928948,0.17571888752505402,0.011918268375216359,0.10115496821812991,-0.06721435370985464,0.08914348468136442
394,0.1958317904481193,0.06458160341028749,-0.08716252797989626,0.15988799028484457,0.028571733935151625,0.12315494140736866,-0.09941855826096734,0.02354896496347571
395,0.2179299977232937,0.039890638984804716,-0.11064422672111933,0.11760097676467644,0.017674189681550597,0.12180194527361496,-0.09047460063047087,0.10626473919729423
396,0.17964195210231804,0.049817285919607567,-0.0644631397714029,0.13819918808519102,0.05558569306403583,0.13216305883756752,-0.1293380826022847,0.09038199760337007
397,0.1711117279052808,0.05092826878589487,-0.054294302061526696,0.1637129116398868,0.046739694716895104,0.15098661734761368,-0.1343352358334278,0.11991267470156237
398,0.18542298714673805,0.05215930147700693,-0.04419629819192018,0.1403789013801192,0.031823286493558034,0.11521819114188206,-0.10555783673709057,0.058868112498367306
399,0.2568820509751585,0.07631138888446796,-0.07224472558967703,0.1590301018964972,0.004546989305956981,0.14393092827016674,-0.119866260160527,0.1167926985438024
400,0.19724096073207487,0.060984572330951184,-0.04175044365876685,0.19143311745016073,0.011938085155442828,0.14645970526941143,-0.07326259970427616,0.10212250120078091
401,0.17176136772014056,0.0897825194967742,-0.022958747187753516,0.12155793682552249,0.017017589249842115,0.1258029760657169,-0.09262181406402334,0.06716676442085107
402,0.22136281362223495,0.039256907142534096,-0.04582241573639788,0.2235120601909203,0.0013318966792948165,0.15799115471318673,-0.11892159631706496,0.05008095990330918
403,0.20953776343437,0.05942362627508535,-0.03842701095068475,0.2019548223663088,0.018060392014660226,0.14438747243394404,-0.13772660196157785,0.00011464191087849289
404,0.25653624126039315,0.07505834745944337,-0.01124042536599171,0.10185094413535123,0.03179207123017733,0.11076449102084786,-0.11239763768701644,0.09469217459173877
405,0.17866758726171508,0.06629719789999547,-0.055664776432946185,0.18546744115651814,-0.0046647245032333815,0.13025605078563193,-0.12262285413267952,0.05506187266539707
406,0.16936734581571516,0.06845756468799115,-0.06219718795918265,0.2214243091492848,0.002676093280934844,0.13386266858822174,-0.11724156707391907,0.03459577035669386
407,0.2325448823614732,0.026521650639444186,-0.010689009659707429,0.141555957613403,-0.013554306541266376,0.11655712139900112,-0.08695779169687416,0.07540526698841014
408,0.23213212696280547,0.05387690910975046,-0.0697171606891667,0.0703136500608739,0.018056540103174264,0.11203657828198023,-0.08563075758913821,0.0674981927349407
409,0.27259191822970613,0.0752541131241477,-0.025517906942337784,0.1182660246764271,-0.006518729245377978,0.08131904294393254,-0.08500258703696201,0.1303823467601516
410,0.1870376784507851,0.03966604342095977,-0.036239888375455075,0.1279529932412672,0.019352508171705644,0.1284020914829607,-0.09629150795386232,0.12896402927622316
411,0.2605085834062477,0.03732791411554023,-0.052416350635257764,0.19208330974448348,0.051799248322627306,0.1319216684724675,-0.08959403671625894,0.0754884572135229
412,0.21818056002593728,0.08571492301541322,-0.030941975153794852,0.19562414088655378,0.0011147829645238908,0.14422560993905859,-0.09723433601650766,0.04188208972037234
413,0.20553830475336096,0.09121844291394123,-0.007687283159830743,0.18215645273134168,-0.00891878018607587,0.13528656404231937,-0.07761916155985413,0.03242823877790737
414,0.2518017371520501,0.05123978190875215,-0.052416403965626204,0.09491352718646322,0.012258203856545899,0.13271276463804468,-0.08836362376974705,0.10679318546760593
415,0.11963144363009486,0.06665908236609616,-0.03850237530109231,0.13547820740142194,-0.012474005771398006,0.10220908646718738,-0.1352482802256617,0.08765995698132506
416,0.1474576349373998,0.07373619631318228,-0.049615030189912236,0.1981717177216719,-0.010678659198184302,0.13721175377922046,-0.10634307895487181,0.08603980546672958
417,0.1262385732922841,0.09797062408955315,-0.045357025394231254,0.12355589395588878,-0.03997083225349075,0.1033695918375844,-0.12019595041312738,0.06244858275084375
418,0.19742208351522864,0.06654579425443005,-0.05681791296104867,0.16232647768549727,0.029451594128268054,0.1173237240832,-0.11907841898375328,0.1343239976828629
419,0.16682142990613813,0.06369249709658555,0.0032594774297893063,0.11954058782106819,0.034836858545822504,0.10887449121373759,-0.10122647383406767,0.09650655686677764
420,0.24367798401713703,0.0658986062369045,-0.0483980553776355,0.16131693125342594,-0.010841310390843155,0.09089299786707605,-0.13243338799973445,0.06454481495167784
421,0.23039631351864193,0.07333727357007214,-0.03244494028977512,0.2057198136589327,0.012037632942736439,0.11953330560765987,-0.0999348904046418,0.08042473524361995
422,0.22980837500341778,0.05125022985124012,-0.052745088436824135,0.2190519318970585,-0.0032251153637691916,0.09911578324145653,-0.11371525801467562,0.07774189079873112
423,0.17008623326996578,0.06425542119101287,-0.06633341990310651,0.20042050560058136,-0.0027120226505694314,0.14842331117521976,-0.12524749754543557,0.14716439085298277
424,0.19078006040659332,0.07758978268784504,-0.0558432023087034,0.21604143238665235,-0.00854123539736133,0.13804841676355645,-0.11443400460794688,0.16624973164409784
425,0.22960459599977856,0.059819721603076734,-0.03488825881684542,0.1883186173636178,0.008774515629741525,0.1378944443723323,-0.11398979472054004,0.03953865319849176
426,0.16149920873011708,0.043746123546088395,-0.06498218884965119,0.09528483595272025,0.016129794123153754,0.13170282609601425,-0.0812832330672149,0.07367535849510519
427,0.1870983325219199,0.05514490655410499,-0.043892052075549345,0.16859109315345433,0.012359479771731822,0.15139100070931988,-0.08383937426307995,0.09203608772923601
428,0.24718455155861443,0.04240849056693757,-0.0705070299741149,0.20929478341530455,0.02238851639107725,0.08327319411476959,-0.12218137385271412,0.16310760252279027
429,0.16919293238565278,0.06986297160620691,-0.0655512756021988,0.15041608213129082,-0.005987800147951081,0.12146470332218175,-0.0649630722439834,0.1827287115256964
430,0.1980374521755322,0.020042242228434346,-0.03557472626581075,0.14440616702409498,-0.014444179710652936,0.13163294041320234,-0.08413051343177826,0.03942968291336342
431,0.19636812525469977,0.04916941008827393,-0.00733973555728086,0.1879738751288766,-0.0038606521752280287,0.162559112665433,-0.06124217769568759,0.08156278919242872
432,0.21935787171641635,0.047515776178173916,-0.045669923095197906,0.1306971223072363,0.004251193173115746,0.11142005028481002,-0.09594323828236853,0.044809601151963356
433,0.2317649703287777,0.06395420090481396,-0.021284770847213846,0.06865386692330748,0.007931470242485946,0.12580527242228282,-0.059521907255634214,0.06248309823511387
434,0.16226954931351126,0.048412034854947786,-0.05759877982016505,0.11029179111264101,0.001958930703343847,0.12092463539406495,-0.09652618166279234,0.042538621650054016
435,0.18752875846821443,0.02487295216561313,-0.033358756893380186,0.12658280013277942,0.005233686125242833,0.10627969805550022,-0.1076125715014151,0.05583516200646767
436,0.2563795564744169,0.053401621966311145,-0.04883835848834422,0.20337647469689307,-0.023579611193570705,0.15207925650936419,-0.09338246670190241,0.060528702305330695
437,0.17106061105054107,0.06108142610509925,-0.0799506586233073,0.18803627922681165,0.03596172206101381,0.11619157634118299,-0.09578645866840099,0.09269679934832852
438,0.20996284505618715,0.05465809706144405,-0.08608310295696588,0.21453193465700243,0.02136734898994039,0.1256175413812328,-0.08727201860661563,0.07521620838955544
439,0.20722621800374522,0.06375153513620392,-0.0462920831266046,0.1815202002912101,0.001806913396942147,0.12141692162838792,-0.10675379493747254,0.12419072458658581
440,0.200197781059601,0.06781314442703586,-0.017207874167414056,0.13130309366705978,0.0065964628039887644,0.091200054663924,-0.1255896413172607,0.1330717844559013
441,0.20612449945606415,0.040347535962035774,-0.02610249161148898,0.1808208004882824,0.005528361799225008,0.11617930529348816,-0.09931423746737658,0.015774844343424695
442,0.20185870353920887,0.07091639183063723,-0.03880453445894037,0.15179297061347322,-0.008172375937966431,0.1090598715405358,-0.10116232252593224,0.043843947080882024
443,0.21979624590751246,0.05898046127587548,-0.04179641027234339,0.07883528125872638,0.031281729246367976,0.16111727341956852,-0.10087438503814439,0.0945091135423749
444,0.19845285926336032,0.06629812224570461,-0.040824718735588045,0.11906097925122226,-0.010369508212393807,0.12249102196852786,-0.12491140163678276,0.09034088693790623
445,0.16227912066596423,0.06491198479999545,-0.037765067361780855,0.1607698710961274,0.00871663614306592,0.13179934425240192,-0.09030636125745733,0.07653067837722732
446,0.2307540382959163,0.07312799824875973,-0.028676337097410604,0.10979863293049685,-0.010321347334690345,0.12919564597355582,-0.11461241839162302,0.038395670418378935
447,0.18281573839938214,0.04351071421294695,-0.0368716436499736,0.16634073096728735,0.013484993390937566,0.11711135099096888,-0.12677202825213915,0.032550686233959736
448,0.1914810812438875,0.07735574572760572,-0.0702077084296487,0.1420370963276348,0.014065247548863551,0.12241637748305303,-0.11715578045141552,0.08566674313402119
449,0.18083303635234768,0.045727362165959434,-0.06975053715004163,0.23286331669548874,-0.0025247526349246228,0.13071658162815245,-0.15642592340711015,0.0871249589489574
450,0.2786621061334918,0.11140801757894268,-0.10747057385834896,0.11342824779934703,0.010706998595993772,0.1486275379203586,-0.08992355848976832,0.14527452994296855
451,0.1825749019267911,0.09339743738141343,-0.05385823896699323,0.24400310014019472,0.028309802811182835,0.1314493319821199,-0.08084590283748005,0.13243311629514137
452,0.23797639805740087,0.045992487246487385,-0.09395230681175441,0.11544557727282947,-0.008668354904031731,0.1251036567595707,-0.10846250780590118,0.05445027195026993
453,0.1903190774054179,0.053520260907303344,-0.051312846551614916,0.1783709091358171,0.011848095858244924,0.09594227759172276,-0.10517496289535208,0.03972342645933501
454,0.2132876091157399,0.06859576750116919,-0.03244688203000033,0.2328593693237382,0.042860210611088655,0.12596302605225723,-0.11525361931495622,0.06658871739419367
455,0.22170323115164212,0.05879593136633063,-0.038517957481322265,0.2345822330876857,0.046964000644119534,0.12494894687405324,-0.11199496534925896,0.05248165515766398
456,0.1886812648340691,0.03908332455060811,0.01642459605912843,0.1887088919137243,-0.02489267211431138,0.12607425034492623,-0.055731931090404384,0.044344204822133595
457,0.1764842269652563,0.06798937405673919,-0.0073388377393810615,0.17995658926987917,-0.024052830291686342,0.0925995978913014,-0.041823311993048715,0.06572415452299252
458,0.20018268947161547,0.09108039395561314,0.0038705230854879148,0.18552813414613842,0.00995719035651101,0.10821079599327822,-0.07036266120942447,0.09008837392360607
459,0.14474963741159586,0.032613911810219554,-0.046235027349955694,0.18872752808036555,0.0054794080908079235,0.11293739151546793,-0.0822533142059787,0.05995315335172727
460,0.1774310585438733,0.053322062560226625,-0.06057417100451445,0.08670922349980284,0.038028456184179986,0.1576511990849403,-0.09327929140447204,0.11415916780328697
461,0.1763176633379126,0.04703233675241555,-0.08141009324922652,0.08422747113981531,0.026348924645425795,0.12962450252151186,-0.08542340735382696,0.06825739498973885
462,0.2315582175974191,0.061479501611270436,-0.06120284553276076,0.20956749538769776,-0.01982363706491191,0.1000206702353369,-0.10613216370220013,0.07662954466445174
463,0.20024743811217557,0.081046171311784,-0.008264296580441767,0.21693805131187333,0.005213580665147638,0.1391851904506237,-0.13458366169415348,0.018508122598403908
464,0.21740615562918697,0.06200387407691413,-0.05933110395511829,0.12136646797341097,0.03706741050888858,0.13948597028877566,-0.10923000487836436,0.10706293316587374
465,0.27641513280883945,0.07260699591306433,-0.046018284358553097,0.1332772300729981,0.022863312872691628,0.12081302098520347,-0.12376275032416811,0.10341537457087123
466,0.23463878535937174,0.06399882253130545,-0.10555026275400191,0.15748999873750255,-0.007481444816154445,0.1293070695103182,-0.08760735476963347,0.1103204785292314
467,0.23945604883191846,0.08984473384036462,-0.05315341151709133,0.18954554435634274,-0.009904174853986729,0.12243749294052945,-0.120332549744893,0.08637702239355205
468,0.2437099446126752,0.043892193827326585,-0.058157993499125184,0.16623749022836362,-0.02236376000920046,0.12446858493008586,-0.08483419198427583,0.07436739653081534
469,0.20200332086783823,0.08177825828101815,-0.03738106036119309,0.2172671320802497,0.02819934252319779,0.13244747831099574,-0.06005292143438858,0.07642026569679893
470,0.16489133497642106,0.0546330895389024,-0.03741846023883597,0.13834521164276062,-0.018122098618904323,0.13293601460141882,-0.07978474107610228,0.04685513208621871
471,0.16392305992405287,0.049188534312924186,-0.042396343181715604,0.14905426160985805,-0.018208596579855067,0.12740885775258007,-0.07231930158810687,0.05360483379933173
472,0.23043227588888449,0.08211887562466334,-0.01615317380629633,0.174480908362503,0.004873286196127126,0.11699576329820001,-0.057192309425958904,0.05817244443077881
473,0.18362044249577103,0.021179588488696544,-0.07108579923222128,0.1808434335343288,0.017149404872327093,0.13566724435406377,-0.07701340590194468,0.04553649808022936
474,0.20716424805278333,0.04176013944282327,-0.045784584115699266,0.1545545262566543,0.03721379271818367,0.11602548928207554,-0.07146910160502024,0.10957342057813207
475,0.2689521174992342,0.08987948311255857,-0.03435328989005836,0.15258946017888075,0.008030630297016294,0.15711493112724562,-0.08800514623722354,0.08385741965659683
476,0.24494236160585933,0.08363231112998012,-0.03205037823230519,0.15694818634282856,0.005174466169860071,0.15032967618439388,-0.10369091676364676,0.11442728815282589
477,0.22404629984785873,0.03391258905815417,-0.08513038694831468,0.12193971107029226,0.029483956821318078,0.11784403496772512,-0.12402575372306521,0.05820952477605954
478,0.22484356281110882,0.05495936210427961,-0.058444281919107825,0.09191770975869573,0.021541419603382704,0.12209998916767827,-0.10468000723382642,0.0783140187916115
479,0.19932601420248902,0.06391479032748543,-0.06564882579839985,0.13444745920786935,0.017102512531141662,0.14775827487810012,-0.08252300733197145,0.06658747023885074
480,0.20975245011284552,0.04387463745008274,-0.018726997608598826,0.16987728544956787,-0.008953388895321808,0.13466836328278373,-0.09698178259654229,0.09769734265921626
481,0.1569755192154616,0.052307625366518604,-0.04905149202084379,0.01490606721838827,-0.0012625998757078403,0.134616474324604,-0.086379311840314,0.11816899556540765
482,0.14577400379438216,0.01251407226569591,-0.035278280797168375,0.14661534857730008,-0.005963197478115811,0.13426385533495003,-0.09458860999851348,0.13811904468230726
483,0.24930404670472417,0.08071505674654506,-0.05507269196785517,0.1980894514801595,0.03291035551112777,0.09397114920081905,-0.0976804240754749,0.11252065096774064
484,0.2800098682401873,0.0649602036316601,-0.031148192537161987,0.21557069784110866,0.028917918263852416,0.11542769153108544,-0.10678160515474241,0.11137632116562206
485,0.2562825674506187,0.03419654560179718,-0.03648323018779085,0.19109214970339422,-0.019554409589279207,0.09605683560700155,-0.13549403787346367,0.16452998040621142
486,0.20161459449747376,0.08502970634405692,-0.10004669936087734,0.16362418256555347,-0.014695595203703069,0.12009701378700531,-0.06271491612495425,0.009965205876758523
487,0.21409316949295518,0.09754550683564082,-0.0713962368301984,0.12001667446392728,0.0232194272157939,0.13004848132624772,-0.06912410831845331,0.0010122124012662327
488,0.24569956205660068,0.03179538464146682,-0.03374632156377692,0.15183419198930784,-0.03742246069360891,0.10958342808498116,-0.07954865062597101,0.04981380223762491
489,0.2560261083738494,0.07239447544620504,-0.03676493791050328,0.20423969948944995,0.01081571775242114,0.09464089425813219,-0.10570041192108445,0.08214792527637152
490,0.18205602993196102,0.09050165565749418,-0.05224648713981088,0.21525625630429226,0.0069080303724777335,0.10696057581234518,-0.0584834001899765,0.038695785676814934
491,0.2347802482816379,0.06413721980437777,-0.009426193380668637,0.16260933743804834,-0.0032440386303138917,0.11544405921735781,-0.13647505063079776,0.12003582146432075
492,0.2055755022507237,0.034133916022738166,-0.034546736237901776,0.1355807062704003,-0.005223856874358336,0.13984703159450942,-0.09592201960058236,0.046586380230261744
493,0.17071073699265144,0.06960108112806422,-0.022275918376455203,0.07808010993689388,0.050545787571761217,0.11076343735520336,-0.11027512936458343,0.07262293575626733
494,0.20480443468201795,0.0438229355877927,-0.02584458013763276,0.1833672987859119,0.005508474013691319,0.11951951985119773,-0.1110239649938636,0.061275027690770666
495,0.12402436769271402,0.05036921663937172,-0.01948996082731769,0.17335673039978203,0.03441168051186455,0.09420518350042076,-0.10618294765213429,0.11596226649902394
496,0.19661668116234085,0.021125873836855606,-0.01283838369788869,0.14845191196253518,-0.013184682646397263,0.12260260537164665,-0.10808866785424427,0.1388697584790386
497,0.18212850386962653,0.07628921453266585,-0.06653044770671443,0.08969275494103181,0.003704361611791344,0.11723249682203433,-0.0864546776353896,0.021442912079949736
498,0.1800024278309976,0.05198098985020402,-0.04541558591894664,0.2590536201242698,0.011427471431251737,0.14280700546305203,-0.10396103670012379,0.04662100079695194
499,0.21188980214650446,0.030658336698365818,-0.02412279147478749,0.13983410890901038,0.0035214794606557532,0.14231554212714942,-0.08509125979458336,0.039849719387593206
500,0.2728244621938581,0.05883335753999925,-0.05562507230832162,0.1820135855987209,-0.017217333990750157,0.11034920046453753,-0.12094184803412444,0.03183183240329382
501,0.23561417302315396,0.06896130841922696,-0.03716435952354991,0.09081505816352112,0.027239411776835018,0.11988165849265334,-0.10330991486251205,0.005692007997482164
502,0.22349627707305833,0.046402955182284135,-0.013802141553399112,0.1709159951887974,0.02012165034885131,0.10115301642909469,-0.10853085598627447,0.08896575304797584
503,0.15203473635760698,0.05305932850243947,-0.025092527717981837,0.17401861739695573,-0.0160537667124623,0.14134580630552207,-0.10563582821626132,0.03945125339383692
504,0.27088457173941827,0.07255828511115624,-0.057271671360617664,0.11958970391778075,-0.004808796035096132,0.1070003248242073,-0.10696262652227663,0.03931049598750908
505,0.25679454721671024,0.06320606721488504,-0.051017810510998546,0.13556487322530814,0.01826322431136636,0.10684995758844484,-0.05709663357584504,0.09369777785828924
506,0.26003029750109685,0.044338828336295495,-0.028269528700042037,0.08834468393835372,0.04027971959904102,0.11117754165538446,-0.0890080136011451,0.03639287235793341
507,0.28135106335954324,0.04503579066824499,-0.06116195796041457,0.1273313809257563,0.014829199536244899,0.12863697119967313,-0.09039188603099918,0.11909071695332012
508,0.2664398516594186,0.07846462465763644,-0.06228715622619467,0.08570629507154424,0.008984691325505292,0.1260308466708786,-0.09302656159257677,0.07526619772830394
509,0.209181832769385,0.07511305739877315,-0.042979497433544005,0.10867584350083306,-0.006951568021962679,0.12345602524436783,-0.08164714734516289,0.11050644930958751
510,0.28211640533019516,0.0715258897840999,-0.08248693814078549,0.10258750939499635,-0.02591027616453215,0.11135416889081504,-0.0723585207768551,0.11016781319574227
511,0.1851373982966952,0.05341074263885431,-0.011047720282899286,0.2268722848046031,0.04980229667921802,0.1303437267990745,-0.10919453010688095,0.21030291594688022
512,0.2168276031724535,0.04486900541800567,-0.08756296595175522,0.1122009111408061,0.02492393313731792,0.10850444855199945,-0.11837497687742624,0.06530394972698053
513,0.2247374853633892,0.07008145152612419,-0.07110444056409784,0.1486030952698545,0.038234060798324664,0.08985824465337372,-0.12307845917869438,-0.055027760248038134
514,0.2438544174490489,0.07537220609357469,-0.04946543057058343,0.16454011464520515,0.05918303372964548,0.10334824621075492,-0.10273662953896671,-0.01715812363273157
515,0.2244402739126733,0.08575497550507788,-0.03169930356781406,0.1319875338385364,0.04734259339273343,0.09357749660078021,-0.09589224281678387,-0.03202196683771384
516,0.20021904970441007,0.08054087545685515,-0.05004910209479435,0.12620406233552806,0.05268243881968369,0.09501912003127996,-0.08675389018408017,-0.03908318181343899
517,0.22473901243574432,0.0876742903957946,-0.05780415260795839,0.10159481073136335,0.05287882223633292,0.09913911570856457,-0.09009570504986303,-0.04688669124040997
518,0.2096763565269588,0.07968999071259728,-0.05948509129254646,0.08916950520240974,0.014014648616698003,0.09994829218366803,-0.07735118233365765,-0.022968736337780418
519,0.21213767116836293,0.07909207556887693,-0.08058613815247809,0.08729668445382431,0.04763782477625952,0.1304444048394742,-0.10089388180725002,0.04566458279349579
520,0.23104623448959938,0.05876788125728717,-0.070919660068961,0.11545789657929435,0.034990618357810616,0.11675917227961662,-0.03802809917104564,0.1610395801224687
521,0.17626599777785923,0.06610564373859802,-0.013268058048247088,0.15462728776963314,0.0026389381417813895,0.0997960651438433,-0.07774065218437899,0.05462406353458033
522,0.24050215977179307,0.059352543173913315,-0.03132691763457059,0.0796053878217657,0.01345088056095909,0.1237491719950423,-0.08376277595652226,0.05504216053576266
523,0.23097516921982889,0.06542124227919974,-0.00991584155769732,0.18527146573280312,0.0036102676220645096,0.09766282249599609,-0.10331298515279032,0.09833036973376759
524,0.1807614030295368,0.043424361464224355,-0.0031435669947003073,0.22075058975213308,0.0018355299398705204,0.12707087545093274,-0.09195562692401822,0.0641749329555387
525,0.17134092354147384,0.05522182621430163,-0.05486918508521373,0.17415038966507618,-0.003923631744233402,0.16779472621674935,-0.10763534995071866,0.10475395822387645
526,0.2395760431804901,0.05091315536426202,-0.061257619086903685,0.14488470053982455,-0.018625757746016502,0.12681855297065095,-0.06925777780691914,0.1505729648220764
527,0.22309989483777665,0.0311451193237445,0.005499780490241824,0.17376277850273697,-0.011360714790730045,0.09177473775880933,-0.10280964020394195,0.08446179267157522
528,0.20159409415296753,0.07277341940643917,-0.0750729451767379,0.16909271647721527,0.013244502743985948,0.13043598884824845,-0.11336558508866129,0.13279071326556507
529,0.2010797756343008,0.06893720901298221,-0.015483277681022867,0.24863218520971184,0.010838557425435314,0.12149595058311885,-0.09510816465907469,-0.0017141801396076827
530,0.21253031927940577,0.054788048238956895,-0.03749867856133815,0.28038273191369134,0.016821034103414675,0.12317569183268508,-0.10355240032874108,0.09951246881038517
531,0.2392994298385063,0.05675268054821301,-0.05221861794899366,0.2085500715014381,0.02664770200400671,0.1083574149733732,-0.12677958879249485,0.059101531650293894
532,0.18206440059767875,0.039077902587075816,-0.09281302515225376,0.264927926298951,0.03708493601682751,0.12656992525494057,-0.11444789753210796,0.09785885775060996
533,0.17336378554532894,0.07961221947933943,-0.025499936001296946,0.17001889334356915,0.017339152562867513,0.10505096884566391,-0.11027003837727362,0.04556870418680467
534,0.22003347832397419,0.06013510857023783,-0.08464898391719225,0.14459210183545482,-0.01120399674818657,0.1382966430051165,-0.080925541587665,0.11338823587168696
535,0.23785968678548797,0.07508919566491137,-0.09051568362113382,0.18147507832581752,-0.0005163399403875476,0.13653904764456581,-0.08027226532579697,0.10280959321494422
536,0.18168197198637015,0.04147109024094584,-0.05210035736325612,0.1441237127977787,-0.006459885990101852,0.08919899469538708,-0.10340813923214913,0.06888791164990586
537,0.2915229171647669,0.08786898457701181,-0.09105678525062323,0.22406071007108255,-0.015983026554672753,0.1512434759823475,-0.08457114939941954,0.10186886335847258
538,0.20387970716395115,0.11225538025921325,-0.018858860389184832,0.11201590894266072,-0.016123036100141583,0.10804876668699466,-0.09982431473326253,0.05166609882643704
539,0.1986659512974941,0.09978250172437382,-0.012953335516008233,0.12273191031748483,-0.0037080412989706595,0.10536423317998808,-0.10886760067797054,0.07460945954143798
540,0.21135391885218832,0.06011352127688087,-0.02151183532846047,0.08513291580860266,0.0022140858182717977,0.11790541722712658,-0.07825386440635604,-0.0023099202256427268
541,0.22741202201885438,0.09397069809619117,-0.028736115355823776,0.13217414168924174,-0.002183318448981853,0.09690687870917893,-0.09207496181509765,0.10201718982085288
542,0.21327372925038396,0.08052352110407619,-0.08491091981024747,0.128127718081478,-0.015546465089852052,0.1032468081555894,-0.08028600774716484,0.08920546032590113
543,0.22493044990566582,0.06330102189492245,-0.013506699808900157,0.09302956817879446,0.008562304796855711,0.16148313198371197,-0.050853330731543765,0.06387509119992128
544,0.20641689785870723,0.07421380887712525,-0.09698058142678001,0.17865389208833654,0.023614452398570875,0.12521083540214906,-0.09042890434006431,0.10769693545027131
545,0.24063348372476676,0.06970452192720757,-0.0319449051544955,0.05380435789534458,0.025893753999132484,0.13512553409632058,-0.10794889775619597,0.06247158585827837
546,0.2103244216444064,0.048873600279291385,-0.048494999811713894,0.23761188654323412,0.009546318786623535,0.12181002902323003,-0.1125277391177717,0.10592996231594123
547,0.22753216151610473,0.06436207344118683,-0.04953116282823631,0.1319028573809236,-0.0008470142799279167,0.13427309123118275,-0.12040416348219304,0.10002436982066519
548,0.13706889185322887,0.036399190131070104,-0.051643237500474164,0.24821627505925115,0.028512259225371327,0.12068282328813305,-0.10600301833409205,0.031664995760552886
549,0.10550386340455192,0.10155404878338012,-0.010018083164573038,0.1104615488295975,0.03318881285426235,0.1388342183837155,-0.10225263488793064,0.06075630113269707
550,0.22236981783775822,0.06141711058284237,-0.08111766707907977,0.18053958767630704,0.022071030252991324,0.1251907037830477,-0.09613675443280213,0.10676817451762831
551,0.20152421021651168,0.05083910143481564,-0.0714732777075988,0.1458033862471239,0.0201653091274973,0.13147707583474236,-0.10806974884497464,0.08494795648368957
552,0.23799278820906247,0.06089038087177856,-0.02215055455431277,0.16730300684018964,-0.006137993822889838,0.12197154575730158,-0.0820607292454173,0.12498695896084971
553,0.16148830945563253,0.08491405245332272,-0.03942764480127829,0.19433730578415462,0.009644963489523246,0.13099704412562918,-0.1386911728217794,0.1612253910275377
554,0.22611528237407344,0.04812145631726038,-0.06423569308087582,0.09427604942330148,-0.0019779891090273283,0.12664902993094296,-0.11968472051683364,0.09550896610604592
555,0.23564954413216135,0.05371138061924245,-0.05270425535539922,0.14794993533544368,0.01138887839158342,0.13031717770008674,-0.11604479028325208,0.11789377754009196
556,0.2553118200106934,0.062305399609141936,-0.05987542173754353,0.1682612566068476,0.043466388438844074,0.1070194553950969,-0.08205966969253743,0.10070466627598541
557,0.20236949566787302,0.07410874807925001,-0.07840755194445204,0.15136209222303607,0.016306607682996774,0.11485904699437643,-0.10828554578186901,0.08765367921250392
558,0.2344785536522962,0.08839830470949198,-0.10221841232342155,0.13330652695148157,0.028951784123830523,0.12979355503120457,-0.12394915722755254,0.07974985894884308
559,0.1806173622288373,0.057647457615644174,0.0034219307144057304,0.15752385743569683,0.007579219709730452,0.15766486919911163,-0.061450390359093415,0.10458295684889463
560,0.19808142346840954,0.11491985434883956,-0.08029210545177404,0.15560678166834557,-0.001975770830558687,0.11802421628959421,-0.12439599915155755,0.13998081247456612
561,0.2328207083088297,0.035393314796963296,-0.003691085411039043,0.17262367989916455,0.009802766248796462,0.13714360616203225,-0.1129993732101026,0.08509530044280662
562,0.211398481318373,0.08654924384990806,-0.010697777526635928,0.09136441191151262,-0.020028592403963045,0.11942330085330274,-0.10766173429225516,0.09801576806725375
563,0.2210778179334848,0.023925949350087152,-0.003378087603466466,0.19174174281629683,-0.019915127299227113,0.1300543632800001,-0.15140419132162836,0.11631167589295824
564,0.21161409778878035,0.05364885447334353,-0.02594739441013373,0.1505393660223138,-0.010335135341036066,0.14123885669100741,-0.12777245402304288,0.18158667457907973
565,0.215207943813913,0.026849599404869688,-0.043562358800625436,0.12676055252642696,-0.002361605841203575,0.13168732371289738,-0.11195100710669426,0.08905355889517061
566,0.1977575814251648,0.07142260767135218,-0.05391182578060593,0.15126242245374968,0.004898547538238657,0.11390464680690862,-0.12199895689737436,0.03490233105311186
567,0.17434458715309326,0.03373955246485787,-0.061111410665587416,0.20799057339243077,-0.002203573601627261,0.11474325380273094,-0.11231364379738484,0.08054107303317143
568,0.2399818265882916,0.07378854879832528,-0.06886244381838899,0.1560860586218412,-0.0216198423397959,0.13751230458569982,-0.07862977297816069,0.14189403466341943
569,0.24195752044171115,0.07328037674163865,-0.03168070869092146,0.19096379829327403,-0.0011148575334014306,0.14859496996535593,-0.061861894070514845,0.09634171567453616
570,0.20576327732301258,0.06910536452019095,-0.03880400385518012,0.13296199754610719,0.03068600560431211,0.105377588287853,-0.0592778201775792,0.07689457917377537
571,0.28600915920863995,0.03720305646079945,-0.059592166519544264,0.1490366826735416,0.010065326268259135,0.12426874491949358,-0.12328909272494032,0.10186477484940662
572,0.23201456456356193,0.032148888412477074,-0.03905252510076059,0.20569914528931485,-0.006508923306966844,0.14223280045230896,-0.08939203251249375,0.0657604234782447
573,0.20878169786350695,0.04084273411125145,-0.07616830703071958,0.11268901583669746,0.043697364451563615,0.0911903397009312,-0.12535076414544732,0.12281299003906265
574,0.1848520215707672,0.01586490725357753,-0.06335153230133296,0.15610048573105828,0.024319082663468185,0.10313263154331899,-0.08620100033876434,0.09518982959757707
575,0.17761713783638983,0.04748638091161939,-0.08979845230341764,0.15824251063452793,-0.0007136444937820314,0.11389627685158243,-0.09594619077406195,0.048887360537549336
576,0.1512945853137542,0.04073921884226542,-0.08620484337487261,0.14934903825620455,0.02292771739639593,0.11442116180651121,-0.11329557651198044,0.09956286594070611
577,0.18634023593652707,0.017352577292181138,-0.13951989878147694,0.11996338624682817,0.02576208765792965,0.12166428857879016,-0.08121426680044348,0.10782356779459891
578,0.21078867021383704,0.043244433503210965,-0.03274163723252363,0.192634142809289,0.02721621343193754,0.11998984366053032,-0.12700334948705994,0.09199768545702054
579,0.260984886237657,0.04919462165047616,-0.0808066400684107,0.10606612050092322,-0.003607596719644434,0.12231155097277256,-0.0827458717280339,0.09472995668688959
580,0.18989632289125288,0.10021739848298969,-0.02544726637809846,0.12418042699505015,0.026892522587751745,0.12772550070070843,-0.12805401567067495,0.06801573879078407
581,0.1665661947618408,0.04016742022301933,-0.05301594267560607,0.1724809930578202,-0.011831536890174766,0.10502671988718294,-0.06426013697898006,0.05426953391061424
582,0.18223730558389703,0.0572206825062646,-0.02954822135019841,0.1816153234435616,-0.002265352370987047,0.12127411924727872,-0.10275775285293075,0.07264724462282501
583,0.2150012162613598,0.07312293795880445,-0.05774568881508041,0.17821455049334262,0.025022870215095038,0.11171196783279001,-0.06541652985616266,0.05364755282756987
584,0.16985131874573328,0.053805994314571635,-0.04852454405209895,0.1673013205071266,-0.0062562138795662385,0.12613757062691486,-0.10891007532294407,0.09710628073967102
585,0.18109353041210405,0.046822700538382014,-0.04937958037822524,0.1454107363991261,-0.009095036851708217,0.13313650953436423,-0.09798328431550805,0.10433373713986135
586,0.20732506720477195,0.09083525991122504,-0.08160431701954272,0.16289272170200228,0.0025176469209119393,0.13021244241823135,-0.11857631138270491,0.10842219722053968
587,0.1551852931771561,0.09018873815708825,0.0004761113455595684,0.17640802945140346,0.01681358298879523,0.13315812087347798,-0.11965414068222961,0.08934019046227552
588,0.16503772507650602,0.05429759436319356,-0.08354527161715689,0.16094886891505014,0.005934570555892725,0.09714880051237523,-0.10649699615832961,0.11353265730894455
589,0.1815985880284514,0.059679045349705064,0.005418662249147272,0.20016823545124335,-0.014759255238164976,0.12239730718014354,-0.1307442555634941,0.1265029166882547
590,0.1524247996513472,0.04841139956016595,-0.01630836554978328,0.23801102712989647,-0.007139849453308484,0.14281002681701163,-0.13549831551281583,0.1418104034279595
591,0.22919275066248215,0.06428824100879191,-0.03218755366568967,0.23847773388867985,-0.005788064472977165,0.10615381823884885,-0.09027840832923213,0.09362835013829864
592,0.17914803721926845,0.07091916096272555,-0.020338176970751593,0.2155782779518414,-0.027841349288273455,0.10831078130162158,-0.08358728545663237,0.03718502291100833
593,0.19568385856584758,0.05380881025245736,-0.027459355052176893,0.19374231922945104,0.011574963106002686,0.13256864262371543,-0.10821280862732868,0.025369149332434348
594,0.18068189106735863,0.10123561247663158,-0.027282574689286257,0.10438013100153017,-0.012644182924970764,0.11465377508272438,-0.12868174975197108,0.1309300080713117
595,0.19677932750128393,0.012988681264742499,-0.05997025292880951,0.22832597679054964,0.058708212133266144,0.15936823430966066,-0.11551221625040103,0.022936076381847057
596,0.2231592269693099,0.034682170798149,0.01603748019611399,0.2403988924060244,0.023214248632936186,0.12848471551034782,-0.1272870338604411,0.03879122430677455
597,0.18851341987450282,0.059801032213803916,-0.07565382630036231,0.18444276068909496,-0.008438873264149598,0.12957149406929902,-0.08178531474962554,0.13076707446387878
598,0.1625594898358077,0.08191334935245922,-0.08851725102142338,0.09179598880959522,0.0035289116417932375,0.11098183053743012,-0.11736258728902037,0.06611429285990832
599,0.24130434145915813,0.07961989748577314,-0.11287055063434406,0.1460214840633996,0.008458738567553569,0.11966567822924125,-0.11902781908015947,0.07087459942736098
