sample,celltype_0,celltype_1,celltype_2,celltype_3,celltype_4,celltype_5,celltype_6,celltype_7
0,0.18774221207397554,0.06620516445236592,-0.024649411470571064,0.15541711668785724,0.00855127362029252,0.10982678486978611,-0.08916095200051928,0.09111594543276744
1,0.23013741042856722,0.055725956232040796,-0.0025200403486437557,0.14700717086630846,0.0011548086631618,0.10212356130474454,-0.12203006369359715,0.14309173093392716
2,0.21352966937058054,0.07624007362301555,-0.03359501318197004,0.08964666610833263,-0.0017811353283037467,0.10620533961094196,-0.05294679005277328,0.04973888840008364
3,0.1992030721051944,0.05017756830792698,-0.047384678607490696,0.1867397395901535,0.0014377284037958504,0.12410128772880477,-0.06074199305425218,0.09094106656149444
4,0.1593543196504498,0.043826325639365456,-0.10566024124695973,0.22135511116371004,0.008770406647807837,0.11901949146972209,-0.1090002325016327,0.10802785790216862
5,0.2275022535833737,0.01985868765057209,-0.07851360437745879,0.19341287240353802,0.01920035940614268,0.11541550915830716,-0.06334192272289232,0.08210673606361754
6,0.21725545851923384,0.024285809611557203,-0.08518731914053965,0.19031943143542893,0.008561904357368406,0.12266009713203133,-0.07426752798418393,0.11373389624058851
7,0.23984848526317334,0.048315249940101564,-0.08155818928774553,0.16320871895110065,0.024245183084916362,0.10400658901535084,-0.10452450256533545,0.11845969437093175
8,0.2025242553395364,0.039508568425793804,-0.030778614288302565,0.13871826721815922,0.0035048086497471735,0.12695268625578862,-0.11592261668274972,0.05437021687746188
9,0.17164253520923073,0.05167379560270012,-0.012793416719081971,0.10528973321977846,0.011486951271316041,0.11952599289944979,-0.10178850447686873,0.026182183618004253
10,0.2141944520928559,0.06663321826931405,-0.010886251803812837,0.09517784770811742,-0.029919815171415735,0.15454000573965257,-0.08954135020906444,0.05182864656786837
11,0.19355726405330437,0.041802337425009335,0.013221119830029757,0.13559884093867472,-0.013638397076946196,0.158737341033005,-0.08180788853429281,0.05205196966981122
12,0.17765637722753103,0.03088314730980913,0.014139473910472653,0.1478362612558343,-0.019341247302326857,0.1412637922131561,-0.07815912272362663,0.0694029925217948
13,0.20783040226279384,0.08785095218550187,-0.015736105466142673,0.08213006425240355,0.013807799289939046,0.13721484081311092,-0.10451295135734792,0.03162749618452563
14,0.22311409648926328,0.09157307601603651,-0.026249834278999996,0.07366908423540944,0.004922459823978539,0.12522747280585103,-0.09263305411436801,0.04480286916379367
15,0.20876068242044815,0.10315261497845796,0.006598624793302578,0.1339800283211833,-0.02021745336364498,0.1334457474023264,-0.07454712690955557,0.02569977602079574
16,0.24617718360198942,0.052121543505922664,-0.04577331662967103,0.10443825442448941,0.032911634557094324,0.10297812579529646,-0.08438251760937976,0.07709873579675458
17,0.19855723867474837,0.06131749985535028,-0.023699223008462056,0.11469993750320395,-0.017794561763766654,0.12574714165745066,-0.10130475395517372,0.06588190232434876
18,0.18167580573782371,0.04961716349040673,-0.06028454628732607,0.11886823274137204,-0.03502763151697181,0.10268753175198671,-0.07907283289484343,0.05458331791173948
19,0.2181415350604156,0.06281455586999725,-0.03183720909343056,0.10136424826606334,0.0024074057475042703,0.13003268026631226,-0.05793429927464604,0.13875002363045771
20,0.24508441941188866,0.036088379061811206,-0.04421497599137828,0.25122920486274514,0.02694168190307157,0.10596752295749895,-0.06827320697232378,0.08611806927546996
21,0.20774874341898422,0.050127826224018374,-0.04357192066876366,0.14339026149325956,-0.04908794732945497,0.12923305345820923,-0.0944820251051558,0.10346503538111496
22,0.2145401654793106,0.03706361419261472,-0.0468760531164241,0.240678695976162,-0.00025454614054299984,0.12529493409262915,-0.09403246326890297,0.09507615852483625
23,0.21673991380655666,0.05098291603382572,-0.05139391445477632,0.1861401721897738,-0.044612480898843794,0.11566729259811238,-0.09376841973424933,0.037247126699868155
24,0.22177756265474752,0.050089345271234445,-0.052797117004429496,0.17684779425246167,-0.03071168251168442,0.11508610363038667,-0.09848122055431742,0.022364312790394858
25,0.26795660943085536,0.04855214314034221,-0.09255072065682442,0.1051060190603846,-0.0248421877985323,0.12514155581683523,-0.10950753700927798,0.14391086295809843
26,0.27003873995578753,0.07210248114629943,-0.08658915964488172,0.15935093363299285,-0.03867894651341366,0.11832720382996523,-0.09899926226165243,0.09569308851918303
27,0.1741420663822207,0.017613952063814164,-0.0622892978033545,0.19392091833007866,-0.012050656211414407,0.13021507386053838,-0.09339265118135631,0.03685057292586518
28,0.21051715017600006,0.037241707803941565,-0.009056563289445515,0.15810451499909628,-0.003500144176425809,0.12559483522095735,-0.12025840042791865,0.05134376099431283
29,0.19589660154675026,0.03701962077397613,-0.06299385872963449,0.16101660065441722,0.009629435535147592,0.14340746609515165,-0.12529169510276822,0.0717984970273754
30,0.15347951207479682,0.03931367886258545,-0.04994692923354237,0.1409883710685107,-0.026480730923081286,0.14249544585560306,-0.08254293047857522,0.04548138057392628
31,0.22595852321754456,0.0958795026970781,-0.07253141066712401,0.1129520203101689,0.020429930332314918,0.10896272564292861,-0.07052069196783772,0.07965270603164382
32,0.24735109919164663,0.08998938328448569,-0.07363571283483675,0.06965281392586588,0.03681606392182414,0.11847785758255995,-0.07966656331936427,0.08938660149485714
33,0.2664367637820919,0.08866697913839275,-0.05989878761890898,0.1778819194914491,0.034926422834202116,0.13049348241382766,-0.10460536772255388,0.08003475122404125
34,0.18843893045303936,0.0800267829991098,-0.03677277810992198,0.19398733569524634,-0.02390678200802536,0.1113356412058972,-0.1183481677019925,0.09397399603242107
35,0.21205615426036095,0.06592292566289937,-0.01076118438852932,0.1552806020814136,0.010733314374946566,0.13223079731408016,-0.08504999762900116,0.11040897981737936
36,0.27105542509817193,0.05266193386255177,-0.06970361852974379,0.09657298588972607,0.02620866777285037,0.1194307487738894,-0.08604363404993803,0.11740194243345305
37,0.24182626102450175,0.04694190371762967,-0.03187005759064331,0.1729307965683006,-0.016287969132944967,0.1367359367670167,-0.07685561511077774,0.11336942135183883
38,0.21129604954227266,0.06051084141978034,-0.023509017330984986,0.20142047436207994,-0.018683801934405265,0.13766851677874203,-0.08693042581166281,0.08688653129091126
39,0.24811572228019918,0.07729535322255024,0.008384632471945408,0.14399930210755155,0.0129319366807242,0.11972029624548039,-0.10515555946589575,0.11069935487124812
40,0.26352143843439374,0.06406371975408753,-0.09799700833417427,0.10943278191569916,0.006834815796484937,0.1406466897507414,-0.08798931404883854,0.123009815586764
41,0.23976573030216305,0.06458310565936917,-0.03544689686512583,0.12452352987302447,-0.01670627391457368,0.13977736412109185,-0.11296488246357712,0.09984746678765707
42,0.21342411989997004,0.0605375586938169,-0.017944711551664456,0.132122554524902,-0.01868263761005531,0.1456417296595344,-0.10510163118248814,0.10887294269780622
43,0.19872572979213063,0.04768511791154339,-0.052621054881915645,0.13291948753461935,-0.016880529123817257,0.12562592145554416,-0.0744504547135864,0.020327012887055216
44,0.20883140969048997,0.05252334277942214,-0.02359081442690795,0.1568407147241959,-0.01230541590842334,0.11542587598869163,-0.09141553104693415,0.08093632761821482
45,0.24579426763572912,0.0621158971374814,-0.04832011686342616,0.15138804178294676,0.008962175011793722,0.1122198861060814,-0.08958273519711425,0.06156880915691757
46,0.17523337472908504,0.05693460246185172,-0.041601216062110154,0.06992940047327917,0.007894214139404892,0.13559293949959836,-0.10597401195174956,0.11994769163795245
47,0.25353424851649004,0.04270524810644664,0.00836259267059167,0.11813943004257409,0.043384547682751164,0.1424776771417125,-0.0754364873120004,0.08619884805185991
48,0.1851233110354584,0.051856738038504685,-0.03817542343391275,0.14760201053324867,-0.02260789445673507,0.07682316823759165,-0.09452423773980964,0.0653630404856419
49,0.1854908480905936,0.05175768602118406,-0.035816062992654746,0.14898177799106435,-0.020436474559701864,0.08543578675464195,-0.11980850023225713,0.06423750173403552
50,0.2382252488007337,0.0774459321001212,-0.020201143648910385,0.19365169895011297,0.03100920397502949,0.11106318579516813,-0.10398162982670181,0.09109261479128092
51,0.21584238261419725,0.03154022434963256,-0.07364327516698076,0.08011643432153132,0.006241595687704126,0.13000747979957006,-0.0734715728780372,0.06699128043268629
52,0.2081960151319303,0.014462762746184929,-0.07037016734791694,0.18076063353276062,0.002336970462250262,0.1265510592477456,-0.08806379908126613,0.032176874531985096
53,0.20425108885364746,0.0696400798107376,-0.06262606464204172,0.16876620596339642,-0.01848986858575637,0.14032307073101918,-0.08460737251365846,0.08398659341439359
54,0.2318598079849904,0.0663019326176235,-0.07857099742385051,0.15414818043616516,-0.02118937601888454,0.1498597947079377,-0.06122261331381539,0.08586299759098692
55,0.20492160754089578,0.09314191150704597,-0.021238461728449443,0.13695694270140413,0.020190771675946736,0.10945716050784772,-0.13167867802039504,0.08623236372769709
56,0.1393984840663092,0.10896881092007747,-0.025688061271470122,0.1963367792129441,0.02421231000534587,0.15300058773518724,-0.07459691021852324,0.13016030127427125
57,0.22211128855722873,0.05334587922275445,-0.03482701780380036,0.17143792222276205,-0.001608800056700191,0.10641199271363426,-0.131725114221146,0.00029687809467147393
58,0.26617329353757496,0.05230672860585718,-0.06603127261540373,0.2045544372249273,-0.037828847837709845,0.12300557275863509,-0.07446987426242302,0.05686361263701341
59,0.22208477494585266,0.06498102820287822,-0.0811154962503413,0.1104611789127722,-0.00720934619382968,0.1266505082813577,-0.08278824169230195,0.13028397962142424
60,0.2188492289844823,0.0954591311275041,-0.06219736684586812,0.08469473964956324,-0.020898741623232967,0.14139807422660658,-0.08432415724158884,0.16097998017343831
61,0.23624824299315456,0.0637254397919039,-0.02528464719434579,0.23097504840412011,0.024427288268188917,0.13504865651490774,-0.10464253783518838,0.0385750570890779
62,0.1474478410211908,0.07817453695277356,-0.024831459961639483,0.1418046623795226,-0.015031377945300189,0.12782141942041844,-0.058076723855064454,-0.029594806841755836
63,0.287538891456204,0.0319074938330005,-0.05941270241868345,0.15727726043859205,-0.047547825899567825,0.09051238020741692,-0.05310534348012993,0.04881263335735358
64,0.17834688658914957,0.05411969471339318,-0.09025557537320304,0.030825041398149806,0.03177251729445027,0.11867030848367771,-0.11616088153538313,0.06008547868195337
65,0.2739717896839383,0.015079795130717047,-0.007675254808263683,0.12711698722800252,-0.008740741350913324,0.13053530593959808,-0.0540926316814194,0.06533975613980471
66,0.19930868985760342,0.03614947460525915,-0.022954834665057086,0.15407005498543128,-0.003517339706393787,0.1420820182097938,-0.07857651317682948,0.10471644765098587
67,0.24229169610266657,0.04594632106869531,-0.07225715807561336,0.13141929680096023,0.029924379413615688,0.1084872904171322,-0.10346474224727323,0.11100451294906381
68,0.2710052267659442,0.08549173538664531,0.01158581629824124,0.1812632345547892,0.019135331724108615,0.14942232931319305,-0.11637684223083278,0.07133523969767419
69,0.17883229418437654,0.08932331670260536,-0.052776619055767394,0.20328142001238989,-0.0045660434152920044,0.14014353528948006,-0.09699495408355618,0.11382527522546303
70,0.25555096158423873,0.07637113201598819,-0.02212127016093741,0.2147015685330776,0.011855918637801737,0.11871208586005177,-0.12643256107867162,0.06874209302316138
71,0.17922287016075994,0.062027529871897295,-0.042209596959924246,0.21383964128567595,0.03418010631290214,0.13847102301557848,-0.08531595513112093,0.09187922330332839
72,0.17493360626021054,0.0922728697964024,-0.04849826104225363,0.1330022231814881,0.038634841401094876,0.1009498450774248,-0.10170311573716088,0.06435700677982381
73,0.20153803384553576,0.05108143931408311,-0.0830618208436586,0.23287387208996413,0.002422451045032682,0.1413095011614665,-0.07316984639330218,0.09907913713316946
74,0.2167976489079734,0.06083931462247449,-0.042743408376912345,0.15113564373412483,-0.01520407541963202,0.10492419790227885,-0.10340706848396479,0.12882549816740185
75,0.22266410893598387,0.07423785027571052,-0.038134776226948615,0.28348377076026887,0.01998390143594425,0.09729760517070629,-0.07060976458241565,0.11957620413964666
76,0.16488402417454837,0.07791822108363591,-0.07383952698460863,0.11726627393933778,-0.0016549774763595711,0.1118530158943179,-0.11573597966159425,0.07690770057120497
77,0.23209046661238655,0.04171370865370908,-0.04629109379932565,0.21531460697229304,0.02568414484747507,0.10233082921714932,-0.06475108938378989,0.10081424155485184
78,0.14019857532860014,0.05935069006804913,-0.01732810023138137,0.17083127682249655,0.029781866433985157,0.10995126791864526,-0.08933339896573374,0.12071095285780256
79,0.24691493936417755,0.06462605037964528,-0.02025268663736428,0.1182839604930621,-0.009782651755740345,0.1070307164319131,-0.06065695329436367,0.07131939403690016
80,0.27515451689614234,0.08652578322317078,-0.039978434654566276,0.1944820409416969,-0.020870492484298342,0.10309749437810335,-0.11442570045489531,0.05670704697644857
81,0.1994000711365643,0.08891852870619328,-0.041731726508688144,0.18493389184254885,0.005180944080688607,0.16439097694379615,-0.11218813874173175,0.07955688105770584
82,0.24389948659564736,0.05930573821296261,-0.09930763853777869,0.15005674200237068,-0.026289126193082542,0.12386280426332175,-0.08825472996691666,0.10597216560251735
83,0.18492630178581182,0.0465788411905685,-0.019735481365489506,0.17103997719583963,0.04186297611446715,0.11905558354021277,-0.09641830647210686,0.12299277515028355
84,0.18819261968239162,0.037496247517611506,-0.056949005075014325,0.185140710394854,0.034272249540035646,0.12444542888297529,-0.1428083879777028,0.15465006306974471
85,0.21686720415625185,0.07907294281041226,-0.0614636333228236,0.09442227951887926,0.010072208361729881,0.10643995304342928,-0.09832367753343947,0.06454020446742179
86,0.26927821748603525,0.058173148362886846,-0.044507208966800146,0.19577050198248344,0.03293870923756104,0.11335552536207519,-0.14740300955477223,0.12156417921480112
87,0.2811642594462337,0.06458043019494313,0.009637204326859373,0.08047067184116376,0.007934644161947125,0.1086443751489621,-0.08706083755402984,0.07895248509477623
88,0.2123319472705096,0.0900885415397548,-0.09598803355573648,0.17974538514941052,0.026078001672533452,0.11772880253380247,-0.14709503157119797,0.042967650240957216
89,0.19339274689870956,0.03840188342189257,-0.05713565347055515,0.18070658807780587,0.01618387038372903,0.11414747368461446,-0.05658806840133007,0.13082164357946138
90,0.17721094855907077,0.035676831295049026,-0.058014333978130085,0.1797631890930016,0.008100229630135377,0.11471407087316712,-0.045589562000379745,0.13083927557591285
91,0.19854802979421532,0.0653893168171225,-0.013700317578846634,0.1469524866068618,0.018326108932491002,0.12243379822289834,-0.08342317221538954,0.10016210974158252
92,0.23159805326638158,0.06077828491184945,-0.06287599147659939,0.16177800150054342,0.0033632257525911704,0.11786118314457775,-0.08870714544732906,0.04447931741309868
93,0.26511552969996854,0.03588827793231401,-0.04228276753311591,0.16353294650460773,-0.02284120537431253,0.1404064383990785,-0.09499264199097579,0.08325332846905803
94,0.24219924483797872,0.06585207817792181,-0.029876928756599627,0.11921358963275974,-0.010319470272457915,0.09587143123935832,-0.09308986804060175,0.06587331850098053
95,0.21710162454411294,0.05357203161488657,-0.03594457423811935,0.20646260588627163,0.02744488292208713,0.12075998385050458,-0.10358178521491501,0.07386858177875537
96,0.21099696837413345,0.03886546946722191,-0.027153248087858326,0.12899387262005613,0.02655296141955335,0.12088212739804279,-0.09299214412841898,0.10368231414866881
97,0.1585062695062118,0.05064087012894285,-0.07132728573204802,0.08811662985729177,0.006242636166493969,0.1045848400831419,-0.13692117224425643,0.13311547818429767
98,0.27531107592872056,0.04906790970480381,-0.05410091265038141,0.09867139521923624,0.003193116425466957,0.11369782696872283,-0.08590559624599932,0.12577330445332982
99,0.18051852338147759,0.02640318937476468,-0.06652188840124859,0.18655662236880405,0.009289953448050847,0.10544767031458156,-0.06799184884251507,0.04712625796264866
100,0.14347714691486751,0.08985623095218556,-0.08746733460571644,0.18737976226503772,0.05095938293672974,0.10996923330144033,-0.09758965342835815,0.07529543522313362
101,0.16595850058092124,0.06534660257336423,-0.08016119477876045,0.21428549835733715,0.038426017002413486,0.1309028645896741,-0.07885891591158448,0.028718675390921603
102,0.257268590824256,0.04050608206494097,-0.016293736564163136,0.15010827003168034,0.022047524617444428,0.1717235837084299,-0.0711784875247067,0.04704539380818718
103,0.21868205164510843,0.07425433398648248,0.012984091588067381,0.11953416474732444,0.033184950603985505,0.1247018243169626,-0.06874992182812435,0.10269262729292059
104,0.26573001652662,0.07157399987004398,-0.06734893890929128,0.12088313406699508,0.017624980072852757,0.16292287806046943,-0.06787653782088175,0.020001138378670787
105,0.2501425269696576,0.0817644651469994,-0.06355582215433925,0.14056980928204374,0.026080773248365084,0.13738804052496859,-0.10285546639249624,0.08447890656044071
106,0.21045780563139263,0.04470111093399899,-0.05946512238399709,0.1480102352999465,0.014450572970450394,0.17097778050928192,-0.09880648469875937,0.08028610787494882
107,0.20122981548559155,0.040168919240041484,-0.0759588761073265,0.1316310498442238,0.02229717646656948,0.15392303157178702,-0.09846946763241879,0.06941072677344727
108,0.20594416855074776,0.028621377667622887,-0.054423596749593434,0.15942922599799467,-0.021480157539926256,0.13046047221347262,-0.11679256096089372,0.08776071122707647
109,0.25625639850309345,0.08574280618465208,-0.06037557980633751,0.1849429337516057,0.017154404942696586,0.11951725875484744,-0.0872414295026643,0.12083342253630074
110,0.20281642187387638,0.06511388250886976,-0.0644971397265551,0.20645032717373848,0.00017357094805046166,0.10074421577009396,-0.10727626218578995,0.07800611929301071
111,0.18155232711911012,0.07100127613205356,-0.06866740973938776,0.08633470272357958,0.013901448051338078,0.11006989410383743,-0.12575101256953505,0.06587441456839745
112,0.21759018287437776,0.0845709093346333,-0.02442772738688625,0.1409943957678332,0.03528727970487752,0.15455681355910084,-0.10308541427157938,0.06690951787374888
113,0.12929628249008016,0.04943968171350348,-0.05389864316856528,0.1434969195696709,0.0003273828943848465,0.0994911847459006,-0.12516536196998967,0.07541510493956921
114,0.17375344384229424,0.04127482339837187,-0.038972166420544095,0.11703794480845112,0.0029885382305233923,0.10550601516650188,-0.107286437386848,0.070795373509836
115,0.19168706641452046,0.05280741107939236,-0.03339529074938087,0.1395655048841316,-0.024963708823117277,0.14565626398178358,-0.08304713071045375,0.06967431300493829
116,0.1697077100061398,0.05658618708891216,-0.03903858848766065,0.19034587470899736,0.007549491944031399,0.09925692126912508,-0.11848304821436663,0.02313598170809593
117,0.21286008843044893,0.09117226956945268,-0.03287163846336937,0.22122545010916167,0.03868434569510962,0.14223664017677676,-0.08197066724159362,0.0809387727824733
118,0.21258999442576962,0.06218851870125777,-0.08413930437151011,0.14181863461040264,0.011315163667477729,0.1604627809381486,-0.10877556800508592,0.14710021293010989
119,0.2508662897444439,0.025199777700976114,-0.03869132870180767,0.13353811795116935,-0.013455063516348583,0.10353179140073163,-0.14842732221875876,0.04134960000396525
120,0.206398303121978,0.04987378701925087,-0.06851439528485051,0.14031530962110855,0.020708264519573104,0.1404462731641356,-0.11882120412441247,0.09037165768114751
121,0.17649534591238866,0.039229294627518604,-0.05622270013378624,0.11259283386265626,-0.01205019449778197,0.09055479757322513,-0.13561738427533984,0.0011643123245715947
122,0.23553214699306016,0.0526723506686865,-0.05058604156590468,0.20014916655902126,0.014130412436620374,0.15646644243843566,-0.05992888060424948,0.05354711420535097
123,0.18182834236368434,0.02814511389673374,-0.007196507245948941,0.202573975312416,-0.011749216696027036,0.12646072645936227,-0.10532394374465777,0.05676445480364426
124,0.1943428306530186,0.05896594591882407,-0.04422086232233893,0.11003721824282671,0.008344639927496502,0.14281369324889184,-0.11520118193989605,0.06710241243994347
125,0.127261562916717,0.018390481103077474,-0.036784736681803355,0.14241348941808593,-0.03298561487505105,0.11289725872861946,-0.10606581407987155,0.05062114641048196
126,0.20498745051024056,0.05883137878518881,-0.03170092322910931,0.14980287687393345,0.009606658659824905,0.14513179297081785,-0.11823044401463999,0.08645152118451227
127,0.23009433386794884,0.07314703400032702,-0.04930726176900233,0.246793630827617,0.019123671156701907,0.11925127269188654,-0.11088454954890307,0.1539409604536708
128,0.18289599310127422,0.0699841553862669,-0.028278630413741263,0.18814019232831328,0.019241011308008787,0.13135681491981258,-0.0875819037666319,0.11746455671904797
129,0.25351026045210057,0.08120399178478876,-0.011323032925189434,0.21863285361597126,-0.004257502578547853,0.11663471104494395,-0.08331233211725718,0.14199988225130045
130,0.2119998280928151,0.07236060239482492,-0.0649434262641797,0.12611914920146827,-0.021053018767234727,0.15164084468163722,-0.09367641515473492,0.05354692410970083
131,0.21600304846722446,0.10284441970619966,-0.03583105028031833,0.12318424077355108,0.025905693620648932,0.1277170335034571,-0.11044462971532927,0.08413809050642092
132,0.2161165129683852,0.06254002412734103,-0.04189955094506883,0.15936822773656584,0.014527507184952767,0.14834990905991052,-0.07732968838651756,0.14033307038821152
133,0.16947744451787153,0.07059817504912738,-0.04695424027370131,0.17110705023980854,0.03834140241079604,0.10185626639769031,-0.11405314271608084,0.1395540775642256
134,0.23119353358055542,0.0792887537733684,-0.029344722888441015,0.12531085549369253,0.030484221086990962,0.10535145336998397,-0.07273788083341233,0.03010287658173712
135,0.2409822750569456,0.04156047033121405,-0.0556265557778014,0.09362196301793711,-0.010374462590201203,0.11974892702081504,-0.05150758850166172,-0.01323406816405927
136,0.238102985148537,0.0540874420496885,-0.006537351210030389,0.11013061795835381,-0.007547384981259047,0.12114924485635782,-0.05385989805640846,0.00880378920574031
137,0.23089754638720708,0.07749652537813252,-0.029027241788635035,0.09895164821638897,0.010219137783937517,0.12320399643290512,-0.10078626794495633,0.04273912342489801
138,0.16825808536588355,0.03813186569695905,-0.0485236725772175,0.17110390899550604,0.019279173209022213,0.1257242585540264,-0.11254293988286337,0.13099946705176768
139,0.18783888762280798,0.08783787992189537,-0.002631162954488373,0.1754779378915466,0.015043219114519262,0.11063072863716499,-0.08653064038375932,0.07590426717930816
140,0.17105766539083192,0.02756053414150679,-0.06392064044795308,0.16379423090771272,0.007776139524827369,0.11181308753575313,-0.07919803561453202,0.11777461198547226
141,0.245225374465217,0.037153586786170464,-0.05218064489941494,0.18306329695832518,0.0030995548223455016,0.12956872303392816,-0.11227401543319904,0.11306982442137116
142,0.26859922712597273,0.04257460425301931,-0.04858815459430329,0.10025714324853405,0.0064317256751547916,0.11874586883420948,-0.10283441670695444,0.05988056634974322
143,0.25764532691926106,0.06933180695502754,-0.06682236656929537,0.12214289869750451,-0.0030769193700348886,0.11592376707525792,-0.10294840760652095,0.10903134437887238
144,0.23716052618568553,0.07209332594866363,-0.07030307735012552,0.13986235403146105,-0.011726649439420126,0.10445796197341833,-0.074668341150387,0.022187648390046746
145,0.2687841190825163,0.03542169996609775,-0.05161552903831877,0.14670530738492457,0.003923014136169808,0.11287641461953817,-0.08462481846388993,0.06176808498176276
146,0.18696468525181079,0.09666675736855616,-0.0703424320052097,0.09627595520825186,-0.01845964381861558,0.11425022035940038,-0.10631387127842183,0.07191632539055966
147,0.21331983402071122,0.07957377515303861,-0.09159119235675059,0.19477838553397908,0.017438924128865257,0.11162217037647709,-0.07940907496005002,-0.005177901043913698
148,0.19624798708160604,0.08171491332900167,-0.0894467872741157,0.2126722879404528,-0.014323872118173868,0.10720829640126966,-0.0802666175594144,0.12084319395552033
149,0.2171464886963373,0.03817927844709211,-0.08013341155184843,0.1195894623953431,0.022333612263715278,0.1461419808059551,-0.09867624341504228,0.0969236666644627
150,0.2164315322468158,0.03652684413863163,-0.07357021450312559,0.11902378565847531,0.023021116773119975,0.13686218730420657,-0.09222704108414029,0.1011955921987408
151,0.20870050514367358,0.043217210807639024,-0.061690896654883795,0.1505960804709762,0.0013017913854203895,0.11651967402517725,-0.08516775661648143,0.1376871053411356
152,0.2162761608610595,0.04186805172505386,-0.04073745165097782,0.17515160854874057,0.0027653223552126685,0.11191875233044947,-0.07221528234176101,0.11283411308346947
153,0.2379255411068094,0.07824613911351778,-0.05355762125076747,0.18596582021183108,-0.006584348393163505,0.12835144252699837,-0.10300020163371941,0.06775924098357229
154,0.14750242790186868,0.059415625171919964,-0.010547343737720417,0.058552657395231036,0.0019331467705273183,0.10605550130064839,-0.0911971826317516,0.029659192260431778
155,0.2334161800252165,0.059566401620839614,-0.0015048212638750838,0.12481517514410347,0.010194175317628482,0.111755523440687,-0.1262132254384221,0.08750314876533734
156,0.20642357208864692,0.05020474982603074,-0.025709115614398315,0.12725265764508348,0.01894715600544748,0.11571755745147656,-0.0929110253995505,0.07273988055635308
157,0.24131530867180992,0.04796025246957062,-0.023985515677853633,0.1770496214633155,0.03576450708360145,0.10871003753585962,-0.10005054215938693,0.08225728036104289
158,0.19299117649894973,0.08134094811765766,-0.09335103157488094,0.10830954903235353,0.00939929679288493,0.10014440168340336,-0.10703135274690612,0.07927322495898706
159,0.1839101741478299,0.07155053425134766,-0.06831524102266197,0.12016284799008478,0.0549696637409044,0.12313464963812776,-0.10137766125826757,0.1600504686241455
160,0.20580449244147647,0.0671294567268705,-0.0945970634455789,0.13388934605485675,0.02171550667914585,0.08993511226871054,-0.08840205046671581,0.0813014314333952
161,0.19690142276879016,0.07156784141396498,-0.0841077128909284,0.1242791583671135,0.027821512465703226,0.09376754269441616,-0.0929880319884891,0.10134056285165294
162,0.21028980516121518,0.042018927601363235,-0.021971507174514005,0.14696376504531905,0.013643118055723021,0.1329852023643342,-0.1111549865438628,0.09387994443872633
163,0.19573811785102066,0.03427986144542691,-0.050876249472844706,0.2029316480839256,-0.002745241160958332,0.12140154831036952,-0.0990718973833477,0.2103868708501085
164,0.19799165131179583,0.062307669949691974,-0.0356892496333927,0.18323178291862843,-0.009363526235194927,0.12362331575197665,-0.09789558087920675,0.20651989651286115
165,0.18471916094958493,0.06904586042045087,-0.04616403247653627,0.14940015796767966,0.012878823582150822,0.13341074175653295,-0.10726639488324587,0.030758503552725434
166,0.21812621505375454,0.06907869641617989,0.01282477378250914,0.23385331420208313,0.010066287950101806,0.12353126622293206,-0.09069402601720429,0.10671135964592576
167,0.22305356225861842,0.06688043878409859,0.008142149189426797,0.1955112548723217,0.01634114180918112,0.12232504749676011,-0.10179375473918707,0.1001277240562788
168,0.20652245168690261,0.10386219422584746,-0.05749487659269262,0.2192780619893118,0.03197050986613957,0.141431184685782,-0.0634087936520283,0.013101377815094779
169,0.21560666797897368,0.07945568160616015,-0.07982101914379701,0.2368868068535218,-0.017517649135579027,0.11326381102272573,-0.10865118084343567,0.07062860553293167
170,0.26042153214154196,0.06603940503181469,-0.04353357526734302,0.15429958653547232,0.012899973737855508,0.1443034737892603,-0.06265847207806224,0.0627661318578636
171,0.18342856505359434,0.0802954181874902,-0.027247152340591215,0.16996719581998504,-0.014621198905085566,0.1398447219673305,-0.0966140542081556,0.11693218940062576
172,0.22737989845944662,0.020840899145344476,-0.11189549023086312,0.18896982053879402,0.019509102232030853,0.11762287790190543,-0.06472556134346975,0.11445635101187801
173,0.19778528888367747,0.10417595486602192,-0.01060145954550767,0.12406596490985301,-0.007697760777549282,0.11863486066489436,-0.11752979387335481,0.058403518146646016
174,0.24534455461094354,0.06233390763985693,-0.07291495897803066,0.05618208885555343,0.03606135671392808,0.14113828531327335,-0.11406394597921746,0.0872390778500153
175,0.23360936627714293,0.07029129939831533,-0.06803043700732013,0.23107437021159694,0.03126308990803335,0.12429508187820063,-0.04381243439110079,0.051650158805075834
176,0.23660995975780624,0.06581996881167831,-0.07168452786445331,0.13435389516077612,-0.006613906096698381,0.1265867171369816,-0.0840051898252856,0.06807649302539127
177,0.1881468819523865,0.053857287846066866,-0.0025757532892674425,0.18054818796399308,-0.02751414320664537,0.12102737290618623,-0.1130653259420087,0.09224441018935262
178,0.24320587448460812,0.08421409309742292,-0.06751040002778955,0.13206333645010399,0.003895002832070555,0.12586183602656426,-0.1056034413104329,0.10860904997330592
179,0.21377324261759004,0.06861804739463633,-0.0363569011718591,0.1811200654572466,-0.011306618370948613,0.11406227185596021,-0.06394108298748037,0.056290737828043974
180,0.17681604441132662,0.06691788413552106,0.0016790349806598286,0.14444229354227173,-0.0014749100407866207,0.10647242032050278,-0.0923361382339001,0.0331093644876921
181,0.13338776461788918,0.07684378541108247,-0.10101135630031119,0.2378176631358673,0.013734974052530328,0.12005578845488583,-0.10940385549075919,0.09632502547313126
182,0.24653270475499203,0.05154276633513898,-0.03747553452992776,0.13407230760598005,0.0362866720824993,0.1377951019207128,-0.1382992933106416,0.06569353008357193
183,0.17236020712275713,0.058304905879063645,-0.034627560531563475,0.10866576867165494,0.024263158977817185,0.14105688747493594,-0.08267507574545027,0.07306839497930859
184,0.2145881280570872,0.05471599128673866,-0.04457668041212183,0.12588444680620128,0.017994668463618,0.10645454082113688,-0.13429119802425488,0.16120597652056745
185,0.1851166860456304,0.08734246729401471,-0.065871008906709,0.19379192272861379,0.015837424980346775,0.1252791669424904,-0.07027304950883041,0.07481794647125466
186,0.1740841403795912,0.06637089006482012,-0.0853145029836638,0.12015459254295675,0.02896745907346411,0.09019659633252462,-0.10924032225910507,0.10248640049227858
187,0.0651396744598341,0.042417073183087406,-0.061780028388699705,0.13619742398299786,0.02217839373516433,0.11550103202594775,-0.07456779893028262,0.034754964905796736
188,0.2346773208470994,0.03637950545346288,-0.046194459223533116,0.18127805365966423,0.0036143314721860604,0.13882268344865878,-0.083181541861603,0.009420881875977777
189,0.1799130245280754,0.04052431390204607,-0.052212871645308065,0.14286758475532818,-0.014755987066260783,0.1260908608457378,-0.061567046381899984,0.10150171555139054
190,0.24009311675784498,0.09859734398173867,0.0002855018876610327,0.1929856689446201,0.023617005221903367,0.1342040037732222,-0.09817993347491392,0.03985729933517493
191,0.15465383270637348,0.050214531091807624,-0.03975300177106056,0.12652201562069507,0.027436073855462245,0.16170546902034919,-0.07911813328669248,0.04058597049712778
192,0.23326054316136155,0.030786619936864948,-0.07058528792638133,0.1318276451846699,0.035009643782528965,0.10664258885166313,-0.13368692254804537,0.09712182527849361
193,0.19394945338250516,0.053924726729380965,-0.11418483601816701,0.16313707174746228,-0.019977677619315466,0.10908347964226027,-0.09692170479213069,0.11325591557913911
194,0.17649789197134538,0.02776844612304944,-0.01578797530925445,0.16545722662747525,-0.02654334456037009,0.1381627162094076,-0.10202521808267838,0.05386389365982179
195,0.14536018968707115,0.0500440762091954,-0.04725199821329571,0.20026109689784702,-0.005461310965885488,0.14370927705585546,-0.08918469435758739,0.13582662810024643
196,0.21040081539604572,0.04378844374062301,-0.03151187117536292,0.17723531518043734,-0.008001613665308936,0.15244388663925,-0.06401794492920071,0.1922003994146144
197,0.08255940726034992,0.049004019516678564,-0.09395871855324722,0.10800246024194793,0.005077583429070804,0.10763749263653274,-0.07974770524394441,0.039547909016119785
198,0.09077614049870227,0.04955814670958404,-0.08662057281353597,0.1256729354715469,0.025725281319947814,0.10120491009348762,-0.09253850359069542,0.05382051969248469
199,0.3005648384764408,0.07109586078109628,-0.0569388311387084,0.24923375883534576,0.024839180356764478,0.11247877363425207,-0.14919665424557008,0.09462671333182651
200,0.20742057435865574,0.03533051912560986,-0.06902477048683417,0.04498014849945463,0.011716996356200247,0.11071508221835384,-0.09567922810933527,0.11312500219182671
201,0.20751731771777435,0.0821079135602064,-0.04735426146674152,0.16043194397841407,-0.009147607916017255,0.11789660881732193,-0.13840845131699636,0.09486473519382548
202,0.1943108850956273,0.07894027627459585,-0.05290661577834777,0.18602586651082015,0.012799583023089136,0.12782384660072338,-0.11351974897195884,0.07962253150774837
203,0.13257210025512298,0.09058280382983026,-0.048215167811994385,0.12581732886091015,0.009065547905690807,0.13086451613090774,-0.1323376948261026,0.05671982452466342
204,0.22342992395279115,0.07705670227592921,-0.03902337743267384,0.19460878212853347,-0.010744700863406648,0.1441782602233747,-0.09649928775559102,0.027631866268112853
205,0.20309763869661684,0.06536327203769454,-0.02117058928741264,0.18519324645716564,-0.025014990498374714,0.11691894734524079,-0.14856684837670395,0.09264417359593054
206,0.19108085456904791,0.09406899148318901,-0.08571149907244079,0.16965865015262152,-0.03005058538315411,0.12218687312740378,-0.09745875006510847,0.03797517919334611
207,0.2070293886257654,0.015554903311037956,-0.018402281841939643,0.15351362695223672,0.022750725358748957,0.1198239697315435,-0.09162608222728019,0.07775575693737487
208,0.20179048461362853,0.03845201024260696,0.03267799728877776,0.17579087947781902,0.053820415938811525,0.11109288565738833,-0.100390065580956,0.09411667206833557
209,0.22941745480746045,0.028429184827148603,-0.024949980888814928,0.15680151322234417,0.022507115319930382,0.1292389911815665,-0.08565279816410877,0.13285796991716736
210,0.22247388419153552,0.0669764252045646,-0.05662116850270686,0.1745535179766514,0.020725999318402594,0.1455057627517271,-0.09233597416422827,0.08120953886890635
211,0.17590817620407082,0.0714764286451164,-0.03485875555867001,0.1425721291935044,0.010801797416033791,0.12066720575540461,-0.12433887815818917,0.07982486674452906
212,0.25947366842741815,0.060516929667340756,-0.03820019139987986,0.09001843018723267,-0.002187642997714991,0.12712580564044035,-0.08459142249210426,0.11655846990948937
213,0.1776497431802548,0.023332182937303124,-0.03225605682732633,0.20159399322553836,-0.025733642970075923,0.13473764779403916,-0.09580277871904236,0.0626436686827163
214,0.2185042667160165,0.08675323581545755,-0.05232900731518899,0.13716792132751512,0.04436797749811458,0.13797917793867817,-0.11161670687808221,0.0900744388829419
215,0.1928883926469009,0.0269260370703571,-0.06391471788947445,0.12356186546015298,-0.022298868054938945,0.12416777333717437,-0.11808832636125498,0.05911321186321134
216,0.1887909087913559,0.05758074056024256,-0.03267806914564104,0.19050658600039436,0.014279480478110554,0.10625316839719998,-0.12022394932474176,0.02234233960170947
217,0.23193827532239333,0.08432855270078929,-0.04234209924870522,0.08499938912774505,-0.004520349469722341,0.1761148314416832,-0.13845232707885505,0.16707570681175438
218,0.24244889965806568,0.08152415633404517,-0.047647193721888914,0.07010213323080462,-0.0001901414180699679,0.17019910160328175,-0.14606938790720103,0.14184014397687017
219,0.23103280801717935,0.0725292864540956,-0.051646204013381006,0.09592433297772755,-0.003517439224580175,0.1553684064456579,-0.13681370420692407,0.11755092712079954
220,0.17153841772817663,0.0922207081481754,-0.034800100578373794,0.14672099086154086,0.044637981722496466,0.137491828086484,-0.10274496694560474,0.10644833797064646
221,0.17717114877866044,0.0810712883840666,-0.03043991556111809,0.11458201772948984,0.015466207393184883,0.10972813817331031,-0.09066071854656386,0.057337334197276726
222,0.21297326785819098,0.08750898230316904,-0.0457755430430341,0.15628854241877144,0.045531043343026815,0.10240884703586371,-0.0827071193420989,0.000736495939646058
223,0.20980762715902979,0.07316498588615554,-0.02890723574364223,0.18765541942611372,0.003960241119843798,0.10789364388686838,-0.0918324688475902,0.04463225721551444
224,0.20515964784353788,0.05245119882986326,-0.01976133335386718,0.16865401968012608,0.011748882074419872,0.13757187531153026,-0.04349990283789251,0.11582188576835512
225,0.25118117068860024,0.06498317662911363,-0.0742039421675635,0.0788383964564583,0.014835936151293392,0.14302282697532837,-0.11594359326347708,0.10227363726466325
226,0.19400049271867753,0.053187561596802116,-0.05539738758583507,0.11685473393167034,0.02046748205949313,0.10530816603365734,-0.08548376759705643,0.09683898143981882
227,0.24256512186381884,0.049524632269620096,-0.04744974552024569,0.17670699296191605,-0.005738926239970147,0.15009429340174912,-0.08335755513511293,0.06307557056480897
228,0.20152192729346327,0.05600580854826866,-0.044877114869361745,0.13848830686784205,0.019648301015049722,0.12871978492183153,-0.0855557450776253,0.1321105205611861
229,0.2220113755412221,0.03570194760670017,-0.13624644175354342,0.1720151734061489,0.006586824053228496,0.11801788478264294,-0.13680948857903472,0.05059603686434201
230,0.19766402352965318,0.019939303160036975,-0.09901668090497619,0.15668150726617922,-0.0020059395948566292,0.12170354094303241,-0.10482762909077883,0.06711033387793941
231,0.21564711902185052,0.013076489383751985,-0.03782337715504456,0.17666283273006458,0.017451629923722612,0.13785797452423235,-0.13614627796160378,0.06499934105730801
232,0.26484083360736815,0.07124956755530928,-0.06307960184256281,0.15011018292707445,0.011713430287805261,0.12598008143749387,-0.06493612937326147,0.15848502930513314
233,0.14864381164191287,0.04839573341908666,-0.05295600920623977,0.14043529938563867,0.024772696823336438,0.11119184909355107,-0.0644012577310744,0.13492136650000108
234,0.20491459676707577,0.041500338909015735,-0.04835134487888743,0.22537836565198643,0.01150412976395549,0.09257866901563332,-0.08108805802672225,0.0760832303822431
235,0.1929624742814945,0.08085382291337484,-0.01756714045845711,0.19904523951082592,0.0017398425813744457,0.10174030854666899,-0.0752085836863957,0.09114959061125917
236,0.22196100448557057,0.07695595364793092,-0.020828741095912883,0.24837818683624502,0.04992097850465437,0.09419419079067269,-0.05549277541683832,0.03367448878236956
237,0.1781346067496963,0.05996918436028238,-0.0854900667998836,0.13311711167326115,0.0073395495227295765,0.15820712920023386,-0.0870455089986676,0.13733559597869055
238,0.22791328892909063,0.08773939356932017,0.004612254707926195,0.20297637203419172,-0.008738465260019857,0.10021189225432124,-0.09991390902182833,0.0013835946224910417
239,0.1401978967809525,0.07277327489546237,-0.06713597239086659,0.12279184922457878,0.010552861592638825,0.1258074509517401,-0.08333989918548405,0.138233881611638
240,0.12993550258323674,0.07052606949895822,-0.05931579642845136,0.18954289350775674,0.03699122084677043,0.09422527536223482,-0.08723243768868047,0.079416710190027
241,0.14669790483075412,0.056745823975471954,-0.034124916669902444,0.17197911754068718,0.041944857344080086,0.11300670116991078,-0.09363199773813304,0.07714473720050602
242,0.22941921654733638,0.061428506926079214,-0.03125038850856886,0.13823742953529491,0.0016209275245350927,0.11051570496836119,-0.09615431972369212,0.13921261488130968
243,0.21926929217450677,0.05024035121905457,-0.023182682357493507,0.14434277480507862,0.0063204865311432875,0.13316373630401065,-0.08042110782664731,0.13936639437506446
244,0.1675706165538426,0.05473385125570115,-0.10855132429197743,0.2407998586272856,-0.011012727094369854,0.11113954010124172,-0.1464563461072066,0.09466900483661925
245,0.19099897973090435,0.06039350778141435,-0.07218844851486865,0.20038274198459663,0.022102265698204462,0.12110195187961631,-0.07701530418121047,0.2000314399619452
246,0.19682861202050908,0.0766931625834873,0.007118515031346269,0.09769820888501508,0.020213440349548525,0.12977661232811302,-0.08564258497669833,0.04530594103526527
247,0.2130206497466058,0.04218746759791125,-0.012026682211727617,0.1186819445626216,0.004941456926918897,0.11928111885521113,-0.10866464692212076,0.1519422807008557
248,0.20453699266284003,0.03981347270600645,-0.031767111442905026,0.04156233984697634,0.00043079526381834855,0.13108251115623654,-0.10903614417452986,0.12264030143518777
249,0.2150430718949762,0.057900228154722934,-0.044268460855308535,0.11499862348512908,0.021447381869967322,0.1274797378436752,-0.08115274668237123,0.057503728646548784
250,0.19204447504467448,0.09372176179036908,-0.05672951734071237,0.2133092473226812,0.0047094955500439975,0.11616455571143534,-0.08317062046860409,0.10942976386028593
251,0.18592324555267198,0.056022540823203855,-0.078665657836006,0.16133814772859217,0.01698754688312208,0.11336967411508456,-0.09184651401281531,0.028554181236308936
252,0.1627814028389957,0.05042632832582426,-0.04194045412913112,0.16558028874041425,-0.03075572568140884,0.0963278755952049,-0.09776596041574936,0.1181587325851615
253,0.22611055736241345,0.055333939108095975,-0.030850690928155892,0.13921442125652006,-0.009421362039844708,0.11776977874372677,-0.09968594711803638,0.10473503411022905
254,0.20326230486415142,0.06858238083796148,-0.02514309205500673,0.14965730017934822,-0.020114396985751466,0.08997672600856395,-0.10427258918418617,0.07188396094460098
255,0.2431545222919849,0.026895904499467715,-0.0447350446250165,0.10154558523155957,0.022794912529582087,0.1489647789544868,-0.09659665291557218,0.056376458245979214
256,0.21735514500662728,0.02504378736823855,-0.04859109818812202,0.029448259407522517,0.0036971297818323935,0.15463109678904233,-0.0830774462048264,0.02968041995861947
257,0.20086412706571857,0.04809044220087757,-0.04092154188472242,0.17392328597327703,0.029784504123300016,0.09650163493723588,-0.057258692338359334,0.12887334990276253
258,0.24593095843189536,0.04254993245788581,-0.09533805057776262,0.10210774936969158,-0.004589689438195097,0.11819189202215231,-0.09631865260929456,0.10454348991351592
259,0.23811557175726838,0.026958488590448186,-0.06492119565709625,0.20583640630620664,0.019422676180405343,0.08117379658785463,-0.08408842766661284,0.09934111678930033
260,0.18922506669084566,0.04301768801664529,-0.10524682981346614,0.1800674312479244,0.011976824560446173,0.12848798984467458,-0.1213617407328791,-0.013024965016224778
261,0.2165315650508687,0.03772966119151153,-0.07851318389310766,0.22511377043488806,0.007672937369535003,0.13519483240097638,-0.11836610087035437,0.025636415565814016
262,0.1858068031854388,0.03593436085699247,-0.05572390644569104,0.1148443189541508,-0.002571312328949454,0.10187195050384011,-0.08596137341937893,0.056525106546375055
263,0.18972216082346863,0.05711390531453569,-0.049968969384424196,0.1307771294379934,0.010218782081302889,0.1235790735263012,-0.10924693858484927,0.17432604428198517
264,0.19077470539943167,0.07655843273409227,-0.09596564337252313,0.20390534206141475,0.0186058587291715,0.13684563173445377,-0.11147050499574664,0.12652349877603047
265,0.26747167047436315,0.10339837105314723,-0.056135263576671215,0.1759724814640576,-0.006265793289391922,0.12432264180227973,-0.09452687912574949,0.11036437015110596
266,0.21146840922618065,0.05983570557745174,-0.06151187733643213,0.15632094637707442,-0.010759243722458553,0.14074772457275544,-0.09968081403098218,0.032908311380425374
267,0.2637635282783878,0.061889781742315485,-0.09235387009635998,0.15697027778904143,0.006169276417884148,0.13351258095201401,-0.09991262149025433,0.12613504574965717
268,0.2106606623273301,0.03840889492053538,-0.03374817629380719,0.15912450445977241,-0.03337456683766187,0.13207516240387623,-0.09914059932953012,0.01624250839784561
269,0.1934210207039381,0.050153124828444376,-0.028793898519170986,0.16288910421929392,0.02654905864591996,0.0964040170360927,-0.07097280417051043,0.09219565765259395
270,0.17522523389382275,0.07062867140899004,-0.03506123097747097,0.15792373925608497,0.0277424896231419,0.09346495830098685,-0.07373046066992497,0.06440328800681303
271,0.2335047537279273,0.06647406334434536,-0.06238584835995014,0.1785200914779178,0.022085137596804204,0.09281020579522997,-0.045856143166666,0.08249878257528231
272,0.19396653764931288,0.08343738661197844,-0.014308825666415349,0.19936807791709474,0.0019213721468017957,0.14977290591340647,-0.12068439359619051,0.1411406637903626
273,0.13774391444001405,0.04969696404974676,-0.025430167065783854,0.25738332956976634,0.016246905907926674,0.12172890812281333,-0.08986564406187267,-0.004454406975928128
274,0.14203920449775226,0.08828120834524607,-0.026449839648891887,0.1665690429175008,0.02722857845919133,0.13591005501019696,-0.11057519505664662,0.08502566859567973
275,0.17161784118414647,0.05984950048399636,-0.08535466967424706,0.10083920787792496,-0.026002533425010278,0.15798118631616095,-0.10196024621253061,0.08242290313855792
276,0.23243742561644148,0.057560028040393056,-0.028704952659235,0.22349167821883317,0.002422725841749738,0.13880245607560035,-0.02405900742879919,0.1550886543645082
277,0.17826542283166483,0.05734378926121353,-0.051612354668921966,0.18892503084578316,0.04307727279797133,0.12869899246473976,-0.07255236435153214,0.036203288490897816
278,0.197429133912264,0.05940545879345404,-0.04518222684802947,0.11719767958122866,0.042714052407309994,0.11749690218376997,-0.08545610663968678,0.07758322455466356
279,0.1994026125024655,0.09356996582073605,-0.04871532849680779,0.23171196819653014,0.02264124179298265,0.12156111217559129,-0.09795441516192344,0.12759240177153866
280,0.20469289047066533,0.09732298272434906,-0.03798830015450338,0.20910579356205672,0.034683239940287845,0.12115752697501277,-0.10214427275083335,0.14084909120663128
281,0.2203804553518103,0.0564114750529341,-0.06210756033708315,0.18810064888145095,0.02984244184017493,0.09131933171662192,-0.060050695919282186,0.06674491230901365
282,0.20081922536461147,0.04007922310485368,-0.04111806636684564,0.2825554534067954,-7.567640074121538e-05,0.11685383626136503,-0.10724060667933302,0.047836542149015344
283,0.20279160219104425,0.02852722328684065,-0.058985390811082464,0.26325592546122756,0.028258432099669665,0.09787984302783022,-0.09230912609117971,0.08004050697729531
284,0.1863411179125424,0.045861402319500505,-0.04895081855864866,0.25244405676239573,0.0124997642551161,0.10452817531407918,-0.11863784441616691,0.08344762923962035
285,0.20983608303016008,0.06958958530112203,-0.10328882466873689,0.22949652677008903,0.008520665914181715,0.12541549503200428,-0.13587698196196063,0.05417903004845681
286,0.21760989040970016,0.05592440947424341,0.002051281037726667,0.19154948572639494,-0.007321999449908602,0.1169255201741108,-0.14262772418102732,0.10423822199803098
287,0.21287061800286763,0.05425597628194401,-0.07460584232666474,0.1564685923075149,-0.00098369236843222,0.13657489362580996,-0.1359644462856839,0.17618170176836223
288,0.1889214906955197,0.10915090227980766,-0.060908828774041746,0.1352875977411625,0.003745120741343896,0.12421369079085127,-0.12347908514411003,0.0004219047930447848
289,0.21568235961070678,0.031145492573050833,-0.08179383979648974,0.06966087193805844,-0.00716408385174167,0.1347791782479333,-0.06685850905726089,0.19735858428455294
290,0.15550764593058264,0.07141634490670816,-0.05263252812284947,0.2848640675731607,-0.010323026222034962,0.14890372442090496,-0.1163105389907362,0.08174649544161988
291,0.20399860033943856,0.08071256714211551,-0.0017080135246101257,0.15812092398490962,0.015213021187884581,0.1241495013848016,-0.10595979100162513,0.04835029506475519
292,0.19094381063303145,0.08900358785832826,-0.008943999207821988,0.16735207838075358,0.02289691605601318,0.12186207542372765,-0.09925198087250271,0.03756328052292242
293,0.1858078767597746,0.0607075802856453,-0.05629341998378874,0.18252839100921214,-0.012069424732917375,0.11284960058671807,-0.12085482751587448,0.09686431865143066
294,0.24302296275335852,0.11199647068645753,-0.023628912509831797,0.15152259414199798,0.023650981360908676,0.15867430140401198,-0.1450281726172911,0.016258675205775994
295,0.17651200692046287,0.04456593506188078,-0.035267667035079504,0.1535289206271491,0.00491742753536914,0.12706520681418526,-0.09880191565961846,0.0881594729199753
296,0.17853071215666497,0.04501849101396416,-0.024928456162913577,0.1451147241585883,-0.033474315674209824,0.1489381793205504,-0.08582383500893133,0.056363640977478244
297,0.19854675864159968,0.07960998716614777,0.006387739346971238,0.1594281578023715,0.012565951333470934,0.12787982963424577,-0.08654770214913471,0.09619474276753746
298,0.20351881730730448,0.09109112449504124,-0.01013161976708971,0.11672504528883001,0.025029512357330457,0.11764064265648572,-0.06961692394111511,0.11236755220942081
299,0.25977855221421914,0.03962580301529331,-0.03623778261958475,0.11733486491629198,0.021275026784750864,0.14155282387157914,-0.11034059187071096,0.05837438848537535
300,0.2319543481335554,0.031433666274190426,-0.05365115185782918,0.1695011971961626,-0.003578298034352651,0.14736452853228452,-0.11342758606138766,0.054056300470393275
301,0.1856374974288788,0.036857268092034476,-0.0779822827568915,0.07638556208491229,0.005377166270216942,0.11603245391158401,-0.11804217782235972,0.11089765665498781
302,0.1664575054807394,0.06834815236732386,-0.0303012176032677,0.24494343624607082,-0.019009967154067338,0.11415614481925553,-0.08254803026274192,0.0746045245749285
303,0.2358761365847698,0.022949411003289625,-0.0051195711705654115,0.09082049149466868,0.02625589481702048,0.10769717790859291,-0.08711272072122687,0.07936680931062035
304,0.23191956957353757,0.060346961052415965,0.028767657241641414,0.14969970803004548,-0.006500594068166615,0.15185438463129736,-0.08015604714657955,0.17516089632967202
305,0.18457290681315675,0.054938125676467636,0.022852008544563877,0.1892720906666678,0.020523960653208703,0.1496101457161391,-0.05014713812877488,0.12836771335058966
306,0.22207768045521967,0.0512582092853659,-0.029052926564041348,0.11247068118870845,0.014490436748513103,0.09959868172127816,-0.1111760687555531,0.04124284366371722
307,0.1936416816970751,0.0658909424846207,-0.01129107426790316,0.2199867950661769,0.027183236333079123,0.12093275427531057,-0.0859058180530847,0.10076323627162745
308,0.2386226904257585,0.0652444510022029,-0.007587428142630292,0.1337549044889045,0.028240241350215335,0.12682521037847125,-0.10094634656247059,-0.016066148948569146
309,0.17974288485773693,0.07282973415661465,-0.005817255517598854,0.15562558516652458,0.025640750575355753,0.12410698188608194,-0.08674278249509379,0.09710403330274867
310,0.21230854536243382,0.06706246003637761,-0.045058965975052295,0.23290167606283352,0.0012116213751366446,0.10061675128672454,-0.0725086978171532,0.1134562978449518
311,0.23783681394200465,0.07448099273774879,-0.04237060965097179,0.1828370897987861,0.0022910521916763692,0.1196522831462186,-0.10938217565171937,0.04162439479097158
312,0.1885806133146473,0.08527754133020105,-0.03565079891930029,0.16826471034508975,0.0016340805680697512,0.092885858947935,-0.10138801106744612,0.059759230857961
313,0.17775666734139262,0.06866170790617836,-0.012300010967955634,0.16690664506608194,0.009679490140340872,0.09921146238926193,-0.10407703623622197,0.09830041224627332
314,0.272595117191399,0.09552537460131082,-0.03038689794645326,0.16544084187589442,0.013506376304114585,0.12775393759122525,-0.10538273699034029,0.048125432336015184
315,0.2178387125871837,0.062149788072616,-0.09480646030366283,0.05891332401181282,-0.008689557695832805,0.13901122978316388,-0.10991887595678386,0.0545458285471074
316,0.19992047301865976,0.07469047736724746,-0.050368312280450835,0.14493134602229582,0.006409850113156518,0.1284973369860509,-0.10928751524801596,0.023794595707062764
317,0.2295996369392321,0.05480381919960374,-0.07587488000284871,0.12718119921651014,-0.03770822629094801,0.14396701436324472,-0.0880134528591341,0.02526027436557762
318,0.24045869063871952,0.07813607948681502,-0.03466761665803355,0.15141934782871297,-0.015663139496638504,0.1264371097467037,-0.05286871896084166,0.08140854584756028
319,0.2514250993127685,0.05009280117700203,0.009206190179828402,0.12340526041810781,0.005049528805873074,0.14595948289371058,-0.09506024364056756,0.14656417415126385
320,0.2341978714642152,0.06713792464636091,-0.02607222955515457,0.1587113518718943,0.010768674297886907,0.128578243825196,-0.07490939597344864,0.11297922301181838
321,0.20248555421518372,0.056484997335669716,-0.024302068213780996,0.10846592537028897,-0.019252502151262396,0.1084153454714782,-0.12064378504869218,0.10039693794555786
322,0.19203178068487592,0.0445927510575129,0.0018749411081709678,0.12827826636269163,-0.01263402270444039,0.11929965950440624,-0.09964297663999033,0.10181862759388106
323,0.21283106224942086,0.07201056833495871,-0.04088313820356602,0.17908820446818807,0.03455776127609214,0.10918178625692267,-0.08231439581810844,0.04240542769096264
324,0.2769636043934388,0.041468343899946435,-0.034653718061035045,0.16235780399108732,0.035720157278019915,0.12756463042239466,-0.09976347873214325,0.10193553957843997
325,0.19369943409032572,0.04855534337167643,-0.035742790698446415,0.10397414463016477,0.003973218968207536,0.10970931273503347,-0.10135944334430924,0.0841477975757331
326,0.24794511378269551,0.05663872333513057,-0.027099207935157733,0.24943217802735224,0.028416330342444927,0.11630112746094305,-0.1204359546280557,0.0746824928396833
327,0.18574038631274004,0.04850657140063513,-0.020424494257352547,0.05017840538172045,0.0014569828383927846,0.13745119246469295,-0.08460951707073591,0.1262291622483864
328,0.2065498702428073,0.01684065818327145,-0.011163117137672648,0.08665717745171449,-0.00856794496959842,0.12916273334036973,-0.08009805405234614,0.14743733646421728
329,0.1310745236765582,0.075714171623799,0.0324853273744199,0.19095039234501912,0.01677421989745805,0.14397974148207882,-0.08711958073673479,0.08230176189396107
330,0.3023739985600881,0.03410938412202737,-0.02436067941676588,0.21665060990535281,-0.0001962067845078703,0.090713248760358,-0.07726041904123526,0.07734880478309417
331,0.2573071566607202,0.05326790096977999,-0.03153289260125233,0.16585590588411273,0.02305531206457625,0.1258399475474049,-0.05956146963166727,0.0782199539576336
332,0.2195779960810233,0.0641137770655097,-0.07554174540379294,0.20533435302943503,0.057542757759626265,0.1221961857003726,-0.12188212747885897,0.07303041457200754
333,0.18501176185537963,0.06897948785274059,-0.07785239317333878,0.20210603438124214,0.02641071839211379,0.1475899211552587,-0.09768526668903074,0.12122549863211451
334,0.16363199420592642,0.052100810972712144,-0.01920150487534055,0.18590768746017886,0.02531910779778727,0.13830949295858008,-0.1182763095446408,0.05381573736581426
335,0.22878558675375615,0.06323175300190734,-0.042059150351347746,0.1099157721137302,0.016327145596414308,0.12217255539234109,-0.13469851250661397,0.1534009093755675
336,0.1686325628554846,0.05226742261421981,-0.06797978236671594,0.181004774565445,-0.00671676186724712,0.10738592235072959,-0.12503120997992756,0.11202234112230874
337,0.22470031986846334,0.041419650177692224,-0.03324479546363827,0.1733323091233395,0.002014763624093681,0.11188069021554076,-0.10038243747400255,0.08317555296851008
338,0.26815324967045784,0.0328008374444471,-0.07692076062404476,0.1471184688218,-0.016939138916921368,0.11032938232551885,-0.12929496966052065,0.11716436096896908
339,0.181164548828801,0.07219722597787258,-0.06082210915947022,0.19269370952949483,0.022969397239898905,0.08495299224764842,-0.1205371683392252,0.14053786761575132
340,0.14629284156055766,0.0780137849331347,-0.028250684773242413,0.12589609386662678,0.0020417911070347104,0.12707716646782927,-0.06845503283098382,-0.012266542960111619
341,0.15887762583763568,0.06511936974613519,-0.06829210523665041,0.17718609857885656,-0.01673691408589054,0.14568446023838574,-0.09564862675881491,0.04545865598689772
342,0.1733094883757787,0.0968017505030494,-0.045802614856941155,0.1718310904388053,0.0039907266854907805,0.10198383001541152,-0.08008405102050976,0.08114972589111069
343,0.2490576036345929,0.08546117576203363,-0.05441673566490174,0.19109922952866992,0.034095824894236466,0.12483906515678038,-0.11151897832658052,0.07227221259553013
344,0.2681175060044603,0.10098158442393443,-0.020926163348020946,0.1765094567357735,0.013289055349938687,0.1343634408550941,-0.1139059117064162,0.10660303293388065
345,0.23929368755572805,0.07587774238658247,-0.020967435140662943,0.18161726602718245,0.019931111465582015,0.13467394073492944,-0.12002516935358655,0.1364590543404999
346,0.19369343471280526,0.046704859452559706,-0.053416965010842636,0.10803143372174306,0.02954151100154378,0.13476962997759517,-0.10229259256057553,0.06852194599417488
347,0.23346075942092706,0.04368157895869717,-0.05573784870308895,0.24402744829551598,0.04958557521040739,0.11952695170034873,-0.09813022001854663,0.08280456223374831
348,0.17059404459351313,0.019875818574234712,-0.023951958353841563,0.15755242305985617,0.006460226751783318,0.14171670040471704,-0.0753777704854705,0.14654220912818594
349,0.14361946284278906,0.09047240194534854,-0.07860657386334524,0.17895931966443354,0.03612044771202417,0.13819903378114817,-0.12687477363910166,0.03721129312220112
350,0.18849858721421286,0.07116428217622713,-0.046908646943685,0.15976041853705444,0.006666543982219244,0.16482013180154248,-0.07655093742684367,0.1232245671479493
351,0.25147144860085974,0.07523275746536538,-0.02957347339368382,0.15321978069571973,0.03735393571990571,0.14084945353976094,-0.07973360205861961,0.08965638062218355
352,0.2354985985993207,0.07233991932575513,-0.04397582185776892,0.13506298978746578,0.03388234271168901,0.13632406706592543,-0.050766280960327904,0.07364234871453887
353,0.2300662280098073,0.04541339095273825,-0.025906603128183943,0.2118819629817132,0.027672402801668713,0.12083876501561017,-0.08481336494841417,0.09675672281774657
354,0.1489821564280297,0.045359592721388654,-0.015776092574227112,0.09665397441103656,0.02384168587313461,0.10949943696750823,-0.1429851500147677,0.1141062066546426
355,0.2637857829335119,0.06430684793771231,-0.06864250312887034,0.21355475061356163,0.02767979668802385,0.10879253468065242,-0.11246735525528324,0.0870489140625408
356,0.24614885847840845,0.04590419706222184,-0.07703366657942794,0.18341383697088584,0.009724008907333851,0.12512866789146332,-0.12312105153737918,0.04501668242879025
357,0.24593392164936345,0.046916134995556386,-0.06560925021255898,0.16720127314470862,0.03606997809986445,0.116280599631883,-0.08512175979971767,0.08286455574747707
358,0.1880374394655091,0.06271026993142516,-0.06075186478492204,0.2255124728362479,0.022097145621510314,0.11772074056240671,-0.08839960651474324,0.0805264595954699
359,0.23013001194021107,0.03143339537234364,-0.04669261568474393,0.16230936369389157,0.012796846894711823,0.1278511510768272,-0.08430737397475836,0.12328711783605589
360,0.2476432368783888,0.05200754416513126,-0.05294109714746244,0.1887030002880706,0.01981999423270237,0.13488886860197102,-0.09940880447014655,0.08462575723730516
361,0.23598074114934595,0.03814061164774471,-0.06646180360567522,0.16953396888126102,0.018454010448876797,0.12472059136248437,-0.08252185934864072,0.13222614399403423
362,0.29338586960337165,0.07616475168420274,-0.05737124376525777,0.11807750167016055,0.02384750292386198,0.10136429085103882,-0.07466753453540337,0.13411016389297142
363,0.1917693334741482,0.02633835112189868,-0.07592113999025267,0.18675835926785725,0.03686585662773888,0.1601910855130163,-0.08770273146800517,0.08717127874751575
364,0.22953013270934336,0.03127800734110093,-0.04724786936464109,0.22118547304112807,0.0022705604182145,0.12676907418032615,-0.06176360638883903,0.11957643805417097
365,0.21713978782897633,0.0714944532068491,-0.0757229028797697,0.1457301209589843,0.029987045011894486,0.1584360944960097,-0.08231083671655925,0.05558099727320741
366,0.22389095088791783,0.08901820175662503,-0.08078927461473788,0.06265951665409561,0.010072705433734818,0.10154587538546299,-0.13050477221079199,0.042497243124592354
367,0.18637476907482317,0.09469714328202124,-0.06043820787987267,0.08435026490184834,0.02007774846643309,0.10198942691828794,-0.11297198751455424,0.09600310853542478
368,0.22997160530751679,0.08503618597242601,-0.07296691706015553,0.10617467075511525,0.025138602388601824,0.12240125564221804,-0.08937023622803525,0.07383870779962375
369,0.2095233467618578,0.05493378608133013,-0.08908550019237702,0.1488296174582653,-0.01303253985276482,0.1201469206354261,-0.0792597311175358,0.09365462961020912
370,0.19782291633842516,0.06773365752198869,-0.06249845754707586,0.12611199014957955,0.018384631073827616,0.09639531235521855,-0.10453385470492504,0.06452967527410848
371,0.21934495322810396,0.06624968262538398,-0.05640932536429434,0.1508144816113824,-0.010991166638383797,0.14950885939857322,-0.13583430958174486,0.05480089732699377
372,0.22710151919618712,0.06366362492130132,-0.09744391834079179,0.15131969698274572,0.005825561318842868,0.11041290734358855,-0.12557274103358732,0.015794581643151045
373,0.19245748386616496,0.05809684704860302,-0.036901067386814895,0.19696812547516654,0.012241798023971306,0.12421406318492006,-0.09927939463761683,0.127075738529659
374,0.2380144748456482,0.08798766557823778,-0.04806618559847339,0.18099509648169257,0.0010560443699145757,0.13947511336454838,-0.09198390056683597,0.06129035104003609
375,0.2683528099968363,0.06815794793516637,-0.036561514101746344,0.12142976396429989,0.008058423804871283,0.09933174977580843,-0.10093619615169858,0.08385546345328625
376,0.18960178495191896,0.008181578984712334,-0.05836415310099444,0.1629583441146951,-0.011424657285707601,0.1042899557883146,-0.12696726618671864,0.15704289489865453
377,0.20665115910551102,0.03981686881515224,-0.06252790247118412,0.16669848577386273,0.007853882331190802,0.13066527515501272,-0.08926922348107025,0.09606982007120028
378,0.25414178707260443,0.054935926617907145,-0.040518947780555675,0.2413839512370568,0.013408340748326232,0.11570688595329763,-0.0682110251644624,0.06342900711872075
379,0.23627698604916658,0.06612271107819269,-0.060253940119282846,0.17930096110062882,0.004399562393523984,0.11483446916036309,-0.06334606070258353,0.06536181626671761
380,0.2063731154173619,0.04955646042294889,-0.03287109751885436,0.16099707444006248,0.0105513793637136,0.09756120984920673,-0.1092412125441155,0.057756602127518625
381,0.17164359328835066,0.04668048994378039,-0.019042720554662988,0.12488305734264366,0.03752905171224618,0.11640289290155097,-0.08243319038051243,0.11985926683621019
382,0.14579056636285345,0.08629451744973851,-0.10745278545492365,0.16876994876508464,0.0070443640826536565,0.12905787144949735,-0.08090535161288588,0.13529436182955842
383,0.15786649921385332,0.06488130574369709,-0.04664118806951432,0.11217094784354856,0.033921493524097734,0.11570402305348776,-0.08142674398078421,0.14336729000617274
384,0.13807717399598232,0.06437155811193743,-0.01715452321494747,0.11274891610480205,-0.004720006218128111,0.12024810813500829,-0.10489355143108367,0.07638051404880145
385,0.1877102028424619,0.04769645014323574,-0.024915334811121646,0.17664670251329337,0.003188291758888491,0.11427497814398493,-0.12237151396273194,0.0005845846652233449
386,0.21578841689002531,0.08506206219562928,-0.04410533727004484,0.11150653351074362,0.02731572503550402,0.13133705093234535,-0.13957100404292752,0.08073038839249688
387,0.22751652004178186,0.056651965836747684,-0.035812165347218324,0.16468685039437447,0.03491088612456231,0.11439230639613841,-0.08030063124217396,0.041916448031491645
388,0.1933785591499959,0.04171691514529827,-0.08921034120508517,0.15104731398341356,0.001044244262873408,0.13014979327699575,-0.09241304055727842,0.14034738099282673
389,0.23225999177012577,0.05979160511557294,-0.07674241663857112,0.14387699585835526,0.002442395306924753,0.10994868576390658,-0.09410780645028878,0.062361181559316026
390,0.19243759720950257,0.038229429873090845,-0.022116861156264125,0.1875362795065798,-0.018249136998629713,0.11944810984991518,-0.09160616775509237,0.014531517359431537
391,0.2262856319946552,0.039577354372870084,-0.049823529393604106,0.10225906530155825,0.008389660835473088,0.1650140053881392,-0.11128551601948163,0.09405936173106397
392,0.15848066420093854,0.08199079841012064,-0.09049828171782102,0.19222272077182737,-0.02025883881092081,0.07640123281857168,-0.06793483052492412,0.09150005917309711
393,0.2051094714292893,0.05574274308335862,-0.028679383444915652,0.15849044334819298,0.02101563411851876,0.11612442982612184,-0.08449519926528544,0.07827632747477284
394,0.18573124270929964,0.05340277081849857,-0.034846406318007214,0.1211391861771014,0.007253431900718259,0.1277039576825738,-0.05565819126652808,0.0862096162913946
395,0.26134117911470023,0.0632656262136781,-0.06269375523409873,0.08003829039956196,0.018589845007803908,0.13375739498497086,-0.11822156756910494,0.06167414738344026
396,0.2655615103286152,0.03282721560406629,-0.03956431043664169,0.13961548472722796,0.020059920148879265,0.1457776751526051,-0.10277980999182183,0.10412953912073288
397,0.1786246724824393,0.08926960747401452,-0.04147246533778809,0.09715058704694396,0.01372220317985955,0.11389576809013277,-0.1197711970262237,0.08538284189029927
398,0.17535962621073464,0.05023413595437087,-0.029809432832775592,0.1855495669584782,-0.007355900176357458,0.12339326138622643,-0.1095273826852068,0.11508866163021061
399,0.19326488978774828,0.06524250740104948,-0.05676426939616146,0.2074756922299149,0.018969098351815917,0.14936007411350408,-0.11018344355779806,0.13958844205659293
400,0.18895612236063752,0.0508930299502821,-0.0620966366954294,0.057134887909606503,0.03371495691770442,0.09069757773020944,-0.10412767972578588,0.09696033705006425
401,0.16011930188219317,0.06832101561193574,0.04057869617731146,0.16610496332635752,0.0036318794271258765,0.10523111780617082,-0.1271600835013104,0.09415459037265853
402,0.2378893229684213,0.06818632718397258,-0.10862032850637852,0.18992998160950098,-0.008252801995684086,0.1309188067668715,-0.0726051946824315,0.0904652275972953
403,0.28985378793417194,0.06920434911524137,-0.048725928278674425,0.1583586179601193,0.0039442768802061216,0.1285932257975701,-0.0910675642159996,0.09323304419850519
404,0.1718126623800999,0.03509369321011532,-0.08668877658411515,0.1384349746365155,0.007114407199874022,0.13067791381841568,-0.038997904772157074,0.1070149628428078
405,0.15814219125277507,0.04604068995113671,-0.07676649209865666,0.12697336482573526,0.018251919094161538,0.10735319174363452,-0.053660481558282166,0.08876642340582602
406,0.19455629014697723,0.05295351300312313,-0.02896479460846219,0.12385176643703466,0.044804677542330036,0.09758837358542989,-0.05862582787389716,0.10329466780240873
407,0.24707646738415376,0.06778931920787452,-0.025667719389141364,0.13719255186845555,-0.021397808323967694,0.10859244125785607,-0.09975975811189154,0.14290710051272362
408,0.21227667310456913,0.06663868201669199,-0.06573714067396189,0.16641784567532697,0.04666224379093426,0.11823184318418457,-0.09413212962573143,0.03541618724219144
409,0.22298184209318075,0.03192984006712134,-0.07781585663772563,0.11743177600358976,0.004853918598800592,0.14206639134373508,-0.08873086995895209,0.2295994254684337
410,0.18432930814325993,0.049855907611503665,-0.0646538401276753,0.10109397953895416,-0.00038137994025869067,0.11011779615019797,-0.08393555272978162,0.14720672710768234
411,0.17021137789946897,0.07587627987436175,-0.07194813869193836,0.1929552854901357,0.004514731246279354,0.11453586926625249,-0.10608137087251983,0.14445807404105387
412,0.19257726557243765,0.054042748349462405,-0.08726649127366568,0.1692390350956949,-0.0022947205558600816,0.135796981401407,-0.08813114320916969,0.03572981097949364
413,0.2051008068995961,0.06182151142206539,-0.061586811588456275,0.16223171154028387,0.012767209723969022,0.1186982114461736,-0.07723669254730596,0.07740435660073845
414,0.16672968043187078,0.027235456718903563,-0.01615521015595573,0.10591724701910514,0.004561020686806541,0.14939808302882238,-0.12612559161191972,0.04915049349832095
415,0.17644189432216645,0.017285348856118772,-0.018671866260308846,0.20731115528252,-0.007338098431926838,0.11935091865260224,-0.077883779201404,0.10006564368535394
416,0.1921081923999079,0.061161358005628344,-0.07513749072873119,0.09127629299582284,-0.02576247591584759,0.13717626441073474,-0.036193856357002285,0.11993287570728885
417,0.16212537806079813,0.05267400599679552,-0.08583173909540241,0.15846784926161264,0.01314294406684839,0.09893567879410672,-0.10957384319561599,0.10540939358197848
418,0.24068863609137425,0.06449266671310352,-0.04584661069854399,0.11531322085756085,0.019699374418941814,0.14705370830978348,-0.0755785345022596,0.08995769632136816
419,0.22636109638019675,0.09958824106945804,-0.08561341540050112,0.1475573077353354,0.02220855909481473,0.11572584454626209,-0.08832842092572113,0.1130432353583889
420,0.21645504724341755,0.06767269649811755,-0.021361928287231078,0.10998951844888344,-0.017766292671946248,0.13748586228552948,-0.07136684219638098,0.08479035595611639
421,0.21763630944761314,0.039600573737550396,-0.0009696632503596464,0.09938731373728621,0.019058543925761173,0.10580976436292011,-0.07770272640109228,0.013834422841524046
422,0.18524854626331658,0.03562592741432111,0.024252959601380415,0.11276226931687754,-0.035056110833204535,0.14946624681995255,-0.0748454560878288,0.12763423566035004
423,0.21540189938376197,0.03957824532709165,-0.02950487693561531,0.11459212756857251,-0.011528915247151704,0.14097483491716223,-0.1075164810530611,0.08881028346163906
424,0.24243862967297442,0.07918852459918542,-0.032895867275776584,0.07309565660966459,0.02856390534592895,0.11977842818913871,-0.10113240772517568,0.16391137040468395
425,0.15321358745775274,0.09748417265436418,-0.06840992043781717,0.11307991318395477,0.004473923075111102,0.11403830923159937,-0.10540335079606078,0.0515786118320314
426,0.198607005696996,0.08797098891231474,-0.036827340797772855,0.15308529703521173,0.02497233917933104,0.09319278426987952,-0.10136529327955088,0.12039553838992534
427,0.21697775667611194,0.023523528158137273,-0.06966369890077045,0.14554673901051127,0.014012788235843404,0.11991647852995899,-0.12153594985180001,0.06882603306738405
428,0.14242352879394457,0.04173184996022948,0.02055443085780562,0.15187082301823313,0.012221331699670544,0.13638425374985133,-0.08328380608086895,0.09234937502275593
429,0.22460828325780385,0.07196719360857377,-0.07736235981503513,0.11376709732748451,0.028976184438973675,0.10883589695510662,-0.11330160993101625,0.10156207494491828
430,0.18567523083099455,0.057175467792871776,-0.05631440396094944,0.09292716641006438,0.0017036038801951626,0.12493435116835104,-0.11569554474422324,0.06096669947978902
431,0.21050590909301742,0.08846015491887799,-0.06260477727110174,0.19969182275625744,-0.010828579287193815,0.15184157598691075,-0.09176908500636283,0.10763468851457383
432,0.16093026409756153,0.08965463521178084,-0.07235387767302717,0.1335905415059674,0.0185973564337682,0.14189381975892165,-0.07479641782382566,0.06642792538957774
433,0.17480993405448245,0.0358565543849857,-0.019463436750820153,0.14783310976467748,0.029696273582367604,0.12404210069500556,-0.10785109751751061,0.13031113868977184
434,0.1784455344870061,0.049565527745606165,-0.009481319238671748,0.16927940991242205,-0.015480295846237339,0.10202001826792113,-0.09015645531820815,0.10271438169798063
435,0.20684408399453155,0.08050144158976215,-0.06024866549087621,0.06514252049859036,0.04670069234229246,0.1204614185195544,-0.06814910472506532,0.14250387223002195
436,0.19638428910735603,0.06278450568441685,-0.004502729126431581,0.2530776159172516,0.004126088113709523,0.11747920154817956,-0.10573414258377581,0.10899355208407285
437,0.13424288640979773,0.03715023545373036,-0.05524660918359281,0.11910908646529067,-0.034443129912882314,0.12139330007324017,-0.09223582699160611,0.08948798042857004
438,0.14408391802825252,0.03461521034117381,-0.05643370873422848,0.14377476139736314,-0.03717084514238371,0.12331921766245883,-0.09466137186787964,0.06944062049529606
439,0.16996759992170982,0.03724117457970256,-0.020740446725660583,0.16774829714516662,-0.036930452783560566,0.11965137360021279,-0.10482115998173168,0.0661109963331838
440,0.17216960610940302,0.01967513263450613,-0.015214717468867796,0.15699535707897344,-0.03611759457832085,0.1094346828914545,-0.11163754709585716,0.0758485911073936
441,0.1265692597649639,0.0560244278066586,-0.06979933401946542,0.223169646879666,-0.010444309180318889,0.11825901345353389,-0.08463686254578917,0.10563219051928849
442,0.1474141760169636,0.0676119141459399,-0.0603420138070296,0.07659573856977597,-0.00029400888507702974,0.11833009787185933,-0.10113084040614603,0.08565611735693193
443,0.2356477097250524,0.08607446047857886,-0.04339639322904394,0.1512378212626962,0.02962058339420599,0.1274618026976069,-0.11930634790881862,0.09668821558508414
444,0.220641523182022,0.04111780103328427,-0.007133501448674063,0.17416422682856403,0.004422543789749598,0.15432512955820918,-0.0875923202651977,0.04167136005702507
445,0.2554364665466365,0.04022221994121892,-0.06503082245992339,0.13109118062737565,0.012861363624011059,0.11170056404858518,-0.0838050022604247,0.1788169033275929
446,0.24200407890571798,0.03546961262372565,-0.0686159361784997,0.12684802155292244,0.005411225470198648,0.11231064735859551,-0.09202514798686284,0.17736832646629017
447,0.2258063150569396,0.037873100499236985,-0.04802499611018359,0.10047865213003393,-0.004121541949303855,0.11093801739250705,-0.1033559956491545,0.135728717403412
448,0.17041478410370173,0.049739133383783024,-0.010928997080351324,0.1519335093633678,-0.005021153932633254,0.10864501706696945,-0.045939163758792416,0.08173170948341885
449,0.1574192903635016,0.045130565294970997,-0.01947781130611315,0.19145373460333814,0.009226304664229594,0.10577074975100845,-0.062025015750413165,0.1227794830963721
450,0.27308839218472064,0.042198502237113064,-0.05011447644473974,0.1025854527030879,0.02447279523788611,0.12178785149172268,-0.12209361343052721,0.09343797032241306
451,0.1362241118810782,0.06678024770102217,-0.02684144199983254,0.20129022554981094,0.0034983365765486763,0.09785325076843233,-0.07331987070117262,0.12276971642247433
452,0.17759140106198815,0.0697961326014003,-0.050761372089476654,0.1783920865627142,0.013830792821389699,0.1059646638398753,-0.04931102573262097,0.06544753347657048
453,0.15056977386744516,0.07884387368217839,-0.09481919388010503,0.1814475416031874,0.029769530605626537,0.11504476297641478,-0.10100650699475902,0.06598528513405744
454,0.15274602057365702,0.10400251105273219,-0.07062251431709653,0.18339407246342204,0.019007720328887073,0.1266717859630359,-0.07332809153418413,0.06765752885802609
455,0.16707179119093535,0.05853076626193828,-0.048713248091238046,0.1378751968164779,0.01225179786268402,0.100713944871197,-0.07961560095585023,0.21112394055865952
456,0.17048536218540788,0.07642088484430601,-0.05200287376066095,0.11690570753832093,0.00936775414419423,0.1045586458322707,-0.0881387142382471,0.14153223838701673
457,0.16017081473567377,0.06672093259674494,-0.02086265631476914,0.22539883679952008,-0.00802072262648179,0.0980091135118424,-0.058767703898885935,0.10729625842081676
458,0.22770565151880834,0.04514808636868096,-0.07115130813793574,0.06927955560373913,0.005697610080381095,0.07957214261424696,-0.09415976730730814,0.015992144068941547
459,0.20086792725079594,0.04410146002397212,-0.0554998522900742,0.20409562055570846,-0.00508311879865966,0.14310119326348056,-0.09388475137910123,0.0714846880898644
460,0.19324773184666313,0.03215243469879192,-0.0483032757826885,0.2110306137948371,0.006023670845214665,0.1567767151018158,-0.0943424923100377,0.046753585916730026
461,0.21185388227686722,0.07708599278158998,-0.08449409378005948,0.13257261529176598,0.002465954646206943,0.13828750012575775,-0.11193304575976938,0.09506131167046081
462,0.21760903779288343,0.05945307129948662,-0.0736555037275935,0.087836934060552,-0.04248117561975784,0.10075449810592342,-0.12277039125311437,0.06308450538884247
463,0.18517431727414613,0.058613001204168305,-0.03716472677372018,0.18342520710365717,-0.044311292350493324,0.09971110189507475,-0.07349556167474765,0.03965941200063657
464,0.2054237355553211,0.06710182286182285,-0.07199455689829456,0.18310199324400286,0.0013299803369961442,0.13446126544205333,-0.09885287975818471,0.12766674411088183
465,0.22997537736254114,0.052666399644114285,0.01082812108900427,0.15118487039837755,0.02968013155951757,0.0944699453200015,-0.09003672713516835,0.10425811823888359
466,0.23000687968418396,0.029516562276443274,-0.0799796441607099,0.14326783868237905,-0.0027267721018135543,0.14446226240378943,-0.10970471843992605,0.03967852974244004
467,0.16750296907461662,0.028655396516666234,-0.006894107410838285,0.12089249559863431,-0.02402568366428979,0.1173271637025877,-0.12042371915339148,0.1417223710561607
468,0.20047696040640733,0.09053518039814208,-0.05154846252741699,0.20702402019079755,0.01932254033635943,0.11110762904245473,-0.12414206263457626,0.060444879651085165
469,0.20670732016905893,0.07516118368732883,-0.013970444463011282,0.17102209986739297,-0.0372163485215207,0.09367559130374045,-0.13679423072669258,0.11392533704316414
470,0.23787007280539035,0.06688377983908494,-0.0032933404617386994,0.1741947881163536,-0.014489504231258441,0.10950229461671487,-0.09154546645087133,0.06335202180704859
471,0.1745184841036581,0.07252162082406995,-0.030036379557609322,0.13665767830953787,0.006992761789915471,0.12088151845682778,-0.11906606586263772,0.07200179971498635
472,0.2070262371708227,0.0953990777044376,-0.04713119040822854,0.13187955541569776,0.01932635901915676,0.14502993000197373,-0.1373029611255845,0.03840065256433649
473,0.2155938667616715,0.05879974652062215,-0.04620277636295048,0.15992100641916285,0.0071346261277311735,0.1300534868835405,-0.09176513549797169,0.045503679031899454
474,0.20418231902150924,0.07412045058840985,-0.038663442403916504,0.16122825251516787,0.010220970098272565,0.09728477459699143,-0.10122136257205433,0.09829575782280985
475,0.1732070121764655,0.013355860992865074,-0.016583296892454254,0.20840665234268305,0.03230592013607397,0.15349758348423428,-0.0724237694639117,0.1505262268694762
476,0.24820037803284423,0.054431883736663224,-0.049770202913175646,0.11700438590082572,0.0035016269486341433,0.10675121147034491,-0.09697581232359394,0.10876854289695798
477,0.17229500543201298,0.08136808520354269,-0.07643072999730711,0.12226141146632867,0.0168428751619838,0.09025928016235643,-0.11605240555891673,0.05229843309443702
478,0.26906052276242287,0.055484831774913985,-0.08505224589887983,0.18353973383710628,0.00742407253436782,0.12245268679102066,-0.07552456717024154,0.07329378471977867
479,0.17259385880618375,0.04711376717060392,-0.021260939533597378,0.10926012532939536,-0.006263550599696274,0.14934950607554326,-0.0885178238601093,0.0763255038629757
480,0.16519235136099594,0.05468923401570631,-0.05062002959833818,0.15305287784821606,0.00970048217145131,0.13013139834694815,-0.0697775772970836,0.09363154035720882
481,0.16643306369882208,0.01924324102676907,-0.02898155328868722,0.1903336350778524,0.03713974144678595,0.1378679817975149,-0.11139063366092267,0.08977690170424378
482,0.21936681055061755,0.04784340939671022,-0.11174010193684726,0.15257294895533965,0.039273107772272955,0.12710197166193704,-0.06108841605160777,0.09227318534104242
483,0.20783081933422756,0.033061752732253466,-0.05593808950704223,0.17220290833274726,0.010557181298621267,0.13695798481031352,-0.08890852901314447,0.15784166777508502
484,0.18399187378037699,0.04916648179194065,-0.018433778982931033,0.1468262841504776,-0.026264042813780742,0.11194382550775145,-0.10813474110945873,0.06286540230657377
485,0.20710410805268445,0.03554767004433621,-0.05803544532908928,0.21460409551138152,0.008445798276345104,0.14321398287658457,-0.09995113342664391,0.07566718215931474
486,0.18713033032865206,0.032776106914401866,-0.03885032396979361,0.14278050086844102,0.0006954343793901794,0.09439439830530101,-0.07833584010915916,0.10157295924128827
487,0.2264541338322671,0.04695026800086521,-0.06052945005756838,0.08151669626949466,-0.001952692540275489,0.11689955338951423,-0.06753824201169814,0.08557565108340902
488,0.21175324573434684,0.03770935688231276,-0.03700678426262214,0.13548201309202088,-0.02716829028770787,0.10674485356618692,-0.06620258032194237,0.09175515954265177
489,0.19173957461031665,0.06836158546621968,-0.06233038333520054,0.13657499291936043,0.00739179080609286,0.10434098077653246,-0.08866064517317847,0.08493566251867653
490,0.18212678340916036,0.04748787422533462,-0.05046449112016005,0.20518339028896884,0.02216736288775853,0.12256797497490556,-0.09456394964502514,0.07623080933970794
491,0.16912463612626147,0.10005440975953231,-0.0341741957235948,0.11749878255545097,-0.013979708909119336,0.11954747433051491,-0.10666822633612709,0.07184386199999773
492,0.21500231855035445,0.09170422713457306,-0.02363461307066742,0.12802446423976957,0.032789571667734434,0.12595320555469308,-0.07130133376687364,0.07174002095486794
493,0.21243454348886698,0.09204754903157399,-0.02105311373638352,0.0907453579932397,0.021592938744345872,0.10978064421660258,-0.06522007620821936,0.04708218170515519
494,0.25234054956174345,0.04414638570599081,-0.0410369390796123,0.09629347403428135,-0.0066384523926044095,0.1586038742836572,-0.09364749180806892,0.07274445431712202
495,0.24920191808448328,0.0716812590695182,-0.01950695977827199,0.1009145186716316,-0.014182493342915445,0.13413745929511484,-0.08201755418639428,0.08914452083480505
496,0.2035214341453245,0.0476384732418886,-0.04849528773926083,0.11401249796066044,0.034783690979372645,0.11793643103185981,-0.08642327221581085,0.06538954266552367
497,0.20917478082223617,0.06709815876877986,-0.004821718866509959,0.11316855109346408,0.021210776039869945,0.08083601295130474,-0.12863601640913247,0.07633441425360284
498,0.23992688873663215,0.08043375198846293,-0.023846421615571014,0.1338972177281068,0.028034672718581007,0.08993634090651571,-0.11367694556242011,0.10312523734417543
499,0.23790007012775138,0.05581358087095525,-0.0647605413137219,0.04923666169379556,0.026985672357634844,0.13007964790872592,-0.13146318912209398,0.08193970199626688
500,0.20565417889688858,0.05585686067979155,-0.07997581469296079,0.11364757449993255,0.008628145295178713,0.11940854248972678,-0.08031318205046631,0.04421601513187718
501,0.22600239168947556,0.06942927546677409,-0.071143931525236,0.1377502198453321,0.024344029431656446,0.1322589899281461,-0.08696552758892893,0.07020552366927132
502,0.2195051724333463,0.08007375267102407,-0.049502436141488027,0.19106173949696179,0.040736479032453525,0.11713181900539335,-0.08171051247016294,0.06570217369862746
503,0.19889418195413927,0.033104035729729434,-0.03634824910124721,0.18242907744114784,0.014531185455506484,0.13547162801880044,-0.0768752528912306,0.006022565386048497
504,0.21927983075272167,0.05859480314521262,-0.07472993342999017,0.0701895086731357,-0.014629227799161187,0.15435081626070105,-0.12765013799522337,0.07691650242203708
505,0.2437569264820176,0.0700509673663846,-0.047775132929084724,0.04185090277935086,-0.010439684069558154,0.14613448076213298,-0.11435989403137278,0.12292430546608192
506,0.19205479342764953,0.05595544688712419,-0.048272267180325484,0.15066325224635518,0.0033995428679667802,0.16289957685457856,-0.0950778058721595,0.14295398548329818
507,0.24163680800249343,0.007866768034535789,-0.018506943334416447,0.1888302159721562,0.02588820870728326,0.1343111940667779,-0.11099449189424775,0.0640299249081108
508,0.21469792871644294,0.08351612026322423,-0.09057387612917675,0.16769794108186376,-0.009449776211925364,0.11838751296624796,-0.09952802426222494,0.10509067139517661
509,0.17404251561551598,0.033596135401919705,-0.029190167023724945,0.20549842085904974,-0.006906165654628135,0.13392229721423934,-0.10616160144773681,0.11261375625472286
510,0.20371005612155965,0.0895500546002261,-0.07194581164347114,0.14662739912649092,-0.020152171870181902,0.10632230900514329,-0.11133071182626347,0.08033318964781136
511,0.17183896072115426,0.06340499895656167,-0.04261158677000068,0.11860401544224446,0.02618893214423994,0.10141080134244594,-0.10777589864447995,0.04474906283603269
512,0.1863925224815146,0.08982081872605126,-0.04831105514814771,0.13822322539748455,0.016399313574580104,0.12189600839870944,-0.10418640778226768,0.07160163888235603
513,0.17417948604869204,0.07498168678327705,-0.06583146299449702,0.15773211234861093,0.0032807592142535414,0.12575432064611444,-0.0769803363411186,0.0676574242098851
514,0.17392712505425797,0.03069563389679023,-0.016546962017093058,0.2209305072214524,-0.046807681097192314,0.14377229914258782,-0.11570071728589842,0.07361947420141922
515,0.23083463768452084,0.06495671168003256,-0.04694723913080744,0.175039769318912,0.016054376417198146,0.11757966487568641,-0.08703027280130331,0.09477038201420061
516,0.2252177167211427,0.05080980043887682,-0.06578517706362581,0.15466110784760317,0.00765180053531521,0.09888871871134002,-0.09239686318458697,0.1038899406995157
517,0.2343562962552121,0.06262554792446243,-0.07472610363348034,0.12770661470645647,-0.001772900463224786,0.11454688162806777,-0.09685091425403604,0.07748241912458582
518,0.17939920725251274,0.0474946577348172,-0.03002963509318407,0.15579251199869268,0.018983814224508393,0.12844869045067764,-0.06197508706192709,0.09794999302665361
519,0.17897397584408367,0.05940365333511062,-0.03939208577872949,0.20132065257279824,0.002570500167218406,0.1416510600827141,-0.07885464290910098,0.07409952731688305
520,0.13762405974027853,0.05441315030208571,-0.021815317277375075,0.1778799967452973,-0.000806007401026981,0.15156894509434443,-0.04633849422517586,0.07488002659973902
521,0.25516419773376275,0.053822232893967197,-0.031029585143549514,0.16876642904649267,0.014179975044367864,0.11280549828411232,-0.09954978340178716,0.04631969589516266
522,0.2004501145410983,0.05541534282396243,-0.03754249021264583,0.20612186423281353,0.028999422788904074,0.13986170500568762,-0.05958039186670897,0.0323181615361203
523,0.1962521967348085,0.056308547865709796,-0.02773258815261671,0.128925510225399,-0.009054529573439416,0.12553782968439833,-0.09760045539833567,0.15898492473494194
524,0.26455234936403377,0.08062429499546678,-0.017965169551647894,0.14804206615024537,0.03221413633535659,0.10656148746629054,-0.11501163500041885,0.1857398820621495
525,0.26809813294811474,0.06986104697645033,-0.06668149542598935,0.1321717693995674,-0.02623540038313816,0.13726061168410908,-0.07223958000356376,0.049309869111708406
526,0.2634359900648697,0.05319793376305603,-0.08352969549600026,0.14767662950822935,-0.016713371903812335,0.12545775224448127,-0.09653726883901302,0.05980414822656965
527,0.22011058090342328,0.09285286806679612,-0.028185718168776127,0.11125966801730926,0.0146715847084968,0.12949665745239464,-0.07822212777862539,0.08156027886047576
528,0.2164163223897579,0.04666247994884071,-0.021738684083885147,0.08628715717210787,-0.005077567372330595,0.12370058283179036,-0.10214290885178276,0.0629712583856578
529,0.18517094486422012,0.08824042806683069,-0.02267284076178254,0.138605164349928,-0.008133747103264425,0.13966014474274327,-0.0943960479351095,0.03144601511972095
530,0.22594445340184732,0.05733147490113547,-0.08794857236162823,0.10313879793341038,-0.008352533634144134,0.1194682297217013,-0.08793204707937587,0.057540853895050974
531,0.22916868745375266,0.05387226678750533,-0.09118500263248304,0.10808681787770581,-0.008937281920613993,0.12085852849840763,-0.08860988339257977,0.06555021191483427
532,0.20927603414186474,0.07651352343719324,-0.04475967682117506,0.14297271027912967,0.0028678643806552147,0.14736839331449975,-0.11217332096412828,0.14645743960614546
533,0.20057161356907519,0.06760350719007137,-0.026789930833473193,0.1476210743122259,-0.025378075093317735,0.14235513195282853,-0.08419265986648547,0.21632897985901256
534,0.19670732980034847,0.06699744894074404,-0.052072488476362686,0.07296097595123448,0.012819065228239593,0.14892572711610827,-0.09863859957702525,0.06279636751247296
535,0.20632370256830218,0.07825471017512796,-0.05113265772034976,0.10966377732518444,0.007492840128473474,0.13887105539547057,-0.10761854549846954,0.11542351282974786
536,0.23909844965097604,0.06998277662146997,-0.06082171192689548,0.1341141091624649,-0.0005449127777922738,0.14787178511428423,-0.06667578183820791,0.1134265083092537
537,0.20275615647837303,0.02187045652772261,-0.03724612456856265,0.1028108456327728,-0.02157285639916345,0.12756768724119602,-0.12717608149337914,0.0916146055095806
538,0.1722281754532057,0.08013210925668349,-0.03211058765831289,0.15996945166378967,0.019106956090286027,0.14772717661475676,-0.06638102628506173,0.09396606977247222
539,0.2103965705764303,0.07554022167957992,-0.013092294018582962,0.12483171892051131,0.02374464866407446,0.1451449928201343,-0.12787166465969746,0.09760546300423892
540,0.1996084878083317,0.08033643392501257,-0.05018267110499399,0.12677627810297995,0.017822428854702137,0.15014353568500788,-0.07379736508288072,0.15263721688066823
541,0.24901066056929566,0.07502014080481169,-0.02983585524230973,0.13806227470779672,0.007064172642313961,0.14911996219663584,-0.13466648377340493,0.13380984457556264
542,0.16786131507015914,0.046257380258803486,-0.029078808596712573,0.26713295864835346,-0.0296668349931039,0.10603387496134696,-0.11662118482564365,0.04105141202449723
543,0.18420265613471118,0.04418916456804773,-0.05053719316017396,0.2817447228282126,-0.02407053957066911,0.1186476458834281,-0.10765338184745266,0.04921022690293906
544,0.1432155725559118,0.060868777754246844,-0.024629875012747455,0.23504843257393082,0.006540023267694686,0.12162886531203997,-0.09986492643071368,0.10571193787185292
545,0.15513072832407201,0.06554126770614437,-0.0903850454093102,0.2698778687503537,-0.014694715150861392,0.1322844634663857,-0.09334167123503802,0.08619404658356503
546,0.16607576068548274,0.0670272556195547,-0.07157707338071621,0.2714980943665846,-0.016153351485595113,0.1206497384615988,-0.0909046861351052,0.08646700475547046
547,0.28522545309209724,0.017648072740206484,-0.013960348640634277,0.10007326818895039,0.0279094131890284,0.12686357344287225,-0.1042965288959376,0.08825252534216793
548,0.17608043456353048,0.10466499123362079,-0.02527820069198164,0.1721906362943991,-0.04733813738409206,0.13303763800573856,-0.07230117045994869,0.0752358429607787
549,0.21287206137563805,0.04367161095217198,-0.04992101303901429,0.11822887585790087,0.027238764177755396,0.12999724014964356,-0.11387885428452228,0.08444362044337446
550,0.22330221331771033,0.03380894537703727,-0.06971509873829713,0.153419250873714,-0.001977381377030538,0.13917121260680745,-0.09086470658604115,0.0717154954334183
551,0.16802746454246217,0.08986891202783823,-0.07182083932092803,0.12225332759260163,0.007048676354559382,0.11524240337286647,-0.07511155986442047,0.07710204649494481
552,0.26622679463421334,0.06687341915570347,-0.08102061364396088,0.19162187087282365,0.03708107241659206,0.09333484199685384,-0.13549970262307973,0.022860425451235355
553,0.1525000871134119,0.0811588703747007,-0.07059264811219039,0.03435900101948116,0.012891876871939437,0.11956474361544786,-0.09001150311571328,0.09191013681275575
554,0.19084190404620252,0.09218978662169251,-0.03674729468368062,0.1794199603988868,0.012881963083253544,0.13038955679521672,-0.11987839254865537,0.050052886247316304
555,0.1816818523833503,0.03032282948261655,-0.08122007056918269,0.18939403437779684,-0.02685184575971631,0.12999866848295585,-0.07984071668724699,0.08033753902154761
556,0.2850201468256757,0.07319811832449016,-0.021688432853321723,0.2361889344478561,0.003616317974474805,0.10176212295393156,-0.06253935806358998,0.0835696379696512
557,0.25837571058275194,0.04351615775205963,-0.12194663955793326,0.21489387295140103,0.006003263121361116,0.13411415218846576,-0.06872169460555325,0.10075822100809002
558,0.17653790487700408,0.042202641382407195,-0.01151214085285667,0.19727093174564825,-0.014567028330073369,0.13917752320421684,-0.11043264643861607,0.10316316719876899
559,0.2208736051611243,0.06875986849966126,-0.06006241527445925,0.17620804309673216,0.006023326946875172,0.12635367870360334,-0.1083265018604858,0.07550068432212818
560,0.24167508717922923,0.029727691637756768,-0.012958959900611761,0.20774189888241718,-0.013081045431749398,0.10297832916433176,-0.1068834385387232,0.11390835146005109
561,0.26484796455339826,0.0598435449925051,-0.048120991988594874,0.14585571269121383,0.005059564813856027,0.11349889784834777,-0.09472701683273799,0.14444412720446748
562,0.23489422884646874,0.07756392263550643,-0.024018365268319804,0.15825920412654002,-0.0069644479284888304,0.11634752223271226,-0.08695379729735292,0.15250442029702044
563,0.13828159042120447,0.0598266662931351,-0.022335599759062467,0.14038710376186997,0.020613426028581124,0.1406021063791083,-0.09006803297374014,0.020979808288307592
564,0.19802955442216946,0.039357337599950255,-0.08554235937850213,0.09930709421180817,0.042112436343008035,0.10951034496788001,-0.0992772584478995,0.03162681252959176
565,0.20220914326987308,0.05458552574717092,-0.05640633226142907,0.10127350031241676,0.04344415370375723,0.12561521934107475,-0.11560530811578514,0.0390690239566939
566,0.17014366084581584,0.07029311692182041,-0.02937526798725834,0.13867234344615226,0.021237999489089627,0.09196121364638424,-0.1270641497745307,0.06947753721216035
567,0.21780086975010912,0.05165791428828028,-0.014672561904488618,0.11684431999629058,0.012889497613660926,0.12919652431681936,-0.14515766784773662,0.1244660860705279
568,0.17932551490094778,0.07741045399926216,-0.018473261263899483,0.17947590313711934,0.013256126587850608,0.1472642117680847,-0.10232220625095369,0.07922649895230106
569,0.1525312709231806,0.06417137720287452,-0.02293100618521932,0.12603100146707832,0.01951614392751964,0.1433331881614605,-0.13986969417609774,0.09077033755228726
570,0.23250103830029328,0.05207994178464592,-0.06509291108556692,0.23192798250854288,0.002658944290164426,0.12805993016514444,-0.12373897277517118,0.0513307894113013
571,0.19597761945704475,0.08030301864936698,-0.05365810524816319,0.1548291102996403,0.02627885391811052,0.1078112168034993,-0.07845667169955328,0.13112152866991142
572,0.15219816330960925,0.05834807252962732,-0.13560503309833877,0.10288674350732993,-0.0311487884970186,0.0818539897378634,-0.07877177107258168,0.1132392698887354
573,0.18741179137606737,0.059570504979468974,-0.11573181326907853,0.2001672674253561,-0.019720433684409948,0.0962165729786207,-0.09637596801199166,0.11633177376277304
574,0.20119906414204203,0.0635241338253972,-0.13718789694159475,0.13058212087715884,-0.004203946557966893,0.10123432583944122,-0.07979489054722216,0.07839703043909207
575,0.22680619285522108,0.04752156496840447,-0.08869051842370024,0.12102847921303361,0.005439672342129645,0.11174495243381598,-0.12190717469881192,0.09741131830541461
576,0.1746120420959537,0.07985517637713281,-0.00557110867472787,0.19532779235956466,-0.007891128354608664,0.13827552625393502,-0.1236715834598745,0.02914521261132958
577,0.21481762208683425,0.05533899502799858,-0.01930633024590896,0.17594203175552336,0.044112989313566164,0.09724545596581559,-0.0792072669440641,0.1238012644441269
578,0.21126720193241963,0.06614235747683157,-0.037885587434164404,0.12038539890998554,0.008421735997821861,0.1060745998108246,-0.1048081781849979,0.10580926099209788
579,0.20362893557068226,0.04373819779101644,-0.05311000118742768,0.1843171793922211,0.03757860623617699,0.09471808805668555,-0.09184817831281676,0.010481804143184557
580,0.17139606739619925,0.053072587996970386,-0.020036245946763613,0.10126719550432287,0.048042440701473677,0.13537884701346947,-0.07760546362434682,0.14196473297187195
581,0.1895626955210839,0.07385810269442793,-0.01715883176932248,0.14627276891267685,0.027554100183848303,0.14057462507685972,-0.07261089131670025,0.1427256697717834
582,0.18813895158048416,0.11242288972537771,-0.05543874729929567,0.13392937472927233,-0.01844604044728497,0.12828565914134243,-0.09977105121180163,0.04280447007037035
583,0.2207061534736019,0.09457492755131358,-0.01811779160797456,0.17620854548786472,-0.004761131716467045,0.13516622159493488,-0.0959819012987122,0.014409002349631845
584,0.20925896094107097,0.029799695088925725,-0.0237317168877618,0.13594843547903881,0.06393526953047607,0.0905766859329322,-0.10534081083974942,0.05527526863127497
585,0.23240191193379323,0.04535925842907231,-0.08406921646805107,0.15007566197295819,0.01527640014624616,0.1002188679726521,-0.0804061167889994,0.051074523296257876
586,0.17852455692307462,0.07594277613427583,-0.06779532519449549,0.2263415798643241,0.04027500661318648,0.13510428727297394,-0.10232589515433334,0.06762966397734582
587,0.24828651372353205,0.06899491564528763,-0.04281873880957958,0.199546291913223,-0.005449311347097521,0.1114713044567453,-0.09783119772581177,0.09616342438402363
588,0.15311354822947446,0.07572757895366457,-0.08524268928086104,0.21643836319564072,0.044497577863237374,0.1391989730553476,-0.09117575900130985,0.10365303345590464
589,0.21899426517833917,0.0689047840075104,-0.04614415378532375,0.1864029009394425,0.0045965717631523935,0.11382654098081804,-0.10785595379588417,0.10331606167515028
590,0.19933456288301502,0.06292260685338713,-0.0434391737722364,0.09921940926369364,0.009491861473712867,0.123083294909372,-0.1176782700771469,0.06980381530315412
591,0.21365094748860586,0.08224495226244138,-0.07590336296690565,0.19729367247948587,-0.03388976247788265,0.09117752418626543,-0.1102871217794224,0.14289508418867625
592,0.1907348472140137,0.0614196409402381,-0.03568642830947791,0.11568726686029887,0.03057744362082951,0.11815557978951748,-0.11268008315029024,0.09848370240069654
593,0.19356430359472812,0.06394708022605462,-0.004296095275382561,0.13938882621547652,0.021447322236870153,0.12336175752533973,-0.13749598278789943,0.05975148294178659
594,0.23019206454214683,0.07146751530354072,-0.01673645065358294,0.1725792097305546,0.045603521842931906,0.1245790603858919,-0.11687123282826517,0.0794856278746394
595,0.16721058016047693,0.04880833341839429,-0.002016033005372731,0.11608779348358875,0.020585047699721463,0.13101028314799817,-0.09392897257947037,0.09829209560198092
596,0.20787307039863012,0.03518883831011501,-0.057353498664723175,0.19641781767613203,0.03318941125994905,0.08985316054986107,-0.0954784097375086,0.07069405815914719
597,0.17138072695851092,0.05123435984357849,-0.03879917790133213,0.18988539210707997,0.015657703750065952,0.10663166205653635,-0.12720739387074137,0.04328005189644901
598,0.23201825286770314,0.029831798076020235,-0.07167513228155682,0.14647558064105143,-0.00021024896666263485,0.1399838969901049,-0.11605552693200545,0.0957517795388196
599,0.23176774904490563,0.07121138576230839,-0.04190225278290296,0.1972380897879119,0.002308033278148694,0.13152366677696115,-0.07965009253381912,0.07083686928844182
