sample,celltype_0,celltype_1,celltype_2,celltype_3,celltype_4,celltype_5,celltype_6,celltype_7,celltype_8,celltype_9,celltype_10,celltype_11,celltype_12,celltype_13
0,0.015459717152024016,0.1102296615120533,0.2063671127073866,-0.05532219991695388,0.05727814081032191,0.1477253682064709,0.021254056083213117,-0.08492780176541086,-0.0268783665716506,0.1539541378833615,-0.18134630483204306,-0.018624181632602616,-0.042094114636622965,-0.03317672775809302
1,-0.041797545966763605,-0.013139763796641009,-0.7022266989118401,0.0182627197659585,-0.03790839428535355,0.45633230273380054,-0.16759674859235751,-0.09445371247188619,-0.013843904829994029,-0.049408728205882796,-0.19955373458808748,-0.004449790162274293,0.06979014219579573,-0.017681946089968856
2,-0.14473982309222105,0.165763722005077,-0.15689214131596418,-0.045347743942307076,0.025676345731549866,0.6021789409823278,-0.19378828872453477,-0.06962603962891331,-0.027031415289801016,0.0960949036989514,-0.20338119913691047,0.02995376856747501,-0.6637541435625676,0.008208627366476803
3,-0.04571834122711155,0.02605545377348046,0.3791113852163404,-0.050291824890182024,0.001348864290260448,0.575707521986037,-0.20271609541070149,-0.06163539997389096,-0.01107437289395833,0.3024066193514774,-0.15923507517229446,-0.025838408621763016,-0.3768312018913238,-0.043038019794879964
4,0.16828269046960617,0.08589655435340043,0.46948330472126926,-0.04327537242666847,-0.006167966510609734,0.2578302203563663,0.07850870791386216,-0.11699462066422432,-0.04095437257411773,0.12982120979407055,-0.16574273483295401,0.048691890188759364,-0.4054390446173319,0.02562281896179916
5,0.10008004842398144,-0.03342120585352486,-0.8629298494383848,0.009788165327602044,0.01254446843963992,0.21266329995435793,-0.07834227439239934,-0.02842414190084218,0.00985516939843295,0.3031819705328075,-0.1848528395211801,0.027518138542039647,0.45250891561967355,-0.031048609197059616
6,-0.009993926981494539,0.004713828214480693,-0.13800421398708307,-0.005681990994263114,-0.0014395505883713139,0.2687808127401836,-0.24499605289840629,-0.06440443806238577,0.015981043870112212,0.10561197314922263,-0.2055296785174521,0.03758966186261341,-0.06043305778777998,-0.06755019272481685
7,0.3458099052677868,0.08212386836849458,-0.7858649528468495,-0.03531909487580788,0.03813774063729976,-0.040728542839893134,-0.3568575000391201,-0.1355165575026231,-0.07075222238668613,-0.3682448918691136,-0.08695046037860352,0.01612779078610337,0.5112317496795553,0.06530837111184357
8,-0.0934323060003705,-0.04858875222322996,-0.033004392549574824,-0.0204971360729599,-0.0032886060596761368,0.15903581164579444,-0.25199268476236786,-0.09604171807222597,-0.017867356639618547,0.012046579799295784,-0.26755523950024723,-0.0019500423964541568,0.846448698690617,-0.0640169549145419
9,0.10485101230483193,0.09567375276179155,1.2394666976509408,-0.014442379086829632,0.041756486524752355,-0.537599215270995,-0.2195870151777173,-0.09322146593579372,-0.03547382382415226,-0.0100050602335119,-0.2092105468020322,0.03666873237948023,-0.23985045557116136,0.030466982606639464
10,0.060762768680076906,0.014492058605070732,0.13890919807474789,0.0011153677528768224,-0.03937173888830006,0.35198072750764575,0.02263539656881347,-0.08994099713903378,0.01794942296084359,0.19171282563519004,-0.30795942055913716,-0.001675791166344455,0.11095661375518281,-0.0391267250624983
11,0.17029792682956507,0.06099601753319914,-0.16270124161795047,-0.00996136642621151,0.06537660310653616,-0.2526876628366516,-0.21796308772388823,-0.06524137193417531,-0.03338611764103431,0.043644868695251145,-0.23863485886591398,0.07877498995204678,-0.35919039428108684,-0.007085469182931826
12,-0.1276820542722943,-0.07627709735548555,0.22889304843424868,-0.033580877460033506,0.048640016059319634,0.42662581588853765,-0.27872844839779015,-0.04316301449672366,0.005975071147334164,0.05256453390727059,-0.1904841529590514,-0.04108671566522511,0.7602417045346692,-0.01570373914748073
13,-0.17587223284285836,0.007027210498025672,0.6955158215644469,0.009295586470680323,0.009310765673993603,1.0795469896355756,-0.007276501342557355,-0.08531509339690332,-0.00541093460329297,0.08029505487129593,-0.22547291047051451,0.023912912443101043,0.6704437204690726,-0.02339102737556424
14,0.04927816867638668,0.059301342241563595,0.24645670450524004,-0.029234350162450698,-0.006879179101527815,0.7390708552856674,-0.23228176810854945,-0.08199694480600567,-0.020433215138631194,0.01081631716952769,-0.19938785580086416,-0.018647878834005063,0.059185806750903514,0.00956608154924729
15,0.12120636867121543,0.07368040311232435,0.13207469258543458,-0.022323764884424543,0.023617871717471414,0.41949128027944327,-0.18097543412579614,-0.07959595425873808,-0.04172955954074775,-0.10755010514887532,-0.1860054144017692,-0.010874519935512444,0.4810864659512948,0.012311286171045516
16,0.03053728815388962,0.05558479670027568,1.2771391094091922,-0.011725704447920232,-0.02160095894490259,-0.023475131793976423,-0.1912989481008472,-0.06626688655169924,0.017347255196603427,0.04227099776147315,-0.4435197793910633,0.029586789149457553,-0.3248076935958935,0.022589224450680748
17,0.032544956103010836,0.1328414522062933,0.7715568611738887,0.010193361594748596,-0.02304605822843219,0.014075236791837226,-0.3400533202943967,-0.09462825485202866,-0.06663547044659379,0.17272397032303843,-0.19872954256823155,-0.02305850557378532,0.6577868590593439,-0.03471191261465299
18,0.20010411227338187,0.10809628703878355,-0.8142904009797232,-0.0068408034665854295,-0.007884493217150769,0.2722292174433788,0.5416539280019155,-0.08437573886375058,-0.0655568634629276,-0.08660605349432558,-0.2853052599017346,0.025351452504559856,-0.5280005064579052,0.023517675030322698
19,-0.11205165741602485,0.14353220438649902,0.59709719355267,-0.0057171213186986425,0.017287449087908177,0.2660776762503917,-0.11617417181026995,-0.09126288592341542,0.008755884586727415,0.18873574291186251,-0.3422891950256146,-0.009246518569963998,1.5672296226212765,-0.08276104650621066
20,0.2978315111124019,-0.021208109131787653,0.20117242557352555,0.0012731580340823584,0.007987281774993926,0.4052949025558822,-0.16284519121424026,-0.06104041687097339,-0.013300402258940549,-0.06600764261384494,-0.354724564248458,0.00897683897285257,0.04040616042721043,0.039739105731095514
21,-0.1498988721172294,0.27696100722802636,-0.05787978577000241,-0.028435092085925207,0.00897068260421461,0.2758015404024352,-1.1739421715587126,-0.0876079252568444,-0.003378705496775339,0.03655652695451468,0.06180033111197816,0.014175643972768687,-0.09962247736224786,-0.012190754257696924
22,-0.22893923564070634,0.23895081960425268,-0.11589660490897968,-0.02088563188200515,0.011767591608156894,0.16376788623613853,-1.2486355643336056,-0.05936198931961166,0.011443178250732301,0.08165950453263018,0.049443947178483286,0.009921675524043647,-0.15335469127648227,-0.015765221872036383
23,-0.3896473469738342,0.11858718687348352,0.06085944407504425,0.06556652162298936,-0.015645046310543302,0.15448226832638454,-1.100392981307289,-0.05991020022338828,-0.013785046354414153,-0.05376562579693177,0.09848280093980911,-0.030689545419836747,-0.10734507625515671,0.06615946653277699
24,-0.1312265383081573,0.04556034110789768,-0.6955909663898943,-0.015390840975390563,0.014379775404621833,0.14089209481870058,-0.10195262169367791,-0.09575917159488566,-0.006828238577006693,0.16590059192347506,-0.10099704972232522,-0.01680816530963141,0.12563885554003457,0.03272290153752849
25,-0.008326029562718884,0.07583049015687801,0.28781962397032623,-0.026538820633513996,-0.030640966292781006,0.413944641266919,-0.3266985347169013,-0.1025748858244733,-0.04361035161908859,-0.09780246031907806,-0.14631211020759055,0.08196250375864889,-0.7319642310609598,-0.05500851509418092
26,0.02666054745783142,0.038424208739852805,-0.6363140810523896,-0.0005634874720241156,0.04357165822111858,-0.3411453602728255,-0.09820989205454872,-0.05950052209916662,-0.0016106826021936235,0.22997984096289148,-0.096528699567818,-0.0553466283418844,-0.36628529748931116,-0.01998851662918963
27,-0.00495687366914227,0.14638271405071968,-0.601194221789195,-0.042813978340667094,0.008820445468818267,-0.49695705437598414,-0.2059903787708554,-0.07323555882447744,-0.020566055819237834,-0.0638027873376305,-0.09471513853695131,0.03622451317344012,-0.11409081156147773,0.03577580171405388
28,-0.06397137223802091,0.12430012663245428,-0.10689845630201247,-0.015313326793685217,-0.022820917992765123,0.06939900176595892,-0.3205080946238841,-0.04366113261849955,0.004027217063456309,-0.09804699432793085,-0.20214460981628168,0.03870375151738551,-0.5838914709803855,-0.004454836317877048
29,-0.05713424876644896,0.04925055908870059,0.33114349683469385,0.0010291205239073287,0.049837680845315604,0.40927508067679474,-0.06113990872698138,-0.1378826317207277,-0.01820587402625353,-0.04777444551573787,-0.2550966415811955,-0.00629364469027552,-0.8785345475666575,-0.07324215840890493
30,0.03288980802299213,0.03697440363981794,0.16696116057278992,0.008607437608745883,0.003626338717322864,0.11011224480397347,-0.3593420834948526,-0.11262039965505667,-0.05862458815752697,-0.025587395270783325,-0.09817518652765822,0.042087823570391855,-0.5398552522118721,-0.0460413335720449
31,0.30771787823484364,0.14298276478217203,0.09085017888790894,-0.04020135297960942,-0.024223779342414643,0.01197846977169359,0.1686559995846458,-0.06062006433182272,0.02984622781160396,0.21959862094701416,-0.15580755341880975,-0.005411245815584713,-0.5413006762941295,-0.008014888141420595
32,0.035276277636816844,0.0464031544749778,-0.5088720983412296,0.008339872008841218,0.01671933231903154,0.3164992913827176,-0.41559072559384536,-0.06177111956815149,-0.056691882287691606,0.006592047798297168,-0.3111564937740903,0.029299382073994434,0.7975853578378207,-0.024553783480459064
33,0.018844822716948206,0.07746771812942413,0.5270849459937541,-0.009357923332659182,0.028373447471741985,0.09808584926948621,-0.053590617733816945,-0.10880318261326274,-0.040479242009042696,-0.07838564632943655,-0.30664009489943084,0.015069092516638925,-1.0963968068095717,0.021641039471912885
34,-0.2022757303906607,-0.04867619053098503,0.6039032011617488,-0.03426866915038963,-0.019519761833939133,0.43164915212585614,-0.32699183621564487,-0.05535964275395744,-0.006007008193806333,0.046940869972985966,0.03389878084781855,0.03256081148442852,-0.011336721860616294,-0.02466699312307774
35,-0.34472420572270135,0.11612871766848128,0.45132215335049636,0.01237200748490802,0.032586426307858345,0.3402264304407897,0.10231425159528892,-0.09134679287182595,-0.04151326831901321,0.10923267768521495,-0.13724970724106705,0.012069151338881007,-0.5016506430611335,-0.07082227008633914
36,0.1167267788305727,-0.009816076971130794,-0.3657088249180387,-0.030773656760598386,-0.005418476533279211,0.013576496255570808,-0.13776118709504137,-0.07700284675801142,0.006092306598342208,0.1026501146006676,-0.3009299995010189,0.018442450824193053,0.6093424562963128,0.031004936924231223
37,-0.032939176885428745,0.15311751944946697,0.041644551687822766,-0.003212037229354578,0.007150310011805379,0.35131293135051866,-0.3988811969096201,-0.11605885713162074,-0.027596907612238406,0.019540015171852304,-0.09531444043767842,-0.013789307344281986,-0.7796698966700663,0.004513077283415309
38,-0.0311491997766688,-0.04721624383962435,0.8870954184025601,-0.03595463955690159,-0.011148207522531633,0.5979175564404788,-0.3629712769771727,-0.0506549143229678,0.00829258105130573,0.04362747402900197,-0.038813653634649836,0.0004753991639756816,0.022708434776105013,-0.08810400487554622
39,-0.17714836688613228,0.1623239261229032,1.5076320640326797,-0.013636159535654502,0.015424503878539343,0.2842735322976103,-0.32435064540786285,-0.1260967673656243,-0.021202051019234912,0.06691909332366712,-0.4123598683456033,0.008920232798744938,-1.4864616748710056,0.06598615175778255
40,0.10615400643694439,-0.0013457234487455547,-0.034403988215169386,-0.022177409618231295,0.02016093006469148,-0.0032431876902576096,-0.9155174326235128,-0.04575685875210893,-0.022113151617702283,0.019856272086201887,-0.44962026149574696,0.006143019551412061,0.49481350067823887,-0.04815189087151901
41,0.058835848490849996,0.08161427172656448,-0.25875500933901074,-0.01539965805024375,0.017522800509445092,-0.1388178712117537,-0.8045897326093805,-0.05763896798100815,-0.037263176841456386,0.05900727168227181,-0.4833914501069651,-0.01797302653429333,0.4651242734865395,-0.011464255859502365
42,0.07577362540781643,0.04068753643932228,0.04290377994492884,-0.024259833590091012,-0.006110534755799252,0.013079185227179251,-0.752148341883269,-0.13464745909805376,-0.015466872764152432,0.050627940483783454,-0.2499966868247922,0.021492615969046915,-0.7218062637230542,-0.038986191765296635
43,0.1102739539526616,0.09800980870299782,-0.18007474090203815,-0.015945428450270124,0.05297492546432421,0.1811681555394729,0.8850361949084132,-0.01776886748481507,-0.0249317039107083,0.07082365885205275,-0.2627411081687021,0.034520778282288056,1.3048506417384937,-0.0022645741440076306
44,0.08138677073132289,0.09337800962266002,0.009175030261451195,-0.007197248873260315,-0.02192424819904091,0.5525843388156658,0.6457309605265265,-0.13019003633616008,-0.007537089283544185,0.07211638041261982,-0.2002046031011067,-0.004431320774872648,0.2851860922606929,0.029319611155417327
45,0.060442951187126226,0.051109053934060844,-0.06549871577553923,-0.018077178906409225,0.045758330095359005,0.3431380859646713,0.5286890507663617,-0.11040697534380364,-0.019533765993333865,0.05940179584050056,-0.26174443298631145,0.005776018004192314,0.3020387283973717,-0.057352782199561685
46,0.6369312627307153,0.09114351117702993,0.04754282138691163,-0.041947271224734434,-0.012204353276459868,0.08905675726946922,0.20400985415714307,-0.015270709216226211,-0.05616164942842002,-0.010209641534022026,-0.08073593977339553,0.004327107078144918,1.2095811938323924,0.061666627961623185
47,0.1464132017723837,0.14848586221730056,0.08892040888195324,-0.01003800861104398,0.04864256663066086,0.31526123829399655,0.4521249109570602,-0.06899610718024088,-0.02148866343976527,0.08664364340608083,0.15660526072235983,0.025784188798405987,1.9646660843608876,-0.03902913718868779
48,0.014102738282851579,0.20452558467034204,-0.1863052418333451,-0.002253663818194529,0.03432659367996924,0.21979618234729362,0.24093014717790606,-0.03789554794770167,-0.027327274270526093,0.022505380465582953,0.10323477902363647,0.01104607375260673,1.2824167574627523,-0.005485086616685064
49,0.0419064741807782,-0.005607894798071174,0.05862139509955264,-0.00751894340644714,-0.0179497309680589,0.18722998502497726,-0.5671269926891646,-0.11507414884915082,-0.022335118921120264,-0.06356870538626608,-0.40147858422280064,0.03579157746471271,1.0434684061470554,-0.0015813087244837126
50,-0.04508128164638267,0.07943400774974373,0.1284627067530434,-0.020712788755014686,-0.004341308058497407,0.6834371210226156,-0.04330921188637833,-0.04471604851769306,-0.03034752062046908,0.0850508079653298,-0.09943740982613578,-0.021871423726615078,0.42931464466738745,0.0216595065295537
51,-0.27078976965650736,0.13694921101226085,0.15398610815752536,-0.04746940134310032,0.009567694027417722,0.10853023446648917,-0.33555649198352683,-0.08431256286073474,-0.02445233740814845,0.46740509209610964,-0.19325127323321092,0.03706132892467593,0.14694809320697147,0.04312365779070709
52,0.13737502263869322,0.01410467836916133,-0.07271285833236266,0.011260184373901888,0.017493486398365638,0.8027052693507747,-0.6902929445886222,-0.05017547360286126,0.0022452176166855645,0.4579408603557882,-0.42101265887030515,-0.027832964691621317,-1.0987165530373537,-0.006486717917770793
53,-0.2469423915776976,0.04616446706994199,-0.033775304259480665,-0.023868120314091898,-0.006665397279461613,0.8072759844219177,-0.311187259227529,-0.09832882354843481,-0.008496107201892353,-0.04835695866942212,-0.23464042517297454,0.03987638474051411,-0.5487208807456114,-0.004340108653482777
54,0.0876416530832074,0.08884934248070671,-0.11913696526233011,0.018991509347384083,0.05696917941523152,0.33938503603101167,-0.13354762873605192,-0.08703309222737729,-0.0084532860315953,-0.01827274962134106,-0.237676696417272,0.010032899134616073,-0.3973603217082519,-0.012659012398290315
55,-0.24816527837680186,0.015858698868044932,0.06868337317629958,-0.03094658349262172,-0.029218466112735746,0.26263251787755776,0.4759927488955081,-0.09748639676731997,-0.03134156082790564,0.2282156641396189,-0.28518276320937697,0.03200845182130604,-0.7175680082499978,-0.0029857360995233784
56,-0.0029740421911165216,0.05837634715658806,-0.12695055077092562,0.0014288032336149392,0.028634580962371946,0.22355661934834115,-0.26075149949235904,-0.07056771298768463,-0.0037127446940261113,0.12129326037006495,-0.20986502874975055,0.003339606477818953,0.39560374825840394,-0.021507657539667567
57,0.04391580230697778,0.10203115693920466,-0.19730639396276675,-0.014469795997457374,-0.01991383015581194,-0.004736155109858822,-0.10894146234640127,-0.11202241725975033,-0.017407994072952123,-0.023797234117821003,-0.29436296762245917,-0.00028226041911678934,0.34077226039162883,-0.004432895522365171
58,0.15023768747299027,0.08804625465972227,0.03398330460537423,0.004570406745122671,0.007269564568151799,0.08524644232579268,-0.18154949721093966,-0.0802945126794676,-0.016647153315610085,-0.07224850866618122,-0.29646084644477433,0.027982653299325963,0.25057024743020345,0.0007803286440510454
59,0.8144449217367156,0.11068406362771754,0.28385879195773994,-0.008564669037373296,-0.00897919929983597,0.2721620874102858,-0.2598401930787728,-0.05660123047807116,-0.0020585260963652194,0.16187009355701792,-0.448421987890975,-0.002616117413541612,-0.19339906940511542,-4.715359780220474e-05
60,-0.03788430181423169,0.06355557694709632,-0.11103743628860732,-0.003566245008756075,0.018826667368551212,0.03922780163880332,-0.3972117451451123,-0.0883326195321013,-0.028689720243606442,-0.3215012857381794,-0.3307287792047906,0.019002458809062893,-0.035938784126368944,0.0068518353268124665
61,0.015202390135782784,0.08049796428909886,-0.40518800120768356,-0.02693824651714835,-0.017359222672330313,0.27838655057357425,-0.1526652146777515,-0.08787186335058872,0.02127971930516259,-0.04252014902009013,-0.23691375221041255,0.0034862073097986154,-0.621528501345668,-0.0019122180330811561
62,0.40921940414573177,0.1100538829752092,0.9046686060849204,0.0021582704226610905,0.04115081508716302,0.2040740893258967,-0.06147074502205521,-0.10940140008794733,-0.044782448597093835,-0.01972904543816545,-0.33954260232049166,0.0031696500616070072,0.7419348634492045,-0.011735317622184827
63,0.17816108200155728,0.036658512057901556,0.5051824008391775,-0.008118043240193218,0.04899918517344654,0.47541592748725847,-0.20634780838960748,-0.062498249731166494,-0.011553511434095016,-0.03676958028260928,-0.2745147360543639,0.022775371473580164,0.5233733220215939,-0.002735815170073194
64,0.1580176725742512,0.0280318466883287,-0.1943164191377112,-0.005111727584867082,-0.04689561463047466,0.18919137353661974,-0.018258220998006648,-0.06747589066257126,-0.010350413113171518,-0.07901316359018104,-0.1848544353706665,-0.019849775893458856,0.34807078794529867,-0.03235993985043249
65,0.1736922500513572,0.00673257005753071,0.034975393964887885,-0.014066812547930949,0.04473745869620442,0.3611885400735264,-0.3178910236611643,-0.09472721138778785,-0.01369447082480977,0.39982050972121685,-0.4002287109158835,0.05072224465261693,-0.10228480716391941,0.003283382272834326
66,0.10323403517064417,0.06522620005041868,-0.06996912631660095,-0.011395795555769014,0.04428648179858043,0.39415988029463683,-0.08266418658217774,-0.07235833891417104,-0.026478367127385723,0.18488938579112302,-0.25193081181513644,0.0571637060530651,0.019949477025924645,-0.025071705651407997
67,0.07044525924799971,-0.025087856287613532,-0.6468576806521932,-0.07363092565151758,-0.018182566763944325,0.33095828022402224,-0.32270238912630533,-0.09724197651060477,-0.004674738199407688,0.021072854065563307,-0.36408086587327904,-0.023757977202787495,-0.4431262311693619,0.004911701048931322
68,-0.5158136748638988,0.045400642516545235,0.07993236110389784,-0.003481070032144734,0.05392517169225072,0.4193061771387649,-0.06041861477289182,-0.07267534843597968,-0.024073851442566747,-0.015775828751092957,-0.31746724742630617,0.04530077124313315,0.41023204418443115,-0.006672021824109864
69,0.045855207992009345,0.08816015249475294,-1.1950155980479018,-0.04406022318423386,-0.03361637723844649,0.3976358587170723,-0.5879096573363165,-0.08547885655839034,-0.015249428780629869,0.018042254455273563,-0.2927642277652721,-0.03853166484940126,-0.4946896545194957,-0.0033156745220213474
70,-0.24686150560060288,-0.03608524950819831,-1.0697582857036256,-0.014010024811285798,0.047461331559102135,0.42567967763042014,-0.27773033799955804,-0.07057564683421505,0.0024896509581840073,0.09544156479932583,-0.3911975026317163,-0.014768949164675242,-0.32763547230045253,0.024242450465139467
71,-0.215797187317533,0.16940477658364192,0.8082905654794708,-0.03304960124593238,-0.0318124380689028,0.12722611293120803,-0.13489765692468403,-0.08569610896762456,-0.013431766832047755,-0.003782849437096919,-0.27940703283981627,0.030533306849410732,-0.07016745093687987,-0.05402319903461785
72,0.23078226093380494,-0.010271455347271499,-0.5165418977006995,-0.015690392144937865,-0.001979310430336268,0.3150417317193655,-0.14881134012689348,-0.09476070979967623,-0.02307591113224554,-0.030900197552811495,-0.24603092575254668,0.011122137174880711,0.11320939383898804,-0.019934020160962157
73,0.11808380375041555,0.0317107627007281,-0.34574008297206316,-0.012083064499867624,-0.0039416394364505496,0.3797596967927322,-0.0074036650663485,-0.07730207353960226,-0.01867962665959825,0.03736256821650511,-0.23459458422885276,0.021327543875643007,-0.11930612940325852,-0.012185430059005388
74,-0.16897195496502215,0.17999309131152705,0.8947933708454996,-0.0585986265017365,0.03197000037759347,0.02557163796604081,-0.16053339168187952,-0.08501190913000341,-0.004208900734986455,0.09743956431825777,-0.3309901741866914,0.048015738510483304,0.22765761664144143,-0.007406543237098141
75,-0.050574807794171506,0.017217981057509546,-0.6921675023529748,-0.008789197048972824,-0.023956836604295338,0.17429204697823697,-0.38214298778789024,-0.06603341318325863,-0.023630393716731174,0.009670417072045814,0.16838996219517907,-0.032124749087656265,-0.388467020222794,0.03033476388757217
76,-0.19164294003327492,0.061548959754612866,-0.21921885426464963,-0.023001466351822153,0.006587759100997433,0.18692930286483253,0.10688236944860535,-0.057680888526445706,0.010295730868659793,0.0002897329185488195,0.026508732669265928,0.004778917849996914,-0.44963917792596364,0.049680019238010964
77,0.19038094148970947,0.06577766515696798,-0.17047850219519248,-0.018407159425427158,-0.022737785449151435,0.6375481646951618,-0.42240709157675616,-0.09433166717989319,-0.04201784672882085,-0.16372831842774105,-0.03729867874095508,0.03954746736939427,-0.13411045195776045,-0.045315156493096066
78,-0.13404599746493878,0.08837618446357154,0.5906693027876433,-0.02831152687080038,0.015028217529739124,0.2461944518779495,-0.054089435863819965,-0.05961762442079001,-0.025538222436104947,0.09842421702024887,-0.2558238594030152,-0.01488233694160946,0.1606493013078115,-0.0862481401904414
79,-0.040652245515733376,0.1799728269338258,-0.3106185379019737,-0.03091663837260375,-0.009145278702502863,0.11352293347163675,-0.9599367478786937,-0.07068003596064139,-0.016029305082887534,-0.09844608177305558,-0.359682664987132,0.05048330779216371,-0.0885171780200374,-0.03291988741627092
80,-0.28325101653310386,0.10588274483811604,-0.42237189233467204,-0.030781285400952554,-0.059233699355725734,0.2899582867654777,-1.3833515564869705,-0.07876970543888875,-0.02081928015378238,0.07476849890729755,-0.22416894230188358,0.02263535446034419,0.11333026755509248,0.002073742520976765
81,0.07926915081952454,0.029145593578532747,0.2462844272081674,-0.029604543159363325,0.09351896280930483,0.043049021532260895,-0.38292477841270334,-0.0946116410307255,-0.023403087522678365,-0.03891697763463903,-0.12680732273414308,-0.0010571330903828627,0.10019375031204514,0.014175610825299348
82,0.11809734468110994,0.18160485037848423,-0.050611886870286116,-0.005034927054480207,-0.009407363611003507,0.2987599187154963,-0.25582771910592117,-0.09118212251525767,-0.03834617786294321,0.14079845202830577,-0.3038039146124709,0.023535594379226484,0.31125704396567955,-0.028002421890205915
83,0.08549834808260415,0.002923901165765186,0.18405438810319624,-0.0007432796382335904,-0.029644653362042073,0.33780358914502534,-0.19268771710009766,-0.10188747730109819,-0.03172226985730407,0.02302216421139848,-0.32939080840507806,0.023222304801193715,-0.8993397120781427,-0.029098522220378564
84,-0.13756375862077042,-0.00451036919382386,0.4586309324956302,-0.03903825572915236,0.0006756645056880291,0.29496954711748047,-0.25215743555593473,-0.11548408949070618,-0.01408498990904232,0.06382575687577305,-0.24886479461485117,0.0047284841657341155,-0.44465754130079455,-0.03289691797434598
85,0.07957809727508708,-0.09605856194869725,0.18861537360932235,-0.010654493503745435,-0.011824582877159172,0.33436608203652457,-0.42718256675549504,-0.07657434374970368,-0.06539987649550152,-0.0488032868814374,-0.22974476721285617,0.01836565015203355,0.8780847593971637,-0.019601055125121523
86,0.14287979608832974,-0.054290509543884605,-0.4364914814169399,-0.011830949249941533,0.009718910187081351,-0.20547887178157498,-0.31340152422551476,-0.058591431445555855,0.030873176684729987,0.09653361201050598,-0.350359015273129,0.013611737975256683,1.6260162792742066,0.043334712434440203
87,0.23081038353818153,0.07946893213389508,-0.02521346666266977,-0.04334244278941454,-0.0006658491547773156,0.21475078076832663,-0.626653161778058,-0.1316557866848855,-0.025213284536259983,0.054576995483763074,-0.25068492068794207,0.02070993305877082,0.093371737645642,-0.05082505845059664
88,0.23831969254006835,0.045430093234560265,-0.08162495723258828,-0.036586806000384456,0.01160372073033248,0.24717803484344458,-0.5293183647958101,-0.10309180617274968,-0.00685245552187614,0.03131182420849106,-0.27969814130202175,0.013523471167206619,0.06015030903270541,-0.05079655165367571
89,0.20665675151853335,0.04180831845949266,-1.0628904661926044,-0.05483250995382667,-0.004559289780525808,0.09094969315722304,-0.2181057471645111,-0.0905306912972052,-0.0003113028582696501,-0.11082324329383134,-0.13179939293167128,-0.01332425746324064,0.06287183885832737,-0.0007129471236907159
90,-0.14120212472014526,0.013012481256983845,-0.7069963076733765,0.00906857388431341,0.022414649230424456,0.30751458730763703,-0.14826789765982248,-0.045278158745684235,-0.03504638212783093,0.1696803554082394,-0.2407017063064889,0.0031362041712681837,0.3539877955670636,-0.002153915579695048
91,0.08554322922652255,0.08590641001799246,0.35431002656567473,-0.04094460309331244,-0.016732756126241505,0.24400621322772412,-0.1987237761681178,-0.10217983338252024,-0.012619381793434904,0.035082390665799795,-0.22421822939394553,-0.01565707584757664,-0.8199150107451564,-0.03730897327255594
92,-0.018992293087101042,-0.03556788304988054,-0.19508834843588904,-0.002060923044984342,0.018170888813747815,0.05356815983857807,-0.15905713404081417,-0.08542451307234764,-0.008251383368834304,-0.03521046299310685,-0.19947244125098737,0.016851363868663614,0.19039568813195032,0.029400463920849787
93,0.13877434476645156,0.04686018751368315,0.783156921385602,-0.04579946056873674,-0.00595268510814375,0.4570443795474084,-0.03999543294361488,-0.08266374822861586,-0.027012127227696546,0.07258862553010947,-0.06106329514942816,0.0011541264832741066,0.3470498218337788,-0.018022891457973846
94,-0.06080828570879121,0.00514543934800242,-0.4530301944401658,0.0047049175354186845,0.01969810479099754,0.5480714372113685,-0.2474024521318454,-0.07937051007906758,0.0031338052459996962,0.17687572134122237,-0.14004249014317216,-0.0027607692412823515,0.38146014037210396,-0.015134001710213382
95,0.24751896231043025,-0.002088168609270885,0.4182062200198063,-0.020694806613066552,-0.029511230371820203,-0.3075629002471343,-0.11513320367068625,-0.1112438799955438,-0.00078789894916435,-0.24650223186609413,-0.17285177582747469,0.035979125220904365,0.2830539478520881,-0.03725178747008606
96,-0.23941900504923247,0.04796144106769019,-0.6741228816238864,0.0013259392646901014,0.04987826339145557,0.1535255529645176,-0.23764449617336475,-0.054869208026582954,-0.021248033035809487,0.03673643913615797,-0.2300744909620409,-0.016950024268167607,0.442817733990121,0.01751486470171222
97,0.1458400911079905,0.053233607185365156,-0.9225730073752754,-0.014845773977656213,-0.0016913201247854576,0.2683761752986802,-0.3417412163337347,-0.14559106823134244,-0.007147120612331321,0.11340603102321367,-0.12354958155389695,-0.03019578865702006,0.3307725036768857,0.0597966440134198
98,0.013714237208457714,0.06073574477204273,-0.6046653108491377,-0.009690125171658986,-0.01180318064394491,0.18682094227943627,-0.37004529748978277,-0.15358492786030495,-0.009993458586790668,0.07015511127096727,-0.1990672747989059,-0.030053801151468093,0.29639816165332367,0.05092955040103239
99,0.0019045816908437319,0.10111759332325945,-0.7133684886657216,-0.015219159145834021,0.004925558361755612,0.2558496057205982,-0.21508485741650468,-0.18404111709705834,0.0017121538652341908,0.10401717277481298,-0.25654135550211776,-0.013008141914659356,0.11351204663953804,0.024413022737641482
100,-0.13177847872845652,0.05739317673531005,-0.7223075187912034,-0.010217096022537814,0.011073975010358325,0.16042070074011605,0.06335713314427627,-0.020329962281965708,-0.07676907975599026,0.08496528415415798,-0.1340922054603914,0.019641406917156424,-0.1293245709192341,-0.036576985079698185
101,-0.20008836947820252,0.011638552470287146,-0.8300940310232366,-0.035711980692430464,-0.013632546472945678,0.05314098633082712,-0.04076640544765059,-0.09461143820137316,-0.06119258859031909,0.03495032430593716,-0.21013765743022816,0.018603796573623335,0.3352549431587347,-0.030201940060834813
102,-0.1649031214878846,0.02041215749353424,0.09318996169774374,0.022391339543938682,0.021530646106529997,0.24781422501342598,-0.16035884515646603,-0.06538532646043249,0.02231131688282139,-0.04043048860186481,-0.24785748409414596,0.008833609763664482,0.8088191111328396,0.046466738945367375
103,-0.0049683490071458225,0.08069967248256196,0.1292507998052561,-0.03234543816918854,-0.0268712608047796,0.2663359244151841,-0.38801037076861034,-0.07173361482045527,-0.02800009741181913,0.22039825207517322,-0.18958988493412648,0.051340869895593326,-0.06514363896784879,-0.09933246497078799
104,0.5869672013435243,0.03266754716633776,0.44729580950659537,-0.01986781023222922,0.023169791036374718,0.10430409319823003,-0.14910440660650628,-0.07750786986946231,-0.014047621319425333,0.007221954544244638,-0.19074801711003297,-0.016964428051147243,0.506526095229114,0.05381299246628288
105,0.05844596241657393,0.037484085048274864,-0.46060034716913834,-0.02107130646807126,-0.011866346532277373,0.19318339646950516,0.03638578472091868,-0.10575856680891714,0.024618759781154458,-0.1638318823672475,-0.18120773714415472,0.033130512195388206,0.5556263044525412,-0.09019633979912182
106,-0.3086071384843202,0.12391111954077938,0.675889291178461,-0.010263855297312233,0.03641879305090794,0.08464737036914836,-0.2306460668618829,-0.06759215187202292,-0.04731610178266176,-0.06739961228496895,-0.2551269538781762,-0.0020731327334455527,-0.379156018248878,0.025704144371511542
107,0.07466214197184656,0.09570550614608972,-0.1372142656516952,0.012412496025832762,-0.01090809983502738,0.07025670259073609,-0.19262581638313842,-0.09334480191072503,-0.0031548844852855584,-0.30433189446637054,-0.25428798195852187,0.018416608910651652,-0.6953849958714522,-0.010607369327603575
108,-0.017198447998557242,0.1008724252498811,-0.22153764412101418,-0.022373836549602538,0.0073223300025893195,0.2854877603445214,-0.6440979270199261,-0.07348695300466612,-0.020522790610864455,-0.12708263441488168,-0.2604740374095542,0.0036548311429070446,0.07338917312100568,-0.020105707552407495
109,-0.05413860845615737,0.03325163526134101,0.04445527646601938,-0.0017623777630605963,0.017335801341047015,0.4329159140654834,-0.27592127264819866,-0.09327958198365212,-0.014503981435067408,0.03821666280490717,-0.28906902349777974,0.006754973638549849,-0.4261603245288028,0.0034578467305704103
110,-0.06644226327636049,0.0816727045765514,-0.16803786501294668,0.0016063294603642364,0.006486392621420478,-0.06064995238068994,-1.3640844854593193,-0.05958098290904822,-0.026757483781690516,0.11376446974535884,-0.2802075839719003,-0.021469854550898376,0.4942504213992386,0.010507236041916876
111,0.14237403083732192,0.018095937592681806,0.07731509708403458,-0.03156207610019722,-0.017916204392724105,0.4017853371836711,0.02284932455446015,-0.06718184572871036,-0.01980421583783898,0.048442328687405035,-0.259466316179257,0.03497250608210429,0.7469336170455991,-0.005385153883589615
112,-0.17575072928861885,0.026530687874918274,-0.3251233183441958,0.0009392315961331971,0.043793112472140266,-0.2366184472340792,-0.6608058094341246,-0.07193207789327044,-0.039846120667755544,-0.401749298761792,-0.17729569057100508,-0.05472831100724565,0.3127709703695576,0.07558955362241923
113,0.118825329024911,0.0969230997078343,0.30446647965249707,-0.033412203132069024,-0.014132859006619513,0.4151016376412463,-0.258171453038804,-0.1072578071197804,0.012998581857838407,0.16993280146722112,-0.20314007162026107,0.06782672078094112,0.692759300255614,-0.09479384340312447
114,-0.23522404422556775,-0.008100955667146463,-0.3177156313984967,0.02164593711914886,-0.03782386030527717,0.0749783614840503,-0.2044513726396372,-0.05922198704838891,-0.04021071307264547,0.0166451352788448,-0.29562950129570775,-0.004747776058910039,-0.048167571349154586,0.01879294518166536
115,0.2544811472091775,-0.00023997113656848423,0.14448623404953903,-0.009139503993437548,-0.019799030749548797,0.181755386020802,-0.3037914847793328,-0.08811118635422417,-0.005311806155788775,0.04957111429020239,-0.2722308339134726,0.01993918004910704,-0.011218787223746418,-0.01631072726635028
116,-0.25801052353798637,-0.07522891834236364,-0.24450359009417744,0.00011256065786580116,0.038919569009857755,-0.42674052347901337,-0.044513954269427655,-0.0702353453763689,-0.01029003386465658,-0.006440589527944421,-0.3295884638148497,0.02898236969791374,0.03735353203972293,0.027200280738311666
117,0.3456148693641175,0.1392850489560552,0.3041262460020744,-0.04853933025437436,-0.031053386159737552,0.3940660392523396,-0.4331551473774676,-0.09895488116934836,-0.022243948868917597,0.13138303865421605,-0.17379375820880852,-0.005715260754421542,-0.12602636582935606,-0.018157535271241504
118,0.18573244980337403,0.059678488795418726,0.2708044420963208,0.02855056714025421,0.06357920876344474,0.15567639861274352,-0.12649628627990825,-0.05777566216784564,-0.01110715551485578,0.043143725673119505,-0.05085949882796475,0.03793331137302067,-0.4264700404759853,0.04363039960151123
119,-0.5807275342380986,0.12783007402146965,-0.09484082136845307,-0.054654096532667694,-0.014427975727863133,-0.010725620039640227,-0.1811502732069177,-0.10775194376216093,-0.007710253942963593,-0.12975853947336555,-0.02860945513350966,-0.00557876383140362,1.207992452997527,-0.04035477576890992
120,-0.16292243473356965,0.01285355567393896,0.386134749437097,-0.005446267062796828,0.01696251983268065,-0.0788058966977192,-0.3466120863967755,-0.05608088881639407,0.0023134976512509233,0.15256190589082802,-0.23901969776810525,0.019692001890277394,0.699073123892841,0.048928784358961884
121,-0.5778842706871594,0.04000277705005878,0.1642728239558284,-0.03489569224163461,0.004046104143302864,0.13589785688147787,-0.06606465719860041,-0.12460675923966909,-0.018252796015307833,-0.1981366102657785,-0.20922193994767146,-0.007739701487698571,0.06354709278048742,0.01440519822795186
122,-1.129080019711902,0.1511513149457125,0.542241283045857,-0.05184393693645713,0.010747135354261549,0.14828538784193576,-0.28158682807114227,-0.12892691455892238,-0.0004550548193581784,0.01976004435738897,-0.20828501719964873,0.0009265297861447107,-0.2599698049843687,0.01916818266672815
123,-0.3501734738330356,0.06459805945223425,-0.5623508716305015,0.02193509098102711,0.010064862584319994,0.5194481726057784,-0.5310448865079186,-0.08508096346375713,-0.04548082742297366,-0.0015230043312116082,-0.04384610934611927,0.009153745510245268,-0.3146134329295832,-0.023347343286608577
124,-0.47599879255600475,0.08558476196217793,0.2646858137527478,-0.0009916920115311256,-0.016311939472270012,-0.040420855142557444,-0.11435868862444122,-0.06891271383050501,-0.023386594952278232,0.050784293251640855,-0.0877091217646849,0.006962683146067303,0.32809174959725235,-0.017762363951964497
125,0.016227427194288158,0.06340118597976681,-0.4831586008422568,-0.0428585883936881,0.0224389442732476,0.6507379021523344,-0.3276953436072074,-0.1047446832193567,-0.001495906227720091,0.16346836032570713,-0.3427891358637612,0.025097361322604143,-0.256415335032079,-0.008903124863652676
126,-0.003793591325839396,0.1771406598552757,-0.3463027488788889,0.007163731490977571,0.027583047559641267,0.7041315325124373,-0.02256231304281517,-0.06924260541777813,-0.053086730367910555,0.4545583714074127,-0.4608989288512769,0.010971769436195315,-0.46198791352334423,0.054812261041466054
127,0.030227758449064557,0.12560728284582684,-0.052062930663555884,-0.012762324703619432,-0.013685203681372628,0.5374689361128304,-0.13501728825899764,-0.051690484285510416,-0.004417731846466863,0.12524926630415367,-0.1715722286089899,0.0016683752484640546,0.8153152279510634,-0.05423274213070436
128,0.01160805226855205,0.16119780880816925,-0.1784700020753177,-0.02979330941490059,0.040510208280007044,0.5414123276190937,-0.34354145329602004,-0.0929146816117255,-0.018693892664485737,0.018824915073149165,-0.3088523645902686,0.02428112171141624,-0.5855875896726319,-0.0014285719079950715
129,-0.03789670205285589,0.07552766660352356,-0.013543145802654127,-0.01083620887893981,-0.022435262973279163,0.22770235048865134,-0.2571421162961643,-0.09137651591157639,-0.04969610120775396,0.16020954838743912,-0.18748998156889912,-0.024614766075421582,0.48479751811531846,0.005803301165557641
130,-0.17959200354060592,0.01399299510309071,0.5390646687783545,-0.031478077259870424,0.03496472860762431,0.9360367555084861,-0.3544400552617047,-0.09799508209816213,-0.001539314900237565,-0.1471664224456221,-0.15835118307390644,0.03586150213341693,-0.18750025674071538,-0.017172661397220693
131,0.04074664319464599,0.11240704466909728,-0.19515495191005877,-0.025890012217221967,-0.023445107439466085,-0.46570587226548005,0.025478191506432435,-0.11939501470074454,0.01088634333577343,0.20307380906696448,-0.3796771643602822,-0.012536632517759494,-0.7053003714979227,-0.010939337465332925
132,0.0422091535079363,0.10784585396551194,0.351629934757681,0.003942847980777653,-0.01936143206553176,-0.4796638258589257,0.12838529707678636,-0.06659353968299361,-0.040494540518559795,-0.08947639019131229,-0.22013802913270442,0.030707189671938168,-0.8594486916986592,0.02305229914527692
133,0.21415701811346274,0.07499900776088927,0.239379031596416,-0.024070143689375503,0.03609918708524716,-0.10019948072967856,-0.14962019197206336,-0.08547595965471053,0.00900709780581456,0.0910404675060087,-0.2097708422592512,-0.0044845720984553125,0.10188059925332718,-0.0494318324097585
134,0.09073222696496708,-0.042918680257312866,-0.26928980349922804,-0.06281424197556996,0.004219229365337537,1.2506516002907275,-0.11437213407376642,-0.08790615402256322,-0.005883580234432967,0.012776580196386056,0.16000622174939066,0.004469341701408405,-0.6393721255656222,-0.017618140265486
135,-0.007897895970666036,0.022474304367596953,0.2648276063899399,-0.026875261956966198,-0.013826718626537018,0.5548279321928382,-0.24441779200994912,-0.06682995013026677,-0.02618230891287701,-0.03902350955012232,0.23506356161633843,0.020424063307825598,-0.30945453424517966,0.06105441303178248
136,0.10992734040910257,0.08975155427357676,0.26570272098167275,0.014883986351652612,0.017274441916099052,0.7378355623266074,-0.17181554404227914,-0.08922104715682325,0.012961301668301242,0.18647829994451326,0.24151707236198702,0.011149952592634928,0.2897544011901038,0.04031421427763249
137,0.03957457593465363,0.02471427297383533,-0.3746376796899533,-0.03377225666167119,-0.020540793581870158,0.2135707593065066,-0.257866544285536,-0.05660560135937534,0.00944310742030724,-0.031326560839659956,-0.2453209452299881,0.012065819207307461,-0.02821800764127408,-0.0913549338339733
138,0.014903113204750462,0.064345321952856,0.05772125849958287,0.009578297934910829,0.05293405686352016,0.17233975682560482,-0.6114634592929775,-0.0933886016062002,-0.03105256276237271,-0.08454569242045476,-0.13149504338718737,0.027284318629638746,0.7916267874267553,0.06157153201649655
139,-0.3985549226131546,0.0030502995732517163,-0.31209763892782416,-0.033787616135557266,-0.01628873265892491,0.27618074354620537,-0.3303058931058085,-0.034985935543575486,0.00011801933135889564,-0.0006296178356617749,-0.14376628747486442,0.012883140540730531,-0.21232823174376028,-0.037070907409806494
140,-0.5083642009670136,0.11148585358176424,-0.10680077722908704,0.011149215415910546,0.02217842423909864,0.2886412320555102,-0.09795393158737423,-0.08349988168779994,-0.00896907014429455,-0.08241739092307654,-0.20850112465779988,0.022539106458489847,1.0929834425189804,0.005764424192117465
141,0.08865989327027415,0.05421067421820775,-0.24475563158562533,-0.04495740805106631,-0.065294647388701,0.3148710427405821,-0.28577671000223004,-0.07821212569992067,-0.018869151202466294,-0.04165006740067439,-0.21374098069409148,-0.010420305916068857,0.1248076808728995,-0.03207215220724328
142,-0.061042509016414115,0.037496934982027476,0.5184120052047225,-0.021521103834727454,0.04606400018578656,0.12161449196816923,-0.060521558647602045,-0.05859499461308647,-0.01872593129485075,-0.07412396943567534,-0.21868280803032336,0.04752545491363176,0.07752932248709773,0.002779766485169366
143,-0.05063303971493949,0.09086554943703906,0.10045710781641315,-0.03935828179799493,0.08294387896059854,0.2413756691460848,-0.23275416925829032,-0.065213745186715,-0.05803648897477067,-0.0024006715513473814,-0.2020283368577397,0.006674505635929643,-0.3936708075965806,-0.04026808516254806
144,0.01835477707682115,0.08537363137490465,-0.5588538051344301,0.01329240290009781,-0.030278936857118535,0.22504205026850954,-0.018977227037091815,-0.080974833259566,0.02387488407159857,0.11753821416170529,-0.35902450280954606,0.01406905664871758,-0.3484976564538885,0.0016506892606586235
145,0.005855093608543027,0.09040766725669527,0.21863653488233575,-0.008717785098913272,0.007963999891798567,0.2364812651332528,-0.09126408627443541,-0.07652235105744654,0.004770819551959328,0.027269783879432685,-0.3191434968108014,0.03516039762197938,-0.3055456889780594,-0.04007016533409028
146,0.175137880150045,0.07244843465813502,0.034332931880095216,-0.021273259478116965,-0.007400823602913163,0.15546603042020993,0.029117212971113082,-0.055367929043883206,-0.059591063289544416,0.02886715007692721,-0.1299848185588523,0.0050617666809235976,0.12856788200071528,0.02676351863168705
147,-0.05734820219217651,0.04696920034354922,-0.26806136935643743,-0.03606664824495559,0.008123132194501576,-0.36519162849905396,-0.15907654666680363,-0.020389200615204495,0.0043582870795127945,0.08859829945008943,0.042265024942686066,0.0819551934566023,-0.8152333919384148,-0.025093620144683887
148,0.1197313046672146,0.01743288662139627,0.011345700263959826,-0.04416821590175456,0.009411812574155645,0.011462443298790925,-0.1776676839182367,-0.04620739890521215,-0.07257242334642591,0.11780524759916848,-0.08045948942930048,0.048105050427062056,-1.3039864391563667,0.03174409721965955
149,-0.9013923243497924,0.12381225096981882,-1.4224387710849062,0.0009703565315583584,0.005224627061112593,0.5085365886708912,-0.13569918689146984,-0.10181694679897818,0.012443708048952121,-0.14309744286157722,-0.415089000253548,-0.02454647585253924,0.20081802143196714,-0.039244390410246285
150,-0.7183740993840241,0.06143099782619425,0.6836260648550676,-0.053486050901303095,0.005813570144495042,-0.07810840224183935,-0.3413362181704542,-0.06186947805510103,-0.007548254593393686,0.04949450697542701,-0.1869545524821383,0.05253095978641448,-0.49956821744747937,-0.042313032144655496
151,-0.2930221428191286,0.03860256905426471,-0.15684063582793498,0.010491202973658187,0.006765558262918832,0.1293249555484901,-0.3774746106045042,-0.10013026632838015,-0.04574955410812593,0.031214412188680325,-0.17324645178272768,0.004415736571343278,-1.0983432079534103,-0.015481493291430434
152,-0.3897425451021682,0.13563930775180433,0.8360339967193294,-0.02482814782712489,-0.0003954205076861089,0.27138948839011034,-0.5188913692340795,-0.08381174052077422,0.0008258333660142031,0.03476281963681687,-0.1025970226693944,0.05616772894551054,-0.005902494025580365,-0.04803974335785798
153,-0.836119841860829,-0.018658211044369773,0.4024679947958336,0.0061808145179890195,0.03287387992242413,0.11094857130091043,-0.10969898410000617,-0.07797583901528551,-0.03617448396387846,0.04367029901447558,-0.13952843986613198,-0.0042543481796460565,-0.32486946748552537,-0.013793191731366991
154,-1.4958503048287457,0.10562323903651084,-0.13439739095672745,-0.04105189325904676,-0.0266991906947596,0.19102244834139048,-0.5173545726433159,-0.09446984020445413,0.0016143274264721584,-0.006251829704765788,0.03849810053388204,0.031975242238152506,0.8082331619468387,0.00928249800743415
155,-0.7862372726379979,0.13085280866825405,0.9692051677790807,0.003631101101108286,0.054662732689058774,0.25439141280655975,0.31103564233849496,-0.08288704053457256,-0.048186087333943986,0.08806284713273395,-0.029191848239268157,-0.02136573204606132,1.075690506670219,-0.03231106576243237
156,0.27421027531933323,0.02017626511386475,-1.4193671369615155,-0.04824804469429343,-0.03155183531296277,0.610591545167805,-0.2083086850567322,-0.07780327845472758,0.007408063722826638,0.12169109517490814,-0.07195892426866606,0.03568693409853752,-0.28828573195812257,0.018126371297628355
157,-0.06902023062444768,0.12594253261288174,0.12348753127541486,-0.013147809922261583,0.011788456246000566,0.25694521514213775,-0.4064472929998655,-0.09081034701792726,-0.046708467084838085,0.07233852827608467,-0.18405553785994022,0.01872292916715472,0.4978182795887466,-0.00904448501571288
158,-0.024550230135900075,0.017498910729779014,1.0359116566638817,-0.02345609196466232,0.006754774695440356,0.13886973999160668,-0.9197396380616059,-0.13591606654030453,0.007461344580985928,0.13970201090979584,-0.20626402689736162,0.01839309832446323,0.09965731888842166,0.013023875963683179
159,-0.1680524015601969,0.0759463270051346,-0.4383228220989879,0.00035132234860098255,0.020327110764812223,0.23371981341336923,-0.13412701338754685,-0.03950062328668437,-0.03237433521146567,-0.0854783225735435,-0.19536550014602977,-0.004298475918834449,-1.1405412861872755,0.007348254793904982
160,0.16072001550619477,0.010426659159927042,0.2594175767868973,-0.014739294812922604,-0.004942558380945293,0.06593418365727222,-0.5398284114064573,-0.14964133165274868,-0.007612336968858742,0.11902830950076336,-0.5480069642721999,0.025179052816151043,-0.2541175224185244,-0.013747450284405265
161,0.10730640426639487,0.098221290267675,0.010829486986712157,0.006706030247199735,0.007165776402206692,0.2819232325373191,-0.2894690747266212,0.0036797849596421905,-0.01841057567981002,0.04022889834535549,-0.2555768453920231,0.006944207087975697,-0.003936954039390622,-0.03942113766075241
162,-0.02388983682820539,-0.001955633129504839,-0.710913157102164,-0.03339202399739527,0.019158015737192915,-0.02660687543586243,-0.20787907862735605,-0.11775238398690792,-0.008696997853463596,0.037648631470408804,-0.258687807729304,0.01567084168497085,-1.261308721519853,0.012345078476995189
163,-0.35242696182437594,0.08148803381360073,-0.041666081381610376,-0.0009047653706922704,-0.0075915195886015075,0.22838271689560147,0.18533378299455078,-0.13768728231427338,-0.017204397914506817,0.08106902422700969,-0.25619282100003393,-0.002480852158713978,-0.34863684206428075,-0.02202070263481276
164,0.021061800652635354,0.09105628531446205,-0.21516295022426135,-0.0022298736871457225,-0.001117981174738131,-0.5236579735123803,-0.21086835919718505,-0.1336789157889219,-0.009891064458263946,0.15344921471209985,-0.19796946327435494,0.02470685989707413,0.505717816542701,0.040542503190008836
165,-0.06633042678635734,0.12371521166204658,0.23946456264991137,-0.03419355856011187,0.0018936739199823527,-0.046631967117181344,0.23849771815610285,-0.016472050659084955,-0.011185419179154908,0.09858925888325978,-0.19275902507485293,-0.021899507723487303,0.05830047157275314,-0.05655172677139729
166,0.08630377047688526,0.03624455006903016,0.07250485504005919,-0.026479512787292242,0.029464210589080143,0.04913071202964152,0.24923735034098737,-0.15566213234450899,-0.02931227892363078,0.016985960446681506,-0.1577780418748519,0.0419144105520288,0.433582340975012,0.03203915112661329
167,0.12978403342760553,0.09503940916208278,-0.054011070518989505,-0.01005238889238945,-0.02151621642025529,0.514529402514125,-0.3719748771514455,-0.03379939888470608,-0.019817748875023827,0.17519529521438396,-0.09984857472787735,0.00993069920665239,0.4015395999222855,-0.03742340985158674
168,-0.04497051372831434,0.08356852236823079,1.2642361619160705,-0.026065389651087373,0.03444564617773448,0.15853104453610667,-0.14667207847420843,-0.13792403199686307,-0.00918613698809554,0.18051389639129478,0.053202882871514146,0.0003783103491103862,0.471157243893221,-0.03738729911256514
169,-0.015928512454440102,-0.020645124409198606,-0.43183234602939063,-0.006502953898190736,-0.02448825730476365,-0.35892908204601576,-0.4569583533523557,-0.040079347469522464,-0.013955253284948694,-0.06261319347507753,-0.30456839176367345,-0.002624053954853288,0.5477858159326692,0.019018308314028995
170,-0.0379194538516065,0.10994014060514648,0.1183273188846701,-0.0034363105283864714,-0.01383690742547011,-0.01221190347774051,-0.22807799937287307,-0.07501338584183304,-0.0038576451036537694,-0.07418421875474616,-0.2298853509154727,0.004231343990313906,0.34917947812372313,-0.03472579168667078
171,0.31191340360943726,0.0680987924903963,0.18539299407840498,-0.023881806938409064,0.03891241153178601,0.2994648166166576,-0.40317590569721606,-0.11340634009551277,-0.04433568693492445,-0.058159715548129376,-0.15883535943803218,0.04480720909654514,0.17949355261798403,-0.008757267817496028
172,-0.04996491740968051,0.027015280298353705,-0.11144112030775177,-0.006481564965149414,-0.029094380500347197,-0.13716172093081844,-0.6062323136253759,-0.047392630527736734,0.015612719251599183,-0.2633193709341022,-0.13568562065170642,0.009334089572692307,0.14261836223814045,-0.019458700036620938
173,0.012272622817673495,0.0771555070767698,0.22303478155036177,-0.018981597317987015,0.04559784845382342,0.05921084592683708,-0.38796764775521236,-0.0931135605425893,-0.07745492288752945,0.05084488004491088,-0.047955467172730755,0.0051349506976845,0.3677119653655551,0.017364463227960036
174,0.09998381576679438,0.04983426023978586,0.17244638823908193,-0.0626735863312109,-0.025667166006062468,0.2521859922078362,0.19504385003750302,-0.057846885309877125,0.05177367840574947,-0.02960669600597636,-0.2663529675120845,-0.016627608171128037,-0.028142854910145954,-0.02234192411570976
175,-0.10951074827334528,0.1322588588822143,-1.180360808060911,0.015851417109775265,0.02803220516202681,0.21390894763132107,-0.24796818586883018,-0.0867697630609893,-0.05407243381607756,-0.05246628455532951,-0.2579807228925477,0.06039988215510176,-0.31659847438982613,-0.025831175268104398
176,0.27258586776615723,0.10310477361679829,0.1351361702595096,-0.02225228281467416,-0.003959076951645456,0.45911739739988233,-0.23293719531045362,-0.05847820358998579,0.020734343617248543,0.029143076982128716,-0.33770239814938596,-0.025108964601931544,0.23163876815697163,0.007082196445419325
177,0.1284655080249708,0.06281172898808149,0.4427707124691332,-0.0008759483717324934,0.0466190571526181,0.4756796599174563,-0.08741283273445305,-0.06933976489135427,0.027121873277804937,0.08789979739667719,-0.3504745974595612,0.01801984502917323,0.5879555020701556,-0.041962636653685624
178,0.43534998027577176,0.046614392420144285,-0.07128236051832204,-0.00819545947084871,-0.018939852464311308,-0.04452599766379129,-0.6194882199286524,-0.11799424305831022,-0.09073965667381473,0.0663263568709934,-0.09759263492269585,-0.013969919628383592,-1.3813067912181844,0.0031495478658956078
179,0.10008524118780288,0.01645640976315746,-0.20155311102855267,-0.023936744629532866,0.08424056544915338,0.2562773458285046,-0.2985206986781982,-0.06116171584861199,0.03935116075178355,0.03544524475634039,-0.18939960411224205,0.01755186424824108,-0.49651497117557647,-0.05389614553756134
180,0.2743337859851999,0.06797824266617537,0.19973875391718718,0.012133664766091984,-0.025616357083629603,0.419377865565923,-0.03021524333792714,-0.11136917005074479,-0.02120492717612238,0.05677907236287144,-0.4005768714169801,-0.00027799342545922756,0.49004784140433344,0.016572060756462573
181,-0.04910360517507209,0.01322423098368879,-0.7371595985444274,-0.061158807327169926,0.03384696327807431,0.44727848554644334,-0.1645419041699997,-0.03262697884686391,0.0026008944274905285,0.07100709873268717,-0.3535032163826408,0.04720232431495192,-0.45843859775109286,-0.021813486267372235
182,-0.10421906914413859,0.1681418258650078,0.06104678548982517,-0.006591499224699912,-0.058756733402117595,0.35956926899619157,-0.05115029088183208,-0.16338597455341056,-0.027619397388571856,-0.10599282298462534,-0.27727490692615947,0.030078376817864974,-0.36096561455425663,-0.00026561317569270826
183,-0.2436701050912107,-0.04507000330534399,-0.08714144228634135,-0.025189039600083313,-0.02482193196336411,0.2441911556159944,-0.04793465242050692,-0.08640312551551174,-0.0057932618664279165,0.19253771133006145,-0.17732302089739316,-0.06102916806343035,-0.02350185492771495,0.04277443551464651
184,0.08119048861177247,0.13857353811880951,0.381116039668568,-0.02272033303702803,0.004457999587047885,0.026633773955955856,-0.37155664670357785,-0.11954919864732091,-0.023197986850500067,0.12953863996260084,-0.1437228418955055,0.0840725885540961,0.5227292213839994,0.03507623835424087
185,-0.0402103600890458,0.028502450395737497,0.2521732007932362,-0.03916073582288532,-0.01130104638004582,0.46312889511172095,-0.4306771982682799,-0.11580014952748735,-0.03702767109617054,0.10342240416805995,-0.2270499651302149,0.040129843678254826,0.4327155383280515,0.07008065064008548
186,0.07235302657524073,0.1064818558149018,0.5212088033110313,-0.06019373864418874,0.010552919025163499,0.102137732513118,-0.8161903081279045,-0.03129841532149795,0.0020822013269571455,-0.07270674839200522,-0.15284759816605153,-0.012885089975823272,1.4684102038462408,-0.05832186730337362
187,-0.041880641178124844,0.1425971524380886,-0.008017925023979966,-0.02140183114380924,0.00474003249413542,0.26871811884183666,-0.19776268953926004,-0.13152119091618417,-0.0322742973221163,0.10966498979927058,-0.3985371302141074,0.009827537088694507,0.9633522690225226,0.03404186329978334
188,-0.17297841286663626,0.08442708757252648,-0.3727844036375598,-0.019614053716487723,0.046026173689670574,0.14805773359485003,-0.14447364051192346,-0.08449629016723939,-0.03435589771590261,0.12203207023939527,-0.37136784793406147,0.061454428340591366,0.47207447348983345,-0.014169922750926614
189,-0.2859683884749093,0.07136707771761058,0.1697772153796845,0.03133546746984159,-0.027214853834226043,0.15395858004079552,0.24144273551857515,-0.09645997979406275,0.01486859417521802,0.08311106791967668,0.066634974891823,0.008046849061668252,1.1956619385331149,-0.03361568685553756
190,0.37568236599010607,0.14727054710650303,-0.02921016714276603,-0.03133570691987542,0.02657782265986915,0.6966869365923714,-0.4400112647610279,-0.05999278893931889,-0.034829101181433654,0.19732016624473597,-0.08955005762139111,0.03740453924456485,-1.1785091663349645,-0.0022913455872471677
191,0.17613770533008044,0.24825311135912703,-0.20332743283166815,-0.012910130073494216,-0.009420064530087499,0.4742813610576013,-0.32238326419725216,-0.08559368103925452,-0.006687877881849715,-0.022035590507388125,-0.0655706830175383,0.023842858394390244,-1.3614778189296912,-0.02213742353498626
192,-0.19327008763665554,0.031178335037016995,-0.14940651045156406,-0.007872771582049964,0.00982527776025149,0.1953138094331532,-0.42512289631812883,-0.06910519060842397,-0.03554154137098283,0.11016794215848075,-0.11637285269749009,-0.002156509853471475,-0.5469722323785253,-0.005059305304008457
193,-1.4365570197243955,0.14392975078616416,-0.2605512994452194,0.0003559899509150144,0.020393538932007384,0.178311082055257,0.5416871279582728,-0.11039745434992349,-0.017474968741638314,0.02161055342697743,-0.11085824006509626,0.005521289927120171,-0.25370901377253163,-0.009100370919392663
194,-1.3121055219153168,0.0335298807575566,-0.9881596556106246,0.0039982380182149585,0.033022023948808175,0.3214812447021913,0.22428521709872154,-0.07152872139909179,-0.032512721588622534,0.039302790611260435,-0.08793640044440129,0.0201763322051473,-0.14446617156830666,-0.03174433393580064
195,-1.1157295532820672,0.10354455051231387,-0.6950583345175442,-0.007536130874121805,-0.006599022160540019,0.48007780575106695,-0.15713817418876222,-0.08360556090231602,-0.05161609533897316,0.17669178150086187,-0.15944263630039773,-0.019717377256517406,0.26221205448710183,-0.04617530370613891
196,-1.330972180416698,0.08047403548093375,0.206878782414861,0.014126884164628928,-0.01655758066865399,0.052230795559600335,0.1106487634933106,-0.06134850670610673,0.008567700561868454,-0.039768166666839355,-0.28047633958525087,0.04043526559743614,0.24851400341850316,0.022976868286917473
197,-0.2589933973161327,0.0478031768512262,-0.51076920291321,-0.03256140202185753,0.0037904707581566457,-0.05995492659422014,-0.17619766742512055,-0.08201418001085002,-0.04362399274813618,-0.025465879527047097,-0.37228109651606656,-0.017675523676214545,0.2158532113047944,-0.03739273627488539
198,0.09343756385304697,0.11672936632352796,-0.20987100649471302,-0.02766856332084995,0.004096040795764131,0.455792142460797,0.028799344390983514,-0.08703230298279317,0.022688842689876983,0.03330565987621711,-0.15588436177608417,0.030738496917079236,-0.17844874567414623,-0.010131604067357844
199,0.015618096663595482,0.22362502711152898,0.18885647017525214,-0.041826229341759766,-0.003151093701339055,0.0828812208052639,-0.14055852831776317,-0.06574137605249133,0.024293811389104338,0.15963887284451822,-0.2917297649324685,0.014115906967653746,0.28340256933099345,-0.04790331538544677
200,0.10510550357139398,-0.0057878590995385365,-0.3207649397191209,0.008126967632566817,0.011360441558428594,0.32009092431035546,-0.7946384732746105,-0.10013871102513135,-0.06310608577172169,0.029510306696574895,-0.19738470964909605,0.04375146118387022,0.45600784601678274,0.004492108457112079
201,-0.22537367953519472,0.03940375870288493,0.2939380189697166,-0.040472165071925734,-0.015958148973190707,0.2948213299118433,-0.2710345617702514,-0.08961021253284568,-0.014481333832626127,-0.32033668527879533,0.006292053332723528,0.011969757512689222,-0.02835540893558397,-0.07426867376844398
202,-0.1402577942530263,0.027800208594617407,0.10339512474084905,0.008041762360352367,0.010167029635437405,0.23399195722929636,-0.21164318345361663,-0.051108644042917,-0.04320683656291229,-0.2516535406267856,0.16628298734731617,-0.010403016759490624,0.3058999810156101,-0.0017744965441581911
203,0.2370248867740568,0.024578359500967015,-0.2328801672928757,-0.03908934751150353,0.0022872432712510993,0.1327219785507716,-0.2901777147233412,-0.11134919536773691,0.029596777408188966,0.141027299033524,-0.13669925239837907,0.013270466316112988,-0.06882054318722154,-0.031447355657131096
204,0.23397657575523204,0.14610713126407457,0.39136811278341743,-0.049813786857070885,0.04380586616116923,0.6355486280513369,-0.38874154332032096,-0.06020393344166176,-0.03842636000397387,0.14534994914013538,-0.21540627915796454,-0.01032541477409687,-0.1401926349816884,0.04781112575894794
205,-0.04847405798523158,-0.08276101622173232,-0.8331730045945589,0.009575711641138587,-0.02903193389301799,0.14343105948861307,-0.06753172417288422,-0.11653620002132666,0.014183477938699524,-0.03908614358374403,-0.3851397522278267,0.06670102040883068,0.19481822683846278,-0.054193772477049956
206,-0.030822198214398744,-0.13423305457180673,0.19683662638495533,-0.02826189208517242,0.01499747087148652,0.12120782548894321,-0.2890434994835577,-0.04477054825544078,-0.029366849266067172,0.13219077614777908,-0.18758337833590147,-0.014634045576777579,2.8874645168332416,0.014146999836306115
207,0.03813217859511664,-0.08383534129372361,0.5288135694832686,-0.018131230915333696,0.018701147391780013,0.20874242214178093,-0.47114360637307906,-0.025190345814229312,-0.002559852428214507,-0.007630458122808714,-0.11437590263514479,-0.025369219607377702,2.7185181488624894,-0.002132653209093005
208,-0.19615126370488994,0.0916976787126137,-0.5844043641897243,0.015080367656789814,-0.015525251105814573,0.19922476984384893,-0.011590076217516593,-0.12384603599919483,-0.04373415429011612,0.04588256889468329,-0.09208701684191596,0.038170137176856356,1.4354604868549539,-0.033494948594233624
209,-0.033062511121620786,0.11656501749938905,0.6836148023058453,-0.044076424489166904,0.028190599745386243,0.3735496393221207,-0.4614576950090806,-0.052218380169662404,-0.006815797719648971,-0.3069099444894526,-0.30787886590953567,0.01725921386182125,-1.5114767021339146,0.04846694877048971
210,0.2045470375124372,-0.11396134069992463,0.32657170231241933,-0.030098690394833108,0.020134993853783433,0.4951618839073642,-0.2142935232029231,-0.0947438318636549,-0.02862803842751517,0.010167732184428452,-0.19614597972926714,0.0006929125892217239,-1.5306066548146906,-0.028237584745090888
211,0.14244246577478997,-0.08225751748031421,0.36651573291685335,-0.010704864804394962,-0.011685687076094783,0.3025557703650135,-0.3350157724450827,-0.07433045222022171,0.013798568942380476,0.09435861897689907,-0.18012589041004676,0.008966101189059085,-0.5380761739389435,-0.010551794016661231
212,-0.34519239681185854,0.16847693280307638,0.2909534692021698,-0.009602577384487831,0.006533722224442772,0.2518083139853837,-0.32926830806216384,-0.12782630786936808,-0.029055957945262625,0.09212793879563766,-0.4020842310909397,0.025943939082671758,0.07378948133451951,-0.012881448704648746
213,0.14642306133744448,0.002081944299885924,-0.08000900035459535,-0.03726893852060828,0.004804722437733038,-0.20908008567632252,-0.28404404475955813,-0.05503563773390999,-0.018622901953989118,-0.013146274638747985,-0.21635004678207972,0.02132449484335252,0.13556459637325702,-0.0329457894886168
214,0.11191790051684267,0.10059497974060902,0.8267656653257954,0.007923475575439987,0.010621855039421015,-0.36850246064619246,-0.18969917469382397,-0.0759465448292064,-0.00808899253836769,0.16405382436729476,-0.2838941496054438,0.010119402106953647,-0.20779122587864607,-0.01731152928121145
215,-0.07589790394083934,0.2004777387158408,-0.09668942287898144,-0.04931924130242411,0.013026699063186181,0.0014597038688886135,-0.3339240357557576,-0.06757352253456245,-0.026104223051738942,0.04307638513078289,-0.2159682779999487,0.051856505005990594,0.2436781348294022,0.0037937552679186554
216,0.09634768641774755,0.037520646545516234,0.20355218135154515,0.007878890994444221,-0.007851412801796853,0.0448836865919231,-0.023409778622585836,-0.06688555457909454,0.012411577880510876,-0.04493145456847911,-0.21889806871129447,-0.016812219393362526,0.4854952792190915,-0.01024706485036938
217,-0.03235562776236456,0.15572015937671582,-0.10174798078741666,-0.05689147952714328,0.008624725169543778,-0.5467276107009247,-0.1737476325488304,-0.08703667965755099,-0.03223954187972936,0.00021882436977606334,-0.291571795731135,0.032941651523045734,1.5048576967404508,0.01108764498384382
218,0.18513481747275617,0.004120133238848276,0.06508075596678312,0.033225224143490065,0.02237035211438593,0.9654089728647036,-0.2527247619056273,-0.057607619204683394,0.008131415480804385,-0.05305598458004279,0.11089065598240869,-0.008361735301086273,0.6918091647594333,-0.025385297964648133
219,-0.5094093875631777,-0.046224017060045,-0.6826902566716901,-0.05985448659028435,-0.015085843436217534,0.02652508407396903,0.3401550096548942,-0.10036586724881569,-0.02920913889196886,0.0728349331779734,-0.10644679936637788,0.019598390925592325,-0.9528893856493872,0.002706242669926001
220,0.2723632412273078,0.12189543940148578,0.8649453733459971,0.0022431234053219423,0.03241715438423718,0.18417322801005404,-0.7765789008520725,-0.11931565437603754,-0.03755908373424062,-0.3362672389840651,-0.3348143494088178,-0.019453800438432978,0.3497990678729077,-0.027366478768779033
221,0.23155383749838493,0.08615086727883481,-0.2282113769446853,-0.02231797655865396,-0.02844330997351397,0.09038851714686122,-0.2742836989475077,-0.009283910132449724,0.0025403062107319727,-0.38909918444717734,-0.27482839244617824,0.049716656247228375,-0.09474604269714931,-0.007860023211906972
222,0.32893955891417026,0.1157585207304181,0.8815269753046115,-0.009527111818602163,0.006591409489537306,0.37015140037461564,-0.14032447218689864,-0.07045273138180978,-0.04356559028448779,-0.4568934739328122,-0.26504536183900373,-0.008121645194874218,-0.2848989147010022,0.016938505094070716
223,0.5950823678285184,0.014288009956839385,0.16087367418729984,-0.006952861627296872,0.03338841346599032,0.26423360538332097,0.3455982931418938,-0.06048016399787559,-0.01888125046373776,-0.28371826758629254,-0.2848226755328516,-0.010501843436917992,-0.08023093146078768,-0.02598282865427791
224,-0.14829827502594928,0.05015291360908112,-0.36333575354870895,-0.058863593619651225,-0.03218836892396315,-0.13093571155734757,-0.2262938512679552,-0.08727194232959573,-0.039435149792515736,0.15949563078233908,-0.08852862635120927,0.025765818213934602,-0.1430188068666328,0.05437423092179836
225,-0.0015481126907206932,0.11558720577682416,-1.1103598483153487,0.023411418480128607,0.026517906272805224,0.17414758759518595,-0.20150096022488895,-0.06558889212396771,-0.009688779650064518,-0.02836283307745635,-0.38519713243700415,0.005987208433313282,0.017464684122218743,-0.059589239986403
226,-0.02518367766398316,-0.004060705510438217,0.06011883381300007,-0.05677825536478133,-0.003920218665226259,0.5593414491203097,0.1381829484737797,-0.07999636089282716,-0.020812581411552126,0.02618247115899737,-0.16752096459021337,0.020400997477732684,-0.1417649046738203,-0.0697682817205662
227,-0.09864734651840679,-0.0038282935311737265,-0.6103704341761987,-0.014381156618948135,-0.001250348437185419,0.6043849571422364,-0.049819386261076404,-0.08023901679264253,-0.015341830268031844,0.011151539022732457,-0.08510578331595772,-8.408848715200923e-05,0.08688156227451367,-0.05588950438145246
228,0.02857128344853943,0.11915284185571379,0.46642839596658947,-0.0115319015273707,0.05125931411649319,-0.0826664391453158,-0.018921594923841725,-0.06749521537321575,-0.021610528995592578,-0.1916789353007634,-0.1790621260199987,-4.9627679170306804e-05,-0.4606416565009559,0.013699949693677771
229,-0.02333256992477234,0.09410616299615343,0.17986716461947952,-0.004655657785105294,0.04318042162694871,-0.2849745371639772,-0.06950371399577536,-0.08403287147841301,-0.052803593787500894,-0.27770304719300587,-0.27271255105091774,0.03783767253418215,-1.3760491227773102,0.012111341375148042
230,0.00569675296151978,0.1141522658482359,0.31786370511134465,-0.006416712700898913,0.04475914215300898,-0.24692072518684471,-0.10994102115121424,-0.0830207191140431,-0.05131051728635383,-0.27301372734115936,-0.25980171465833896,0.04295940379193459,-1.4201563431584643,0.008033835137305774
231,-0.4988036319905028,0.15978427776241397,0.18012065200665284,-0.06502068298525635,-0.024459900339996503,-0.02088247045247077,-0.14859411071264159,-0.08331249367902543,0.02530361943025027,-0.10574512690712624,-0.12501675953621846,-0.01261762493363261,-0.2582184923357793,-0.0358104285576024
232,0.1162674142701173,-0.01322880958935844,-0.032874426880195345,0.031478868853273514,0.04563978821253374,0.1396000855980755,-0.20288679631042417,-0.03639044516917274,-0.08092972676366911,0.24832289112877526,-0.2168372790273694,0.03419754775335373,0.049941574039781056,0.03293413956257056
233,0.24377852916503534,0.19015267218521173,0.2729430866031776,-0.04937016122311437,-0.003300982088294944,0.25676072734437005,-0.6738585061141165,-0.10076778443374686,-0.01925857997731776,0.017365111667018956,-0.29303173654797027,0.0260387233213146,0.9743339293957531,-0.04153552351117351
234,0.06109479111916394,0.06561784817461014,0.300870708311796,-0.011831837737803594,0.04453486604447009,0.15587443954621868,-0.5549096713361578,-0.06978482821530341,-0.02175926173595659,0.09253344438215133,-0.40041434344941074,0.010824270225169338,0.3359420570860918,-0.03321987664934066
235,-0.5112502694184087,-0.025823850962896563,-0.5547658446290458,-0.03058825613591254,-0.00037667096061397374,0.4128621338102032,-0.013026767854118104,-0.10554442356011207,-0.04262258351016728,0.4167194845709258,0.037648184831054796,-0.008427122020315883,-0.6778742364953407,-0.003280369211765593
236,0.22010022603358426,0.06958617380606498,0.4604894671338061,-0.0168124465153707,0.017010167880778422,-0.42716071593235805,-0.3441432050712557,-0.06418732469615154,-0.020619470294925328,-0.033016060607658576,-0.07583634670237013,0.02253693526171327,0.09530315512260013,-0.031676430663175936
237,0.293828046677165,0.04148664482986867,-0.32119430527478865,-0.009920960329569711,-0.00988404127124341,0.09573957870827376,-0.4114954588458952,-0.09843221832020208,0.038930447751971936,0.06135593904508484,-0.2003420193836356,0.0024142823034022237,-0.17523969716656068,-0.01629632215252974
238,0.23900181575266843,0.02532801719979942,-0.23671497826337376,-0.0410797508737165,0.051578728838745494,-0.24755600032352315,-0.2787949591641009,-0.06276730040825945,-0.07257575238746483,-0.008028230586167098,-0.10147845592078646,0.04344548729340407,0.6541086199967441,0.0033104667320680153
239,-0.07733626544105265,0.07409662108843498,0.20056982910593868,0.03849848276805293,-0.030573319869878816,-0.23646823102811465,-0.07561705670520523,-0.1895744361399101,0.035917312023264925,0.12273487400765241,-0.33667492410184796,-0.015915820289096418,-0.31219121263938904,-0.026630982973207047
240,-0.01787507667808047,-0.006811703681941471,0.4543314914485386,-0.036531408228137524,0.04208115411265978,-0.1973613395792253,-0.17289174093885534,-0.01949850126247593,-0.038873501771290384,0.4829023654559289,-0.10602165023267401,0.03456646008321977,0.5236360080332574,0.009364797716420944
241,0.19656155423137392,0.13123554593573808,-0.08582048082310659,-0.023694957713523784,-0.04311287891437248,-0.05868466945925174,0.18789733897368718,-0.13731595436034857,-0.00184029396584332,0.13885656633361299,-0.22253618842785558,-0.004414279275985776,0.18094109925745583,-0.005979671049991923
242,0.034638938713873274,-0.0205012296766338,-0.07799341605087567,-0.02981664302861159,0.011844407489542137,0.2931456511171478,0.3719535664382477,-0.07649711688790135,-0.035427953615227215,-0.008982733391880104,-0.13550927240865926,0.02758461054112439,-0.293334312495225,-0.01878733532334978
243,0.050948271837329334,0.07443732907614974,0.6476136994727264,-0.03683199225699681,-0.024875150363572237,0.09533803810993441,0.5276840790485167,-0.05241287204441128,-0.024835902222717674,0.0022041283546565538,-0.21439806464908456,0.03841805995075649,-0.6180507670355285,-0.018003311908386846
244,0.5044551855937595,0.05735427199559238,-0.40847669599133074,-0.005309033558616019,0.029945594037343076,0.008933535226276518,-0.34707944540982993,-0.062145855226163615,-0.045003368359529304,0.1513391019335607,-0.21587942600402255,-0.005501162830321128,-0.3365839581005029,0.00567130181383433
245,0.7889088003626128,0.08727934152580571,-0.5818115465426018,0.012698609900304636,-0.0023276620777972004,-0.2297299992454107,-0.4994830505274048,-0.12254363780792926,0.0011435485880187217,0.023078031091439456,-0.09824671808091155,0.011251855180170467,0.05903078657276725,-0.01738259780621971
246,0.7331728308177915,0.07534626420340651,-0.4036814017799282,-0.005714245787308461,-0.014538157600458039,-0.19280723397948865,-0.5314478600331769,-0.12326494032926005,-0.008629831282260789,-0.025947427466379375,-0.14513222969205092,-0.0026536754675842225,0.21924204875343947,-0.030975840615508045
247,0.062040051207937486,0.05798559797480719,0.2936055067705877,-0.023617699258549868,0.045848575184848535,0.6684622996747844,-0.11519790396895892,-0.0361565236000221,-0.04619951239194446,0.1474718201326483,-0.2476190031319876,0.05019339855910329,-0.11077674821531303,0.0049063856878203554
248,0.047237310038097335,0.06561000118091721,-1.181178577697782,-0.04357400642203192,-0.022602716085793166,0.22099874438447878,-0.5165080861726364,-0.12307207683072456,-0.016175878113830033,0.14539640490008993,-0.2679691234018927,-0.0014878659515076692,-0.11091809416824878,0.05004771605510826
249,-0.03138547492731447,0.04856042537381117,0.09587793350361598,-0.012050848657118779,0.043721371005895446,0.7892661289455004,-0.22180525763878298,-0.08362223253345734,0.008737401888004901,0.13065755647736094,-0.2576498762618351,0.012437691485204766,0.09768619481680413,-0.006107361584143961
250,0.118141247490753,-0.017838157291400474,0.4580581753169472,-0.010118112275153093,0.031833999269204424,0.34382907787547434,-0.5087794609549166,-0.05562512622220813,-0.018318511575709115,-0.03534086157999736,-0.16852298987841915,0.02572704231011055,-0.03888014460790033,-0.07579460476568242
251,-0.10170868884091394,-0.05297512743724066,0.8096517928023226,0.01354642011783154,0.023353811923754242,0.18237133350882026,-0.20330787852471838,-0.029568712979648262,-0.0336200670742212,-0.08695004049282279,-0.34416024034199016,0.026676340555304292,-0.026606581868380812,-0.011222876900373366
252,-0.0819099423414098,-0.05333820922871537,0.7000009375617111,0.02301135969823692,0.02356116970811177,0.25994358251169036,-0.11820308480518565,-0.018846314680449602,-0.030940230142816695,-0.13279473984276638,-0.31408557373677326,0.022781329999923636,-0.043156392781625974,-0.00891121298157245
253,-0.11818231987229062,0.046568121103357334,0.6065869177909121,-0.041271956928442155,-0.0027997717120037055,0.3659937841560797,-0.2744881023760527,-0.08971403215914307,-0.019675508074691275,0.15990907894972514,-0.1784953776406164,-0.04567354511720224,-0.5560405204467519,-0.007799809085300591
254,0.1153910417021543,0.01590408099832066,-1.0524151715501116,-0.006946592004911323,0.009226685199090548,0.2420420523344467,-0.4364697480854671,-0.05472073266077731,-0.044042305832402165,-0.015850660136640937,-0.26348879196121255,0.04870472698014407,-0.2865868010460139,-0.024375966168527954
255,-0.047223899416812404,0.09802936501207203,0.05205005950856825,-0.04596575288172701,0.034691884586334515,0.6387725776466724,-0.18380080948023994,-0.11272800013911646,0.02175721129981169,0.07733054264866218,-0.19512683482379825,-0.028519176081449132,-0.3908416036241004,0.07152275179263205
256,-0.14948925018121884,0.02859749663815806,0.04968761015452666,0.0072010980234767374,0.012391548032165838,0.04263766266521078,-0.40425772558026296,-0.05049869543199144,-0.013591643856277926,0.04016231985824131,-0.028244458442898097,0.07393910820436184,0.22618757204757492,-0.06661299608493945
257,0.07110898054091713,0.04794457739117967,-0.298709716546648,-0.020469129476408762,0.06477485454956845,1.0643333038259928,-0.045892369072861816,-0.061253052589973954,-0.042432603918678806,0.05268401762139967,-0.29912773205174653,-0.01824607947945857,0.02459526974835942,0.01084985494787094
258,-0.03006994350312342,0.058938553157204865,-0.108218566601715,-0.008982832947680292,0.036007843130169026,1.1458008539897975,-0.08138305799665256,-0.07422944066074685,-0.030688176445506737,-0.10652008775491979,-0.24454354454763785,-0.03132599341949492,0.29615966116643894,-0.01895086693138975
259,0.5909256122197812,0.08108331483235476,0.040766934404797256,-0.023372052554908304,-0.018901164828811032,0.7960516542221318,-0.1618069036408011,-0.10317127367722853,-0.006206895830903173,-0.05813779190822446,-0.3660158235651978,0.04479993955650331,-0.35591692884286236,0.06402701290900355
260,0.043219713225464584,-0.0320879310188752,0.3921763473406186,-0.04429148481789662,0.01814406661739636,0.5283272561729844,-0.9499809630534707,-0.04676556670748746,-0.030987427262439454,-0.09307822516341796,0.010553481625457498,0.0007056209687592227,0.44580377487523687,-0.07366992961904881
261,0.025729177792154834,0.18166144887708435,-0.7907866983854475,-0.023189082715802223,-0.010372921803991781,0.24670953949351318,-0.12522128859992893,-0.10551986350025365,-0.04034811549620272,-0.07685341761386831,-0.3114202244022019,0.06695701504976276,-0.0865774483899,-0.04263035090362633
262,-0.052513922874459495,-0.016229713339506582,0.8410283883232326,-0.03557167039463294,0.06162589860215868,-0.24383396269830304,-0.2821593243628174,-0.11905752190777788,-0.01733884658990713,0.03765597953810264,-0.2629743982033355,0.014752542494158354,-0.15514657043452745,0.0162996219270383
263,0.03358701773048378,0.06421644811132254,0.2974111547343609,0.015427280959348949,-0.038250411384832574,0.14292337461787208,-0.12736268358333908,-0.03497742786901825,-0.022103293343160656,0.13337169129935544,-0.0662470907515155,0.03897230871690088,-0.5264555261851617,-0.042028123179961005
264,0.22419898476166583,0.05347263953387849,0.4188073824404282,-0.047941681913324125,-0.013919298874770178,0.16374438681572837,-0.2112508495305187,-0.0648662672154652,0.015193837236019421,0.254028298004523,-0.1246836905240486,-0.012903267460401407,0.09452430724605387,-0.027772493971059076
265,0.2272992681532843,0.020903948252144165,0.48985773022963014,-0.01848702822194273,-0.031179863856550326,-0.011431889090663686,-0.17728194914938586,-0.05692229912338331,0.00011563245185670923,0.33715365392435614,-0.1590348664231575,0.0046498806604177295,-0.39001349691555715,-0.06642739614505189
266,-0.00020323714989184394,0.23288134074263422,-0.430455203023621,-0.013229149108896776,0.04184452561574267,0.7929491462796507,-0.17321599341055974,-0.10360964980247342,-0.012037549807742735,0.15396115293461296,-0.2523587163976213,0.0013046618828402943,-0.04200179292311018,0.031159395275663304
267,0.16839382978045947,0.3195394841878212,-0.06701165074792997,-0.023552189572638896,0.010772530698752513,0.5454175792963473,-0.2006652721903479,-0.044483915840495616,-0.03480999883123738,-0.07641934551999417,-0.21208443370435273,0.009761220345876061,0.42152891149935573,-0.01173080871135912
268,-0.10508164104271209,0.20628017444816818,-0.6748574605412486,-0.003537049277190271,0.008963197735936242,0.9561533775999262,-0.3517832341924273,-0.09034186155215361,-0.008814087805322529,0.01968328317883926,-0.16656710441657474,-0.030010022632983517,-0.6599679236675403,-0.007010787234368862
269,0.08262287117923511,0.22066492863199397,0.43135354636738754,-0.01252741137442831,-0.0003858471371063592,0.2636570604123735,-0.2146852074793825,-0.05540166488269599,-0.03264375494350527,-0.051656673164739375,-0.29823134546651076,0.03158386838214036,-0.2704258729751639,-0.01582116343868195
270,0.21540275946243104,0.0583619234674171,0.042777474524044706,-0.003113729023422787,0.01777130606773858,0.6439971276827338,-0.2909056242969202,-0.09668250788332726,0.0029377208177430378,0.1581858268849929,-0.3580412318724947,0.0022219015335652736,0.10160246261187739,-0.021293757524371362
271,-0.11099574152492442,0.04759959044684621,0.3543580043170753,-0.038885483641648594,-0.012996625817219058,0.7728877659405209,-0.06158978872532354,-0.10946057548805135,-0.022751639455942475,0.030664398303770907,-0.17243164551165882,0.037808566122486516,0.5929859964224704,-0.043433952850153196
272,0.07572481540968026,0.06065421393508933,-0.9283976752731963,0.048353928525931164,0.032065130144916944,0.5409628945362832,-0.386037994852996,-0.06655517858996736,-0.015986146345342643,-0.005588711385170371,-0.15704141764931823,0.007281168194194977,-0.3484265389313671,0.022929915441409793
273,-0.07556388772723094,-0.023704633358180495,-0.0399747436659704,-0.051045353811245364,-0.021357860863458172,0.3367133842667013,-0.2115604728928917,-0.07772415809472716,-0.0004989932935685441,-0.03774820622648148,-0.4187979204202589,0.0333600560849914,-0.08402253888053753,-0.027423551305085905
274,0.2586649507561974,0.10587919056916144,-0.19975675305144577,0.00965526903213293,0.025955874516032162,0.29670862381881663,-0.2333535882190974,-0.11003529548177869,-0.025003726250470735,0.04729792753837468,-0.30278068954930687,0.0007981311987570357,-0.6278647812071139,0.0103836846472809
275,-0.10205647447993851,0.07386514505540337,-0.09223088559668123,-0.03611386842320073,-0.0077789400611505575,0.4107487923154931,-0.42668901639670354,-0.030324330092668952,-0.006883906596721938,0.3055969597151158,-0.1907985669341393,0.02874105126698971,0.9733408266620419,0.023097301855859162
276,0.13930113612625006,0.09374366767554548,-0.2570757854668265,0.03141345880677246,0.0033630054910918465,0.3149563677620664,-0.0951934814223056,-0.12689224455858197,-0.014245827487958863,-0.10849218304909823,-0.0911234970406102,-0.002980789074290016,0.11566877545708029,-0.007516403214923868
277,-0.10603608464659398,-0.04936774285262402,-0.01660994057441864,-0.004405722616353164,-0.03216135671048832,-0.6316132146754259,-0.2014868454020281,-0.02185042294712003,-0.05716887127843451,0.19631273328200396,-0.3242135940281753,0.010884309866578172,0.03269278567811622,-0.005542577813196725
278,-0.06740065861782735,-0.22367202369273537,0.42969942141163475,-0.054462284562014934,0.0630953931222614,0.07658685321116764,0.08594478385373061,-0.1478725038703533,0.007722755390280167,0.2776048602894685,-0.2632348782023462,0.024942687037125533,0.4619763266864272,-0.007997971563993428
279,-0.3115845368388654,-0.11476712262054822,-0.830201784135435,0.019504156696256242,-0.04928215620171231,0.3691509244290422,0.23899036933143666,-0.04863293227222498,-0.03460789864859974,0.08377554216340585,-0.31067894125967976,-0.01970178075576605,-1.0642343532314968,-0.03578071714781831
280,-0.04089891042847041,-0.006920380185822132,-0.6800541875503787,-0.017239832350603446,-0.01339493091479731,0.5280170756638789,0.17460541759248843,-0.05825372865359291,-0.03223198257430082,0.002918166147563711,-0.3747921023046578,0.0051854062993611505,-1.0477050639396126,0.011693778249235731
281,-0.4434167154315375,0.06225716317466511,0.6270611604302974,0.013349023891370645,0.04446609115596239,0.3173314444185203,0.6367620077712968,-0.1123578642331778,-0.03604307082200181,0.04246471428015802,-0.06374096154749569,0.00558571364647412,0.689647462668083,-0.05742144627875026
282,0.19755150127444818,0.053427690450723986,0.9191517700792592,-0.02015922303542629,-0.024104034155222196,0.24557926473404695,-0.028459172543728775,-0.04104929656334046,-0.006836400235472096,0.012015766775625734,-0.018759575267988996,-0.00868867498245263,0.44020858370265314,0.025834258201207577
283,0.10490338953628311,0.016992547896858293,0.4418868511278331,-0.030603745421701994,-0.011566922361448316,0.13516203315000802,0.040265868644531945,-0.05434205401102993,-0.0100460700377159,0.001899622241227519,-0.14358724393964983,-0.001649042651831481,0.4457587760208613,-0.0025846910772130555
284,0.6355360304414651,0.05821809464384074,-0.19236914801061983,0.00501200098272829,0.04618930954988898,0.03839620858691928,-0.4645212701505535,-0.06613267645678886,-0.04513191757239978,0.03149438122840506,0.04387893153607106,0.011906062548349208,-0.22266173455068164,0.0037792277855734635
285,0.23075404402281544,0.04928170435497588,-0.7451081659273046,-0.04397356219981155,-0.03903944537938383,0.23952519425418295,-0.3291914073115407,-0.07996761613479092,0.005934813863137468,-0.022422520511951836,-0.13046757283167404,-0.0034520759553758468,-0.3404373792119925,-0.0019678626719777936
286,0.22057817160515183,0.06609912197578094,1.2655502414123785,-0.057724360894640545,0.025119634011505576,0.0002667484102145956,-0.25350324095543725,-0.0723409054063912,-0.01025454221521389,0.05792888700331678,-0.11684985142218907,0.06060534126919855,0.11458295400881993,-0.007577595932173567
287,0.0664257963863984,0.05672761998412207,1.3272474190561323,-0.03368292110567912,0.0024118431258630365,0.6019025467283687,-0.35047958209718383,-0.09945971707682798,-0.05605365124726129,-0.041093512080226824,-0.2050363826203308,-0.02858592883181511,-0.21075656662844572,-0.03411249921685568
288,-0.044510402599371224,0.02571482641596254,0.9646318240200311,-0.055490768997599096,0.013685687929257628,0.7217524404183988,-0.5186135143299053,-0.12447279792436908,-0.021386564504699307,0.12831349465181544,-0.29633791224089023,-0.028991703847550735,-0.05853762001164736,-0.03740431421240495
289,0.12647317786857126,0.11554551680449071,0.2865062145003505,0.04339401653583094,-0.0008516942076723724,-0.26090038279865624,-0.03544861678130845,-0.021308417163319618,-0.013688942533541368,0.13555099434820883,-0.18120272234549953,0.05110001338762469,-0.2844576130748981,0.013227889895786299
290,0.024754488303017408,0.13481898703076464,0.3906224339274891,0.036371059801441175,0.018072633070253655,-0.27300949422341014,-0.04493930340876978,-0.08137262748335708,-0.02816979086377705,0.05308857754569829,-0.27089245171782517,0.023999205652127948,-0.1990788937851607,0.009554511370093055
291,-0.0014455372750757645,0.06352226999103538,-1.1820846172921344,-0.036526557843188534,-0.006128422424048258,0.16126327872003093,-0.29596752325134895,-0.07486661204125512,-0.009230457762246298,-0.13443902336672403,-0.08024334094068522,-0.016017482347734355,1.034345060186775,0.03202523696625322
292,0.07161466644040076,-0.03610402478974632,0.8248958284448569,-0.016242349623588892,0.0051679972031888205,0.07726593580112509,-0.36471311823376434,-0.0467479022022515,-0.02234551530213132,-0.09645856507775777,-0.4034617971592078,0.036922664906319944,-0.7253706909650272,0.007686213897486603
293,0.22665887752888686,0.04044102829723735,0.7252700954014653,-0.030479044128240693,0.02649394705282957,0.21747971017624984,-0.20969992616515734,-0.07782789932714786,-4.1677357859074785e-06,0.054842902256623166,-0.4589218719584301,0.0383894608865812,-0.5248723742800289,0.011077500573769043
294,0.15570346991380635,-0.012291569601427845,-0.4885545586283572,-0.009786291026666921,0.009724916481578784,0.02259843836737445,-0.1598558361111267,-0.09386272614817147,-0.02174338633178307,0.001975020469671962,-0.29581245618485547,0.01669809382501447,-0.3728461055793092,0.0088712094413083
295,0.12054611011526417,0.07168517465864455,0.07278234739974027,-0.03939035875074037,-0.005263063409089377,-0.1122442196806615,-0.17243215410377188,-0.1313657861398784,-0.006337532766627456,-0.17921507800757827,-0.6159524720265872,0.016328073063722026,0.019267252487728592,0.04154156992870661
296,0.24672207193928758,0.027860858205845627,0.4469877925696507,0.02349387644635828,0.04309319560484622,0.1649727177099659,-0.28222939272594993,-0.18155512708876625,-0.042900811760792835,0.13459131754541617,-0.5171196739803288,0.02605444887426628,0.8161809850603601,0.000843652147360277
297,0.308981253444798,0.03433545338341115,-0.26616665690856267,-0.012909701010441255,-0.021244369081021168,0.2777410016439913,-0.29370134260319997,-0.0388286949758319,0.007622631458427901,-0.17946381281699,-0.33914418388245365,0.050958881144779894,0.9860871313715136,-0.017234632146828355
298,-0.029346648387737595,0.10228727683302916,-0.10622560091863245,-0.028785326686421378,0.041303298378204595,0.23113492598696,0.516831968262008,-0.09587017390795252,-0.026740472149977157,0.20036487606719644,-0.2896783988326907,-3.022447192081723e-05,0.537827948822842,-0.04526864347211889
299,0.020765996712471757,0.03622452641645382,0.1945441198023991,-0.006053962689080844,-0.04015564203462361,0.012048309197459528,-0.08013609551640138,-0.08985453974267477,0.009702350207432507,0.02657017237021115,-0.3039485568904597,0.01919822018829623,-0.4085156127114108,0.05256445023636405
300,0.3317572984073257,0.11309446755180012,-0.6666802677693981,-0.02509930771583531,0.05663560756298393,0.3571080157188081,0.1108830389794771,-0.08419434624017792,-0.03387377773908331,0.12195666986216977,-0.29336972755610957,0.03598837222008084,0.42912191032119007,-0.04817665787604325
301,-0.1250164638113968,0.11838133826048033,0.010224989629871062,-0.002071477736476396,-0.04580075862313207,0.04386053733603715,-0.22166375749759681,-0.12832225554532406,0.0012843739749946043,-0.06482627555834536,-0.1693602085237183,-0.0042637356725091224,0.02739540724146708,0.03271527598806988
302,0.167229578486363,0.14103705797909244,-0.25353052023192174,-0.012764868477868077,0.048776235899009646,0.22041113799071954,-0.35230357619440705,-0.09051306122079592,-0.041926557095517396,0.10451412046457402,-0.2134800593436112,-0.018534984103317702,-0.05576316633734649,-0.04461621501527874
303,0.18657341159343405,0.027436566951362887,0.43962088066598815,-0.007557696203425182,-0.0008392482818315936,0.07119889815411727,-0.5473840232156759,-0.10463922150594245,-0.02502422029794,0.036239817849598,-0.047262317750662794,0.06590280989680879,-0.16201748901678548,0.047505754592491525
304,-0.03408023957909384,0.040909990549187994,-0.07479519767470826,-0.024894121975502614,-0.009823902656541168,0.25165214376529244,-0.32671157799393885,-0.05243379478868321,-0.005914510153622869,-0.027528102863398962,-0.08956978966475962,-0.04978298873903289,-0.4028562234795151,-0.020588841603548624
305,0.03281543144469712,0.004713900326539948,0.8805580423644006,-0.014160037220457874,0.016281444392320276,0.5146260932543274,-0.29861634933581555,-0.10054971389584795,0.00505141404644905,0.06643958476957049,-0.14126914361113985,-0.03768173179659743,0.0982867282255581,0.011384931705927352
306,0.06731991109211838,0.11318859964661612,-0.09631553016591402,-0.016680667482071185,0.01915394574459003,0.23506791221569792,-0.2834451272853832,-0.07963436595122722,-0.01591574910284739,0.1524154787734711,-0.2336076409916131,0.004301395960593091,0.7134568526242335,-0.032779660766961316
307,0.11180777752289317,0.036714772376018695,-0.3504552902020499,-0.02705437806867146,0.04169349610100528,0.07855981545667418,-0.38402216124019656,-0.045771738113524675,-0.015826759384928467,-0.006583243124545446,-0.2251480265988091,-0.009190110736997813,0.8225408057562869,0.01799541617289401
308,0.1303487609143616,0.06663231510426625,0.3225592955488259,-0.027918797704263268,0.008895724714439824,0.29526853513185325,-0.25319157005756304,-0.13124352905842096,-0.0011944392509129348,0.08552946919425436,-0.18294224177843624,0.026083149524136363,-0.12934290714268978,-0.03553911627983666
309,0.1960441029405612,0.05881863820000391,0.12066096986826036,-0.023372464892857103,-0.012663887353384008,0.24734589269818952,-0.2878110428709856,-0.12376100324659768,-0.001480370961265999,0.04793418491436011,-0.2544378110960287,0.02947384200473897,-0.5358235459306824,-0.03574348572922176
310,0.29609967301566587,0.03444642517357372,0.025548735270215076,-0.012335629515440566,1.8624063715784456e-05,0.05576906368268919,-0.437882466811643,-0.0635313143832641,-0.022341977339501464,0.2463148088880427,-0.22924880204724962,-0.0008744440981818856,-0.3441847112232704,0.029018835252802216
311,0.1615387503431554,0.09376074368588094,-0.31048897276560494,0.01357510221286684,-0.07956391009129131,0.10429254590038334,-0.4672905183612325,-0.031038549109229374,-0.04923380784737441,-0.02145837562510211,-0.19789297852045604,-0.002507968985075479,-0.38994580985775174,-0.023342317765253376
312,0.300798159709993,0.04459115143996065,-0.30807449251905006,-0.030922337742681286,0.06035132022096744,0.10108777371260644,-0.07919070529055999,-0.14999845988161017,0.03586002509298412,0.02069636352068943,-0.22065615594207655,0.04068619514679159,-0.16607963618158234,0.004950591790361988
313,0.010436242476376423,0.03366342954628053,-0.8558403587799613,0.006139446968599971,0.01540439583863771,0.2463651027302395,-0.020522260587320013,-0.06806849944972995,-0.06735173718705026,0.07866379552085989,-0.30053455103307547,-0.030157199129437578,-0.3024710490836561,-0.04047628068451623
314,0.3908809417615197,0.09125237713669984,-0.025971836225855797,-0.022723625856609114,0.01705392098548061,0.6397014086735489,-0.8386096344175122,-0.11056992319341266,-0.0002577141645862535,0.004666895126013981,-0.24097405887132525,0.052476542609535444,0.47301254345356836,-0.01964740812846613
315,0.22483009043563795,0.07743236615502258,1.0122699294652333,-0.011144047253421122,-0.010793859275724965,0.12377454898598605,-0.011525189434585748,-0.06467406291674108,-0.025481431574375,0.02296091482750333,-0.23511608177153343,0.026542227913699548,0.6834904550128003,-0.02629326974067525
316,-0.1533734644445076,0.07242132383879687,0.049375240063739806,-0.009885428096714582,0.00885603007553972,-0.03946291264903902,-0.39887999023439613,-0.09789404099892995,-0.023854013469473107,0.09228063735678697,-0.1850528674360832,-0.0032108151037630733,-0.7525742397406622,-0.039148261426523674
317,0.06653873599181931,0.04455203091846578,-0.9822929382528834,-0.02830988047755384,-0.015550859562496789,-0.15905695855728536,-0.23876248301899794,-0.056352216626445364,-0.026307483674761135,0.08022268215548231,-0.19341076760095577,0.06171594357783852,-0.025446708152108154,0.0035027296753037257
318,1.0093942066124448,0.05017034439707021,1.015456942973624,-0.05720612629676064,0.019784856096261585,0.38518811725431257,-0.131699593887256,-0.07462427349774785,-0.05265661963820571,0.05912886675387918,-0.24604397572299497,0.01910476747356501,-0.06391301149696954,0.07686501698125937
319,0.5155215888429304,0.03223597081716348,0.004063986247304585,0.004549111820353752,-0.025980280340874407,0.299949200955947,-0.13417712238659782,-0.14693148672343598,0.007578918853313597,0.14879974553722553,-0.24727116676226615,-0.022907079946663203,0.021103689083670774,-0.05812521697726418
320,0.5070256953542133,0.01160233050246752,0.24745530555207623,0.0019118771481809183,-0.0348034864767829,0.2599178504132449,-0.1660134367542794,-0.1193024908296264,-0.002817327248967924,0.04248049968545045,-0.22031611331058717,0.0322353387990644,-0.15684303205485567,-0.009380902936924201
321,0.5329525344209597,0.11631689175284589,0.2673135844178174,0.0045588595025907175,-0.018049482755836257,0.6493193250905901,-0.2701097436467949,-0.037659805926259574,-0.037044151691774066,-0.015579760411172865,-0.19777213740632316,-0.004194106459834694,-0.6419123656014379,-0.03331074840833266
322,0.2126553364617439,0.09261671082728105,0.5233118267148544,-0.005568207192389429,0.025204847707628496,0.7683844840236225,-0.36718349383133575,-0.10198449842682906,-0.027194835684199864,-0.04827610618010361,-0.29196104763462594,0.02826605821770285,-0.9690090421937987,-0.03385692175927026
323,0.03334237122390549,0.14498765682317818,0.44486283920298625,-0.001591234680775211,0.030968049162592902,0.1863890014893408,-0.11895606508719807,-0.0768157337902651,-0.009823724014696337,-0.03989801764014148,-0.16685828323418628,-0.012793190428608714,-0.6053391839546033,0.016223914443519068
324,0.4314408334781752,0.003795342644282773,-0.8347413663556127,-0.015798010926252368,-0.013117983794453506,0.5001124364926776,-0.28643274643103656,-0.08104200878113736,-0.03423985261871417,-0.23205800823974643,-0.22757593369901694,0.05462451996198353,-0.4451114761400926,-0.012656395516391583
325,0.27821525572880135,0.03324246997791791,-0.40458075102219404,-0.029156653798455598,-0.02215030784960485,0.3151659884570766,-0.2513994231008644,-0.04924561108206251,-0.026970219482681964,-0.2647242545575619,-0.3469035257848094,0.042871546657637025,0.17585432736408418,-0.04319025973233343
326,0.11249868891098636,0.0956674988578471,-0.5525204020162705,-0.05661359952285748,0.02272789087838538,0.3526135611053513,-0.1909204601611474,-0.05120862037152463,-0.06205969359422945,0.02521562520842724,-0.2662147482257695,0.025524083289514204,0.2392557750270473,0.017696378238001312
327,0.07143125164234954,0.005273277415268037,-1.1593270859400089,0.008683275381780986,-0.032880487749347105,0.23985438334168122,-0.36414429726378067,-0.08538861818858062,0.012497846097758558,0.10439438754835811,-0.3678189475485844,0.014312885368333863,-0.02952054674415247,-0.035195719355949354
328,0.05166630815978335,0.008187803445529128,-0.7571895516528641,-0.025309873293058213,-0.00970001777381836,-0.024006593704969256,-0.1741442086866939,-0.06099266077380866,-0.017838292813196852,-0.019100317522012522,-0.3276179022260728,0.006299596285401443,-0.08472005075174442,0.04410218193562225
329,-0.054246710852607516,0.0019070228203569434,0.009167099450473892,0.007989621011692094,-0.016511671555725194,-0.08091845434498435,0.20756179724275703,-0.11862502993872744,-0.022867552150650963,0.2715832450393266,-0.29159557478457643,0.05754384082891234,0.12365485365861317,-0.013944781650509191
330,-0.2828615161649946,0.12994269135123593,-0.304352576874388,-0.02326148280962738,0.03327363153406172,0.22261553795191058,-0.47268816860425994,-0.07251084364270038,-0.01752548375273398,0.09324295748800308,-0.2992176313741352,-0.020134752069901035,-0.2436267195044215,-0.006024571568093912
331,0.17316517898174333,0.11502840506339496,0.2667749006520007,0.01794172624505526,0.022414501096186402,0.1724782816966268,0.7245084937502342,-0.10616428719561258,-0.021336425672951968,-0.017285175035420534,-0.28315573589252335,0.00015628463236939255,0.13344366180377698,-0.028924711105040475
332,0.20712381604928354,0.11704939581319218,0.6017450044786141,-0.005689262278208138,0.0017895677948810574,0.41905079325092776,0.7302531254952538,-0.06265087511676032,-0.01911670747173583,-0.06871832291658618,-0.13447753864114004,0.008064241786632495,-0.4749421288521868,0.01788082700056376
333,0.04461350476503034,0.10921508576914495,-0.37148079219574603,-0.03806556883437191,0.011000830419001385,0.3863272661758292,-0.26642024385761737,-0.09969461969348059,-0.023956966607069967,-0.4072303735623674,-0.11954409192346233,0.02525477984669237,-0.23172189175517754,-0.016026571484917596
334,0.472978958831662,0.1692644684966268,0.8294187471092304,0.009343532322458215,-0.004333932886136109,0.27507288757581533,0.29345737381960413,-0.1119222118897902,0.026457499534628122,0.17112711119183016,-0.0662349526037592,-0.002298406511745385,0.34102207234513665,-0.05527569800096711
335,0.466894441366437,0.06963143350428086,0.7531132846409205,-0.0020587375295993138,-0.005240147187966046,0.2414431936373367,0.20135441699219653,-0.12058198575792077,0.007103201243467753,0.04460817280065352,-0.2747084456016388,-0.01354881749619919,0.6229027824848172,-0.018307677179250713
336,0.538809667862862,-0.002105280506869242,-0.07631201713896402,-0.017020943390607834,-0.022922754111671474,0.16057274344165043,-1.0594102028449006,-0.031130470840108365,0.002060974764997593,0.020406915377459124,-0.28160732220379875,0.007272419270497932,-0.34129466138174563,-0.03611165142172129
337,0.28454921254344906,-0.06300267199733503,-0.0938171918103059,-0.04365343884010198,0.016757560347922654,0.15905577845945212,-1.0672610045958564,-0.03097623938929643,-0.019621850610703765,0.025014844622145843,-0.22593970583406942,0.006156777743326375,-0.4668193064094476,0.03582498713408315
338,-0.014273537542093706,0.11641557527344817,0.24659877725848045,-0.005264771242417782,0.012566013623056357,0.44148071034830644,-0.2621893340949128,-0.13124223713831057,0.016847210560730262,0.0143815284217515,-0.20155473594226145,-0.01015426575891612,0.5871604596876588,-0.02384188050626582
339,0.2729150546331937,0.1392253897639339,0.12310385153415848,-0.005997838125011312,-0.030526224921765464,0.13956387913824528,-0.18814460662760488,-0.050047747483154936,0.002613959929777995,-0.012580980303306483,-0.15923825364407607,0.030696891309883602,-1.0171709977737386,0.011217088633451833
340,0.04503000749920966,-0.026156136442858195,-0.3137354172379301,-0.03202505446794876,0.044998611358447634,0.1286124119649241,-0.13905538323529174,-0.1370580149189989,0.00474971231996368,0.04808048757868942,-0.25601829556613437,0.0072913126909760415,-1.5681567357517425,-0.022565359954406644
