sample,celltype_0,celltype_1,celltype_2,celltype_3,celltype_4,celltype_5,celltype_6,celltype_7,celltype_8,celltype_9,celltype_10,celltype_11,celltype_12,celltype_13
0,-0.3708909729761472,0.09361256363485604,0.16053521195090026,-0.0348625132757555,-0.002820356877009934,0.2453462924030495,-0.2504909128883291,-0.07399539641937918,-0.05908177531569634,-0.30478660060965007,-0.19171179747940525,0.0042015855750288655,0.04374732028343972,-0.0011558246050684673
1,0.05787061393721549,0.13844040395078083,-0.3120135695673276,-0.015932537420626183,0.009350318850744476,0.11098690557410107,-0.18269500029747296,-0.07990788723499745,0.031712937323481565,0.2830338362166783,-0.32892105918213865,0.011063046574628074,0.28677352160791086,0.021093030917622796
2,-0.10124771725342865,0.11594514758931179,0.6065609983203257,-0.012199347391569013,0.021407349299183528,0.2597758405415029,-0.3084455540267665,-0.07397192193485086,-0.05407096335457346,0.039146170213251334,-0.14284099822641985,0.04672260389933282,-0.15910483566015737,0.053162233266266595
3,0.16806721058027657,0.12618811188104678,0.6523220297574929,-0.018695744612792442,0.012657654956375018,0.34987145806735626,-0.2653102441595779,-0.08872405006709916,-0.016379672082956674,0.1364717230912337,-0.26609792324439285,0.021704395991455842,-0.01241976675087525,-0.009413254608848759
4,0.1524626445849026,0.03838650330632389,-1.055403299291266,-0.021165038740153186,-0.0007315745986420617,0.7220993770091573,-0.27737652372606514,-0.0919475184389691,-0.007736276291791307,0.0403481338242469,-0.2626940849147954,-0.015302952059908129,-0.6982216742880194,-0.019313707738877826
5,0.09787909679459006,0.15503630068392432,-1.08943188192248,-0.0486788475287073,-0.002136568368166054,0.588295989330549,-0.18515398202625566,-0.12355355068972866,-0.01868472190023512,0.029551360694952296,-0.049810345857236996,0.021287945564366362,0.48842168000684444,0.005637314211893618
6,0.08867568390467578,0.2065999534960183,-0.43328804799389664,-0.015599276362901607,-0.016719532450407318,0.8124721664354572,0.1773577707965607,-0.09807688364505052,-0.03418465413874819,0.09477121631776304,-0.17017865354652945,-0.018680059479017422,0.2604551825205891,0.003715781292899026
7,0.04876247187100852,0.16020459679506868,0.0019872478959378262,-0.028626329134306697,0.05695918957640588,0.8773447399858014,-0.13069790471323367,-0.08285205599553067,-0.05979784462355404,0.049036035135285136,-0.24647991199330954,-0.03178897547812236,0.013138887025296867,0.024224150292904145
8,0.6635159026677482,-0.034180820348696475,-0.27568979708618235,-0.007840122217792178,-0.003878411908338354,0.009251792587525343,-0.44614301148210417,-0.07467580962324913,0.0034663821431672043,-0.1818525449477389,-0.1583485724250572,0.07382719938603362,0.15085372818869583,-0.027446322832821113
9,0.036804494274750466,0.10399293988363213,-0.13005056447830715,-0.044102609762133954,0.031068418256281594,-0.381563098705083,-0.44201646797215627,-0.0460236450699045,-0.04449945542769596,0.0326966121215297,-0.3191693323442014,0.006888465918304339,0.45901603784421924,0.04718188010279416
10,-0.16167604275114209,0.016723089992503062,0.10650060487702362,0.008126417046607382,-0.007960049386955315,-0.013238036360165961,-0.6251345827838762,-0.0833901574614586,-0.019172371437676434,0.11340389507294048,-0.39002539892839777,0.036526278394846595,0.14032860425149546,-0.020630388095527932
11,0.3997706351401411,0.1897153435158563,-0.28951868190357866,0.007587007412662078,0.02569808076791001,0.13294759386191468,0.17201237413675582,-0.10528197214640658,0.00556421478957175,0.1415260133229097,-0.07682942587702932,0.01739552057205189,-0.33587459000911823,-0.020566271635154728
12,-0.438101252850862,-0.05821824135490278,-0.022029089135989166,-0.04830262556627765,-0.009375663421587476,0.0993202119089038,-0.41540178813806306,-0.037203665617388776,-0.01461627136742262,0.27783259295935064,-0.6194103597816332,0.003794351565197796,0.31594103831167625,-0.049272296583116076
13,0.25694755763261123,0.13871033354446052,-0.01951300163441272,0.055909343919706894,-0.01787799712159575,0.5953559724048694,-0.2113477562457512,-0.061177212633290734,-0.0035273553562873844,0.021633437989163347,-0.12723140399638885,0.028224523107336592,0.41433326277328797,-0.016653418893497723
14,0.2180131228939658,0.10226518672188718,0.0875097082083829,0.06579155287770712,-0.01930381411274332,0.5393923641026552,-0.19106056876419844,-0.06934989052723406,-0.013269169379872662,-0.03228033097901137,-0.13417177046282738,0.04463839480065067,0.3128682624768102,-0.0186045518659316
15,-0.0546970715053581,0.08317138341691567,-0.046616696676174324,-0.09516978222983462,0.031097872168856962,0.5390590618562634,-0.14123344575579638,-0.07978494439395219,-0.007930871964789688,0.004133001496048755,-0.061318060876395714,0.002703606284382633,0.4188789333532502,-0.014244736674008676
16,0.12596283653410878,0.06246836096953587,0.42800841635415765,-0.020007168757165975,0.03612446146687511,-0.11494496903267397,-0.37211390589194054,-0.09682341692035994,-0.026157208513520575,0.09409497021661437,-0.24525711188533378,-0.015239895624975033,-0.28989271500262953,-0.001890629495779339
17,0.017970197081983552,0.07204982961560127,0.3267774272509881,-0.03465500639497707,-0.03012309166860229,0.3099866623921081,-0.561094187573169,-0.0753412449750207,-0.008007238346883756,0.05935060378927042,-0.24693078870510138,0.03678464467613192,0.24401569798392703,-0.013504183743642373
18,0.36115237226088825,0.04112720637567832,-0.091120367879485,-0.01621070979771229,0.01781702490492469,-0.6178621883996589,-0.0012652937198662784,-0.10837498907228789,-0.01222046521124711,0.01181183118162846,-0.29801333611162567,0.011077562280340715,-0.06229667137153283,-0.04205641320642274
19,-0.38906925080376725,0.07188791888031212,0.9072261180933512,-0.017500231625495383,0.023027725377149234,0.3570438697758514,-0.009663791581676198,-0.07974331485938806,-0.019647333909083922,-0.13697564730454534,-0.22785942391346742,0.01070798018309745,0.6482852672751178,-0.019535096056369786
20,-0.048171882274244404,0.048037400445385056,1.1852748747654291,-0.03533942607602644,-0.0055227698663373286,0.03978487640043896,0.1873556899123771,-0.0912100830564315,0.008378324643230628,-0.1125145729435498,-0.22685449848688274,0.006076230931540166,0.5700663568058296,0.006244818997793777
21,0.3354598574183357,0.07265735494191164,-0.28366703447178443,-0.01098908872556617,-0.004316769650211779,0.29492475142252306,-0.41143110411228057,-0.08572985141116861,-0.042961649733267014,0.0037572533175130388,0.060232427157545725,-0.01304502118751475,0.02497624892077427,0.05188864590741068
22,-0.6094049689300369,0.015828582939625847,0.15745498014015355,-0.0344815503980804,0.015289223987726702,0.03294151837629017,0.20831451545286092,-0.06748358895162833,0.0037983602765336265,0.17682009961556608,-0.18404497981390688,0.02911697961230095,0.036455600755380624,0.002502157711040842
23,-0.16112663217051032,0.03419694376380576,0.9238935469997148,0.0008349049535585351,0.04030538228747555,0.24466746364058625,0.2298913357706989,-0.10202240004980763,-0.047788554091114585,0.016554675685518022,-0.1940041676244234,-0.0030111110897190554,0.044302498509321,-0.04951010761856535
24,-0.0640416314812492,0.04554161111955345,0.06760403942742589,-0.01397136194043791,0.05150131220684353,0.3391252219158945,0.327264513875713,-0.11381510219573757,-0.06481435575321154,-0.004493302718904982,-0.09402740721916512,-0.009999785174595297,-0.16125565544501969,-0.005252064670644763
25,-0.02641997732573853,0.14370607009658634,-0.46241605972047856,-0.004978987609029525,-0.017185347437726546,0.3585651848352707,-0.1699822765334032,-0.06472705573902689,0.017512735206945747,0.19072648433131764,-0.25838381911355035,0.033425377901587935,0.16648384555929055,0.00962566126384147
26,-0.12001656679553609,0.09114125372360185,0.07001740906650916,-0.01697872271568872,0.041229213502716106,-0.062159843956677396,-0.22043547312932596,-0.09976800670881325,-0.06166200573633293,0.20321410575047094,-0.1410442952562251,-0.018962444257529864,-0.8044180220098067,-0.02445799288433885
27,-0.05089312614997138,-0.09158387065007573,-0.29937430325401226,-0.04283596097000057,-0.013573601211516528,-0.1370474010271536,-0.23393359996908927,-0.02960652102182064,-0.001986236926702932,0.5063578734861507,-0.16992729013487257,0.04614484907397368,0.3946521929187764,-0.016943022332278942
28,0.37173314987870176,0.10569050111376026,-0.26486130318450235,0.010804915208662114,0.026594760819202867,1.1287952127402519,-0.3944616888389248,-0.10679600542570632,-0.02957963675847454,0.18250133494294435,-0.17880663049353993,-0.013995706874366732,1.0627440068618634,-0.06244971069417296
29,0.05341466868818112,0.0370619918897698,0.2562821227343277,-0.06827787078102368,0.007748619942666319,0.46047158219805706,0.07929676257248111,-0.05833280466049197,-0.009402645817065944,-0.05388123971228931,-0.28527764486266266,0.037497895760129685,0.050771365206107644,0.07938041748879138
30,0.028105301704424546,0.08963965040270919,-0.05715524661729976,-0.03426252534460297,-0.016026236955869945,0.10573523429960899,-0.11432096758770821,-0.06830298720947446,-0.023329570728654957,0.1356734819708495,-0.21024541458157617,0.025753187903881057,0.15452845213192495,-0.003978300312411628
31,0.13916262799695175,0.09884973097429446,0.5319576165203207,-0.0157132226708786,-0.007793585592066521,0.03753981307176059,-0.03110403586927171,-0.14429627542742732,-0.00840452279556138,-0.05806634999641752,-0.26926247503094114,0.007589765149745964,-0.21338061656447177,0.037463384769937665
32,0.02263540646578671,0.00693273464416292,-0.4942689493625982,0.023165473419085925,0.03596070719853882,0.17495692852940326,-0.3085145998992207,-0.029881477293347336,-0.01439093812949662,-0.033264337199735164,-0.413223896002689,0.03362638442504597,0.07141892814173517,-0.011940144858684193
33,-0.12115528207895371,0.016498465849452085,0.5414569662756674,-0.010174975764095595,0.0011149102408140764,0.19947938373401855,-0.09174477225680416,-0.09404695854624794,-0.019182083144816876,0.07667929653330216,-0.3126285443654599,-0.0025355777692927656,0.18686699208076155,-0.013819018194052957
34,-0.12494116974609332,0.07366866292807087,0.16582693120564676,-0.023168787251251155,0.016516181463206044,0.35469517313138865,-0.37006133152674536,-0.04935278992365042,-0.015778293629859646,0.2217149747018534,-0.11465388859442846,0.012501829526633423,0.7529697535979496,0.00537449828457319
35,0.04668675095702002,0.0565911584619683,-0.4996878731502309,-0.03707635462361121,0.008372925888530412,0.38729758900312244,-0.6822546578717053,-0.11009190793361252,-0.024071392570109252,0.11404873419213102,-0.2296355255940018,0.013910107049423734,0.9496047964299471,-0.02929364081813153
36,-0.1487536559420234,0.13193695243534065,-0.19363742380328908,0.00442757659966396,0.021766681629989147,0.6085517651013601,-0.18018854928681804,-0.05689739883089356,-0.006655019660344624,0.2616702807417373,-0.289384016481779,-0.02412855093585395,0.44897253002945964,-0.05872552386834469
37,0.01157555071356009,0.07276368037041854,-0.41469229661793106,-0.022954900400192463,0.0025847330094634618,0.3450130569560697,-0.5442771753350412,-0.1208338491290583,-0.02459913078514197,0.10741941391537636,-0.3547659828241824,0.03718822200464637,0.2567129733045237,-0.04519643121233201
38,0.053285291368856624,0.08621105298563274,0.4093764984772842,-0.018651535673865974,-0.0025514888682081557,-0.12546763844234604,-0.3006244475424221,-0.061471044274664585,-0.003491962065000116,0.1717613773131257,-0.41663332001013537,-0.016214801707558506,-0.6957016033916035,0.019975040218728327
39,0.08433697255308198,0.10312872669478236,0.1258245743168559,-0.0242051657183196,0.010590629713227245,-0.0763484542035204,-0.48689226418857284,-0.09529711932213192,-0.027403396292111068,-0.011550870306133151,-0.3284210875958252,0.0761295598570228,-0.060692208326824565,-0.08718555047330936
40,-0.027421331024396367,0.06808751044458843,-0.199383078389684,-0.02973254445286,0.036119499746127014,0.11650964853213362,-0.4190690493796476,-0.08238994922665963,-0.01547939363469842,-0.006768883537961429,-0.12514253587002286,0.04871376378910139,0.32791916955277267,-0.035450330293986546
41,-0.14363138548867432,0.09420964114778443,0.41666482762398743,-0.033424308229648286,-0.012436758046858343,0.20071866306914266,-0.029396024612262484,-0.0961435822430851,-0.00330365178310129,-0.05268317060403545,0.01770432003130514,0.008583954128533303,0.012706621651996652,-0.02113621054001373
42,0.021728043383072604,0.06786322155646281,0.4168814652028663,-0.025834675576805813,-0.004631750679812731,0.26462706480035625,-0.39655618048564645,-0.10989261412140677,-0.00731761909576556,0.10597237235587131,-0.19603637202665475,0.0616726081787668,-0.3181141654399985,0.0031283191757592033
43,0.1094978069742748,0.08665655050653524,0.4823476865374019,-0.019471038083738304,0.016561815697347954,0.20726396995227214,-0.39298359229751334,-0.06096938255983013,-0.004213031507389574,0.021911017966324428,-0.10400383337489867,0.054004024533189886,-0.842564623727156,0.029508260297871153
44,0.06417860955186186,0.1179730023636533,-0.22865147490189208,-0.04315971617546588,0.003462696963784812,-0.0809345473364545,-0.061318477112794034,-0.09781137376000754,-0.02675323369148647,-0.01754207083657751,0.13980303470818567,-0.0005256137400897233,-0.036693201269948406,-0.0282792390341772
45,-0.3685751920351226,-0.09233409247103125,0.19921539421695889,-0.012485995791740673,-0.03379829259769675,0.4390291029908339,-0.2585742006886013,-0.07403227319029874,0.017672530039775834,-0.03740587112249373,-0.43585196895222317,0.006864905073517724,0.3670400688780577,-0.05943450505688473
46,-0.3908261351014739,0.02052378142496382,0.4962436995565365,-0.0017292649566604257,0.021769963033793218,0.3931033123230582,-0.3336273862762833,-0.10317331474981027,0.0004249109720469886,-0.08748838613875945,-0.5369332378647659,-0.0006696365849476471,0.2678766758178913,-0.026791564579252122
47,0.3713378385868039,0.12055835014576693,-0.4162533619033939,0.00213678068235465,0.012786937033489782,0.17710134503579883,-0.4381552151250477,-0.05028503473597633,-0.026311510555007283,0.32313682267339633,-0.13003998804672331,-0.043121568771039294,-0.26013862083031825,-0.001276738694424781
48,-0.06686709558333653,0.06326615177811257,-0.362331288260235,-0.03601503193947908,0.002761634369443662,0.7363774680260751,-0.2081966118605093,-0.10596013337523631,0.009107675140388835,0.048643075389190965,-0.1688824772638151,0.04492976741781586,-0.5716638190954014,0.054317391140782906
49,0.09153610063006344,-0.015721683783663933,-0.5028143552666375,-0.06167092981169919,0.013589916164491192,0.34872185376644155,-0.20869020897564794,-0.04401297890327843,-0.02445004729523271,0.14008779888684725,-0.3974011827488755,0.030609976862177507,0.2019990013144513,-0.021697333838764127
50,0.027039682063120837,-0.01164597845818783,-0.6022910166739004,-0.06076020882841797,0.024748624517389274,0.252297207869678,-0.2390249307968151,-0.05245434876671805,-0.013483108684359903,0.12630710709648504,-0.3371189121781414,0.02830889384860094,0.35632547250334906,-0.02846717973059819
51,0.14390747037854867,0.042052420085191194,0.043588054924059316,0.019440230844406492,-0.00417740209551315,0.2109920980617862,-0.2054019835483375,-0.1039164944763489,-0.011023735822789704,-0.02723684327049205,-0.22795462322464677,-0.018243802973927133,-0.06476729763730668,-0.011782573883111123
52,-0.18028278886398105,0.0327453546509585,-0.06389126415694547,-0.0800961632761456,0.018923669799991986,-0.016281434739291195,-0.5609450971487997,-0.05274126265351709,-0.02750759245551261,0.24416170958711242,-0.013347273393347027,0.00451463057425573,0.10923320946327023,-0.011300313212399396
53,-0.15603445476724404,0.1337959946934932,0.46745506617356936,0.014154490062844735,-0.0019516515849652936,0.2187772186440446,-0.3285507823795436,-0.10434376533963885,-0.001436789584829401,-0.03086828875054823,-0.18503585962201963,0.012951823130339202,-0.09967846132001296,-0.02880085283145871
54,-0.2323645049038826,0.18286624334498489,0.1269007859799465,-0.0042762360512986625,0.01909081589416283,0.14248702730853616,-0.3814115988842777,-0.10981675934288161,-0.02200729793201272,-0.08641295214035068,-0.18959130117852785,0.010882660847572723,0.050213348105600575,-0.04131166006998794
55,0.0838443068086338,-0.040858695786762496,-0.1669237318434791,-0.047313087477438856,-0.002041865084013266,0.1726416818022351,-0.4269625793920532,-0.09433285761619101,-0.027995541517150696,0.2014525981260083,-0.22028755661516558,0.013382405844071882,-0.19418281792457462,-0.05942899630131336
56,-0.07875572249317514,-0.01409648366254989,-0.326955900671675,-0.020927506905550397,0.014295748541986614,0.12592318057988805,-0.18861887176629433,-0.06020409616717028,0.0035181523829997926,0.05432726031039831,-0.26282805582715696,0.006239874071262953,-0.0694494905041623,-0.05362165288719847
57,-0.046670408596022284,0.3057350955065416,0.6094212499882186,0.030842824559942056,-0.01895117078397982,0.29463479047748126,-0.3323119530247799,-0.10627456879969771,-0.04919417892634308,0.12242794482614952,-0.3184776759657788,-0.0029718840610557067,-0.23531502059266754,0.015339491660113946
58,0.07471558716396531,0.009165662820690153,-0.0016931694668337952,-0.04808853127342219,0.029975587680917924,-0.1238279518331355,-0.38502472420895206,-0.04353406053353809,0.014196701857669424,0.11559736157981958,-0.06750846316397899,0.025352802682984336,-0.2499706926183077,-0.042638979757145715
59,0.14662644446839954,0.07409653605410162,-0.4809961118928572,-0.01233017023790256,0.06074225591600565,0.2665734578308754,-0.2498711777748221,-0.06682071631208927,-0.0649446607666672,-0.030994970003210894,-0.16366726576316268,0.03485589984932128,-0.1355221893268958,-0.04603434767915625
60,0.328538988135459,0.029094899688297506,-1.3931747874280063,-0.0045015841038573146,-0.020947285138889063,0.31218971258081685,-0.26542227383331907,-0.1149920092060491,0.023049650005104706,0.03676293189684571,-0.3807057998357549,-0.006979606876945238,-0.1600631276784728,-0.012149912086492819
61,0.00772573557598355,0.0717455948431561,0.06757116487609616,-0.042100970066160884,0.006002668252526318,-0.48602267615748573,-0.2028263317365199,-0.05367390213436496,-0.04933362979874481,-0.01963509164652391,-0.26443674848274945,0.010447534288574582,-0.12629797855918418,-0.041697824226606436
62,0.27140072501820156,0.06395788767251093,-0.31761018455480894,0.013160163588580048,-0.0039036177871023432,-0.15135143308115662,-0.10623943237937991,-0.10275500462023231,0.01059948270546316,0.013947087586547516,-0.2229709708440248,0.00810289877444701,-0.7270920294681222,0.005616765375582779
63,-0.3227626748480311,0.09952467738812634,-0.19553646736524832,-0.03948240097550568,-0.018012582275956618,0.24182144091947852,-0.3310602223745217,-0.07502598178696834,-0.04442512978523345,-0.0985529074485581,-0.23156497124365394,0.024524099707372647,0.7688957163584436,-0.056791420094412653
64,-0.3011552695309545,0.05122809117657003,0.02331891303515468,-0.0338921548144496,-0.0001844508163262419,0.47368849717865635,-0.3613714320529821,-0.05550478489999294,-0.02827825014487436,-0.06102995082451009,-0.2536862437609491,0.012712473089414957,0.8085360071873033,-0.059985382911009875
65,0.12178680486241472,0.13911449195454864,-0.29395250443942367,-0.024571035721093898,0.009232802664683086,0.3277770844196358,-0.5151349956085473,-0.062027232646908036,-0.014096654333201557,0.033426830531704296,-0.22226176223219624,-0.005389912080020966,0.430901895712385,-0.04611175535238845
66,-0.018930003946207363,0.0022716107036288152,-0.2530454419144121,-0.03538060728326638,0.03085476914998356,0.3249968245026118,-0.12647693989576458,-0.11956998026701139,-0.05310085150811529,0.06621511880288511,-0.24860893788612642,0.03672922980755567,-0.07209200029767046,0.023488968844929126
67,-0.0795545047108917,0.037396703152151385,-1.0173108507811115,0.012213615001215192,0.003224140104645664,0.2346017129917934,-0.24813099096384475,-0.06695652441212763,0.006842546874031342,0.03729241337567731,0.027723577861881538,-0.0034188893991576874,-0.13088584170786113,-0.1345302966505082
68,-0.06682119000977799,0.18468883902586783,-0.6002515305405262,-0.03968750147199396,0.020888102279073714,0.23869028593441252,0.11486088969519623,-0.11044942633888397,-0.012809492022819655,0.10729484967896255,0.07315925156574922,0.039800326919033374,0.5346495994263095,0.06708540838264448
69,-0.19384952268759903,0.048708623014849406,-0.0894275008503409,-0.006157625155343183,-0.017664396765124435,0.16054259526352313,0.2603177565144162,-0.057401522444759434,-0.014699162836912173,-0.14342477389352778,-0.27635927032174107,-0.03458163868570301,0.4153614980507242,-0.008068701922839603
70,-0.17457821020923348,0.025409809343781578,-1.0274538744239932,-0.012997257388917022,0.029115805730455316,0.43730326359532923,-0.347611303321008,-0.12992900312647931,-0.01053856772253467,0.0720183590408039,-0.09276844316400619,0.05639335477287398,-0.5721120405076354,-0.039176534212896824
71,0.3917787981359977,0.04212519812995395,1.0122160202752237,-0.009237163370293414,0.018888050091231033,0.028020125754147668,-0.3324061733435496,-0.06183890500736115,-0.0334710034658307,0.054271837287829916,-0.40998907311632443,-0.048877832328984405,0.46013206339934093,0.025988065710648517
72,0.331207136823556,0.1171088508085623,-0.11757944128096766,-0.012974790223750587,0.010421393384091968,0.606073042737632,-0.15541431447853846,-0.08772669280949968,-0.004888588892892856,0.008810464896330306,-0.06789893875781398,0.058075118853493854,-1.1520972894923485,-0.03726829260047784
73,-0.7097031975755432,0.09803711329912564,0.4058471030287131,0.00410961881267638,0.0032979912494582857,0.3134157356081906,0.3417103026745889,-0.06932596796387212,-0.008231197186789888,0.0744184826631008,-0.10988214378146066,-0.01739837404852985,2.9549931368776106,0.060876972950047986
74,0.07063896733164049,0.059842590207950255,0.009111902009614332,-0.022376115013479927,0.04216459651122842,-0.13183439129950808,-0.3922056892566934,-0.09503469208378407,-0.027060205056592235,0.079604374902863,-0.29316883517899195,0.02800827885233638,0.0428963069150603,-0.052144562153984386
75,-0.06687938542554811,0.04991971886220855,-0.3337226888872877,-0.0406656480399985,-0.005254583599374871,-0.2318177216905392,-0.31978027073959847,-0.03891175884815432,-0.007952853023062544,0.12811795543507645,-0.31003148599532215,0.015355047956767062,-0.8579704436517321,-0.018209534444639297
76,0.020992948276616075,0.1041142410889557,-0.3176839921980406,-0.0016955523008816975,-0.0026783352730685873,0.343048370303511,-0.10286665546143146,-0.11827305644617617,-0.02076714880913869,-0.00403149726650201,-0.1690420569398001,0.021218746390031906,0.07197004333435832,-0.01469805522753849
77,-0.6440674456546782,0.32379583759502506,-0.502697752127896,0.0121580091267951,0.022990778512282123,0.16847318706204556,-0.630463188922882,-0.0932812267688411,-0.038999252694000036,0.09694502097060087,-0.44417466492546664,0.028063063509533442,-1.8703121674881709,-0.05637710271623395
78,0.016222837844834193,0.25767900209465905,0.9033778266710593,-0.04136353176742141,-0.008437129951646756,0.4888413129921449,-0.38327839806762526,-0.08031575467196958,0.024483276601839327,-0.03491889036934667,-0.09568258579214596,-0.0035764123086664337,-1.2187582213295467,-0.11406421501547268
79,0.03774225065798048,-0.03396952566180233,-0.5842533848565322,-0.06487194986874367,-0.0032143988337922785,0.25618123803567705,0.1269523182237545,-0.023012710957454788,0.025600252091043704,-0.009332112980392715,-0.20770987074845426,0.018340448551035768,0.4424925251742695,0.008276372034780433
80,0.54897314141549,-0.018715793957162635,-0.4447674141345658,0.03668839893291412,-0.0008983808027380608,-0.12482948204832614,-0.21715378953656508,-0.11845954583783572,-0.0673427497127622,0.1121076727968846,-0.24832505344331873,-0.00034582601105192373,-0.06286600059668512,-0.036056073050957295
81,-0.1779631675244233,0.14907818474171025,0.08616276690408922,-0.04164426628459671,0.01695230396530204,0.06265434888246471,-0.20189148983178903,-0.11201148122475124,0.02764569348077226,0.023378810159005947,-0.3156292473038058,0.025908107837150585,-0.27590954963284864,0.02992451577978305
82,-0.19792389653757525,0.20407564399600064,0.472177834488132,0.00248124059390073,0.00960626522494539,0.04641243983858255,0.061567804366299536,-0.07583112640843362,-0.04056320015877457,0.15093836939050917,-0.16978097215565333,0.01453901376248426,1.0948703068817305,-0.022819475442239626
83,0.042421080774653425,0.10548374520113374,-0.6958801283306935,-0.0596016146205408,0.01291250583512047,0.29034173069332625,-0.3686420603613947,-0.1021383885838221,0.017492721506318868,-0.11663195063181683,-0.2521842517960764,0.0018418046573159576,0.2579539712156261,-0.08872012000251699
84,0.024192877007482405,0.06878740547620306,1.044202695861877,0.039389312283413566,-0.015366431012630709,0.3566321947048398,-0.13570671763007336,-0.04478760534170993,-0.03030092835148258,-0.013837701173258193,-0.22492921735483187,-0.0006604438117837896,0.2978173802709724,0.05495599700518594
85,0.13560315065484438,0.02719884420048376,0.04070196139836259,-0.06165087667136394,0.01614741778510623,0.23760938864921982,-0.17946494728390466,-0.10172846342759535,0.013966472485181788,0.10845683249519948,-0.37107837970578395,0.021324018238768807,-0.2942367214585313,-0.06251504090091226
86,-0.056960597196206275,0.021095448885253998,-1.059454213588999,0.008281702525927664,0.004323324429096531,0.16056683956147044,-0.27340584885906277,-0.07369123219584395,-0.022484710101230043,0.2475469225033312,-0.3348304686924039,-0.005845996489943439,0.018878011985688004,0.042385541000160204
87,0.0014687584828638744,0.026022857576992853,-1.0146586604390748,0.00635958926731886,-0.00691869472538865,0.14557066795545703,-0.34148418791295665,-0.06962496125344936,-0.0192544766185134,0.21075229485947428,-0.3435201799202402,-0.02408721932676721,0.1960066175285353,0.023351096393241004
88,0.02600637537656783,0.03977856336209573,0.04729455123619483,-0.043629564163479684,0.016737231715577675,0.18397128346162217,-0.38639335707348843,-0.08894253163971234,-0.029894348546560128,0.2653245279068499,-0.31522912519510704,0.04852989007509706,0.37434155474312586,0.06317321891063196
89,0.010511782881085341,0.1283810519792099,-0.8978586416201153,0.02140707957315101,0.012796650934445337,0.6205139398167874,-0.07901356760705983,-0.07062900347274523,-0.01802058484053467,0.18511167331574013,-0.0627312590658476,-0.027627084679353126,-0.39763931401472524,0.06160706976799288
90,0.16268898684094646,0.04384341180929448,0.04935420730485357,-0.007237976498358209,-0.002634545982107268,-0.15948044114918536,-0.4003492286588681,-0.09858369272299747,-0.02163981793799577,0.19629289175186776,-0.5027874876250951,0.0031599392238628385,0.6611130443445384,-0.09955763273777182
91,0.026003549454554353,0.055246156938122855,0.3612052090394634,-0.0034333960750071862,0.0010099089970868388,0.1172574292545343,-0.23000313394017124,-0.07580970194771745,-0.011515689086267038,0.1329715962692686,-0.38199615174667095,0.0369625056210158,0.6277051519426764,-0.008621016294518793
92,0.08371971404816292,0.03684338112142602,0.12053123238661323,-0.021192626238813767,0.02121083383399218,-0.13458329682270892,-0.1274823875761329,-0.07136319011859302,-0.037415558356482664,0.00327729176208693,-0.30269781293769527,-0.022540272297142425,-0.005724667131763103,-0.016860963330440182
93,0.1402732603381971,-0.012516187823094743,0.11667853526991408,-0.017338065512976092,0.01862852878019859,0.02216812716032318,-0.3049180627019547,-0.05644776285009222,-0.03718529214192417,-0.05736089550020855,-0.3124759072512123,0.002471041036740722,0.22823159850857935,-0.03156007881683308
94,0.03363683560310554,-0.014585296945685729,1.2665547661761867,-0.0041839591525382885,-0.012542470729305831,-0.2571526519077945,-0.3072797427135431,-0.12407095592400039,-0.017414646903732144,0.09034701870982621,-0.28227442494634386,0.03142523842180436,1.0845266009269832,0.004736923212602787
95,-0.24883687762698492,0.08770454056464447,-0.16201979298977964,-0.017271336651856886,0.014608889815767166,-0.06203706059716571,-0.3499075501577801,-0.0627761940482248,-0.006668592748133643,0.06655125583048302,-0.49834679316385977,0.00428008074166418,0.027326199272548698,-0.028265207620490417
96,0.04720098244574472,0.10380979778823693,-0.6195229933370641,0.03676470778483802,-0.005713038361563916,-0.22019027629231724,-0.3273713523600792,-0.09048035990732697,0.0012547479062964759,-0.448406951339759,-0.5078140104719685,-0.029294695541030303,-0.03689539451757237,-0.008921832606232138
97,-0.1770053167491553,0.1413768024953796,-0.04588644964796693,0.007482453107274134,0.05590535110764641,0.2594844487963227,-0.34978972837235717,-0.049118410020575515,-0.025260095753056367,-0.21090695264802262,-0.6164189053136476,0.05090301828683694,-0.19177638248360762,0.014911861286946881
98,-0.05308666308413024,0.09880604742139601,0.5193972203357513,-0.03406421512688304,-0.06168757658146262,0.42983545482409935,-0.1545117940752352,-0.14085938131647807,-0.040469829563786905,0.01607117514122311,-0.07323004413288,-0.014282269087947018,0.6148623504540562,-0.09185011984946483
99,-0.07899676667809549,-0.007846705041950564,-0.10051786088985613,-0.03372932470215534,-0.027416133643919496,0.12183780918021964,-0.3826446212759951,-0.11539476760167397,-0.028084863157253677,0.11211250208449278,-0.147664364691324,0.008285586537279482,0.36014038712683805,-0.026640251771464257
100,0.14556730438775595,-0.06893153581740097,0.5271303918293603,-0.0008910865197190448,0.008051216914576597,0.20107629715163972,0.2571725457163605,-0.060531566697735455,-0.01948009837111145,0.0170976856078464,-0.23089269523954786,-0.010450685143492316,0.1327247855675288,-0.07739900251276643
101,0.2617395091431866,0.08213726872388083,0.14907349216432741,-0.0267818914314525,0.034082187937316044,0.1575401741808416,0.25244483970336234,-0.0946589178785394,-0.025350386625441777,0.009124669080520759,-0.2317555592746964,0.03813410898741583,0.2749770188080505,0.03775676088630474
102,0.024946622686631503,-0.013202695795053884,0.3392586288415625,-0.0005460057610988528,0.03963554768458514,0.3460694727978002,0.375355955936976,-0.09009417078710212,0.007498915866431345,0.0044700280309287466,-0.2656312694677076,0.053361903662646606,0.22444115380744917,-0.02278314110844147
103,-0.011393904958656331,0.07558497074913352,-0.040873730527160174,-0.046074479467596546,-0.028839946221111943,0.6878487142595976,-0.41010871359228807,-0.09551029360392718,-0.033125093052123834,0.028302556915309737,-0.04506429949375371,-0.025308676476442794,-0.7100573656901213,-0.015565260754494423
104,-0.07087127936516191,0.06361202360528387,-0.28925660414299353,0.002209786638889752,0.03825200752379618,0.12687959543289878,-0.10046567893589917,-0.07683676443304616,0.0017934711279638908,0.07708599921470874,-0.42850395418656356,0.03731424709101232,0.7142432457929007,0.009899842036352371
105,-0.11752992767367332,0.04980215825066004,-1.27908740833089,-0.016913391612832673,-0.033965799732344634,-0.12828312478456122,0.29598113046258184,-0.12718308555330793,9.1090104920033e-06,-0.08807968828827546,-0.10019120325414077,0.033317876449717794,-0.9731539223627923,-0.003977706753933344
106,0.19246888530067122,0.07114375743099208,-0.04661786771556545,-0.01674351108090011,0.035591741027321384,-0.5108943287590144,-0.23679731953259756,-0.08405419346922735,-0.005200642390497896,0.07503906379727121,-0.19560312599194885,-0.009731280645163654,0.03286888315882068,0.009078877710822567
107,0.24797406130026559,0.06878957775581537,-0.08134195662728155,-0.038889616347692085,-0.00044959670884148553,-0.8019118856112366,-0.15422163399210448,-0.11604754634047657,0.0038629794863131797,0.006881450733597472,-0.17017959427563936,-0.0010971586270829073,-0.04230394906954717,0.04371690837581367
108,-0.3832847749127071,0.02785493849211637,0.0780863861312458,0.01575495727827321,-0.008936169971517555,0.6497498827549933,-0.3509558585538831,-0.059739742992431254,-0.045753908054293066,0.28034987836117214,-0.5016834922316435,-0.0035353331021048297,0.21256597828383472,-0.08419573022210862
109,0.11283326142425765,0.10053096266855235,-0.0030260315974889873,-0.012003266037648258,0.016831854540861977,0.5834063668318668,-0.643185374107798,-0.07231578497537558,0.002504375105276818,0.0751584732669244,-0.26179869579610443,0.021313810349206375,-0.14659662705094412,-0.01106577593707364
110,-0.48853031847826545,0.052791855333873816,1.0474426571768767,-0.03082756573313894,0.004690874179362092,0.7889759867407052,-0.373457825201271,-0.11240140301913401,-0.04146418796278915,0.1514630484536206,-0.1766542609610941,0.00013452751239934752,1.0874423707242802,-0.01745419970558621
111,-0.4964899921291567,0.08256667353394762,1.044867570032788,-0.020397285121261988,0.026472722140716446,0.7762404813858669,-0.4641057059806938,-0.11321784370114231,-0.0376136697764336,0.08541554222855346,-0.2475696047021535,-0.008803242913681765,0.8119628399386898,0.007714205259923196
112,0.16698841111053042,-0.07008688587875736,-0.21149822326466483,-0.013107325521532598,0.005962654570016147,0.013436651373637865,-0.30677021563228507,-0.07325270797785473,-0.020932938399291685,0.18082165162126163,-0.24243797845756804,0.03619881117479476,0.5302854796220742,-0.014609716471006059
113,0.15964520786253455,-0.05955009204154975,-0.10791330844925578,-0.01883623831988382,-0.023080859144423743,0.13772320143691502,-0.15432285377373492,-0.10751333521864653,-0.004266867235780835,0.11372612235611906,-0.22025364928242191,0.038522648857428135,0.6455608473571273,-0.03344938599309728
114,0.0683405154605023,-0.02382925592944176,0.0655332563551278,-0.017190941648916894,-0.025602656846332096,-0.23376528030808782,-0.6161486398275441,-0.12532395534727195,-0.052553292922925536,0.017016112362144516,-0.023776498998841347,-0.011945258147569745,0.36797986069925237,-0.004360871057694518
115,0.22460051043723223,-0.06243448882370685,0.2618477141869191,0.016259132054796593,-0.040041058890677335,0.004799538959228973,-0.3772849172486631,-0.0496082665024654,-0.004950937093916925,-0.043974560853055164,-0.2354931221456132,0.002570629492705548,0.5903250696451445,0.003667346203236499
116,0.08635065324511465,0.06916328925940599,0.2645849847044944,-0.03141497853509764,0.05225269465219564,0.09264321331153536,-0.2918299073039727,-0.09829579838026418,-0.042973877963335405,0.12014785938494035,-0.43410732740661845,9.026100389129821e-05,-0.6811385140160154,0.007073556918451171
117,0.22067879897019094,0.06142073544747953,-0.4140395717857412,0.009208464290423088,-0.06472926356565728,0.20178953962423357,-0.12562677051219476,-0.08379736413864332,-0.024051052900030373,0.13979856832725454,-0.2885294438121118,0.01127400692421926,0.11163580529195616,0.0009742739802281811
118,-0.009009163934837972,0.09448545328388322,0.07542189082932584,0.03002164676724217,0.010404671598851823,0.26853806604839653,-0.33079155170349217,-0.08474586860120889,-0.033182295954134744,0.11435065880066037,-0.2393586147414951,0.013265363519002718,0.4188796724199684,0.022044708188982173
119,-0.0773561609642337,0.12554759964108994,-0.40154627310707713,-0.043142139591164905,-0.0023685629141186847,0.5092878172373303,0.04149723286403345,-0.1164312086217548,0.0010280293055125699,0.23406445768072315,-0.2224096460358366,0.011483413987029501,0.08552639396743472,-0.025066775284448083
120,-0.4859564146865907,0.14625551834657985,-0.13313411911331813,-0.011771844044133839,0.015509102019551713,0.8467973887468334,0.021688713580837155,-0.102254108713348,0.01896856987463994,0.24415167613040772,-0.20082529979120675,-0.03258418193756579,0.08224920410912281,-0.015891003087993072
121,0.9215750595240599,-0.005387160111271494,0.2677151757527273,0.017911089916909845,-0.01835894531379161,0.23101350803610365,-0.27289034763167674,-0.11478763546210077,0.019649021636023212,-0.11614375633452925,-0.278839802928674,-0.03740836121910844,0.06648628613477883,0.0033628292460171974
122,0.538831882626396,0.044456037414189485,0.040763224423775835,0.004432694404654297,0.03675926437846404,0.021139168697082378,0.2047899129376258,-0.09571918204564855,-0.05761220855208662,0.18467460513324707,-0.22356824874533218,0.027095716083536184,0.297751117710485,-0.02330243613481839
123,-0.03884542273464009,0.06116947885591133,0.33859482462947027,-0.03370740175588127,-0.01715924665562827,0.33398772277193606,-0.461968543986369,-0.08580237453939568,0.0009555022255446728,0.01836834776068455,-0.33283421051740325,-0.034046460920931554,0.4969386964740207,-0.008302633815545052
124,-0.041099987178970565,0.04693515570869451,-0.38348413562567407,0.029976588791013004,-0.05415534930341788,0.18449438913957952,0.43676300814271307,-0.11336633155998405,-0.01726561700917678,-0.06905273445956167,-0.11540381984676654,0.034157096756061,-0.5662921696101226,-0.0011438595734130502
125,0.2563111717484597,-0.012373222701750647,-0.2420097307901845,-0.048243651234755824,0.04801182686609423,0.2545158755332494,-0.5308636562855809,-0.07520144982073107,0.008658731005332473,-0.36287195822271673,-0.1523697435481911,0.010666899226089745,-0.03052342345863851,-0.011336176946442927
126,-0.012482814621958549,0.1910469311258472,0.16729964364110061,-0.0023832222592038432,0.047224142069506654,0.04215133932401016,0.11945290170232302,-0.09521889793512894,0.0001508004789109521,0.40538909952163515,-0.3039364043907101,0.008129075701537258,0.07637482247724578,-0.01051013668413682
127,0.09349814740578605,0.17074164829082378,-0.9293090645053201,0.013325438190944283,0.021760944129876232,-0.37313543180718495,-0.19849418548382142,-0.12199549502820825,-0.04285686772522798,0.08688912217530129,-0.1807950258839453,0.0248291496345006,-0.7971812316002952,-0.04797370651556691
128,0.02906065132048863,-0.03360092170503711,0.5341865214543853,-0.04941355196057601,-0.010564936300746322,0.2019164352962473,-0.15224373390163007,-0.08442957741775005,-0.012200487782681665,-0.10092400935962373,-0.2569003666555545,0.0045150521134689064,1.9832713947466716,-0.021408455570139748
129,-0.07725322776361973,0.011491099872193149,0.4468754656321626,-0.04846018682399625,-0.008112979851513392,0.18251150349211018,-0.17354505530108236,-0.05919625051213334,-0.0325075578513893,-0.09719370971713172,-0.21638868129328498,0.006005627507231104,1.8562796271102484,-0.0035427729800635716
130,0.5808063411112101,0.026562406007861444,0.15871848655231163,0.003756367244197256,0.01601134659538432,0.20624395426209474,-0.22442040370953287,-0.10119990753681518,-0.006002486283320195,-0.10606113844098242,-0.20846071024423485,0.030023933374568754,0.7536239438277346,-0.018947401657483973
131,0.03233158954360821,0.011347071557935219,0.057068843174115674,-0.014821672639793892,-0.020117218537693205,0.33237403981265345,-0.2090700320554042,-0.07038372108333547,-0.0373859140153733,-0.20467552899179908,-0.15793386103331258,-0.023228395860044066,-0.8561473858484677,0.034493872153892685
132,-0.41023174199374823,0.0970643840724057,0.16427157030255457,-0.01659721342809875,0.06110978451896175,0.363021130913344,-0.2854657716164052,-0.11822231758056329,-0.005276956239692088,0.0528225298847631,-0.16324817985947188,0.04912964946605859,-0.18109769375186088,-0.038224451533551945
133,0.06945039162811928,0.05953754903826008,0.18751761835157746,-0.04389843701152317,-0.043366190603714785,0.4413971912902078,-0.10023613788296266,-0.06652129660428188,-0.024096492865385975,0.07576578257510598,-0.09312003106632756,0.0014523240104490909,-0.31807709722649846,0.022368764640306973
134,0.11754642228217244,0.08253339955409061,-0.15675583992988562,-0.009682884046936902,0.027533503187002963,0.21479320808224192,-0.37957616632449925,-0.10631522433691398,0.009622135453674158,-0.0722433916755762,-0.17915298080072106,0.051764920228566894,0.20159133938220597,-0.031412333931792796
135,-0.3778435662772833,0.11575089920075854,0.4388218695334976,-0.02635397020536699,-0.011439274585234867,0.2675400332588366,-0.47219057493397965,-0.09670722131054084,-0.034585507837205196,0.019782308482766856,-0.09637323419414454,-0.020062709734338487,-0.914575315720249,0.021778912955337668
136,0.07346322267266797,0.0789373168062825,-0.5773553241724902,-0.02959866592491281,0.02367830990024081,0.2802043239733303,0.10725589965020405,-0.06727604226634888,-0.007207296797435016,0.15994832671036785,-0.07270249615111678,0.021669914168620016,-0.8867995011377072,-0.057171702860737666
137,0.5297005121000412,0.052430368214500304,-0.8551041906326224,0.006265464232847073,0.0008761993464596503,0.25350459061618114,-0.07433529869097373,-0.09415816892850042,-0.04126340276677614,0.10457673690380741,-0.236416067781957,0.00622827003253007,-1.5554770093135866,0.026012138926991377
138,-0.5318089084356035,-0.018934481245856793,-0.892965550390901,-0.043302360955756014,-0.004852764876236142,0.1486132948264619,-0.3164121420676029,-0.06147192729562449,0.013163118965231813,-0.0140667570745132,-0.36967803097909213,0.03714995425611819,-0.3157570719883659,-0.0636150199941882
139,0.16076917571813207,0.10765845748194028,-1.0326341285642593,0.019266423127244622,0.017915031891687493,0.04806872945791685,-0.05797837203617778,-0.12293320724063773,-0.021437801787398965,0.21253452046409826,-0.03204103579513121,-0.0047487723619099725,0.14615240076367414,0.000762309684354992
140,-0.029151721119825336,0.0020253289648367936,0.5709022692613754,-0.014908539497260884,-0.012007203395381158,0.252132885457517,-0.30750028463338,-0.05518961916843568,-0.026186675099465474,0.20918262673486876,-0.19490681824950776,0.037803474698485315,0.5432958938720994,-0.045751481837973604
141,-0.07451574897510738,0.052728666295530593,0.6643913702449035,-0.02444707558370396,0.027804927999503393,-0.08163241735867327,-0.1944902591693508,-0.1128459367984374,0.017003930527017652,0.10492638280856023,-0.24483025363375596,0.037346064409671656,0.2331151427749658,0.02180475507503911
142,-0.06005049282902841,0.07577346564528285,-0.7679651446632075,-0.03586218001283152,-0.034803259298643016,-0.1525127325690217,-0.34435986434319604,-0.06286188213351232,-0.03714983726689215,-0.09539121120086971,-0.3002559778475915,0.04848846936492837,-0.21009944802793018,0.015893800309297407
143,-0.012110176660139693,0.21603058275687592,0.47951501876301245,0.03773390717017823,-0.03655135178240392,-0.07534465469809987,-0.3883202959230451,-0.08899278546885106,-0.02090378111267054,-0.023611131324102738,-0.25158804538559787,0.058785156923538535,-0.7734776251890252,0.006787847668644209
144,-0.01785924457897406,0.10409486459307772,-0.1335666060666334,-0.04358220913817454,0.010600012461736044,0.4549319587548146,0.15852841137206464,-0.08575008254877858,0.010820593721844846,0.2291456118900005,-0.25707100321118836,0.0011933180177014571,0.01612193155839514,0.020274531210394228
145,0.05974455272569157,0.11554262910019718,0.8787186962976051,0.0031970261721607357,0.01455728370511282,0.19720447290263884,-0.33355729371540455,-0.10021581944863149,-0.03939609759445522,0.06507268599067807,-0.246751896534337,0.004607581885188151,0.15568217389407313,-0.032780437445215575
146,-0.4148092577515768,0.05798982902506242,0.2567092115298294,-0.025306026896377648,-0.020210413328392948,0.29859686793182605,-0.4216693651460001,-0.10361263106184418,-0.018598395176748675,0.08249721131140152,-0.16487618466001805,0.04376486112952173,-0.7136218635929507,-0.023780512787252878
147,-0.1548644518561338,0.07989057131945988,0.2636574900443302,-0.023215345253157674,0.02151660804641226,0.3946129565532952,-0.03216788625131192,-0.06793767427458015,-0.018974477821714485,0.17935749222545133,-0.047712831792637495,-0.019505679298276315,0.17758427097276042,-0.01926252592432172
148,-0.11219907460903439,0.10425262185182499,0.3585482306895778,-0.00015505257714835963,-0.0027043845980117137,0.5399635008879868,-0.31976729548093913,-0.053313754683302586,-0.013742459186744695,0.02073855659166895,-0.3481014192072306,0.03730328982401619,-0.11696568097977708,-0.0384484307818455
149,0.32463432514585,0.08415909869863102,-0.07233285039547191,-0.02319401594742361,0.0071129698383177705,0.20402723410022433,-0.10174767967810182,-0.0634148376785238,0.007790638610176988,0.23651345205138863,-0.18425191214903947,0.013793757003642354,0.059044582298914294,0.02013758973967951
150,-0.31794367841154875,0.03231220338492842,-0.004988153829666858,-0.021296339596725847,-0.02778211830920115,0.08872249886118828,-0.3352119575663887,-0.07517602125293757,0.008847731324998177,0.15636063481415335,0.055778600786676444,0.04340685112850146,0.8809755810634463,-0.08174870162688369
151,0.44356741776255326,0.07758048331070723,0.1255178198317778,0.004661117303431717,0.03684956179928485,0.2890266142514042,-0.368878121735253,-0.08821055887466785,-0.025954888932432814,0.11343430965419646,-0.03319162337976699,-0.010331242916080065,0.7201448719067702,-0.022677282988152983
152,0.131211430383826,0.059769812336191386,-0.014285909801978941,-0.014331979200662648,-0.0018335779098658848,0.40948635085381013,-0.21159343570060915,-0.06310363597631778,-0.008523395980265379,0.013860405877010033,0.019194802529019218,0.024312152163307163,0.7661436707840044,-0.05099468814638025
153,0.037102435906820386,0.07825022083353259,-0.0734126534132949,-0.03807822085073809,0.01780930624515286,-0.07779388532049616,0.1297093678749185,-0.12172111943590175,-0.04735122235583922,-0.30348747631209844,-0.2558558576347106,0.06631937384796442,-0.2598465834878269,-0.015267676320187946
154,-0.03030345342182489,0.08256026948311136,-0.6905499662966195,-0.0312830818024801,-0.0012168129072245067,0.04938697612725963,0.2544448327021114,0.0009325769446335147,0.01989661165521919,-0.09194963971768025,-0.08180277449445492,0.026192416143359112,0.958535450260467,-0.03300357910623909
155,0.19758247566669707,0.0923079396729331,0.33876455224952157,-0.02617382687452939,0.02657042762204984,0.32826050996042005,0.4709221225338141,-0.16621065562972687,-0.045090374185867796,0.30798472295189416,-0.31320562317723205,0.0076781484128448235,0.7320917311591543,0.00632467301263516
156,-0.07876237095022137,-0.05700566539060221,-0.1774710019575984,-0.030814601078411996,-0.01325508253794899,0.3941357962927897,0.443999161896283,-0.1546531147632616,-0.03141970608953544,0.01291928493931166,-0.17338249851290788,0.029060220902145217,0.1116694022421566,0.04020778154147725
157,0.10422525481459424,-0.04668009235482387,-0.13010789625974267,-0.023715478774531493,-0.014635950014302379,0.46250416616821044,0.32104327539283783,-0.14863455262649877,-0.02870735051868208,-0.0035064141804136972,-0.19368648400130212,0.031115334881200184,0.2527290426681747,0.030535797300376234
158,0.3429948267655239,0.21366108095996622,-0.047942988931560335,-0.03695263061088647,0.013394654689065597,0.3921962985358461,0.5267866650066463,-0.14129303131538995,-0.03821096824628772,0.17663530672654082,-0.08844065896977385,0.02669353306178838,0.347761283410881,-0.012519320355211791
159,0.2663868036466536,0.1676524642538123,0.3635993344080481,-0.03486792349863943,0.05238323811115001,0.32738357273444385,0.2788141674474668,-0.11923981907200476,-0.024478948411733776,0.0860183163899644,-0.07985084085612326,-0.017749659529709583,0.3507059342783007,-0.0058349080934691
160,-0.13612876617222588,0.06178041730755256,0.29175129876640954,0.006952819879941868,-0.028007541851444898,0.31012336921621764,0.17328939554971554,-0.0780201474490648,0.0003645966874398221,0.2223533812809071,-0.08011685121151012,0.051009811290588604,0.12158103751685043,-0.020491895105778993
161,0.10645336391935009,-0.005744808061772383,0.6070670373327149,-0.00148280400093935,-0.021441302592621184,0.4831412021972913,-0.04097386633691631,-0.04581576398132749,0.014640976560903685,0.1295463811042672,-0.005905400367159787,0.03314585714174868,-0.17835221338703897,-0.018607881812509934
162,-0.5617578099253021,0.054333876109299614,-0.18944518378369052,-0.018827398950252094,0.021602741288762873,0.05454263168002908,0.15329561724944826,-0.1347832897581522,-0.03612587389442329,-0.09597652279340559,-0.12063133412110444,0.015421619288401515,-0.02239572567564522,0.022447039892106023
163,-0.7526297787803506,0.2522000310834006,-0.42082806431213615,-0.0050178718402810185,-0.012089298058152169,0.12896713150118827,0.07937359915821422,-0.024954533710283194,0.007365506895064031,0.24381133488770634,-0.17078389136953426,0.015096657008574203,0.23270167950236634,-0.050781054088262494
164,-0.1994567480026893,0.1845288569744089,-0.16876717285452802,-0.016350169436827988,0.014572386973188398,0.28516309299820625,-0.25485547967064687,-0.10957608499772259,-0.038518164160581965,-0.04218639947108854,-0.16588562354202588,0.043695469778489204,0.8779856469577456,-0.036268751247408304
165,-0.7308212521203286,0.20130586353199392,-0.2718082177982392,0.010974950806535266,0.030872230164176333,0.2835771425317618,-0.03574307272565777,-0.11085998286151925,-0.05322030530119575,0.024401656562115098,-0.2513473750348364,0.018733284452914545,0.5217294975993765,-0.05691122981033621
166,0.10685652349872482,-0.018363351844587802,-0.058686257422224275,-0.0008136711744972103,-0.03427588169126988,-0.05273971113394757,0.026711802595177067,-0.059620411960840294,0.02327986443589422,0.048618522071151124,-0.2800366968771372,0.01037294002114934,-0.6480337960719069,0.04410647118430536
167,0.8572911081147093,0.13792661549523955,-0.11968916081486469,-0.027540148636345393,0.011640724837553986,0.032397460145454846,-0.3591215983651301,-0.11346000372414322,-0.04058091020605269,-0.1239662600445631,-0.20840458499838385,0.007583947227487838,-0.15501555433588216,-0.0692822144094848
168,0.5093432862768917,0.06732192730773516,0.335189011872956,-0.06025299658690085,0.0041459047061726175,0.17750217866461382,-0.4710250567299125,-0.12156954314612646,-0.012620210649433024,0.0409365316240045,-0.12070190131771,0.015235001694196377,-0.19166404591558034,-0.06816239380112472
169,0.41834285530784315,0.19149344017146702,0.6551520914094457,0.01925729683393329,0.03766123443227735,0.24641616175527517,-0.26405827120361125,-0.10484176024325896,0.0021581543846730528,0.04797340645575593,-0.18512613142412776,0.02345217774664514,-0.701051040828955,0.014711131278127745
170,0.33897815459461317,0.0032018597193699747,0.7170688120932787,-0.0484331219972329,-0.047607745960813075,0.34115433062897477,-0.0939712777213907,-0.051671148169323125,-0.04622669700425992,-0.10987939691091175,-0.17391607045800228,0.005331631790518357,-0.19422833794392735,-0.03696097890732161
171,0.1338512156307627,0.07858567707144473,0.44495903555320615,0.02363728067675254,-0.0064980172545642985,-0.06714439276845796,-0.19391356553501746,-0.08937639527078217,-0.010419821723758538,0.013893095233924624,0.024664109647699058,0.02617597122499849,0.09572796940226169,0.059808103549627664
172,-0.04252652752256014,0.03982626723714412,0.2892314664754205,-0.029081228261691044,0.016886055338200975,0.47085464989272663,-0.2703396375795891,-0.09537651175133968,-0.034493391538820584,-0.007178017625466264,-0.09501243078286783,-0.019247169055623438,-0.9662193852320113,-0.05686103643176841
173,-0.1954890925957713,0.11594081103663559,0.7545700279733163,-0.003591982201362476,0.032068829763624025,-0.31462459424814115,0.17060713249863985,-0.0561069043736712,-0.004859016630107377,-0.16671694088753747,-0.18679334273720732,0.03962384269733764,-0.0672218136536914,0.05904222549288837
174,0.1858694828573162,0.03873691563975048,0.604153895551955,-0.0629196761809642,-0.004317942198536339,0.20061955643237667,-0.08634728099247363,-0.1108075876866882,-0.00921233005235176,-0.3205416860814657,-0.2524321353836755,-0.02053299556258653,0.8288364219819092,-0.08766154846469082
175,0.014665929442410908,0.18344075799409143,0.06562191216803287,-0.012715370146083621,0.012603610871867567,0.2723397775751212,-0.4105258271602055,-0.040584753867633105,-0.017450858268280064,-0.6990939301310142,-0.3918973446779338,0.056508627596304796,-0.2835933194283541,0.012450411702673171
176,0.09546069306438121,0.10527815667826274,-0.523183902921233,-0.004999515127795728,-0.018128836311104544,0.27567728419850734,-0.17295629672307541,-0.06492061979897586,-0.0032963758416398713,-0.22448801418842929,-0.214240341325716,-0.0006953783742577012,-0.6585351333053739,-0.07664742276391923
177,-0.14685086640361694,0.10107059548810998,-0.09259695815403701,-0.050447397958342896,0.0005873669496279793,0.08570306292282431,-0.2167893264134892,-0.11170667030967767,-0.013786792141008121,0.19072756715425365,-0.17303853694254648,0.029859768116964783,-0.9684522927932399,0.015399082730109807
178,0.3912686778773169,-0.012655249358370965,0.4085732031668713,0.02121739276370893,-0.00909033011049294,0.4071739954368111,-0.1417610536110847,-0.07698171662089998,-0.037370878321300906,0.009482360232111783,-0.2374296196223098,-0.014293115120941127,0.019242389659602614,-0.028390157337510172
179,-0.11302163214199443,0.09332320033730887,-0.7261842988331434,-0.020945802573716796,0.002243324638609776,0.08240710984830765,-0.4093566892338465,-0.09247364467661101,-0.03114314094276479,0.08664245549526256,-0.1991531002467781,0.0031856540046436704,-0.6788127715756019,-0.005320069299263819
180,-0.06471955344395214,0.07002817117913165,0.22883912820649407,-0.010908418381151919,-0.005327627124449228,0.19940659314692452,-0.19818916052945335,-0.08406797549603527,-0.016206403207167666,0.012474485262152422,-0.30381593835716425,0.026578948461896,-0.1297436475681956,-0.00332609461609297
181,0.04200512750860491,0.14929512019796398,1.5071912039701019,-0.024010272200013005,0.052794733543632316,0.3052099312654811,-0.20204211926463053,-0.0875591714372227,-0.011096611429826379,-0.03751720733840644,-0.3856987934940784,0.014550814098429926,0.30912268710267155,-0.060245716428891406
182,0.019200566068388714,0.12573909525963634,0.8419216040543206,-0.0005615258742546203,0.021704092671149852,0.08435490385017927,0.14707808325373245,-0.11669358501251133,-0.017763371822547884,-0.0015840176023960255,-0.21333674282827636,0.015071157974993962,-0.09243217420156195,-0.06799876237598206
183,-0.03467178573720647,0.017221922528614705,-0.46901584141702624,-0.007912804863554543,0.031152643770001535,0.10066421139832116,-1.1620493417819593,-0.10244360689332381,-0.03394384106597452,-0.030724203143828423,-0.1421545033657919,0.03224327444226547,-0.02145631805688332,-0.010841351025339813
184,-0.2327114730840487,0.08107694696680057,-0.22494911424736608,-0.02931338636403888,-0.022525639272285736,0.3576382569482948,-0.37128087016318284,-0.07132073409336058,-0.011430255582096219,0.01053165204154876,-0.4176690818925912,-0.011490990379328506,0.124940680616136,-0.04640391621626144
185,-0.010685827314602214,0.1179101206630877,0.1627011719061436,-0.04547398312201294,0.03958493510025884,0.4136871727436542,-0.6282888950132246,-0.07983010907266956,-0.04215679388372613,0.06946902499103533,-0.16471578730252523,0.034533540138676405,-0.32329164689016954,0.00695191841035761
186,0.5176744949928915,0.07343887209317383,0.8815975038371167,-0.002186940121289088,0.0029545843631822947,0.23986229437536416,-0.21377011900991463,-0.07475393196208553,-0.04303319847532878,0.055533772344927235,-0.29833490257709766,-0.001174896518244116,-0.1724079711541002,-0.06510826978838816
187,0.013616381968503843,0.1406737572861756,1.435247613308443,0.008945209039549387,0.006518613780748302,0.3762137931673956,0.16946539339780917,-0.09230092812523244,-0.03185147232216004,0.3543497078250793,-0.3449356432954925,0.023871839635167917,0.007922895903019561,-0.03944731499107518
188,0.04256037098888024,0.0030548834504826455,0.3489415059348101,0.009750972445050118,-0.014424653793093203,0.5042176290933437,-0.11230205495321294,-0.05470211205370487,-0.025384331540423168,0.13036687736986702,-0.3628427458030302,-0.008632704095951925,0.2861764984984817,-0.033006461155137695
189,0.08077639452475238,0.011371962191784688,0.2944909167982927,0.009562222619572444,-0.013825114224821002,0.49061618575665666,-0.10211850983352713,-0.05913173365041767,-0.02904462807391167,0.15659772107215114,-0.3647055392653429,-0.008190554843306566,0.31074111825731465,-0.03605120534166851
190,0.6329986352840791,0.1026889815488706,-0.5379420589007514,-0.00864271849187144,0.02497309122700073,0.11047580360939016,-0.20539046148556003,-0.06629560654289916,-0.01322962691518383,0.003980954502370196,-0.33613178997425514,0.021857320514646103,1.128433441154116,0.021312734074268924
191,0.2029929854647497,-0.0009316308783339639,0.9738818005775749,-0.026698362228680064,0.004422864705436808,0.1789732607060463,0.3262396519759164,-0.07907706808040636,-0.0276287856943593,0.10897231936427706,-0.1343600254595214,0.012228299321791342,1.154456839688761,-0.04979803546914914
192,0.13502217270907574,0.08871683375658651,-1.3486950726338744,0.01098007301025325,-0.007413565220740829,0.11825474903010863,0.26760761892996765,-0.08537284139736165,-0.005101139233995633,0.0328571838953771,-0.2079964896935969,0.021277183163722797,0.42529340273487914,0.005342221389084786
193,0.23239267189045015,-0.011769844095242003,-0.7028458624299135,-0.04294357202392482,0.01655195759345584,-0.47078750529520286,-0.04066687808986345,-0.07958651005813452,-0.031106955140375377,-0.2098755840926328,-0.2534778514128977,0.006150270235181197,0.7655108485168336,-0.04599753462059253
194,-0.0923196447832002,-0.12474138374557171,0.5293480099221244,0.011038867669886543,-0.010317182856955646,-0.7617456670152304,1.0660595039335656,-0.08476776116825528,-0.01905646902503333,-0.04153726647277929,-0.15364038118931878,0.035655698931605036,-0.11702008030166186,0.020005681290420754
195,-0.10840315544609105,0.04242030340438389,0.38983923043218927,-0.052466503041668736,-0.008177734538341794,0.33350148219392506,0.06091850259420156,-0.08832223240348831,-0.021366447233039598,0.17168794893447203,-0.33074144292780305,-0.021574623129552536,0.8624365721302568,-0.09396658236557602
196,0.18701148088635958,0.009831282392102,0.0006725266070248814,-0.002957278184369444,0.007783638701522051,0.6280681737408754,-0.3685672206177767,-0.06634901466000702,-0.0027171289424830908,0.31366100009521525,-0.44265557002507566,0.011415042085867584,-0.3358904668926214,0.0159352673737906
197,-0.07169631623680717,0.07267948731545912,0.5025737835223245,-0.023428562807743178,0.008606158328614243,0.5122269439732327,-0.2596243655122183,-0.09232136208586078,-0.01043164612455369,-0.008444163989720088,0.005874670368808024,0.01638316571037803,0.028383714412698324,-0.039313953944998994
198,0.015320258135069542,0.09546768759217487,-0.27612856843674477,0.0049293930360578275,0.0037299621008211603,0.21106700381264284,-0.3843391086726884,-0.04894476196456353,-0.02614223500391209,0.29912282098913856,-0.3685588492532297,0.002666789944116517,-0.12319025843372103,0.034529931395045566
199,0.24700956017485548,-0.04803772924537371,-1.0206142373177363,-0.02957491737145325,0.025974015665601643,0.36912846025442053,-0.08135517861506227,-0.11545699084734624,-0.00010843759508969049,-0.031582153770986346,-0.14129565413844725,0.0019702678543453284,0.20719103725919552,-0.05237158176724448
200,0.1440128257066196,0.1439491183868237,0.8365953013866473,-0.015383417276444752,-0.01752722992486735,0.08327811371879637,-0.11214841406362445,-0.05980046081716184,-0.0004020227339411632,0.18527507590386535,-0.18530058620334072,0.02649041998419243,-1.0783899434896018,0.009664898928248906
201,0.07666226749108163,0.17699702331585299,-0.490316183980974,-0.058953598948993644,0.017875788888614737,0.22178350497193103,-0.31180194346103696,-0.0820030579832301,-0.001896836395834,0.008877200095400523,-0.49164165000062104,0.04525587048333729,0.2536959590806056,-0.007073320563311128
202,-0.33992150468777876,0.0260996718824653,0.9919985304200643,0.03218451946714737,0.014522313733554676,0.1797515186836628,-0.21013190845426538,-0.10939940285135247,-0.03841047391312248,0.08237835603716154,-0.057101158544450095,-0.008474193229611716,-0.01914375224737483,-0.02847609329310863
203,0.23512838572915754,0.24838578878228587,-0.11176827848170323,-0.035178736516725914,0.005213018664544586,0.09880760130974808,-0.43027395537786217,-0.035314131268623525,0.061184249139291186,0.10672646603952082,-0.3471633262856386,0.016612430535194143,0.5182205909398763,0.08548312136208458
204,-0.475210840894314,0.04571568117137051,-0.07124471074290645,0.0051170144420350505,0.00756176465077265,0.3266726675009285,-0.3130797751742871,-0.12103578322722265,-0.06770112358507577,0.026895906142794204,-0.31394258424727367,-0.00036449945707411543,-0.05452078262135207,-0.043414029965580234
205,0.1236859266528228,0.03537164944393828,0.11070897274454233,-0.03338316851984985,-0.033756413503964564,0.16164276221832982,-0.28521355771012125,-0.03467049117914344,0.012813539808534143,0.09443399655253479,-0.17501350811376526,0.041040409843997955,-1.0576293564354295,0.027020556541795984
206,0.014036094241893393,0.09447673248968028,-0.36053548288181114,-0.01821728018564825,0.04573409314708165,0.2581438428055034,-0.5275684995979294,-0.08436028811391388,0.003994410670591864,-0.04163217454627588,-0.11377132379206524,-0.023634398825901466,-0.01953324636012088,-0.021928501438152864
207,-0.15839300259128336,0.07849523539522871,-0.24246270282365065,-0.010676072967028188,-0.02359996007018986,0.2375029526816029,-0.5304718313836909,-0.09836197407323273,-0.006542571775730685,-0.09193947130462721,-0.14216399225947934,0.05224612967595843,-0.07854064385573836,-0.010419845857385132
208,0.13596555267269056,0.01696494676090022,1.7552578053747612,-0.017459784272068096,0.029673651930127797,0.293942296618977,-0.07912062304648862,-0.07128387650929092,-0.033706394775672804,0.2672900873322319,-0.12915117598768405,-0.011629910215131475,-0.7574309327212555,0.04692284064301843
209,0.9415404864522647,0.02921777910885818,2.1193790517876034,-0.010970545701224382,0.013233177775335725,0.3678409395364658,-0.14261359360827663,-0.10520258575515853,-0.046599768635903746,0.12185913722557624,-0.14777988364433192,-0.0018302588375593704,-0.9809737815297679,0.06657855275602859
210,0.12448770147940533,0.09860124253692215,0.03992045651992854,-0.01855053339363802,0.038390659282479596,0.3588144633112898,-0.20509595500074793,-0.10683867978414492,0.022149013871591502,-0.022506780165594015,-0.11054375528538568,0.046633614962440076,0.13172838891416383,-0.11277615764559724
211,0.11107465385446702,0.07383733782232396,-0.03287573816811709,-0.013653855689962593,0.016212486570397477,0.2638980531532597,0.053278413300623204,-0.049845623662024746,0.0006985629766384366,-0.05014124227563553,-0.21566013579458393,-0.006706115632382732,-0.8039707531043945,-0.05883210771267421
212,0.06679443795263855,0.1017304749888538,0.03432272274639653,-0.009309792250943708,-0.00030632045781475367,0.29142687800214523,-0.3401904716614847,-0.10751364933542634,-0.03970409170429801,-0.07149062114545232,-0.09406978756945437,-0.023128777943670104,-0.37883637353075117,0.02684654694921953
213,0.201284043207911,0.14761760525265957,-0.6097542808328871,-0.053059671322374324,0.019654540522288225,0.02112193648838892,0.005098540375622268,-0.13791030541181243,-0.00801671711034039,0.07221099462435596,0.08261564169965264,0.024328275648954303,-0.48925635963798625,-0.054436332611320956
214,0.1670988858103572,0.12297185216630831,-0.3928880836104742,-0.007313850219366494,-0.020903790896266206,0.3133141383995579,0.01838729215114089,-0.1022468737461357,-0.03288262760947668,0.1420484300243895,0.05809301096783257,-0.001953260089916059,-0.7121015738840192,-0.022025853097018953
215,0.2641646010309914,0.09525645523899952,0.4135441167943332,-0.008558969870936031,-0.00794924839493496,0.19483781787079768,-0.036768602075359015,-0.12075303412543416,-0.04874830224758432,-0.029374589644681325,0.14697529281341104,-0.022034869645020605,-0.3350375723122628,-0.009196199878197905
216,-0.05929103271634023,0.09702555637640527,0.0893829710226918,-0.025838879759621458,0.009196152811932885,0.13045016500765455,0.4633307093473744,-0.0954968204099807,-0.016631195748088627,-0.2739447971984059,-0.14558195724392847,-0.04878776811422921,-1.0015182387860682,0.05807868551958301
217,0.007778929914787236,0.0007014544341472414,-0.38464118970589745,-0.001250092842403433,-0.008895567802478934,0.43597967340512267,-0.25702791300819966,-0.05681736020727689,-0.013205946144064529,0.06559752778347118,-0.2690485741937977,0.013702609078779945,0.2919274426349522,0.023705040345688093
218,0.07985361366950694,0.16968416260616836,0.771960936977752,0.017692392092827025,0.011754819947312742,-0.07046906973440928,-0.2900439337837371,-0.14503473919021428,-0.025279684886101057,0.024814993335580376,-0.3288750049002068,-0.009116463360540422,0.05015103314775714,-0.028416934693817536
219,-0.6008445579494406,-0.0423410552644605,0.06363217418782673,-0.05571498937920028,-0.0004948792945232462,0.39270218386825645,-0.08699697216075664,-0.06764551325598747,-0.06187854015077874,-0.09438554054232484,-0.18293813029770128,0.00736844862842654,-0.6707800455967221,-0.0033142714598181078
220,-0.5040899721231937,-0.02143842214398528,-0.040517364133829836,-0.066520406445435,0.008384281924688451,0.5156116470033989,-0.1414672790458079,-0.07847947194986324,-0.02636736282213452,0.044137350666842615,-0.21663419582766247,0.016269251598008974,-1.2769018931164253,-0.01605769154202423
221,0.20586491539538138,0.11312333251207742,-0.47370060040190975,-0.0066667063983931185,0.018358075234212533,-0.03376416784309405,-0.36299716324770337,-0.12359337974876977,-0.03145130118978656,0.0019901036553388526,-0.23114903362471442,-0.02118867599386043,0.2948552735426721,0.005936309728930639
222,-0.19500231565208248,0.06848084733705564,-0.5167506834701933,0.006864647983728989,0.007371687733229987,0.475880934505329,-0.17536541438896774,-0.03667891008460816,-0.00518925929728882,0.08621643087895363,-0.045758945793456275,0.03171425650294657,0.7695620828714963,0.006906373316315523
223,-0.15959683465046492,0.08745123131642137,-0.07755853846389532,-0.04102425625771543,0.031890967914917766,0.4045263633840866,-0.419844747122594,-0.040471495807315745,-0.020543242258210054,0.12419913603686002,-0.15295865871985753,0.037718883422312735,0.24104050785212275,0.01780477432230873
224,-0.14932221770830073,-0.008439997126569433,0.16744579309443175,-0.013228613467942324,0.009312389344369386,0.6481034083566708,-0.08143547381558777,-0.10168997620869075,-0.02710421431194276,-0.01882418714947806,-0.20853493201986306,0.0018869412866115431,0.0662877906791226,-0.007200616115917213
225,-0.11421024303752175,0.07747474458912026,-0.0054668344589938744,-0.024954347032968685,-0.027252613033307792,0.7516106561739315,-0.42630337882298264,-0.08512585182474011,-0.022788604641719473,-0.024520277488627763,-0.22662711049125994,0.038021790874314856,0.17427626378216957,-0.04942309660796003
226,0.19355843657920443,0.044220464383257926,-0.5135971012376908,-0.04018247509588159,0.028204301330432325,0.3102272771272667,-0.45088961077408823,-0.08893250800643066,-0.007397022571320411,0.15533783620514463,-0.4082884383011087,-0.04131148614026957,0.4368177248344798,0.054781634602856996
227,-0.28074813214641,0.18905280855804546,-0.19685267796227462,-0.006978492933032404,-0.005311975641245834,-0.05252895056786089,-0.20087302685697933,-0.03833200203922821,-0.04004661280114839,0.021347652627237423,-0.164740468616491,0.012638022378708123,0.4905505623773479,-0.01305773864314206
228,-0.11495886224685162,0.07117195821747509,-0.9137849768746821,-0.0352242035410521,0.02613529969990016,0.25016015993753,-0.3952843655590862,-0.05959707987734997,-0.0066784065787098695,0.05906346642459133,-0.36941323370080315,0.0321220987889069,1.1530781663893883,-0.027070370205376476
229,0.1705323671615127,0.03237405205740864,-0.8623561616059908,-0.003687691628203968,-0.01579662235194849,0.27696485219165345,-0.8174415837717839,-0.11455480907298371,-0.018818815200170955,-0.02011069917219445,-0.2501049754641346,0.03837506508849588,-0.2108880229520003,-0.013470942469380277
230,0.0786688537721758,0.06856704444241546,-0.1931094141259746,-0.03323819336603116,0.0108420128994217,0.5199896308677249,-0.3078433157584851,-0.04191969745568738,-0.03136730625449787,0.12263252616293584,-0.15810740835026046,0.013489443777908276,-0.4556382229413436,-0.05865957828284711
231,0.7004595821200345,0.06648311067831952,0.8519231617169027,-0.022680234524966286,-0.006860854773718936,0.3343016677162187,-0.24119423856987876,-0.10785925955780626,-0.011618386981096844,-0.09490171978960198,-0.17706256378531526,-0.03836071916397276,-0.6890600672503938,0.034749539041877844
232,0.756765584240842,0.11896524333054824,0.4027776467078657,-0.04742391508576303,-0.015757824933461374,0.19016041382342228,0.03646759023832757,-0.10267221680736216,-0.023892924568923682,-0.13443506449575687,-0.2924187196972637,0.03634410381473469,-0.10831361902447384,-0.08284584021773388
233,0.9128886160912426,-0.01380654326046429,-0.029361344884408613,-0.01945334740869127,0.01982447479527808,0.5889639220124169,0.39158111110239324,-0.12297225040891482,0.00027485627655442213,0.06719097679448827,-0.18198688719128214,-0.0032251303450168273,0.24410927778968916,0.09435862061021978
234,-0.7727014770925069,0.12512430252380546,0.5218252979246873,-0.0009197184438063527,-0.01286906412923339,0.2309999826739006,0.5622048672733311,-0.12640909079827495,-0.04045425053167552,0.13738353421326424,-0.26400225297579966,0.016033180278031554,-0.09926753067216497,-0.06276147697762545
235,-0.7917223538209688,0.08760707375999474,0.6714073735534841,-0.010380024157499376,-0.009262013850807172,0.20986801821930898,0.736060949645233,-0.10916899035582917,-0.03467128329913943,0.07100709999996543,-0.3787052268109621,0.03077063040700037,-0.086272509955229,-0.06308735761691686
236,-0.7792280591921485,0.08250989916842587,0.5142120635583172,-0.008833627374668473,-0.011261586390696084,0.1676887280336782,0.722014479778167,-0.10492058869223525,-0.03913465262914048,0.04190194751746319,-0.34295185078494894,0.036117620628098104,-0.24315605961782122,-0.048775072921239865
237,-0.7911788391451556,0.13155126980705184,0.4056638316771503,-0.0030015364536173927,-0.006333713215261289,0.17740730585486164,0.7072538286612217,-0.11537569349590401,-0.037482288159659066,0.08747212547710748,-0.37210599326748683,0.021656242830221873,-0.12810613998118295,-0.01474881671961785
238,-0.5667372996982317,0.07853401305915998,0.052759027767797895,-0.05315991104569097,0.01415259581333923,0.2949474227914658,0.27836033718904346,-0.10473522162483494,-0.027279245762136823,-0.03077684645649048,-0.27455042545547714,0.04292180943269503,-0.2598382384508093,-0.00465468070700259
239,-0.028108510639185236,0.06296056452702448,0.46744031660608326,-0.0006748259292628372,0.024771153937613928,0.0881591156130169,-0.03920486345196347,-0.09481529684808507,-0.0037789683515471045,0.21704406962913683,-0.28005675868071467,-0.0035867936369579495,-0.18386834161164292,0.009639815196544464
240,-0.10733558497265616,0.17876607558193036,-0.39393749852780346,-0.01721020506296267,0.023545689418884755,0.39096632119071967,-0.5401060647422116,-0.08755411991771919,-0.03798323679101815,-0.01958632357093605,-0.07482780189771712,0.02019855728398564,0.11848520085430735,0.025918184240254757
241,-0.09201834531478978,0.15383614725217226,-0.14580835420325022,-0.014699310932340406,0.027131628228632337,0.2951738964251551,-0.6089987365265033,-0.10094798223100955,-0.04532331807615944,-0.0366134584667581,-0.24450099536760322,0.03274410791503208,0.2504769399730331,0.04533697441428926
242,-0.025871750852811903,0.05288081043634328,0.3825627393887211,-0.039445699409934906,-0.035464185677944994,0.1305572500640842,0.0911242502341644,-0.07067456308462426,0.03381215426065179,-0.0922119259695532,-0.0839803611586511,0.01503188079818362,0.5949404401185263,-0.05123630260129387
243,-0.16012192792211039,0.0956720539528426,-0.7534477438769134,0.012083774330455432,0.030961968276652443,-0.30301267070988436,-0.192782784342619,-0.056908546734312025,-0.004230192139852689,-0.137737713036995,-0.13136043859404176,-0.023258238683636884,0.10435369597678626,-0.060562919065563506
244,0.2072500757621079,0.047756020165882665,-0.5303850387189175,-0.011851414955271741,0.028979458754978087,-0.20871068441319884,-0.4704289000502265,-0.09810401815907076,-0.07790984945043757,0.03034816741103228,-0.3321002852079699,-0.01733473674330243,-0.03747811809825114,0.051979512943246986
245,0.10518558518207657,0.10887888701404808,-0.06705104205733098,-0.02872167484285934,-0.0339845768359546,0.16087482962246324,-0.4706401447227528,-0.046046993079592674,0.013780271857838693,-0.028954145528597597,-0.2789015349251558,0.0009816795311418866,-0.26543978266168966,-0.0300874861921724
246,-0.49338243971637963,0.020977193531214862,0.12716450196407558,0.009872551377485703,0.05214196571753629,-0.024745338127934703,-0.6733129345850281,-0.13095718536360065,-0.012692137077567724,-0.10696988718275019,0.012989004135903651,-0.03830672411933394,0.30853065728531887,0.06318713736357938
247,0.04980150926607568,0.0961763027092361,-0.24390139205838252,-0.050940788693663794,-0.059747420493795625,0.12535515712984996,-0.18989735841192246,-0.040575882415874356,-0.0045290668850726,0.04521850647059438,-0.22084467299221022,-0.0050094886914311375,-0.2903946962360318,-0.029916110724576443
248,-0.11806118522170628,0.020546720060983556,-0.7985156310138113,0.0059133321377839165,0.066050361747467,-0.22517469269177717,0.05016666747552302,-0.088454710284566,-0.03998972325557147,0.1311776456976178,-0.19129035916979845,0.03614355477264283,0.18639781891131169,0.012096843809654784
249,0.026439561410755208,0.10677577730818524,-0.013443009941302299,-0.048550259537739254,-0.05824250111840665,0.5273700947238035,-0.21258110287101112,-0.09298609535636418,0.025880621584644204,-0.048887324948917024,-0.37311535491574155,0.0002671677625697075,0.20004643040541986,-0.05006158613619252
250,-0.09781905039988903,0.14702463666841573,-0.15891293472594653,-0.009916946742899724,0.06163144447958807,-0.27175111089173337,-0.3056362121820864,-0.09191697151539586,-0.06845483380366585,-0.37564163355116686,-0.32568483510708107,0.05330125790931654,0.42068558749655965,0.032322353317983735
251,0.7110535743870019,0.024547246448320785,0.060882903268903686,-0.022934353523013526,-0.05892788339174293,-0.0287094891093283,-0.02255260853777491,-0.11098977895636612,0.036453495062502325,-0.06208932786188609,-0.293859239765838,0.007572086194146448,0.7939076576416386,-0.032602196329191084
252,0.9128177431110238,-0.024539351270756033,0.21987019509878783,-0.06005030268854325,-0.0022162229871163144,0.12640809096217778,-0.41548820153347765,-0.09321634967035304,-0.03389369534566088,-0.04855025810016163,-0.21597189960431717,0.02140070939102718,0.733090104427438,-0.016052093814828604
253,0.06214272795394854,0.15621390879796648,-0.20781177598954412,0.02633170781339224,0.03555198912347754,0.4738522894064578,0.3025229276588221,-0.06075432110041501,-0.023027335298111924,-0.010898865696308872,-0.24583482187855382,0.01572376025122284,0.5230895340929562,-0.014860125083816497
254,0.019715743489005122,-0.0038661678563984003,0.2867326266921844,-0.05429843808715043,-0.023748539177070895,-0.12593656986775748,-0.19493384107526768,-0.11534818563286989,-0.022406886713769898,0.05496208381396195,-0.40963581655314785,0.009058797289006798,0.5457259518899582,-0.005764902334748849
255,0.08877638335920063,0.05929473380996199,0.40981200048888555,-0.00633292090861827,-0.016249604929307,0.2511541274971054,-0.22783847906208243,-0.070906661532061,0.013723899660880598,-0.091060663287578,-0.19515834104409385,0.03930419389364978,0.20461854420066167,0.011514988453777283
256,-0.09095613456851559,0.051519828992072976,-1.1852306056650534,-0.048578762982310314,0.004974765481246601,0.2433751148794318,-0.1265454867347579,-0.06676794806871762,-0.07634696001891748,0.07073696913773667,-0.7348017281088205,0.026124802348403454,-0.26049252615159013,0.009694638190200916
257,-0.13589825870441444,-0.014400519191069473,-0.031211230970690035,0.03348559089460562,0.017701114596903277,0.11515085499018199,-0.07450185363659846,-0.09753624647971165,0.02501114312127255,0.023953293286278807,-0.5176214308843611,0.01870438724464541,-0.010579724827851203,-0.0018638410830704374
258,-0.07115791565784083,0.046945194486758865,0.30434307951311945,-0.003137452261560314,-0.006780626730485976,0.17570942748329213,0.1809229773736436,-0.09501108467492826,0.02685814266774954,-0.002446684287366635,-0.487715911303983,0.02759237131129979,-0.32748215364664346,0.007647712649371155
259,-0.014280716948812555,0.11621940104676949,-0.5624328739308626,-0.030556593466516763,0.027231721945965404,0.26780510335949986,0.05680554816636968,-0.04735979278692651,-0.026204379003462678,-0.09262415183133525,-0.3231592023992293,0.007694107046519107,-0.5968036493526043,-0.021893236832768337
260,0.0676321269428948,0.19315878780312631,0.16421783696665115,0.01682687984091269,0.016007447187588158,0.16011139779350864,0.5040143739558016,-0.10649584758772584,0.030110171869363257,0.18850854082589158,-0.14252207757077612,0.019247661237480167,0.7256258618628018,-0.013703990652490769
261,0.02287237321547414,0.21999347845276077,0.9169751613364043,-0.009877419291955153,0.02794607940710285,0.275798123570301,0.27141026384007294,-0.10603357611958729,-0.01628749720663043,0.22656163015826025,-0.058992952302733215,0.07162536975560432,0.6545148857385318,0.0174980300898976
262,0.23739523239758503,0.2549469105506409,-0.1417842897386188,-0.028868662229817016,-0.030922245323464506,0.29953025794241095,0.22715105555936782,-0.08876725585789907,-0.030237055946359517,0.17366485684974986,-0.16899771852475434,0.04362294341796619,0.45990509556838655,-0.055534655984161595
263,-0.077549664847472,0.24652462183009619,-0.09859702532743603,-0.027547762015895594,0.021438108456656772,-0.5936412487914887,-0.14773566903163737,-0.10939567327054758,-0.004938120278932038,0.04725154624279406,-0.05368343296171557,0.015220717097747853,0.067053843040993,0.012536200941920678
264,0.029802885277557423,0.22039576357697457,-0.47703686180725474,0.0028168392511940393,-0.012982248825541581,-0.26131911379126094,0.11859755945613897,-0.11969006527733837,0.009177249636394994,0.17805996244814648,-0.2593414947543332,0.06040139234570644,-0.0022675002650489606,-0.04774788436215281
265,-0.06790010760592724,0.2231053414992426,-0.13488560917347736,-0.018424807900113638,0.021108819392324066,0.033200657467983063,-0.1891979564276464,-0.01915286232186246,-0.05617893934229879,-0.09914855603031605,-0.15304252913471506,-0.0074243733051362545,0.2635264318239643,0.02004367586276662
266,-0.043222937993695226,0.045529433211867726,0.13521225454263625,-0.03345174782379598,0.003935043907212145,0.30933635749602284,-0.28452869916240214,-0.08841300108751948,-0.030493823213272618,0.05006512919403232,-0.213060020468755,0.021681626168623555,-0.3328091382370351,0.039576614191453065
267,0.12282646684451198,0.022106708422670457,0.3795957824120676,0.030978494509423055,-0.01803138214811068,0.24313972971785439,-0.2371826722946017,-0.08473919986110909,0.0046868920797998315,0.020436824317494363,-0.4527002689992444,0.024285524767793318,0.08757759581590158,-0.04646393092258047
268,0.02258088504497363,0.015895949506244778,0.6372675587412807,0.03612253569859286,0.010478636590515074,0.3820689491070677,-0.22528426000902324,-0.08222025770088637,-0.018702273704680136,0.04446067337934877,-0.17764340740255735,0.008167638142809262,0.08819114011510296,-0.011572728010015992
269,0.03211662857423647,0.10104774696016061,0.37356511345497057,-0.0041715654703925464,-0.015420067655863741,0.09084171141260572,-0.2964896784076705,-0.12366415788713064,0.007322646803281686,0.046228999450133694,-0.1055478696688141,0.022263393786535295,-0.007506782323794925,0.02235386543129589
270,0.25891432199928477,0.053798132171005694,-0.16623058629816595,0.009496151985347132,0.028815421863224243,0.26267987647523433,-0.6716240299570989,-0.08023395265583762,-0.013470778307429744,0.0690810992054406,-0.2391215193962925,0.0008206806115808457,-0.9490730342437075,-0.005163223154867502
271,0.07754858655571595,0.008776320840037707,-0.10511344256868267,-0.007745543117568421,-0.00366047913845546,0.3585462387081334,-0.6277044290290069,-0.05973592343904149,-0.015373965306125822,0.008940761394829605,-0.23857513698465355,0.013219919991322965,-0.35738886422646654,0.0015012540647471595
272,0.6184268407301823,0.10915010121632054,-0.1906222838942239,-0.06029176170735158,0.03131822958651338,0.24080916182077644,-0.4714868775406208,-0.09157593657452293,-0.016887366062288946,0.2774246689843004,-0.2951924218667291,0.012101597258296523,-0.171233252945099,0.0025489939969943615
273,0.7335010364811704,0.05812558594266457,-0.03729783599739295,-0.056551317312971,0.02839345208518462,0.22213524544914315,-0.5638317289663466,-0.0785346769141462,-0.0033081843420952606,0.1949868967593045,-0.267428072084057,-0.00815004857057037,-0.2547565734502237,0.0005527089261214563
274,-0.11236486180785571,0.06439693479682979,0.05814656179477311,-0.030361252577248046,-0.011061250397157838,0.13953660735661483,-0.22445177190881319,-0.09605475445221204,-0.02807544679009463,0.06831686371493008,-0.42395387093426595,0.009463550037713715,0.09813075214224903,-0.029622769088717596
275,-0.15984724073760465,0.05887336733638815,0.23187617620101073,-0.026714718963590303,-0.02445005717548114,-0.002320445063436538,-0.15654907437950455,-0.06406463967966239,-0.0023148054035287344,0.01247023525425052,-0.4742317731790948,0.004076857030360044,0.4280673506080299,-0.02483557340080733
276,0.03351969755108164,0.05056792393831715,-0.10641244581202072,-0.06907138359795327,-0.019975510200383084,-0.02399759007711516,-0.23852335792572787,-0.06196191818786451,0.017906188245204756,0.2643262544673705,-0.32716391723399435,0.008227678514234338,-0.28825925065931096,-0.021976095152646036
277,-0.06705015292313266,0.06589664149924593,0.3785182413546617,-0.0005667873087418507,-0.02038339313449686,0.6267263846512595,-0.3685543344246943,-0.04559879783399923,-0.025607745434303227,0.07309387310425473,-0.2268781127046775,0.03706944130206322,-0.004794615172552356,-0.055714472207641544
278,-0.07368476688098305,0.028941434780602217,0.010575179620821884,-0.026253333770162687,0.04895731412222277,0.21753137727892363,0.02521545248879592,-0.07309823565540637,-0.009878484294981522,0.041142961084776955,-0.17362752848880542,0.0035587384167436627,-0.4644365474571501,0.022317264866682483
279,0.05736756840752394,0.12975331026353779,1.09567844012524,0.008165822265090522,-0.05470764896205771,0.3917705013811824,-0.22851241317339688,-0.04978748627037584,-0.027485088433713552,-0.057559725494822946,-0.10608198670843808,0.028565944427472723,-0.47192671388161467,-0.058812623838005465
280,-0.09169036367828509,0.004314814578961351,0.05670878773024052,-0.0309879938858601,0.04952357228657009,0.2814763917769994,-0.017584692608446865,-0.10455514763532525,0.002637022210314685,0.02042692858274657,-0.19035557051975993,0.009654009602319602,0.23163760851159168,0.03006592650158952
281,-0.22880562152709435,0.028340752626230273,0.039407878581917466,-0.03147200629907304,0.01139008735115463,0.17203804131564132,0.014465473449468282,-0.09515299656469975,0.025107941836493702,0.12978268934329917,-0.23862894990409853,-0.0054175758349316976,0.2710094279682778,-0.0004107484118739263
282,-0.034335701797308715,-0.1948862263285833,0.8020297786659181,0.014989680781689468,-0.013981464596456022,0.34709802629962827,-0.19102055201803814,-0.07793043119302724,-0.05545055634524372,-0.07892043706854776,-0.33640807478132384,0.025225219798872135,-0.317199706671209,-0.024832213708132586
283,-0.08223091697934515,-0.012343213065848693,0.857847761424106,0.029865085459166024,0.050674762052892,0.44895046978193265,-0.11820690010554931,-0.08265118015376907,-0.0031842382529175053,0.08209864413180486,-0.3050357183215606,0.009798944076234994,0.23138358158153718,0.010171776513787159
284,0.36708978863726377,0.09503174181213395,-1.0657929869740126,-0.0624820953490174,-0.032793388419786566,0.22129888661839564,-0.3028316812013322,-0.10787876181636369,-0.03386117727309891,0.08706153668137821,-0.22422708398537178,-0.015220217916308001,0.36495566026180604,0.007010723176760533
285,0.13329183908347708,0.04659117324559245,0.5035149776705222,0.029398637199716776,0.052387594189007125,0.26337911830464805,-0.5818121941260106,-0.06274153825344435,-0.0014939707380785035,0.017875677522904886,-0.35263354517061996,0.0373619611845894,0.1296010559260523,-0.002934634839947506
286,-0.04632071063848092,0.14407086635112143,0.698189687021111,-0.06524980385931275,-0.029716161115083618,0.2120622825362389,-0.688831459547874,-0.10012713590299616,-0.02557900625076564,-0.1091793518695599,-0.22123835260382457,-0.03373331462798308,0.5459117219713394,0.029032279636958695
287,0.25913725696954826,0.10492187459596661,0.6505194500561332,-0.0018332574286732406,0.06741342695472491,0.23520157831408126,-1.1258362191592228,-0.10260549900037673,-0.0229983860001608,0.061376681187280256,-0.4909195397515058,0.010539517466198165,0.2857163111428322,0.02250064040226236
288,-0.02818446358230542,0.10968844845150527,0.31094781967694807,-0.005941932287766988,-0.040762495455053296,0.4062754972490866,-0.45247070347613205,-0.09128520138959158,0.0007030431628409772,0.07229486382876166,-0.2969179574537058,0.018061677961571994,0.11920091555499875,-0.018131914259435347
289,0.07129092427197845,0.07517495973539239,-0.3999618138868172,-0.03391252212675519,0.028196689344102032,0.2352228764018241,0.033611303843731656,-0.052124385198549776,-0.04323104126448725,0.10985034559916146,-0.2849279255153018,0.008593484453157961,0.35371799522653735,-0.0024834408199682773
290,-0.08578074120041644,0.05426583399535786,-0.6092034675139997,-0.030391592046967092,0.051849847324195696,0.47481424713409837,-0.06659671806445563,-0.11074695275716848,0.037322642435082584,0.21937496711642263,-0.23463071428896937,0.03679061478371631,-0.049787314122744286,-0.03355637129406568
291,-0.08562406371746067,0.17167017666368894,-0.19435150176327,0.010568281153833944,0.02553868334073297,0.40813916530013555,0.05060809327214083,-0.11866205323648125,0.009523847465608797,0.34580381226131834,-0.24702920573143283,0.01433154149073361,0.6342346838881376,0.010892076905088761
292,-0.4457743670061867,-0.02257083376906035,-1.013557908586905,-0.04769114360561583,-1.3888900590562072e-05,0.6454138506841793,0.1581359774965874,-0.06238311857074443,-0.029037124373276792,0.21254675908158976,-0.1545257222404821,0.05798214811664258,0.15040414610793,-0.015236162936476796
293,0.10029451017487495,0.12772997731958502,0.8507447683353827,-0.024228282392123143,0.038352754543362545,0.5373193616045985,-0.24641077013313906,-0.10598998838982429,-0.021858025169283552,0.036888432138904186,-0.13841818984859156,-0.002944054976728873,1.124161125212792,-0.0029355904767486146
294,0.02867837030755893,0.03876186316044575,0.6935855454508172,-0.028951540457978833,0.02748152999758619,0.4224646228668153,-0.00967664051949815,-0.0830401767294595,-0.004744513099002881,0.14437406652266382,-0.2007636974477874,-0.013297114561317084,1.5397019931966718,-0.019939177609332323
295,0.057607040116453734,0.0620232683692688,-0.5032341527486341,0.008436372507397594,0.012165066941937693,0.03028665016404916,-0.4084258203660861,-0.04836853385460699,-0.03989123118484484,-0.035819049080928964,-0.43211400096430597,0.01853024146974129,-0.19471753488888272,0.024733410915109666
296,0.060589223168270284,0.04879350174383657,0.4359090435930556,-0.025376823404206605,-0.0012681260291039498,0.43172649127343826,-0.08489859319950835,-0.08104200190037403,-0.07619649807902885,0.03345098116935123,-0.10024234205036747,0.01557737102708421,0.11326271542169736,-0.006844545246759662
297,0.36289069341559155,0.10964044825382786,-0.9704710859825132,-0.03276699497568189,-0.0055223660716142665,0.5778214325243166,-0.26261591393927336,-0.0703644867644097,0.0351402518816084,0.18490910307331904,-0.13281449131729542,0.045242549319888,-0.526222102129159,-0.030667879740317573
298,0.17405043703650552,0.0980115707427463,-1.0212566912315706,0.009459683357562448,0.004960902962698742,0.15654797609718224,0.12060036772050793,-0.10133404893899367,-0.06653292121781564,0.3852846909478631,-0.4878677400575936,-0.020897013548906426,0.08907806819856579,-0.007780874627502404
299,0.0488263682557456,-0.05425902824082342,0.47300211940617415,-0.02521776459416268,-0.006945112234772684,0.10662996876622706,-0.2897650637279447,-0.11249155598354466,0.016499104554179297,-0.23145546624096974,-0.040810549363593296,0.02431392388873692,-0.4671235123160153,0.0038731096122899406
300,0.011104070787327947,0.08090411498230556,0.0076812893509027175,-0.016300817332762868,0.010897284934426512,0.2853253121770383,0.07585218997971954,-0.05929950905212142,-0.03519647283512233,0.16457125196031713,-0.17496190046222715,-0.004519821339945818,-0.07990488649552759,-0.014004689618686006
301,-0.36909287047175027,0.010752703674511132,0.11888097175743734,-0.03781565488110848,0.0022053480934321225,0.40289068758953633,-0.3448708835741039,-0.08369928408700847,-0.005134606555430958,-0.016367236994624945,-0.5876815033984744,0.025488254624334038,0.5508824581000913,-0.018328218771314398
302,-0.06999312658005669,0.08914823309475392,-0.04120198236637168,-0.04166000433508642,0.002097104830393319,0.2082558914605789,-0.05290365862791857,-0.10117566736130898,-0.02669509547152473,0.06568740964715147,-0.1877672501943091,-0.018568003831919512,0.17729686311338988,-0.009215066255880672
303,0.09118954270520924,0.09240295666046008,-0.27648355059006297,0.01202815290428877,-0.004887037603373163,-0.19245031243229943,0.6267278872753423,-0.04094419699055732,-0.04550761245566272,0.047297869350964,-0.3633852713222192,0.03476335444283819,-0.014733524804692824,0.019696625302835127
304,-0.07822013489877744,0.08685857003364948,-0.3342821536336854,-0.008479628493144889,0.003207489101078669,-0.4594549033299179,0.4227890505800119,-0.019474011482422615,0.011139311929479923,0.025420294811228594,-0.3352774550731029,0.048397422981223834,0.01724469678450613,-0.0020591212702593675
305,-0.05162561065985394,-0.018240109704526775,0.6984787513790163,-0.0023830534140759224,-0.01719306553917649,-0.19468470171904273,0.2115206960683434,-0.07499836946854922,-0.026873423282868396,-0.01355324046121148,-0.3166667413764004,-0.0069683207938655845,-1.07685154445192,-0.06481526410215191
306,-0.21737801552185404,0.018309311071375747,0.47747299232192436,-0.040186250182961666,-0.011278379600939751,-0.3171203573459831,0.2792951165366526,-0.07865337301313419,-0.028826315025213784,0.01742229373126513,-0.3108577417341942,-0.011667601409122017,-1.1018617044177406,-0.023742655657068977
307,-0.11269067091788482,0.03460442192146854,-0.4794304623092396,0.024384162074696222,0.008007647767750327,0.04118448987654483,-0.40778824616440096,-0.09189131076314583,-0.026952365772664046,-0.0009995409586304183,-0.17101478378411902,-0.023968839062525706,0.5105823135422998,-0.006247237281097051
308,0.44323127598823203,0.16669465648017945,0.46737806944387256,-0.0661134773244187,0.042947168404033224,0.3016460870574079,-0.07010137887601561,-0.06217710063856296,0.008258754479290156,-0.00975970425806931,-0.3315861013601252,-0.0003852853601200787,-0.20125929753292796,0.021928389080303756
309,0.1881174136148845,0.11026848282291243,-0.2258826694767739,0.028376424883934936,-0.013267902185716107,0.6239882048216437,-0.3291177288849112,-0.10480094089755647,-0.010289744044970784,0.06080724498894688,-0.051777283352754944,0.015008356240408496,-0.20935418930774902,-0.03762738318859028
310,0.2348873182656087,0.032721803409286127,-0.32508564375839744,-0.05537074543424303,0.04679831710427054,0.3881308019462179,-0.4108079272027376,-0.060236508208746015,-0.006308346113355276,0.00301140296577615,-0.20617962217454056,-0.014006558803130223,-1.0502437876463806,0.031190953151220127
311,0.20657860802042463,-0.009992469353825868,-0.9977706194758211,-0.007281667209469406,0.016816979774207045,0.3923371873798965,-0.2367167399825323,-0.0637069241381437,-0.0610247680821708,-0.030681380292903182,0.12744276134852714,0.02613908391259028,-0.49916243727861875,-0.01886375557332995
312,0.017459649917741515,0.10365862235375488,0.15905123242598473,-0.02881925796878572,0.011356893931758297,0.01300525679500622,-0.402216120553566,-0.06572456478291659,0.020808774323011103,0.18229811935831303,0.01983298830647735,-0.007398001638532881,0.8499556971826935,0.0030124539723550697
313,0.2845046972350641,0.054866896634490736,0.3073717599819772,-0.03764080893969826,0.017894675745239536,0.07106321692863873,-0.3878706310517552,-0.054193103731350195,0.04555599191599431,0.1904620725262116,0.040673892964491316,-0.03320615831714823,1.3066193022320765,0.009122150096635508
314,-0.3868124683193682,0.08162745577094493,0.22493151433683997,0.0030550549523912784,-0.022849645837416686,0.20950799630097017,-0.14088279476969565,-0.10143281348787142,-0.07565352910130653,-0.09651906537259178,-0.035370917834532806,0.04536605016245766,0.03145603532214838,0.010754227623802293
315,-0.4083282107838666,0.059328900580737864,-0.27519388709235065,-0.0685484780604084,0.034858446388334824,0.4065070542040586,-0.4013642763649517,-0.035356246489348486,-0.02821833881676036,-0.11564632925379759,-0.2174508840054962,-0.009142471594703168,0.16439686359801944,-0.0490467216666636
316,0.12323622822856772,0.046259535358478376,-0.45695254414130937,-0.037145930533285604,0.0332302210321061,0.29669955741146026,-0.09773683704101206,-0.038842411831952806,-0.016464625564232817,0.06476880542407337,0.038669964787223704,-0.013499951868181682,0.6553544883077936,0.036341632387250994
317,-0.010689471171850429,0.0933464137759879,-0.6217450014731178,-0.02441176419324563,0.002157480740618379,0.12102769978028927,-0.10328043335729493,-0.06110704553355434,-0.05332237463536106,0.013724974806882215,0.05982488272898252,0.008854627732332102,0.7350977627227202,0.056900756020194294
318,0.5103582364289379,0.14240170662657653,0.4396183706200468,-0.0031264975958906482,0.0018090152262448759,0.42506182808640647,-0.412654431114152,-0.09499248638981367,0.0018730642303189798,-0.2213397690641251,-0.20422562632415528,0.023898515692748253,-0.2917438888115307,-0.07841217740953621
319,0.04148456503103087,0.24650849345876483,-0.5107992491127484,-0.003197549328727095,0.029064695468401708,0.1123151654905848,-0.06256740929463778,-0.07627444710574514,-0.018304072859930288,-0.021597747297156744,0.006565730498224058,0.03238887654788204,-0.006757657529367363,0.042691606387984346
320,0.20504786249344964,0.20688644281412447,-0.029690768298759468,-0.037537709132493324,0.018595502764047395,0.3425256501154156,0.05380963508166875,-0.0668039836543965,-0.017553346652205114,-0.13928131588694576,-0.3033362236920013,0.0036261148185682372,-0.749629383366613,-0.07038285268870931
321,0.29821015930766887,0.18002550734751116,-0.09851858039353277,-0.0304103724350111,-0.01456866728485577,0.22597633348947244,0.004641076767460228,-0.12890310093367388,-0.015306470901299715,-0.4027826966344075,-0.18098255498994284,0.026247996018744443,0.15008937286561239,0.04506519548037351
322,-0.4324143009179631,0.1070301470873317,-0.5761611644404447,0.02818581264006549,0.04041827236721298,0.6234219346666052,-0.30045227950539144,-0.08099017081141904,-0.026612691546834356,-0.4207178938977157,-0.37634122135324466,0.028457102536049488,-0.3130867652577997,-0.05473207334057971
323,-0.5124046274435489,0.13342640452279675,-0.17514340120717842,-0.05771448381701841,-0.02930790233548081,0.1782186518793487,-0.20008341641775212,-0.09496562254190861,-0.0017069099810815593,-0.08457362349287345,-0.21867030791885586,0.011632178281721403,-0.08177258204535554,0.03254255075967484
324,0.1767521314586907,0.1455406011168464,-0.16457419889988253,0.0029280932212177035,0.0369208355565316,0.48271204002849977,-0.2542319840697366,-0.0639417132919283,-0.02185085535397406,-0.0372038853652914,-0.24919205360941948,-0.018369075162485912,-0.22130655246890119,-0.06836872095604357
325,0.009127983130924167,0.042045733874119084,1.0092229437538798,-0.06324062144792479,-0.02054252425577173,0.297827670495593,-0.2422636421445859,-0.09998767800887656,-0.029080747610967614,0.004436635482202939,-0.19026773833241561,0.05818857371382906,-0.14459104523365637,-0.060036954280367885
326,0.4539847841166333,0.13449229076875766,-0.2957926637126511,0.02086081593060518,0.06135138537880777,0.283606571048302,-0.09062381961365998,-0.052611575922873334,-0.06503701859374825,0.032597811654769715,-0.08745002991211687,-0.05089340670449193,-0.41578287224732535,-0.03653570542029912
327,0.07749740273230898,0.04994983754362559,0.3040292514972816,-0.05468719710959988,-0.025152663967719556,0.1375227212448361,-0.19570871344460125,-0.0942637616260166,0.015456651250250884,-0.13147082324286702,-0.5219750294555247,0.051299769945791183,-0.9105540291525112,-0.03552684137908771
328,-0.02816007323665548,0.029226013324552647,-0.3219626521774221,-0.059680196343822656,0.004820248022901246,0.08935497736136662,-0.22477982725163237,-0.08205832020431131,0.002470182705221112,-0.12089329500282739,-0.19182710020054825,0.1122701218236588,-0.23340090703090244,-0.028815018569445287
329,-0.030267331639360184,0.05447445595438094,0.05974523222690237,-0.024512285212751395,0.039195189978884354,-0.2630177521206897,-0.21623931701611185,-0.13143552833446615,-0.02664152665858051,0.21701236146181987,-0.35346790803629513,-0.008853768390272763,-0.14768887989886084,0.0012707121248074285
330,0.1754919952030897,0.10770515528428265,0.0494105623458177,-0.0032454504850576854,0.019303458758200887,-0.11569725439171609,-0.17596640439483466,-0.11543187522271145,-0.044984821081765866,0.24905627311348508,-0.2383581469884441,-0.03343165496726401,-0.06650839590239932,-0.014222142672012765
331,0.17641434168763104,0.05554037099663145,-0.4374265782057185,-0.027209339392494744,-0.005790466762588563,0.2758131002794614,-0.244769763519356,-0.03672603638360153,0.007687507710499933,-0.01636537401576206,-0.2926984765758218,0.05681444440388871,0.08650252956428992,-0.010502958512485241
332,-0.03668212153797945,0.10082895725416202,0.5767916646399514,-0.038406857556922164,0.013573868956521861,0.285712157340104,-0.3895569105978333,-0.08032388675634013,-0.06710724618013925,-0.012096359842803384,-0.2495736132987203,0.027631087495839514,-0.049035635533434985,-0.048866283441688294
333,-0.0021672645637745847,0.11663481741523823,0.01394000491409203,-0.013429373587450999,0.029308415666034916,-0.11105864220143072,-0.23056901191441026,-0.09417333835293171,-0.06591208803923833,0.06162455248744195,-0.11556289571582509,0.039610717691207185,0.0263989482575146,0.021343079935421755
334,-0.02579135173990299,-0.0009934999940579264,-0.21489701021319646,-0.040062354491542634,0.009634033626795366,-0.18292315775022225,-0.49579724352811216,-0.15066721927351118,-0.04736255263114741,0.11252394351294706,-0.07421009159959771,0.006130375776737942,-0.1139345935260555,0.023420506993920953
335,-0.05264889144696966,0.10546652737485232,-0.2984295306776025,-0.038750311494539835,-0.020024484423176246,-0.4653530832945927,-0.39854086428540525,-0.06600578367641574,-0.012316429059946545,0.02553711077455861,-0.29901155869557133,0.003987348529649215,0.5519393227803716,-0.018386771616736186
336,0.07828307179560878,0.09381673101617334,0.3337346187179574,0.006893857310879464,0.008197685167325601,0.5988072877651259,-0.12852135199810888,-0.08498719730698946,-0.015157568807071548,0.14494848640248822,-0.16287343200329682,0.009536544657618148,-0.017772022176675527,0.010120400930981766
337,0.04165325093300948,0.10347313129334268,0.34742610754881675,0.008282708006521339,0.011362256900062016,0.5918300830920706,-0.09872479747228816,-0.08558214305109313,-0.009262462025004584,0.1330159487742643,-0.14473054401551844,0.00306997032500117,-0.05193663720154773,0.019011907910912423
338,-0.1246785495358646,0.0384040572678062,-0.39827028658024805,-0.02589201903223229,0.013544664474687555,0.18640985695512058,0.6071356035882907,-0.06397106369289793,-0.013107060945156221,0.042080137135839815,-0.2405622089734737,0.018792821245686295,0.03802514839741261,0.02629312435802708
339,0.05977212021048722,0.0669659793377502,-0.078391828485296,-0.02663208978557166,0.01352835844536827,0.10922318569220557,1.109030785756446,-0.11043573493197556,0.0055721453930339115,-0.09787560166220326,-0.179207834953038,0.013067636524471696,-0.2231253182854096,-0.052321402996881886
340,-0.038120359378435886,0.05797298619877358,-0.19246806085328003,-0.03978418661332958,0.025255693669700242,0.11667709015546562,1.0400626308128178,-0.12464220253263343,0.0050675135711477776,-0.004739783980324666,-0.25748859639015176,0.03230246241105195,-0.08493692191895158,-0.10942605763691483
