sample,celltype_0,celltype_1,celltype_2,celltype_3,celltype_4,celltype_5,celltype_6,celltype_7,celltype_8,celltype_9,celltype_10,celltype_11,celltype_12,celltype_13
0,-0.04062460507693528,0.10479069165567417,0.37769177471304516,0.15438133991828043,-0.005589512601858307,0.10026558925749494,-0.002430638116405123,0.1228850164585354,0.05192354674393368,-0.0468548279413963,0.28241884601115785,0.05344173002718826,0.04354167374583878,0.08054956795851846
1,-0.34606027593366806,-0.067820177734214,0.11766743791811186,0.12494582492186697,-0.02016723966693376,0.22891062486281072,-0.02159121032060642,0.13663615004145294,0.039403489893335204,-0.20925962284856497,0.22548991034120078,0.022008398586354797,0.10482767950230443,0.08920600370791194
2,-0.14087937043829138,0.026442812731518293,0.36282030107729096,0.13482782968894963,-0.012912754168298022,0.08932887323627624,0.0023405304797603937,0.12104492859582859,0.05325384615568865,-0.042694518148425294,0.12143547113779977,0.02223221559577726,0.17096539642453404,0.04240394284083594
3,-0.3558521331794472,-0.02280121845385181,-0.7274358174051638,0.14736592184403022,-0.0007684803373282188,0.11880113732611153,-2.7005746554045014e-05,0.12910395974401676,0.0272381666844478,-0.16092125806208363,0.10306270972084015,0.04351071054087952,0.15172396895991705,0.0538375379218637
4,-0.2561092968221278,0.03954429008431685,0.10171495075379217,0.12399919723370448,0.021278246364377584,-0.25114806588195676,-0.029638661366273713,0.15547077995261388,0.03650558399503549,-0.0776698992296994,0.21847217684050704,0.03934829226932913,0.08745380014149101,0.05578208360129297
5,-0.31134141232061546,-0.016521206348144968,0.24591562381801202,0.13915890280404325,0.007123701547722369,-0.21278722816789178,-0.02495852352624074,0.11515662193732192,0.016327238715916497,-0.06704753176256115,0.12238531676114585,0.018947004969849246,-0.3142665277995542,0.05998319417902517
6,-0.3639538193934999,0.0009605696818177198,0.03776543261017508,0.13045788604172792,0.025036116261365936,-0.3732565154709773,-0.10245899214746464,0.12540596864482537,0.043168461031819205,-0.051985649990528175,0.10830274259265074,0.015963731236513172,-0.19574448080931367,0.0839046379893371
7,-0.3380862864235694,0.006084269415540659,-0.004246788498446103,0.12225106793706561,0.0006891563666539073,-0.45835677840877653,-0.09392222896481316,0.11528391479315658,0.049478971596941784,-0.07267832884445061,0.08358774519184699,0.04858278311205398,0.0016291422310274663,0.04493527021490876
8,-0.3614348132974555,-0.00861119365972893,0.2853755600056863,0.12783638646790305,0.006680043224544061,0.1046871069355411,-0.03641740130043425,0.1357667115680672,0.03762756814828282,0.06091505719904837,0.0965151835392414,0.022259544141306768,0.1529183137677854,0.08925837016175357
9,-0.37925861968113034,-0.038857023160563095,0.13234672617866122,0.1443773865307543,-0.02084906781703554,-0.3110479824194189,-0.029541713668868937,0.09958696699712452,0.03697905280404119,-0.15609246524401948,0.28829300957159015,0.04744729011558496,-0.15859642683813446,0.09936236811444803
10,-0.23467796924780412,0.0303827876218776,0.2699773822096657,0.09639435905948426,-0.01168033887401539,-0.44818228095223145,0.03658083103142974,0.12687721227685086,0.021344414617252987,-0.17807980820112002,0.27787727034958953,0.030070172566599985,0.14956158895151928,0.12129281619813168
11,-0.4941003519092563,-0.019460692814149114,0.1763743360742556,0.13110704095659634,0.023131975640056167,0.12142450874304672,-0.14963786308408436,0.12675732515293814,0.02206545801881912,-0.1093332433306016,0.06359700332435204,0.06085331880956152,0.26819674085069733,0.04539884757805811
12,-0.04858582122513304,0.0003182393102038459,0.2377994456198343,0.11151242626583996,-0.016700773811634692,0.09963277917282218,-0.05467683836781241,0.10852643802062216,0.045727425381037565,-0.23178134759048405,0.33690428364391917,0.024299217706220937,0.021558531265061756,0.12325327399376677
13,-0.5909672165944304,0.024165065046661334,0.15932927921175843,0.10886035624354215,-0.0015882907775385839,-0.16796540971841445,-0.03885858444708594,0.10817313767122812,0.02503452034388465,0.03207219307011106,0.13357211133674485,0.03408757106777646,-0.3659451809935135,0.02694379952539568
14,-0.5420304799912223,0.03340443426632013,0.011968897642805423,0.10219341815065842,-0.001351998244830322,-0.166822111084904,-0.05080684589873121,0.10552027319280051,0.03139335691027441,0.03031419958991174,0.16995346575289141,0.02643184356076482,-0.20123878730531083,0.023942644049680908
15,-0.18446973821588028,-0.02624301756095585,0.15636643136349074,0.17127288450130104,-0.013406988377711539,-0.14456908924500728,-0.21191901309989936,0.09830482068879072,0.03184141394266293,-0.13887524571445245,0.12692099766822731,0.03383398269677539,-0.239923275310631,0.09775613291274111
16,-0.462164621189349,0.01935540286847881,-0.038442688311671046,0.1009429416593871,0.012260553867045368,0.21075525786432464,0.1080856123973419,0.16101714772489997,0.054414549101165104,-0.06979063777951565,0.14922073589671012,0.026053817770191865,0.32174643549138204,0.08689550171027359
17,-0.29341802245962956,-0.04873356207124893,0.30026034510424665,0.13539830933883276,0.026157552407574256,-0.062482296536000105,0.29663996843216384,0.12637646515631026,0.006114500634280139,-0.05840615198187971,0.14309346718787327,0.013476547892173032,-0.08685462379981033,0.07945498675733144
18,-0.6632552773727031,0.05374424822309645,0.14030752335721852,0.10199807850923645,-0.011932083791669837,0.1832240912379242,-0.17189153477363447,0.12654736481298462,0.029477935476451795,-0.028558051634786356,0.35686601447462696,0.047636410566408445,0.19273671582099713,0.06659183163266709
19,-0.30551538632275305,-0.0774253168886325,0.10983982726042311,0.14933775408560257,0.00010665558569146343,0.060499723396535546,-0.05994527480626541,0.15234344641337919,0.027608334728052443,-0.11835102627676627,0.14618281921342144,0.021858510856450842,-0.18847363402310757,0.1291281650190662
20,-0.29483599450902476,-0.034004657262921255,0.20509272518705496,0.15109094953828803,0.018642960840441338,0.17564101626299625,-0.16899149318966009,0.1490492129539029,0.030979242844386655,-0.1720070111721068,0.18464656328905002,0.016723219739992388,-0.20375642551222597,0.12528706277124665
21,-0.625603521712602,0.050652179650304455,0.1544448032140542,0.14322898637802953,0.003050505164945819,0.03102419499927009,-0.0030370108364774166,0.13389427799473455,0.03366791381667751,-0.013031130683815704,-0.0938444965625989,0.055429571828031945,-0.1257467293658566,0.055826088157477326
22,-0.15653871041353468,-0.01002971678128614,0.1480077827748896,0.13019612788686732,0.005288437604042516,0.16046146279366877,-0.07319916441228841,0.09292740334474497,0.01964616953097774,-0.17785497966054478,0.09855116888038494,0.019288870794348694,0.25074780375196387,0.07669226063851163
23,-0.23719225072990213,0.04928712405558926,-0.525129224694062,0.13156814882952717,-0.023911562359634094,0.1962127110470173,0.01905539816823609,0.11911979212536934,0.054684323113419794,-0.11549953847261141,0.14795293762137926,0.030818389856004914,0.30382997750564716,0.08668800286448147
24,-0.2979901670840421,0.03181440235575305,-0.1474908900370001,0.13998516833905594,-0.014131107384974058,0.07568958380921433,-0.03318544271176174,0.1246683585337893,0.05878072654575687,-0.11716982494993611,0.07479940769467668,0.03812837673595769,0.44206541996440746,0.06495930618716983
25,-0.2515967896380197,-0.07162972062840828,0.5965170062092052,0.1236084165022059,0.0032841080297569734,-0.011583195521460869,-0.08126777298432875,0.13350297342817652,0.05323292622548809,-0.3412202532495101,0.09048372855223652,0.014650387696763828,-0.11307855093301876,0.09318791378524756
26,-0.06135393147778233,-0.03788185142722128,-0.16416132315204945,0.08826039583997694,-0.002969783067450856,0.3203738675297245,-0.04612685914010258,0.10802665568434108,0.04752100192976489,-0.3433142617199059,0.12759538634193962,0.04924184113162436,0.4001747622222139,0.07046224847168683
27,-0.2986087407387318,0.05214575693394946,0.2987416483069534,0.1293321054783178,0.025743480388280914,0.16248081320278016,-0.02672884903805897,0.11739832426443086,0.02616103977101912,-0.4884366841420844,0.05922819953521351,0.046236573761660606,-0.2569673440472049,0.10151317296014158
28,-0.5336772288923056,-0.038319871799687336,0.14827281095764858,0.10985096019501693,-0.005449742700735968,-0.08898893412558485,0.056947623487440556,0.16596211970413927,0.01212784749023283,-0.1935995942955981,0.09703697083714641,0.04041255454378786,-0.705756416897324,0.11431947701238249
29,-0.3217751230769661,0.057518380229668736,-0.17230575106998094,0.1310274768289112,-0.011917101441278216,0.17865579784257557,-0.07009454475536556,0.16208732074944257,0.007810020714315156,-0.11064275307229099,0.1691411584747409,0.03619599164022948,0.14996368703821902,0.025865826406146666
30,-0.3308026236124458,0.005004305683515764,-0.0836498776272113,0.13579567415889526,0.02053333345414995,0.19115666826576613,0.26293810186756983,0.13140778514731757,0.022825794819621152,-0.1443650431485725,0.19711217187622246,0.05247694195001599,0.07267448025511918,0.07511489281518256
31,-0.37329898518191823,-0.007758398302262039,-0.32376285576979286,0.12708503973692095,-0.0010582249204834971,-0.03597303938137354,0.030173247066859615,0.14822528125054854,0.01438770708397826,-0.14026667179107494,0.18249846010671417,0.05577733816455123,0.14710633449467872,0.03906041885008515
32,-0.4411194285612124,0.0237312984765536,0.4767256791690571,0.09439478779222578,-0.0025400875050203024,0.11252727709201037,0.0023792538862887746,0.10221395687776073,0.0379110831535864,-0.0951629515384957,0.31990638007389,0.0001291140208509908,0.17079389849290616,0.0911109382355831
33,-0.3774749363251426,0.004435910712558644,-0.3275075771560874,0.14263761776028075,0.0048252586367005905,0.1786679633295676,0.009624124551356725,0.13006380749562177,0.044364145816220696,-0.08440439370560907,0.24526571639448305,0.021351902267937713,0.17931670741449127,0.0821310700957475
34,-0.33900324479143074,0.04097672717376435,0.14399991955914984,0.12260233561885217,-0.019160945220124886,-0.08033122508580795,0.06950711401458454,0.11119562854108084,0.03251805907454491,-0.2825790318627376,0.16063719722275524,0.022120721399484414,-0.15267579152909866,0.09304178200117244
35,-0.45517829168814217,0.06699612004277083,0.3138283241076674,0.1425784786975691,0.006039537330130718,-0.12605862389888906,0.44666280537305597,0.13144706445877857,0.027080494525393912,-0.2515898827936474,0.16015657076653952,0.04943003360460563,-0.12163314084194243,0.0793919007484109
36,-0.40166174217001716,-0.04557495800117237,0.213885580763528,0.1025007766275694,-0.004320747465805004,-0.19492453126222084,0.10760777885909292,0.08012001676896315,0.039095202755401334,-0.20108181568055314,0.22406922435001195,0.08069232802777389,-0.1360092158720721,0.0946133846918764
37,-0.3503772257702835,-0.024961591040276978,0.5836579386778457,0.1311278461765008,0.004681400654542628,-0.06148448621719671,0.007408459723397404,0.1188999480608445,0.03676958019566196,-0.14259768641537998,0.2756254182111872,0.03705566223059178,-0.12358575005578565,0.10179382738719364
38,-0.45602202402734965,-0.05543348032360037,0.1437308593651937,0.11379563499210238,0.041845019529489616,0.5155569682852025,-0.01931941627768368,0.0908417414575749,0.01561272561825922,-0.09511733055568086,0.2955209310363641,0.06156383386857301,0.812402520003179,0.05555361266297758
39,-0.347759057345454,-0.03468646016245178,0.3801738474260308,0.11560951883202356,-0.008873239782005608,0.2817838271662259,-0.18857074012614777,0.13503602306190202,0.04663658804940322,-0.10321092304773365,0.17654134316308154,-0.0003711694684183282,0.18019427646481212,0.14687071330663046
40,-0.3194488801893227,0.014615378377344737,0.2848169535048207,0.11044058177206391,-0.01632420115136369,0.08960833447378962,-0.12593979544163472,0.11276162499374578,0.0441761405758795,-0.15473301282442714,0.06678264696269881,-0.004358916181923276,-0.019559802371369568,0.14727129175375364
41,-0.46775566473054914,-0.015754857726391038,0.04102775140734184,0.13752600238483453,0.0337656085553641,0.08814190225443108,-0.33577847002838845,0.08710089986463809,0.019118485333968944,-0.031198265773272435,-0.026233488005888046,0.020472495104480598,0.41801648754377746,0.054678176632232955
42,-0.43061724101680127,0.03165779683881535,-0.2065846240448339,0.1224000377953467,-0.002250445800139064,-0.0018411811787001743,-0.02259167082594593,0.11868205895362387,0.0624411472774508,-0.10921124552232032,0.06865301964013748,0.002856263571546585,0.37355329970565837,0.08193828036026257
43,-0.4023304344359923,0.011324123560617358,-0.47926332184166315,0.12173367306434726,-0.012757762663925908,0.06348540462506379,-0.07938816458761044,0.09127582063440443,0.05059571842682526,-0.1455269471582942,-0.012888339105130089,0.006877247384396497,0.6984195014189746,0.05597467352853605
44,-0.29952456517739207,-0.041415324799440746,0.5199528432239373,0.12440452153142181,0.004242930190273254,0.297555506664136,-0.08245560883520828,0.15498360440341502,0.04262631554094427,-0.05430843662091235,-0.11063516399885949,0.028671414856203416,0.1998882821611821,0.05974611829947282
45,-0.44122776047583717,0.06777157524284244,-0.43369452351632853,0.12190417895404121,0.025543492000365077,-0.05296378915842797,-0.029540019982387276,0.09849535320546557,0.03311552605198629,-0.06384161815161259,0.27342149104140523,0.023112255554059657,-0.03624105756682805,0.07979057704634787
46,-0.438165445671579,0.040692094992288146,-0.4685042015300769,0.14425391199341575,-0.01781406848655495,0.008715808773538673,0.05208959588909617,0.10858648706678407,0.02253286640375729,-0.06963215132909209,0.35104611323661405,0.009103340065569406,-0.07516920677379939,0.0628690477716407
47,-0.1766857097092344,0.05610159795678368,0.7377309233550636,0.14118605220218072,-0.003136100760035226,0.05963081834904845,0.2605759182233841,0.14131259231599116,0.049192962576215984,-0.09033450774932619,0.14316376657235125,0.08034787153689484,0.4516352655264365,0.08362882922671921
48,-0.39506951512104227,-0.050505697287915,-0.09158641824459797,0.13557792452108705,-0.01692921914832339,0.1984777666977489,-0.11341385201065719,0.12249909062934712,0.02768119860590787,-0.1769765805514751,0.1705917092076159,0.045804542516665436,0.8080125060009568,0.08413241981941694
49,-0.2067738717510925,-0.032189798622420114,0.06935189741145371,0.14885966273711904,-0.035593427934240564,0.036601984990154844,-0.009236400991130133,0.1198693998965494,0.028511278115605075,-0.06225943710920097,0.20509845117758133,0.07078306782640009,-0.07678356851483893,0.10256716298513943
50,-0.13029833682765551,-0.03148288545549092,0.19384242097318807,0.1464919418013225,-0.039244514863147235,0.1204504572400243,0.003404801889181707,0.12290094571706879,0.022807208608244665,-0.051880823017602926,0.17291630284276355,0.07435290801998594,-0.19138022038040164,0.10824054349941033
51,-0.3709231186582333,0.0529028480479799,0.10877248667522582,0.14371581682097287,-0.021208204642045304,0.15584923523763144,-0.03250730284190103,0.1287675633824275,0.047671833984403944,-0.05378610825998791,0.15779177024527202,0.035968208094123176,-0.03844435597728151,0.044091664018265316
52,-0.08161022910952806,0.12111489031459209,0.05047137272522866,0.12702036051455987,0.012132186694897946,0.2502920297054905,0.17696554368657313,0.10770457729330968,0.011799097211459325,-0.1671309877560081,0.027751184017391392,0.0017535381631052674,0.0377585215484944,0.079408102704657
53,-0.3080484237057227,-0.028140186646294887,-0.16829984812565515,0.1108207391671499,0.006727495987558869,0.12483417279318659,0.1934564519428686,0.13448976889409625,0.038801508382877256,-0.07660863890886058,0.13044487166162083,0.028841382883448754,0.30106830586546185,0.08788384411667356
54,-0.32179588092816636,-0.04692887851698252,0.020529789933012597,0.11438097634032796,0.013080040956894174,0.1355996886325396,0.06384214500775803,0.14479706091628838,0.041827750958161665,-0.08749330940168339,0.09905691477424258,0.013059544037556155,0.18737043480283513,0.09023791187751468
55,-0.34066726413541587,0.02996656908321489,0.18096401937059178,0.1526271624680957,-0.0031923190643539157,0.07889501370979075,0.04876837485882814,0.10361640864240272,0.04558350518660114,-0.10010917402863047,0.16970174731926474,0.03692055798495353,0.33771815475030037,0.08884701207325155
56,-0.3144447922412069,0.07128437716478479,-0.022026947403950926,0.15984221866404777,-0.0027735082946672416,0.06730214573286392,-0.06877906334972726,0.10592593587392295,0.0019091985197725603,-0.05785730192795805,0.2551518849246655,0.058280383995835454,0.043794551994334546,0.08508203922456126
57,-0.3278043711736044,-0.16116688189966247,-0.18684982925994778,0.13406069514155838,0.03943329172605396,0.12694473780703153,0.16192438038089893,0.13153901488581318,0.046673271164948335,-0.20820606275662076,0.18543581212529986,0.02414817687745362,0.1702355991810539,0.045750128592361126
58,-0.3421638957414855,0.03985745870279956,0.04116279711896275,0.11162209094159295,-0.008657942360878695,0.27551207795456345,0.125402874544977,0.15550128972092014,0.017643043267761355,-0.07733769573479446,0.18521388986475226,0.030184096615676184,0.23723864194902755,0.10786484331611192
59,-0.39018518469899355,-0.018176108308396555,0.20703834270546437,0.11529304981482978,0.007445803145308827,0.17285156663988457,0.06189635291235888,0.15356743815982013,0.06683100119072202,-0.057556573029261045,0.17338469134595513,0.02961131748782824,0.23379023984066488,0.10140856034052745
60,-0.5492611353132517,0.02127249758150238,0.994923099975241,0.12178777501090302,-0.006249219058439925,0.09661235519663527,0.07944798505782232,0.13202062352875596,0.01885411136826895,-0.1900964357834394,0.24058219353931326,0.026583291583127135,0.2917155439087546,0.0627031294551899
61,-0.27849695444305533,0.005541592065312288,0.14570207903915172,0.1263594441718779,0.0009437189780517446,0.2972526443216121,-0.027500194271331053,0.12662993977986514,0.04966648042110824,-0.006154265117359231,0.21756489010670593,0.020586548133466095,0.3775884137858723,0.10457777843469888
62,-0.37538121410110564,0.0269882467828267,0.15479261324229868,0.13794993836939307,0.029546078505662016,0.5624080246166794,-0.10350852620878623,0.13033686312380263,0.03997079445503251,-0.06309889390301902,0.13443927922077278,0.025975771611196997,0.04410061837306167,0.02161194874940703
63,0.04321607541886065,-0.01658798964838403,0.46999474294180754,0.1174698834336704,0.03118320561796364,-0.05712173338790289,-0.030229639082769957,0.1175551298145048,0.043531619739440364,0.017786763842703324,0.15261134919052607,0.03965540330894895,-0.44717137289359926,0.12805414268334564
64,-0.013901850654236523,-0.00852193612431705,0.20664762855267993,0.12161885827704207,0.011218234515410057,-0.278088432432851,-0.03018686154842423,0.11213149845992469,0.034574023461192635,0.05704890712231322,0.18699175449030847,0.043808348481412275,-0.43283424826586503,0.11119638374324131
65,-0.3881700680452328,-0.05574749011019522,0.44570131956105924,0.13480585417757168,-0.0015207789703496988,-0.19168001531976356,0.1597820175623341,0.11884709106749962,0.03926179641819523,0.024743860980583312,0.136990906790827,0.06410092115659768,-0.3160730284418804,0.08763207772250023
66,-0.2875768096894116,0.08546609474610727,-0.24619623514223188,0.13323653466537783,-0.001252088594269841,0.17675753049285126,-0.2075280601652858,0.11856622122989954,0.0528647359748321,-0.11621033808061586,0.10052921450167845,0.010349640146340098,0.2651960574422931,0.051379760387703366
67,-0.3709270736566499,0.0398759105174328,0.35920138911179184,0.12072409878901828,-0.008768152090788057,-0.08431576726169122,-0.0347999179710052,0.10059192993546284,0.029790343809131575,0.005133708323386749,0.07936132037388657,0.03873460641189486,0.35079015828391324,0.18146567031610214
68,-0.20591388669065186,-0.09520406824278531,0.3973102400147404,0.13310543196437008,-0.0073173853119133745,0.18491060111566013,0.24285684657931292,0.1272459912378875,0.05049216706544691,-0.23746324048375458,-0.07734003721870226,0.016884134956140114,-0.3925238834799415,0.04091731835988048
69,-0.4201946167202979,-0.04480496113078677,-0.7209368212717955,0.11321257090228352,-0.02549472687524297,0.012458396052885687,-0.10601014744091361,0.15202323302463028,0.04872900831484125,-0.08909346807059804,0.1682702943499437,0.0594923453812765,-0.024120972455540374,0.017121530655876308
70,-0.567087415931662,0.03861264820138473,0.2957176807835474,0.1450490484297848,0.0006752786965052078,0.07644774378306209,0.10809402029654708,0.146999236390515,0.05825481629914246,-0.17733662174295095,0.09504968125852734,0.021501799464244502,0.43488874140660166,0.118033529382713
71,-0.37345887374508097,-0.00036229749690029975,-1.2230771386305286,0.09639598816311576,-0.014770688123703562,0.03860758975374501,-0.03017325061242503,0.15675794208684884,0.042773759875234144,-0.09041935205415522,0.3042240412911389,0.057568842540838557,-0.05550165510620127,0.08616848928197467
72,-0.3602024867390552,-0.0027940174517200825,0.16337838315822115,0.11346977877671591,-0.04062060601667055,-0.17068519234613883,0.0002508032453976224,0.13364200133403856,0.04529565121340532,-0.06317293188258641,-0.001256632377706917,0.019565344611693916,0.7985541744614945,0.10518075941132446
73,-0.228770222325007,-0.05280177754868063,-0.1139277509513137,0.12718001145774485,-0.004966534955597335,-0.04215021481579112,0.02841137892487439,0.11978789184564223,0.003808032061913685,-0.08607318612491993,0.1527597342701147,0.04653830772474852,-0.5777108133816851,0.044848413920056646
74,-0.2610855927569132,-0.027456233285223623,-0.02967134435082746,0.14336631434946762,-0.020890975940909693,0.3819003683428053,0.056205879513991926,0.1706590433569439,0.04893632436264323,-0.18061007694386966,0.15097430276599252,0.06055983130351385,0.11181269717891928,0.07676812155609766
75,-0.33623458170959436,0.04741666499597385,0.5655299799965847,0.10299140739268565,0.015444249514532358,0.5556744093999186,-0.1521933824262005,0.0871036133223082,0.012375986998710153,-0.11546964743570186,0.14882151568616298,-0.0027849831327456066,0.5396497524475026,0.09213429799560008
76,-0.21899094376243797,-0.046500198629956004,0.1440594559270533,0.11530194780797937,-0.015604942658337834,0.12411439988510417,-0.04579392840828568,0.13845511297449334,0.036336729945667036,-0.04089674777927826,0.13887173848216516,0.05454808407913475,0.08389634098442857,0.08818716438958443
77,-0.26515600562140756,0.0402496561638973,0.7597341928574722,0.1250744385806815,-0.021609898828594345,-0.19350432404772136,0.1771097428499116,0.10774414116136198,0.032759608616096836,-0.0844134446383215,0.36616629966916775,-0.0027856675702727643,1.4555539392961072,0.10062212385148062
78,-0.2904422296547823,-0.010504936461031943,-0.3749761363408465,0.09931487440424076,-0.025993250019789978,0.08556421472737923,0.03134211521834067,0.1233629356299021,0.038811224610148284,-0.12680273599464953,0.10693606643498269,0.041742707583898066,1.3754656778633412,0.1671513166955343
79,-0.4502870001856513,0.0791347895123985,0.1260126307034318,0.16700186167052936,0.02724558261746147,0.056526618611731666,-0.05728684835440525,0.09834634676574536,0.03041633040856717,-0.01747752021757735,0.13516774623260872,0.049690031580093,-0.23103888351587423,0.13934346995233288
80,-0.3923196878304,0.12072294206482535,0.4014104839528493,0.09311477483335212,0.03546807442603034,0.1774681593058448,-0.12752424125594095,0.11504839719887162,0.057052567571884885,-0.13443442218743015,0.11591709484901334,0.051728019520155266,0.3311966429596718,0.08326221548443741
81,-0.22552352050405042,0.08401820060530274,0.10618690787357471,0.13793444008705746,0.019377816116400028,0.205025518766676,-0.022426896075194075,0.11725975738085702,0.05053078176116573,0.07590434325096534,0.198146669436181,0.03696758332552913,0.4462418483314048,0.05346786260097736
82,-0.20987790689025382,0.034922080274745554,-0.10376063476851669,0.16149315209324747,-0.02328575268012041,0.09945833375495321,-0.0792010984875926,0.134308717937214,0.04017251758879211,-0.028774160411539632,0.16713127722049417,0.04433832055311432,0.1382086803096786,0.08684478815791316
83,-0.2781044760133403,-0.013949033364090022,0.4974645207991004,0.09250642338332235,0.020541345796048043,0.1384194294822542,0.0759882965128094,0.12309305097979617,0.020451431071929,-0.2097688382130339,0.18738438099209223,0.025916571644916068,-0.048260415991830924,0.11759050478467536
84,-0.4268627629474309,0.0763112846094491,-0.17128837101684516,0.10992659754851151,-0.014374605240137013,-0.00796488147867822,-0.1287555582712534,0.12348403710501372,0.05519918555739242,0.005848962991838687,0.23486222695188524,0.04792649014973016,0.1108311351886195,0.08995328611840109
85,-0.2778693522627596,0.002719743191419515,0.0466856439369434,0.11879859456191862,-0.0064704268063250645,0.06791468845283605,0.14620371399022009,0.13177865514554832,0.02802316786367649,-0.13457843293138091,0.2138980098247377,0.003558278249267758,0.31578187876825126,0.07062404109918657
86,-0.3240629388861944,-0.02285906777589854,0.25536767260455906,0.11620438031419457,-0.013252042221448082,0.015648521164256312,0.022886282646778923,0.11919862285623616,0.05134936516354682,-0.11143501923984316,0.2817016479497696,0.04247189645198185,0.16055487750107278,0.016911882031178938
87,-0.3795290585183481,-0.01083060776669257,0.45204089372157885,0.11501000620200541,-0.0143386833350231,0.09142997310024831,0.045239415495492964,0.11758531849266136,0.04332610954682267,-0.03929980837113516,0.255661894761414,0.04710925460170694,0.2223603238069178,0.03272166846931507
88,-0.2048014892943968,0.016907405261100815,-0.2415975238702985,0.12504482666983155,0.01634842130979047,0.06350255963242918,0.13934561512463509,0.10962685673108688,0.05949542627048228,-0.19798673404020278,0.2755089957619742,0.015373805571607972,-0.0762821918084149,0.05678062893687633
89,-0.2813751137326214,0.023712631230346424,-0.15723267377989147,0.12082377105596019,-0.004001614331979131,0.10995156784124006,-0.03950882299641909,0.13775685181155387,0.028522753071350496,-0.06615440022749687,0.1009245884519163,0.06514313555097168,0.604957772130965,0.06408735423543602
90,-0.44374936435046913,0.014660996222194259,0.3084085617727224,0.13083893190550547,0.00403273841052154,0.12366601080733179,0.05013983527855458,0.09949372904268666,0.05658284353231315,-0.2540455763234104,0.26779205132236616,0.04452409602915508,-0.13365265804231008,0.10476108253965176
91,-0.45806728057939566,0.03478035809427083,-0.21764771294749966,0.11645081141016721,0.011480326347706463,0.04830897772004935,0.12816944249057485,0.08015795448700619,0.047149694531814036,-0.15624569046423994,0.24071618751075483,0.040675824492488855,-0.08025332457479052,0.10801865966269249
92,-0.37364145630565926,-0.000261109433888613,0.2493367276791315,0.14977462140363168,-0.007388650585803009,-0.06713936673319836,0.01600672391073112,0.11097649452112289,0.03305539712205975,-0.026516038789135225,0.27495504968584683,0.04936169196097546,0.0801682795332757,0.11133159281795994
93,-0.4647042193302422,0.051218819676761826,0.07323743009490617,0.14592704815704796,-0.007701387845394662,-0.12065438843624171,0.1296089840317768,0.10528981118991151,0.04236585500482883,-0.07059701901775929,0.2699123274109509,0.04034551195374717,0.17591495262186432,0.1256839494205783
94,-0.329361245299476,0.07634511206361708,-0.10937788821159262,0.11567040958856499,0.008970014014258211,0.10719911569951635,-0.02788459401381035,0.1267732441526541,0.025312444072898056,-0.08118017445074673,0.22361921138569363,0.038777326568470424,-0.8862643012592953,0.10808489297798116
95,-0.14135590764568035,-0.06084936795428576,0.6182187434823602,0.1332123568178372,0.0072987665007567286,0.18979524857225152,-0.0031963182598814953,0.11528968058155802,0.026198096824168363,-0.23201703878795266,0.41755900804150886,0.04368064666501581,-0.05786790588821618,0.0899681417106067
96,-0.33176525654722333,-0.036362364973101836,0.8382654657389297,0.11510027095085305,0.009679432769903967,0.15100047967685495,0.015495837696064843,0.13795788198315517,0.04502413099838691,0.0017683674731291824,0.5088413747112345,0.05081241371981984,0.020534711527897914,0.08804440333678663
97,-0.06151902183832939,-0.048072089886038505,0.05996271328530408,0.1298938752811107,-0.014088408207791742,0.2504939391782358,-0.02766636230988577,0.13574819426584717,0.04077667728578083,-0.16516964117656707,0.5108900990965916,0.03165492105355222,0.18469185831272952,0.08354974929887374
98,-0.24934342893320344,0.044201347348183144,0.2569565943041274,0.10705991888976106,0.0106973801791451,-0.12724357722014112,0.014394070207887692,0.123714299256274,0.02644620040159047,-0.0680764740850691,0.06775758492126673,0.032124262242429445,-0.4512285922782201,0.08546365086489097
99,-0.1608949867032674,-0.06853673894005921,0.04250635020391826,0.15711253468631922,0.01364679046684287,0.27690989723982967,-0.022093175002420126,0.14554156400838214,0.026918323571638387,-0.11987007162991516,-0.00926148923806421,0.039980220237674814,0.5889983247283154,0.12542159027040814
100,-0.49448281667694743,0.05777823596653085,0.18799666854121086,0.09304868232247818,0.0065058503145846505,-0.05649429912246103,-0.49034521176536705,0.11993637094410141,0.03661857486176441,-0.119535893640899,0.07799414804109885,0.049593095646864774,-0.1136168292332865,0.10235546761779502
101,-0.5311782967345003,-0.023607037315545656,0.10571904812451476,0.12166107435955245,0.01760586431009817,0.31773279867163917,-0.4952428786489599,0.08776314419630286,0.04631400091057178,-0.1026002837760743,0.08992195806853234,0.02473487987954899,0.35571271479669553,0.055599160715161106
102,-0.19808621527200784,0.08793705956692907,0.10167630696920997,0.0944063061811933,-0.05106004879066172,-0.11790125073793517,-0.3748585069601848,0.16332884821639657,0.026096662797083017,-0.0855902411914399,0.27296679206897917,0.03984627241911087,-0.4207450158577609,0.10780382256475025
103,-0.3354081821401388,0.019407976166470737,0.22194611924452842,0.11247845663489477,-0.0015387660257226577,-0.3599109554124471,0.05861599321988573,0.14267149184248493,0.037169790221679246,-0.09373700705454664,0.22250282710867741,0.05548568727012392,0.3955313512653697,0.06749008360694841
104,-0.7712599236239247,-0.01137494340949029,-0.09890639206047697,0.11072794978791362,-0.03388256872468365,0.08461730920336247,-0.03847769807464404,0.12554318071186352,0.008492521244135959,-0.10899259354315077,0.35338774541741697,0.026844958002722307,-0.36106889318556157,0.08704230807009548
105,-0.27505036947051975,0.012566943483056002,1.5259471960897057,0.12902511447961282,0.015573777478220134,0.4623568330279417,-0.11314372957779263,0.13827975665166767,0.034404103510116045,-0.06318824651100312,0.10176691212884544,0.037291409519248926,0.7555899059064053,0.0860221486873973
106,-0.412088976005863,0.01041436708541283,0.1609501598605631,0.17821819013355536,-0.00020476374875017179,0.8466265362407805,0.04394515548098594,0.13819953234140792,0.037800439259643506,-0.13063722159031535,0.1752499189562345,0.0685000987585679,-0.15454895696274237,0.07951105316735471
107,-0.3375496623011323,-0.005019949370269137,0.21105743759349935,0.1717354925500059,0.009351631737981833,0.9545630395569596,-0.02395283504873309,0.1484876675760268,0.03909440034589871,-0.10669497699509095,0.12677682521468334,0.05896170454902559,0.003969299601390686,0.06958440107202861
108,0.043690269427893995,0.06274926998862881,0.012043588453705944,0.11503594697413307,0.04432417668584455,0.052150484963084706,-0.06758714952301367,0.09939151960848432,0.06522644077870808,-0.23871778299651825,0.3596024514885289,0.034748134804319326,0.45865980984669485,0.08291498013682669
109,-0.38033051288738456,-0.05133234663460602,0.17086792186646302,0.11846390010957743,0.007288247425138942,0.13037978644458623,0.09918894660150718,0.11964687412371683,0.0390937179673419,-0.10306412129143365,0.2105381736738169,0.03776099943315181,0.20573532570351322,0.08095328591536706
110,0.23479624732723284,-0.027035923459905374,-0.666194064790901,0.14140902702729452,0.04143092307947583,0.11314990647455382,0.1912100486641173,0.11804163682873353,0.06277976497256273,-0.3126176934703542,0.07307357731549667,0.05694921059274896,-0.9000166671782326,0.06000336715776383
111,0.189930212612224,-0.043512612573498845,-0.6250084222732387,0.14459796374702366,0.029578893801729702,0.06365767790053638,0.2082532339164826,0.11735658505326156,0.061365532424956126,-0.24989097260406062,0.07936554914671777,0.056925838124670426,-0.7855063187740723,0.045537487683608
112,-0.41868865505428327,0.02636442270673085,0.5755529212546209,0.10429871727322396,0.01767903419792203,0.2527912323088435,-0.09629150242116909,0.13875475988119368,0.02487795536303909,-0.24184384184440022,0.1981551188851941,0.013526831867693682,-0.44390314388975827,0.03772327991254634
113,-0.3683516560653435,0.043073861465923624,0.3419279394498413,0.1206826618793955,0.031713672930780305,0.1746848376625394,-0.14749012140444914,0.1501894668330205,0.017452663372346897,-0.1644011153962258,0.1920024885733336,0.012919071161962425,-0.3586989198981314,0.05820529928134667
114,-0.3544927345626167,-0.008325511872414206,0.2710160126343977,0.1292508329439722,0.016363107949126,0.29429893977870897,0.035372933143553754,0.1643553626343636,0.05030917294372825,-0.03112235060742656,0.0035607627321715693,0.03419214660968409,-0.0820573835277291,0.06745532187943785
115,-0.4471699364059142,0.02519497015584587,0.4578528261276994,0.13054590427464163,0.005651345505730244,-0.013306533273468535,-0.010027302886463828,0.13778147706990215,0.046756494476862746,-0.06619021891623504,0.17738329764266564,0.045916070146963375,-0.11653312128082073,0.08434891702487705
116,-0.4100546450341296,-0.037847218596566194,0.06134033238820937,0.13220042100851978,-0.005094065597119344,0.15252256665005476,-0.02411792081412025,0.13599617285298826,0.05740490360630819,-0.09418133205655692,0.439706986735652,0.038173254590539725,0.7425826832265351,0.059985700372216136
117,-0.32674168978741275,0.02851807291525989,0.44622746597473206,0.11861674345656754,0.02190657260871122,0.19097231468249493,-0.02564345353794248,0.13685282834216744,0.013184298635283198,-0.222022584098621,0.16260288532507655,0.024759076172308145,0.5220156056985176,0.04566438112704468
118,-0.27189678556121327,0.0702154268075636,-0.0011404380355590233,0.10269105759105554,0.016304276838581346,0.11641307453651793,0.022960913352442304,0.1356323385041124,0.007629717690499449,-0.19855829423099083,0.20085494005065554,0.04147724324822317,0.12865788638297357,0.0854773309104475
119,-0.3184187640723657,-0.11674743556846272,0.23007548275013917,0.12831467326768314,0.02264251850227947,-0.13830603126022198,-0.2505186346447094,0.1654649055574858,0.02032126578939456,-0.08541569189835767,0.18466303350353158,0.018125518901831613,0.128630442947261,0.0771921740052099
120,0.021261134048929015,-0.10706875153528286,0.30663500822964024,0.11857741181732279,-0.0014891083834683335,-0.2413401508787168,-0.27114852587866684,0.14210428860953017,0.04381278517452827,-0.12644536970323086,0.13828955763213077,0.04239465189484441,0.16699507068449537,0.0701727042569773
121,-1.0733814406397284,0.07336608053696167,-0.24681654030012012,0.13268819334646895,0.03872903257673334,0.10022850205799529,0.03390881688714896,0.10492431260302752,0.022664914541223827,-0.06312772394188443,0.25044847665903064,0.05927475745503081,0.043424141086360675,0.05404235031963857
122,-0.8847183010677595,0.044829313388830706,0.13327164725622828,0.12925121157874814,-0.0024966765545671437,0.3113449997298162,0.13027733645325215,0.13027668311301033,0.0572466632856915,-0.2226045757063521,0.2298687726791854,0.031565127329810115,0.22242545436236358,0.07934066371205625
123,-0.2880012285251351,-0.005305398097399766,0.05468393681571084,0.12718036810969427,0.004371300015481115,-0.07067604102815354,-0.004819384392624061,0.15695150230588034,0.0076060459816858226,-0.10270230630460639,0.2887341988765439,0.0568794880816887,0.09016649608266732,0.07148634580777485
124,-0.37214085443604494,0.07097798609637626,0.02794492619023999,0.11850490732475308,0.05040192013935844,0.15241969817200626,-0.32292514713366527,0.12303074220895978,0.04129768833285263,-0.15928187852203707,0.08876213385620074,0.04348773038314943,0.39299750661324556,0.10898458276519804
125,-0.39152998730211247,-0.0026120696770982354,0.10064327235919741,0.1254753684804971,-0.01371850255604127,-0.030111500444688966,0.040464191494767814,0.11633108442651802,0.034246806703756065,0.07430639394374111,0.16251836892264246,0.046124175862880555,0.21951018795088412,0.05266413979865649
126,-0.3276256841196813,-0.07247702448311329,0.02087660031726337,0.13546321308217218,0.0020537993022850393,0.3813950509757638,-0.13545936697305708,0.1474390230283611,0.04265583016564377,-0.29891025918967024,0.20023580662174228,0.032769142383392964,0.020531083043559457,0.10966303208024843
127,-0.4186669757788722,-0.07433016164723329,0.5425007498537279,0.1336453540025319,0.021804777126851138,0.6605489920219353,-0.058238309487377835,0.1361441638002418,0.03323887127510031,-0.11449836302832897,0.11178032808437789,-0.0015273053607613293,0.09800498602566161,0.08078663191776647
128,-0.2980153277284152,0.06374812382580272,0.10962453091119558,0.15139609884304353,-0.009092482194894792,0.1252888181975007,-0.012236617624341034,0.07794275255906422,0.03515771050643632,-0.027598653013595063,0.18459717712038473,0.05624622850010632,0.1863077001227156,0.0723546225784413
129,-0.23763174910982302,0.03208860476883802,0.061689038836842396,0.1560077826118612,-0.009229675257454715,0.12870389130347956,0.004323586111823402,0.08139578562021436,0.038563010917778855,-0.005523759238708788,0.1806257571301013,0.05197020644097553,0.02944260233764899,0.07523792385544407
130,-0.3678300021393549,-0.009073689840810124,-0.10752871190847467,0.12820035195778634,0.014448289237933376,0.004117723446703872,0.03323682487589315,0.12277795373806072,0.04663526399491594,0.08548854000233534,0.1904678817516762,0.05207133669683957,0.16194348125652977,0.055018504751635736
131,-0.32970573414923043,0.027268181752395364,0.12696659302981292,0.14428130385517576,0.01021128341555296,0.09083595112164923,-0.029859855213792284,0.11585800499882973,0.053429379716222004,0.17165882222402104,0.11784113887480722,0.05395258326838479,0.6145260305897898,0.06476589134023966
132,-0.3792381251789292,-0.013362356549510908,-0.199691752334994,0.16998654669463598,-0.025156611813388144,-0.0047936025206329405,-0.0881498145840767,0.14077826123566461,0.03450126758027686,-0.19314797763296046,0.11642071302885415,0.019100319536394475,0.3374886236889495,0.08667168473116321
133,-0.40670903271045,0.060737463493129674,-0.03800114626393509,0.12402222283966835,0.013092000337927586,-0.0272575826376301,-0.10414639307385377,0.10129068719321682,0.05383885587541483,-0.1599883385144829,0.16379016942572203,0.042439097290680836,0.35670331175732833,0.07262895513121266
134,-0.3249970055279003,-0.015273259429156279,0.20734383211766502,0.1340841119644358,-0.01932106467003853,0.04340745661126796,-0.10392387607390187,0.11760974890514787,0.024477239258718107,-0.13454242745527145,0.024869849871901203,0.023199406842135648,-0.1776790937575488,0.0839036973684116
135,-0.0009081892855867632,-0.012551560087715276,0.22392052154223013,0.1441185896080282,0.030140187069704793,0.09055402804344763,0.048601270083254655,0.15240126136014176,0.03800337319853552,-0.04177644420157932,0.13633049465009597,0.050532193459257156,1.3006201531693202,0.07313966323989471
136,-0.4780234219846579,-0.055401120758994275,0.4754646683355157,0.15846612597579496,-0.02921037626797457,-0.010772544216768109,0.044436728810487124,0.12811007896984608,0.04244570391913753,-0.16954592252420003,0.058117704169947625,0.022099299459462544,1.0637527369259285,0.08305315582086024
137,-0.47321092974447765,-0.004903362301512432,0.3160415491232898,0.15209949505643047,-0.019763360392780035,0.18243032647298657,-0.004106875462660687,0.14200560737685777,0.03195454536473109,-0.12682957846713147,0.1578642028960869,0.044575433046513895,1.749821603705873,0.07766668285187953
138,0.2838541462665313,0.026018612188770607,0.04293362042642808,0.1319087698225567,0.025005217714259575,0.068449476989197,0.11185532040122659,0.12699555205251428,0.042403717819436755,-0.08732219907844006,0.2795311914659155,0.04601814250287357,0.4610722348130856,0.07853798893170404
139,-0.38446202782982214,-0.029531309649962475,0.5218073999263318,0.11913750159874277,-0.011038479786534309,0.3573309271199742,-0.1958353437184236,0.14333965996644127,0.029765565024448205,-0.05645966592190961,-0.004136356902972435,0.02825888997670431,0.050866381449105436,0.09621489715431188
140,-0.3427062140968912,0.04032374017306461,-0.7626641331245506,0.1299318533433785,-0.003922738554208561,0.11505082009692222,-0.00897969356308625,0.11373658018905322,0.027869296905013316,-0.14355375941249857,0.19799686099827543,0.00551870514064474,0.12792987621759558,0.07181292936662034
141,-0.33244948132051566,0.09726375457460319,-0.1993117744170135,0.15007364793510464,-0.0065594423087816265,0.1410375316372642,0.011662312027990906,0.14601864157308794,0.03192046913031102,-0.019394852258625236,0.13341987048212584,0.015546435741896932,-0.03368799022824352,0.05626845011369605
142,-0.29033573229244863,-0.07020141707748019,0.9129361033049826,0.103106964335569,0.023290198982156306,0.6002477139693861,-0.03195160656754738,0.13934601791482576,0.02791326506566592,0.02375296268350614,0.2243533296940676,-0.005448229794653363,0.08235185778376285,0.06690785973419626
143,-0.3273559788650555,-0.0913489564241114,0.17244871957851754,0.1126232351463186,0.006085495053460648,0.23210908583153736,0.04699261566992156,0.13261644062930278,0.033670084868307124,-0.0985582112682357,0.17440777160952556,0.03234880973066195,0.1749651471943318,0.08737491914373395
144,-0.1627790855465034,-0.004140396722440365,0.13826233005268307,0.14100198479650966,0.010360094925905977,-0.08151366756925209,-0.10490802935975867,0.12072569988707907,0.013317240803339745,-0.2662218320663302,0.16222777554889908,0.046596909158904486,0.13789696883621955,0.06747254450617754
145,-0.39111059151912647,0.01012811587089569,0.10942899880361066,0.12149879198022254,-0.03210584286009673,0.0955208408905622,-0.0445906506746385,0.11404952070402663,0.06155405768471035,-0.13810966397170638,0.17825303355265762,0.03257311954982656,0.10417915163462461,0.08334507958688264
146,-0.33285372844773614,0.013243035241414288,0.11109915823734093,0.11442550531760412,-0.006369376031697907,-0.12359349684550838,0.007563693008771968,0.12297238111229901,0.04715179564870646,-0.04543558718853418,0.135337211004682,0.03752075528539428,0.16355935659890422,0.1116610304141836
147,-0.36649037332724815,0.07692504032136908,0.2239016322395853,0.1212224299112185,-0.022786241606349348,0.12821244520803554,-0.17015495109907738,0.08991373948958664,0.02574345031265458,-0.055424895635645496,0.08623764172009557,0.04555059253995196,0.08966923426152719,0.1182528222416801
148,-0.26856681728901666,0.036473128154885015,0.3046263483699106,0.11972388895772247,-0.019115037289352058,0.16621738650462595,-0.05950789612987671,0.08286946494017412,0.044887044157868386,-0.04942646228689066,0.1765310358622927,0.02106797839184731,0.31529977536720166,0.11215726285309881
149,-0.4454851504970039,0.010180704479046314,-0.05631083292575278,0.12186475629303632,-0.01349539141525881,0.12105575180616164,-0.12243700263070632,0.10325977446623223,0.03944922504178984,-0.13428270837300174,0.20472138618662636,0.037671499372293284,0.3268785923435453,0.09953533545998484
150,-0.1580940650438708,0.004246196777805824,0.1374471719293075,0.13532541952937116,0.007781091738359845,0.08696454022106027,-0.007224891226160214,0.13517126401643348,0.002902647138895434,-0.1265543250551926,-0.05097668043655778,0.03546074493364728,-0.7278082299543551,0.08539286788676444
151,-0.6373223274079983,-0.037594218037416256,-0.03761021112991614,0.13897719991991725,-0.017110641249991964,0.14784350376712596,-0.02939030597542397,0.0956282878973582,0.03374765776075134,-0.09679352345740544,0.09175464122695008,0.018828008542262627,-0.6179232027992045,0.10893816418415056
152,-0.6662821841028564,-0.04510888022580182,0.22865267301409486,0.15708953280356508,-0.003140289068035053,0.10117778702983912,-0.05022446188390858,0.1296669468032876,0.044967577026075366,-0.05257848239708556,-0.010768392701615831,0.03429363471294185,-0.3857242370457918,0.08956608077544248
153,-0.22636537416763866,0.017575661556452328,0.09407348474838793,0.10085924351805187,0.025581940365136016,0.13578244970928152,-0.39829286451755513,0.1546614688760824,0.05836848407268209,-0.13100185504892264,0.16998632281262407,-0.002836750892206437,0.17830438783247,0.05807941358229728
154,-0.4202801465716015,0.009391651460083009,0.2917257745819866,0.11381305896843516,-0.008638176120189715,0.02722447528597464,-0.47078749899034406,0.08570199474227701,0.009396432478392117,-0.17108980875007454,0.12088939800341968,0.008278653934249681,-0.5975205127662716,0.08080001847817439
155,-0.2831723563054808,-0.0034911582070065706,-0.19416075960402504,0.11727478042048176,-0.006830771017395174,0.05569952154332915,-0.6156094211066566,0.19336970339666332,0.05886828955849031,-0.19782689002365766,0.1685206717186512,0.04401993839250253,-0.6528250977491025,0.08517858393834622
156,-0.21781936953123865,0.07234046342003245,0.39524023606176767,0.12432876197401836,0.009268215947912025,-0.04943940858799716,-0.5659498613174104,0.1857326531714677,0.03376245287576249,-0.10588986074350731,0.08131920094862248,0.032537962733102464,-0.15883673535388332,0.04593756607929858
157,-0.3371883460643621,0.0692525175710367,0.20184081065320578,0.12411646923571823,0.01351007071173244,-0.09617824109890223,-0.528858296259083,0.18717335903879354,0.032676396768524144,-0.1202057814070378,0.05838527116392659,0.03732833001988057,-0.22579297107392224,0.05575076104535228
158,-0.10641852970103623,-0.013515572466914634,-0.06941784241562819,0.1233850810909284,0.0034127741335562237,-0.008928534015664923,-0.5598295897574356,0.1428012400522144,0.03528224140589122,-0.15764213635686103,-0.017203762881614022,0.05122409157235038,-0.28056130882372765,0.05418547957829316
159,-0.24589317176803005,0.03185090201282341,-0.3091826153945159,0.13468289267815878,-0.01419359678409466,-0.013963962857541094,-0.47893348232961386,0.11472311806027032,0.04520842240011488,-0.1385066354543857,0.011591476963168005,0.06371702841420614,-0.46185043644945317,0.03840762702780264
160,-0.1323276742324315,0.011863033274773966,0.015749950303068225,0.11445999931783264,0.014475327284239259,0.07679913456741376,0.08470094093091293,0.12926177881486856,0.04694296760173617,-0.28564670221287186,0.07878418528354386,0.015988451927243554,0.24821073329481066,0.09005716794528854
161,-0.17029061508208976,0.08500772869621337,-0.4452574933739748,0.1025253606725978,0.02590258498739383,0.09684111742753186,0.07164356199472655,0.10544065862191175,0.033653368717634524,-0.20870139467133816,-0.027822672208021697,0.018170639868848985,0.1872876072313283,0.06603412798395455
162,-0.12857440997704683,-0.011295803003028243,0.20892892648928985,0.13343668595119323,-0.022149147569390088,0.06303473617408094,0.1344517934527524,0.11907702749643967,0.03291533654130368,-0.10067340383198901,0.2355185964090357,0.030682645036266193,0.07296101425313133,0.036604757827215686
163,-0.34692232388872063,-0.11637531151570124,0.18162740752779735,0.09901719616269022,0.0545743043856957,0.0816762701733225,-0.08402135749658773,0.11625981193968525,0.026954078448032902,-0.22328204444935454,0.08214029046078589,0.039415861781168834,0.2143975168716186,0.1074685100510966
164,-0.5188871720216952,-0.06379268653188426,0.020606152596283397,0.10694334715297317,0.005510590471097482,-0.023503835049994374,-0.1150612547717606,0.14397380544184335,0.024270717303416723,-0.07200993357852431,0.14304497115685236,0.00994702389345164,0.06888176849515039,0.12206086826531855
165,-0.3369197292148351,-0.049943559224183365,0.2982644953128789,0.11835065146552462,0.01670688477397133,0.004229970200632688,-0.048103089645629676,0.1316573191589474,0.03148270729164727,-0.2068850228358783,0.18345229875427468,0.026143915511530672,0.1533009938723575,0.09373653275215041
166,-0.38581331049743395,0.05567961345472794,0.33276839960144394,0.12094726987822935,0.02982416095147519,0.0993014647655603,0.0613963758737244,0.11862610744542117,-0.009679687900511177,-0.13090804143069915,0.2411319315179619,0.006235497551591617,0.20229636454660604,0.096907992539666
167,-0.9679978532522225,-0.0394408450409309,-0.09070067595815576,0.13894171684172046,-0.003913164200978884,0.12282380590286175,0.0305745397748507,0.14262391902311847,0.026727418814831927,-0.01519900878843103,0.18915363124464282,0.026089860063527436,0.06800726647383733,0.07264213611106647
168,-0.7285115956267774,-0.008247126294203055,-0.42556943844269185,0.13246514228551928,0.008889310618498767,0.05687216605088623,0.012894174259750854,0.1484342505522756,0.020721375414732193,-0.09701816862727052,0.1581349092811646,0.014618546285699493,0.07426759377868339,0.07974663045175502
169,-0.6734096762274979,-0.06395131586043874,-0.36970058665697386,0.12057307721374672,-0.02916565289918776,0.07239064568911505,-0.12080866481642562,0.14273087068741538,0.02064579124931249,-0.16484816109208209,0.10554383208088199,0.02798840820330751,0.2384900153801151,0.03454730288030256
170,-0.6490600084034829,-0.044897671048310696,-0.34822171125261925,0.13497388897298648,0.002190105253184362,0.10787906468487485,-0.019300331363574456,0.12151310422972328,0.030294435843259263,-0.02851560299334363,0.06554303734377898,0.0113694998010053,0.1028910677240909,0.12122380890866416
171,-0.3151079607945338,-0.022300566334473713,-0.0013967538362811458,0.08833499513618677,-0.01725233983626523,0.329858473951741,0.0729002596897763,0.14086119907362143,0.03683257193626301,-0.1316586437781458,0.0334030190575794,0.04886245875374789,0.07030873883160654,0.01918116105229212
172,-0.35932209877319593,0.0033687469820735593,0.11123686261859118,0.11711511297861497,-0.018156294808552617,0.06361697406667477,0.07249195253081678,0.12256958701805593,0.05840537741501662,-0.01383474707483405,0.1603946808434085,0.03270254055405719,0.7632602908092423,0.08309742343851077
173,-0.13068148908452648,-0.01550142855638717,-0.13201583056768504,0.13145597372407436,-0.008138959596150706,0.4797807336594599,-0.28630144506814387,0.11772072179730447,0.026325276028670963,-0.09076217233284645,0.16557802882721023,0.0338917093968439,0.11193966924058868,0.06437507895469446
174,-0.340544950458696,-0.01905322488232175,0.48383626880168557,0.13230075250354675,0.00563747375468541,0.18902124184571378,-0.12360752067092046,0.13808360832053837,0.018083644652262254,0.11335486844037473,0.16953409123096821,0.03954646784629169,-0.6973154774598638,0.08059491077719344
175,-0.40288765263682635,-0.03467117551546641,0.32180754991629973,0.10779940350648469,0.0014112798423730236,0.07425687523835964,0.10010377971404309,0.11299833199680907,0.042354796590377414,0.0663995995215498,0.24429099540842525,0.010852883366668087,0.11193507105863099,0.04266543402268848
176,-0.37840784828636237,0.08646694635326549,0.37093043424003874,0.11012168685091252,0.010719660985300063,0.12602365362984727,0.03785191026092724,0.11076935140270101,0.012886121096154585,-0.09361182090727865,0.19987571682030417,0.030036890863627187,0.20605558210011854,0.08097691454982996
177,-0.29891360758357227,0.014728516310736687,0.20920549318424667,0.13939026992510484,0.013793096388213938,0.29507111797147373,-0.013563745847453524,0.13146892986736203,0.052947794259450794,-0.1350778563518749,0.07355071939764601,0.023233620436259126,0.7620788950369505,0.06129717439810587
178,-0.5445159305975009,0.05563754229056004,0.21158485761088075,0.12609228259291466,-0.015373638686091444,0.03735185316743238,-0.0628347969279771,0.12194957622402075,0.040292991063636346,-0.09282098756977833,0.16981383493571373,0.056290970645972355,-0.02857747872228584,0.11774150980089688
179,-0.22446339411652486,0.05406081348070916,0.02429287771815522,0.1446720037675452,0.008033189153316758,0.09888714761030568,0.0358250803994656,0.11450678736954163,0.0702936005501541,-0.21288451804141606,0.18462512697156794,0.03896435443835946,0.2798367746462599,0.07049250227265479
180,-0.33368173483630287,-0.019901410143486297,0.2336247225177587,0.13924603135535715,0.0039829974294344,0.13351740838939477,-0.03728442178434359,0.1480964744556123,0.012953579286424238,-0.01831504724766678,0.21093574259089365,0.037110642221070717,0.11795852224700816,0.1044701418201353
181,-0.3941270330536327,-0.03573222904817446,-0.32813435783339695,0.15417938925767458,-0.02404796435097553,0.18698984678525207,0.0001240467657394652,0.1725429966334872,0.040462936816913854,0.021624656084555556,0.20679491292734348,0.05002345777969222,0.2010180679572664,0.11485855766757312
182,-0.3392947864162514,-0.04057542207986035,-0.05217794359078623,0.13945227917120476,-0.005250922640630838,0.13308045627973644,-0.1655851486513011,0.16102480458164853,0.02686235924208118,-0.02462704980160862,0.1583931216630606,0.0584000573250367,0.1943444145333435,0.10664163017066478
183,-0.3260374693857276,0.03074219741792081,0.3385901990780471,0.10532772262830546,-0.011879020401724574,0.1565048323621302,0.1773321597669788,0.10263420452346873,0.0364906349212729,0.002542345500125385,0.1453604566699514,0.008348488694113579,0.12701745189238722,0.07776678108759227
184,0.04229666411694949,0.024724630664309046,0.3431849780722571,0.14236562714904263,-0.00607757039613389,0.11152019256088351,0.03711113101316917,0.10558706277090008,0.03230345388082523,-0.06153642254879555,0.19933803334392128,0.050283826264723844,0.23327293555434853,0.09588642955868627
185,-0.34339216592239946,-0.016493499622348924,-0.1328948407659457,0.13948387018495068,-0.005271341598121817,0.07677013538643589,0.05075850463212317,0.1437212072244232,0.0681782312680908,-0.09472362716444908,0.1514021459107882,0.026819116015704397,0.20741243980182927,0.06606827346656446
186,-0.8130069940656323,0.004174701029363496,-0.6479750339190955,0.1325484575749726,-0.018369718029139278,0.041012168493161076,-0.02351233506437328,0.14945627157661726,0.06097969157702525,-0.13699118350638348,0.26657224717613504,0.043599301806914,0.033665743533355046,0.10992879651662271
187,-0.4181264753254822,-0.027664994175133507,-1.1738889536504293,0.11000889529721945,-0.018624283224289526,0.02775058849910966,-0.13710470586926016,0.1779608518290279,0.06030988306303303,-0.20450556685268823,0.2735297285566068,0.051700351924953904,0.19680443134785264,0.08951448311354955
188,-0.19822490548573757,0.0029734310040751763,-0.17509024344829296,0.10197051278873218,-0.011499009923633162,-0.07237079267465953,0.023839265645806303,0.16164983959799648,0.03226298186011598,-0.05590880182722176,0.2391080412755349,0.04926237954060131,-0.21735695015357853,0.09507431676619599
189,-0.2138143969200081,-0.0014007241558341387,-0.12246073045459178,0.10385564565292559,-0.010986679451698629,-0.05740568627130202,0.014889476737181096,0.16591567675047375,0.03499803521176389,-0.08037085386874408,0.24628620947490573,0.049507991087573776,-0.21660195116010458,0.09380530848747544
190,-0.6274981242008174,-0.05606615085292884,0.863639578590807,0.1216038654569311,0.001879090855250172,0.23329776173881714,-0.0793613716499583,0.10819713247567612,0.0385029516797449,-0.1089857399893428,0.2846787815926348,0.030892884069449213,-1.3627719534833027,0.07761798614956304
191,-0.3170026195984065,0.07537059167503406,-0.8296202909524277,0.14199270146346002,0.004451775264067332,-0.08318127376143837,-0.5209772567562677,0.10311385048912798,0.028853500004629738,-0.18938652143687182,0.14599494301384985,0.015832507500317332,-0.5331972189766706,0.057165619529883034
192,-0.2501961956224463,0.04714444298856821,0.15349733969294174,0.1322109946332677,0.01785260370494368,0.2842130101973718,-0.3799642688495997,0.10979544405750981,0.04719271577151704,-0.0784356503111859,0.18958034669807647,0.0320935654203722,-0.24146163638881368,0.08149902161424533
193,-0.4863488149879602,0.012506168900880337,-0.0008012582716508204,0.11531557983304266,0.004691890881356908,0.8205136792096416,0.09436182600113796,0.14868046302491703,0.04364241533637256,0.004857626043371732,0.20690579132631245,0.016070819771776424,-0.49065610614000743,0.08044211749120032
194,-0.2110785621682298,0.2324150555147675,0.3738494713662593,0.1310675255297957,0.0034844126963654337,1.0621701332299913,-0.23652008440420627,0.11189106013563252,0.06664564674558748,-0.07123000384280433,0.10360904916508669,0.00589603409137839,0.06131079491670213,0.05546977261276041
195,-0.14847596574717628,0.05320656412840374,-0.2340654535760327,0.14489025430464111,0.01951588647186981,0.08882776001458084,0.037506773199664584,0.15709143152273086,0.05961701262786596,-0.22900064146177657,0.2912772013831991,0.05706389706550603,-0.7923008382923559,0.11023311307991007
196,-0.4151688040410042,-0.054867899339271026,0.05382151660646448,0.12419664364089596,0.011710825870808315,0.098774492755677,-0.1392789732064841,0.1119059357094028,0.012878875215816443,-0.10241253357373603,0.24670851959062481,0.030365926992112068,-0.06086227197763726,0.05571177460605793
197,-0.3774663269476964,0.019826604610919403,0.3226909215316122,0.11089000950549271,-0.031465632669486085,0.06657533037744724,-0.011509248538181699,0.11750258929915389,0.021657608175161748,-0.1222299955166834,0.04478700409284428,0.02323173748998882,0.20437683958016917,0.1051367047709186
198,-0.3207133674517909,0.009211454216021518,0.08629064644422839,0.13867374877753902,0.0166642071822897,0.05930474680239437,0.011558824492270124,0.11053751471911,0.05078479125621191,-0.1664558702064667,0.2699570523041972,0.04742224625920424,0.2734573426670537,0.0685946044484897
199,-0.34356040317129694,0.008046098087737657,0.14775301852041142,0.13264046355931752,-0.024700910842125626,0.007160916424684287,-0.07448980425542513,0.12181069751293067,0.012253260820684397,-0.06739602164601594,0.10135552062743845,0.037060629871537416,-0.012779347690524634,0.11270111063098734
200,-0.2465736167408018,0.008929099990166526,0.08273830179582074,0.10318428541818309,0.0420540955777718,0.15794228395767074,-0.07206409726308842,0.156705016296267,0.030755732233405948,-0.15856151180241077,0.12679240104255343,0.043508781938436956,1.0096174798004207,0.05747684667173982
201,-0.4001166550034395,-0.036883451965201146,0.721392649565425,0.11174242853441536,0.025035125175914903,0.12320170753337442,0.006602162329729217,0.0972060380462299,0.01718932313789862,-0.10082535286623308,0.4621718148673084,0.028861894361196794,-0.07472708996518704,0.09378407623359271
202,-0.3158269545431626,0.056718164820560246,-0.9259923259589342,0.12706901523840886,-0.00211215861800842,0.07322509231223982,-0.036699775164045836,0.13334633096979925,0.04682780138620797,-0.13356773482541012,-0.0067043339839003326,0.020029814225095543,0.1929843366732299,0.08171284733586609
203,-0.3706438371540071,-0.04185607510808129,0.16988825074517852,0.14510001886755935,0.033039470052298646,0.08719724299128734,-0.043811405030136,0.09765998049893994,-0.03029262054524571,-0.07064925306882737,0.24921914733223532,0.03959253864189691,-0.44901642262075614,0.05441212277092058
204,-0.06808959272111424,0.03497364250292222,-0.1415359328342294,0.1440034901935684,0.030472316416574705,0.029172516860103876,-0.05063650497236551,0.1059449472010064,0.053300336572167636,-0.1033513039397219,0.2850759586246525,0.019416323664309582,0.41272590410113213,0.096266760396439
205,-0.36256466945581395,-0.052610776968081786,0.20764439991171613,0.10414852322134213,0.009026221987535244,0.07614962085182486,-0.052233512710451575,0.0932138193493515,0.006715501625288249,-0.1111780938912518,0.05856304119909912,-0.009920768615668185,0.1399257295001953,0.08891215795845925
206,-0.3487480267155418,-0.01033525420842755,0.3857516969988215,0.11748174347926686,-0.026966472774424342,0.19979502498801413,0.021817170826035914,0.14747188708485673,0.06861342807130859,-0.16931364126863938,0.0963413163112896,0.041285955858160445,0.16231869383565586,0.12134186598165941
207,-0.32325836149566334,0.00461068706467453,0.35207947406272283,0.10381839092962566,-0.004872466500872336,0.13780045626142137,-0.05553167864504231,0.12461138438752087,0.05192938552904894,-0.1294338741800534,0.04156946986097332,-0.0018020879104953856,0.2856822814307926,0.07936456382995369
208,-0.44973669613502865,-0.00011940795222004373,-1.6115832186452048,0.1569939240831268,0.017462318496207004,0.02365407912989924,-0.04417688556286906,0.14279067069652604,0.017291351727262726,-0.055806619921669104,0.09604938036292202,0.046454226871381565,0.29422825787044754,0.033008840367604604
209,-0.6698989981446717,0.005992143565179715,-1.909177970430457,0.15318576249844668,0.02396014771009433,-0.014711540522289708,-0.09033908908820835,0.15291288121548852,0.046557725342578044,-0.007490746418009177,0.12873551528301663,0.04646478309320554,0.43510404839975375,0.06340497499875908
210,-0.3477418944521511,0.006114685096280251,0.12856650398269479,0.15283737771266528,0.01816034635472978,0.030847019208482138,-0.07083128020121718,0.10982750130216694,0.04302541151074557,-0.05595103883536856,0.045577815027248635,0.020694458996104424,0.5644724248842528,0.12390390560256953
211,-0.3657625801839774,0.004293798930588262,0.18781220204823354,0.1303063029291272,0.026289398104043626,0.04829216139472505,-0.013669658493213707,0.11652680644833126,0.04399102507915777,-0.0015787604564397382,0.2045185266575623,0.03348140450154134,1.0773802118533617,0.10963093793033106
212,-0.18963591385470496,0.014993443494763498,0.14930835756188351,0.10102914352353692,-0.018586617294246825,0.21861794718457978,-0.028658586581696167,0.14764776420585835,0.0468568823960792,-0.16586649808125298,0.021837723197544404,0.055632990845883065,0.1587656550110884,0.05320177986355163
213,-0.4701433026257469,0.009027451379085111,0.4861185893487176,0.1408566266890691,0.0032910290131675656,0.16200538165352743,-0.02590210352741465,0.14135474721007005,0.05430561184719433,-0.1021172928247798,0.04302144999867104,0.055032533566884576,0.09987463454074504,0.10410304964766814
214,-0.45035053577919415,0.010762412347885119,0.5908205252838375,0.12101474461795636,-0.001691947671024284,0.03353565557886456,-0.10011357787825652,0.12899075782355354,0.05600776488258843,-0.1448318611145783,-0.0935404615901443,0.0517600964139147,0.08775590832601214,0.0685733115461906
215,-0.44086705984107644,0.03709559774411329,0.14665551492540477,0.10389716997577415,-0.014896245979429795,0.23832760121585278,0.06903490329028562,0.13692425299671837,0.04648787655557042,-0.02612552097138841,-0.005341504404252961,0.07224677264143395,0.2841604554390957,0.1125506815747502
216,-0.30894334762190917,0.05322188992834921,0.15372468848311488,0.09965229710804993,-0.03693805505112351,0.19437109692099896,-0.03736450560140859,0.13372274667895379,0.028953949281004514,0.16959948354120552,0.025588458473448802,0.05126004346534719,0.13458264886229723,0.05220753190732275
217,-0.35929472521955025,-0.010738154038355353,0.20063914509698022,0.14496175955912768,-0.01892682389914486,-0.00942318510310631,-0.029431180814510807,0.12036880990855474,0.026651531906845757,-0.07516844040229177,0.2956564174267293,0.06896468478728023,0.2065737681762774,0.041805546061111136
218,-0.3929786386478463,-0.027571455084326,0.1880678246596721,0.121309646943036,0.004627025291193843,0.2386091377223548,0.018632012259538255,0.12544595518332627,0.05705026182126047,-0.10832560199255444,0.1686990304857558,0.03409463814004614,0.1181834060181282,0.09602468096444616
219,0.21434143707158534,0.08006729156480612,0.12077553701116443,0.1109180227094879,-0.008231199135008301,-0.06153440808774452,0.010623743480118089,0.11630705332088029,0.042695419251085186,-0.07787845085135686,0.16868106770051472,0.036548633724098,0.14977382475724949,0.05356952034760374
220,0.14465522227720698,0.10111498014388356,0.17487217802158084,0.12225285119840083,-0.0050844021229937255,-0.13755009563078074,0.09117043339494692,0.12144589493214958,0.006323193427101041,-0.14784862247350342,0.22059569970802095,0.03738064179097787,0.12981940111776474,0.07173028667947336
221,-0.48912441828894393,-0.014401626130140791,0.22409109588688578,0.1524011782583638,-0.008626784255992021,0.33477423579436477,-0.012646000370629046,0.13747823550647256,0.04432121745729999,-0.05870535234922225,0.12202509948876035,0.02848667447274053,0.13523293069843856,0.07392870878596296
222,-0.19582142463033164,-0.014077572810127297,0.5905292485879814,0.1412975155240414,-0.0017128011431913417,0.046402433706687424,0.06265722792585703,0.11254474174016438,0.06080909636987185,-0.16336176545147008,0.07250282211716802,0.0558505939288058,-0.11027529916001393,0.08895372322157666
223,-0.32313353747430046,-0.018272590245617577,0.2840971119649615,0.16138286818846778,0.001706952927439606,0.25798853997099364,0.05828050426147823,0.09052097936025752,0.05715415562098763,-0.13905743471310933,0.11780192514133962,0.0415824781062937,0.05080992436174545,0.09672183443636845
224,-0.2925189573502392,0.06864105793599225,0.6089736936656338,0.13638447109966956,-0.021861193436435597,0.02661804194607302,-0.1540820574980673,0.13520257872625988,0.05257770319895987,-0.14995424910894706,0.22605848274458767,0.0633875975350153,-0.027683824284649806,0.0672762806528785
225,-0.3660220601700571,0.03333097147031101,0.349503868817328,0.14824682480400825,0.007115751718397963,-0.21238581942021825,0.08393809687895763,0.089129868326902,0.07436843346188028,0.01055039563335447,0.16117706153721326,0.029836952410015296,0.020530854408313145,0.09716121936232594
226,-0.3677033863887229,0.014697610193308827,0.5341399213315304,0.10356589358983144,0.017131232580039273,0.1324377907569362,0.07526977318079418,0.1565228654342161,0.027081754699055743,-0.1821682857291256,0.26899097489415835,0.06864818184756492,0.2135664897929743,0.07282825852957155
227,-0.35836011298482345,-0.08046265813548964,0.228879218513732,0.12548874516422226,0.022715961773933716,0.41665712052690285,-0.0741058105544873,0.12600454143314327,0.04361512761647778,-0.10136848982527003,0.1320700127875326,0.028058151800066097,-0.05461691745349313,0.05902133093765637
228,-0.2330267746647889,-0.005010533144491892,0.8543752719016904,0.1431707719666942,0.008657793359266313,0.06003193568343742,0.04931693172593285,0.14087978794066017,0.03364823385555393,-0.11458492742200445,0.2547953310649873,0.041469446460577,0.19486804573259264,0.11138351120775969
229,-0.4491606744868698,0.04211317431863843,0.9478213069474067,0.12279567931363536,0.02390079571518108,-0.05831549067405291,0.020964158390009906,0.13935236559797146,0.04988130278623445,-0.11091232355365453,0.2193056986682095,-0.018251954296208482,0.39377036873446536,0.05938221545722511
230,-0.3823024835604345,-0.03701894911820451,0.26047697858685026,0.1111982723762414,0.013919360432334443,0.10886716432215703,-0.1784549720782877,0.09507351930806623,0.03189255713983055,-0.017930651798464755,0.07735272457665922,0.03475241498831845,0.457412406936092,0.06082245499200755
231,-0.4665851295692946,0.0009332939952612292,-0.09875961371078781,0.11546047878901325,0.03334884854423105,-0.16512537751822087,0.05413472278827716,0.12551158003524726,0.046304477388845786,-0.11804657370282044,0.11268188266871433,0.04477401892411853,0.5561191352539172,0.10848520965108922
232,-0.375998339641712,0.017332241820351934,0.06934132022921519,0.12692376498822816,0.027344130489002992,-0.18336196549324313,-0.026676692235287108,0.11349219504644001,0.028496572970380142,-0.07261895764818481,0.17891973175285622,0.031089635690354868,0.10533796643020055,0.07913040258971249
233,-0.360115653973667,-0.004900940300984925,0.46688860819687333,0.12824702053630763,0.012090717237153154,-0.46189969359776695,-0.036047266564854616,0.17091473895860324,0.03201319214604307,-0.10527964026196669,0.22942129272282277,0.03780927321886855,0.2912372898485177,0.02460724934931136
234,0.5506959328600338,0.02733627330616427,-0.9182266436405,0.12294864819050216,0.007410239986346315,0.06888716771903851,-0.0993581690770237,0.12569803226149445,0.01956632458829843,-0.1206774785247565,0.07701840332242504,0.026510886717325443,0.08933699022478339,0.09598166677776457
235,0.6395905519655197,0.04383735811166506,-0.8804060227189588,0.13411932709923535,0.008733898363941379,0.06850177495030271,-0.2137927487880517,0.1191469433586196,0.0159067296794166,-0.07622167773253449,0.14699091900375874,0.027134139633756375,0.05451805979309582,0.10339736401268641
236,0.659125338604833,0.04352864992330631,-0.8704602310795131,0.13799682217176729,0.004310255585035821,0.06866644922385987,-0.18893769644680558,0.11403103106888304,0.02165905395631188,-0.01846069294504789,0.13541776372443137,0.02740782646261812,0.1587465945480245,0.10194477548289423
237,0.6843384435805239,0.013268263516452912,-0.6999478443899033,0.12834321694028925,0.002567322778464312,0.023439244891414288,-0.14411017456462452,0.11500198077361899,0.015574730331847204,-0.09659392553454399,0.14071559957580648,0.030059331235933743,0.10169537980381306,0.09088027875177662
238,0.2111507374773568,0.06412995184357413,-0.17076788426638154,0.147982976867739,-0.005892589581342438,0.07770089793688258,-0.04363261753354671,0.10781859473090975,0.009718479693764173,-0.09112009529260169,0.12574327139760638,0.018848057666060153,0.04550445904397512,0.08497527480267414
239,-0.26538211468406997,0.02586327621228409,0.015428744411782273,0.12207482661935287,-0.013755795092770357,0.12524190094109516,-0.020609468488667463,0.1219673621657572,0.03940931813931819,-0.20457549652317947,0.19763398772580112,0.037612639064192585,-0.15064514244341595,0.04881232143653321
240,-0.2671702503973978,-0.08845809623214279,0.25001155779434076,0.1216811160210422,0.023750634738773375,-0.08422564529061234,0.31042686997286345,0.13018496371735006,0.05230650701278226,-0.06544813625000276,-0.055299787363314985,0.03952449137222014,-0.01958309058409946,0.07882533233027995
241,-0.2200277460105408,-0.08981084367331194,0.2298938165510124,0.12573116211567345,0.018013260288418768,0.07764884637927225,0.38986266712698897,0.12764764216099195,0.05910020347226462,-0.031528699313149354,0.022357563662322673,0.03294942686755533,0.027239063132615187,0.08265891394883275
242,-0.34196882161239717,0.03372637354534558,0.05707707047800428,0.11777942281719547,0.017688884954052755,0.02242250499914245,-0.23860238468114606,0.12261028102501657,0.01915516771413177,-0.02968478630959476,0.08763967559160991,0.01887668607372696,-0.4419121786153728,0.07583715203639435
243,-0.08706373966555972,0.013753480774931905,0.2641881830584625,0.12574721456851948,-0.01747241940273597,0.4297014373412048,0.010973757502079599,0.11161760946115272,0.031877680601671496,-0.06723023590351439,0.1328189442290195,0.0425448733711376,0.042851469689484244,0.1116724752790061
244,-0.29728773196013936,0.023640619994554062,-0.025010205181461583,0.1266668024231834,-0.036044373884722876,0.44388405106672524,0.06421361693888376,0.10619959849194466,0.058142213648940344,-0.08061071235654327,0.2246109820263475,0.06281912613591178,0.041876356971563486,0.0684909575103645
245,-0.3509257661888633,-0.019623958161295894,-0.11263844423435951,0.12176342128059306,0.01697497484602508,0.1352218698022064,0.003912678077345907,0.1081919387465584,0.03586729476019357,-0.0676778069646759,0.1831324701735621,0.051585260325693674,0.35945858950704573,0.06366938981408107
246,-0.3439698099053011,0.04156116984062682,0.3358429920085588,0.11465145645869891,-0.031102669378127477,0.05657913101822847,0.01409840877709762,0.1275439184843435,0.011696330934875614,-0.10013743756810195,-0.04404685178565969,0.09570165370687034,0.35295604650492923,0.07554015925438638
247,-0.34889561807152664,-0.004579107778596912,0.07159881099881756,0.13996506391348476,0.04350010251993648,0.38497369360697936,0.0445186150642395,0.1108027472682039,0.03210328385008592,0.03460283711029621,0.1375786646321164,0.0277911772641709,0.21392784349874677,0.08818522126481931
248,-0.24953528905667133,-0.027853571284666576,0.9756401071383476,0.10885212250968633,0.008315219673832874,0.43121515026175733,-0.11645819739835854,0.12826776913106316,0.023228887361680557,-0.17987155392043586,0.13115565808138174,0.036101980084561225,0.012153205451257663,0.05948103538160342
249,-0.42450601253493,0.013251681659508203,0.05525748464683905,0.1267585532173023,-0.0019798240894081088,-0.10969012483200379,0.0232224266001596,0.14194380902028755,0.02536137656689415,-0.09002494997071865,0.18193468522117712,0.04762332581476887,-0.07215445557313506,0.13188732943024248
250,-0.3134392850980306,-0.015606295539062339,0.43576664682469274,0.14937984855425984,-0.02363486846996935,0.31356165584951073,0.280996264569737,0.14481694374092707,0.04739073332298487,0.19498973726519395,0.21829752495299434,0.025388618453915587,0.11213430146397114,0.10373779507823831
251,-0.46371813057159317,-1.642823547268047e-05,-0.026083399204043595,0.12615775954994485,0.006909741452274874,0.3257675680137343,0.3158410779953971,0.15270841815290614,0.021394197620506133,-0.015354858043329395,0.3328306098770555,0.0440531280562327,-0.6610754072670474,0.09161364121152006
252,-0.388513634447291,0.03434946830024827,-0.06234966421674932,0.15902907395838717,0.01117362848312325,0.11648091711352757,0.37904825551862165,0.12338804293260498,0.04386662438775023,-0.058051405360338065,0.22639933500912734,0.044557557281717154,-0.6294820767637791,0.06946703347309674
253,-0.33041821741451244,0.00670713475352109,0.2088826948986061,0.1065807825766041,-0.013017895232163741,-0.013143220540964298,-0.44900902590003167,0.12328086296429275,0.04650003515007247,0.04970982455222182,0.10853497926726502,0.02177314609268093,-0.4858685498880093,0.10032849260691123
254,-0.3437584192834563,0.03697883267716418,-0.08394347844224127,0.15464142074593487,0.03648500399199251,-0.00769908609594349,-0.07939342701403952,0.112611134567871,0.0356492352227243,-0.12913546871949283,0.2598983329167609,-0.004072284269706305,0.0447372269805831,0.05222544302598836
255,-0.3634727890896019,-0.028678950830495688,0.002559936545863958,0.12334177005913372,0.00605233303241308,0.13318700989320212,0.04090686395535718,0.08579048135288521,0.06232975012459066,0.0037250287793305545,0.1879361520956527,-0.014000850834517053,-0.10333052050990921,0.06664269596415366
256,-0.2877160518693406,0.021660745689439563,0.5802447610851496,0.14468155227826013,0.009259958884255712,0.12420431478856458,-0.049796415461278845,0.11039734621264176,0.0504810502729094,-0.18803772906829827,0.6008139837505166,0.039554769815757305,0.2971761644674312,0.0820736039738752
257,-0.2497653081689272,0.05744391115067626,0.2151809664250898,0.12991481910239805,0.0011590424321091736,0.20913335897215132,0.09255416812896314,0.10986641580794033,0.007549830835313939,-0.08697697098133483,0.43090271573582173,0.0357589212560055,-0.10869677161979437,0.03564228937504507
258,-0.24815422013647934,0.029612341668717068,0.16165241596554789,0.13314028878506454,0.0015156359802156137,0.17063626015747926,0.03655537774297728,0.13109130574504035,0.01643052057737288,-0.12360411679529415,0.42498714478336663,0.03589135397580032,0.10004468414740993,0.06351038343892992
259,-0.38349074384269427,-0.03175033284292492,0.26800121825779893,0.11285865525997914,-0.004927877353539395,0.033342358399057144,-0.4232467696633315,0.12182277601640205,0.04378665421264754,-0.08260563566704322,0.24810314722031312,0.038508113069665194,0.6771905058539303,0.09137052737476575
260,-0.24494937076844622,0.04017609406568207,-0.6255849754633485,0.12902647912233023,-0.008847208922421673,0.11728954528134276,-0.6249564197833202,0.10489294116248632,0.013198658650988123,-0.1769824718190378,0.014206335632415594,0.021307068207547374,-0.33210120169034546,0.0796357549903236
261,-0.1779137462742525,-0.011591776058475424,-0.7443041812772722,0.13648607381570071,-0.009025259556107432,0.02293742744194471,-0.6422631686248996,0.10224410206779112,0.033335391646500456,-0.19978395866247722,0.04995400614793723,0.01063736790492462,-0.4823167968342495,0.07219920226565135
262,-0.3558467392409558,-0.014438149172117129,0.1834687013673932,0.13412503306292703,0.006073755837729284,-0.058088613693033975,-0.32091636049233574,0.11556902620148968,0.014008650180127657,-0.10439436417954308,0.08091510552132325,0.013708574353365826,-0.1986478885390712,0.0838642322222813
263,-0.3650063346963454,0.005442149982383035,0.302767272962628,0.145110659693165,-0.0014305453469056757,0.2788200233086532,-0.11400637335433934,0.12305784080979118,0.010903301255936155,-0.017331916445458586,0.08710997075458433,0.022785627361957814,0.02611237204002863,0.09651183071598844
264,-0.39670497996786896,-0.015258561627963402,0.5338716791926604,0.11769507942149167,0.0016976321231088238,0.2133317335583263,-0.025093654461416603,0.12725529935125068,0.018030868061500654,-0.08101973144806465,0.10327840104148465,0.026856613595206365,0.23710758340754837,0.10848340460480714
265,-0.35599870339984707,-0.038035903893798184,-0.004319784121011181,0.1535670401151811,-0.000757603424723259,0.2623512194407127,-0.024629628747986874,0.1255639185615285,0.05159792892372255,0.031338880179679326,0.11529781575148866,0.023788139224097123,-0.24679020415274644,0.07515770452451292
266,-0.2311250308431996,0.025521996912165352,0.28959361999317684,0.14367829075152075,0.015757462223660153,-0.020224879470965244,0.01796959128606239,0.11526712982690784,0.03772199171248176,-0.1554300164989823,0.2027330808551393,0.04750663320735339,0.42828090823498133,0.06216328161981254
267,-0.28308306338358386,0.07120129505360667,0.6221682239874463,0.13347805406567548,-0.007473673015495608,0.1060565970660626,-0.030027692201992945,0.1205688288775242,0.031606266690979594,-0.07905042293816288,0.2662994798953169,0.031841478072330134,0.051973199591625746,0.10057557702106322
268,-0.40444783090937797,0.026569765088900608,0.0955241308944279,0.1322118170073618,-0.0298403947203518,0.09151333494325496,-0.07281183491881534,0.1107024339494516,0.044897933608697586,-0.12473697291823312,0.1792870839702444,0.018843955088845298,0.09067525092124532,0.057435689178305015
269,-0.37769671441390795,-0.005731534133207248,0.14175992734059073,0.11108121474024472,0.01279031782234139,0.2032632055909021,-0.025310249381634977,0.09925767215283354,0.016695622943462104,-0.09358780957994507,0.1408214062674591,0.03127920847442672,0.21945397238407988,0.11525825990645858
270,-0.44669109010784397,0.021124323548715882,0.06304381562436541,0.12254799081559999,-0.025894607974699703,0.0281404992277615,-0.04891763139150437,0.12047506026649374,0.002214358779254616,-0.1818342457399064,0.2057040487368153,0.03372741310771833,0.7216904307380603,0.0898340595921549
271,-0.3456397134865122,0.00898224903405058,-0.003955909031785716,0.1156677913485126,-0.018193644261071947,0.014316776079944788,0.000793557102237024,0.11660846618670245,0.006988619345621838,-0.14776625063987942,0.20367682501057527,0.035787076132582335,0.5212917721124248,0.0866408441369623
272,-0.3725369197334947,0.028685582167855748,0.3299288497903077,0.1381615488584584,0.02280543374630924,0.15458955849545986,0.04325511922672046,0.12321051564389673,0.028628454118141553,-0.15698804084574544,0.23617503708829843,0.004946655009352806,0.22623781372000398,0.06730589588906033
273,-0.43671653366868335,0.0203072799947221,0.3152727392274343,0.13355569910379259,0.017339529315285606,0.09753599498326591,0.029070157989470314,0.11918915965767246,0.018101961259547047,-0.05855127389604443,0.25358034067859986,0.008456302300240474,0.2927258023401422,0.06930201629670601
274,-0.341814754552398,-0.02272279757700721,0.0697584779986014,0.13618492214959962,-0.011689401799476256,0.17286236988900255,-0.03959150380991658,0.1440610107325281,0.04057227117741929,-0.11123651071574427,0.16768090464275734,0.0432701048909147,-0.15441792579424243,0.07320139436333488
275,-0.35376510877280093,-0.039991500660879704,0.08363886111046467,0.11697261344019752,-0.015456061154765227,0.27545800391693753,-0.053105928334675,0.13949028302453387,0.04170849064114063,-0.13304444288395365,0.17582730425313564,0.050130691348379136,-0.13663577218688347,0.06470327693828444
276,-0.36327364199335216,0.001649262123311259,0.07015067966387664,0.13414443787802116,0.017862171335370682,0.4301976560439195,0.016777704613577686,0.11976615353047855,0.023200346288806135,-0.1030058882834673,0.38156914326399155,0.014369678355377044,0.3751999754278338,0.11121772222173146
277,-0.3372063545035807,0.027908711301802513,-0.4250287567381437,0.1276749723580656,-0.0043415497546036306,0.09707967293455648,0.022454807508076,0.1527740787174029,0.03613648181585934,-0.042399313424607135,0.23824624295552685,0.02886407396082092,0.06225045911584821,0.1213772165800962
278,-0.23429613003281755,-0.03136686002926097,0.4819087041972283,0.13774204233304044,0.00011964152163366668,0.015397582913750176,-0.11294861841788476,0.08787844358182614,0.031106699725529825,-0.11402924252197583,0.09962625611633527,0.011128539592774322,0.3763095875472581,0.02090491046345422
279,-0.5022662997622698,0.04228613505612819,-0.6479031906500047,0.11258120213428156,-0.016813271542299158,0.08863349989161737,0.08107074288539438,0.0892656084894698,0.0445037320977727,-0.06192268495353668,0.12181870695530625,0.01706348938297093,0.2732549891540727,0.14086179712743568
280,-0.1638273917224114,-0.07186721000324378,0.17011033951678461,0.1526596937501711,0.0038232524528950393,-0.023093504470367492,-0.02130628505655208,0.12456717274845175,0.06270294776932292,-0.1218053391444365,0.15398137530882042,0.010311227521442173,-0.044633739930809935,0.030980825563284825
281,-0.23917713443823999,-0.0981278725706544,0.19760270241870143,0.1583346637165595,0.014444123536262739,0.16066725087434275,-0.060685710282072265,0.13465140310872395,0.05686950904948891,-0.12922934042553486,0.19252456744405944,0.021345537970883413,-0.027717811938111733,0.03524150700005044
282,-0.3619602205640117,0.07708386954005668,-0.608912607818095,0.1344184370858901,-0.014974638210788309,0.11290760505023904,-0.06983683775964387,0.11823453085924793,0.005057438135280447,-0.12750724690338766,0.09441824398010135,0.03868939265002145,-0.045939819497517353,0.1244964920948565
283,-0.4697636861784743,-0.03908637324234102,-0.7715899701637492,0.12977351102807025,0.0019825120636134935,0.050287753694563606,-0.10701983225379465,0.08675581813966514,0.03894456582056968,-0.1764165082166082,0.13594934107657522,0.03332219696304847,-0.1474489253807798,0.10378432702740363
284,-0.3556170163692946,0.00031915186079747415,0.9781537028253807,0.14033074878516752,0.005218141786520597,0.07362286340629222,0.10606131234660585,0.10479071815746126,0.046635727450391164,-0.1644023376309502,0.19592433836377451,0.017129375048995574,0.12888093417440402,0.07509217975295769
285,-0.4326505841565225,0.021761600657509973,0.004133676471706294,0.13107120311877815,-0.027097406287234477,0.14509299490882188,-0.12339189531458261,0.15533313070034263,0.012110103823452371,-0.0687362131452963,0.34095119916532435,0.04088538669010407,0.14947056105758927,0.07961057597522185
286,-0.24313770704425408,-0.06116355785611566,0.010924306000596991,0.12546579203620312,0.05123247957362021,0.011903960290143187,-0.1445352332074326,0.11514739578341066,0.02942931812853301,-0.10054146971088976,0.2847097138931981,0.014743059079565949,-0.17322421581406328,0.05673750498040584
287,-0.4378337117178534,-0.035891808790711424,0.26068015232803077,0.12373978113092418,0.0028450469094409158,0.1555876998340127,-0.12478005447157516,0.10957408796563667,0.03192919823846041,-0.09977114751236024,0.3184139918960882,0.02179874076490203,0.1303034631698663,0.03123327856760307
288,-0.39417013170987175,0.03817745317245195,-0.354756811566361,0.12548881486416433,-0.007405081729629424,-0.11940691399099204,0.19312796064858564,0.16392955341808518,0.03735951954814307,-0.09835600867125072,0.2607598152776194,0.039434631517178693,-0.24233513099682058,0.0993836860475088
289,-0.27541592937269166,-0.00022706891272623913,0.10979055455740243,0.09864034533440946,0.020328377522804402,0.10212064296091754,0.011116356311190477,0.10514256115252217,0.05490639706536376,-0.12407982187439127,0.2787865979477523,0.04220061606692799,0.020958787457661252,0.07550574639960321
290,-0.12106159938240914,0.005289945737456591,0.14115726377221982,0.119661150157675,-0.004329448544154345,0.17146114735605536,-0.06877302521645026,0.12861019324889414,0.03693245193870362,-0.055133905267925304,0.19982401540518477,0.030146498471601946,0.23603028917359314,0.046665996347056656
291,-0.2985592239555245,-0.01376389431490278,0.0390120686903355,0.10552715973580286,-0.01611974200411928,0.19232318091278972,-0.006595152936243124,0.12930152798239358,0.034138803747282995,-0.08468402652057182,0.1938106899685433,0.04257213339801216,-0.30743405200604623,0.03460479780581994
292,-0.3427947041522574,-0.0013192834591454613,1.338884632652575,0.11865153378973024,-0.000997550675055084,-0.04287128040317494,-0.052709412389519456,0.11855828605757814,0.047863469293046475,-0.18851965897033204,0.1675196378892957,0.010812055678801832,-0.3613344836636993,0.08940932152576767
293,-0.37330046634636666,-0.0014367297082394823,-0.10587716028489036,0.11615003869862961,-0.026813633376181395,-0.011269146699632766,-0.06493448651633048,0.148796592570931,0.04199918864824988,-0.07555150048014317,0.16436836516793712,0.024677213961071753,-0.38948143828124204,0.07404018753094453
294,-0.3302399912668636,-0.024883487383155635,-0.2924340548175812,0.12110767003010833,-0.007437108868401033,-0.10404079874981309,0.035273177632490875,0.15642449465506106,0.0326535463474746,-0.1540332159057889,0.19277841793780004,0.015218999680238397,-0.31163427572495067,0.05488254926670804
295,-0.4264252520530312,0.06708989185117523,0.2506581656076484,0.13310466953756328,-0.005431405886061407,0.23373265497128728,0.10534463929532305,0.1122426126167308,0.01247706387116843,-0.11355545927674258,0.20385965013924431,0.03905756238826325,0.24079453043502805,0.08446833170600435
296,-0.2921509206528186,-0.048022723600647785,0.041859771292568924,0.1247524508960765,-0.004077670525554199,0.0021260274406648774,0.008603751648004428,0.1266621502693133,0.05674264763232417,-0.06435275199261951,0.11302817972871923,0.036980049310127786,0.25195205621191796,0.0805902681194309
297,-0.6379191868021419,-0.0314914699398868,0.48860666769448463,0.12871689890088683,-0.006855632112174131,-0.06020768386354438,0.0061347918549558315,0.12342303855341251,0.03916927762810173,-0.24473128438767558,0.1057929310696926,0.01992992368999831,0.6999582815444564,0.07466813276481514
298,-0.33801178004680243,-0.041101171886831954,0.23187228391478404,0.09373492346042847,-0.00894506730001494,0.10652321440112915,0.035507391963012044,0.14820328826953805,0.051080564472442386,-0.5061393657256288,0.3941704886104776,0.058326804621280884,0.21826828003846432,0.09531191682887889
299,-0.35598539945550006,0.14323626819040503,-0.18500787216007125,0.11348313908668768,0.024416045870008316,0.1241819782527956,0.06899094934017301,0.13407903216532652,0.020882174980381477,0.08633754105863413,0.09604174372763104,0.052573127410769485,0.2009098405534221,0.08925594415256022
300,-0.3856213116542773,0.05048053310573429,0.055578519929984416,0.14588369672931517,0.013132595039866812,0.04205003815371757,-0.3292475326409352,0.10640834261536783,0.04074291281778926,-0.1736842235627563,0.1242984936632896,0.03521833807418241,0.0361723699203662,0.08373067358030638
301,-0.19494458871410464,0.001661079536497058,0.2774854393687337,0.13628092502746844,0.02266573396080379,-0.11241230053822952,0.049431243792189786,0.11775732696957432,0.03925248472436016,-0.08555932462294338,0.4650231987514039,0.03308810970091248,0.10216769297431587,0.021063295562608865
302,-0.26617551149254864,-0.06417895945115733,0.2721978495289615,0.11519717526091604,0.031609064122428664,-0.363487911314691,0.01712147796404302,0.14195844940066293,0.0668572105474476,-0.14765788391575768,0.1542766709524612,0.029905977894760412,0.22877132228198832,0.06588693433775862
303,-0.2335921825174302,0.02898262451166605,0.041469298059628075,0.10905231458213983,-0.0065898995012407145,-0.07509349259846228,-0.00970254469048083,0.07764149110145135,0.0661439784753504,-0.0686981072238775,0.19724051878072207,0.015753931045977942,-0.0987685605505899,0.07984413736376607
304,-0.15048515100491508,0.015407021841126177,0.07650118556295972,0.11486996296641772,-0.011473228391271715,0.06285352721310689,0.10058931976493435,0.09280076305246648,0.05282190388094338,-0.11876911681874981,0.15254400436896176,0.027907052733576323,-0.1528530503927214,0.05176440951449819
305,-0.3945233567295898,0.015378976288991684,-0.21165897569589526,0.11350774064635723,0.005267809596704196,-0.1305870235729592,0.08274700908723866,0.09723863159205243,0.050939813930414385,-0.07395694388902964,0.23593301868423328,0.028140873501955287,0.39487168602463857,0.08719584065796027
306,-0.327770091143424,0.016492672612266668,0.2088800193941252,0.12554652188524315,0.001080917632421372,-0.0510420580775717,0.08263995059967427,0.10610809469835203,0.049212765670903394,-0.02807560936859901,0.21358989406185755,0.04137390658008018,0.4873499453087779,0.0636968171152094
307,-0.2681438497889303,-0.007958089625914051,0.050694976580265755,0.11509496254149947,-0.019024865434399862,0.45707975115135663,-0.05073949146702129,0.1401102663747872,0.042272289886652305,-0.11038109669074153,0.17256289840801367,0.06273994531324116,-0.01508700440126699,0.0859956493320127
308,-0.34659193574279207,0.04661790421931065,0.09535378145079347,0.15627123917469798,-0.011918520870675514,-0.010986194294017274,0.011945149829086028,0.12251430818460869,0.06259364135782415,-0.08944070447396425,0.22904060310739904,0.03819594498111574,-0.24429318641009476,0.04483458173782949
309,-0.4498434372254962,0.0069062054409048486,0.06030206711229271,0.1068112602744726,0.0073192998688848135,-0.12464090337854541,-0.06417133764755514,0.120280368597264,0.03194369093068241,-0.07170162334806934,-0.07225267813456189,0.022985979948442658,0.18948412180230997,0.10449666439400179
310,-0.5196691001580562,-0.00711903774824938,0.2651659418055783,0.12290945484888519,-0.016651223891837975,0.07344549021410383,0.0013921978870114625,0.15488057659872687,0.051699705774585485,-0.05383313455235796,0.08193571886438321,0.028977094308291092,0.4011955724635535,0.07025962693295082
311,-0.42768821165381804,-0.04545648007533352,0.4310910475263983,0.09000472225335816,-0.028380051448826923,0.06062259061739933,-0.01796689483042867,0.14087540290631265,0.045901464826319946,-0.15229382974692973,-0.09111403833450636,0.025330886976735793,0.36629128052263304,0.08828993515107095
312,-0.2777199938359083,0.02398106846612034,0.3102045394294389,0.11743567285838251,0.001942945914550723,0.14393149054044793,-0.015468937209358014,0.13771789696824377,0.025301929524592755,-0.07237170903249353,0.00017196808139241973,0.055878500173860576,-0.5680271804067649,0.0510151534360861
313,-0.48165994450184957,0.013096317966337187,0.21631893151932802,0.12227945967870686,-0.010085870703743479,0.16644041573529753,-0.004844431998673418,0.14140697577895292,0.026476409601916023,-0.0942560060375531,-0.03372664271114595,0.06599529239283938,-0.7494971804235643,0.05104039933530041
314,-0.1387143978377422,-0.007776904820590049,-0.20182111389075758,0.1270519916945688,0.03441483744764198,0.11767330941169572,-0.025743968032866858,0.16479287537650558,0.04804946540908589,0.017939242301833094,0.02018123846008056,0.025639428392378233,-0.006103994031616474,0.07855749859667815
315,-0.034360880004619426,0.015188667055782796,0.12240071941974563,0.16199453208116482,0.010622564023265956,0.025529887093202662,-0.10437077254993771,0.14903823769742305,0.04563031613668075,0.030235431660270453,0.17655640459107158,0.033526549490340694,0.13773403635086054,0.07191135898112469
316,-0.32020883033502706,-0.012511886519860595,0.25847469933772294,0.14707934844444157,0.005531723281000149,0.1281093929064935,-0.10609376990640772,0.12596110130053942,0.02771319049161936,-0.0934500027220703,-0.02735869794790139,0.06179227994340943,-0.20103484488420884,0.04535323225982965
317,-0.2941358554885197,-0.02214771000031503,0.6949693591319368,0.14227726070441055,0.01943032401469758,0.24850254179639336,-0.042397543752010755,0.1267723884070509,0.05741739789649658,-0.018391399477818083,-0.016733316538048177,0.04475250453542275,-0.2791028205925636,0.040283910437269733
318,-0.5565000436850611,-0.07483620429738592,0.16932397599006835,0.12899057405549902,0.013604657255094733,-0.035266982118447796,0.09024828317605096,0.1499660315457019,0.056480901956306576,0.1101130366378116,0.11066801450440143,0.004420406714000452,0.09883244958143896,0.06383869607319491
319,-0.41102490694891813,-0.05759470135111453,0.3009103395212696,0.1421769744076542,0.0054711974571494,0.1144621833912818,-0.03676735048873588,0.12237848294443342,0.025899713470622813,0.12607257251827522,-0.050718345290397926,0.018455319155581816,0.05640976756135158,0.06332141897084685
320,-0.46662156552136846,0.010186132296011367,0.1634666774079412,0.13424708374806713,-0.003789698495042108,0.04909940164429474,-0.03129259478508005,0.14379329015896156,0.0412503033283433,-0.06455587461470474,0.11232649226724471,0.02125005075771715,0.2770968039565356,0.11254533399377437
321,-0.4767472528369423,0.04119396349407985,0.06774922978357524,0.14347048965431605,-0.00784459822753853,0.13736130395195134,-0.2664849505515953,0.17338736760946427,0.035224325685690616,0.3657112015026968,0.1183921868020881,0.014007417791764124,0.09978601078998775,0.0678185342404251
322,0.178143185848118,-0.015929611674089936,0.7314697928858722,0.12115854576202366,0.01943164302421286,-0.013780132185185116,-0.34569152375397716,0.16097732177379456,0.02264130863969717,0.5031116046405271,0.24899543795819745,0.034205714984968404,0.24927439904483586,0.07926120164155413
323,-0.10298387491257,-0.014387390442720563,0.3237211690240652,0.16953292404441186,0.008240685477211109,0.10126980835861427,-0.0799094980592779,0.09358699473494292,0.03030054845035758,-0.07820776372923888,0.07700385407922838,0.05811543476946704,0.174600501492759,0.0660732610906128
324,-0.39157815961738307,-0.07995105614423531,0.3302711576148003,0.14490358181804067,0.006883210183343902,0.048133223853071505,0.022584349106820393,0.10319420552277458,0.01573555032588195,-0.16730537740751789,0.24510992876265839,0.049049090053598206,0.4982456668892134,0.13636270372728693
325,-0.31948064084413347,0.07916340636741737,-0.5179275956069443,0.14311512649699715,-0.0009935955501130414,0.155071985891754,-0.07487995720275964,0.15134342565309875,0.05615176830484793,-0.02470942220882731,0.0628667547061924,0.016968474539966482,0.020732769119054962,0.08499816415176917
326,-0.5829959916274559,-0.06498422998256638,0.6445811327317694,0.1223194138705434,0.014311787392157996,0.08721462782525922,0.016707617075530264,0.09499729828536532,0.04820196456747664,-0.1176762563374563,0.013642818822217538,0.053906873027280054,0.8517155219782037,0.0623804712299494
327,-0.40461884459033076,0.028324940353429105,-0.29681822423976184,0.14268509438854843,0.007765619694532904,0.1300174379894667,0.021140444728521373,0.093557909915682,0.05563453458258325,0.05740561528306705,0.31526532566387044,0.00626938465779033,0.3173431566015777,0.0706029746071975
328,-0.33276040221580666,0.005398051833361849,-0.1275964657746586,0.12562014063718793,0.013884507896021043,0.10656308471558988,-0.04986003806746671,0.10130702159373114,0.0593493517801038,-0.05281929345884915,0.18268887663636377,-0.00664168451701417,0.023903290679211785,0.06625462617933024
329,-0.3143129592854461,0.022748464008518265,0.27901272263365334,0.11366721657020806,-0.004686053370150118,0.12230394520254609,0.09255940626964239,0.1541411589030938,0.013260472575553208,-0.13618147774860362,0.24998201506428158,0.04725867262883659,0.3613747194802574,0.052250302980998954
330,-0.3712979472277186,0.003461376957440554,0.28750489737019613,0.10257319376535728,-0.0008996535859315528,0.18990118979692466,-0.027991090863619564,0.14195479775845365,0.01561064106264402,-0.13822105024053813,0.20594728295574505,0.0512956373373112,0.27548864766321235,0.05806595916957351
331,-0.5583720418695456,0.020383802021818137,0.08932623972591455,0.11614292372852532,0.024004288600652367,0.0518375642095239,-0.04919189638346697,0.13363733593144997,0.02293233776742233,-0.029412209488890784,0.18485758250399328,0.012793325989107101,0.13123416822712752,0.08617031443778837
332,-0.3752696560048499,0.044318218891212784,-0.8595671974177784,0.13023723166104073,0.004072534390099434,0.24723912228313105,0.09284921587484012,0.12433379560305646,0.050000890855310225,-0.04177530107956828,0.15024839660287453,0.014412506461851111,0.28318366057026484,0.10152547747456414
333,-0.3908351108256559,0.011446598002612891,0.16455966545631423,0.11730879673560037,0.007154824820376615,0.3028040640061167,0.0008843569063384899,0.1273149624525202,0.05435362521068223,-0.07994450159609982,0.14910685323972722,0.031044937692118933,0.13210217328390647,0.06271855051239819
334,-0.40546255558045746,0.014079643624791284,0.21689416903776326,0.13418580671855895,-0.002441844072413167,0.13938651495254586,0.13782952271694945,0.13462323339588356,0.03814796703176411,-0.07963943570165792,0.17029480318788862,0.016275494919652852,0.3264078507258346,0.06355667293072083
335,-0.4380483486470817,-0.03892704169811382,0.2766352198469593,0.12671063428618645,0.01184669099836292,0.0738094852341534,-0.024947660511427407,0.1383250909268011,0.06548207451761753,-0.04555562070540759,0.16451149148039576,0.012813928901444473,-0.17630903641171894,0.08588817490160065
336,-0.35717231466879595,0.045074204020232614,-0.04178492099884728,0.11233349837903628,-0.004715205416126543,0.1231762816305115,0.032700158027803655,0.11252692465401219,0.036234047529200966,-0.17459758895204366,0.19506691559749678,0.03812979669284753,-0.04755403325806592,0.06468192172308612
337,-0.28901259492113246,0.042762662730174206,-0.04589051035771233,0.11242234538330984,-0.0005669019495921837,0.14763903939632042,0.03948110026321022,0.11315432318367386,0.03652261325626791,-0.15758725321398043,0.15625625987182415,0.040104822607789435,0.006707345240721113,0.06106187578462839
338,-0.3591765297824796,-0.012078665923881956,0.4085538349910039,0.1295486880464898,0.015588827522249674,0.07605132797109306,-0.5535389468702565,0.07272228473081863,0.05477568841680484,-0.09539240673047139,0.25659418072401974,0.02853861113694379,0.3830749766760635,0.027169710309090316
339,-0.2949839789286899,-0.029048397205975962,0.23276332623897497,0.13320016711065769,0.024942115754120347,0.16870056041801873,-0.9915338849404752,0.12060047627420767,0.06005706033838727,-0.07247302122857628,0.08866257399816649,0.03736715747843332,0.31695164483921284,0.09279954429625914
340,-0.387411216135628,-0.01109285721616017,-0.14816583868632924,0.14117713239047838,0.011280066192097413,0.18534457462940113,-0.9980488860658708,0.12334023244207995,0.04828920066604721,-0.11945719331657118,0.21368926222159604,0.03800597810330338,0.2271809573840123,0.10605005783580143
341,-0.45883967764455624,-0.01114088782625723,-0.10968698535410928,0.11175327704377389,0.006125460884668448,0.29667462254737986,-0.6720045651969425,0.10344645090913836,0.06540438639186642,-0.02944900948572887,0.20280571108149925,0.053534866133852665,0.17451642579689938,0.058845049329171256
342,-0.4374321281927292,0.015872017867042332,-0.11491635066880554,0.14957594219115616,0.011501086059234035,0.12715303509188836,-0.4764697509124508,0.1162565510111914,0.04100889372162815,-0.06279400335420245,0.10326724320638589,0.043899401969257894,0.11216937533031514,0.09430626841060263
343,-0.16982358501142072,0.020359496231878303,0.3113517299435971,0.09576734106836426,0.01094597597124978,0.026773297546770682,-0.0558845224996647,0.12155856634689294,0.007137174269222829,0.007725202909527696,0.1550898304945678,0.06653688267582375,-0.8865876982897725,0.0886469310067885
344,-0.4893784887154848,-0.038217119399466634,0.4852958713428274,0.1259507901070814,0.015640018836699507,0.12278434210354518,-0.06611058807110004,0.1287138834377844,0.020084973140855795,-0.06465122113125223,0.20708972899973838,0.04718471441022098,0.11243073104672767,0.01505043167922948
345,-0.2209802205535177,0.007224985055066587,-0.23937618697521904,0.11556545060010248,-0.0054470632587170454,0.298364093697323,0.027200706747036098,0.1454577311384425,0.05247975958726692,-0.18865141377857667,0.27598368088509745,0.04480233391017436,0.10979564388050794,0.13206070486581584
