sample,celltype_0,celltype_1,celltype_2,celltype_3,celltype_4,celltype_5,celltype_6,celltype_7,celltype_8,celltype_9,celltype_10,celltype_11,celltype_12,celltype_13
0,-0.21822461517933853,-0.05455725365871382,0.08585126316518014,0.11495084110759853,-0.004213388965413108,0.23689705903094457,-0.00801252071241648,0.13983072876367175,0.04643416870742288,-0.2522413624598497,0.1795640196814435,0.04068222836048617,0.2097384598654917,0.09887047181777704
1,-0.3909352589952226,0.06290826699604528,0.8645588413087348,0.12732714678310122,0.0031846222479910563,-0.19332019845354984,-0.11851195668697669,0.1467372328377208,0.044282756555305496,-0.1503867155211744,0.1985875343437074,0.055717343806683826,-0.04618108655273842,0.09192051636993906
2,-0.3618771049449581,-0.019163935919746078,0.6362334163490055,0.1483683315551891,0.033718349551561014,-0.050875667773147434,0.16599017183598436,0.11548076438803477,0.04289455861184799,-0.096482787179145,0.22663051639694842,0.0523562748554593,1.0718720190534083,0.04604973017074514
3,-0.38078024313637354,-0.0006817539328997337,0.05635463167479716,0.11711529565253648,0.0004807757168585644,-0.2205627350975256,0.0045303027491855954,0.128949583544904,0.04919231134966153,-0.12275644579725113,0.1396733696562107,0.07533044114646349,0.25514417628752417,0.0723544184976736
4,-0.2532653711980486,-0.03395352169209924,0.03356808840274953,0.1268882505270794,0.005344234588783667,-0.19688071034172627,-0.06846584975212626,0.18142406767225427,0.04239325403626174,-0.11271022016826103,0.12976910288787216,0.052312296865561055,0.5867046861802514,0.042623078734719724
5,-0.4236756504071532,0.0027293469751251153,0.3376874370987506,0.12293660551803137,-0.0009292037144523324,0.2107756207439667,-0.10089266647346416,0.1083041476984839,0.05612352524283325,-0.1980575117634466,0.11958719412154613,0.05729691234379304,-0.11641334616982302,0.07407748071915057
6,-0.41344727989431684,-0.01479145861410524,0.07798429567238918,0.1365771393993433,-0.005710825956540865,0.02194638081070788,0.01716239046514625,0.12345718770712978,0.04882123252777675,-0.060625171451438496,0.09716550906533622,0.07094386820530665,0.18539193381613192,0.09275970538519067
7,-0.5197817115906964,0.03054099685526989,0.1216554491310407,0.11125746848902338,0.009888344178793248,0.3950504872069591,0.0104001374841626,0.16634746876120535,0.020826196127236254,-0.053689051356408134,0.07439137379773889,0.02133796195637466,0.3351794713557476,0.04684562356876918
8,-0.4354334899437124,0.027741823036541782,0.19934775396069324,0.11748335298144792,0.003545638290626424,0.0988660586361932,-0.021418735049373614,0.1364100035388584,0.030880976182539408,-0.10686210148495057,0.19659392163613185,0.013587007844627115,0.13190149843760163,0.1220839880440072
9,-0.2728125867783714,0.039827972595916576,-0.5913880606695499,0.138969426704424,-0.010718531466253133,0.08435755727770289,0.010131614929363575,0.1242676450792502,0.03966316622068095,-0.11401969276139004,0.1838986808734608,0.029766903680553895,0.466507002626205,0.0923609170303129
10,-0.35274061460273837,0.05497062644795253,0.0671268710964955,0.13168948411584422,0.014583634882780198,0.1391796488490689,-0.12747741116985856,0.12899774174776113,0.022410044314780064,-0.24825607226792337,0.1640425311483281,0.04184577160700671,0.016063969661598072,0.10569958817842241
11,-0.41650004833450655,-0.014954801413106523,-0.018517922229417443,0.10391232276379732,-0.016565654368042314,-0.01857217611363497,0.06464886162207922,0.11576104142246013,0.02750554400543807,-0.06580367722645576,0.17830227512883054,0.0442829158394592,0.2636418540493587,0.05738423273860709
12,-0.3365522428079253,0.0195631459337191,0.15046225135988678,0.10770187058902798,-0.042631703924867405,0.1501555862356904,0.027590244988542248,0.10741370086456639,0.041013049948870096,-0.16981043318887923,0.20738598011601825,0.03302318437529963,-0.0894336239238238,0.08355295089773286
13,-0.3567238529987423,-0.03481449731886888,0.10093920319845574,0.11735047513234564,0.00636286651556777,0.06506786432430041,-0.040545227988744145,0.10879398331015207,0.05071011932361375,-0.1052189596058832,0.22190333943855683,0.01105149945018069,-0.5390528644984167,0.09140863569123266
14,-0.3090548980366538,0.0632505666739845,-0.6011427985372048,0.10882748623570927,-0.01325285836205088,-0.309583514829156,-0.030635068607187392,0.12933916273255117,0.04328834690484099,-0.09957090326380567,0.13775541421401463,0.04380389494001262,-0.1156470670379801,0.07065527571269513
15,-0.4224494631726348,0.036886320178321746,-0.6531825092906574,0.11502076492846888,-0.031229278572781873,-0.12790610768715213,-0.03541592015432315,0.12277515759330637,0.03696663805946801,-0.06752295906601953,0.1472455014868872,0.03105321153166885,-0.1655970454330508,0.0751511387532276
16,-0.2925048497919062,0.011872444541315532,-1.1205707138604857,0.14912726657161343,0.003030917144908876,0.22975680052569475,-0.0975861912427614,0.11039325293624769,0.03242367066298528,-0.09365603745253788,0.32940009002180054,0.017229027599679224,0.48216132144408724,0.07656997247094169
17,-0.2871367033434258,0.03577563139632134,-0.6824071740151821,0.15687948883178074,0.012644734396080368,0.18140474025447945,0.13786352718899259,0.11593908667816777,0.054462670849445914,-0.2207876566439676,0.2072520782204584,0.04405861718537881,-0.15027911614225103,0.10250806149959686
18,-0.4640650645524651,-0.03145230049085624,1.200220023775983,0.09030897630351349,-0.005710750321808712,0.14370590210285744,-0.7030841168860085,0.12372426459443948,0.06274158348760639,-0.02371863950429756,0.1588388127377353,0.017788830844318045,0.5067721381701298,0.04945796981662228
19,-0.244133734983483,0.046939046280818165,-0.6001869993315022,0.13168312583303854,0.028503356177717806,0.011911569840932102,-0.024059675078742234,0.12826673581945328,0.025322997153737356,-0.14693283570192242,0.2796857996276753,0.03548418496023686,-0.7848971120506725,0.12407721144999384
20,-0.3798950781460561,-0.008664042508931479,0.1329727295055641,0.0869122801772498,0.0020714262131099363,-0.15512280765143668,0.026431270641746354,0.08989401135204364,0.028346998247848147,-0.02044287712899941,0.20855325786014844,0.027173549235485386,0.20479048732235655,0.07944446552111104
21,-0.38028244102282094,0.024447732977143862,0.2022738192727558,0.15931119317531306,-0.013525061245217197,0.1132097014953483,-0.05189804450667162,0.15102618044134108,0.052595611678106495,-0.12137880634207947,0.14193399773704865,0.05461572958401334,0.23383200929890852,0.06870168754092762
22,-0.34538757404613457,0.038708620233265975,0.2601438813490047,0.15572895929441194,-0.012286529438297441,0.21974127507096664,-0.005447053535640474,0.1372833265256321,0.05440945682399568,-0.13900120021665985,0.11820138885301058,0.05019653718928966,0.1734946586121291,0.0571430406273764
23,-0.33330553871256874,0.032111141216892396,0.07361999722527,0.12000074183682406,0.009010218452008537,0.09724075033130583,-0.0361548606000681,0.14488109689370324,0.048343728992239335,-0.12497604714255416,0.11748077286005278,0.045728838680882754,-0.21701929715531748,0.01751920314588081
24,-0.24081287084604544,0.0038535195551406493,0.24284953278976196,0.09815549271591892,0.011903202820458664,0.1802851696199278,-0.03874707464701272,0.09938555530455509,0.03126906259327422,-0.1397639332952295,0.03983849881678323,0.05857875810454781,0.48797522092810125,0.07131680094652475
25,-0.30053485167115934,0.041973103320564704,0.18709015897153378,0.1301871083398628,0.013819914721039996,0.1642545463883036,0.03050350582240263,0.10246448970287722,0.05830004524721715,-0.05513875174894546,0.1395459871677659,0.04605048041531776,0.6988363680857399,0.0778224028975605
26,-0.321661625412204,0.0763495348053666,0.08415631582667302,0.11786443177971886,-0.010788047978432622,0.5708292889699952,-0.10119814564635596,0.08276432739301585,0.04307987461812819,-0.22321666145265362,0.047871318504294234,0.06840603140205656,0.768986958858274,0.08585382770115702
27,-0.27164954991671203,0.0028598044678468213,0.26677843668805346,0.13397744129543393,0.0134369868100472,0.5767301290859999,-0.005355044548885416,0.13566737403711443,0.049092096974328835,-0.10069577631319732,-0.01760828678291662,0.04202443017206772,-0.00417133646266071,0.10347844253440862
28,-0.37138986851864064,-0.05927348931212453,0.18876482658023427,0.1167220526077724,-0.0033976731713330362,0.3534713864137269,-0.07342571467954646,0.0898151930644237,0.03915166573301983,-0.11355426039596017,0.08927720893271056,0.05448352886797451,0.4330694016319392,0.09308003534384832
29,-0.4419190941275726,-0.005909417511228838,-0.06501066744931516,0.10500285042674803,-0.01674387975817478,0.036964389753937316,0.0004140196785601552,0.1176508539647244,0.022307407744968605,-0.10065301760504855,0.07875092017248272,0.019496487285377197,0.6338759902987394,0.1061528298789335
30,-0.3377563675255327,-0.020069907861217748,0.0080500513591188,0.11027021327367403,-0.013990464893198563,0.17011716168985053,0.045370656777564126,0.12689666054982693,0.04940843738358709,-0.11492798150387895,-0.006513144496672106,0.03268827263207642,0.44893157841550185,0.08917256948241278
31,-0.2990463159345727,-0.051176589078716785,0.0997822410730621,0.12525184630769565,-0.0060355221513243755,0.26907670757412416,0.018857868701432055,0.12637904199493366,0.003720379998004273,-0.12696305658123458,0.06641935486600085,0.023631365356087747,0.07189355232746192,0.10650327531182785
32,-0.25976548591000187,0.001239054143715754,0.5080284289035082,0.12480540441295239,0.01642701824128648,0.16214301319197122,0.09611298936085569,0.0984794977790712,0.032960779786646105,-0.10713424560493948,0.2920804154651868,0.05478341117763,0.03709763521332148,0.07194773746834907
33,-0.28641826234816903,0.023460976871800564,-0.3352098113530086,0.11139620564629282,-0.01829498727664009,0.09944509720195141,-0.028545241719836,0.12167809945685427,0.04728087539423001,-0.07199613749959487,0.20869473122718496,0.02616337729647447,0.3135988663513483,0.09273434484940299
34,-0.3649569178223374,0.01864649347302832,-0.605632235272628,0.13595038618198796,0.0072380307891029266,0.00020944699170977052,0.10112807512821693,0.08871135027944017,0.02647278152915891,-0.22635874176971735,-0.0035173230794474488,0.022465003242833383,0.20225446075064285,0.04995219719010289
35,-0.3679822946679193,-0.05826192078319459,-0.407384338139335,0.11366636480214065,-0.025868866564374315,-0.04057894187669628,-0.2714802854521933,0.16527122508271416,0.03338868014598868,-0.07887837167571134,-0.02098343597558777,0.03433990702427122,0.2139799997389141,0.10550848248076711
36,-0.12569914718647937,-0.017359786779580152,0.3913987178824944,0.10467946343922055,-0.022074819653777163,0.20083939822004446,-0.0735423509297461,0.12024159167871995,0.03288556712132064,-0.05933553350248653,0.2648453503776858,0.014838413726394805,0.35886679066101806,0.024790620384459304
37,-0.3772512436622726,0.005703124427479778,-0.04217190056724915,0.10763111307791792,-0.010515512616868925,0.1359996821873556,0.14757794978566444,0.1475005114965035,0.04959077015304402,-0.15426019803016608,0.06207473605801092,0.012980087888351814,0.5500674643371384,0.09156227503529929
38,-0.27445356676574534,0.06272857650284604,-0.07161121624723987,0.10903108001510771,-0.0018850694998413882,0.040602274867994406,-0.02199404128326331,0.11592140997511416,0.012183758077553584,-0.17750047786496856,0.10358008635278797,0.030450432105175763,0.2142734438170319,0.08132646161844553
39,-0.3131603556802553,-0.03253484014960981,-0.41632969991914515,0.12874361260448808,-0.014747674685046237,-0.016743367163278233,0.09724754029717073,0.12694560797901505,0.04743614685143726,-0.02267328103063298,0.36038449414005924,0.05564511745262176,0.8569976719527598,0.0579015982584724
40,-0.25594303248807204,0.05859745911957602,0.044178544975287865,0.13600001062292844,-0.011318800937788849,0.4053717610572129,-0.011299875492793463,0.12224344735729449,0.01392341644221461,-0.05893822172835335,0.413934196216745,0.023760821278963135,-0.08027308963501308,0.06828161286988435
41,-0.3732378613715724,-0.002865321577338784,0.436795550017814,0.13144230635457885,-0.007229473954107535,0.43831695136762744,0.011444723471763797,0.12250288606556489,0.02007363902510846,-0.08095820602335325,0.43136886270029784,0.02460950248357884,0.0230030839380254,0.08181143231608523
42,-0.32042244120029495,0.01720089692644516,0.05721538063992183,0.12257276479835193,0.017625064914618183,-0.017033910804591636,-0.04215292084831457,0.12551638921042868,0.0459155159987373,-0.1498556283621021,0.16823713501229284,0.025558959022348653,0.19678120272466454,0.10454605649520402
43,-0.3164261941591878,0.00827966050398357,0.33564458047149887,0.12113496184956402,0.0026993731716749665,0.16507010469869682,-0.003926445557474535,0.10055319831648751,0.020460107871063393,-0.0697483455876204,0.18311888190974523,0.038485663265209025,-0.4083836526828127,0.07282556519839045
44,-0.460069724637844,0.012473561139455906,0.12275616992568986,0.13145842528986887,0.03400848693829911,-0.22911267205967764,0.05932384565281264,0.09124840970754483,0.015202646633788139,-0.14912229872417934,0.17027937737741292,0.04279803595889628,-0.2282857624184383,0.07250727336064791
45,-0.3620194312244076,0.01739828457401531,0.28227432818731396,0.10838840994053336,0.0005353840553738564,0.042136102024716855,0.009809691995762895,0.12413345935983797,0.050513974481958226,-0.039784354069280284,0.2238350569352848,0.04678219299102543,-0.29583762077655373,0.09674222858066253
46,-0.7687130715518493,-0.0592964914569645,0.15479965897082862,0.14313733075822827,-0.0008739508950882596,0.09549024178873909,-0.038054299413985464,0.11451174344213243,0.015299121468713319,-0.08125763947235529,-0.06636228462231199,0.03399067249900989,-0.8169060603118435,0.0763232736718605
47,-0.3907999708628692,-0.04115318252603811,0.09499491847929054,0.16311672719868145,-0.0016381596224253618,-0.00047034725888268,-0.13960117303099132,0.10651060192673063,0.018950339665925887,-0.14810346645019906,-0.16362013530323521,0.042311774487883334,-1.3679548887867456,0.05128682725709387
48,-0.3734122297747675,0.001172816713117453,0.2759749896217567,0.14392570201645968,0.005854977599142036,-0.0013636698248731187,-0.30268600592135336,0.1178947240086734,0.0218753203258349,-0.17829380345679555,-0.10436097047363059,0.03746782782888595,-0.581721485370046,0.043664483497679
49,-0.35847032861344647,0.05397737051074155,0.21866824443318153,0.12838041478425735,0.0010242663438204628,0.16298361446063744,0.16149345126596373,0.13695506522047843,0.018533446312574996,-0.0315423976778157,0.2919768994860262,0.03362072361873691,-1.1214380277489564,0.09719171742709981
50,-0.2081573069195262,-0.02523309358786081,-0.1155038970739447,0.11524264836810494,0.02047715625735367,-0.39229632121060126,-0.06745277624207872,0.11030719964126279,0.020617531976142613,-0.1957435301785756,0.1383363601552535,0.037203122282245225,0.41609712079199224,0.07075885217500806
51,0.03681776729124123,0.016167399394755026,0.14652439655453234,0.14535987308597306,0.009536926364566503,-0.014606958904374839,0.04471117337543103,0.11809675984635044,0.0734653581071439,-0.48832549626120564,0.1315237757533035,0.012360483937584115,0.04778152156441479,0.042224214433708995
52,-0.32944607617440663,0.008340303563680521,0.08326681007219483,0.12690141678339925,0.0062727703731315825,-0.5606402262399776,0.3851279743572513,0.12043827291771628,0.04426203542261133,-0.42840582354781176,0.2925246525336104,0.0626996012293041,0.5828121363776279,0.10508462609523622
53,-0.4130834373176768,0.050895543352418006,0.4064203151718612,0.12857763076536713,0.0010193903664977744,-0.3390617825624243,-0.05243043807012572,0.11981283151014734,0.023602724800097168,0.030878481126232288,0.0955115441767315,0.028436272215585867,0.10470430452349913,0.04651154210567348
54,-0.28360897348029823,-0.08692927890069693,0.2192812174151178,0.13410579616962376,-0.00827441724109678,0.10781280954619239,-0.06528215863493282,0.13129348617319214,0.03173145542203474,-0.027940793490941786,0.16959566348806096,0.030744732143062857,0.6247184618946302,0.064032946158564
55,-0.2740779064039481,0.010567393359434987,0.15184183822738137,0.14127931871018456,0.02796369050599737,0.08158548897192504,-0.4733788536207872,0.16283033161838859,0.055332347989012626,-0.2569486624437435,0.22203153161004227,0.041335164449676894,1.021937631767524,0.06947657921131702
56,-0.40536866933390814,0.06930160830557526,-0.0004199023793588109,0.12298468463111902,0.02868829459288568,-0.03931873808502617,0.018569535027073692,0.10776823265090281,0.028294001959404503,-0.23292729054629588,0.28937274058375456,0.03826576421546159,-0.050736197464298444,0.08305557888489326
57,-0.32965244905294605,-0.00028558871509804727,-0.0045196680194451505,0.10647983496804665,0.031876068837627454,0.09034658626752884,-0.004157885964871575,0.1362026466118338,0.03830620477187624,-0.16724708371137217,0.18148182685874706,0.050961906792043536,-0.2256782200206479,0.08023029684142906
58,-0.3499574042221264,0.04072809669442528,0.11599759442787956,0.10588350164239345,0.017617597424100295,0.10903842791887888,-0.01050406154032608,0.13078562399727675,0.023270154637306077,-0.11155431555570273,0.177511996955094,0.03928912588752741,0.058606258553260925,0.07798586685611594
59,-0.2061714048209992,-0.021221934000114503,0.06645293425157707,0.14749190448943447,0.020528965608389557,0.03657304707794653,-0.028465184050262816,0.10239618656799955,0.04741607143446727,-0.11345440918970273,0.3433648174962781,0.044279699045265214,0.14120786016673995,0.08321209759258073
60,-0.20519581845924487,0.005504057379061627,0.28568592713384233,0.1184096264497022,-0.0037135619077618004,0.22759978854807164,0.07606685015615357,0.11963908945326786,0.039385443956831585,-0.14593887136412406,0.14017988511893684,0.04090884366372716,0.18029110937282153,0.08851302349649236
61,-0.4102436387105798,-0.01821134859523986,0.18600775148240484,0.14428368999598573,0.012753007216477699,0.18425218635361906,-0.14426560672820407,0.11539309782380594,0.019815367560030685,-0.14420461802586262,0.1501742511872888,0.040056510572117295,0.6064298180334333,0.09130704439261149
62,-0.5349162196698275,0.02256246922749834,-0.4431830916454571,0.1275668321242523,-0.002433088156708177,0.059873954093967126,-0.044174695447699794,0.1307287375234082,0.05154376997052587,0.03915312164523613,0.30801470880458326,0.04262245003600316,0.19930104803629783,0.09066646101154406
63,-0.45211775921366215,0.0225279631419101,-0.07561228642738381,0.1352877064442719,0.009319813714835737,0.06888288094905592,-0.08721052438735204,0.10638941454055857,0.03005053885048005,0.10215828457440113,0.28576036021754087,0.04848822263797474,0.2887977882657539,0.08925468533121128
64,-0.42111420479057904,0.005434431374449688,0.18962057367879995,0.11624926372798602,0.023620116394849854,0.03591257728503637,-0.03493055547394435,0.12570874837786,-0.0021629128722317607,-0.038839568431054905,0.11142061960803423,0.014762389616801267,-0.24213623081555144,0.09442163234887986
65,-0.5244499933305613,0.01879683425864013,0.17591655326123354,0.12073737911361508,-0.01780430184706385,0.10951868275824711,0.051150640276484895,0.11625123806919599,0.05619797403781592,-0.20395288817722723,0.27106530046607796,0.021925991173656015,0.23258454328588551,0.052238040801088424
66,-0.447946998908835,0.03961450466921278,0.15810521436099575,0.1318929264355608,-0.016100185486771928,0.10502423600362083,-0.05519752235897339,0.10896409052850302,0.061480441256059254,-0.124252113223596,0.21640574259706055,0.005323355102642362,0.3663336342695461,0.06502612557922671
67,-0.4004841807421357,-0.01573501268801251,0.37171976627632325,0.15245121241230492,0.02457097288363544,-0.019879253826968393,-0.0007951291262591662,0.10377589116353747,0.019137819965449304,-0.09987494187066366,0.22106548835575712,0.03668119261235966,0.5120127511063416,0.0722002869294711
68,0.04908255382936362,0.0423692019832153,-0.03458070770335874,0.13979254477830197,-0.022923241810572238,-0.0053082866416808505,-0.04629683510595937,0.1050693472829669,0.03661596026114144,-0.10924221424302749,0.32518045346687025,0.03097098090489945,0.10811695383422845,0.08875786688107157
69,-0.1440242035453884,0.023524290736296003,0.8054581687977463,0.12250967183796653,0.00828388082673475,0.09245492094823558,0.018113789303190183,0.15555762878575602,0.051103223825376166,-0.08208250321536499,0.26462915699363815,0.051876681208317024,0.11516074742602972,0.08915224832435362
70,0.054179255260743325,0.012584606539997262,0.6200545135184848,0.12717503732059302,-0.03179451469533693,0.03701839114300329,0.06271565919186786,0.14230140764258553,0.041360502191901405,-0.08434399218931074,0.2846241649073019,0.037287335958695454,-0.13724542384092167,0.09223573556348842
71,-0.2861946606547195,-0.0013959040513378139,-0.0778254504715732,0.14093374857059365,0.011199467020424169,0.2319781422996224,0.10120715741873623,0.14379965312579568,0.005426979433412173,-0.1400125711469003,0.210064218780236,0.01703713830550453,0.10133740298411474,0.0878570192479195
72,-0.5738184972586805,0.03126452790820781,0.7166195471012191,0.15167897299500765,-0.018395840674456584,-0.034685645260682386,-0.02411944216616053,0.13790235526731173,0.06797946466275674,-0.02441736039420519,0.19127440946401558,0.04095940084840333,0.1621235130413693,0.08809912371012855
73,-0.5241754069085729,0.0026877675681179648,0.6100850295334364,0.15179490760242054,-0.008007234476194123,-0.033383352694832676,-0.02206137024308531,0.12065817122423693,0.060967985204190216,-0.038085880419266936,0.17716108566833216,0.034329902579982634,0.15238917913947247,0.07156939010410587
74,-0.2490356548577779,0.01685533234144488,-0.8053395841642245,0.12116415232480586,-0.024997366887222188,0.12465808108091714,-0.03360140916735065,0.11316840436634908,0.023802233555558078,-0.09754320202578802,0.2292013866515195,0.046573230360476496,-0.012721099104173676,0.04059752368273883
75,-0.49339318633212753,0.014093491230130843,0.21915617724890005,0.10454712004108867,0.006058862080850624,0.08984942362155869,0.08075281296344285,0.12277217402151827,0.06533503449169895,-0.08206832460438757,-0.10820811969751053,0.05046688476343997,0.12421354363212408,0.06880519483403867
76,-0.41099837353669205,0.03645547827960626,0.15771447641183578,0.10303239116737109,0.005195789012334516,0.1528581588306903,-0.05822182972095897,0.08949894336323994,0.04195547719696366,-0.010870398026096968,0.06858074135190716,0.03801313048708742,-0.008048115686453966,0.0642987049916592
77,-0.3516613482028238,0.052344316523878144,0.18106735016242126,0.10933125303657985,0.010622782144591045,-0.055360068538808156,0.03880361342411358,0.1219837672564013,0.0562761949969777,0.148386982356655,-0.03860877602864547,0.00959229680837202,0.40988100888870377,0.0727001627311446
78,-0.33933185870182514,-0.032140379679962465,-0.2765908971038289,0.14314963033131295,-0.01261608946833854,0.1352633420431338,-0.021956175978264478,0.10426137423502738,0.02704228142821227,-0.1528866762635643,0.18551318852013673,0.04792257051660863,-0.1195857858378245,0.06166999980551027
79,-0.32961529459901173,0.04384326129433682,0.31598815312017287,0.15412923318440236,0.01531125070860264,0.034054173990919236,0.010161000998189963,0.10999377264643394,0.03971679873092063,0.04321878529686795,0.20125321815590058,0.02268463982483778,0.17032042154677368,0.0804591214484177
80,-0.4081625860973462,0.03729424250714357,0.3499853645406673,0.12480535661864763,0.03342108978447526,0.1123321841735817,0.01336848124961081,0.13076287549058474,0.044936372269757476,-0.13748678849712181,0.2094845120771075,0.04544144490997637,-0.024228473041910652,0.08572123630934231
81,-0.2841745211349829,0.054292822999181645,0.04213978714324072,0.1052495723399017,-0.02066962404241081,0.19341672874805205,0.18807486832113018,0.12078744384516171,0.044023119079905575,0.01689580118545519,0.05950622105898615,0.0537126123310047,0.03680270808688985,0.07427555148701243
82,-0.33865014369850693,-0.04325899218191516,0.31273813514744114,0.11474801295105573,-0.006623457280230506,0.12367925702279936,-0.0006121426138614029,0.1250802578653001,0.03900569833675448,-0.09380851321002144,0.27165432509878984,0.026933103442653303,0.13132243922450906,0.06541473414110756
83,-0.3637359038226933,0.12923588534691066,-0.10428324717863166,0.12753512349255766,-0.004653243299852281,-0.11139637479348925,0.03639540154672736,0.1664911416322768,0.03667341104988154,-0.1276170136421666,0.19824340531035653,0.0252930961858285,0.9777786477563791,0.07797698350171813
84,-0.3512155752312905,0.1378337085095706,-0.4410050013013174,0.14263481608550752,0.023843409613049617,0.0393628822230947,0.026830218215408878,0.14589285983683783,0.0503066996985274,-0.08819367250838842,0.17576437303984094,0.029607256517316816,0.898975722774155,0.08038253304160474
85,-0.2289422372188474,-0.027876352150607027,0.23725774738706296,0.10758043879384438,0.002141260821258811,0.4636944766910857,-0.05229120721560112,0.12319548836682515,0.05013966230220471,-0.02470725189847538,0.25446127736966423,0.04451103988908019,-1.1070617166789831,0.05359437516767087
86,-0.4870033217715492,0.07327351566662495,0.6096432045524158,0.11980079356891539,-0.019696430468060706,0.510464086488888,-0.01276347324071075,0.13131236661745316,0.02301497202724623,-0.133928051169625,0.2586902912320321,0.021689026137089413,-1.6051986778834155,0.06661146442619573
87,-0.28290100367008003,-0.07761997208289143,0.179438471126415,0.1321277342558949,0.01840035763936933,0.029801042126914496,0.02546543041659079,0.10542655128454473,0.023777564695634044,-0.08665571883848748,0.18159722284772528,0.03892236821668728,0.28127881898551865,0.09969764397965107
88,-0.3778928993817543,-0.07027424071491241,0.276381047133931,0.13144233812869563,0.013591300616760688,-0.012526204027112122,0.005822674373036979,0.09554619210064537,0.022623241277847105,-0.07845088571398356,0.20910385762106642,0.04484055723133739,0.2936800105868906,0.09475168062426094
89,-0.42597117649132343,-0.07920185574907668,0.05853738237596738,0.1304358595752412,0.0253817763132775,0.19274669371995187,-0.030839868074589993,0.1456602473427253,0.007822062544785275,0.02130047119823552,0.031153298612128403,0.03479102768729295,-0.23581844461398277,0.08116097944499927
90,-0.3114951296955113,-0.012542308256814332,0.3838722463619114,0.12166872268274294,0.0013125505609123728,0.16405244658219106,0.10783542342029531,0.1080525970458305,0.015163470869128035,-0.08271417556460096,0.1979577989293739,0.06460068463330028,0.16606359482322897,0.09033990440354943
91,-0.2698129549997577,0.06579406894681819,-0.12351934760962162,0.13035346022806976,0.0021876648915853743,0.12286906096335562,-0.01525209446399278,0.1549287049654719,0.03468834080706037,-0.06718447745465587,0.10205886411837102,0.04359903995685006,0.02503249217914057,0.07818215887788679
92,-0.4152650350710553,0.13526176846626764,0.39426567510514665,0.11663686985893863,0.017148946927149654,0.17012306619130843,0.014523090604449843,0.12430152099802234,0.050227235593232056,0.01814528240385966,0.10391886415219052,0.029709307723541918,0.15811605583547064,0.04417044155099284
93,-0.41481478732306615,0.045476385611618,0.07750951820392271,0.13523915675800463,0.02865100498039439,0.01517119458144968,-0.1869702468643448,0.1274894517843273,0.06292014486510068,-0.13009560376991494,0.0334273361178681,0.04664083295570879,-0.04856182445550313,0.07567557832022634
94,-0.4901226413778316,0.022921218223675623,0.29797749043306443,0.12304690406850635,-0.022243250612726164,0.02082725176503477,-0.025351555192095438,0.09008765354441337,0.04249154795774243,-0.12767804078707806,0.1567049012318087,0.027335291741840524,0.45244610235518656,0.100310543777905
95,-0.25501690972517244,0.06243230101778363,-0.24478444094863783,0.15168118262745517,0.027142657156846186,0.24958844909583192,-0.07560409982178953,0.1345236542331707,0.013784397820830433,-0.020403987839487193,0.057937251402296525,0.028812703242311725,-0.022037780926219098,0.079529632198427
96,-0.31891679880192386,-0.002961637258134285,0.16636357937699747,0.13137374161568546,-0.022398784938245812,0.1602681762387715,0.06568388170010092,0.09908864272937658,0.04649125207501723,-0.041495414152455744,0.10233804387289346,0.057540864160626246,0.11192902164024404,0.07868478314280411
97,-0.5334420298975213,0.005146207953386825,0.48222451557836654,0.1408293581344032,0.014291557142320591,0.0823082668796393,0.05537025550256046,0.12538252044860587,0.03223508873818254,-0.0242797988178504,0.06751233410706498,0.05647058449265356,0.030898120546129986,0.04661550764230049
98,-0.455835555640307,0.012270135163713574,0.07268401437893383,0.1393603164604303,0.021344792554670946,0.11170638030851529,0.002975465292194802,0.14267055246498012,0.041024988016790255,-0.05186647719466881,0.18589819256692722,0.053951288168210064,-0.023573450392366187,0.06898880294572278
99,-0.40849821259580243,-0.013397495523256676,0.10497075108050376,0.12774471424229636,0.017467243720517663,0.05479799626517098,-0.010798592157327449,0.14472178848084563,0.03515453101255163,-0.1282960865985326,0.17856521690937896,0.05758427593895473,-0.03661060471171284,0.07141075379176795
100,0.17966811767266477,-0.003026674138750518,0.2550498593100358,0.10135506394236242,-0.0037156778044994355,0.08121480939820236,-0.15985935558878578,0.09581066654707433,0.03974067973158869,-0.14835620234108254,0.16309127866822937,0.008149502864200998,-0.03394094550013591,0.07317685318792523
101,0.04210489422197527,0.056922609917922966,0.1853052696913756,0.11884757074891723,0.0016525937757460119,-0.027167453360985656,-0.11601441534082665,0.1339202019254315,0.043645695051048525,-0.0664514949949784,0.1752838272639997,0.010971383163382692,-0.1905575316407258,0.06557759770020541
102,0.07826936871438911,-0.031853063199707064,0.09635703326361639,0.09095554000875161,0.004596705923419497,0.2012905981023384,0.08656435462975991,0.11853123863228485,0.001820803122360168,-0.053887548472631275,0.10305269332637237,0.02918794511223927,-0.4897685181679988,0.06174893991868445
103,-0.29334423545604377,0.04493669689694762,0.5959055204497881,0.1272965810919672,0.03596948441941627,0.017024710154407763,-0.08073646787766006,0.1551405934353876,0.014907657503357619,-0.32419949615130156,0.11159977330958909,0.024261622841180573,0.15762817723488676,0.13269821707852286
104,-0.5150226172175739,0.0002731843859263626,-0.4490565474224223,0.1007671615640426,-0.006296141466749628,0.17700633076680444,-0.01574767157947116,0.12086970155997476,0.04214692489895134,-0.08402089469804169,0.0582181720025356,0.050832032254489866,-0.14281740247600863,0.09269903813124397
105,-0.304640566195363,0.03486989812239446,0.5719569601738785,0.1505021769397235,0.02196064460185839,0.13059157777029345,-0.08403110102437027,0.12815186411177484,0.05253314784538169,-0.06699877159974642,0.0718209712959023,0.014918250089052967,-0.11906664685411193,0.16238968722725877
106,-0.2818285348894949,0.07339235176696651,-0.3143757718748882,0.12441350577049114,-0.0015517063195188959,0.020895860147414774,-0.23192310568712357,0.10364878438555651,0.05478348683417996,-0.08005803341152591,0.1443846271876443,0.05820201156071689,-0.2463842878877087,0.08819004211641471
107,-0.47543726944922576,0.02626739025178723,0.12633850581955725,0.10215803017182896,0.022913925384365298,0.05064296082122528,-0.06577680110270588,0.1342884778308282,0.029662732194634354,0.16344006343425474,0.17410209164814258,0.020201570126962894,0.8621604431916192,0.10343357960207353
108,-0.28263279381374473,0.0462371447090921,-0.06324528824486682,0.15785082409916304,0.014559257725242886,-0.1641020106750719,0.014042644360035095,0.13309682282647495,0.02985772433905185,0.08103135526617472,0.2365620635593347,0.055413457938460906,0.4343037244108737,0.06168474050435312
109,-0.35838875962227723,-0.03618606869608807,0.13988707638219922,0.14117147017782533,-0.006878578251063146,0.0616735114216252,-0.19956959412330455,0.10397625691384124,0.04465431110172042,0.06735901580002218,0.25618718328777523,0.08033828504379774,0.0577009305332895,0.07476615271678536
110,-0.2617714862654111,0.002784003419644906,0.1610449739407856,0.11755756100481046,0.017855457815872167,0.014591536350145264,0.005776936071498571,0.1166157511834312,0.026690163441988032,-0.26642847275647796,0.28629211341349925,0.05236431364032775,0.17073828934718263,0.10873289945143119
111,-0.4338208280238712,0.034630837148599485,0.13509064419988678,0.1338583855111758,-0.02187183094872046,-0.040439046786209534,-0.10900383826189128,0.10265201624078153,0.052925145260360344,-0.03897796496365644,0.08968082327216052,0.04169186907431061,0.19862767024399183,0.06512658748021284
112,-0.2686753780788771,0.015329597692870041,0.27636108636696843,0.11545702313110169,-0.0061827511444576926,0.39476378908549553,0.039067119675386876,0.11320860385063182,0.03456217883927179,-0.07328888003563452,0.12578957836498184,0.03838210994252602,0.013411594672370014,0.04256927083903991
113,-0.4016541984438473,0.03356839379316087,0.10892679460839888,0.14376416348317864,0.014711683454376583,0.0004624918174273528,-0.04854848285752306,0.13837302958526101,0.06615257055749384,-0.2523154049340163,0.16028884260538756,0.0028752160285040722,-0.2754903643208589,0.12786010824593644
114,-0.35088804829136755,-0.036660752408626464,0.1526299925552469,0.11305012805817474,-0.003236841212730975,0.2908136877267606,-0.037280300129841265,0.14919141948720177,0.048264880064029875,-0.09274391396221561,0.1787969435193268,0.05629569349829481,0.03356136227738812,0.045749659799818716
115,-0.35139648962813014,0.06771000985249473,0.1264686711544088,0.12469645875845443,-0.015875885147426366,0.12262071960201726,-0.008493038816162106,0.1016118826285748,0.00702167972152496,-0.1612780307316142,0.16880082885418302,0.007040897449713196,0.35969658790920517,0.04869459018597711
116,-0.4236557433169731,0.08903428827001923,0.32755863395403306,0.11714775863892912,-0.026543142393492234,0.37271361833748373,-0.007714439320108575,0.13404725098350898,0.042284141126992046,-0.08380591215228261,0.38859099947311443,0.06161191366762563,-0.15986070141138012,0.028795555400377305
117,-0.35921900672619644,0.034606771273273856,0.36714425856281885,0.11282573087879318,-0.0040972947484768565,0.07933595787350366,0.08567366866431042,0.0946362865007079,0.03804638180719109,-0.09437400050041587,0.16053401184100363,0.03259624352685332,0.6130624888907652,0.11110855237521076
118,-0.41129998308813526,0.027316417000335068,0.057144245108423294,0.11851719243427382,-0.023444060790695886,0.1398278280671812,-0.00369397254841604,0.11331305559889282,0.030564543118571662,-0.08653034012159333,0.07795362691860692,0.07186554327591599,0.8475390144537684,0.071666492711332
119,0.06938502050294654,-0.007535839419603723,0.12169824057661319,0.09761979010618908,-0.02125587322247708,0.3385922759474693,0.02401151713022839,0.09888366547160375,0.033174868843433854,-3.729562630383139e-06,0.08298304894294793,0.005523777925088665,-0.8195845587390292,0.06082835566672778
120,-0.05740648597291848,-0.00497994802383373,0.13336192494119828,0.13338948040722498,-0.02262876203114794,0.44366634963632423,-0.07610044012295958,0.1211960253638538,0.0018468915411147578,-0.08592865576192295,0.2220660360373556,0.03402080995631136,-0.6477616498630412,0.03286500994169842
121,-0.32489831057824997,0.02793132062995195,-0.1875301918139935,0.1165047343055789,0.04110807327267034,0.010390604788275823,-0.013415697652620651,0.13182027951842012,0.048135686604577975,-0.0898367785176028,0.12212687142847266,0.04682342510107848,0.09067241049572461,0.11879268111012423
122,-0.2039292044179422,-0.04144171127943338,0.07872307512311198,0.10910798506661015,0.030329769682720692,0.08846213942511907,0.10207517372547324,0.12095068342294434,0.025139640500491542,-0.12759719214270132,0.10324434373890191,0.017579951776738188,0.27750340117039773,0.11924717531896636
123,-0.3804663648916355,-0.01471108809394678,0.3083983391177954,0.12366508422756292,-0.00197110130597873,0.029962357169541324,-0.04649275512646621,0.13925699366930208,0.09431574490200381,-0.08229132837189437,0.003141226167414825,0.04707918989427515,-0.0005189874129881797,0.08841096821862661
124,-0.31769138311667344,0.014216528580135952,-0.07857129042499231,0.1516265781861558,0.030333514962819517,0.2680097280906693,-0.0835027055657269,0.11327600191790634,0.03596046765355022,-0.180955546874456,0.03848322297788486,-0.016035493128921486,0.09213958770866017,0.08245022813250628
125,-0.329996379082498,-0.003862904300509919,0.2881286544539882,0.16608904937088392,0.006564658877886752,0.10356189986583883,0.06161060391821846,0.17227536755486444,0.03486568805638681,0.021749056001486054,0.2994562441565789,0.0447106002976368,0.3432921958109502,0.1203070978828626
126,-0.32300505706750887,-0.0014198761388438037,0.5016180682736088,0.13283381844976347,-0.007309796698658094,0.11201624777056361,-0.04534173458551165,0.14956950665762653,0.06318118922109647,-0.2920884658195139,0.300777575140868,0.0516755146688194,0.22881744446852867,0.10361409558565926
127,-0.341742583884536,-0.043120521671597814,0.32700197469912234,0.1298052683050419,-0.009056088707867324,0.034624935205291946,-0.16640464950892783,0.12735155820462735,0.042794268961208935,-0.13614840062665792,0.1779080349559191,0.0571643429952427,-0.14540807674310285,0.05959103110606852
128,-0.407905245694055,0.04519081173675501,0.18219856866477457,0.12482569383022317,-0.008507940966148294,-0.16962916290113103,0.22287356244263917,0.11261491226515677,0.03672021400311502,-0.0984032901941868,0.16919599441893562,0.02123731279278253,0.5660056510595571,0.05859781058851656
129,-0.2879702452380046,-0.05242833834004803,-0.0221474111229638,0.11238919652910602,0.00480435021336916,0.23017594760240062,-0.11030295772290888,0.13206002283833948,0.043249846179612084,-0.1002668049836104,0.12736103602631413,0.04622186787561583,-0.0941405413931508,0.04664094118067021
130,-0.15851320390908732,0.003913076820517838,-0.45119937915320524,0.1351385887450532,0.02284835970043642,-0.22067154483026902,0.13492528367344017,0.1355148646916553,0.04097393814050063,-0.08406548304690765,0.10144800279651468,0.02285818377567935,0.12389321091410152,0.08983338311638597
131,-0.4829155773402517,-0.005582933449316313,0.3009804376952176,0.11884760930101505,-0.010594006584726322,0.21929829209866233,-0.3392578815332644,0.151871703528031,0.05769308515604693,-0.11960694453085408,0.24832755064219947,0.05166754924900333,0.904895482555691,0.04234902639369466
132,-0.3496350339278768,0.05035263013305368,0.07577484794065548,0.11905908677832285,-0.029353092134834585,0.06239436383065649,-0.42546566749830594,0.10495526833199137,0.03377489991341482,-0.05039474862507412,0.17439735622277858,0.03056332966910425,0.8730692865959561,0.04622096192738424
133,-0.2870016653767244,0.004689639450145078,-0.16271121935622884,0.1317455864618243,-0.012751770806527646,0.07932888849219047,0.025357033498499222,0.09861516309283296,0.04846327320145416,-0.020819436781604448,0.10365792378362841,0.04284909034750631,0.04793589842384049,0.07735496653332291
134,-0.5739789687131837,0.05975323808446918,0.5097614490609464,0.1347686596141688,0.007650930829148173,-0.9622080277060998,-0.054013559841554516,0.1344678409734022,0.019491775071439465,-0.17030114037727756,-0.18804775939576285,0.06390420786955164,0.9527663335122113,0.09916877814627335
135,-0.24564975909837045,0.06426503694686744,-0.21765204643922684,0.11510744216345868,0.016910418826526514,-0.3441694262209434,-0.029105616125425664,0.12599066474687207,0.02216332444774292,-0.12412616985693331,-0.25273710112157055,0.04178099887919312,0.1378921597949862,0.04292951016125511
136,-0.3982991796277651,0.05272056382849588,0.28125390262389566,0.10369482880657237,0.009364380793530655,-0.5183179830930336,0.02853838778196299,0.1310198781222165,0.018350383108172198,-0.19825767204328754,-0.269402083797037,0.030830682649400868,0.275821066623176,0.010028568246663408
137,-0.3600627239308224,-0.0367966947869912,0.23763160906309894,0.1602219590090673,-0.01261715715573575,0.10943690198790046,-0.057560561334865666,0.10912467901768381,0.03762158081602899,-0.07449600186607278,0.11057241741469984,0.02855442924505104,0.06505088672730337,0.11813238970953338
138,-0.34895344889096447,0.042094395392051315,0.15256171377081054,0.1417590538626686,0.002846066448544031,0.1143480249117631,0.0820537046843399,0.11408831640536904,0.016194777416023,-0.06469422384525023,0.11339812183986367,0.028502915460384165,0.17754254055571625,0.08330698824447148
139,-0.34086093786140526,0.032587994505285635,0.3022324674468149,0.14801442125876635,-0.024526176413238125,0.03671562415712384,0.10707582078325846,0.13177500578509796,0.05101073860316549,-0.1035071143459757,0.17726499250350347,0.031950739617209574,-0.20163850869461566,0.10818277801537299
140,-0.1866386603480766,-0.0027845624532770205,0.3379338548128049,0.13663722948930115,0.023963720784220335,0.1276414896058303,0.038252970406482276,0.09532410609305117,0.02361061814837319,-0.10537573160367386,0.1953190207302703,0.03276473160110572,-0.8252300134010983,0.11672833939220739
141,-0.33238005643067436,-0.0332619908941903,0.25028117333376265,0.13408958833440765,0.03190312215412874,-0.013718299819794328,-0.042088457804612844,0.13111838702001985,0.033695543450969784,-0.04898513661825373,0.14516489982847058,0.06005927468704337,-0.1416802941225178,0.06768258726036355
142,-0.2509523934093359,0.041794966183497255,0.035254666264536695,0.1370422069455324,0.013847567576170403,0.1982375589923255,-0.01325015722438666,0.06802557525327108,0.01768873065289023,-0.02896887172367718,0.2780342554850507,0.0386114540666679,0.22034684633139243,0.04625219358143001
143,-0.3914517371057957,0.015648816631683483,0.13591562512993177,0.14635334337480319,0.0021514677260111373,0.10753009585120868,0.024634673100807383,0.07236270598208028,0.030562165272693318,-0.00035177741147322843,0.25483070946897635,0.029062138282858346,0.2889628332603901,0.0706004825806018
144,-0.4366066712329963,-0.029448189143901342,0.18798313405068118,0.13399268665911074,-0.018206696596559054,0.1387806579644159,-0.2633145636056972,0.14348466966941703,0.025863892120891813,-0.1509603738221295,0.29496567648654093,0.024447684898996656,0.278936065830466,0.05507997550397684
145,-0.34295478528033513,-0.0772015615799733,0.04240656430351158,0.12664544372653658,-0.021690757900333407,0.07701173049335246,-0.11216055737257696,0.13741207392407145,0.03366808197954925,-0.12096720243961315,0.24305564444974315,0.015453398387129743,0.2829958154691018,0.08382372311509628
146,-0.2524273573683306,0.013047168546888414,0.022250452693633252,0.1441753597853447,0.0062394509871000715,0.24281480565972782,-0.19264567348803918,0.10702082126427878,0.01828026060024585,-0.01800568921057573,0.08597099045006727,0.02431588879537388,-0.016352236204828598,0.05092068010081642
147,-0.3728481252006869,0.017753114407318738,0.25336929673988157,0.13616517308692305,0.0029166810120703096,0.5188487705319167,-0.24147516526537569,0.13822550445348775,0.02098519924007443,-0.12245614783284192,0.029388147671572246,0.03707150971200424,1.0704120768969156,0.12577257984473036
148,-0.3715399490688729,0.013028894922652199,0.019811476729080204,0.12110945072871164,0.004136048206107207,0.2576179428985561,-0.0663771394193157,0.14097773229103844,0.06741200935497098,-0.15084198324942913,0.11998148794840745,0.044709144581790185,1.1393250655060108,0.08013740132210131
149,-0.42569743654008707,-0.005440537710614535,0.20155401580183904,0.15232161866789565,-0.03483509438194888,0.006384085739925475,-0.004169025648489905,0.1281914572593412,0.022938324105898893,-0.06286058304239583,0.37270759895926847,0.05634109446870195,0.0808947877106394,0.08059109633361883
150,-0.1992016709431036,-0.017489743549722797,0.16059795917559586,0.12845935528259975,0.00026445645381337885,0.3938808117212645,0.004714288071817108,0.11176519057001609,0.05526728898053936,-0.09972213818029609,0.14860817458626063,0.005656048864804284,0.569537348000176,0.10187373795045074
151,-0.4220597413166352,-0.008882945046308372,0.30574133695382555,0.10814243502638292,0.01561026682769649,0.06229748827988746,0.03372315515324155,0.12529543330198922,0.04393814912117395,-0.08531606099209921,0.0801558675807093,0.028359322726735425,0.06841471320500825,0.09358958177039424
152,-0.26180702686528146,-0.046051630398340385,-0.16685690124116823,0.12130027515755183,0.010846809159781035,0.10387990030223133,0.052446475288597874,0.1360620450614132,0.04168834709442113,-0.03824147018646593,-0.019209058971266735,0.038113700934545615,0.11135459144778097,0.1009764794070112
153,-0.40255046963289887,0.03706424330336339,-0.38519179789031216,0.10731894852893116,0.014708829306315107,0.12520018351091147,-0.1560723586167037,0.16740827292452162,0.030364478265686078,-0.20592096925227027,0.009406461200716339,0.027015908009825285,0.3544707897263996,0.03482908979924001
154,0.007866495820112058,-0.04906560564643254,0.25864436491482246,0.14022237452288966,0.012250819066916859,0.0729522466370199,0.3270863158107201,0.12859330303199637,0.02810629431189527,-0.034339076954954965,-0.12872518718840406,0.04697261304073198,-0.647258966447221,0.10200529422712405
155,0.08586513710480505,0.02387038692358164,0.147822291280058,0.13559637545700387,-0.043393070502410286,0.11289461475811892,-0.67437101174032,0.1458804889344412,0.036817065327001304,-0.1864610089187508,0.005243056703851386,0.03092025437359395,-0.4868426918459254,0.053747100320924404
156,-0.5819442400637159,-0.025876999788539082,0.2596673614076903,0.14011918019610517,-0.01784608174358605,-0.16897692362759048,0.18253917378507986,0.14363634128106348,0.053689194417720396,-0.1135331503029536,0.015747692270604678,0.04410406573712968,0.30972458325816593,0.08614632319904306
157,-0.42273524537664703,-0.025820737581304876,0.003745249266226948,0.12850574840327786,-0.0008242871895249636,0.26862786305094466,0.1628618074703395,0.11352122935480187,0.04085154126498742,-0.21541887873632928,0.0762882403345818,0.04629052121610332,0.07720174769158997,0.07300714379400926
158,-0.30758961854922273,0.048711159211716794,-0.1143262069608162,0.11413710630503558,0.010815452491192503,0.30526564783201043,0.4037840247745039,0.13185430264990775,0.0186835304964969,-0.06070534733600484,0.14094878657616172,0.05190480260538552,0.32714195722555767,0.05040909715839034
159,-0.0747521493294913,-0.017397326005358246,0.6572885716697704,0.11531786595954806,-0.00629918792974913,0.035988443841239684,-0.016174911303426433,0.11061154080930494,0.06591476493104623,-0.09435518249940093,0.06543782997349244,0.04547780254946349,0.4351588947844567,0.06226575130571842
160,-0.34555810869553194,0.0438793624923949,0.14739675254547868,0.1338326700427998,0.010410421527309846,0.28022282749905614,0.07323656011335722,0.13388989907112425,0.015062145939246527,-0.22378740185572252,0.41289497936139086,0.05635511157964884,0.1389619374505529,0.02803905080577658
161,-0.46795963116086964,-0.027811198317433797,0.011313594043186664,0.13207628642179775,-0.005657424273491416,0.1325878420194707,0.17532047334078724,0.10223887948073863,0.055039842268647894,-0.10291241524100432,0.2600844973862633,0.03275155724761389,0.2198726055782908,0.07522998178931599
162,-0.12907724021464592,0.013258883199381608,0.660902525162659,0.12603137908138018,-0.009530146595074566,0.3087767778737296,-0.07141275313429457,0.1311000502588604,0.03842374757284965,-0.042035125337248,0.19221421773432046,0.0428371950030079,0.6010720165315913,0.082264417093635
163,0.16369950803368746,0.06581015483093397,-0.21029475970845085,0.12385355178795801,0.018936818655787332,0.06941314536703458,-0.27847026297516964,0.11965609599103058,0.014999813912313763,-0.1433436836389544,0.20663768045332187,0.039298272812894185,0.39099295079673346,0.07276614128929039
164,-0.5122696672968835,-0.0129340571894143,0.8201895626478917,0.1626780081947942,0.0010780550478357,0.8551476441508343,0.04079193000450244,0.14011885423313933,0.04192723038370576,-0.07022016807128159,0.13796418292268084,0.019562313479393,-0.05142549690206571,0.08456343277576071
165,-0.21119583299436187,0.013465688960032918,-0.0005278533343558648,0.1123220096423574,-0.021628350768762877,0.15729322593380055,0.017559002424986498,0.08410320912804731,0.04510091180284171,-0.14505973120539864,0.07630811364143009,0.05051306449580008,-0.035722560784531794,0.07761801002377754
166,-0.30957179724771783,0.0049719764124658734,0.21163736710254302,0.12079342990759158,-0.0034637760909208295,0.12314626697013543,0.45015080980320443,0.13670171249170082,0.03556555644241227,-0.10358047663496142,-0.004807093362272123,0.014060878278863206,-0.2836042927271861,0.102311033265513
167,-0.33740053538756737,0.03295923033504588,0.09720612522520913,0.11139384498363426,-0.0009557522327985595,-0.012022112976745833,-0.012963237221693378,0.12077115680260256,0.03806772415430636,0.004291309599681555,0.20603550735988188,0.03415514851989961,0.13040507773328658,0.0462042335897983
168,-0.26142064880746313,0.007101144383037911,-0.34074004582261813,0.1444303574117288,-0.021300421729187922,-2.1676696856340336e-05,-0.012395088516151445,0.17250743615924347,0.043237816914724954,-0.0017695222597989043,0.10606074923306397,0.0356654524749271,-0.15791880602053537,0.10124917450136565
169,-0.314926677304525,0.006759363004107483,0.5270019766035307,0.10127963771492354,0.00786744550858917,0.21152132792464354,0.16986891492547182,0.11965804072959497,0.031163964205255648,0.01884953388550342,0.1551568419770156,0.04636562231448664,0.10338580512728851,0.05213878194736579
170,-0.3251953464587129,-0.05562035351114201,0.13502471599810553,0.10221212040587167,0.033059818102293685,0.04787114391112517,0.10168772903036177,0.1301669336182606,0.019547071966620984,0.01688998568215612,0.20265516264828431,0.045965899493200096,0.19325033770635297,0.0972284386310455
171,-0.31384831863720586,0.05382094475984996,0.14708720274488934,0.12472258550193,-0.004703772059688605,-0.0643853970987904,0.007506397252755664,0.12089681060881403,0.036719791972744026,0.2472449057441123,0.15654747260661545,0.05414102870407985,0.18579419793769167,0.0553392867264862
172,-0.376931330720104,0.0491553404267438,0.5886981275512261,0.12926926498099597,0.015516426225518366,-0.03755771227272558,0.4737625374985031,0.12554873538445127,-0.009071574416462232,0.12496945686626162,0.013570390467337531,0.0311310190244634,-0.11513124463383578,0.08443389352233731
173,-0.3787073256757118,-0.0012969444602800074,0.08323378584638903,0.11483262136662527,-0.014463060950186906,0.10351372301983479,0.3103262898199576,0.13138504301400677,0.049618762242483565,-0.09264012879740027,0.05201740367383891,0.03586243283306913,0.04295098532968731,0.07212081391335491
174,-0.3644487337399516,0.019189087558113955,0.11313810989883104,0.13225108636138108,0.0096334234515067,0.09062941613006793,-0.49023298142815785,0.11406803855551718,-0.0004995075366849643,-0.08852736143877216,0.17383211239424914,0.06386780073758984,0.3091776954057622,0.055737032439339716
175,-0.3977261682573905,-0.015133265097885082,0.21747768735924303,0.11970769130452909,0.004939867052312937,0.06849630975567733,-0.07459655456923193,0.13393296427043516,0.053775973430260575,-0.04302369684278216,0.22225848997094272,0.05196940556619884,-0.15524045110270768,0.11919176148211555
176,-0.45610246215569655,0.004868052196074901,0.174785698169818,0.11927160050620507,-0.03188465159375887,-0.10528340729814298,0.08259454565765317,0.12910033380658162,0.030612285462245373,-0.12862111903631088,0.3041369281179237,0.050138320641893275,-0.052942172101473554,0.041161654330506135
177,-0.5114052071764897,0.021901545951128337,0.29948059259054244,0.10268492780590134,-0.035595694308750286,0.13359015426967188,0.057748495002128176,0.1350181101152898,0.025936004918673233,-0.09622414491252725,0.26355022704079756,0.025161398942784328,-0.009016509271377596,0.04243780188789161
178,-0.3813956917367762,-0.012038542283568151,0.09941579714685173,0.14165991381006687,0.027209412867517553,0.09162885141507705,-0.13102009837204548,0.14723208481369177,0.042701901875080085,-0.1250992040651344,0.10132458144776983,0.04919106364117948,1.3564468633499376,0.09849634285625147
179,-0.04317243887396685,0.04846016768780159,0.5233537721829444,0.14568033492348803,-0.008278026249853196,0.09654543704780759,-0.004842119622312115,0.10662287258606078,0.026078107602763235,-0.09079436020787811,0.11632933406003926,0.07160901843351472,0.42166563678386604,0.11022779453532355
180,-0.5958748294072174,-0.02701717059740211,-0.23412133639320418,0.10799972160154091,-0.008771537980315674,-0.11066861184037059,-0.05734964151151819,0.13570547553400403,0.05761207209938433,-0.15048407166884759,0.2835596238570283,0.02298918412308307,-0.32111649161364003,0.06649354727668774
181,-0.18903635386400183,0.030290155098182007,0.9949271019274966,0.1392981942097674,0.019068662030074218,0.16603115474638722,-0.07424193371589627,0.1192019397300827,0.04212228822257584,-0.15877084814826486,0.17862645685524797,0.05190418707184057,1.0554226287624984,0.08183217407966044
182,-0.33035774323543093,0.0011305154338418558,-0.3130614709387267,0.12865870946809813,0.03978090475176882,-0.1850068186580587,-0.06574734459948663,0.14633471757074326,0.027928114456849697,-0.024905464873000355,0.28192250343448416,0.0006348696497068055,0.31434164198484493,0.0713384416398484
183,-0.06612696556033423,0.007332848512224188,0.40379788975316955,0.11821123066338535,-0.00475300530905496,-0.049340055995632244,0.04233413462596047,0.10883538299994591,0.02639747224131595,-0.15248424191839816,0.08548992698501678,0.05674566114900137,-0.16202842721786395,0.04161514474156513
184,-0.3078121690612297,0.01383849592429999,0.03801706027249807,0.12001408616273805,0.00451271902715176,0.10257625496390539,0.3447025290338696,0.17659910643284446,0.027888102928338408,-0.1634480179509717,0.07566463570906837,0.0318435173165787,-0.2699866053296187,0.07801946033034597
185,-0.24314019029179848,0.037729008739022865,-0.15215265635624883,0.1250402456703226,0.01767577969831611,-0.22293319026412178,0.24648851913004588,0.15896569622827003,0.01112719747321237,-0.13511528910135934,0.0667496166210041,0.04342282832725017,-0.13447936315093562,0.06556233024367719
186,-0.3456226189769662,0.030995203882585278,-0.35061934363570213,0.12904193392989238,-0.011321235614893909,0.1337067000700376,-0.06510358242159521,0.12752790554874427,-0.0020330519320608613,-0.06833447315996957,0.04386179806664986,0.04115360271979751,-1.1932333553276364,0.12263896576990295
187,-0.3323960829384529,-0.01595572901917644,0.23696215425315106,0.11631330472212123,0.004408034371989255,0.0812012519649208,-0.014701385336652741,0.11937237314981637,0.05494378981396235,-0.22309558678612437,0.26283874472386776,0.03465806785099941,-0.22670342755627426,0.09338353821999223
188,-0.1795428323827735,-0.05381060866239982,0.3483143085092527,0.10759918476258219,0.0019564074070149338,0.09852356027986102,0.041901130933249146,0.12710530789978627,0.05191033723271631,-0.15526316688854183,0.23046085134508532,-0.01505409506972347,-0.2594680404363661,0.10654077048025347
189,-0.008704694331174814,0.028177508690487605,0.03824572615186708,0.09397117850305933,0.030319213045511606,0.062167336030318036,-0.6599491181163277,0.16011122269670897,0.023923066239982457,-0.07801164520040275,-0.1340917549262116,0.015652307886810435,-0.9501648003592083,0.07553142748783592
190,-0.4350213796239419,0.03029001150699586,0.30664476707131394,0.13655795279100924,0.004902328446929273,-0.16107733625842918,0.11641217125629948,0.11853889792733369,0.02493623280342026,-0.21406128702445448,0.07320784134442275,0.03311965839463093,0.149149602470225,0.08847055937294783
191,-0.15203384272334586,-0.023911892098553645,0.06914944882439711,0.1371446468892895,0.0030550051582262975,0.06840630647783875,0.04436333478807575,0.1165466067247693,0.015048405554934988,-0.09430599152222302,0.05261767621081172,0.04220840508112526,0.2334361249845632,0.07678111870542907
192,-0.3325031372111351,0.0477788218277145,0.3077591714918324,0.15929639478984,0.023398122202287337,0.14073072404737005,0.029104230404526286,0.14558698718441615,0.05465469306743518,-0.06608659673789836,0.05175415874258426,0.026410293919973238,0.7167250062985734,0.08777554889602354
193,-0.2765824744830357,-0.0558670030725317,0.08738583109229245,0.13225168419990588,-0.029976661949100685,0.055975688016593174,-0.5871881446387037,0.1511266919993864,0.024822310863308078,-0.1545402357614516,0.020934780225087112,0.06917815555668634,0.18574577699260056,0.05377301858921283
194,-0.28707801857038956,0.02728855428833198,0.2215974093634505,0.11770650807320564,-0.037604198145913884,0.07385775534966484,-0.2576072422293498,0.13912942364407951,0.022300875325414547,-0.14567742180472915,-0.003363334261654533,0.04676064568705019,0.044248276786361104,0.0677759693789939
195,-0.33574476236539025,-0.036719999460824417,0.3560393347930823,0.1336918306634915,0.013125273649972647,0.0937632046946829,0.05774026932145562,0.14632480678022786,0.037716226357789956,-0.18566958507865722,0.07143627528307851,0.062222325344870905,-0.2703798021400163,0.091179943080916
196,-0.13988842812980326,-0.011256779458753804,0.061599248329818855,0.13231492386714253,-0.037990588338254326,0.13742903374227478,-0.3976372492366189,0.11032124057400511,0.009360733817057815,-0.11299447100566248,0.08962354420257296,0.02065119652078353,0.0864681690632944,0.07329762871607932
197,-0.5318148535188423,-0.02546813918395589,0.26929528251078344,0.12404031058838935,0.010044531372724944,0.31781461598260113,-0.04025212985944714,0.12191312786460419,0.027453059944455845,-0.14114490708359353,0.3705784949697931,0.04179373819912029,0.40495739215498905,0.11835086967490943
198,-0.3549201791973458,0.03970928844944501,0.5353035019170389,0.1253358706965934,0.00010176222020340128,0.10477219813836358,-0.13905322728987168,0.14674310395084936,0.015526988597320978,-0.09364555146341265,0.18883743090784047,0.029019408300046345,0.23613967228084384,0.08320064135330686
199,-0.3104642622841468,0.033126436105885226,0.3001971407810976,0.13305040843614505,0.01657493472113542,0.11028656328951232,-0.06345850180044808,0.13557884463219272,0.011842851311077101,-0.09720609524815746,0.16193708638711823,0.03284749752552453,0.08002429017627127,0.05975126078979552
200,-0.4223812252605533,-0.0510874436485946,0.0653151964079106,0.1466114704436146,0.010873551533990264,0.11097124652485105,0.10764745521397945,0.10359231172076017,0.0629388259638935,-0.21718003303421277,0.12377630615125705,0.028971511702699786,-0.3672318161987391,0.11514831962814416
201,-0.31331370271383385,-0.015636968545292642,-0.1608561138138719,0.15315376736923594,0.008209763071696125,0.0349868870618473,0.04845915381331809,0.10562345498659834,0.0637879206564328,-0.08498844644916817,-0.05924727944356418,0.03278477098340417,0.29636216269076066,0.09182526602355207
202,-0.18801140849726616,-0.055703024674533044,0.09947725365788845,0.12771449033532817,0.007669479745034047,0.10180091251375048,0.03915106353696538,0.11117826389890838,0.0412151773029472,-0.05925287926597624,-0.13928367260828337,0.04649013489781316,0.0054629511581532515,0.09230934880072285
203,-0.4949119400758448,0.00709109446209771,0.2785140553100783,0.10799681041585803,0.02964959592609967,0.1438658463899774,-0.06880614355465445,0.13706965662896106,0.016869142261109443,-0.0986025233885319,0.14131985810207368,0.02640862538867517,0.18876109094700239,0.10792129746143252
204,-0.2438131951617952,0.010304604078703448,0.06009378239477521,0.140019117943629,-0.006157276348933811,0.03324684496646842,0.012883116483880777,0.11645473019869305,0.03651729900495108,-0.15182995244695566,0.21209285537754355,0.012166984013613802,0.3017918466591625,0.06699253664102567
205,-0.4107980886152758,0.06282467855539707,0.3954424720011678,0.11741654916022441,0.03224542330511328,0.11327942836927886,-0.16046457663548663,0.09253861142946318,0.029350477635996377,-0.08749631343975729,0.3041657137087871,0.005788055079382664,-0.1166782153741573,0.08257609328159826
206,-0.30106865121491866,0.027182872000866873,0.23974741479664527,0.1399124436999595,-1.703724686303837e-06,0.15223369106286977,0.11484570655699095,0.08983537518451111,0.032891811925698164,-0.1924824354815827,0.14131287954825106,0.04093505840064342,-1.456537129868398,0.10677951954387216
207,-0.29931675362210314,0.011905149128824932,0.13835195885281903,0.15553631925001396,-0.020974979995322014,0.005229424920838426,0.18844974719885704,0.08563126891763172,0.0399918309391697,-0.03557031025371809,0.1278645649981461,0.036808245188238845,-1.3297932625331477,0.12059148864006884
208,-0.359452652210518,0.016333377298932226,0.22628214530874008,0.0998389580662157,0.010700712251766381,0.029397302070702513,-0.11961519875394985,0.1276550467129954,0.012328520035672608,-0.06008802045180116,0.12209358413089118,0.039804893120161985,-0.9612935307743674,0.0939185654899604
209,-0.24425894384267316,-0.07294213880864357,-0.1072490566345568,0.14004251240388088,-0.022960288852973076,0.11587819476537561,0.21405560407485066,0.12417093546403057,0.015697215401406252,0.10466736980035415,0.3225711561586512,0.020330118756703118,0.7673101350959193,0.07149618699419104
210,-0.5147028752657338,0.12730321984208298,-0.038052401535998,0.13886431010053082,-0.011161642253405123,0.13192361797554258,-0.04210726104671665,0.13065282511184545,-0.0028307226135387336,-0.009269596451888382,0.21255872196744854,0.03409167208574625,0.7036025346708253,0.09077372648057963
211,-0.3243134984041704,0.14307846908794217,-0.595804416642935,0.11961928217248109,0.0029812197174799103,0.07427857329777356,0.03299553060696394,0.14587795260967656,0.040116702963672375,-0.3108105583329335,0.10195785888826861,0.03798630275309738,-0.0880975814149973,0.07853606594359724
212,-0.22353160876091951,0.013555167030901254,-0.24808063508304642,0.1460774797446397,-0.007098708816323077,0.13627380554933252,-0.05312779969957802,0.10757678126245113,0.026770166769306422,-0.04838583671857469,0.2980927271383095,0.07039132099590877,0.07989088875397143,0.09654934654004535
213,-0.35866301265662,0.05090255228560963,0.1531607765510261,0.14660370725971825,0.012120082555879437,0.17707924603226036,0.02270058647621149,0.13222412981569714,0.033554939354841905,-0.15392419523387324,0.14330489443734848,0.043584088210577,0.03817137147511613,0.0958053831922545
214,-0.3507885336798021,0.01951794189472529,-0.5727380243429604,0.10692909755084802,-0.028058822850317817,0.6781883846469766,-0.04355335786692819,0.125514779179233,0.015624732544429488,-0.10812687451753426,0.20435220937562135,0.018624287178825926,0.2613483700249791,0.08433763110491845
215,-0.27385171363828475,-0.02161522160405722,0.2556528818223977,0.1510091944501234,0.02548534827982906,0.03439714563167996,-0.03615671064829644,0.11551889774264264,0.03731823519282176,-0.1304927899087499,0.17069095605827758,0.03004590223625724,-0.1334277258877638,0.08272911804226256
216,-0.32942084830415064,0.04218305064792904,-0.13713411309864687,0.13658774287962952,0.0038626681365660376,0.5254583747077701,-0.21706289171530732,0.15491754650987866,0.030738160939627553,-0.09086147317826834,0.20036759917877908,0.03241669786771984,0.24071275099348854,0.0653055742462931
217,-0.2884391100153023,-0.01800212863240531,0.1051647298366589,0.13829367047426958,0.021458584120982817,0.4951176936872574,0.04727809740185677,0.1197263815073468,0.035724908031417965,-0.11717540366393606,0.17527337827531794,0.0445352218383995,-0.05765975392013606,0.07171891258550991
218,-0.36950600203609746,0.01651519330619628,0.01884729262818421,0.1150942980459108,0.02972510961274896,0.09449362377388547,-0.19272857824903714,0.11447316745208397,0.0282218562652573,-0.06392214982238252,-0.031188874230880646,0.033945436223701796,-0.41805239310541675,0.0854894266153901
219,-0.004666086235326697,0.01879539901227466,0.3491420139549167,0.1501134439803367,0.03069087597510076,0.15401178076473823,-0.3718251648043605,0.11379749815073552,0.04528434674164866,-0.09154544614048736,0.10103857385347918,0.03363247122436483,0.3732440241359511,0.0888910746698265
220,-0.5097768084034561,0.00597254026881061,-0.2623257368051447,0.10458279107109891,0.0006113787129714262,0.12921388924670313,-0.01361516720588096,0.14735155152891302,0.026213742089383627,-0.04770145317133416,0.2816094120249986,0.050008207441529534,0.06498938239294134,0.0842330926664245
221,-0.2163261934396609,0.015013913279826117,0.3427134283771701,0.1299254605647458,0.019750667708855026,0.1984030345866684,0.006111193723046132,0.12599166666419315,0.021252315879771472,-0.0829346790527891,0.24807198135223088,0.006363045418638242,0.30053348072596436,0.08596481096325613
222,-0.5970620058129894,-0.0093505603077144,-0.04276522271260871,0.11881119652926424,0.02737678185969257,0.067024073687129,-0.15519701798077973,0.12985772468946735,0.03077775839948614,-0.14357828502559922,0.1810201987764985,0.04668742756070214,0.05519209146031737,0.12271704078902868
223,-0.5721443020148879,0.014948987603720204,0.02424577811124783,0.11487668185933735,0.02247525864154974,0.09104221921251208,-0.5103673229655941,0.133170526601642,0.009193176886827067,-0.1987509044363216,0.19149457454939547,0.03098728090266211,0.16593994580911225,0.1078230114458319
224,-0.33540833660493446,0.061112326168870086,0.37270231423538186,0.15290340228028637,-0.018429844835699115,0.4165273958658191,-0.026891400533474316,0.10395244330781864,0.06244180739894049,-0.050729183840051734,0.18087449185832993,0.02431406443799798,0.28982327208288483,0.04322103135833102
225,-0.2961231395339573,-0.057658367040358004,1.4363285163245465,0.11734481336201157,-0.01246223599384572,0.13173631022218762,-0.0056540349785374686,0.11204299891906735,0.012788877482088996,-0.1409078553790221,0.15106737512449617,0.018289828723986132,0.32489828454031594,0.1349171961093672
226,-0.4111782169695491,0.04703909720544168,0.1748929067771122,0.13455784432199375,0.014259938219429624,0.03570207872459728,-0.4471987939484765,0.13291172550098906,0.038368674744193317,-0.03351963634145436,0.11923635790252983,0.04696007622872821,0.0644498153340273,0.1713207773833922
227,-0.31790520044464365,0.052670286282622554,0.39155529172158215,0.12341532919052724,0.005278637127593858,0.03877613087678608,-0.3224348204256407,0.13475459144618115,0.0232716707550691,-0.05665485955538246,0.011990352073474646,0.0459532513172293,0.05559978172842313,0.18696751495001754
228,-0.3080792796700447,-0.032054857176462836,-0.19445679397557253,0.12996675049769252,0.015429680297808833,0.03103091474786278,0.06079209279759642,0.16415338133202492,0.04452230485710558,-0.11481528715046646,0.16906087527499103,0.036385501779640644,0.5268389080541555,0.09259723311417613
229,-0.259282560442155,-0.009574933557458518,-0.07358418069701425,0.14481093402792733,-0.003299487908012902,0.14226933344341236,0.061515155099809975,0.14334058780805078,0.059574459269688726,-0.10355188776897827,0.1875249853049367,0.028467742612165593,1.0460721107097979,0.05836148162276535
230,-0.28354574314295633,-0.020387525092117737,-0.19143491092796305,0.14505909058960628,-0.0023082125574091267,0.11026906318181086,0.08780516593183565,0.1434574687819715,0.05919473641768906,-0.11308648498160369,0.179872769789716,0.026119571747197347,1.0480248699425383,0.060589755310525066
231,0.38782652777544013,0.023667714100947052,0.05636235713402891,0.12898036312828567,0.014946758901342665,0.15700054389548568,-0.007659991318844819,0.14135494059040296,0.012024854930131054,-0.05744927943257851,0.18636138584852574,0.06349810267216933,0.14155457902598173,0.09917157558212301
232,-0.28916578735628823,0.02767095574358313,0.17962296379629858,0.09917179815443795,-0.020639998790923757,0.15633014783593027,0.03978402601456103,0.09195720524139166,0.03972666995724302,-0.07965411263355933,0.1692286112936423,0.03631422799165244,0.5320954788800144,0.037318715295824645
233,-0.3322956010740222,-0.04453983353816169,0.15258391470907107,0.1277777258474246,0.0008240293973701998,0.0913371939974605,0.166805284692383,0.131769431682241,0.0429586535925499,-0.06536252199582178,0.10511751509759747,0.06032310260839206,0.19847870003056584,0.11164972604429833
234,-0.4503008000585619,0.05316334372764273,0.07226491457383855,0.11383904459895362,0.002595243242542535,0.14763206597948778,0.10575234015953229,0.11901293489374432,0.029421392529945415,-0.05042025028652666,0.1631282444447326,0.05042605305436825,0.17753060122041311,0.12020080998232716
235,0.18400243665123756,-0.10854541215229634,0.6294146512012583,0.1298325705320462,-0.004818675007632279,-0.03735134322405654,-0.348484285128319,0.08987786849126544,0.05507788745533398,-0.09536688823420354,0.11792728237010221,0.012694616266134495,0.30209059466726224,0.02609100266795377
236,-0.4715031976839072,0.06464435561873923,-0.10558467465950441,0.12646862312588714,-0.00758982392405162,0.14801872436877792,0.12936327205216555,0.09117243014120222,0.03783021447153413,-0.1425749134298864,-0.0027859031838005123,0.017588181276778976,0.19511408806962405,0.10178368177858296
237,-0.6233303263658008,0.036591130161837994,0.5773923111245183,0.12029665828927713,-0.0016373541091670872,0.19795551562595282,-0.04822524903057805,0.12955299928731157,0.02500969885016688,-0.04916541226185836,0.16998656367920617,0.015371703112350942,0.32473716546762244,0.0836227990702397
238,-0.5504614832639634,0.036615408445181005,0.24639915100330634,0.1228648559022379,-0.010137886539509667,0.4577556917604783,0.06494167541961288,0.10601920741663515,0.05718958774097328,-0.07849787129869414,0.08091703657632428,0.043308040089783076,-0.32055631913581756,0.04467697449684073
239,-0.43275117617550707,0.031885845457164295,0.18697977363260404,0.09030498584715477,0.02179454861010319,0.19700666962122265,-0.02306209776495097,0.1837476603209213,0.05504546991792307,-0.12016297473044735,0.15751549113740487,0.05878232686413617,0.2982197106721589,0.06970474388234872
240,-0.3200076885666568,0.049886670566720415,0.01281809536182893,0.12694541017731897,-0.01495515662650615,0.6365999043620574,-0.018730971131793773,0.11700119122988627,0.04167621611732196,-0.3363705754536807,0.08168133118076308,0.030542044871253008,-0.3076091909631377,0.09182520314976635
241,-0.4256806218323268,-0.015043686966425041,0.1444509379725722,0.1323494219837359,0.01438172620788269,0.12494132952687703,0.01481824720862847,0.14487501874145084,0.008637965077121619,-0.15585292337914358,0.13773612059772172,0.040451440506714835,0.05109030587741628,0.03138880213478015
242,-0.26416220365580245,0.011695030680240012,0.005573683583668852,0.12055987898215687,0.005960219670834047,0.055809017568337026,0.02642544649008922,0.11919186413467918,0.036156243460064116,-0.14353876768620924,0.15847167819609312,0.04154841044681101,0.14261256811940876,0.05559545089045028
243,-0.2701978291383808,-0.0347958893897479,-0.18510768070646405,0.13467523819937186,0.0208475092909084,0.11867831199601647,0.08784281290581211,0.09746011398747802,0.019042100567094888,-0.10336175220721533,0.13065484691091903,0.046137544680408454,0.4284210170648629,0.06551733898138556
244,-0.49390543425662903,-0.041522105087844645,0.25171807797900636,0.10469621952976235,-0.022133146339081845,0.1465410076634206,0.1565332822605192,0.11725972706105084,0.05350313349497072,-0.14583276903027836,0.1720515540255189,0.05090573725898178,0.09829278748008524,0.03570219066893495
245,-0.6845797669678056,-0.08295930897227263,0.6238007173108415,0.11003921149807265,0.013502324505196377,0.1482109327771716,0.2292439253175966,0.13642333292926365,0.02823544218185171,0.01991446518720728,0.05041682347066531,0.03957970307442049,-0.21539506449901716,0.06487149526077278
246,-0.6921253439866605,-0.07401362390088813,0.5585328855903751,0.11813538929039613,0.013897881214884712,0.16435254472114072,0.23441550422279123,0.1371549048502097,0.0322679496505338,0.04856840330149051,0.08279650339322031,0.040259437686393056,-0.31962032095040727,0.07192366960693293
247,-0.3266338391816534,0.022601957404362147,-0.04098163020316379,0.13498642392893653,-0.010594477539991043,0.06870387400466643,-0.03674493337058092,0.11209766943155151,0.04926636015607088,-0.2681287501039373,0.1773746515250538,0.02876272182633659,0.3046956281949065,0.06858121972948185
248,-0.4472046701230776,-0.00812159536806654,0.17704716316664046,0.13104712290414627,0.03707043469076266,0.14140034114197178,0.2750834400079841,0.1473368357142769,0.01428965545301774,-0.023634273369128028,0.2241845099470951,0.037730205818898785,0.21157769037533022,0.06322759947071911
249,-0.2739740740497394,0.0015888464176923923,0.13081290818083216,0.13720565197119708,0.012607709314115189,0.05315055008683569,0.04493574004449719,0.14732630983847694,0.012907859583924985,-0.06189960437677546,0.19507977845274904,0.03873658527374535,0.27514626255372343,0.1064809100325861
250,-0.37220811209130134,0.023648596260800972,0.07240616178846444,0.11104533867947722,-0.02021577860202055,0.12760577795455832,-0.024359782567419903,0.09224399904664438,0.04991240575813685,-0.010067101221702195,0.13290860714834768,0.028526353776922867,0.09082181892780086,0.08903258035542565
251,-0.36943694491220164,0.024785958757729085,-0.21927081540067234,0.10211258601800466,-0.013532313939925088,0.0952363928555893,-0.1423473415320871,0.09886148512815607,0.07118451079459064,-0.03735143667106947,0.16908678824905451,0.023843961971165627,0.040026179436442974,0.10298452901582497
252,-0.3667214120056905,0.017585666437231535,-0.1508664752702192,0.10312232663071144,-0.013901558574666755,0.07629138885676058,-0.16219839966235539,0.09437798022451756,0.06774935569373321,0.003680125962313752,0.14924894606108224,0.022057037082877578,0.17492172085059807,0.10094507239903389
253,-0.11931965749460603,0.003333258281021588,-0.5716289866992753,0.1340259147461851,0.026320461028832533,-0.03329195396022357,-0.04013471665980083,0.12463191557548912,0.07417275399677983,-0.15067588956745667,0.11606712757918444,0.0808969921165985,0.9224168978709393,0.09567738456675735
254,-0.559375053370358,0.016338464658676468,0.37258950916729244,0.13909604702833991,0.020080598473818323,0.06482814839155453,0.018979692222442383,0.10802147199391483,0.02019194355592149,-0.00848395618915931,0.1673863878850305,0.03233004106586612,0.1828774248665547,0.02325970384268257
255,-0.2081947481192931,0.05896080034048938,0.22806236397417387,0.1338402103982046,-0.014476873830706338,-0.29866877820931614,-0.011884432482903416,0.1002414802146242,0.025967807875441177,-0.17062031469544173,0.13279089444054665,0.027544625293603485,0.38794030925842365,0.028880558346608975
256,-0.4917526526389553,0.02364205531700949,0.18746324636256456,0.1284383361162124,0.025315878061471907,0.11786634704403214,-0.01505178214045869,0.12988837035525158,0.028751165418439396,-0.02858010415919336,0.0506708080738085,0.012391969014091125,-0.055868548986846504,0.12115952553088435
257,-0.2579768871845144,0.021787271980161373,0.4098948193730034,0.1385532317171009,-0.044391738715950264,-0.34260000186477296,0.07876661312143275,0.09940067927087474,0.023685662697802878,-0.032497525127006065,0.3238189014010918,0.03645419401981489,0.09284635093782279,0.060986259069086
258,-0.3346650147687395,0.017855688740133865,0.05290242451257912,0.14644046797439866,-0.024298668177165486,-0.5657996466623952,0.10763898694032552,0.11539674480608825,0.04275286735585596,-0.02663479134747511,0.24006090656270462,0.039540005276499215,0.08530262006014377,0.047012189068490855
259,-0.7504962929529756,0.03766918036413609,0.0922464774236518,0.13557401663601681,0.0023522607517675593,-0.15519860431135715,-0.06479851127545092,0.1457952237906243,0.022046269950151715,-0.13417149325206595,0.18982507959724437,0.003842628821414235,0.3779618184808046,0.06941060979431694
260,-0.2456539163444797,0.03300641036408324,0.2611038767508685,0.1228318290140426,-0.001021462399129546,-0.4671011812841847,0.035803704268263105,0.06903907145663275,0.03169878833415457,0.14800395951701992,0.02716267800001577,0.03346523973804776,-0.14228834090759607,0.10902178566996286
261,-0.417396448509232,-0.08668416263933576,-0.004770754197806728,0.146944565899937,-0.007310129938883083,0.24741519782387603,-0.0678528163791738,0.12629760596708298,0.05050083037715349,-0.08995869311418818,0.20404731681361837,0.04239340627761464,0.2842382521579118,0.04702819757436888
262,-0.33584479491326136,0.11315678370452262,-0.84544379606401,0.11408232278782587,-0.02664446852892291,0.6592267149723838,-0.020161111721873192,0.14262713224157925,0.012444427522325555,-0.07951390293592465,0.23617194053904578,0.05654948912891251,0.4516002450066201,0.04648180215127675
263,-0.29650936769030134,0.010925397478119159,0.13917357022316706,0.1387772384165427,0.011622199141935208,0.08419893175552912,-0.0844519546238297,0.09928089116222086,0.05569427482286424,-0.13731632938451158,-0.05013436460759132,0.028036914572847755,0.07454081297831149,0.06062544819981742
264,-0.3285390023501405,-0.03629165081512746,-0.12939783944499833,0.17856111158166435,0.014612667970024897,0.08515757380355016,-0.08623879512286065,0.10682074442510871,0.028388813875224787,-0.29762640410693414,0.06511823642515024,0.054039958732363017,-0.20708786345968688,0.06681151216261036
265,-0.40467045280547015,0.013813702652616097,-0.06683019628984428,0.16023679108426664,0.02199258142900589,0.13324076780249752,0.034582643544425536,0.0995456259772656,0.03377358810899144,-0.3704419956307309,0.0632547201040582,0.04595106354892528,0.0864607071907068,0.0889485673123572
266,-0.35716871350730933,-0.14114859523304638,0.4719856396888388,0.1385245365565956,0.012404546272358277,0.12884445709750184,0.05978228312299067,0.13493106318326584,0.05994232113799565,-0.15318218836908062,0.12039055562829341,0.004585068454591508,0.08540531123559571,0.05325407513870796
267,-0.4670313818939789,-0.14512216156306473,0.41337045426238606,0.13742176018819452,0.023889092099025618,0.08711220702258522,0.040345219471192593,0.10951224501708134,0.0640347938208323,0.011982850514573944,0.04350278482835341,0.030756323120475246,0.06341985972733294,0.07184916201395604
268,-0.22340777768821926,-0.18439416918369908,0.5297530027178464,0.11328036645146289,-0.013207564118481873,0.09089748477095033,0.07013257733863949,0.12654131992278747,0.04873914136011329,-0.13144951138134153,0.2253039106640179,0.012363706819435693,0.7542652751364085,0.07209923418393936
269,-0.4572162961940036,-0.07487256339591455,-0.00922671291978025,0.14354941569473237,-0.010581469894895633,0.10586053372819722,-0.15663129769161474,0.13193897230992704,0.035771627425973285,-0.09616959402469374,0.28075741444599883,0.05928268869278169,0.6229137846176378,0.11807092244856814
270,-0.5380458616058327,0.004563383194277307,0.23240190915011186,0.12776538656953265,-0.01897126133847758,-0.09004661566075964,0.10691497072585428,0.12084427394404622,0.057833611086715746,-0.18125302730659254,0.25794597393737384,0.055872557432678036,0.23580010132456758,0.09584673755355884
271,-0.4013448691886804,-0.001449871890382906,-0.07406637741127169,0.12949699974363213,-0.028942448143907753,-0.10861889481492643,-0.03435495654162488,0.15224032390379863,0.04902253629836329,-0.20064926652366208,0.11229455853883726,0.04554947209969853,-0.33154330312435915,0.09884983524471433
272,-0.2587265651582774,0.0033148155842397014,0.11778023161342399,0.10366831202921593,0.0012309454652604686,-0.10687894238249644,0.046227346997413134,0.09330409794507825,0.03362705797484634,-0.03565741311829313,0.09577026378416163,0.041336533335293975,0.08135705779019997,0.08599202943828534
273,-0.3379013666367748,0.012715464869961937,0.22448468050987364,0.12874342174431988,-0.01395235701615962,0.09407399695797182,0.1635965307774565,0.10729677912857478,0.02551664470237236,-0.10335744003652822,0.3299380436657259,0.01722671171158553,0.1319703175458611,0.06657620833627736
274,-0.6472708298322003,-0.03213828071759883,0.29099868722244604,0.11981787095692217,0.007701574601249619,0.014571343881491054,-0.028501846713987037,0.13154203131735814,0.04942083552110471,-0.1156513612406196,0.3234516193694142,0.018369321849340012,0.26846202285429227,0.11358150341701886
275,-0.22746652097409428,0.04232731860624913,0.14968080103791245,0.11365095630763893,0.0073739474245042395,0.11770611893164763,0.250453077064326,0.0873198861985917,0.05958118888567653,-0.08465401901526359,0.044190613179761855,0.029523743825719408,-0.040818709232507,0.0419183247794377
276,-0.3221378685651288,0.045650294509559534,0.04277421593552841,0.11995424596082241,0.02263582558413896,0.06211332643583465,-0.016157500192296954,0.12690265568876774,0.016151987577331686,-0.1065067442937059,-0.07830281106168487,0.05557906562364751,0.22411082935172763,0.04737718869486725
277,-0.3432106252400438,-0.027609613686490727,0.16740486261734902,0.13387164531576476,-0.02105134357503362,0.37588858341274994,-0.050588009518621135,0.10658383858920846,0.05868570396359394,-0.09425910213148797,0.31766858498010225,0.03653420927422306,-0.1326130511267258,0.09768699319481998
278,-0.23409574973992642,0.05780927975159765,-0.07865865858105088,0.12223237454632531,-0.01927371272570197,0.10052671974719744,-0.39412511631093733,0.1454227162319776,0.0325324726859,-0.16016279903492955,0.25236660413714584,0.019941194835405806,-0.14676006194960303,0.09830583448423888
279,0.03362732007381041,-0.01957728128618405,0.4738628728889628,0.12354710246341763,-0.008441029216820993,-0.04454354449543508,0.014360637459497927,0.07717487747968667,0.05976326577598051,-0.07537964737630361,0.2213195751270206,0.05130586703593057,0.6652447360850905,0.08996305699172483
280,-0.21201420838495874,-0.04587258262162058,0.5410005353918421,0.13035790053086388,-0.005586130930428132,-0.007220185266342336,0.031800728021400645,0.07085521940970113,0.03554211945857506,-0.15552799109684387,0.29201694342429835,0.048148206381883905,0.27923016033316334,0.0658311398174949
281,0.13209027209730453,0.03043751652196882,-0.43148228112671805,0.12369488374830172,0.004623184825640794,0.11253195456399027,-0.08991084017029666,0.161123261265118,0.043414766076003426,-0.018076121624047772,0.022004023442199223,0.031055606320128586,-0.07961043254298909,0.0925067617303805
282,-0.10652660394673447,0.0764721852435904,-0.3759524154544649,0.12051836923123405,0.02155075003198227,0.10177003093851127,0.10930212123073967,0.13080503294558032,0.035683551687655,-0.061146150270478414,0.020883745473042604,0.015639526758187458,0.1748267885758846,0.1063491284194418
283,-0.019080448641924395,0.07481875974759866,-0.18497823607240058,0.13872681909067308,0.01889201729166474,0.1604350058048989,0.017622715500237536,0.1340121196117264,0.02738085009102298,-0.01006448528578647,0.10338209243689263,0.019015243355608034,0.13342789312807418,0.0999941136901207
284,-0.397551761132517,-0.03758679049677405,0.15387830868622118,0.11536060281664515,-0.006610128313858512,0.08921691153289152,-0.03378094714872346,0.12171051063365086,0.0465023161594717,-0.13367541236007652,-0.12263888324291551,0.049765045504481256,0.13603041597871024,0.07090242082218333
285,-0.25762522988913195,0.002392240402020745,0.2366129037361485,0.12305890549086385,-0.0014805868282826036,0.10659482482384784,0.16476207011894647,0.10074161454101205,0.055616268874810824,-0.024296904594898965,0.06796200463962135,0.04062950565290142,0.36161486412636434,0.07080097113812923
286,-0.37320513998690136,-0.013261235013033949,-1.1650982585665761,0.13090049682688407,-0.03651022061898238,0.2444723690738104,-0.04334298066181968,0.12915044347198074,0.03317120220118597,-0.06759231438125385,0.01908428952955829,0.03375691279721698,0.24754453669333062,0.0651897293704268
287,-0.4111903708564044,-0.029336356616784225,-1.173468384363114,0.12124696808354152,0.002411001710412741,-0.09364769143775763,0.05100865327796472,0.09489908040205525,0.0761717319086801,-0.015628723258357496,0.14898509063664594,0.04976069610613635,0.22759547985512352,0.07548044434969177
288,-0.3467175026348516,-0.00721335137009183,-0.8859526930674758,0.13385025672331188,-0.0011086515989950677,-0.23792091635459803,0.05271342461557798,0.10851617230550975,0.07370445519200039,-0.14882827894882453,0.11623084443672184,0.04665448208643077,0.30073782188327547,0.07359922133566582
289,-0.34971054552319475,0.041457427125877855,0.057150581054456036,0.12981314712747954,-0.006571870078647908,0.4729923217098027,-0.045622899223709185,0.12234565176238908,0.022515057537731257,-0.14334306659641433,0.06028899685210835,0.007516383673246475,0.05468908074736769,0.10735835785703325
290,-0.28894928366510175,-0.004234420739783495,-0.15647798055900936,0.1330516279534488,-0.021287845479610722,0.5090476865370991,-0.07334251312251001,0.14237383777842416,0.039901814940106674,-0.11935049408544113,0.1202787816557877,0.02737904898904565,0.1367353005107724,0.08097243117161433
291,-0.22167402351665524,0.007628716245294302,0.715069799560354,0.1449275276413424,-0.014120860687028133,0.33262281523498344,0.037332703360289245,0.09417987897572565,0.044278797469628685,-0.07953283362956733,0.043171471135128245,0.04813520872733827,-0.8576375311139152,0.0572586807057839
292,-0.36145233571754426,0.04421604189164635,0.116636115424918,0.11132363204768797,0.02959625714258151,0.10054795651358203,-0.04734295991332318,0.12218302302269161,0.017590041551724642,-0.13088935682927422,0.14488663690603712,0.02579416291728137,0.7996384082184634,0.04321852031874539
293,-0.3532031474915977,-0.0275802033449787,0.08383524819389736,0.09778567873857626,0.0025250254172190195,0.13367376301237632,0.009805918643975797,0.1464173129877343,0.0017383919025759631,-0.2348683103926576,0.23155915835763305,0.032982368424411185,0.8345531138919174,0.04651916327265192
294,-0.4938734082625107,0.014315921484698698,0.6063695954821182,0.12233431143749013,0.032721539872349124,0.07922507322724366,-0.017987404896735226,0.12288026789855229,0.024273170898723537,-0.07191550213920073,0.27344839787804887,0.03214702745230632,0.1058126033722668,0.07910489178738064
295,-0.6404346078057549,0.009851732232074856,0.05956387169358172,0.10872672657583064,0.008319941320528174,0.0657169383209272,0.17552878882400014,0.12725274266614423,0.04397599164420353,-0.08326341494010212,0.38358566277599904,0.0740401351764816,-0.5062897874275388,0.09594529884736289
296,-0.6250075481372566,0.03826409082339923,-0.3629758584282155,0.09396543146227436,-0.0021615502488268137,0.08043368789140425,0.07335618376271874,0.17168581211709308,0.08474113933303266,-0.17941374512296254,0.37324271838234047,0.04142858258243802,-0.7839522644707198,0.10250735450297141
297,-0.32100115793598083,-0.03804166113624271,0.46022004332974525,0.1623663269991408,0.007013485644197162,0.012925130108405456,0.02912232306134811,0.06017366256189755,0.018457085955522236,0.12974358505761976,0.1858068982673217,0.026978172181360754,0.16540959913438955,0.05584549162924293
298,-0.32574886061109803,-0.012366649733281937,0.2402185366313211,0.14294918159372763,-0.015729596825119395,0.07447112614386758,-0.6066228994243871,0.10446907479092911,0.026771137429551433,-0.08678518265655472,0.1639602976534526,0.06874618695191238,0.09759267389251598,0.08077222032838868
299,-0.4079243614091158,-0.027572688403508284,0.31049623664827236,0.13743793492718542,0.0013733451501680579,0.21420382487415784,-0.32475118489453925,0.09793487664254114,0.04008424913988549,-0.08385195474585135,0.09803944184196542,0.030710685413282517,0.19503511396260131,0.07719124328662622
300,-0.5550175531354344,0.018037917326627864,-0.08072778712233283,0.14462697430644295,-0.014457299553267132,0.14679219372296345,-0.36459733842273834,0.15007943159342046,0.03960922223679754,-0.15610100705715643,0.2325449805778086,0.007061001661525683,-0.041860933110972214,0.07754985924049691
301,-0.08822441951993457,-0.01810701187987854,0.8819634845712229,0.08782790650761006,0.02603086017804157,0.16480828262049155,0.0421276070106294,0.09495853046774795,0.034779197600112985,-0.05106913806310839,0.17739288392511945,0.03325104818256096,0.1495695712293944,0.10229300188718284
302,-0.591825733287513,-0.0018556173555921245,-0.05825583902539725,0.1083625337101129,-0.010361953951860856,0.084778188289507,0.07397429792508187,0.135884769558651,0.045098085382769784,-0.09892616022156933,0.16060297986938013,0.04418905373444373,0.2619571236109789,0.13147258375765292
303,-0.5191807639912112,0.09440064447899278,-0.0836214715479799,0.11060733811918384,0.017815931108404574,0.09117289535986305,-0.1386342980919373,0.15709133330898836,0.025800939802394663,-0.12759628151589608,-0.019032150454656425,0.04207493725017421,0.30722752829214445,0.0789365579285803
304,-0.31298799747487605,0.04683541828392647,0.13133234096436394,0.12056474576503118,0.038089115369762956,0.13336375161047945,0.2512763415712499,0.11090574040433962,0.06334910565208315,-0.03941663202644968,0.04269109201979299,0.049933882175381236,0.2598121911006851,0.06641245953261281
305,-0.44585682694161155,0.030114150946092197,0.055170939882321954,0.0900077230957855,0.016068332409812456,-0.048776694679439965,-0.08551502928356793,0.10096998380422464,0.04472578781992765,-0.09455150432595402,0.15042867362395215,0.021805791013185444,-0.07618104174132,0.061604060485892224
306,-0.3817295586062316,0.018141891766400547,0.06285409471766762,0.1248982119386821,0.01699274993468471,0.23459120149206933,0.03409963807238453,0.09986734787672966,0.05277146514259657,-0.24606307192150698,0.11339799182236711,0.028782576490336435,-0.1421647550307112,0.07060601914952204
307,-0.3308322350727111,0.03694864568471415,0.17932192382013468,0.11618011849909761,0.01079344384876228,0.14461788372952258,0.03955982117353451,0.10127901284041971,0.04198642561242244,-0.17470695122042965,0.1387039928880174,0.02220286620319817,-0.13834311902532145,0.02153670776256789
308,-0.32136033777809275,0.028955751852325327,0.22984465693464437,0.10656485499961589,-0.00250821178482979,0.07639360985956674,-0.022258296567992844,0.1369840025227474,0.03108865286819774,-0.07078673417631867,0.1714556886260792,0.022246421285526275,0.11178895828045098,0.10272791854173491
309,-0.36440778915816685,0.024939847913994954,0.2638687209035089,0.10590497945851107,0.004383820888795711,0.06212612183701156,0.04435868451166766,0.11872780271047415,0.03647486808420528,-0.04719298573233678,0.2157954627806053,0.02144437710376709,0.223181721658944,0.10065567254504817
310,-0.5686337849069217,0.03351060955475058,0.12242522614400807,0.11940525369740579,-0.022930955276290365,0.3209104861588456,0.24974487588765018,0.14132539966969182,0.023082962822496236,-0.1926421181051995,0.14419090498263692,0.002175873156509529,0.12301247572998633,0.11245569670171682
311,-0.38193556478451757,0.015518664619431664,0.10807813916822578,0.11583113752980959,0.005011666211869926,0.22190491749787428,0.1551463272161426,0.12107718212871066,0.06267484895822734,-0.11893127749961274,0.18895200983385294,0.020138150390816706,-0.001198532699102399,0.09312021773339862
312,-0.5027364995105978,0.0060619120242804934,0.40570186948981235,0.11903969075971692,0.01411638989164028,0.1424962672900674,-0.17484083715751025,0.13187178182281722,0.02727279379471132,-0.13416956836701233,0.13055071436308704,0.05338020503789864,0.30251567482518543,0.07703676471075867
313,-0.3489012167814015,0.057404235754104124,1.0732053483411963,0.09581727092418488,-0.011196998936073317,0.022632938720504515,-0.13375127045881555,0.1199506490045618,0.04287618316213754,-0.13105008956367462,0.1823223034601846,0.0447656961955736,0.022356016969132454,0.08170269056775752
314,-0.34281257298367085,0.10053553841051302,0.0665289240094118,0.1325003926755197,0.018428553516514703,0.03418432028185134,0.7035660736197863,0.14073382782796656,0.05085064386813167,-0.13247865734174522,0.09981752093711108,0.005575466921531875,-0.4656303606705257,0.06257453622696908
315,-0.4125978630548679,-0.019570074265108074,-0.38111725019235854,0.12439469285461642,0.02373558414464204,0.03051369692670353,-0.27854688638340624,0.08383668316420144,0.054908807304387415,-0.10278787892040224,0.17839318508680468,0.04874583012193985,-0.010886422480663932,0.10423451340231243
316,-0.3718761453273164,0.015620574062955044,0.12741752392402572,0.13585450916121017,-0.008137952710184188,0.13309971665780992,0.22968222147486303,0.14691925667027406,0.04143474769961376,-0.12945827239328364,0.19450565076524035,0.03454124197135796,0.929053457755984,0.0737338503091195
317,-0.3518967837180667,0.02161177494673952,0.23290476644893163,0.1105616302364018,0.009267047055834851,0.5002209524869424,-0.065767960506753,0.14208205549324884,0.029849875154374376,-0.07310108084452738,0.21589605374602636,0.013736660080876357,0.05386223373859932,0.09768797940799101
318,-0.35056199763995716,0.003145899430824997,0.0611371321753675,0.14184822837057923,0.005683585368749132,0.04307052406505012,0.06514314196933736,0.08868462665237327,0.059965761246426115,-0.14103127889577932,0.1584015151656661,0.040191632912743996,0.1902804264743064,0.0481022318166377
319,-0.4636789533941721,0.0033001392704245696,0.27560341918382497,0.138880116027212,0.004911711676468478,0.11086184740142657,-0.021414667149366077,0.1211363939562923,0.043437080878357376,-0.253434530565723,0.1241496490595934,0.0463962544816707,0.47724075044222514,0.07678457446524155
320,-0.40316682150896865,0.037661147689341604,0.36224678535004645,0.1408006828350572,0.017312545902676935,0.18668037443159072,-0.08775100533196864,0.10409852945554891,0.03801684670695521,-0.11160515887314351,0.154086556960051,0.025741886032205234,0.41679328961184053,0.06273511538485592
321,-0.48116638107216747,0.01845248965548464,0.09852416993742967,0.1397572415111052,0.03768579965679728,-0.09136490258879812,-0.05738522582595896,0.07062030984889914,0.036445015303215214,-0.050375843304211514,0.11040110445818116,0.04859178421599854,0.9670597017306442,0.045200431034286226
322,-0.3780240857893918,0.04089196661443244,0.42307204276184757,0.13801313576667537,0.022132889033475513,-0.1326312603431464,0.04537158283970965,0.10490005047416046,0.02244045156473234,-0.1390626411216882,0.14280328032881734,0.02256527982804071,1.048618335440161,0.0812178607304705
323,-0.27410830487368054,0.013989000049077658,-0.15697735770164073,0.10322359655328876,0.005312188027812776,0.1646619894862557,-0.12160055531167267,0.10113367072258124,0.037356759731672594,-0.05928634626650068,0.11587026903543261,0.03244205922600283,0.7244016375133934,0.03174375373176448
324,-0.6339779238765412,-0.004856161764977757,0.5198089618325905,0.10658445779941285,-0.003769294863965537,0.39340317564924543,-0.022001844478371117,0.097555740717806,0.04594974787521661,-0.11450167287463554,0.12484115772205175,0.02509543898012326,0.6758933363952464,0.08908676744234115
325,-0.5104529341046606,0.0026381124766570586,0.6137689764687249,0.12391736249506632,-0.002161292981493869,0.36865260070025224,0.00540367862436277,0.1028017337858593,0.039168500983599225,-0.15808363073486906,0.17744108323302712,0.028126612042993996,0.4169936902197408,0.09805353069452791
326,-0.5608764563900582,-0.01802768255225365,1.157012966065656,0.138279644497998,-0.012923007632466857,0.4683979131766269,-0.06970352760496377,0.1137495476744243,0.036674070675508944,-0.15214851265747098,0.17838123415905746,0.017913051765593057,0.29234913913493854,0.07744309423199508
327,-0.36723950885267426,0.0028891293371520062,0.579803465840287,0.1238963874992372,-0.01697785592390797,0.007489043410879409,0.024617846065187753,0.14840153978687104,0.04177360009336361,-0.06628259534724043,0.29123016272625746,0.015602526741245485,0.1979898779118945,0.1287408733753027
328,-0.3262093420560563,0.016429664446233793,0.10467012013417167,0.11452515820191228,-0.009653110525197019,0.10527268059496832,-0.13675128915349416,0.13920882580435368,0.044714541757575804,-0.06882434279433139,0.24050686458149823,0.05067609554652012,0.19945780911484373,0.08342038720034194
329,-0.319501017900648,0.03211938653904199,-0.39528536609125686,0.12095190668960926,-0.004170039232346698,0.19059285616653981,-0.33774406569754734,0.16031268910355795,0.03026681502010826,-0.17414421996299762,0.21485068985082628,0.013982666824571725,0.4008218780340981,0.10005678303347403
330,-0.3474563665071711,-0.02113771704379534,-0.049919148615690016,0.13088324181303754,0.016023306085508008,0.08357718129902904,0.02768856357657749,0.1227712805705894,0.02578683520903591,-0.1684058559627308,0.25319235668032186,0.011645011069018153,0.14152539516412743,0.06085805190065075
331,-0.43905349925339926,-0.023748581142150525,0.22100517368825934,0.09183964362667617,-0.00915223298057936,0.09046296094690973,-0.1163538947770452,0.10893106562666102,0.045725874567675885,-0.029609633632742133,0.2008974995124763,0.05436117303758284,0.5601777647842778,0.07380179138259697
332,-0.44186337762147004,-0.044097014286267645,0.1897177107238469,0.10426861794762583,-0.00630289339631113,-0.05947645157098423,-0.07790052655295739,0.10436078300307729,0.040469435374816655,0.0404357262399973,0.14515171869909813,0.05913462929497705,0.7529299236964354,0.0496216975917685
333,-0.5097808941969526,0.016866100611137483,0.38124931929280453,0.1183532757891717,-0.01859513215195168,-0.07084136214223075,0.30998266689007936,0.1605988466829473,0.06039485758650702,0.2889436428161257,0.1774671584201198,0.02282205636942605,0.5380213013035373,0.08429789665810296
334,-0.4166053906306952,-0.08902757194918526,-0.2541993336170234,0.14073208418387906,0.016732531418704292,0.23061403990714718,-0.7799851056018531,0.11710876910266613,0.02037572260646612,-0.284829806815414,0.028439383593229707,0.03886943679217806,-0.2826255213206847,0.07090063163477571
335,-0.3446246852489095,-0.03053539379803663,-0.20182521779532497,0.13648257008616638,0.018848431394917348,0.15424920911015064,-0.5069610863273455,0.11996148564543714,0.024296563235299645,-0.21485971368927242,0.11176148870620019,0.05302381113724605,-0.34578869127299217,0.027091294079756804
336,-0.33339758066773484,0.08030639782161762,0.2511482145241785,0.12140804400116584,0.015031680340312869,0.07948268330760752,0.8809588737252431,0.11002727373091278,0.018342239088767327,-0.05235667739793913,0.2642875274092795,0.03808208927086769,0.5186673273759624,0.10961662930672539
337,-0.29593567511943647,0.05390922332898766,0.2771139818741894,0.13102227788724585,0.0002828664255995625,0.13216283843123838,0.8404756941216552,0.11344448299514523,0.012592022432623303,-0.07822714784653248,0.2057008620764773,0.0386144647592784,0.5432387329739926,0.08556387349147321
338,-0.4332525980404058,-0.02115211658905865,-0.3082987698946664,0.141682346353226,0.0023023952245268303,0.19645020845521516,-0.06886739363355689,0.17430092975162126,0.015123106567629364,-0.11123899779088939,0.22372744199703598,0.05140522700475969,-0.45440223436122096,0.05335828075112665
339,-0.2673409526408362,-0.011043273586006586,0.050582975804820816,0.128765936678688,-0.00504640908276895,-0.024109595658397424,0.0992106744320561,0.11219067132879396,0.01317358494892554,-0.06232697716581054,0.20559604904182996,0.01760748021407093,1.235522865810592,0.08015454050958362
340,-0.39366272456953044,-0.002082425859263849,-0.1465409211086459,0.12897719689819176,0.007672439847028148,0.1633039180270547,-0.10369464528373057,0.13693621432377506,0.017764017654290285,-0.07783188375667514,0.19599054019339263,0.0550993431244559,1.3296173694836668,0.10194429293759646
341,-0.42491703992872376,0.004609011350810441,-0.07917541874394485,0.12185861448252264,0.010790813359331757,0.1592247853154122,-0.11657365787291113,0.14512959978274437,0.01701942002533345,-0.11655280674673256,0.2104295856470391,0.053562060102060285,1.3242983084341273,0.1022561785768391
342,-0.28180429517320926,0.005681650581523722,-0.034205325158192454,0.1092521468924096,-0.012839543712461229,0.345963965878429,0.10277142340396037,0.1475653931006797,0.03600764356039723,0.05212868419986057,0.16335285064720584,0.03677441700318892,1.079321008078089,0.10149745233641105
343,-0.22744844520272037,-0.04156810997418474,0.15516438913845854,0.12724160618916486,-0.02047704891732994,0.1729766722402606,-0.1124049592402939,0.11642979757652742,0.03817456395210979,-0.00968739683583617,0.14784925094658122,0.06257135815998605,1.4915073663668335,0.06926882442577982
344,-0.7049241367192247,0.06376767430030462,0.21169473977660663,0.15901952990853604,0.001221596170611099,-0.0017820122328583178,-0.10290218791048597,0.15267275425143714,0.049478770689237735,-0.09494356520549567,0.03309760533635925,0.029760900082594584,-0.22456637147695804,0.04632170657997684
345,-0.4383417041151598,-0.02164629303182736,0.22525431271892432,0.14568131469882944,-0.01550391433279919,0.10281167647622333,-0.5099396744530392,0.13548832903339508,0.018514791883239626,-0.08709236202694935,0.06913919241560952,0.025874792941030036,-0.9167046027956902,0.06785571223508027
346,-0.2630071003667894,-0.028023574581122236,0.2406673088664461,0.1229133523003065,0.02212070352607211,0.1613697843514977,-0.24521232983536126,0.12012280963280113,0.047517537464917034,-0.14133984335292635,0.017114864800985775,0.015601953870546947,-0.2527268248665893,0.03801890680437326
